{
  "neurons": [
    {
      "index": 0,
      "output": -1.0,
      "input_connections": [
        [
          1,
          0.0
        ],
        [
          2,
          0.0
        ],
        [
          3,
          0.0
        ],
        [
          4,
          0.0
        ],
        [
          5,
          0.0
        ],
        [
          6,
          0.0
        ],
        [
          7,
          0.0
        ]
      ],
      "bias": -0.08148538,
      "self_activation": 0.074246444,
      "retina_weights": [
        1.4619436,
        -5.4104943,
        -2.894661,
        -4.8476334,
        5.988063,
        -0.5355921,
        -3.0677934,
        -4.537811,
        -1.2944212,
        -5.5786414,
        8.488546,
        -4.376504,
        -1.8048849,
        7.630621,
        -7.6951313,
        -2.3424091,
        6.4649143,
        -3.3373017,
        -7.6771784,
        -8.343322,
        -9.251785,
        0.82248306,
        -2.947578,
        1.4980803,
        7.290167,
        -4.0213175,
        -1.3420048,
        9.115406,
        -3.1226892,
        5.769619,
        2.3676767,
        -1.5922155,
        4.771305,
        5.5848093,
        2.270712,
        -8.410411,
        -4.105615,
        9.100227,
        0.26627445,
        9.412977,
        -2.601945,
        -5.0363226,
        -4.467873,
        6.468622,
        1.7039738,
        8.717972,
        3.3316412,
        -7.587635,
        7.6760426,
        -3.0069513,
        -8.815939,
        -3.9037914,
        6.0134087,
        -0.33407402,
        -4.5346494,
        1.7413435,
        -2.8455873,
        9.839224,
        -0.5037441,
        -7.7995157,
        8.35972,
        -9.704089,
        -6.494438,
        -2.1826973,
        -7.2671337,
        -0.8540268,
        1.826025,
        5.025362,
        8.311474,
        -8.691096,
        -5.2897687,
        1.1723938,
        9.182062,
        -7.183423,
        0.06546402,
        -9.259515,
        -7.62249,
        2.6632586,
        -8.671858,
        0.35034752,
        3.708562,
        -8.776197,
        -4.6295805,
        1.8808565,
        3.7938442,
        -2.3772755,
        -3.8242693,
        4.5557775,
        6.8830433,
        7.927515,
        3.0622425,
        6.264374,
        -3.844387,
        4.1240797,
        7.8716125,
        7.3707676,
        -3.7275286,
        -2.38835,
        1.3654623,
        5.496539,
        0.23266697,
        -3.856389,
        4.844576,
        1.7383089,
        -0.34026814,
        -4.474289,
        -4.8338814,
        -5.8411283,
        3.2401905,
        3.8941326,
        9.92457,
        -8.626308,
        0.6440582,
        3.6851225,
        6.606306,
        9.15547,
        9.932846,
        -7.3416634,
        -0.358984,
        2.5212088,
        -0.3889122,
        8.196568,
        3.2341423,
        0.05023861,
        5.8323736,
        7.281248,
        2.9012194,
        -7.2045918,
        5.7782907,
        -8.752799,
        7.302021,
        3.222393,
        6.215624,
        3.895608,
        -5.2412505,
        6.2701817,
        -2.8173037,
        -5.7720847,
        5.5642166,
        3.546897,
        -2.1816125,
        7.105505,
        4.667903,
        -5.761065,
        0.16950703,
        -6.347005,
        1.1311684,
        3.5182133,
        -8.345291,
        5.9949055,
        -2.2113004,
        3.5369482,
        -0.93456936,
        -3.3114834,
        -9.07387,
        -0.8968134,
        2.3624334,
        4.3789253,
        -4.298095,
        8.810343,
        -8.055846,
        -3.4626884,
        -3.3671136,
        5.045459,
        9.49794,
        9.096777,
        0.8228359,
        -9.383742,
        2.1503696,
        -0.78891945,
        5.8491554,
        7.6078053,
        -9.890339,
        -7.7499104,
        -3.4951777,
        -7.1261663,
        -8.6300535,
        4.4467363,
        3.4104195,
        8.479572,
        -3.5168762,
        -1.2397232,
        -8.637571,
        -2.906887,
        -3.3054466,
        3.1433306,
        1.6355314,
        -9.4597645,
        -9.041163,
        -1.9227018,
        -3.2685966,
        0.75405693,
        -1.7412825,
        -4.37787,
        -7.4738216,
        1.8086329,
        -3.245103,
        -1.3482018,
        -3.014011,
        -0.31406593,
        -2.8515835,
        -1.0355415,
        -4.4117565,
        4.229125,
        -3.2280488,
        9.791508,
        -0.10959053,
        3.8209019,
        -4.0754957,
        -9.815087,
        5.4136314,
        -6.007921,
        -5.752854,
        -4.5707793,
        6.8980694,
        -5.5593605,
        -8.351323,
        -6.123013,
        4.308239,
        3.557497,
        -3.8110418,
        7.2271786,
        5.6992903,
        -8.848655,
        -6.821327,
        -4.8831363,
        -8.903768,
        -3.8387985,
        1.4323559,
        -8.454027,
        1.4808836,
        4.22155,
        1.0322132,
        -5.843446,
        2.750636,
        -7.146284,
        4.589592,
        8.366632,
        3.6760292,
        3.3846655,
        8.360291,
        4.3269644,
        -3.574428,
        -7.5270653,
        -7.3037214,
        4.8832664,
        -6.0938663,
        2.4805107,
        -4.7792788,
        2.5041494,
        9.282316,
        8.893347,
        -3.2081814,
        4.4733515,
        -5.3227873,
        8.492643,
        7.9318447,
        -3.7560935,
        1.5818825,
        5.417961,
        -5.324034,
        8.2883835,
        2.8480396,
        -2.2506251,
        -3.1398602,
        -0.7267828,
        7.1852226,
        8.953438,
        7.417631,
        -2.4307194,
        -9.845559,
        -1.7943134,
        9.345993,
        9.939318,
        -0.55721664,
        -6.287484,
        -7.3025007,
        9.305153,
        -9.337127,
        -7.3057146,
        8.652121,
        -9.079766,
        2.3862514,
        -5.747177,
        7.9942226,
        9.478657,
        -1.5954275,
        -2.3518815,
        8.393938,
        9.615475,
        -4.479892,
        -0.013665199,
        5.834214,
        9.486906,
        7.7697124,
        9.992516,
        -3.39117,
        9.245144,
        3.282999,
        9.764233,
        8.487682,
        7.5988293,
        -0.23808861,
        2.8495588,
        -6.198022,
        0.5179157,
        -7.6140976,
        9.129728,
        3.4377947,
        0.8740034,
        -6.8383837,
        2.3751583,
        2.0825348,
        -6.783616,
        4.248022,
        -1.9878311,
        -4.073376,
        -7.350178,
        -3.7548704,
        -5.7061,
        8.385687,
        3.85501,
        -5.274348,
        3.8454971,
        -1.2648315,
        -9.630494,
        2.1468983,
        -4.0867753,
        -2.4927893,
        4.5762434,
        6.0183563,
        -3.6606379,
        -4.093284,
        -6.277382,
        -8.619041,
        -8.5848,
        6.230013,
        8.825106,
        3.8957014,
        -3.8077517,
        1.6729984,
        9.859056,
        3.9946184,
        -3.1066437,
        -7.6399775,
        3.4444513,
        -8.119783,
        9.5163,
        -5.319199,
        -9.247241,
        9.306461,
        3.1750526,
        0.6732788,
        8.800636,
        -5.35248,
        -3.5459323,
        -4.681341,
        -9.025709,
        -3.7680192,
        -2.225119,
        5.388278,
        -0.49247646,
        6.9582386,
        5.746049,
        3.296298,
        -2.3250284,
        8.281107,
        6.92342,
        1.2991037,
        -5.204794,
        2.92529,
        4.337307,
        -2.284545,
        -8.4181185,
        -7.641012,
        7.0979023,
        -0.13208103,
        -6.5833445,
        4.014739,
        1.0019054,
        1.7509642,
        -0.004722595,
        -1.6320486,
        9.164572,
        -9.494576,
        -9.2115755,
        -9.454184,
        7.000469,
        2.185873,
        6.489214,
        0.41389847,
        -4.3954844,
        -9.431846,
        -5.0078554,
        5.9413834,
        6.3018,
        5.435869,
        1.8759146,
        3.4582987,
        -1.5120478,
        -1.2523146,
        8.254538,
        5.0653067,
        -4.4653077,
        -9.979016,
        -5.6848187,
        -6.7916937,
        8.693628,
        -3.3275528,
        5.0428553,
        -7.9816456,
        -7.9356594,
        4.4153633,
        -4.696867,
        6.0996284,
        4.166809,
        -5.585441,
        -6.3513756,
        9.259596,
        -2.8990264,
        7.3916874,
        -7.0316477,
        1.0708437,
        -6.063344,
        3.7429962,
        7.6330605,
        0.52887535,
        1.2697878,
        -2.486774,
        1.3960514,
        -5.1318593,
        -4.8396177,
        -1.4753618,
        -7.6395626,
        -7.9664087,
        5.748042,
        4.6201096,
        -4.0141816,
        -9.138312,
        -8.320022,
        -1.4728804,
        2.016717,
        -6.2905884,
        7.0937786,
        -1.1790247,
        9.554525,
        4.546591,
        -8.861987,
        -0.879282,
        1.567522,
        7.639641,
        3.45858,
        -6.90567,
        -1.7452326,
        -3.2036157,
        -9.470279,
        3.047267,
        5.0175467,
        -1.3823147,
        2.0633497,
        -8.4130335,
        -0.5692663,
        1.5250597,
        -5.1684732,
        -3.1321092,
        1.9701042,
        1.0334549,
        1.9944105,
        -7.1132994,
        -3.042924,
        -0.30159378,
        4.0548525,
        -8.495369,
        0.97470856,
        -7.2213144,
        9.444372,
        -4.7161193,
        6.65518,
        6.522526,
        -4.1229243,
        3.9747896,
        3.08422,
        7.983837,
        -9.938147,
        4.9893484,
        7.1967697,
        7.86252,
        -0.9679384,
        -2.288381,
        -9.746113,
        -5.149338,
        -5.546326,
        -7.700598,
        4.4310703,
        1.657094,
        -9.18576,
        8.047306,
        0.26617622,
        0.58967686,
        -9.595696,
        7.8162956,
        8.274132,
        6.6796436,
        -1.68682,
        1.6933241,
        9.190037,
        -0.6866951,
        7.3155365,
        -6.432452,
        5.966505,
        5.8957167,
        9.531599,
        -3.5779948,
        -8.567452,
        -5.606112,
        8.213278,
        5.6616774,
        -1.3316126,
        -4.9480743,
        -8.617608,
        7.823021,
        1.6795149,
        2.116023,
        -0.8744831,
        -0.4939909,
        6.7779064,
        -2.7152247,
        -3.30723,
        -9.209294,
        -4.4370337,
        1.7468061,
        -1.6631117,
        -1.314642,
        -1.8743868,
        9.586515,
        -4.425368,
        0.9336815,
        5.1704874,
        -7.7860374,
        6.1815414,
        5.6470003,
        9.647118,
        -6.7725296,
        1.7449989,
        -3.259334,
        7.25284,
        -7.8811283,
        6.988577,
        -6.976509,
        1.3129911,
        1.8839607,
        -6.586027,
        6.5104237,
        -9.556923,
        -6.915045,
        4.9356356,
        -6.0846777,
        4.6407804,
        -3.285231,
        -8.511922,
        -5.869419,
        -1.1269588,
        5.40374,
        -8.4795,
        -3.9267297,
        0.3850708,
        0.39212322,
        5.974986,
        4.527606,
        -0.5797787,
        0.6372652,
        -4.65455,
        5.977294,
        1.6682425,
        8.627857,
        -5.617375,
        7.84783,
        3.0783787,
        -6.891718,
        -2.9060597,
        -7.2066135,
        -8.954854,
        -1.2829962,
        1.8496504,
        8.307533,
        5.231921,
        -5.0213428,
        -5.347931,
        -2.2317567,
        0.35264874,
        -6.837201,
        8.435059,
        2.766117,
        4.7776976,
        3.3056822,
        1.8659363,
        -6.95704,
        -6.234786,
        7.3779297,
        -7.2512197,
        3.28652,
        1.3653622,
        -5.569703,
        3.9296951,
        2.148324,
        -6.829812,
        -6.2432404,
        2.0040426,
        6.147232,
        7.9675694,
        -2.462038,
        1.7901192,
        1.3425884,
        6.1710873,
        9.231243,
        1.3170805,
        1.2857761,
        -4.0687675,
        1.4108906,
        8.010517,
        4.5278797,
        0.80541706,
        -3.884632,
        3.7208757,
        -8.152256,
        3.158392,
        4.0529385,
        1.9223251,
        4.142317,
        1.9820557,
        1.3262739,
        -3.3560414,
        8.209215,
        6.34387,
        -9.074614,
        -0.98009014,
        7.1508713,
        -0.03964615,
        -1.8657103,
        2.0672283,
        -2.4294295,
        -3.668682,
        -3.878612,
        7.815117,
        -6.4234114,
        3.3160295,
        -0.6061735,
        -5.3997035,
        -8.541989,
        -2.1685448,
        -7.6793146,
        -7.809615,
        -3.6216874,
        6.742731,
        -3.5895987,
        5.0114365,
        7.936575,
        -3.7553997,
        1.4521542,
        1.8595324,
        -4.27983,
        -0.3711071,
        1.0191288,
        0.3320303,
        0.27313805,
        2.981988,
        7.797865,
        -4.1515584,
        -3.8681169,
        -3.0282779,
        -4.597368,
        3.0753193,
        -5.2342744,
        -3.251471,
        -1.4766665,
        -7.712285,
        6.7184067,
        -6.342413,
        3.2792177,
        3.4460487,
        -4.996497,
        -8.192994,
        -5.4433484,
        2.3949633,
        -6.1209197,
        -6.5143633,
        6.882435,
        -9.019825,
        1.6210165,
        9.651876,
        6.059866,
        8.329926,
        8.952328,
        -2.2311797,
        1.0708485,
        -0.7242241,
        0.37538433,
        1.719223,
        4.2495594,
        5.482191,
        -2.2606697,
        -6.900997,
        9.286385,
        -7.2815294,
        0.121520996,
        -0.009459496,
        0.28341675,
        5.411765,
        3.3504305,
        -7.717309,
        0.59002304,
        -1.9937363,
        2.1478786,
        1.1460009,
        -3.7139363,
        7.5180836,
        -2.3810258,
        -7.224757,
        -9.164245,
        9.47904,
        2.8802214,
        2.6347647,
        6.042465,
        5.781104,
        9.171125,
        -7.3628397,
        -4.0889187,
        -9.575068,
        3.7961016,
        -9.348533,
        4.3671284,
        -2.9815502,
        9.505331,
        -6.0365815,
        1.1935339,
        -2.8495402,
        -9.537611,
        4.4913254,
        -1.5199318,
        -4.599213,
        -9.011709,
        -6.949293,
        -5.904536,
        2.0909204,
        0.9954605,
        -0.7260599,
        -9.861443,
        0.83030605,
        -3.709404,
        -4.5525403,
        8.624369,
        5.9289665,
        6.766657,
        -8.946252,
        -3.5114737,
        -9.022818,
        3.3168087,
        5.793375,
        5.5010023,
        9.978678,
        -0.21024609,
        0.3618393,
        7.7082214,
        -3.7439747,
        9.453997,
        -4.716725,
        7.989542,
        5.7702484,
        -1.2497559,
        -6.56291,
        2.726759,
        5.372512,
        -5.1404495,
        -7.4512453,
        -7.4002476,
        8.164827,
        9.235556,
        2.1980896,
        -0.12980652,
        3.3180342,
        -8.713131,
        -5.619864,
        5.2898874,
        1.8234005,
        4.985548,
        7.071251,
        5.300228,
        9.741226,
        9.24151,
        -5.4992933,
        -1.0363264,
        7.0966816,
        6.8528423,
        -0.33907604,
        -1.8098946,
        -4.102258,
        1.594163,
        -0.5583849,
        -8.965902,
        -0.42970848,
        8.22736,
        5.2724495,
        -3.8432927,
        4.578782,
        -6.6162634,
        -0.2182045,
        -3.0588741,
        -0.70057106,
        -3.7372417,
        -3.733029,
        -3.4278078,
        -8.407127,
        -2.0068398,
        3.224372,
        -0.13075256,
        -6.6575117,
        6.7974224,
        -7.166562,
        4.3222036,
        9.733355,
        -1.4638081,
        -3.403067,
        -5.0864406,
        -4.8283525,
        2.6285276,
        -6.9467707,
        -2.7618213,
        8.863375,
        -3.8568301,
        -0.60360813,
        5.721711,
        -0.9522648,
        0.7015457,
        -3.3626957,
        7.047674,
        4.39526,
        9.51078,
        9.100477,
        6.296583,
        4.4351425,
        7.9285374,
        -5.840723,
        -9.637849,
        -4.5373435,
        -0.0720377,
        5.6341143,
        5.9135265,
        3.1210146,
        -9.769341,
        1.1045113,
        -6.2423296,
        7.213272,
        3.0459108,
        7.236044,
        -1.0074558,
        -2.4295678,
        -2.615015,
        5.0501127,
        -8.507955,
        6.6305943,
        -7.181692,
        -9.582043,
        8.884363,
        -1.7688313,
        8.584692,
        -5.8155627,
        3.5161982,
        6.093878,
        -6.055717,
        -0.32245827,
        5.2446146,
        -0.64941597,
        5.0656023,
        -6.298175,
        1.503643,
        5.6321564,
        0.54041004,
        -8.053908,
        1.29249,
        6.1719837,
        -1.2932129,
        2.8079758,
        2.9836645,
        -6.154365,
        3.6566105,
        1.3772259,
        -0.44248962,
        -9.431021,
        4.2897186,
        -2.1606889,
        5.654091,
        -5.6136937,
        -9.631841,
        -1.4809914,
        -2.360014,
        7.4914074,
        -7.3295946,
        8.798441,
        6.12257,
        -3.6507316,
        1.6040506,
        1.0619202,
        -9.023776,
        0.62798405,
        8.904629,
        -6.6318293,
        3.8731613,
        -6.8763227,
        2.4874792,
        -5.688526,
        -3.290009,
        -0.7160921,
        7.1569195,
        -3.6490412,
        8.871061,
        -2.5553675,
        6.5817966,
        -7.918956,
        7.6138115,
        0.9376993,
        -1.7370672,
        6.114437,
        -2.8525205,
        1.6846857,
        -0.13617706,
        -1.4593811,
        9.882402,
        4.0940275,
        5.231282,
        -0.77544403,
        9.714447,
        7.6777096,
        -7.746231,
        -4.5366163,
        2.910265,
        -3.6955996,
        -7.3776054,
        4.0481176,
        4.072505,
        -6.9483824,
        -7.7799273,
        -9.341884,
        -0.47200394,
        1.5981522,
        1.102294,
        -2.928619,
        -3.7581534,
        9.963572,
        7.8219147,
        6.9815693,
        3.942789,
        2.3216047,
        -5.4329796,
        5.9222927,
        1.3765421,
        0.5434904,
        2.4276295,
        -4.9830074,
        7.3750916,
        5.83893,
        -6.6469526,
        1.8653545,
        -1.6718407,
        -5.8425064,
        -9.192882,
        -0.6260271,
        -4.820978,
        -8.833086,
        -0.44151974,
        -7.593562,
        2.8267918,
        -6.122274,
        0.7271681,
        -1.8609467,
        2.2038946,
        6.4662647,
        5.8475246,
        8.141472,
        0.46678638,
        7.5789185,
        -3.0424685,
        -6.3431616,
        4.2582645,
        5.2785463,
        5.4480762,
        2.6553926,
        2.6861658,
        -0.7264509,
        5.006031,
        3.7558117,
        -0.55003834,
        -1.6655054,
        -0.75534534,
        -1.9537678,
        -5.0759573,
        -6.62446,
        -0.68312836,
        8.404356,
        0.22291756,
        9.388895,
        -5.2229495,
        -0.7304735,
        5.958585,
        -5.2452655,
        -0.13132,
        -8.096604,
        6.0807343,
        -9.048009,
        4.315137,
        3.5727634,
        -4.562511,
        -6.252281,
        7.0571003,
        -5.1149387,
        1.2546625,
        -0.6003113,
        -7.6960325,
        4.674162,
        -0.62294865,
        -5.2902265,
        2.5781975,
        0.0953064,
        5.111949,
        -2.4394383,
        -3.3634062,
        -8.19235,
        9.570757,
        -4.102728,
        -8.582792,
        -7.7073717,
        4.261445,
        -1.214694,
        -6.900382,
        3.2817278,
        7.0451946,
        8.271347,
        -6.109199,
        6.484625,
        -9.262028,
        -1.8144007,
        8.364258,
        7.1900024,
        0.5890713,
        -0.4186716,
        7.2955246,
        -5.6303186,
        -2.6598687,
        2.775506,
        -3.6818953,
        -3.162424,
        -0.18133831,
        0.84268,
        -4.2449303,
        4.8178186,
        2.0249023,
        -0.50786877,
        0.3899393,
        -8.064925,
        3.4854832,
        2.8332863,
        -7.430477,
        9.797367,
        -1.9822521,
        -9.194347,
        2.7411566,
        1.3699713,
        1.7214594,
        4.2960415,
        1.6275034,
        4.588188,
        -5.5348463,
        2.234439,
        -5.5628724,
        -8.810339,
        -0.15428448,
        -3.0715055,
        1.5008726,
        -1.4963093,
        9.302326,
        -5.2843614,
        -8.520002,
        6.449114,
        -4.997067,
        9.310431,
        -8.59725,
        -9.081368,
        -0.6124964,
        -6.9101877,
        8.131081,
        -0.22473049,
        -1.17377,
        6.1908073,
        -3.45849,
        5.55324,
        -4.1497607,
        -0.3585024,
        2.5425396,
        4.5513783,
        -5.8004327,
        3.9734993,
        -8.581576,
        3.8055716,
        -8.259559,
        1.982194,
        -8.368354,
        3.2159224,
        3.9386024,
        2.6120577,
        5.073535,
        -4.6950765,
        -7.400298,
        8.309879,
        6.9353256,
        5.9206047,
        -8.780057,
        6.0137043,
        -9.396708,
        1.6699257,
        0.7057295,
        1.4699306,
        6.365999,
        6.135647,
        -7.7129574,
        2.2652378,
        6.753191,
        -7.2704144,
        -2.3075619,
        8.201946,
        1.99963,
        2.411293,
        3.145193,
        -1.2861767,
        5.5468264,
        6.535761,
        9.505917,
        -3.457169,
        0.9728966,
        -6.3719893,
        0.41548347,
        8.500875,
        1.9219866,
        6.887022,
        5.8494654,
        -3.6571546,
        -0.68913174,
        -4.0131373,
        -9.289982,
        1.2546196,
        -3.796527,
        6.7159195,
        -8.426935,
        -8.581502,
        -1.7550411,
        -5.8912535,
        6.766781,
        9.539238,
        -8.13127,
        -1.6665907,
        -8.26719,
        5.388362,
        -8.011248,
        6.3607216,
        -5.8776565,
        3.8967285,
        -0.053733826,
        -6.1887164,
        -9.209104,
        5.3805532,
        -1.7615004,
        -4.4391675,
        -1.7073603,
        9.675476,
        -3.422546,
        -9.008265,
        -9.995527,
        8.896753,
        -3.3072205,
        -7.043173,
        -5.9225197,
        -6.427309,
        5.2878466,
        -4.127669,
        -9.055111,
        7.5727844,
        -8.018496,
        6.440407,
        2.1396866,
        -1.6432753,
        8.550188,
        -2.927024,
        -2.3534932,
        -4.6896048,
        -7.0185585,
        -1.8894567,
        2.2325315,
        -4.7301097,
        -7.014696,
        5.2365484,
        7.9643555,
        7.4494076,
        -5.369336,
        -4.3478675,
        -8.416931,
        6.4663334,
        -1.284894,
        7.054764,
        -3.1976862,
        3.4872828,
        -7.3224354,
        4.7543774,
        7.9101906,
        6.3396416,
        -5.4668255,
        -5.410442,
        -0.9000912,
        6.457672,
        2.2665682,
        -5.4531474,
        9.778978,
        3.4929857,
        -0.3445282,
        3.4594812,
        -7.7578497,
        2.2279205,
        0.2671423,
        -4.319031,
        1.1227884,
        0.4676714,
        4.968668,
        5.6962433,
        1.5243473,
        3.6889277,
        5.5545063,
        3.0448427,
        3.6520948,
        -0.20111465,
        -7.991864,
        -6.672077,
        -0.33517075,
        4.1573534,
        9.09594,
        3.0774393,
        7.373232,
        6.462555,
        -1.3735886,
        -5.505552,
        -2.0254006,
        0.39730453,
        0.34945583,
        0.03743744,
        -4.1785927,
        -1.8819017,
        2.7024994,
        -2.0883002,
        2.9511967,
        4.789609,
        -0.010797501,
        -8.525311,
        -8.961703,
        8.057255,
        1.470007,
        -8.100798,
        7.002531,
        -8.133163,
        -5.2547307,
        -6.967349,
        -4.666874,
        0.3046646,
        -7.467313,
        0.20472622,
        5.3528423,
        4.0812407,
        -1.4787378,
        1.8767986,
        -5.703041,
        -5.613448,
        0.61207867,
        7.8130627,
        -4.5089574,
        -0.060855865,
        -1.5862551,
        3.7183533,
        -2.8805466,
        -5.2354283,
        9.753813,
        -8.750097,
        -0.63838863,
        -7.3679543,
        -9.88194,
        9.5541,
        -7.30608,
        -8.170552,
        -2.9280944,
        3.2308092,
        0.5663595,
        -3.6042972,
        7.8168697,
        1.3889084,
        9.57906,
        7.012932,
        -5.3371663,
        -4.982557,
        -9.170103,
        -3.7871046,
        3.4383354,
        -2.5827546,
        0.68320847,
        -9.998457,
        2.8167543,
        -9.288936,
        0.26626205,
        -2.722146,
        3.9543447,
        9.512512,
        -7.5802565,
        8.408833,
        2.353777,
        -2.7927108,
        -6.0398335,
        -3.908772,
        9.0479965,
        1.5110884,
        -3.7918491,
        5.189249,
        1.1300192,
        -3.9334745,
        0.22927856,
        8.588587,
        -0.34157658,
        -9.523892,
        1.9146719,
        -9.611184,
        0.5213537,
        7.855114,
        8.553726,
        -1.8329449,
        0.25141144,
        -6.7366905,
        -4.473681,
        6.418276,
        -7.162552,
        -4.3742414,
        6.164747,
        -3.7166185,
        -2.5637264,
        -9.465423,
        7.659012,
        -5.3705616,
        -5.904164,
        0.123108864,
        0.44927216,
        -4.335651,
        0.118478775,
        8.474247,
        5.487444,
        -4.8769255,
        -8.064733,
        -8.57197,
        -6.2929583,
        1.6059885,
        0.7646265,
        -5.924196,
        7.053581,
        -5.126793,
        3.954772,
        2.239231,
        4.799243,
        -5.6702275,
        -2.3585072
      ]
    },
    {
      "index": 1,
      "output": -1.0,
      "input_connections": [
        [
          0,
          -0.06884495
        ],
        [
          2,
          0.0
        ],
        [
          3,
          0.0
        ],
        [
          4,
          0.0
        ],
        [
          5,
          0.0
        ],
        [
          6,
          0.0
        ],
        [
          7,
          0.0
        ]
      ],
      "bias": 0.0,
      "self_activation": 0.08558957,
      "retina_weights": [
        1.4619436,
        -5.4104943,
        -2.894661,
        -4.8476334,
        5.988063,
        -0.5355921,
        -3.0677934,
        -4.537811,
        -1.2944212,
        -5.5786414,
        8.488546,
        -4.376504,
        -1.8048849,
        7.630621,
        -7.6951313,
        -2.3424091,
        6.4649143,
        -3.3373017,
        -7.6771784,
        -8.343322,
        -9.251785,
        0.82248306,
        -2.947578,
        1.4980803,
        7.290167,
        -4.0213175,
        -1.3420048,
        9.115406,
        -3.1226892,
        5.769619,
        2.3676767,
        -1.5922155,
        4.771305,
        5.5848093,
        2.270712,
        -8.410411,
        -4.105615,
        9.100227,
        0.26627445,
        9.412977,
        -2.601945,
        -5.0363226,
        -4.467873,
        6.468622,
        1.7039738,
        8.717972,
        3.3316412,
        -7.587635,
        7.6760426,
        -3.0069513,
        -8.815939,
        -3.9037914,
        6.0134087,
        -0.33407402,
        -4.5346494,
        1.7413435,
        -2.8455873,
        9.839224,
        -0.5037441,
        -7.7995157,
        8.35972,
        -9.704089,
        -6.494438,
        -2.1826973,
        -7.2671337,
        -0.8540268,
        1.826025,
        5.025362,
        8.311474,
        -8.691096,
        -5.2897687,
        1.1723938,
        9.182062,
        -7.183423,
        0.06546402,
        -9.259515,
        -7.62249,
        2.6632586,
        -8.671858,
        0.35034752,
        3.708562,
        -8.776197,
        -4.6295805,
        1.8808565,
        3.7938442,
        -2.3772755,
        -3.8242693,
        4.5557775,
        6.8830433,
        7.927515,
        3.0622425,
        6.264374,
        -3.844387,
        4.1240797,
        7.8716125,
        7.3707676,
        -3.7275286,
        -2.38835,
        1.3654623,
        5.496539,
        0.23266697,
        -3.856389,
        4.844576,
        1.7383089,
        -0.34026814,
        -4.474289,
        -4.8338814,
        -5.8411283,
        3.2401905,
        3.8941326,
        9.92457,
        -8.626308,
        0.6440582,
        3.6851225,
        6.606306,
        9.15547,
        9.932846,
        -7.3416634,
        -0.358984,
        2.5212088,
        -0.3889122,
        8.196568,
        3.2341423,
        0.05023861,
        5.8323736,
        7.281248,
        2.9012194,
        -7.2045918,
        5.7782907,
        -8.752799,
        7.302021,
        3.222393,
        6.215624,
        3.895608,
        -5.2412505,
        6.2701817,
        -2.8173037,
        -5.7720847,
        5.5642166,
        3.546897,
        -2.1816125,
        7.105505,
        4.667903,
        -5.761065,
        0.16950703,
        -6.347005,
        1.1311684,
        3.5182133,
        -8.345291,
        5.9949055,
        -2.2113004,
        3.5369482,
        -0.93456936,
        -3.3114834,
        -9.07387,
        -0.8968134,
        2.3624334,
        4.3789253,
        -4.298095,
        8.810343,
        -8.055846,
        -3.4626884,
        -3.3671136,
        5.045459,
        9.49794,
        9.096777,
        0.8228359,
        -9.383742,
        2.1503696,
        -0.78891945,
        5.8491554,
        7.6078053,
        -9.890339,
        -7.7499104,
        -3.4951777,
        -7.1261663,
        -8.6300535,
        4.4467363,
        3.4104195,
        8.479572,
        -3.5168762,
        -1.2397232,
        -8.637571,
        -2.906887,
        -3.3054466,
        3.1433306,
        1.6355314,
        -9.4597645,
        -9.041163,
        -1.9227018,
        -3.2685966,
        0.75405693,
        -1.7412825,
        -4.37787,
        -7.4738216,
        1.8086329,
        -3.245103,
        -1.3482018,
        -3.014011,
        -0.31406593,
        -2.8515835,
        -1.0355415,
        -4.4117565,
        4.229125,
        -3.2280488,
        9.791508,
        -0.10959053,
        3.8209019,
        -4.0754957,
        -9.815087,
        5.4136314,
        -6.007921,
        -5.752854,
        -4.5707793,
        6.8980694,
        -5.5593605,
        -8.351323,
        -6.123013,
        4.308239,
        3.557497,
        -3.8110418,
        7.2271786,
        5.6992903,
        -8.848655,
        -6.821327,
        -4.8831363,
        -8.903768,
        -3.8387985,
        1.4323559,
        -8.454027,
        1.4808836,
        4.22155,
        1.0322132,
        -5.843446,
        2.750636,
        -7.146284,
        4.589592,
        8.366632,
        3.6760292,
        3.3846655,
        8.360291,
        4.3269644,
        -3.574428,
        -7.5270653,
        -7.3037214,
        4.8832664,
        -6.0938663,
        2.4805107,
        -4.7792788,
        2.5041494,
        9.282316,
        8.893347,
        -3.2081814,
        4.4733515,
        -5.3227873,
        8.492643,
        7.9318447,
        -3.7560935,
        1.5818825,
        5.417961,
        -5.324034,
        8.2883835,
        2.8480396,
        -2.2506251,
        -3.1398602,
        -0.7267828,
        7.1852226,
        8.953438,
        7.417631,
        -2.4307194,
        -9.845559,
        -1.7943134,
        9.345993,
        9.939318,
        -0.55721664,
        -6.287484,
        -7.3025007,
        9.305153,
        -9.337127,
        -7.3057146,
        8.652121,
        -9.079766,
        2.3862514,
        -5.747177,
        7.9942226,
        9.478657,
        -1.5954275,
        -2.3518815,
        8.393938,
        9.615475,
        -4.479892,
        -0.013665199,
        5.834214,
        9.486906,
        7.7697124,
        9.992516,
        -3.39117,
        9.245144,
        3.282999,
        9.764233,
        8.487682,
        7.5988293,
        -0.23808861,
        2.8495588,
        -6.198022,
        0.5179157,
        -7.6140976,
        9.129728,
        3.4377947,
        0.8740034,
        -6.8383837,
        2.3751583,
        2.0825348,
        -6.783616,
        4.248022,
        -1.9878311,
        -4.073376,
        -7.350178,
        -3.7548704,
        -5.7061,
        8.385687,
        3.85501,
        -5.274348,
        3.8454971,
        -1.2648315,
        -9.630494,
        2.1468983,
        -4.0867753,
        -2.4927893,
        4.5762434,
        6.0183563,
        -3.6606379,
        -4.093284,
        -6.277382,
        -8.619041,
        -8.5848,
        6.230013,
        8.825106,
        3.8957014,
        -3.8077517,
        1.6729984,
        9.859056,
        3.9946184,
        -3.1066437,
        -7.6399775,
        3.4444513,
        -8.119783,
        9.5163,
        -5.319199,
        -9.247241,
        9.306461,
        3.1750526,
        0.6732788,
        8.800636,
        -5.35248,
        -3.5459323,
        -4.681341,
        -9.025709,
        -3.7680192,
        -2.225119,
        5.388278,
        -0.49247646,
        6.9582386,
        5.746049,
        3.296298,
        -2.3250284,
        8.281107,
        6.92342,
        1.2991037,
        -5.204794,
        2.92529,
        4.337307,
        -2.284545,
        -8.4181185,
        -7.641012,
        7.0979023,
        -0.13208103,
        -6.5833445,
        4.014739,
        1.0019054,
        1.7509642,
        -0.004722595,
        -1.6320486,
        9.164572,
        -9.494576,
        -9.2115755,
        -9.454184,
        7.000469,
        2.185873,
        6.489214,
        0.41389847,
        -4.3954844,
        -9.431846,
        -5.0078554,
        5.9413834,
        6.3018,
        5.435869,
        1.8759146,
        3.4582987,
        -1.5120478,
        -1.2523146,
        8.254538,
        5.0653067,
        -4.4653077,
        -9.979016,
        -5.6848187,
        -6.7916937,
        8.693628,
        -3.3275528,
        5.0428553,
        -7.9816456,
        -7.9356594,
        4.4153633,
        -4.696867,
        6.0996284,
        4.166809,
        -5.585441,
        -6.3513756,
        9.259596,
        -2.8990264,
        7.3916874,
        -7.0316477,
        1.0708437,
        -6.063344,
        3.7429962,
        7.6330605,
        0.52887535,
        1.2697878,
        -2.486774,
        1.3960514,
        -5.1318593,
        -4.8396177,
        -1.4753618,
        -7.6395626,
        -7.9664087,
        5.748042,
        4.6201096,
        -4.0141816,
        -9.138312,
        -8.320022,
        -1.4728804,
        2.016717,
        -6.2905884,
        7.0937786,
        -1.1790247,
        9.554525,
        4.546591,
        -8.861987,
        -0.879282,
        1.567522,
        7.639641,
        3.45858,
        -6.90567,
        -1.7452326,
        -3.2036157,
        -9.470279,
        3.047267,
        5.0175467,
        -1.3823147,
        2.0633497,
        -8.4130335,
        -0.5692663,
        1.5250597,
        -5.1684732,
        -3.1321092,
        1.9701042,
        1.0334549,
        1.9944105,
        -7.1132994,
        -3.042924,
        -0.30159378,
        4.0548525,
        -8.495369,
        0.97470856,
        -7.2213144,
        9.444372,
        -4.7161193,
        6.65518,
        6.522526,
        -4.1229243,
        3.9747896,
        3.08422,
        7.983837,
        -9.938147,
        4.9893484,
        7.1967697,
        7.86252,
        -0.9679384,
        -2.288381,
        -9.746113,
        -5.149338,
        -5.546326,
        -7.700598,
        4.4310703,
        1.657094,
        -9.18576,
        8.047306,
        0.26617622,
        0.58967686,
        -9.595696,
        7.8162956,
        8.274132,
        6.6796436,
        -1.68682,
        1.6933241,
        9.190037,
        -0.6866951,
        7.3155365,
        -6.432452,
        5.966505,
        5.8957167,
        9.531599,
        -3.5779948,
        -8.567452,
        -5.606112,
        8.213278,
        5.6616774,
        -1.3316126,
        -4.9480743,
        -8.617608,
        7.823021,
        1.6795149,
        2.116023,
        -0.8744831,
        -0.4939909,
        6.7779064,
        -2.7152247,
        -3.30723,
        -9.209294,
        -4.4370337,
        1.7468061,
        -1.6631117,
        -1.314642,
        -1.8743868,
        9.586515,
        -4.425368,
        0.9336815,
        5.1704874,
        -7.7860374,
        6.1815414,
        5.6470003,
        9.647118,
        -6.7725296,
        1.7449989,
        -3.259334,
        7.25284,
        -7.8811283,
        6.988577,
        -6.976509,
        1.3129911,
        1.8839607,
        -6.586027,
        6.5104237,
        -9.556923,
        -6.915045,
        4.9356356,
        -6.0846777,
        4.6407804,
        -3.285231,
        -8.511922,
        -5.869419,
        -1.1269588,
        5.40374,
        -8.4795,
        -3.9267297,
        0.3850708,
        0.39212322,
        5.974986,
        4.527606,
        -0.5797787,
        0.6372652,
        -4.65455,
        5.977294,
        1.6682425,
        8.627857,
        -5.617375,
        7.84783,
        3.0783787,
        -6.891718,
        -2.9060597,
        -7.2066135,
        -8.954854,
        -1.2829962,
        1.8496504,
        8.307533,
        5.231921,
        -5.0213428,
        -5.347931,
        -2.2317567,
        0.35264874,
        -6.837201,
        8.435059,
        2.766117,
        4.7776976,
        3.3056822,
        1.8659363,
        -6.95704,
        -6.234786,
        7.3779297,
        -7.2512197,
        3.28652,
        1.3653622,
        -5.569703,
        3.9296951,
        2.148324,
        -6.829812,
        -6.2432404,
        2.0040426,
        6.147232,
        7.9675694,
        -2.462038,
        1.7901192,
        1.3425884,
        6.1710873,
        9.231243,
        1.3170805,
        1.2857761,
        -4.0687675,
        1.4108906,
        8.010517,
        4.5278797,
        0.80541706,
        -3.884632,
        3.7208757,
        -8.152256,
        3.158392,
        4.0529385,
        1.9223251,
        4.142317,
        1.9820557,
        1.3262739,
        -3.3560414,
        8.209215,
        6.34387,
        -9.074614,
        -0.98009014,
        7.1508713,
        -0.03964615,
        -1.8657103,
        2.0672283,
        -2.4294295,
        -3.668682,
        -3.878612,
        7.815117,
        -6.4234114,
        3.3160295,
        -0.6061735,
        -5.3997035,
        -8.541989,
        -2.1685448,
        -7.6793146,
        -7.809615,
        -3.6216874,
        6.742731,
        -3.5895987,
        5.0114365,
        7.936575,
        -3.7553997,
        1.4521542,
        1.8595324,
        -4.27983,
        -0.3711071,
        1.0191288,
        0.3320303,
        0.27313805,
        2.981988,
        7.797865,
        -4.1515584,
        -3.8681169,
        -3.0282779,
        -4.597368,
        3.0753193,
        -5.2342744,
        -3.251471,
        -1.4766665,
        -7.712285,
        6.7184067,
        -6.342413,
        3.2792177,
        3.4460487,
        -4.996497,
        -8.192994,
        -5.4433484,
        2.3949633,
        -6.1209197,
        -6.5143633,
        6.882435,
        -9.019825,
        1.6210165,
        9.651876,
        6.059866,
        8.329926,
        8.952328,
        -2.2311797,
        1.0708485,
        -0.7242241,
        0.37538433,
        1.719223,
        4.2495594,
        5.482191,
        -2.2606697,
        -6.900997,
        9.286385,
        -7.2815294,
        0.121520996,
        -0.009459496,
        0.28341675,
        5.411765,
        3.3504305,
        -7.717309,
        0.59002304,
        -1.9937363,
        2.1478786,
        1.1460009,
        -3.7139363,
        7.5180836,
        -2.3810258,
        -7.224757,
        -9.164245,
        9.47904,
        2.8802214,
        2.6347647,
        6.042465,
        5.781104,
        9.171125,
        -7.3628397,
        -4.0889187,
        -9.575068,
        3.7961016,
        -9.348533,
        4.3671284,
        -2.9815502,
        9.505331,
        -6.0365815,
        1.1935339,
        -2.8495402,
        -9.537611,
        4.4913254,
        -1.5199318,
        -4.599213,
        -9.011709,
        -6.949293,
        -5.904536,
        2.0909204,
        0.9954605,
        -0.7260599,
        -9.861443,
        0.83030605,
        -3.709404,
        -4.5525403,
        8.624369,
        5.9289665,
        6.766657,
        -8.946252,
        -3.5114737,
        -9.022818,
        3.3168087,
        5.793375,
        5.5010023,
        9.978678,
        -0.21024609,
        0.3618393,
        7.7082214,
        -3.7439747,
        9.453997,
        -4.716725,
        7.989542,
        5.7702484,
        -1.2497559,
        -6.56291,
        2.726759,
        5.372512,
        -5.1404495,
        -7.4512453,
        -7.4002476,
        8.164827,
        9.235556,
        2.1980896,
        -0.12980652,
        3.3180342,
        -8.713131,
        -5.619864,
        5.2898874,
        1.8234005,
        4.985548,
        7.071251,
        5.300228,
        9.741226,
        9.24151,
        -5.4992933,
        -1.0363264,
        7.0966816,
        6.8528423,
        -0.33907604,
        -1.8098946,
        -4.102258,
        1.594163,
        -0.5583849,
        -8.965902,
        -0.42970848,
        8.22736,
        5.2724495,
        -3.8432927,
        4.578782,
        -6.6162634,
        -0.2182045,
        -3.0588741,
        -0.70057106,
        -3.7372417,
        -3.733029,
        -3.4278078,
        -8.407127,
        -2.0068398,
        3.224372,
        -0.13075256,
        -6.6575117,
        6.7974224,
        -7.166562,
        4.3222036,
        9.733355,
        -1.4638081,
        -3.403067,
        -5.0864406,
        -4.8283525,
        2.6285276,
        -6.9467707,
        -2.7618213,
        8.863375,
        -3.8568301,
        -0.60360813,
        5.721711,
        -0.9522648,
        0.7015457,
        -3.3626957,
        7.047674,
        4.39526,
        9.51078,
        9.100477,
        6.296583,
        4.4351425,
        7.9285374,
        -5.840723,
        -9.637849,
        -4.5373435,
        -0.0720377,
        5.6341143,
        5.9135265,
        3.1210146,
        -9.769341,
        1.1045113,
        -6.2423296,
        7.213272,
        3.0459108,
        7.236044,
        -1.0074558,
        -2.4295678,
        -2.615015,
        5.0501127,
        -8.507955,
        6.6305943,
        -7.181692,
        -9.582043,
        8.884363,
        -1.7688313,
        8.584692,
        -5.8155627,
        3.5161982,
        6.093878,
        -6.055717,
        -0.32245827,
        5.2446146,
        -0.64941597,
        5.0656023,
        -6.298175,
        1.503643,
        5.6321564,
        0.54041004,
        -8.053908,
        1.29249,
        6.1719837,
        -1.2932129,
        2.8079758,
        2.9836645,
        -6.154365,
        3.6566105,
        1.3772259,
        -0.44248962,
        -9.431021,
        4.2897186,
        -2.1606889,
        5.654091,
        -5.6136937,
        -9.631841,
        -1.4809914,
        -2.360014,
        7.4914074,
        -7.3295946,
        8.798441,
        6.12257,
        -3.6507316,
        1.6040506,
        1.0619202,
        -9.023776,
        0.62798405,
        8.904629,
        -6.6318293,
        3.8731613,
        -6.8763227,
        2.4874792,
        -5.688526,
        -3.290009,
        -0.7160921,
        7.1569195,
        -3.6490412,
        8.871061,
        -2.5553675,
        6.5817966,
        -7.918956,
        7.6138115,
        0.9376993,
        -1.7370672,
        6.114437,
        -2.8525205,
        1.6846857,
        -0.13617706,
        -1.4593811,
        9.882402,
        4.0940275,
        5.231282,
        -0.77544403,
        9.714447,
        7.6777096,
        -7.746231,
        -4.5366163,
        2.910265,
        -3.6955996,
        -7.3776054,
        4.0481176,
        4.072505,
        -6.9483824,
        -7.7799273,
        -9.341884,
        -0.47200394,
        1.5981522,
        1.102294,
        -2.928619,
        -3.7581534,
        9.963572,
        7.8219147,
        6.9815693,
        3.942789,
        2.3216047,
        -5.4329796,
        5.9222927,
        1.3765421,
        0.5434904,
        2.4276295,
        -4.9830074,
        7.3750916,
        5.83893,
        -6.6469526,
        1.8653545,
        -1.6718407,
        -5.8425064,
        -9.192882,
        -0.6260271,
        -4.820978,
        -8.833086,
        -0.44151974,
        -7.593562,
        2.8267918,
        -6.122274,
        0.7271681,
        -1.8609467,
        2.2038946,
        6.4662647,
        5.8475246,
        8.141472,
        0.46678638,
        7.5789185,
        -3.0424685,
        -6.3431616,
        4.2582645,
        5.2785463,
        5.4480762,
        2.6553926,
        2.6861658,
        -0.7264509,
        5.006031,
        3.7558117,
        -0.55003834,
        -1.6655054,
        -0.75534534,
        -1.9537678,
        -5.0759573,
        -6.62446,
        -0.68312836,
        8.404356,
        0.22291756,
        9.388895,
        -5.2229495,
        -0.7304735,
        5.958585,
        -5.2452655,
        -0.13132,
        -8.096604,
        6.0807343,
        -9.048009,
        4.315137,
        3.5727634,
        -4.562511,
        -6.252281,
        7.0571003,
        -5.1149387,
        1.2546625,
        -0.6003113,
        -7.6960325,
        4.674162,
        -0.62294865,
        -5.2902265,
        2.5781975,
        0.0953064,
        5.111949,
        -2.4394383,
        -3.3634062,
        -8.19235,
        9.570757,
        -4.102728,
        -8.582792,
        -7.7073717,
        4.261445,
        -1.214694,
        -6.900382,
        3.2817278,
        7.0451946,
        8.271347,
        -6.109199,
        6.484625,
        -9.262028,
        -1.8144007,
        8.364258,
        7.1900024,
        0.5890713,
        -0.4186716,
        7.2955246,
        -5.6303186,
        -2.6598687,
        2.775506,
        -3.6818953,
        -3.162424,
        -0.18133831,
        0.84268,
        -4.2449303,
        4.8178186,
        2.0249023,
        -0.50786877,
        0.3899393,
        -8.064925,
        3.4854832,
        2.8332863,
        -7.430477,
        9.797367,
        -1.9822521,
        -9.194347,
        2.7411566,
        1.3699713,
        1.7214594,
        4.2960415,
        1.6275034,
        4.588188,
        -5.5348463,
        2.234439,
        -5.5628724,
        -8.810339,
        -0.15428448,
        -3.0715055,
        1.5008726,
        -1.4963093,
        9.302326,
        -5.2843614,
        -8.520002,
        6.449114,
        -4.997067,
        9.310431,
        -8.59725,
        -9.081368,
        -0.6124964,
        -6.9101877,
        8.131081,
        -0.22473049,
        -1.17377,
        6.1908073,
        -3.45849,
        5.55324,
        -4.1497607,
        -0.3585024,
        2.5425396,
        4.5513783,
        -5.8004327,
        3.9734993,
        -8.581576,
        3.8055716,
        -8.259559,
        1.982194,
        -8.368354,
        3.2159224,
        3.9386024,
        2.6120577,
        5.073535,
        -4.6950765,
        -7.400298,
        8.309879,
        6.9353256,
        5.9206047,
        -8.780057,
        6.0137043,
        -9.396708,
        1.6699257,
        0.7057295,
        1.4699306,
        6.365999,
        6.135647,
        -7.7129574,
        2.2652378,
        6.753191,
        -7.2704144,
        -2.3075619,
        8.201946,
        1.99963,
        2.411293,
        3.145193,
        -1.2861767,
        5.5468264,
        6.535761,
        9.505917,
        -3.457169,
        0.9728966,
        -6.3719893,
        0.41548347,
        8.500875,
        1.9219866,
        6.887022,
        5.8494654,
        -3.6571546,
        -0.68913174,
        -4.0131373,
        -9.289982,
        1.2546196,
        -3.796527,
        6.7159195,
        -8.426935,
        -8.581502,
        -1.7550411,
        -5.8912535,
        6.766781,
        9.539238,
        -8.13127,
        -1.6665907,
        -8.26719,
        5.388362,
        -8.011248,
        6.3607216,
        -5.8776565,
        3.8967285,
        -0.053733826,
        -6.1887164,
        -9.209104,
        5.3805532,
        -1.7615004,
        -4.4391675,
        -1.7073603,
        9.675476,
        -3.422546,
        -9.008265,
        -9.995527,
        8.896753,
        -3.3072205,
        -7.043173,
        -5.9225197,
        -6.427309,
        5.2878466,
        -4.127669,
        -9.055111,
        7.5727844,
        -8.018496,
        6.440407,
        2.1396866,
        -1.6432753,
        8.550188,
        -2.927024,
        -2.3534932,
        -4.6896048,
        -7.0185585,
        -1.8894567,
        2.2325315,
        -4.7301097,
        -7.014696,
        5.2365484,
        7.9643555,
        7.4494076,
        -5.369336,
        -4.3478675,
        -8.416931,
        6.4663334,
        -1.284894,
        7.054764,
        -3.1976862,
        3.4872828,
        -7.3224354,
        4.7543774,
        7.9101906,
        6.3396416,
        -5.4668255,
        -5.410442,
        -0.9000912,
        6.457672,
        2.2665682,
        -5.4531474,
        9.778978,
        3.4929857,
        -0.3445282,
        3.4594812,
        -7.7578497,
        2.2279205,
        0.2671423,
        -4.319031,
        1.1227884,
        0.4676714,
        4.968668,
        5.6962433,
        1.5243473,
        3.6889277,
        5.5545063,
        3.0448427,
        3.6520948,
        -0.20111465,
        -7.991864,
        -6.672077,
        -0.33517075,
        4.1573534,
        9.09594,
        3.0774393,
        7.373232,
        6.462555,
        -1.3735886,
        -5.505552,
        -2.0254006,
        0.39730453,
        0.34945583,
        0.03743744,
        -4.1785927,
        -1.8819017,
        2.7024994,
        -2.0883002,
        2.9511967,
        4.789609,
        -0.010797501,
        -8.525311,
        -8.961703,
        8.057255,
        1.470007,
        -8.100798,
        7.002531,
        -8.133163,
        -5.2547307,
        -6.967349,
        -4.666874,
        0.3046646,
        -7.467313,
        0.20472622,
        5.3528423,
        4.0812407,
        -1.4787378,
        1.8767986,
        -5.703041,
        -5.613448,
        0.61207867,
        7.8130627,
        -4.5089574,
        -0.060855865,
        -1.5862551,
        3.7183533,
        -2.8805466,
        -5.2354283,
        9.753813,
        -8.750097,
        -0.63838863,
        -7.3679543,
        -9.88194,
        9.5541,
        -7.30608,
        -8.170552,
        -2.9280944,
        3.2308092,
        0.5663595,
        -3.6042972,
        7.8168697,
        1.3889084,
        9.57906,
        7.012932,
        -5.3371663,
        -4.982557,
        -9.170103,
        -3.7871046,
        3.4383354,
        -2.5827546,
        0.68320847,
        -9.998457,
        2.8167543,
        -9.288936,
        0.26626205,
        -2.722146,
        3.9543447,
        9.512512,
        -7.5802565,
        8.408833,
        2.353777,
        -2.7927108,
        -6.0398335,
        -3.908772,
        9.0479965,
        1.5110884,
        -3.7918491,
        5.189249,
        1.1300192,
        -3.9334745,
        0.22927856,
        8.588587,
        -0.34157658,
        -9.523892,
        1.9146719,
        -9.611184,
        0.5213537,
        7.855114,
        8.553726,
        -1.8329449,
        0.25141144,
        -6.7366905,
        -4.473681,
        6.418276,
        -7.162552,
        -4.3742414,
        6.164747,
        -3.7166185,
        -2.5637264,
        -9.465423,
        7.659012,
        -5.3705616,
        -5.904164,
        0.123108864,
        0.44927216,
        -4.335651,
        0.118478775,
        8.474247,
        5.487444,
        -4.8769255,
        -8.064733,
        -8.57197,
        -6.2929583,
        1.6059885,
        0.7646265,
        -5.924196,
        7.053581,
        -5.126793,
        3.954772,
        2.239231,
        4.799243,
        -5.6702275,
        -2.3585072
      ]
    },
    {
      "index": 2,
      "output": -1.0,
      "input_connections": [
        [
          0,
          0.0
        ],
        [
          1,
          0.0
        ],
        [
          3,
          0.0
        ],
        [
          4,
          0.0
        ],
        [
          5,
          0.0
        ],
        [
          6,
          0.0
        ],
        [
          7,
          0.0
        ]
      ],
      "bias": 0.0,
      "self_activation": -0.027614249,
      "retina_weights": [
        1.4619436,
        -5.4104943,
        -2.894661,
        -4.8476334,
        5.988063,
        -0.5355921,
        -3.0677934,
        -4.537811,
        -1.2944212,
        -5.5786414,
        8.488546,
        -4.376504,
        -1.8048849,
        7.630621,
        -7.6951313,
        -2.3424091,
        6.4649143,
        -3.3373017,
        -7.6771784,
        -8.343322,
        -9.251785,
        0.82248306,
        -2.947578,
        1.4980803,
        7.290167,
        -4.0213175,
        -1.3420048,
        9.115406,
        -3.1226892,
        5.769619,
        2.3676767,
        -1.5922155,
        4.771305,
        5.5848093,
        2.270712,
        -8.410411,
        -4.105615,
        9.100227,
        0.26627445,
        9.412977,
        -2.601945,
        -5.0363226,
        -4.467873,
        6.468622,
        1.7039738,
        8.717972,
        3.3316412,
        -7.587635,
        7.6760426,
        -3.0069513,
        -8.815939,
        -3.9037914,
        6.0134087,
        -0.33407402,
        -4.5346494,
        1.7413435,
        -2.8455873,
        9.839224,
        -0.5037441,
        -7.7995157,
        8.35972,
        -9.704089,
        -6.494438,
        -2.1826973,
        -7.2671337,
        -0.8540268,
        1.826025,
        5.025362,
        8.311474,
        -8.691096,
        -5.2897687,
        1.1723938,
        9.182062,
        -7.183423,
        0.06546402,
        -9.259515,
        -7.62249,
        2.6632586,
        -8.671858,
        0.35034752,
        3.708562,
        -8.776197,
        -4.6295805,
        1.8808565,
        3.7938442,
        -2.3772755,
        -3.8242693,
        4.5557775,
        6.8830433,
        7.927515,
        3.0622425,
        6.264374,
        -3.844387,
        4.1240797,
        7.8716125,
        7.3707676,
        -3.7275286,
        -2.38835,
        1.3654623,
        5.496539,
        0.23266697,
        -3.856389,
        4.844576,
        1.7383089,
        -0.34026814,
        -4.474289,
        -4.8338814,
        -5.8411283,
        3.2401905,
        3.8941326,
        9.92457,
        -8.626308,
        0.6440582,
        3.6851225,
        6.606306,
        9.15547,
        9.932846,
        -7.3416634,
        -0.358984,
        2.5212088,
        -0.3889122,
        8.196568,
        3.2341423,
        0.05023861,
        5.8323736,
        7.281248,
        2.9012194,
        -7.2045918,
        5.7782907,
        -8.752799,
        7.302021,
        3.222393,
        6.215624,
        3.895608,
        -5.2412505,
        6.2701817,
        -2.8173037,
        -5.7720847,
        5.5642166,
        3.546897,
        -2.1816125,
        7.105505,
        4.667903,
        -5.761065,
        0.16950703,
        -6.347005,
        1.1311684,
        3.5182133,
        -8.345291,
        5.9949055,
        -2.2113004,
        3.5369482,
        -0.93456936,
        -3.3114834,
        -9.07387,
        -0.8968134,
        2.3624334,
        4.3789253,
        -4.298095,
        8.810343,
        -8.055846,
        -3.4626884,
        -3.3671136,
        5.045459,
        9.49794,
        9.096777,
        0.8228359,
        -9.383742,
        2.1503696,
        -0.78891945,
        5.8491554,
        7.6078053,
        -9.890339,
        -7.7499104,
        -3.4951777,
        -7.1261663,
        -8.6300535,
        4.4467363,
        3.4104195,
        8.479572,
        -3.5168762,
        -1.2397232,
        -8.637571,
        -2.906887,
        -3.3054466,
        3.1433306,
        1.6355314,
        -9.4597645,
        -9.041163,
        -1.9227018,
        -3.2685966,
        0.75405693,
        -1.7412825,
        -4.37787,
        -7.4738216,
        1.8086329,
        -3.245103,
        -1.3482018,
        -3.014011,
        -0.31406593,
        -2.8515835,
        -1.0355415,
        -4.4117565,
        4.229125,
        -3.2280488,
        9.791508,
        -0.10959053,
        3.8209019,
        -4.0754957,
        -9.815087,
        5.4136314,
        -6.007921,
        -5.752854,
        -4.5707793,
        6.8980694,
        -5.5593605,
        -8.351323,
        -6.123013,
        4.308239,
        3.557497,
        -3.8110418,
        7.2271786,
        5.6992903,
        -8.848655,
        -6.821327,
        -4.8831363,
        -8.903768,
        -3.8387985,
        1.4323559,
        -8.454027,
        1.4808836,
        4.22155,
        1.0322132,
        -5.843446,
        2.750636,
        -7.146284,
        4.589592,
        8.366632,
        3.6760292,
        3.3846655,
        8.360291,
        4.3269644,
        -3.574428,
        -7.5270653,
        -7.3037214,
        4.8832664,
        -6.0938663,
        2.4805107,
        -4.7792788,
        2.5041494,
        9.282316,
        8.893347,
        -3.2081814,
        4.4733515,
        -5.3227873,
        8.492643,
        7.9318447,
        -3.7560935,
        1.5818825,
        5.417961,
        -5.324034,
        8.2883835,
        2.8480396,
        -2.2506251,
        -3.1398602,
        -0.7267828,
        7.1852226,
        8.953438,
        7.417631,
        -2.4307194,
        -9.845559,
        -1.7943134,
        9.345993,
        9.939318,
        -0.55721664,
        -6.287484,
        -7.3025007,
        9.305153,
        -9.337127,
        -7.3057146,
        8.652121,
        -9.079766,
        2.3862514,
        -5.747177,
        7.9942226,
        9.478657,
        -1.5954275,
        -2.3518815,
        8.393938,
        9.615475,
        -4.479892,
        -0.013665199,
        5.834214,
        9.486906,
        7.7697124,
        9.992516,
        -3.39117,
        9.245144,
        3.282999,
        9.764233,
        8.487682,
        7.5988293,
        -0.23808861,
        2.8495588,
        -6.198022,
        0.5179157,
        -7.6140976,
        9.129728,
        3.4377947,
        0.8740034,
        -6.8383837,
        2.3751583,
        2.0825348,
        -6.783616,
        4.248022,
        -1.9878311,
        -4.073376,
        -7.350178,
        -3.7548704,
        -5.7061,
        8.385687,
        3.85501,
        -5.274348,
        3.8454971,
        -1.2648315,
        -9.630494,
        2.1468983,
        -4.0867753,
        -2.4927893,
        4.5762434,
        6.0183563,
        -3.6606379,
        -4.093284,
        -6.277382,
        -8.619041,
        -8.5848,
        6.230013,
        8.825106,
        3.8957014,
        -3.8077517,
        1.6729984,
        9.859056,
        3.9946184,
        -3.1066437,
        -7.6399775,
        3.4444513,
        -8.119783,
        9.5163,
        -5.319199,
        -9.247241,
        9.306461,
        3.1750526,
        0.6732788,
        8.800636,
        -5.35248,
        -3.5459323,
        -4.681341,
        -9.025709,
        -3.7680192,
        -2.225119,
        5.388278,
        -0.49247646,
        6.9582386,
        5.746049,
        3.296298,
        -2.3250284,
        8.281107,
        6.92342,
        1.2991037,
        -5.204794,
        2.92529,
        4.337307,
        -2.284545,
        -8.4181185,
        -7.641012,
        7.0979023,
        -0.13208103,
        -6.5833445,
        4.014739,
        1.0019054,
        1.7509642,
        -0.004722595,
        -1.6320486,
        9.164572,
        -9.494576,
        -9.2115755,
        -9.454184,
        7.000469,
        2.185873,
        6.489214,
        0.41389847,
        -4.3954844,
        -9.431846,
        -5.0078554,
        5.9413834,
        6.3018,
        5.435869,
        1.8759146,
        3.4582987,
        -1.5120478,
        -1.2523146,
        8.254538,
        5.0653067,
        -4.4653077,
        -9.979016,
        -5.6848187,
        -6.7916937,
        8.693628,
        -3.3275528,
        5.0428553,
        -7.9816456,
        -7.9356594,
        4.4153633,
        -4.696867,
        6.0996284,
        4.166809,
        -5.585441,
        -6.3513756,
        9.259596,
        -2.8990264,
        7.3916874,
        -7.0316477,
        1.0708437,
        -6.063344,
        3.7429962,
        7.6330605,
        0.52887535,
        1.2697878,
        -2.486774,
        1.3960514,
        -5.1318593,
        -4.8396177,
        -1.4753618,
        -7.6395626,
        -7.9664087,
        5.748042,
        4.6201096,
        -4.0141816,
        -9.138312,
        -8.320022,
        -1.4728804,
        2.016717,
        -6.2905884,
        7.0937786,
        -1.1790247,
        9.554525,
        4.546591,
        -8.861987,
        -0.879282,
        1.567522,
        7.639641,
        3.45858,
        -6.90567,
        -1.7452326,
        -3.2036157,
        -9.470279,
        3.047267,
        5.0175467,
        -1.3823147,
        2.0633497,
        -8.4130335,
        -0.5692663,
        1.5250597,
        -5.1684732,
        -3.1321092,
        1.9701042,
        1.0334549,
        1.9944105,
        -7.1132994,
        -3.042924,
        -0.30159378,
        4.0548525,
        -8.495369,
        0.97470856,
        -7.2213144,
        9.444372,
        -4.7161193,
        6.65518,
        6.522526,
        -4.1229243,
        3.9747896,
        3.08422,
        7.983837,
        -9.938147,
        4.9893484,
        7.1967697,
        7.86252,
        -0.9679384,
        -2.288381,
        -9.746113,
        -5.149338,
        -5.546326,
        -7.700598,
        4.4310703,
        1.657094,
        -9.18576,
        8.047306,
        0.26617622,
        0.58967686,
        -9.595696,
        7.8162956,
        8.274132,
        6.6796436,
        -1.68682,
        1.6933241,
        9.190037,
        -0.6866951,
        7.3155365,
        -6.432452,
        5.966505,
        5.8957167,
        9.531599,
        -3.5779948,
        -8.567452,
        -5.606112,
        8.213278,
        5.6616774,
        -1.3316126,
        -4.9480743,
        -8.617608,
        7.823021,
        1.6795149,
        2.116023,
        -0.8744831,
        -0.4939909,
        6.7779064,
        -2.7152247,
        -3.30723,
        -9.209294,
        -4.4370337,
        1.7468061,
        -1.6631117,
        -1.314642,
        -1.8743868,
        9.586515,
        -4.425368,
        0.9336815,
        5.1704874,
        -7.7860374,
        6.1815414,
        5.6470003,
        9.647118,
        -6.7725296,
        1.7449989,
        -3.259334,
        7.25284,
        -7.8811283,
        6.988577,
        -6.976509,
        1.3129911,
        1.8839607,
        -6.586027,
        6.5104237,
        -9.556923,
        -6.915045,
        4.9356356,
        -6.0846777,
        4.6407804,
        -3.285231,
        -8.511922,
        -5.869419,
        -1.1269588,
        5.40374,
        -8.4795,
        -3.9267297,
        0.3850708,
        0.39212322,
        5.974986,
        4.527606,
        -0.5797787,
        0.6372652,
        -4.65455,
        5.977294,
        1.6682425,
        8.627857,
        -5.617375,
        7.84783,
        3.0783787,
        -6.891718,
        -2.9060597,
        -7.2066135,
        -8.954854,
        -1.2829962,
        1.8496504,
        8.307533,
        5.231921,
        -5.0213428,
        -5.347931,
        -2.2317567,
        0.35264874,
        -6.837201,
        8.435059,
        2.766117,
        4.7776976,
        3.3056822,
        1.8659363,
        -6.95704,
        -6.234786,
        7.3779297,
        -7.2512197,
        3.28652,
        1.3653622,
        -5.569703,
        3.9296951,
        2.148324,
        -6.829812,
        -6.2432404,
        2.0040426,
        6.147232,
        7.9675694,
        -2.462038,
        1.7901192,
        1.3425884,
        6.1710873,
        9.231243,
        1.3170805,
        1.2857761,
        -4.0687675,
        1.4108906,
        8.010517,
        4.5278797,
        0.80541706,
        -3.884632,
        3.7208757,
        -8.152256,
        3.158392,
        4.0529385,
        1.9223251,
        4.142317,
        1.9820557,
        1.3262739,
        -3.3560414,
        8.209215,
        6.34387,
        -9.074614,
        -0.98009014,
        7.1508713,
        -0.03964615,
        -1.8657103,
        2.0672283,
        -2.4294295,
        -3.668682,
        -3.878612,
        7.815117,
        -6.4234114,
        3.3160295,
        -0.6061735,
        -5.3997035,
        -8.541989,
        -2.1685448,
        -7.6793146,
        -7.809615,
        -3.6216874,
        6.742731,
        -3.5895987,
        5.0114365,
        7.936575,
        -3.7553997,
        1.4521542,
        1.8595324,
        -4.27983,
        -0.3711071,
        1.0191288,
        0.3320303,
        0.27313805,
        2.981988,
        7.797865,
        -4.1515584,
        -3.8681169,
        -3.0282779,
        -4.597368,
        3.0753193,
        -5.2342744,
        -3.251471,
        -1.4766665,
        -7.712285,
        6.7184067,
        -6.342413,
        3.2792177,
        3.4460487,
        -4.996497,
        -8.192994,
        -5.4433484,
        2.3949633,
        -6.1209197,
        -6.5143633,
        6.882435,
        -9.019825,
        1.6210165,
        9.651876,
        6.059866,
        8.329926,
        8.952328,
        -2.2311797,
        1.0708485,
        -0.7242241,
        0.37538433,
        1.719223,
        4.2495594,
        5.482191,
        -2.2606697,
        -6.900997,
        9.286385,
        -7.2815294,
        0.121520996,
        -0.009459496,
        0.28341675,
        5.411765,
        3.3504305,
        -7.717309,
        0.59002304,
        -1.9937363,
        2.1478786,
        1.1460009,
        -3.7139363,
        7.5180836,
        -2.3810258,
        -7.224757,
        -9.164245,
        9.47904,
        2.8802214,
        2.6347647,
        6.042465,
        5.781104,
        9.171125,
        -7.3628397,
        -4.0889187,
        -9.575068,
        3.7961016,
        -9.348533,
        4.3671284,
        -2.9815502,
        9.505331,
        -6.0365815,
        1.1935339,
        -2.8495402,
        -9.537611,
        4.4913254,
        -1.5199318,
        -4.599213,
        -9.011709,
        -6.949293,
        -5.904536,
        2.0909204,
        0.9954605,
        -0.7260599,
        -9.861443,
        0.83030605,
        -3.709404,
        -4.5525403,
        8.624369,
        5.9289665,
        6.766657,
        -8.946252,
        -3.5114737,
        -9.022818,
        3.3168087,
        5.793375,
        5.5010023,
        9.978678,
        -0.21024609,
        0.3618393,
        7.7082214,
        -3.7439747,
        9.453997,
        -4.716725,
        7.989542,
        5.7702484,
        -1.2497559,
        -6.56291,
        2.726759,
        5.372512,
        -5.1404495,
        -7.4512453,
        -7.4002476,
        8.164827,
        9.235556,
        2.1980896,
        -0.12980652,
        3.3180342,
        -8.713131,
        -5.619864,
        5.2898874,
        1.8234005,
        4.985548,
        7.071251,
        5.300228,
        9.741226,
        9.24151,
        -5.4992933,
        -1.0363264,
        7.0966816,
        6.8528423,
        -0.33907604,
        -1.8098946,
        -4.102258,
        1.594163,
        -0.5583849,
        -8.965902,
        -0.42970848,
        8.22736,
        5.2724495,
        -3.8432927,
        4.578782,
        -6.6162634,
        -0.2182045,
        -3.0588741,
        -0.70057106,
        -3.7372417,
        -3.733029,
        -3.4278078,
        -8.407127,
        -2.0068398,
        3.224372,
        -0.13075256,
        -6.6575117,
        6.7974224,
        -7.166562,
        4.3222036,
        9.733355,
        -1.4638081,
        -3.403067,
        -5.0864406,
        -4.8283525,
        2.6285276,
        -6.9467707,
        -2.7618213,
        8.863375,
        -3.8568301,
        -0.60360813,
        5.721711,
        -0.9522648,
        0.7015457,
        -3.3626957,
        7.047674,
        4.39526,
        9.51078,
        9.100477,
        6.296583,
        4.4351425,
        7.9285374,
        -5.840723,
        -9.637849,
        -4.5373435,
        -0.0720377,
        5.6341143,
        5.9135265,
        3.1210146,
        -9.769341,
        1.1045113,
        -6.2423296,
        7.213272,
        3.0459108,
        7.236044,
        -1.0074558,
        -2.4295678,
        -2.615015,
        5.0501127,
        -8.507955,
        6.6305943,
        -7.181692,
        -9.582043,
        8.884363,
        -1.7688313,
        8.584692,
        -5.8155627,
        3.5161982,
        6.093878,
        -6.055717,
        -0.32245827,
        5.2446146,
        -0.64941597,
        5.0656023,
        -6.298175,
        1.503643,
        5.6321564,
        0.54041004,
        -8.053908,
        1.29249,
        6.1719837,
        -1.2932129,
        2.8079758,
        2.9836645,
        -6.154365,
        3.6566105,
        1.3772259,
        -0.44248962,
        -9.431021,
        4.2897186,
        -2.1606889,
        5.654091,
        -5.6136937,
        -9.631841,
        -1.4809914,
        -2.360014,
        7.4914074,
        -7.3295946,
        8.798441,
        6.12257,
        -3.6507316,
        1.6040506,
        1.0619202,
        -9.023776,
        0.62798405,
        8.904629,
        -6.6318293,
        3.8731613,
        -6.8763227,
        2.4874792,
        -5.688526,
        -3.290009,
        -0.7160921,
        7.1569195,
        -3.6490412,
        8.871061,
        -2.5553675,
        6.5817966,
        -7.918956,
        7.6138115,
        0.9376993,
        -1.7370672,
        6.114437,
        -2.8525205,
        1.6846857,
        -0.13617706,
        -1.4593811,
        9.882402,
        4.0940275,
        5.231282,
        -0.77544403,
        9.714447,
        7.6777096,
        -7.746231,
        -4.5366163,
        2.910265,
        -3.6955996,
        -7.3776054,
        4.0481176,
        4.072505,
        -6.9483824,
        -7.7799273,
        -9.341884,
        -0.47200394,
        1.5981522,
        1.102294,
        -2.928619,
        -3.7581534,
        9.963572,
        7.8219147,
        6.9815693,
        3.942789,
        2.3216047,
        -5.4329796,
        5.9222927,
        1.3765421,
        0.5434904,
        2.4276295,
        -4.9830074,
        7.3750916,
        5.83893,
        -6.6469526,
        1.8653545,
        -1.6718407,
        -5.8425064,
        -9.192882,
        -0.6260271,
        -4.820978,
        -8.833086,
        -0.44151974,
        -7.593562,
        2.8267918,
        -6.122274,
        0.7271681,
        -1.8609467,
        2.2038946,
        6.4662647,
        5.8475246,
        8.141472,
        0.46678638,
        7.5789185,
        -3.0424685,
        -6.3431616,
        4.2582645,
        5.2785463,
        5.4480762,
        2.6553926,
        2.6861658,
        -0.7264509,
        5.006031,
        3.7558117,
        -0.55003834,
        -1.6655054,
        -0.75534534,
        -1.9537678,
        -5.0759573,
        -6.62446,
        -0.68312836,
        8.404356,
        0.22291756,
        9.388895,
        -5.2229495,
        -0.7304735,
        5.958585,
        -5.2452655,
        -0.13132,
        -8.096604,
        6.0807343,
        -9.048009,
        4.315137,
        3.5727634,
        -4.562511,
        -6.252281,
        7.0571003,
        -5.1149387,
        1.2546625,
        -0.6003113,
        -7.6960325,
        4.674162,
        -0.62294865,
        -5.2902265,
        2.5781975,
        0.0953064,
        5.111949,
        -2.4394383,
        -3.3634062,
        -8.19235,
        9.570757,
        -4.102728,
        -8.582792,
        -7.7073717,
        4.261445,
        -1.214694,
        -6.900382,
        3.2817278,
        7.0451946,
        8.271347,
        -6.109199,
        6.484625,
        -9.262028,
        -1.8144007,
        8.364258,
        7.1900024,
        0.5890713,
        -0.4186716,
        7.2955246,
        -5.6303186,
        -2.6598687,
        2.775506,
        -3.6818953,
        -3.162424,
        -0.18133831,
        0.84268,
        -4.2449303,
        4.8178186,
        2.0249023,
        -0.50786877,
        0.3899393,
        -8.064925,
        3.4854832,
        2.8332863,
        -7.430477,
        9.797367,
        -1.9822521,
        -9.194347,
        2.7411566,
        1.3699713,
        1.7214594,
        4.2960415,
        1.6275034,
        4.588188,
        -5.5348463,
        2.234439,
        -5.5628724,
        -8.810339,
        -0.15428448,
        -3.0715055,
        1.5008726,
        -1.4963093,
        9.302326,
        -5.2843614,
        -8.520002,
        6.449114,
        -4.997067,
        9.310431,
        -8.59725,
        -9.081368,
        -0.6124964,
        -6.9101877,
        8.131081,
        -0.22473049,
        -1.17377,
        6.1908073,
        -3.45849,
        5.55324,
        -4.1497607,
        -0.3585024,
        2.5425396,
        4.5513783,
        -5.8004327,
        3.9734993,
        -8.581576,
        3.8055716,
        -8.259559,
        1.982194,
        -8.368354,
        3.2159224,
        3.9386024,
        2.6120577,
        5.073535,
        -4.6950765,
        -7.400298,
        8.309879,
        6.9353256,
        5.9206047,
        -8.780057,
        6.0137043,
        -9.396708,
        1.6699257,
        0.7057295,
        1.4699306,
        6.365999,
        6.135647,
        -7.7129574,
        2.2652378,
        6.753191,
        -7.2704144,
        -2.3075619,
        8.201946,
        1.99963,
        2.411293,
        3.145193,
        -1.2861767,
        5.5468264,
        6.535761,
        9.505917,
        -3.457169,
        0.9728966,
        -6.3719893,
        0.41548347,
        8.500875,
        1.9219866,
        6.887022,
        5.8494654,
        -3.6571546,
        -0.68913174,
        -4.0131373,
        -9.289982,
        1.2546196,
        -3.796527,
        6.7159195,
        -8.426935,
        -8.581502,
        -1.7550411,
        -5.8912535,
        6.766781,
        9.539238,
        -8.13127,
        -1.6665907,
        -8.26719,
        5.388362,
        -8.011248,
        6.3607216,
        -5.8776565,
        3.8967285,
        -0.053733826,
        -6.1887164,
        -9.209104,
        5.3805532,
        -1.7615004,
        -4.4391675,
        -1.7073603,
        9.675476,
        -3.422546,
        -9.008265,
        -9.995527,
        8.896753,
        -3.3072205,
        -7.043173,
        -5.9225197,
        -6.427309,
        5.2878466,
        -4.127669,
        -9.055111,
        7.5727844,
        -8.018496,
        6.440407,
        2.1396866,
        -1.6432753,
        8.550188,
        -2.927024,
        -2.3534932,
        -4.6896048,
        -7.0185585,
        -1.8894567,
        2.2325315,
        -4.7301097,
        -7.014696,
        5.2365484,
        7.9643555,
        7.4494076,
        -5.369336,
        -4.3478675,
        -8.416931,
        6.4663334,
        -1.284894,
        7.054764,
        -3.1976862,
        3.4872828,
        -7.3224354,
        4.7543774,
        7.9101906,
        6.3396416,
        -5.4668255,
        -5.410442,
        -0.9000912,
        6.457672,
        2.2665682,
        -5.4531474,
        9.778978,
        3.4929857,
        -0.3445282,
        3.4594812,
        -7.7578497,
        2.2279205,
        0.2671423,
        -4.319031,
        1.1227884,
        0.4676714,
        4.968668,
        5.6962433,
        1.5243473,
        3.6889277,
        5.5545063,
        3.0448427,
        3.6520948,
        -0.20111465,
        -7.991864,
        -6.672077,
        -0.33517075,
        4.1573534,
        9.09594,
        3.0774393,
        7.373232,
        6.462555,
        -1.3735886,
        -5.505552,
        -2.0254006,
        0.39730453,
        0.34945583,
        0.03743744,
        -4.1785927,
        -1.8819017,
        2.7024994,
        -2.0883002,
        2.9511967,
        4.789609,
        -0.010797501,
        -8.525311,
        -8.961703,
        8.057255,
        1.470007,
        -8.100798,
        7.002531,
        -8.133163,
        -5.2547307,
        -6.967349,
        -4.666874,
        0.3046646,
        -7.467313,
        0.20472622,
        5.3528423,
        4.0812407,
        -1.4787378,
        1.8767986,
        -5.703041,
        -5.613448,
        0.61207867,
        7.8130627,
        -4.5089574,
        -0.060855865,
        -1.5862551,
        3.7183533,
        -2.8805466,
        -5.2354283,
        9.753813,
        -8.750097,
        -0.63838863,
        -7.3679543,
        -9.88194,
        9.5541,
        -7.30608,
        -8.170552,
        -2.9280944,
        3.2308092,
        0.5663595,
        -3.6042972,
        7.8168697,
        1.3889084,
        9.57906,
        7.012932,
        -5.3371663,
        -4.982557,
        -9.170103,
        -3.7871046,
        3.4383354,
        -2.5827546,
        0.68320847,
        -9.998457,
        2.8167543,
        -9.288936,
        0.26626205,
        -2.722146,
        3.9543447,
        9.512512,
        -7.5802565,
        8.408833,
        2.353777,
        -2.7927108,
        -6.0398335,
        -3.908772,
        9.0479965,
        1.5110884,
        -3.7918491,
        5.189249,
        1.1300192,
        -3.9334745,
        0.22927856,
        8.588587,
        -0.34157658,
        -9.523892,
        1.9146719,
        -9.611184,
        0.5213537,
        7.855114,
        8.553726,
        -1.8329449,
        0.25141144,
        -6.7366905,
        -4.473681,
        6.418276,
        -7.162552,
        -4.3742414,
        6.164747,
        -3.7166185,
        -2.5637264,
        -9.465423,
        7.659012,
        -5.3705616,
        -5.904164,
        0.123108864,
        0.44927216,
        -4.335651,
        0.118478775,
        8.474247,
        5.487444,
        -4.8769255,
        -8.064733,
        -8.57197,
        -6.2929583,
        1.6059885,
        0.7646265,
        -5.924196,
        7.053581,
        -5.126793,
        3.954772,
        2.239231,
        4.799243,
        -5.6702275,
        -2.3585072
      ]
    },
    {
      "index": 3,
      "output": -1.0,
      "input_connections": [
        [
          0,
          0.0
        ],
        [
          1,
          0.0
        ],
        [
          2,
          0.0
        ],
        [
          4,
          0.0
        ],
        [
          5,
          0.0
        ],
        [
          6,
          0.12004085
        ],
        [
          7,
          0.0
        ]
      ],
      "bias": 0.0,
      "self_activation": 0.0,
      "retina_weights": [
        1.4619436,
        -5.4104943,
        -2.894661,
        -4.8476334,
        5.988063,
        -0.5355921,
        -3.0677934,
        -4.537811,
        -1.2944212,
        -5.5786414,
        8.488546,
        -4.376504,
        -1.8048849,
        7.630621,
        -7.6951313,
        -2.3424091,
        6.4649143,
        -3.3373017,
        -7.6771784,
        -8.343322,
        -9.251785,
        0.82248306,
        -2.947578,
        1.4980803,
        7.290167,
        -4.0213175,
        -1.3420048,
        9.115406,
        -3.1226892,
        5.769619,
        2.3676767,
        -1.5922155,
        4.771305,
        5.5848093,
        2.270712,
        -8.410411,
        -4.105615,
        9.100227,
        0.26627445,
        9.412977,
        -2.601945,
        -5.0363226,
        -4.467873,
        6.468622,
        1.7039738,
        8.717972,
        3.3316412,
        -7.587635,
        7.6760426,
        -3.0069513,
        -8.815939,
        -3.9037914,
        6.0134087,
        -0.33407402,
        -4.5346494,
        1.7413435,
        -2.8455873,
        9.839224,
        -0.5037441,
        -7.7995157,
        8.35972,
        -9.704089,
        -6.494438,
        -2.1826973,
        -7.2671337,
        -0.8540268,
        1.826025,
        5.025362,
        8.311474,
        -8.691096,
        -5.2897687,
        1.1723938,
        9.182062,
        -7.183423,
        0.06546402,
        -9.259515,
        -7.62249,
        2.6632586,
        -8.671858,
        0.35034752,
        3.708562,
        -8.776197,
        -4.6295805,
        1.8808565,
        3.7938442,
        -2.3772755,
        -3.8242693,
        4.5557775,
        6.8830433,
        7.927515,
        3.0622425,
        6.264374,
        -3.844387,
        4.1240797,
        7.8716125,
        7.3707676,
        -3.7275286,
        -2.38835,
        1.3654623,
        5.496539,
        0.23266697,
        -3.856389,
        4.844576,
        1.7383089,
        -0.34026814,
        -4.474289,
        -4.8338814,
        -5.8411283,
        3.2401905,
        3.8941326,
        9.92457,
        -8.626308,
        0.6440582,
        3.6851225,
        6.606306,
        9.15547,
        9.932846,
        -7.3416634,
        -0.358984,
        2.5212088,
        -0.3889122,
        8.196568,
        3.2341423,
        0.05023861,
        5.8323736,
        7.281248,
        2.9012194,
        -7.2045918,
        5.7782907,
        -8.752799,
        7.302021,
        3.222393,
        6.215624,
        3.895608,
        -5.2412505,
        6.2701817,
        -2.8173037,
        -5.7720847,
        5.5642166,
        3.546897,
        -2.1816125,
        7.105505,
        4.667903,
        -5.761065,
        0.16950703,
        -6.347005,
        1.1311684,
        3.5182133,
        -8.345291,
        5.9949055,
        -2.2113004,
        3.5369482,
        -0.93456936,
        -3.3114834,
        -9.07387,
        -0.8968134,
        2.3624334,
        4.3789253,
        -4.298095,
        8.810343,
        -8.055846,
        -3.4626884,
        -3.3671136,
        5.045459,
        9.49794,
        9.096777,
        0.8228359,
        -9.383742,
        2.1503696,
        -0.78891945,
        5.8491554,
        7.6078053,
        -9.890339,
        -7.7499104,
        -3.4951777,
        -7.1261663,
        -8.6300535,
        4.4467363,
        3.4104195,
        8.479572,
        -3.5168762,
        -1.2397232,
        -8.637571,
        -2.906887,
        -3.3054466,
        3.1433306,
        1.6355314,
        -9.4597645,
        -9.041163,
        -1.9227018,
        -3.2685966,
        0.75405693,
        -1.7412825,
        -4.37787,
        -7.4738216,
        1.8086329,
        -3.245103,
        -1.3482018,
        -3.014011,
        -0.31406593,
        -2.8515835,
        -1.0355415,
        -4.4117565,
        4.229125,
        -3.2280488,
        9.791508,
        -0.10959053,
        3.8209019,
        -4.0754957,
        -9.815087,
        5.4136314,
        -6.007921,
        -5.752854,
        -4.5707793,
        6.8980694,
        -5.5593605,
        -8.351323,
        -6.123013,
        4.308239,
        3.557497,
        -3.8110418,
        7.2271786,
        5.6992903,
        -8.848655,
        -6.821327,
        -4.8831363,
        -8.903768,
        -3.8387985,
        1.4323559,
        -8.454027,
        1.4808836,
        4.22155,
        1.0322132,
        -5.843446,
        2.750636,
        -7.146284,
        4.589592,
        8.366632,
        3.6760292,
        3.3846655,
        8.360291,
        4.3269644,
        -3.574428,
        -7.5270653,
        -7.3037214,
        4.8832664,
        -6.0938663,
        2.4805107,
        -4.7792788,
        2.5041494,
        9.282316,
        8.893347,
        -3.2081814,
        4.4733515,
        -5.3227873,
        8.492643,
        7.9318447,
        -3.7560935,
        1.5818825,
        5.417961,
        -5.324034,
        8.2883835,
        2.8480396,
        -2.2506251,
        -3.1398602,
        -0.7267828,
        7.1852226,
        8.953438,
        7.417631,
        -2.4307194,
        -9.845559,
        -1.7943134,
        9.345993,
        9.939318,
        -0.55721664,
        -6.287484,
        -7.3025007,
        9.305153,
        -9.337127,
        -7.3057146,
        8.652121,
        -9.079766,
        2.3862514,
        -5.747177,
        7.9942226,
        9.478657,
        -1.5954275,
        -2.3518815,
        8.393938,
        9.615475,
        -4.479892,
        -0.013665199,
        5.834214,
        9.486906,
        7.7697124,
        9.992516,
        -3.39117,
        9.245144,
        3.282999,
        9.764233,
        8.487682,
        7.5988293,
        -0.23808861,
        2.8495588,
        -6.198022,
        0.5179157,
        -7.6140976,
        9.129728,
        3.4377947,
        0.8740034,
        -6.8383837,
        2.3751583,
        2.0825348,
        -6.783616,
        4.248022,
        -1.9878311,
        -4.073376,
        -7.350178,
        -3.7548704,
        -5.7061,
        8.385687,
        3.85501,
        -5.274348,
        3.8454971,
        -1.2648315,
        -9.630494,
        2.1468983,
        -4.0867753,
        -2.4927893,
        4.5762434,
        6.0183563,
        -3.6606379,
        -4.093284,
        -6.277382,
        -8.619041,
        -8.5848,
        6.230013,
        8.825106,
        3.8957014,
        -3.8077517,
        1.6729984,
        9.859056,
        3.9946184,
        -3.1066437,
        -7.6399775,
        3.4444513,
        -8.119783,
        9.5163,
        -5.319199,
        -9.247241,
        9.306461,
        3.1750526,
        0.6732788,
        8.800636,
        -5.35248,
        -3.5459323,
        -4.681341,
        -9.025709,
        -3.7680192,
        -2.225119,
        5.388278,
        -0.49247646,
        6.9582386,
        5.746049,
        3.296298,
        -2.3250284,
        8.281107,
        6.92342,
        1.2991037,
        -5.204794,
        2.92529,
        4.337307,
        -2.284545,
        -8.4181185,
        -7.641012,
        7.0979023,
        -0.13208103,
        -6.5833445,
        4.014739,
        1.0019054,
        1.7509642,
        -0.004722595,
        -1.6320486,
        9.164572,
        -9.494576,
        -9.2115755,
        -9.454184,
        7.000469,
        2.185873,
        6.489214,
        0.41389847,
        -4.3954844,
        -9.431846,
        -5.0078554,
        5.9413834,
        6.3018,
        5.435869,
        1.8759146,
        3.4582987,
        -1.5120478,
        -1.2523146,
        8.254538,
        5.0653067,
        -4.4653077,
        -9.979016,
        -5.6848187,
        -6.7916937,
        8.693628,
        -3.3275528,
        5.0428553,
        -7.9816456,
        -7.9356594,
        4.4153633,
        -4.696867,
        6.0996284,
        4.166809,
        -5.585441,
        -6.3513756,
        9.259596,
        -2.8990264,
        7.3916874,
        -7.0316477,
        1.0708437,
        -6.063344,
        3.7429962,
        7.6330605,
        0.52887535,
        1.2697878,
        -2.486774,
        1.3960514,
        -5.1318593,
        -4.8396177,
        -1.4753618,
        -7.6395626,
        -7.9664087,
        5.748042,
        4.6201096,
        -4.0141816,
        -9.138312,
        -8.320022,
        -1.4728804,
        2.016717,
        -6.2905884,
        7.0937786,
        -1.1790247,
        9.554525,
        4.546591,
        -8.861987,
        -0.879282,
        1.567522,
        7.639641,
        3.45858,
        -6.90567,
        -1.7452326,
        -3.2036157,
        -9.470279,
        3.047267,
        5.0175467,
        -1.3823147,
        2.0633497,
        -8.4130335,
        -0.5692663,
        1.5250597,
        -5.1684732,
        -3.1321092,
        1.9701042,
        1.0334549,
        1.9944105,
        -7.1132994,
        -3.042924,
        -0.30159378,
        4.0548525,
        -8.495369,
        0.97470856,
        -7.2213144,
        9.444372,
        -4.7161193,
        6.65518,
        6.522526,
        -4.1229243,
        3.9747896,
        3.08422,
        7.983837,
        -9.938147,
        4.9893484,
        7.1967697,
        7.86252,
        -0.9679384,
        -2.288381,
        -9.746113,
        -5.149338,
        -5.546326,
        -7.700598,
        4.4310703,
        1.657094,
        -9.18576,
        8.047306,
        0.26617622,
        0.58967686,
        -9.595696,
        7.8162956,
        8.274132,
        6.6796436,
        -1.68682,
        1.6933241,
        9.190037,
        -0.6866951,
        7.3155365,
        -6.432452,
        5.966505,
        5.8957167,
        9.531599,
        -3.5779948,
        -8.567452,
        -5.606112,
        8.213278,
        5.6616774,
        -1.3316126,
        -4.9480743,
        -8.617608,
        7.823021,
        1.6795149,
        2.116023,
        -0.8744831,
        -0.4939909,
        6.7779064,
        -2.7152247,
        -3.30723,
        -9.209294,
        -4.4370337,
        1.7468061,
        -1.6631117,
        -1.314642,
        -1.8743868,
        9.586515,
        -4.425368,
        0.9336815,
        5.1704874,
        -7.7860374,
        6.1815414,
        5.6470003,
        9.647118,
        -6.7725296,
        1.7449989,
        -3.259334,
        7.25284,
        -7.8811283,
        6.988577,
        -6.976509,
        1.3129911,
        1.8839607,
        -6.586027,
        6.5104237,
        -9.556923,
        -6.915045,
        4.9356356,
        -6.0846777,
        4.6407804,
        -3.285231,
        -8.511922,
        -5.869419,
        -1.1269588,
        5.40374,
        -8.4795,
        -3.9267297,
        0.3850708,
        0.39212322,
        5.974986,
        4.527606,
        -0.5797787,
        0.6372652,
        -4.65455,
        5.977294,
        1.6682425,
        8.627857,
        -5.617375,
        7.84783,
        3.0783787,
        -6.891718,
        -2.9060597,
        -7.2066135,
        -8.954854,
        -1.2829962,
        1.8496504,
        8.307533,
        5.231921,
        -5.0213428,
        -5.347931,
        -2.2317567,
        0.35264874,
        -6.837201,
        8.435059,
        2.766117,
        4.7776976,
        3.3056822,
        1.8659363,
        -6.95704,
        -6.234786,
        7.3779297,
        -7.2512197,
        3.28652,
        1.3653622,
        -5.569703,
        3.9296951,
        2.148324,
        -6.829812,
        -6.2432404,
        2.0040426,
        6.147232,
        7.9675694,
        -2.462038,
        1.7901192,
        1.3425884,
        6.1710873,
        9.231243,
        1.3170805,
        1.2857761,
        -4.0687675,
        1.4108906,
        8.010517,
        4.5278797,
        0.80541706,
        -3.884632,
        3.7208757,
        -8.152256,
        3.158392,
        4.0529385,
        1.9223251,
        4.142317,
        1.9820557,
        1.3262739,
        -3.3560414,
        8.209215,
        6.34387,
        -9.074614,
        -0.98009014,
        7.1508713,
        -0.03964615,
        -1.8657103,
        2.0672283,
        -2.4294295,
        -3.668682,
        -3.878612,
        7.815117,
        -6.4234114,
        3.3160295,
        -0.6061735,
        -5.3997035,
        -8.541989,
        -2.1685448,
        -7.6793146,
        -7.809615,
        -3.6216874,
        6.742731,
        -3.5895987,
        5.0114365,
        7.936575,
        -3.7553997,
        1.4521542,
        1.8595324,
        -4.27983,
        -0.3711071,
        1.0191288,
        0.3320303,
        0.27313805,
        2.981988,
        7.797865,
        -4.1515584,
        -3.8681169,
        -3.0282779,
        -4.597368,
        3.0753193,
        -5.2342744,
        -3.251471,
        -1.4766665,
        -7.712285,
        6.7184067,
        -6.342413,
        3.2792177,
        3.4460487,
        -4.996497,
        -8.192994,
        -5.4433484,
        2.3949633,
        -6.1209197,
        -6.5143633,
        6.882435,
        -9.019825,
        1.6210165,
        9.651876,
        6.059866,
        8.329926,
        8.952328,
        -2.2311797,
        1.0708485,
        -0.7242241,
        0.37538433,
        1.719223,
        4.2495594,
        5.482191,
        -2.2606697,
        -6.900997,
        9.286385,
        -7.2815294,
        0.121520996,
        -0.009459496,
        0.28341675,
        5.411765,
        3.3504305,
        -7.717309,
        0.59002304,
        -1.9937363,
        2.1478786,
        1.1460009,
        -3.7139363,
        7.5180836,
        -2.3810258,
        -7.224757,
        -9.164245,
        9.47904,
        2.8802214,
        2.6347647,
        6.042465,
        5.781104,
        9.171125,
        -7.3628397,
        -4.0889187,
        -9.575068,
        3.7961016,
        -9.348533,
        4.3671284,
        -2.9815502,
        9.505331,
        -6.0365815,
        1.1935339,
        -2.8495402,
        -9.537611,
        4.4913254,
        -1.5199318,
        -4.599213,
        -9.011709,
        -6.949293,
        -5.904536,
        2.0909204,
        0.9954605,
        -0.7260599,
        -9.861443,
        0.83030605,
        -3.709404,
        -4.5525403,
        8.624369,
        5.9289665,
        6.766657,
        -8.946252,
        -3.5114737,
        -9.022818,
        3.3168087,
        5.793375,
        5.5010023,
        9.978678,
        -0.21024609,
        0.3618393,
        7.7082214,
        -3.7439747,
        9.453997,
        -4.716725,
        7.989542,
        5.7702484,
        -1.2497559,
        -6.56291,
        2.726759,
        5.372512,
        -5.1404495,
        -7.4512453,
        -7.4002476,
        8.164827,
        9.235556,
        2.1980896,
        -0.12980652,
        3.3180342,
        -8.713131,
        -5.619864,
        5.2898874,
        1.8234005,
        4.985548,
        7.071251,
        5.300228,
        9.741226,
        9.24151,
        -5.4992933,
        -1.0363264,
        7.0966816,
        6.8528423,
        -0.33907604,
        -1.8098946,
        -4.102258,
        1.594163,
        -0.5583849,
        -8.965902,
        -0.42970848,
        8.22736,
        5.2724495,
        -3.8432927,
        4.578782,
        -6.6162634,
        -0.2182045,
        -3.0588741,
        -0.70057106,
        -3.7372417,
        -3.733029,
        -3.4278078,
        -8.407127,
        -2.0068398,
        3.224372,
        -0.13075256,
        -6.6575117,
        6.7974224,
        -7.166562,
        4.3222036,
        9.733355,
        -1.4638081,
        -3.403067,
        -5.0864406,
        -4.8283525,
        2.6285276,
        -6.9467707,
        -2.7618213,
        8.863375,
        -3.8568301,
        -0.60360813,
        5.721711,
        -0.9522648,
        0.7015457,
        -3.3626957,
        7.047674,
        4.39526,
        9.51078,
        9.100477,
        6.296583,
        4.4351425,
        7.9285374,
        -5.840723,
        -9.637849,
        -4.5373435,
        -0.0720377,
        5.6341143,
        5.9135265,
        3.1210146,
        -9.769341,
        1.1045113,
        -6.2423296,
        7.213272,
        3.0459108,
        7.236044,
        -1.0074558,
        -2.4295678,
        -2.615015,
        5.0501127,
        -8.507955,
        6.6305943,
        -7.181692,
        -9.582043,
        8.884363,
        -1.7688313,
        8.584692,
        -5.8155627,
        3.5161982,
        6.093878,
        -6.055717,
        -0.32245827,
        5.2446146,
        -0.64941597,
        5.0656023,
        -6.298175,
        1.503643,
        5.6321564,
        0.54041004,
        -8.053908,
        1.29249,
        6.1719837,
        -1.2932129,
        2.8079758,
        2.9836645,
        -6.154365,
        3.6566105,
        1.3772259,
        -0.44248962,
        -9.431021,
        4.2897186,
        -2.1606889,
        5.654091,
        -5.6136937,
        -9.631841,
        -1.4809914,
        -2.360014,
        7.4914074,
        -7.3295946,
        8.798441,
        6.12257,
        -3.6507316,
        1.6040506,
        1.0619202,
        -9.023776,
        0.62798405,
        8.904629,
        -6.6318293,
        3.8731613,
        -6.8763227,
        2.4874792,
        -5.688526,
        -3.290009,
        -0.7160921,
        7.1569195,
        -3.6490412,
        8.871061,
        -2.5553675,
        6.5817966,
        -7.918956,
        7.6138115,
        0.9376993,
        -1.7370672,
        6.114437,
        -2.8525205,
        1.6846857,
        -0.13617706,
        -1.4593811,
        9.882402,
        4.0940275,
        5.231282,
        -0.77544403,
        9.714447,
        7.6777096,
        -7.746231,
        -4.5366163,
        2.910265,
        -3.6955996,
        -7.3776054,
        4.0481176,
        4.072505,
        -6.9483824,
        -7.7799273,
        -9.341884,
        -0.47200394,
        1.5981522,
        1.102294,
        -2.928619,
        -3.7581534,
        9.963572,
        7.8219147,
        6.9815693,
        3.942789,
        2.3216047,
        -5.4329796,
        5.9222927,
        1.3765421,
        0.5434904,
        2.4276295,
        -4.9830074,
        7.3750916,
        5.83893,
        -6.6469526,
        1.8653545,
        -1.6718407,
        -5.8425064,
        -9.192882,
        -0.6260271,
        -4.820978,
        -8.833086,
        -0.44151974,
        -7.593562,
        2.8267918,
        -6.122274,
        0.7271681,
        -1.8609467,
        2.2038946,
        6.4662647,
        5.8475246,
        8.141472,
        0.46678638,
        7.5789185,
        -3.0424685,
        -6.3431616,
        4.2582645,
        5.2785463,
        5.4480762,
        2.6553926,
        2.6861658,
        -0.7264509,
        5.006031,
        3.7558117,
        -0.55003834,
        -1.6655054,
        -0.75534534,
        -1.9537678,
        -5.0759573,
        -6.62446,
        -0.68312836,
        8.404356,
        0.22291756,
        9.388895,
        -5.2229495,
        -0.7304735,
        5.958585,
        -5.2452655,
        -0.13132,
        -8.096604,
        6.0807343,
        -9.048009,
        4.315137,
        3.5727634,
        -4.562511,
        -6.252281,
        7.0571003,
        -5.1149387,
        1.2546625,
        -0.6003113,
        -7.6960325,
        4.674162,
        -0.62294865,
