{
  "neurons": [
    {
      "index": 0,
      "output": -0.7896958,
      "input_connections": [
        [
          1,
          -0.013734385
        ],
        [
          2,
          0.05505736
        ],
        [
          3,
          -3.6590538
        ],
        [
          4,
          3.4020872
        ],
        [
          5,
          0.21488883
        ]
      ],
      "bias": -0.19024569,
      "self_activation": 0.1346807,
      "retina_weights": [
        0.0,
        0.22254461,
        0.0,
        0.0,
        0.0,
        0.0,
        0.0,
        0.0,
        1.3803372,
        0.07113658,
        0.0,
        0.0,
        0.04602586,
        0.060356196,
        0.0,
        0.057901394,
        0.0,
        0.0,
        0.0,
        0.0,
        1.4322,
        -0.43584982,
        0.0047623515,
        -0.2391231,
        0.0,
        0.0,
        0.0,
        0.0,
        0.0,
        -0.15440068,
        0.0,
        -0.23810735,
        0.0,
        0.12908657,
        0.0,
        0.0,
        0.0,
        0.0,
        0.0,
        -0.049618118,
        0.0,
        0.0,
        -0.29682592,
        0.074658714,
        0.0,
        0.015043706,
        0.0,
        0.0,
        0.0,
        -0.18150592,
        0.07415602,
        0.0,
        0.0,
        -0.0070035458,
        0.0,
        3.9282236,
        0.0,
        0.0,
        0.0,
        0.18173534,
        0.0,
        0.0,
        0.0,
        -0.06217953,
        0.18407077,
        0.0,
        0.20291537,
        0.0,
        0.0,
        -0.05163031,
        -0.24675739,
        0.0,
        0.08112779,
        0.0019082576,
        0.0,
        0.11567298,
        0.0,
        0.0,
        -0.006662883,
        0.0,
        0.0
      ]
    },
    {
      "index": 1,
      "output": 0.99999994,
      "input_connections": [
        [
          0,
          -2.6484938
        ],
        [
          2,
          0.20375392
        ],
        [
          3,
          -3.640911
        ],
        [
          4,
          -0.14911357
        ],
        [
          5,
          -3.9426003
        ]
      ],
      "bias": 0.36187258,
      "self_activation": 0.031354472,
      "retina_weights": [
        0.19935909,
        0.0,
        0.0,
        0.0265112,
        0.0,
        -0.06476527,
        0.0,
        0.0,
        0.0,
        0.0,
        0.0,
        0.0,
        0.14361101,
        0.1447666,
        -0.030083485,
        0.3089951,
        0.0,
        0.0,
        0.0,
        0.0,
        0.0,
        0.0,
        -0.28098753,
        0.11369376,
        -2.9913282,
        0.0,
        0.0,
        0.0,
        0.0,
        0.0,
        0.0,
        0.0,
        0.0,
        0.29134047,
        -0.03216473,
        0.4728853,
        0.0,
        -1.4852731,
        0.0,
        -0.02554416,
        0.0,
        0.0,
        0.0,
        0.0,
        0.0,
        0.0,
        -0.15303427,
        -0.097299196,
        0.0,
        -0.12680256,
        0.0,
        0.0,
        0.09322106,
        0.0,
        0.0,
        0.0,
        0.0,
        0.21166262,
        0.0,
        -0.13785022,
        0.0,
        0.099359624,
        3.4028912,
        0.0,
        0.0,
        0.0,
        -0.005316198,
        0.0,
        0.0,
        0.0,
        2.211173,
        1.4071116,
        0.0,
        1.1624589,
        3.375517,
        0.0,
        0.0,
        0.0,
        0.0,
        0.0,
        0.0
      ]
    },
    {
      "index": 2,
      "output": 0.99936867,
      "input_connections": [
        [
          0,
          0.13790579
        ],
        [
          1,
          0.29202938
        ],
        [
          3,
          0.09068045
        ],
        [
          4,
          0.3576446
        ],
        [
          5,
          0.07482009
        ]
      ],
      "bias": 0.32917592,
      "self_activation": -0.019580267,
      "retina_weights": [
        0.0,
        -0.4085879,
        -0.0428515,
        -0.039658867,
        0.25771236,
        0.0,
        0.0,
        0.0,
        -0.07803095,
        -0.012157224,
        0.24890676,
        0.0,
        0.0,
        0.045543414,
        0.0,
        0.09211737,
        0.1251486,
        -0.27113232,
        0.0,
        0.10846433,
        0.1950821,
        -0.11379767,
        0.52151537,
        0.29636422,
        0.36300516,
        0.0,
        0.0,
        0.0,
        0.0,
        0.04894036,
        0.0,
        -0.13393313,
        0.15793243,
        0.0,
        0.40301973,
        0.12199536,
        -0.31466532,
        0.0,
        0.0,
        0.20932567,
        0.44264936,
        0.0,
        0.2829111,
        0.050631497,
        0.0,
        0.0,
        0.026302367,
        0.058995046,
        0.0,
        0.0,
        -0.02774445,
        0.0,
        -0.02534882,
        0.0,
        0.28383404,
        0.15606979,
        0.15060136,
        0.45020562,
        0.0,
        0.0,
        0.0,
        0.23028806,
        -0.03148853,
        -0.21354178,
        -0.0023124367,
        0.22715464,
        0.0,
        0.0,
        0.18165717,
        0.02234725,
        -0.33813405,
        -0.12017078,
        0.38169444,
        0.092385,
        -0.024973854,
        0.12750572,
        0.0,
        0.16359293,
        0.0,
        -0.014623329,
        0.029326074
      ]
    },
    {
      "index": 3,
      "output": 0.9988716,
      "input_connections": [
        [
          0,
          -0.08846428
        ],
        [
          1,
          0.027237669
        ],
        [
          2,
          0.1685074
        ],
        [
          4,
          0.27551046
        ],
        [
          5,
          -0.08913442
        ]
      ],
      "bias": -0.4052368,
      "self_activation": 0.08465564,
      "retina_weights": [
        0.33582598,
        0.0,
        0.0,
        0.39682305,
        0.0,
        0.14617233,
        0.38863868,
        0.0,
        -0.14976737,
        0.2834603,
        -0.06513331,
        0.0,
        0.0,
        -0.091699876,
        0.0,
        0.20171812,
        0.0,
        -0.07519347,
        -0.17379582,
        -0.22097275,
        0.1673299,
        0.08694278,
        0.18247029,
        0.19045186,
        0.0,
        0.3750994,
        0.04906237,
        0.0,
        0.4984449,
        -0.04875026,
        0.14452903,
        -0.0035693273,
        0.18109474,
        0.11803999,
        0.0,
        0.0,
        0.11029063,
        0.0,
        0.09181203,
        0.0,
        0.26859412,
        -0.16052628,
        -0.048946984,
        -0.12026233,
        0.047043573,
        0.28925842,
        -0.0004950762,
        0.0,
        -0.17602909,
        0.08126894,
        0.38080078,
        0.20750281,
        0.21423393,
        0.043323334,
        0.4160147,
        -0.14754122,
        -2.1575353,
        -0.08780118,
        -0.050376482,
        0.10198327,
        1.8097014,
        -0.11564698,
        0.19308582,
        0.13608558,
        -0.1950171,
        0.028413966,
        -0.13080162,
        -0.13423184,
        -0.2306261,
        -0.05679632,
        -0.9107013,
        0.1235497,
        1.0712323,
        -0.14943591,
        0.0,
        0.0,
        0.0,
        -0.073737375,
        0.052617583,
        0.0,
        0.45891693
      ]
    },
    {
      "index": 4,
      "output": -0.9999561,
      "input_connections": [
        [
          0,
          0.36261418
        ],
        [
          1,
          3.0270424
        ],
        [
          2,
          -0.22561547
        ],
        [
          3,
          0.028262869
        ],
        [
          5,
          -0.41589805
        ]
      ],
      "bias": -0.1003392,
      "self_activation": -0.15788877,
      "retina_weights": [
        0.0,
        0.0,
        -0.19325408,
        0.0,
        -0.079480134,
        2.1334991,
        -0.040552936,
        -0.1423004,
        -0.4562211,
        0.0,
        0.0,
        -1.7501934,
        -0.019567728,
        0.0,
        0.0,
        -0.044124745,
        0.0,
        0.27081588,
        0.2502571,
        0.2017192,
        0.11577589,
        0.28503692,
        -3.149127,
        0.25502253,
        0.0,
        -0.006081894,
        0.0,
        -0.25295725,
        0.2666584,
        0.6289049,
        0.13341448,
        0.008044668,
        0.0,
        0.0,
        0.012503952,
        0.0,
        0.2097952,
        -0.12067025,
        0.0,
        0.0,
        0.0,
        -0.12864104,
        -0.16880041,
        0.23423576,
        0.0,
        -1.5677726,
        0.0,
        0.0,
        0.0,
        0.15254721,
        0.0,
        0.39541727,
        -0.21346486,
        0.0,
        0.0,
        -0.16062665,
        0.0,
        0.11608152,
        -0.19975615,
        0.32202205,
        -0.02018024,
        -0.02727031,
        0.0,
        0.0,
        0.0,
        -0.18006492,
        0.124251366,
        -0.08132041,
        0.0,
        0.1678482,
        0.0,
        0.0,
        0.0,
        0.0,
        0.0,
        0.0,
        0.20871468,
        0.0,
        0.0,
        -0.28692758,
        0.029778354
      ]
    },
    {
      "index": 5,
      "output": -0.5843923,
      "input_connections": [
        [
          0,
          0.024131872
        ],
        [
          1,
          -0.012308717
        ],
        [
          2,
          -0.3334716
        ],
        [
          3,
          0.1777373
        ],
        [
          4,
          3.0886211
        ]
      ],
      "bias": 0.3102259,
      "self_activation": 0.0,
      "retina_weights": [
        0.0,
        0.0,
        -0.0641151,
        0.0,
        0.0,
        0.16613773,
        0.0,
        0.0,
        0.0,
        -0.2216604,
        -0.21343994,
        -0.23203743,
        -0.17143798,
        0.17326936,
        0.0,
        0.038618367,
        0.12719312,
        0.0,
        0.26023862,
        0.12936911,
        0.0,
        0.0,
        0.0,
        -0.13683444,
        0.0,
        0.32195255,
        0.0,
        0.09360978,
        0.14374232,
        0.0,
        -0.019036576,
        0.0,
        0.0,
        0.0,
        0.0,
        0.0,
        0.2472035,
        0.1504076,
        -0.38681865,
        0.0,
        -0.08498233,
        0.0,
        0.03353043,
        0.3504483,
        2.4531002,
        0.06804873,
        -0.20531586,
        0.0,
        0.0,
        0.10397328,
        0.0,
        0.2224378,
        -0.06208677,
        -0.2326799,
        0.0,
        0.08617658,
        0.0,
        -0.3537171,
        0.0,
        0.0,
        0.0,
        0.024635985,
        0.21464586,
        0.0,
        0.0,
        0.12823287,
        0.29609305,
        0.32645187,
        0.0,
        -2.1852987,
        0.0,
        0.0,
        0.19999684,
        0.28116307,
        0.0,
        -0.22040227,
        0.0,
        0.0036026388,
        0.18916109,
        0.0,
        0.22333005
      ]
    }
  ],
  "short_term_memory": {
    "snapshots": [
      {
        "outputs": [
          0.9869234,
          1.0,
          0.99988955,
          0.9994709,
          -0.09429897,
          0.9895959
        ],
        "time_step": 0
      },
      {
        "outputs": [
          0.9869533,
          -0.8640977,
          0.9999402,
          0.99893785,
          -0.07631245,
          0.9727785
        ],
        "time_step": 1
      },
      {
        "outputs": [
          0.9889847,
          -0.8623018,
          0.99982417,
          0.9988394,
          -0.99997824,
          0.97668236
        ],
        "time_step": 2
      },
      {
        "outputs": [
          -0.49518135,
          -0.828991,
          0.9996603,
          0.99806803,
          -0.9999707,
          -0.55999255
        ],
        "time_step": 3
      },
      {
        "outputs": [
          -0.7896958,
          0.99999994,
          0.99936867,
          0.9988716,
          -0.9999561,
          -0.5843923
        ],
        "time_step": 4
      },
      {
        "outputs": [
          -0.8156088,
          1.0,
          0.99976385,
          0.9990347,
          0.07687187,
          -0.60337776
        ],
        "time_step": 5
      },
      {
        "outputs": [
          0.9869234,
          1.0,
          0.99988955,
          0.9994709,
          -0.09429897,
          0.9895959
        ],
        "time_step": 6
      },
      {
        "outputs": [
          0.9869533,
          -0.8640977,
          0.9999402,
          0.99893785,
          -0.07631245,
          0.9727785
        ],
        "time_step": 7
      },
      {
        "outputs": [
          0.9889847,
          -0.8623018,
          0.99982417,
          0.9988394,
          -0.99997824,
          0.97668236
        ],
        "time_step": 8
      },
      {
        "outputs": [
          -0.49518135,
          -0.828991,
          0.9996603,
          0.99806803,
          -0.9999707,
          -0.55999255
        ],
        "time_step": 9
      },
      {
        "outputs": [
          -0.7896958,
          0.99999994,
          0.99936867,
          0.9988716,
          -0.9999561,
          -0.5843923
        ],
        "time_step": 10
      },
      {
        "outputs": [
          -0.8156088,
          1.0,
          0.99976385,
          0.9990347,
          0.07687187,
          -0.60337776
        ],
        "time_step": 11
      },
      {
        "outputs": [
          0.9869234,
          1.0,
          0.99988955,
          0.9994709,
          -0.09429897,
          0.9895959
        ],
        "time_step": 12
      },
      {
        "outputs": [
          0.9869533,
          -0.8640977,
          0.9999402,
          0.99893785,
          -0.07631245,
          0.9727785
        ],
        "time_step": 13
      },
      {
        "outputs": [
          0.9889847,
          -0.8623018,
          0.99982417,
          0.9988394,
          -0.99997824,
          0.97668236
        ],
        "time_step": 14
      },
      {
        "outputs": [
          -0.49518135,
          -0.828991,
          0.9996603,
          0.99806803,
          -0.9999707,
          -0.55999255
        ],
        "time_step": 15
      },
      {
        "outputs": [
          -0.7896958,
          0.99999994,
          0.99936867,
          0.9988716,
          -0.9999561,
          -0.5843923
        ],
        "time_step": 16
      },
      {
        "outputs": [
          -0.8156088,
          1.0,
          0.99976385,
          0.9990347,
          0.07687187,
          -0.60337776
        ],
        "time_step": 17
      },
      {
        "outputs": [
          0.9869234,
          1.0,
          0.99988955,
          0.9994709,
          -0.09429897,
          0.9895959
        ],
        "time_step": 18
      },
      {
        "outputs": [
          0.9869533,
          -0.8640977,
          0.9999402,
          0.99893785,
          -0.07631245,
          0.9727785
        ],
        "time_step": 19
      },
      {
        "outputs": [
          0.9889847,
          -0.8623018,
          0.99982417,
          0.9988394,
          -0.99997824,
          0.97668236
        ],
        "time_step": 20
      },
      {
        "outputs": [
          -0.49518135,
          -0.828991,
          0.9996603,
          0.99806803,
          -0.9999707,
          -0.55999255
        ],
        "time_step": 21
      },
      {
        "outputs": [
          -0.7896958,
          0.99999994,
          0.99936867,
          0.9988716,
          -0.9999561,
          -0.5843923
        ],
        "time_step": 22
      },
      {
        "outputs": [
          -0.8156088,
          1.0,
          0.99976385,
          0.9990347,
          0.07687187,
          -0.60337776
        ],
        "time_step": 23
      },
      {
        "outputs": [
          0.9869234,
          1.0,
          0.99988955,
          0.9994709,
          -0.09429897,
          0.9895959
        ],
        "time_step": 24
      },
      {
        "outputs": [
          0.9869533,
          -0.8640977,
          0.9999402,
          0.99893785,
          -0.07631245,
          0.9727785
        ],
        "time_step": 25
      },
      {
        "outputs": [
          0.9889847,
          -0.8623018,
          0.99982417,
          0.9988394,
          -0.99997824,
          0.97668236
        ],
        "time_step": 26
      },
      {
        "outputs": [
          -0.49518135,
          -0.828991,
          0.9996603,
          0.99806803,
          -0.9999707,
          -0.55999255
        ],
        "time_step": 27
      },
      {
        "outputs": [
          -0.7896958,
          0.99999994,
          0.99936867,
          0.9988716,
          -0.9999561,
          -0.5843923
        ],
        "time_step": 28
      },
      {
        "outputs": [
          -0.8156088,
          1.0,
          0.99976385,
          0.9990347,
          0.07687187,
          -0.60337776
        ],
        "time_step": 29
      },
      {
        "outputs": [
          0.9869234,
          1.0,
          0.99988955,
          0.9994709,
          -0.09429897,
          0.9895959
        ],
        "time_step": 30
      },
      {
        "outputs": [
          0.9869533,
          -0.8640977,
          0.9999402,
          0.99893785,
          -0.07631245,
          0.9727785
        ],
        "time_step": 31
      },
      {
        "outputs": [
          0.9889847,
          -0.8623018,
          0.99982417,
          0.9988394,
          -0.99997824,
          0.97668236
        ],
        "time_step": 32
      },
      {
        "outputs": [
          -0.49518135,
          -0.828991,
          0.9996603,
          0.99806803,
          -0.9999707,
          -0.55999255
        ],
        "time_step": 33
      },
      {
        "outputs": [
          -0.7896958,
          0.99999994,
          0.99936867,
          0.9988716,
          -0.9999561,
          -0.5843923
        ],
        "time_step": 34
      },
      {
        "outputs": [
          -0.8156088,
          1.0,
          0.99976385,
          0.9990347,
          0.07687187,
          -0.60337776
        ],
        "time_step": 35
      },
      {
        "outputs": [
          0.9869234,
          1.0,
          0.99988955,
          0.9994709,
          -0.09429897,
          0.9895959
        ],
        "time_step": 36
      },
      {
        "outputs": [
          0.9869533,
          -0.8640977,
          0.9999402,
          0.99893785,
          -0.07631245,
          0.9727785
        ],
        "time_step": 37
      },
      {
        "outputs": [
          0.9889847,
          -0.8623018,
          0.99982417,
          0.9988394,
          -0.99997824,
          0.97668236
        ],
        "time_step": 38
      },
      {
        "outputs": [
          -0.49518135,
          -0.828991,
          0.9996603,
          0.99806803,
          -0.9999707,
          -0.55999255
        ],
        "time_step": 39
      },
      {
        "outputs": [
          -0.7896958,
          0.99999994,
          0.99936867,
          0.9988716,
          -0.9999561,
          -0.5843923
        ],
        "time_step": 40
      },
      {
        "outputs": [
          -0.8156088,
          1.0,
          0.99976385,
          0.9990347,
          0.07687187,
          -0.60337776
        ],
        "time_step": 41
      },
      {
        "outputs": [
          0.9869234,
          1.0,
          0.99988955,
          0.9994709,
          -0.09429897,
          0.9895959
        ],
        "time_step": 42
      },
      {
        "outputs": [
          0.9869533,
          -0.8640977,
          0.9999402,
          0.99893785,
          -0.07631245,
          0.9727785
        ],
        "time_step": 43
      },
      {
        "outputs": [
          0.9889847,
          -0.8623018,
          0.99982417,
          0.9988394,
          -0.99997824,
          0.97668236
        ],
        "time_step": 44
      },
      {
        "outputs": [
          -0.49518135,
          -0.828991,
          0.9996603,
          0.99806803,
          -0.9999707,
          -0.55999255
        ],
        "time_step": 45
      },
      {
        "outputs": [
          -0.7896958,
          0.99999994,
          0.99936867,
          0.9988716,
          -0.9999561,
          -0.5843923
        ],
        "time_step": 46
      },
      {
        "outputs": [
          -0.8156088,
          1.0,
          0.99976385,
          0.9990347,
          0.07687187,
          -0.60337776
        ],
        "time_step": 47
      },
      {
        "outputs": [
          0.9869234,
          1.0,
          0.99988955,
          0.9994709,
          -0.09429897,
          0.9895959
        ],
        "time_step": 48
      },
      {
        "outputs": [
          0.9869533,
          -0.8640977,
          0.9999402,
          0.99893785,
          -0.07631245,
          0.9727785
        ],
        "time_step": 49
      },
      {
        "outputs": [
          0.9889847,
          -0.8623018,
          0.99982417,
          0.9988394,
          -0.99997824,
          0.97668236
        ],
        "time_step": 50
      },
      {
        "outputs": [
          -0.49518135,
          -0.828991,
          0.9996603,
          0.99806803,
          -0.9999707,
          -0.55999255
        ],
        "time_step": 51
      },
      {
        "outputs": [
          -0.7896958,
          0.99999994,
          0.99936867,
          0.9988716,
          -0.9999561,
          -0.5843923
        ],
        "time_step": 52
      },
      {
        "outputs": [
          -0.8156088,
          1.0,
          0.99976385,
          0.9990347,
          0.07687187,
          -0.60337776
        ],
        "time_step": 53
      },
      {
        "outputs": [
          0.9869234,
          1.0,
          0.99988955,
          0.9994709,
          -0.09429897,
          0.9895959
        ],
        "time_step": 54
      },
      {
        "outputs": [
          0.9869533,
          -0.8640977,
          0.9999402,
          0.99893785,
          -0.07631245,
          0.9727785
        ],
        "time_step": 55
      },
      {
        "outputs": [
          0.9889847,
          -0.8623018,
          0.99982417,
          0.9988394,
          -0.99997824,
          0.97668236
        ],
        "time_step": 56
      },
      {
        "outputs": [
          -0.49518135,
          -0.828991,
          0.9996603,
          0.99806803,
          -0.9999707,
          -0.55999255
        ],
        "time_step": 57
      },
      {
        "outputs": [
          -0.7896958,
          0.99999994,
          0.99936867,
          0.9988716,
          -0.9999561,
          -0.5843923
        ],
        "time_step": 58
      },
      {
        "outputs": [
          -0.8156088,
          1.0,
          0.99976385,
          0.9990347,
          0.07687187,
          -0.60337776
        ],
        "time_step": 59
      },
      {
        "outputs": [
          0.9869234,
          1.0,
          0.99988955,
          0.9994709,
          -0.09429897,
          0.9895959
        ],
        "time_step": 60
      },
      {
        "outputs": [
          0.9869533,
          -0.8640977,
          0.9999402,
          0.99893785,
          -0.07631245,
          0.9727785
        ],
        "time_step": 61
      },
      {
        "outputs": [
          0.9889847,
          -0.8623018,
          0.99982417,
          0.9988394,
          -0.99997824,
          0.97668236
        ],
        "time_step": 62
      },
      {
        "outputs": [
          -0.49518135,
          -0.828991,
          0.9996603,
          0.99806803,
          -0.9999707,
          -0.55999255
        ],
        "time_step": 63
      },
      {
        "outputs": [
          -0.7896958,
          0.99999994,
          0.99936867,
          0.9988716,
          -0.9999561,
          -0.5843923
        ],
        "time_step": 64
      },
      {
        "outputs": [
          -0.8156088,
          1.0,
          0.99976385,
          0.9990347,
          0.07687187,
          -0.60337776
        ],
        "time_step": 65
      },
      {
        "outputs": [
          0.9869234,
          1.0,
          0.99988955,
          0.9994709,
          -0.09429897,
          0.9895959
        ],
        "time_step": 66
      },
      {
        "outputs": [
          0.9869533,
          -0.8640977,
          0.9999402,
          0.99893785,
          -0.07631245,
          0.9727785
        ],
        "time_step": 67
      },
      {
        "outputs": [
          0.9889847,
          -0.8623018,
          0.99982417,
          0.9988394,
          -0.99997824,
          0.97668236
        ],
        "time_step": 68
      },
      {
        "outputs": [
          -0.49518135,
          -0.828991,
          0.9996603,
          0.99806803,
          -0.9999707,
          -0.55999255
        ],
        "time_step": 69
      },
      {
        "outputs": [
          -0.7896958,
          0.99999994,
          0.99936867,
          0.9988716,
          -0.9999561,
          -0.5843923
        ],
        "time_step": 70
      },
      {
        "outputs": [
          -0.8156088,
          1.0,
          0.99976385,
          0.9990347,
          0.07687187,
          -0.60337776
        ],
        "time_step": 71
      },
      {
        "outputs": [
          0.9869234,
          1.0,
          0.99988955,
          0.9994709,
          -0.09429897,
          0.9895959
        ],
        "time_step": 72
      },
      {
        "outputs": [
          0.9869533,
          -0.8640977,
          0.9999402,
          0.99893785,
          -0.07631245,
          0.9727785
        ],
        "time_step": 73
      },
      {
        "outputs": [
          0.9889847,
          -0.8623018,
          0.99982417,
          0.9988394,
          -0.99997824,
          0.97668236
        ],
        "time_step": 74
      },
      {
        "outputs": [
          -0.49518135,
          -0.828991,
          0.9996603,
          0.99806803,
          -0.9999707,
          -0.55999255
        ],
        "time_step": 75
      },
      {
        "outputs": [
          -0.7896958,
          0.99999994,
          0.99936867,
          0.9988716,
          -0.9999561,
          -0.5843923
        ],
        "time_step": 76
      },
      {
        "outputs": [
          -0.8156088,
          1.0,
          0.99976385,
          0.9990347,
          0.07687187,
          -0.60337776
        ],
        "time_step": 77
      },
      {
        "outputs": [
          0.9869234,
          1.0,
          0.99988955,
          0.9994709,
          -0.09429897,
          0.9895959
        ],
        "time_step": 78
      },
      {
        "outputs": [
          0.9869533,
          -0.8640977,
          0.9999402,
          0.99893785,
          -0.07631245,
          0.9727785
        ],
        "time_step": 79
      },
      {
        "outputs": [
          0.9889847,
          -0.8623018,
          0.99982417,
          0.9988394,
          -0.99997824,
          0.97668236
        ],
        "time_step": 80
      },
      {
        "outputs": [
          -0.49518135,
          -0.828991,
          0.9996603,
          0.99806803,
          -0.9999707,
          -0.55999255
        ],
        "time_step": 81
      },
      {
        "outputs": [
          -0.7896958,
          0.99999994,
          0.99936867,
          0.9988716,
          -0.9999561,
          -0.5843923
        ],
        "time_step": 82
      },
      {
        "outputs": [
          -0.8156088,
          1.0,
          0.99976385,
          0.9990347,
          0.07687187,
          -0.60337776
        ],
        "time_step": 83
      },
      {
        "outputs": [
          0.9869234,
          1.0,
          0.99988955,
          0.9994709,
          -0.09429897,
          0.9895959
        ],
        "time_step": 84
      },
      {
        "outputs": [
          0.9869533,
          -0.8640977,
          0.9999402,
          0.99893785,
          -0.07631245,
          0.9727785
        ],
        "time_step": 85
      },
      {
        "outputs": [
          0.9889847,
          -0.8623018,
          0.99982417,
          0.9988394,
          -0.99997824,
          0.97668236
        ],
        "time_step": 86
      },
      {
        "outputs": [
          -0.49518135,
          -0.828991,
          0.9996603,
          0.99806803,
          -0.9999707,
          -0.55999255
        ],
        "time_step": 87
      },
      {
        "outputs": [
          -0.7896958,
          0.99999994,
          0.99936867,
          0.9988716,
          -0.9999561,
          -0.5843923
        ],
        "time_step": 88
      },
      {
        "outputs": [
          -0.8156088,
          1.0,
          0.99976385,
          0.9990347,
          0.07687187,
          -0.60337776
        ],
        "time_step": 89
      },
      {
        "outputs": [
          0.9869234,
          1.0,
          0.99988955,
          0.9994709,
          -0.09429897,
          0.9895959
        ],
        "time_step": 90
      },
      {
        "outputs": [
          0.9869533,
          -0.8640977,
          0.9999402,
          0.99893785,
          -0.07631245,
          0.9727785
        ],
        "time_step": 91
      },
      {
        "outputs": [
          0.9889847,
          -0.8623018,
          0.99982417,
          0.9988394,
          -0.99997824,
          0.97668236
        ],
        "time_step": 92
      },
      {
        "outputs": [
          -0.49518135,
          -0.828991,
          0.9996603,
          0.99806803,
          -0.9999707,
          -0.55999255
        ],
        "time_step": 93
      },
      {
        "outputs": [
          -0.7896958,
          0.99999994,
          0.99936867,
          0.9988716,
          -0.9999561,
          -0.5843923
        ],
        "time_step": 94
      },
      {
        "outputs": [
          -0.8156088,
          1.0,
          0.99976385,
          0.9990347,
          0.07687187,
          -0.60337776
        ],
        "time_step": 95
      },
      {
        "outputs": [
          0.9869234,
          1.0,
          0.99988955,
          0.9994709,
          -0.09429897,
          0.9895959
        ],
        "time_step": 96
      },
      {
        "outputs": [
          0.9869533,
          -0.8640977,
          0.9999402,
          0.99893785,
          -0.07631245,
          0.9727785
        ],
        "time_step": 97
      },
      {
        "outputs": [
          0.9889847,
          -0.8623018,
          0.99982417,
          0.9988394,
          -0.99997824,
          0.97668236
        ],
        "time_step": 98
      },
      {
        "outputs": [
          -0.49518135,
          -0.828991,
          0.9996603,
          0.99806803,
          -0.9999707,
          -0.55999255
        ],
        "time_step": 99
      },
      {
        "outputs": [
          -0.7896958,
          0.99999994,
          0.99936867,
          0.9988716,
          -0.9999561,
          -0.5843923
        ],
        "time_step": 100
      }
    ]
  },
  "graph": {
    "nodes": [
      [
        0,
        -0.19
      ],
      [
        1,
        0.36
      ],
      [
        2,
        0.33
      ],
      [
        3,
        -0.41
      ],
      [
        4,
        -0.1
      ],
      [
        5,
        0.31
      ]
    ],
    "node_holes": [],
    "edge_property": "directed",
    "edges": [
      [
        0,
        0,
        0.13
      ],
      [
        1,
        1,
        0.03
      ],
      [
        2,
        2,
        -0.02
      ],
      [
        3,
        3,
        0.08
      ],
      [
        4,
        4,
        -0.16
      ],
      [
        1,
        0,
        -0.01
      ],
      [
        2,
        0,
        0.06
      ],
      [
        3,
        0,
        -3.66
      ],
      [
        4,
        0,
        3.4
      ],
      [
        5,
        0,
        0.21
      ],
      [
        0,
        1,
        -2.65
      ],
      [
        2,
        1,
        0.2
      ],
      [
        3,
        1,
        -3.64
      ],
      [
        4,
        1,
        -0.15
      ],
      [
        5,
        1,
        -3.94
      ],
      [
        0,
        2,
        0.14
      ],
      [
        1,
        2,
        0.29
      ],
      [
        3,
        2,
        0.09
      ],
      [
        4,
        2,
        0.36
      ],
      [
        5,
        2,
        0.07
      ],
      [
        0,
        3,
        -0.09
      ],
      [
        1,
        3,
        0.03
      ],
      [
        2,
        3,
        0.17
      ],
      [
        4,
        3,
        0.28
      ],
      [
        5,
        3,
        -0.09
      ],
      [
        0,
        4,
        0.36
      ],
      [
        1,
        4,
        3.03
      ],
      [
        2,
        4,
        -0.23
      ],
      [
        3,
        4,
        0.03
      ],
      [
        5,
        4,
        -0.42
      ],
      [
        0,
        5,
        0.02
      ],
      [
        1,
        5,
        -0.01
      ],
      [
        2,
        5,
        -0.33
      ],
      [
        3,
        5,
        0.18
      ],
      [
        4,
        5,
        3.09
      ]
    ]
  },
  "statistics": {
    "deleted_neurons": 0,
    "deleted_weights": 42,
    "deleted_biases": 0,
    "deleted_self_activations": 43,
    "mutated_neurons": 149,
    "mutated_weights": 184,
    "mutated_biases": 220,
    "mutated_self_activations": 252,
    "fitness": 0.0,
    "variance": 0.0
  },
  "mutation_variance": 0.2,
  "mean": 0.1,
  "retina_positions": [
    [
      {
        "x": 32,
        "y": 32
      },
      63,
      ""
    ],
    [
      {
        "x": 56,
        "y": 57
      },
      63,
      ""
    ],
    [
      {
        "x": 56,
        "y": 57
      },
      63,
      ""
    ],
    [
      {
        "x": 80,
        "y": 36
      },
      63,
      ""
    ],
    [
      {
        "x": 80,
        "y": 36
      },
      63,
      ""
    ],
    [
      {
        "x": 104,
        "y": 32
      },
      63,
      ""
    ],
    [
      {
        "x": 104,
        "y": 32
      },
      63,
      ""
    ],
    [
      {
        "x": 92,
        "y": 32
      },
      63,
      ""
    ],
    [
      {
        "x": 92,
        "y": 32
      },
      63,
      ""
    ],
    [
      {
        "x": 73,
        "y": 56
      },
      63,
      ""
    ],
    [
      {
        "x": 73,
        "y": 56
      },
      63,
      ""
    ],
    [
      {
        "x": 53,
        "y": 81
      },
      63,
      ""
    ],
    [
      {
        "x": 53,
        "y": 81
      },
      63,
      ""
    ],
    [
      {
        "x": 77,
        "y": 106
      },
      63,
      ""
    ],
    [
      {
        "x": 77,
        "y": 106
      },
      63,
      ""
    ],
    [
      {
        "x": 101,
        "y": 85
      },
      63,
      ""
    ],
    [
      {
        "x": 101,
        "y": 85
      },
      63,
      ""
    ],
    [
      {
        "x": 125,
        "y": 64
      },
      63,
      ""
    ],
    [
      {
        "x": 125,
        "y": 64
      },
      63,
      ""
    ],
    [
      {
        "x": 113,
        "y": 44
      },
      63,
      ""
    ],
    [
      {
        "x": 113,
        "y": 44
      },
      63,
      ""
    ],
    [
      {
        "x": 94,
        "y": 68
      },
      63,
      ""
    ],
    [
      {
        "x": 94,
        "y": 68
      },
      63,
      ""
    ],
    [
      {
        "x": 74,
        "y": 93
      },
      63,
      ""
    ],
    [
      {
        "x": 74,
        "y": 93
      },
      63,
      ""
    ],
    [
      {
        "x": 98,
        "y": 118
      },
      63,
      ""
    ],
    [
      {
        "x": 98,
        "y": 118
      },
      63,
      ""
    ],
    [
      {
        "x": 122,
        "y": 97
      },
      63,
      ""
    ],
    [
      {
        "x": 122,
        "y": 97
      },
      63,
      ""
    ],
    [
      {
        "x": 146,
        "y": 76
      },
      63,
      ""
    ],
    [
      {
        "x": 146,
        "y": 76
      },
      63,
      ""
    ],
    [
      {
        "x": 134,
        "y": 56
      },
      63,
      ""
    ],
    [
      {
        "x": 134,
        "y": 56
      },
      63,
      ""
    ],
    [
      {
        "x": 115,
        "y": 80
      },
      63,
      ""
    ],
    [
      {
        "x": 115,
        "y": 80
      },
      63,
      ""
    ],
    [
      {
        "x": 95,
        "y": 105
      },
      63,
      ""
    ],
    [
      {
        "x": 95,
        "y": 105
      },
      63,
      ""
    ],
    [
      {
        "x": 119,
        "y": 130
      },
      63,
      ""
    ],
    [
      {
        "x": 119,
        "y": 130
      },
      63,
      ""
    ],
    [
      {
        "x": 143,
        "y": 109
      },
      63,
      ""
    ],
    [
      {
        "x": 143,
        "y": 109
      },
      63,
      ""
    ],
    [
      {
        "x": 167,
        "y": 88
      },
      63,
      ""
    ],
    [
      {
        "x": 167,
        "y": 88
      },
      63,
      ""
    ],
    [
      {
        "x": 155,
        "y": 68
      },
      63,
      ""
    ],
    [
      {
        "x": 155,
        "y": 68
      },
      63,
      ""
    ],
    [
      {
        "x": 136,
        "y": 92
      },
      63,
      ""
    ],
    [
      {
        "x": 136,
        "y": 92
      },
      63,
      ""
    ],
    [
      {
        "x": 116,
        "y": 117
      },
      63,
      ""
    ],
    [
      {
        "x": 116,
        "y": 117
      },
      63,
      ""
    ],
    [
      {
        "x": 140,
        "y": 142
      },
      63,
      ""
    ],
    [
      {
        "x": 140,
        "y": 142
      },
      63,
      ""
    ],
    [
      {
        "x": 164,
        "y": 121
      },
      63,
      ""
    ],
    [
      {
        "x": 164,
        "y": 121
      },
      63,
      ""
    ],
    [
      {
        "x": 188,
        "y": 100
      },
      63,
      ""
    ],
    [
      {
        "x": 188,
        "y": 100
      },
      63,
      ""
    ],
    [
      {
        "x": 176,
        "y": 80
      },
      63,
      ""
    ],
    [
      {
        "x": 176,
        "y": 80
      },
      63,
      ""
    ],
    [
      {
        "x": 157,
        "y": 104
      },
      63,
      ""
    ],
    [
      {
        "x": 157,
        "y": 104
      },
      63,
      ""
    ],
    [
      {
        "x": 137,
        "y": 129
      },
      63,
      ""
    ],
    [
      {
        "x": 137,
        "y": 129
      },
      63,
      ""
    ],
    [
      {
        "x": 161,
        "y": 154
      },
      63,
      ""
    ],
    [
      {
        "x": 161,
        "y": 154
      },
      63,
      ""
    ],
    [
      {
        "x": 185,
        "y": 133
      },
      63,
      ""
    ],
    [
      {
        "x": 185,
        "y": 133
      },
      63,
      ""
    ],
    [
      {
        "x": 209,
        "y": 112
      },
      63,
      ""
    ],
    [
      {
        "x": 209,
        "y": 112
      },
      63,
      ""
    ],
    [
      {
        "x": 197,
        "y": 92
      },
      63,
      ""
    ],
    [
      {
        "x": 197,
        "y": 92
      },
      63,
      ""
    ],
    [
      {
        "x": 178,
        "y": 116
      },
      63,
      ""
    ],
    [
      {
        "x": 178,
        "y": 116
      },
      63,
      ""
    ],
    [
      {
        "x": 158,
        "y": 141
      },
      63,
      ""
    ],
    [
      {
        "x": 158,
        "y": 141
      },
      63,
      ""
    ],
    [
      {
        "x": 182,
        "y": 166
      },
      63,
      ""
    ],
    [
      {
        "x": 182,
        "y": 166
      },
      63,
      ""
    ],
    [
      {
        "x": 206,
        "y": 145
      },
      63,
      ""
    ],
    [
      {
        "x": 206,
        "y": 145
      },
      63,
      ""
    ],
    [
      {
        "x": 230,
        "y": 124
      },
      63,
      ""
    ],
    [
      {
        "x": 230,
        "y": 124
      },
      63,
      ""
    ],
    [
      {
        "x": 218,
        "y": 104
      },
      63,
      ""
    ],
    [
      {
        "x": 218,
        "y": 104
      },
      63,
      ""
    ],
    [
      {
        "x": 199,
        "y": 128
      },
      63,
      ""
    ],
    [
      {
        "x": 199,
        "y": 128
      },
      63,
      ""
    ],
    [
      {
        "x": 179,
        "y": 153
      },
      63,
      ""
    ],
    [
      {
        "x": 179,
        "y": 153
      },
      63,
      ""
    ],
    [
      {
        "x": 203,
        "y": 178
      },
      63,
      ""
    ],
    [
      {
        "x": 203,
        "y": 178
      },
      63,
      ""
    ],
    [
      {
        "x": 227,
        "y": 157
      },
      63,
      ""
    ],
    [
      {
        "x": 227,
        "y": 157
      },
      63,
      ""
    ],
    [
      {
        "x": 251,
        "y": 136
      },
      63,
      ""
    ],
    [
      {
        "x": 251,
        "y": 136
      },
      63,
      ""
    ],
    [
      {
        "x": 239,
        "y": 116
      },
      63,
      ""
    ],
    [
      {
        "x": 239,
        "y": 116
      },
      63,
      ""
    ],
    [
      {
        "x": 220,
        "y": 140
      },
      63,
      ""
    ],
    [
      {
        "x": 220,
        "y": 140
      },
      63,
      ""
    ],
    [
      {
        "x": 200,
        "y": 165
      },
      63,
      ""
    ],
    [
      {
        "x": 200,
        "y": 165
      },
      63,
      ""
    ],
    [
      {
        "x": 224,
        "y": 190
      },
      63,
      ""
    ],
    [
      {
        "x": 224,
        "y": 190
      },
      63,
      ""
    ],
    [
      {
        "x": 248,
        "y": 169
      },
      63,
      ""
    ],
    [
      {
        "x": 248,
        "y": 169
      },
      63,
      ""
    ],
    [
      {
        "x": 272,
        "y": 148
      },
      63,
      ""
    ],
    [
      {
        "x": 272,
        "y": 148
      },
      63,
      ""
    ],
    [
      {
        "x": 260,
        "y": 128
      },
      63,
      ""
    ],
    [
      {
        "x": 260,
        "y": 128
      },
      63,
      ""
    ],
    [
      {
        "x": 241,
        "y": 152
      },
      63,
      ""
    ],
    [
      {
        "x": 241,
        "y": 152
      },
      63,
      ""
    ],
    [
      {
        "x": 221,
        "y": 177
      },
      63,
      ""
    ],
    [
      {
        "x": 221,
        "y": 177
      },
      63,
      ""
    ],
    [
      {
        "x": 245,
        "y": 202
      },
      63,
      ""
    ],
    [
      {
        "x": 245,
        "y": 202
      },
      63,
      ""
    ],
    [
      {
        "x": 269,
        "y": 181
      },
      63,
      ""
    ],
    [
      {
        "x": 269,
        "y": 181
      },
      63,
      ""
    ],
    [
      {
        "x": 289,
        "y": 160
      },
      63,
      ""
    ],
    [
      {
        "x": 289,
        "y": 160
      },
      63,
      ""
    ],
    [
      {
        "x": 277,
        "y": 140
      },
      63,
      ""
    ],
    [
      {
        "x": 277,
        "y": 140
      },
      63,
      ""
    ],
    [
      {
        "x": 258,
        "y": 164
      },
      63,
      ""
    ],
    [
      {
        "x": 258,
        "y": 164
      },
      63,
      ""
    ],
    [
      {
        "x": 238,
        "y": 189
      },
      63,
      ""
    ],
    [
      {
        "x": 238,
        "y": 189
      },
      63,
      ""
    ],
    [
      {
        "x": 262,
        "y": 209
      },
      63,
      ""
    ],
    [
      {
        "x": 262,
        "y": 209
      },
      63,
      ""
    ],
    [
      {
        "x": 286,
        "y": 188
      },
      63,
      ""
    ],
    [
      {
        "x": 286,
        "y": 188
      },
      63,
      ""
    ],
    [
      {
        "x": 289,
        "y": 167
      },
      63,
      ""
    ],
    [
      {
        "x": 289,
        "y": 167
      },
      63,
      ""
    ],
    [
      {
        "x": 277,
        "y": 147
      },
      63,
      ""
    ],
    [
      {
        "x": 277,
        "y": 147
      },
      63,
      ""
    ],
    [
      {
        "x": 258,
        "y": 171
      },
      63,
      ""
    ],
    [
      {
        "x": 258,
        "y": 171
      },
      63,
      ""
    ],
    [
      {
        "x": 238,
        "y": 196
      },
      63,
      ""
    ],
    [
      {
        "x": 238,
        "y": 196
      },
      63,
      ""
    ],
    [
      {
        "x": 262,
        "y": 209
      },
      63,
      ""
    ],
    [
      {
        "x": 262,
        "y": 209
      },
      63,
      ""
    ],
    [
      {
        "x": 286,
        "y": 188
      },
      63,
      ""
    ],
    [
      {
        "x": 286,
        "y": 188
      },
      63,
      ""
    ],
    [
      {
        "x": 289,
        "y": 167
      },
      63,
      ""
    ],
    [
      {
        "x": 289,
        "y": 167
      },
      63,
      ""
    ],
    [
      {
        "x": 277,
        "y": 147
      },
      63,
      ""
    ],
    [
      {
        "x": 277,
        "y": 147
      },
      63,
      ""
    ],
    [
      {
        "x": 258,
        "y": 171
      },
      63,
      ""
    ],
    [
      {
        "x": 258,
        "y": 171
      },
      63,
      ""
    ],
    [
      {
        "x": 238,
        "y": 196
      },
      63,
      ""
    ],
    [
      {
        "x": 238,
        "y": 196
      },
      63,
      ""
    ],
    [
      {
        "x": 262,
        "y": 209
      },
      63,
      ""
    ],
    [
      {
        "x": 262,
        "y": 209
      },
      63,
      ""
    ],
    [
      {
        "x": 286,
        "y": 188
      },
      63,
      ""
    ],
    [
      {
        "x": 286,
        "y": 188
      },
      63,
      ""
    ],
    [
      {
        "x": 289,
        "y": 167
      },
      63,
      ""
    ],
    [
      {
        "x": 289,
        "y": 167
      },
      63,
      ""
    ],
    [
      {
        "x": 277,
        "y": 147
      },
      63,
      ""
    ],
    [
      {
        "x": 277,
        "y": 147
      },
      63,
      ""
    ],
    [
      {
        "x": 258,
        "y": 171
      },
      63,
      ""
    ],
    [
      {
        "x": 258,
        "y": 171
      },
      63,
      ""
    ],
    [
      {
        "x": 238,
        "y": 196
      },
      63,
      ""
    ],
    [
      {
        "x": 238,
        "y": 196
      },
      63,
      ""
    ],
    [
      {
        "x": 262,
        "y": 209
      },
      63,
      ""
    ],
    [
      {
        "x": 262,
        "y": 209
      },
      63,
      ""
    ],
    [
      {
        "x": 286,
        "y": 188
      },
      63,
      ""
    ],
    [
      {
        "x": 286,
        "y": 188
      },
      63,
      ""
    ],
    [
      {
        "x": 289,
        "y": 167
      },
      63,
      ""
    ],
    [
      {
        "x": 289,
        "y": 167
      },
      63,
      ""
    ],
    [
      {
        "x": 277,
        "y": 147
      },
      63,
      ""
    ],
    [
      {
        "x": 277,
        "y": 147
      },
      63,
      ""
    ],
    [
      {
        "x": 258,
        "y": 171
      },
      63,
      ""
    ],
    [
      {
        "x": 258,
        "y": 171
      },
      63,
      ""
    ],
    [
      {
        "x": 238,
        "y": 196
      },
      63,
      ""
    ],
    [
      {
        "x": 238,
        "y": 196
      },
      63,
      ""
    ],
    [
      {
        "x": 262,
        "y": 209
      },
      63,
      ""
    ],
    [
      {
        "x": 262,
        "y": 209
      },
      63,
      ""
    ],
    [
      {
        "x": 286,
        "y": 188
      },
      63,
      ""
    ],
    [
      {
        "x": 286,
        "y": 188
      },
      63,
      ""
    ],
    [
      {
        "x": 289,
        "y": 167
      },
      63,
      ""
    ],
    [
      {
        "x": 289,
        "y": 167
      },
      63,
      ""
    ],
    [
      {
        "x": 277,
        "y": 147
      },
      63,
      ""
    ],
    [
      {
        "x": 277,
        "y": 147
      },
      63,
      ""
    ],
    [
      {
        "x": 258,
        "y": 171
      },
      63,
      ""
    ],
    [
      {
        "x": 258,
        "y": 171
      },
      63,
      ""
    ],
    [
      {
        "x": 238,
        "y": 196
      },
      63,
      ""
    ],
    [
      {
        "x": 238,
        "y": 196
      },
      63,
      ""
    ],
    [
      {
        "x": 262,
        "y": 209
      },
      63,
      ""
    ],
    [
      {
        "x": 262,
        "y": 209
      },
      63,
      ""
    ],
    [
      {
        "x": 286,
        "y": 188
      },
      63,
      ""
    ],
    [
      {
        "x": 286,
        "y": 188
      },
      63,
      ""
    ],
    [
      {
        "x": 289,
        "y": 167
      },
      63,
      ""
    ],
    [
      {
        "x": 289,
        "y": 167
      },
      63,
      ""
    ],
    [
      {
        "x": 277,
        "y": 147
      },
      63,
      ""
    ],
    [
      {
        "x": 277,
        "y": 147
      },
      63,
      ""
    ],
    [
      {
        "x": 258,
        "y": 171
      },
      63,
      ""
    ],
    [
      {
        "x": 258,
        "y": 171
      },
      63,
      ""
    ],
    [
      {
        "x": 238,
        "y": 196
      },
      63,
      ""
    ],
    [
      {
        "x": 238,
        "y": 196
      },
      63,
      ""
    ],
    [
      {
        "x": 262,
        "y": 209
      },
      63,
      ""
    ],
    [
      {
        "x": 262,
        "y": 209
      },
      63,
      ""
    ],
    [
      {
        "x": 286,
        "y": 188
      },
      63,
      ""
    ],
    [
      {
        "x": 286,
        "y": 188
      },
      63,
      ""
    ],
    [
      {
        "x": 289,
        "y": 167
      },
      63,
      ""
    ],
    [
      {
        "x": 289,
        "y": 167
      },
      63,
      ""
    ],
    [
      {
        "x": 277,
        "y": 147
      },
      63,
      ""
    ]
  ]
}
