{
  "neurons": [
    {
      "index": 0,
      "output": -0.9974835,
      "input_connections": [
        [
          1,
          -0.05494535
        ],
        [
          2,
          -0.15272391
        ],
        [
          3,
          0.0
        ],
        [
          4,
          0.4021505
        ],
        [
          5,
          -0.16035497
        ],
        [
          6,
          -0.60646576
        ],
        [
          7,
          0.0
        ]
      ],
      "bias": 0.0,
      "self_activation": 0.0,
      "retina_weights": [
        0.4146024,
        -0.016833425,
        0.977335,
        -0.34781498,
        -0.848752,
        -0.80407643,
        0.18496501,
        -0.24615061,
        0.6933961,
        0.44002616,
        0.4104234,
        0.7624035,
        0.6323793,
        -0.97534156,
        -0.6621947,
        0.32604492,
        -0.44184178,
        0.9003558,
        -0.35692614,
        -0.6652787,
        0.28692925,
        0.8818674,
        0.16418469,
        -0.90579534,
        -0.026491523,
        0.6494701,
        -0.31398028,
        -0.47359198,
        -0.0016621351,
        0.9469204,
        -0.6335721,
        -0.06784308,
        0.19648373,
        0.23133934,
        0.52825785,
        0.25704896,
        0.3630451,
        0.9484303,
        -0.034487605,
        0.270337,
        0.15909493,
        -0.5792548,
        0.44797575,
        -0.6002266,
        0.9576366,
        -0.20088875,
        -0.40732783,
        -0.23551977,
        0.13202417,
        -0.12628162,
        -0.664407,
        -0.5429606,
        0.28367007,
        -0.14454949,
        0.4351188,
        -0.8476255,
        -0.6650169,
        0.77834654,
        0.605968,
        -0.21298516,
        0.7648268,
        0.8812711,
        -0.023760438,
        0.66115713,
        0.56527185,
        0.8285098,
        0.09837949,
        -0.9088664,
        -0.9320426,
        -0.37076038,
        -0.68738604,
        -0.33152407,
        -0.7513552,
        -0.92755246,
        -0.36904925,
        0.53917193,
        -0.13850701,
        0.020454764,
        -0.42525643,
        0.31328213,
        0.3858837,
        -0.45165724,
        0.32970083,
        -0.72938156,
        -0.1871928,
        0.38208067,
        0.33296382,
        0.020599723,
        -0.22083461,
        -0.7543869,
        0.14224613,
        0.066554666,
        0.8267832,
        0.77220297,
        -0.47438782,
        -0.32299536,
        0.009944558,
        0.8534882,
        -0.31941432,
        -0.7352333,
        -0.18064058,
        -0.27731508,
        -0.824116,
        -0.96939373,
        0.756788,
        -0.78830266,
        -0.42081755,
        -0.06597149,
        0.47792828,
        -0.40575594,
        -0.7087517,
        0.2238313,
        0.79734325,
        0.8082895,
        0.9322777,
        -0.6853037,
        -0.7211015,
        -0.032095313,
        0.82650757,
        0.6030891,
        -0.5616211,
        -0.017537951,
        0.3386866,
        0.3106848,
        -0.2507493,
        -0.5250363,
        0.5940306,
        -0.6239528,
        -0.86282873,
        -0.25279492,
        0.68581843,
        -0.124976516,
        -0.6077854,
        0.48048532,
        -0.6690023,
        -0.75621724,
        0.13966548,
        -0.77339125,
        -0.77437496,
        -0.70333457,
        -0.8642142,
        0.9784918,
        -0.38599414,
        -0.5244717,
        -0.86879396,
        -0.7050111,
        0.5686908,
        -0.24978006,
        -0.2011522,
        -0.4933836,
        -0.9457998,
        -0.08629811,
        -0.7998359,
        -0.78936887,
        -0.620161,
        0.919435,
        -0.7805214,
        0.8784437,
        -0.0631758,
        0.52333593,
        -0.060010552,
        0.15242779,
        0.54423547,
        0.9712293,
        0.12954271,
        -0.30004638,
        0.24504292,
        -0.089529395,
        -0.8713274,
        -0.55878586,
        0.70316267,
        -0.4008035,
        -0.63799024,
        -0.96273446,
        0.5343764,
        0.8988128,
        0.501328,
        0.5506618,
        -0.11423242,
        -0.9347062,
        -0.5080306,
        -0.7234416,
        0.059102654,
        -0.71029806,
        -0.90976596,
        0.0013233423,
        0.30054677,
        -0.5052807,
        -0.32342643,
        -0.1470002,
        0.1471585,
        -0.9088874,
        0.4169141,
        -0.9703729,
        0.07782042,
        0.70129156,
        -0.8482313,
        -0.12418854,
        0.797591,
        -0.54455036,
        0.9014993,
        -0.08888352,
        0.41576207,
        0.09969652,
        -0.034137845,
        0.65943956,
        -0.08630693,
        -0.3765294,
        0.27633584,
        -0.39720815,
        0.33129036,
        -0.16643107,
        0.80668974,
        -0.6595309,
        -0.058035493,
        -0.9043479,
        -0.75177884,
        -0.07143843,
        0.97503996,
        0.1805321,
        0.28994548,
        -0.17548954,
        -0.7712617,
        -0.024946332,
        0.52309227,
        0.31105816,
        0.2590376,
        -0.010649562,
        -0.6255338,
        -0.08515918,
        0.57860994,
        -0.63724923,
        0.51834846,
        0.9134836,
        0.8264115,
        -0.82749295,
        0.6885357,
        0.04996741,
        -0.86271644,
        0.78109837,
        -0.3144073,
        -0.5621132,
        0.9449198,
        0.6070764,
        -0.7724025,
        0.7160156,
        0.06995499,
        0.38701737,
        -0.5370578,
        -0.5867254,
        0.729064,
        0.34357965,
        -0.9786768,
        0.42636907,
        0.44717157,
        0.71944165,
        0.255767,
        0.4431833,
        0.75177693,
        -0.9970124,
        0.8540602,
        0.71711254,
        0.35114396,
        -0.3230211,
        0.8979602,
        -0.31815284,
        -0.9350934,
        -0.5807652,
        0.816133,
        0.4647516,
        0.69704294,
        0.9649501,
        0.54594564,
        0.088772416,
        0.103207946,
        -0.49770373,
        0.4555751,
        -0.22890675,
        -0.6991391,
        0.75779057,
        -0.75230885,
        0.35156357,
        0.07915819,
        0.6323762,
        0.0878464,
        -0.14385402,
        -0.6656511,
        0.7616489,
        -0.8811836,
        0.74322224,
        -0.3097803,
        -0.39005178,
        0.0632962,
        0.12142289,
        -0.460005,
        -0.64136744,
        -0.5085539,
        -0.45498294,
        -0.58801216,
        0.6443038,
        -0.34346527,
        0.49463856,
        0.9595864,
        -0.70894194,
        -0.51621884,
        -0.3141634,
        -0.913599,
        -0.38014764,
        -0.4222209,
        0.2380575,
        -0.4268772,
        0.37380564,
        0.86013985,
        -0.83083177,
        -0.34845275,
        0.3118199,
        0.49203384,
        -0.37950772,
        -0.10711825,
        0.7181227,
        0.632792,
        0.23125994,
        -0.52988523,
        -0.4209296,
        0.5409508,
        -0.406856,
        0.46567714,
        -0.6349523,
        -0.07346833,
        -0.35132593,
        -0.038812995,
        0.8451493,
        -0.57555884,
        -0.47406024,
        -0.6774123,
        0.1206249,
        -0.5468537,
        -0.7612846,
        -0.53354234,
        -0.1500808,
        -0.54850906,
        0.8165698,
        -0.797601,
        0.56133294,
        0.24336922,
        0.50509214,
        -0.13001049,
        0.59824157,
        -0.29992646,
        0.46480072,
        -0.5468349,
        -0.5803446,
        0.87681127,
        0.86755395,
        0.5112562,
        -0.7692654,
        0.4022466,
        0.023218036,
        0.0547024,
        0.23732865,
        -0.9506471,
        -0.7197461,
        0.467044,
        -0.45580858,
        0.7442448,
        0.87183976,
        -0.86723924,
        0.383031,
        0.08413541,
        0.63583255,
        -0.9282875,
        0.7939396,
        0.7069359,
        0.99204445,
        -0.54982656,
        0.075827,
        0.87923336,
        0.1276871,
        0.14411008,
        0.7280874,
        -0.56152314,
        0.44497216,
        -0.89253545,
        0.6217513,
        0.31991565,
        -0.68687105,
        -0.23412192,
        0.71767545,
        0.9363959,
        -0.46541876,
        0.40483987,
        0.53900766,
        0.12042153,
        0.7516525,
        0.38903177,
        0.15662181,
        -0.79362655,
        0.6008129,
        0.28270495,
        -0.21522248,
        0.6609552,
        -0.18836129,
        -0.41490215,
        0.7690213,
        -0.84749675,
        0.6430681,
        0.061869502,
        -0.58828706,
        0.47593915,
        0.2658943,
        0.13967955,
        0.51240706,
        0.6727743,
        0.22963941,
        -0.31913942,
        0.85639215,
        0.8878758,
        -0.11281121,
        0.76448464,
        0.53117156,
        -0.62755823,
        0.37790215,
        0.61913705,
        -0.5840451,
        -0.27181405,
        -0.2047342,
        -0.7942693,
        0.7976594,
        -0.35440797,
        -0.6254561,
        -0.87538314,
        0.52219653,
        -0.43079275,
        0.3956858,
        -0.17777312,
        -0.23744595,
        0.24608386,
        -0.5326318,
        -0.20920289,
        -0.31253093,
        0.79318094,
        -0.27570337,
        0.99060416,
        -0.6963308,
        -0.84202886,
        0.07014525,
        0.51923156,
        0.002341628,
        -0.40474313,
        0.17455494,
        -0.011888146,
        0.8660724,
        -0.23695743,
        0.85331035,
        -0.107043624,
        0.40022194,
        0.43251312,
        -0.28145498,
        -0.88307714,
        0.32163846,
        0.5842676,
        0.6787441,
        -0.9476013,
        -0.22113359,
        -0.5234963,
        0.6820593,
        0.6995692,
        0.99020815,
        -0.93470144,
        -0.032545447,
        -0.09216654,
        -0.34278673,
        0.15412223,
        0.04677236,
        0.66349363,
        0.7206619,
        0.16324437,
        -0.17367733,
        -0.5157301,
        -0.62783813,
        -0.4688608,
        -0.73813534,
        0.1335038,
        0.57992387,
        0.34954536,
        0.30903256,
        -0.7000644,
        -0.6023707,
        -0.22072947,
        0.15697753,
        -0.072785735,
        0.25326025,
        0.51719785,
        -0.9129307,
        0.9677479,
        0.18100631,
        -0.9061034,
        -0.0066298246,
        -0.5082676,
        -0.917722,
        -0.18850482,
        0.8680327,
        -0.33369893,
        -0.6826403,
        0.9506805,
        0.7754245,
        0.78067636,
        -0.7091799,
        0.93980765,
        0.5570073,
        -0.38499445,
        -0.4256665,
        -0.6353378,
        -0.9825902,
        -0.69653535,
        -0.39041132,
        -0.7435038,
        -0.5031976,
        -0.9605012,
        -0.6264162,
        0.6709192,
        0.51077604,
        0.58011866,
        -0.26128882,
        -0.015823483,
        -0.24620426,
        -0.66413784,
        -0.0528301,
        -0.024907708,
        -0.78283954,
        -0.39324254,
        -0.8450923,
        0.042578816,
        -0.3671133,
        -0.13685977,
        0.7856333,
        0.8088105,
        0.95746875,
        -0.5931272,
        -0.68767,
        -0.37818354,
        0.28042495,
        0.8369961,
        0.34585822,
        0.005751729,
        0.58561707,
        0.81843925,
        0.83077073,
        -0.42357963,
        0.5882435,
        0.29078186,
        0.5033963,
        0.10584557,
        -0.35981745,
        0.913043,
        -0.23870456,
        -0.83979607,
        0.15164363,
        0.8038385,
        0.93705225,
        0.84855294,
        0.8812306,
        0.11959231,
        -0.6749821,
        0.97543645,
        0.94856715,
        0.27228653,
        -0.48775214,
        0.7162008,
        0.41819584,
        -0.8625717,
        0.42886198,
        0.628031,
        0.4519285,
        0.65535283,
        0.92976713,
        -0.3495342,
        -0.526288,
        0.5864465,
        0.21716678,
        0.5495815,
        -0.65840244,
        0.007034421,
        0.4180714,
        -0.76685095,
        -0.6482403,
        0.20045674,
        -0.6517775,
        -0.8995664,
        0.91153145,
        0.60357165,
        0.48854434,
        -0.18739235,
        0.04056132,
        0.6187458,
        -0.645756,
        -0.8882704,
        0.14716375,
        -0.4792723,
        0.021013618,
        -0.9252875,
        0.0034104586,
        0.6776514,
        -0.6552031,
        0.4958502,
        -0.85588074,
        -0.3994984,
        0.6283419,
        -0.64507747,
        0.08480942,
        0.4877714,
        0.57825994,
        -0.07702243,
        -0.54359907,
        -0.43814296,
        -0.7184608,
        0.42085588,
        -0.6327281,
        0.8345742,
        0.9541559,
        0.09723103,
        0.79099965,
        0.09012616,
        -0.20772612,
        -0.9473064,
        0.73803926,
        -0.2680604,
        0.3901626,
        0.94202375,
        -0.11829555,
        -0.73831415,
        0.53034496,
        0.1192559,
        0.8807311,
        -0.5335085,
        0.6045828,
        0.8241751,
        0.4282502,
        -0.3361568,
        -0.32509798,
        0.6909933,
        0.988513,
        0.34138906,
        0.8337562,
        0.054166436,
        0.5454781,
        0.0550133,
        0.5012157,
        0.34839737,
        0.97955585,
        -0.3291356,
        0.12205851,
        0.47061646,
        0.5719652,
        0.19231999,
        0.79875994,
        -0.37658924,
        -0.3866741,
        -0.8953035,
        -0.84327936,
        -0.09458077,
        -0.7554009,
        0.92625093,
        -0.5487518,
        0.94175315,
        -0.7224195,
        -0.20768416,
        0.7874582,
        0.7146919,
        0.25416052,
        0.08472192,
        -0.10712898,
        0.8056054,
        0.8654258,
        0.581259,
        -0.5502736,
        0.99561477,
        0.78753567,
        0.8538983,
        0.124836326,
        -0.75979924,
        -0.7859535,
        -0.5708062,
        -0.7645707,
        0.6541164,
        0.16783464,
        0.56452084,
        0.49641263,
        0.8927965,
        -0.62133807,
        0.87011075,
        -0.08240354,
        -0.7168231,
        -0.92174935,
        -0.3189966,
        -0.22721231,
        -0.30858535,
        -0.897012,
        -0.65484095,
        0.43348038,
        -0.3862936,
        0.12405288,
        0.73348165,
        0.13138044,
        -0.6307814,
        0.7562971,
        -0.43755883,
        -0.6506071,
        -0.19210923,
        -0.56387514,
        0.90713286,
        -0.14940679,
        -0.40528864,
        -0.20746434,
        -0.6115822,
        -0.36480612,
        0.5829344,
        0.19264734,
        -0.5028505,
        0.17949474,
        -0.34824175,
        0.7710967,
        -0.94271064,
        -0.1559993,
        -0.6550069,
        -0.2658109,
        0.35666668,
        -0.16380394,
        -0.3465833,
        0.8660786,
        0.8575866,
        -0.738333,
        -0.06139052,
        0.97137403,
        -0.8365271,
        0.22331965,
        -0.74749637,
        -0.5465612,
        -0.716393,
        0.81646585,
        -0.083607554,
        0.87723804,
        0.62544847,
        -0.19943774,
        0.52860713,
        0.4264263,
        0.007221818,
        -0.3672263,
        0.34922802,
        0.8007436,
        -0.65759254,
        -0.20086896,
        -0.73823905,
        0.7844739,
        -0.7732165,
        0.23476446,
        0.5689118,
        -0.4456038,
        -0.35676545,
        0.35876286,
        0.6551907,
        -0.49538487,
        -0.7975488,
        0.072487235,
        -0.51173156,
        0.21469319,
        0.27362025,
        -0.7016666,
        -0.27568358,
        0.7939546,
        0.80573463,
        0.44691145,
        0.50269437,
        -0.41842097,
        -0.93949103,
        0.14696467,
        0.34606493,
        0.9798889,
        -0.3657586,
        0.9957392,
        -0.70787907,
        -0.9617448,
        0.98591495,
        0.40989983,
        -0.79259205,
        -0.433016,
        0.36473978,
        0.7563646,
        0.76491904,
        -0.79306126,
        0.6146593,
        -0.77038956,
        -0.45383686,
        0.16028178,
        -0.018010974,
        -0.36455363,
        -0.27279705,
        0.6571851,
        0.78869796,
        0.5593741,
        0.11321199,
        0.596854,
        -0.9948888,
        -0.44821543,
        0.1987549,
        0.17674601,
        0.64627004,
        0.72827816,
        0.93498087,
        0.7680001,
        -0.38435978,
        0.5678463,
        -0.3922562,
        0.110364795,
        0.5019243,
        0.3956002,
        0.47342837,
        0.5187731,
        -0.09815872,
        0.59345484,
        -0.42230648,
        -0.9900863,
        -0.80889726,
        -0.07521951,
        0.89842033,
        0.0444299,
        0.5262046,
        -0.6983192,
        -0.6165013,
        -0.2684216,
        0.3089472,
        -0.72259927,
        0.13738906,
        0.5703118,
        -0.018238425,
        -0.6795161,
        -0.016328216,
        0.43866742,
        -0.4725303,
        -0.115839124,
        0.38815033,
        -0.35132068,
        -0.31069988,
        -0.95802045,
        0.7769983,
        0.29119956,
        0.67887306,
        -0.5720925,
        0.79406977,
        -0.71090674,
        -0.4064812,
        0.4582256,
        -0.80916667,
        0.7694993,
        -0.07884562,
        0.07710254,
        -0.8930304,
        -0.2693171,
        0.25939763,
        -0.99855757,
        0.7527385,
        -0.2188884,
        0.35950196,
        0.71578646,
        -0.4726438,
        -0.8729353,
        -0.87412214,
        0.29609168,
        0.4827963,
        -0.13219202,
        -0.95848083,
        -0.68553066,
        -0.57791775,
        -0.55683154,
        0.6789429,
        0.6236596,
        -0.18103135,
        0.5040171,
        0.38210332,
        0.44441044,
        -0.21389997,
        -0.68337274,
        -0.78363466,
        -0.6453452,
        -0.01848042,
        0.5672555,
        -0.89007425,
        -0.5960049,
        -0.4674973,
        0.29373705,
        0.44062173,
        0.5296962,
        0.7576904,
        -0.7113676,
        -0.52556676,
        0.08797157,
        0.7777834,
        0.96291375,
        -0.7475827,
        -0.88498116,
        0.31764448,
        -0.5184242,
        0.8002672,
        0.18657792,
        0.40251768,
        -0.3305995,
        -0.092467666,
        -0.28767222,
        0.544662,
        -0.65507054,
        -0.41544908,
        -0.20703661,
        0.49809682,
        -0.3961038,
        -0.3527233,
        -0.83204556,
        -0.98558784,
        0.008838773,
        -0.12905705,
        -0.29898638,
        -0.6226701,
        -0.045709968,
        -0.57247084,
        0.77599883,
        -0.14639437,
        0.34100664,
        0.056698203,
        0.6559124,
        0.22575057,
        0.017148614,
        -0.07918799,
        -0.05344212,
        -0.6984236,
        -0.565437,
        0.99310064,
        0.3090273,
        0.46325767,
        -0.28580517,
        -0.2606644,
        0.63994145,
        -0.21698296,
        -0.90346575,
        -0.7357352,
        0.26053202,
        0.53359723,
        0.09739506,
        0.96573997,
        -0.9764154,
        -0.9443369,
        -0.87587833,
        -0.7438891,
        -0.36594504,
        -0.7944195,
        0.6244967,
        -0.08729398,
        0.8724184,
        -0.41951913,
        -0.7834387,
        0.121385455,
        -0.26056284,
        0.87699246,
        -0.48084182,
        -0.4210338,
        -0.8153777,
        0.035969615,
        0.4643563,
        -0.59050196,
        0.88967943,
        0.04737842,
        0.19675744,
        -0.27090806,
        0.20485389,
        -0.43967527,
        0.2530259,
        0.8544824,
        0.34779227,
        0.63173366,
        0.189798,
        -0.50725526,
        0.040042996,
        0.5677297,
        0.65901136,
        -0.3469097,
        0.6878567,
        -0.49720067,
        0.5146768,
        -0.022532105,
        -0.28137892,
        0.94411874,
        0.8210299,
        0.8517759,
        0.7969184,
        0.76562047,
        0.5402148,
        -0.24307477,
        0.515929,
        -0.69805956,
        -0.2744977,
        -0.26929373,
        -0.1288253,
        0.5027747,
        0.027149081,
        -0.5140998,
        -0.6754427,
        -0.8448787,
        -0.7370708,
        -0.9617481,
        -0.6425154,
        -0.14173758,
        -0.42640203,
        0.41208732,
        -0.6083874,
        0.7878618,
        0.6818068,
        -0.7939484,
        -0.10448372,
        0.24535596,
        -0.09806788,
        -0.8117161,
        -0.6751938,
        0.860281,
        0.29632485,
        -0.3416311,
        -0.82175183,
        -0.34594792,
        0.8269284,
        0.951282,
        -0.55120844,
        0.62999344,
        -0.276066,
        0.126171,
        -0.39676732,
        0.7078347,
        -0.6739545,
        -0.6884248,
        0.28115666,
        0.7137985,
        -0.18177211,
        0.4244665,
        0.24922788,
        0.7648933,
        -0.148327,
        0.59263206,
        0.9892304,
        -0.5100569,
        -0.0036350489,
        0.7395055,
        -0.10489595,
        0.8493111,
        0.07148731,
        -0.4116394,
        0.8492434,
        0.7922573,
        0.46556628,
        -0.5913307,
        -0.66621995,
        0.7097683,
        -0.56740516,
        0.73243856,
        -0.48615593,
        -0.6052758,
        -0.65733004,
        -0.10255039,
        0.53703237,
        0.067113996,
        0.49878943,
        0.7211182,
        -0.80675006,
        0.98372245,
        -0.30421537,
        -0.90725017,
        -0.35566372,
        -0.017941594,
        0.4510659,
        0.2748946,
        -0.08463299,
        0.2588464,
        0.22113264,
        0.7110734,
        0.87904644,
        -0.9214337,
        0.40753138,
        -0.32617086,
        -0.48836106,
        0.65422654,
        -0.37191457,
        -0.8312013,
        -0.35365337,
        0.6494913,
        -0.30781168,
        -0.48031753,
        -0.8095708,
        -0.2594468,
        -0.9368851,
        0.24302137,
        -0.7220526,
        0.72840166,
        -0.15400994,
        0.3231343,
        0.08194816,
        -0.60550755,
        0.89119387,
        -0.503792,
        -0.53808254,
        -0.509015,
        -0.65127134,
        -0.048900485,
        0.92023516,
        -0.20416534,
        -0.6273804,
        0.17200649,
        -0.931725,
        0.89085984,
        0.9662185,
        0.044315696,
        -0.43342966,
        -0.110030055,
        -0.73985934,
        0.93131924,
        -0.759732,
        0.5305059,
        0.71000934,
        -0.42991704,
        -0.5712556,
        0.8151674,
        -0.7761891,
        -0.36902708,
        -0.26448196,
        0.80419135,
        -0.3338632,
        -0.7894678,
        -0.88599396,
        0.25934732,
        0.04684031,
        0.16597283,
        0.5941231,
        0.84895134,
        -0.9962883,
        -0.13693726,
        -0.3250944,
        0.30118978,
        0.9001379,
        -0.8922601,
        0.10199797,
        -0.64821553,
        -0.92557263,
        0.21552145,
        -0.13678205,
        -0.054893136,
        -0.18966782,
        0.08033526,
        -0.016396165,
        -0.3055362,
        0.7442007,
        0.6640899,
        -0.26034635,
        -0.5016534,
        -0.8001213,
        0.24897587,
        -0.7100127,
        0.33273375,
        -0.7851908,
        -0.44209737,
        -0.4569704,
        -0.682848,
        0.34806,
        -0.10930836,
        -0.48274392,
        0.27266586,
        0.8715856,
        0.44547212,
        0.6276815,
        0.7157049,
        -0.19153702,
        -0.9436147,
        -0.8619673,
        -0.6828854,
        0.23305571,
        -0.42715257,
        -0.94073963,
        -0.93229127,
        -0.33526438,
        0.60000324,
        -0.31943887,
        -0.39107198,
        -0.4623372,
        0.25939286,
        -0.45805758,
        0.06265533,
        -0.9188018,
        0.6280396,
        0.041778207,
        0.06400192,
        -0.48298234,
        -0.6406963,
        0.5942266,
        -0.31374234,
        -0.25897902,
        -0.21225369,
        -0.70543694,
        0.044069648,
        0.6468196,
        -0.45626634,
        -0.24106991,
        -0.5946247,
        0.9699266,
        0.6847465,
        -0.63245153,
        -0.8043847,
        -0.94353724,
        0.97564006,
        0.6501374,
        0.82714343,
        0.018942475,
        0.39168322,
        0.31219518,
        -0.9451308,
        0.048139453,
        0.33814466,
        0.18498313,
        -0.7664585,
        -0.53516334,
        0.31397927,
        -0.056128144,
        0.43041003
      ]
    },
    {
      "index": 1,
      "output": -0.9991869,
      "input_connections": [
        [
          0,
          0.0
        ],
        [
          2,
          0.0
        ],
        [
          3,
          0.0
        ],
        [
          4,
          0.0
        ],
        [
          5,
          0.0
        ],
        [
          6,
          -0.886847
        ],
        [
          7,
          0.0
        ]
      ],
      "bias": 0.0,
      "self_activation": -0.25079194,
      "retina_weights": [
        0.4146024,
        -0.016833425,
        0.977335,
        -0.34781498,
        -0.848752,
        -0.80407643,
        0.18496501,
        -0.24615061,
        0.6933961,
        0.44002616,
        0.4104234,
        0.7624035,
        0.6323793,
        -0.97534156,
        -0.6621947,
        0.32604492,
        -0.44184178,
        0.9003558,
        -0.35692614,
        -0.6652787,
        0.28692925,
        0.8818674,
        0.16418469,
        -0.90579534,
        -0.026491523,
        0.6494701,
        -0.31398028,
        -0.47359198,
        -0.0016621351,
        0.9469204,
        -0.6335721,
        -0.06784308,
        0.19648373,
        0.23133934,
        0.52825785,
        0.25704896,
        0.3630451,
        0.9484303,
        -0.034487605,
        0.270337,
        0.15909493,
        -0.5792548,
        0.44797575,
        -0.6002266,
        0.9576366,
        -0.20088875,
        -0.40732783,
        -0.23551977,
        0.13202417,
        -0.12628162,
        -0.664407,
        -0.5429606,
        0.28367007,
        -0.14454949,
        0.4351188,
        -0.8476255,
        -0.6650169,
        0.77834654,
        0.605968,
        -0.21298516,
        0.7648268,
        0.8812711,
        -0.023760438,
        0.66115713,
        0.56527185,
        0.8285098,
        0.09837949,
        -0.9088664,
        -0.9320426,
        -0.37076038,
        -0.68738604,
        -0.33152407,
        -0.7513552,
        -0.92755246,
        -0.36904925,
        0.53917193,
        -0.13850701,
        0.020454764,
        -0.42525643,
        0.31328213,
        0.3858837,
        -0.45165724,
        0.32970083,
        -0.72938156,
        -0.1871928,
        0.38208067,
        0.33296382,
        0.020599723,
        -0.22083461,
        -0.7543869,
        0.14224613,
        0.066554666,
        0.8267832,
        0.77220297,
        -0.47438782,
        -0.32299536,
        0.009944558,
        0.8534882,
        -0.31941432,
        -0.7352333,
        -0.18064058,
        -0.27731508,
        -0.824116,
        -0.96939373,
        0.756788,
        -0.78830266,
        -0.42081755,
        -0.06597149,
        0.47792828,
        -0.40575594,
        -0.7087517,
        0.2238313,
        0.79734325,
        0.8082895,
        0.9322777,
        -0.6853037,
        -0.7211015,
        -0.032095313,
        0.82650757,
        0.6030891,
        -0.5616211,
        -0.017537951,
        0.3386866,
        0.3106848,
        -0.2507493,
        -0.5250363,
        0.5940306,
        -0.6239528,
        -0.86282873,
        -0.25279492,
        0.68581843,
        -0.124976516,
        -0.6077854,
        0.48048532,
        -0.6690023,
        -0.75621724,
        0.13966548,
        -0.77339125,
        -0.77437496,
        -0.70333457,
        -0.8642142,
        0.9784918,
        -0.38599414,
        -0.5244717,
        -0.86879396,
        -0.7050111,
        0.5686908,
        -0.24978006,
        -0.2011522,
        -0.4933836,
        -0.9457998,
        -0.08629811,
        -0.7998359,
        -0.78936887,
        -0.620161,
        0.919435,
        -0.7805214,
        0.8784437,
        -0.0631758,
        0.52333593,
        -0.060010552,
        0.15242779,
        0.54423547,
        0.9712293,
        0.12954271,
        -0.30004638,
        0.24504292,
        -0.089529395,
        -0.8713274,
        -0.55878586,
        0.70316267,
        -0.4008035,
        -0.63799024,
        -0.96273446,
        0.5343764,
        0.8988128,
        0.501328,
        0.5506618,
        -0.11423242,
        -0.9347062,
        -0.5080306,
        -0.7234416,
        0.059102654,
        -0.71029806,
        -0.90976596,
        0.0013233423,
        0.30054677,
        -0.5052807,
        -0.32342643,
        -0.1470002,
        0.1471585,
        -0.9088874,
        0.4169141,
        -0.9703729,
        0.07782042,
        0.70129156,
        -0.8482313,
        -0.12418854,
        0.797591,
        -0.54455036,
        0.9014993,
        -0.08888352,
        0.41576207,
        0.09969652,
        -0.034137845,
        0.65943956,
        -0.08630693,
        -0.3765294,
        0.27633584,
        -0.39720815,
        0.33129036,
        -0.16643107,
        0.80668974,
        -0.6595309,
        -0.058035493,
        -0.9043479,
        -0.75177884,
        -0.07143843,
        0.97503996,
        0.1805321,
        0.28994548,
        -0.17548954,
        -0.7712617,
        -0.024946332,
        0.52309227,
        0.31105816,
        0.2590376,
        -0.010649562,
        -0.6255338,
        -0.08515918,
        0.57860994,
        -0.63724923,
        0.51834846,
        0.9134836,
        0.8264115,
        -0.82749295,
        0.6885357,
        0.04996741,
        -0.86271644,
        0.78109837,
        -0.3144073,
        -0.5621132,
        0.9449198,
        0.6070764,
        -0.7724025,
        0.7160156,
        0.06995499,
        0.38701737,
        -0.5370578,
        -0.5867254,
        0.729064,
        0.34357965,
        -0.9786768,
        0.42636907,
        0.44717157,
        0.71944165,
        0.255767,
        0.4431833,
        0.75177693,
        -0.9970124,
        0.8540602,
        0.71711254,
        0.35114396,
        -0.3230211,
        0.8979602,
        -0.31815284,
        -0.9350934,
        -0.5807652,
        0.816133,
        0.4647516,
        0.69704294,
        0.9649501,
        0.54594564,
        0.088772416,
        0.103207946,
        -0.49770373,
        0.4555751,
        -0.22890675,
        -0.6991391,
        0.75779057,
        -0.75230885,
        0.35156357,
        0.07915819,
        0.6323762,
        0.0878464,
        -0.14385402,
        -0.6656511,
        0.7616489,
        -0.8811836,
        0.74322224,
        -0.3097803,
        -0.39005178,
        0.0632962,
        0.12142289,
        -0.460005,
        -0.64136744,
        -0.5085539,
        -0.45498294,
        -0.58801216,
        0.6443038,
        -0.34346527,
        0.49463856,
        0.9595864,
        -0.70894194,
        -0.51621884,
        -0.3141634,
        -0.913599,
        -0.38014764,
        -0.4222209,
        0.2380575,
        -0.4268772,
        0.37380564,
        0.86013985,
        -0.83083177,
        -0.34845275,
        0.3118199,
        0.49203384,
        -0.37950772,
        -0.10711825,
        0.7181227,
        0.632792,
        0.23125994,
        -0.52988523,
        -0.4209296,
        0.5409508,
        -0.406856,
        0.46567714,
        -0.6349523,
        -0.07346833,
        -0.35132593,
        -0.038812995,
        0.8451493,
        -0.57555884,
        -0.47406024,
        -0.6774123,
        0.1206249,
        -0.5468537,
        -0.7612846,
        -0.53354234,
        -0.1500808,
        -0.54850906,
        0.8165698,
        -0.797601,
        0.56133294,
        0.24336922,
        0.50509214,
        -0.13001049,
        0.59824157,
        -0.29992646,
        0.46480072,
        -0.5468349,
        -0.5803446,
        0.87681127,
        0.86755395,
        0.5112562,
        -0.7692654,
        0.4022466,
        0.023218036,
        0.0547024,
        0.23732865,
        -0.9506471,
        -0.7197461,
        0.467044,
        -0.45580858,
        0.7442448,
        0.87183976,
        -0.86723924,
        0.383031,
        0.08413541,
        0.63583255,
        -0.9282875,
        0.7939396,
        0.7069359,
        0.99204445,
        -0.54982656,
        0.075827,
        0.87923336,
        0.1276871,
        0.14411008,
        0.7280874,
        -0.56152314,
        0.44497216,
        -0.89253545,
        0.6217513,
        0.31991565,
        -0.68687105,
        -0.23412192,
        0.71767545,
        0.9363959,
        -0.46541876,
        0.40483987,
        0.53900766,
        0.12042153,
        0.7516525,
        0.38903177,
        0.15662181,
        -0.79362655,
        0.6008129,
        0.28270495,
        -0.21522248,
        0.6609552,
        -0.18836129,
        -0.41490215,
        0.7690213,
        -0.84749675,
        0.6430681,
        0.061869502,
        -0.58828706,
        0.47593915,
        0.2658943,
        0.13967955,
        0.51240706,
        0.6727743,
        0.22963941,
        -0.31913942,
        0.85639215,
        0.8878758,
        -0.11281121,
        0.76448464,
        0.53117156,
        -0.62755823,
        0.37790215,
        0.61913705,
        -0.5840451,
        -0.27181405,
        -0.2047342,
        -0.7942693,
        0.7976594,
        -0.35440797,
        -0.6254561,
        -0.87538314,
        0.52219653,
        -0.43079275,
        0.3956858,
        -0.17777312,
        -0.23744595,
        0.24608386,
        -0.5326318,
        -0.20920289,
        -0.31253093,
        0.79318094,
        -0.27570337,
        0.99060416,
        -0.6963308,
        -0.84202886,
        0.07014525,
        0.51923156,
        0.002341628,
        -0.40474313,
        0.17455494,
        -0.011888146,
        0.8660724,
        -0.23695743,
        0.85331035,
        -0.107043624,
        0.40022194,
        0.43251312,
        -0.28145498,
        -0.88307714,
        0.32163846,
        0.5842676,
        0.6787441,
        -0.9476013,
        -0.22113359,
        -0.5234963,
        0.6820593,
        0.6995692,
        0.99020815,
        -0.93470144,
        -0.032545447,
        -0.09216654,
        -0.34278673,
        0.15412223,
        0.04677236,
        0.66349363,
        0.7206619,
        0.16324437,
        -0.17367733,
        -0.5157301,
        -0.62783813,
        -0.4688608,
        -0.73813534,
        0.1335038,
        0.57992387,
        0.34954536,
        0.30903256,
        -0.7000644,
        -0.6023707,
        -0.22072947,
        0.15697753,
        -0.072785735,
        0.25326025,
        0.51719785,
        -0.9129307,
        0.9677479,
        0.18100631,
        -0.9061034,
        -0.0066298246,
        -0.5082676,
        -0.917722,
        -0.18850482,
        0.8680327,
        -0.33369893,
        -0.6826403,
        0.9506805,
        0.7754245,
        0.78067636,
        -0.7091799,
        0.93980765,
        0.5570073,
        -0.38499445,
        -0.4256665,
        -0.6353378,
        -0.9825902,
        -0.69653535,
        -0.39041132,
        -0.7435038,
        -0.5031976,
        -0.9605012,
        -0.6264162,
        0.6709192,
        0.51077604,
        0.58011866,
        -0.26128882,
        -0.015823483,
        -0.24620426,
        -0.66413784,
        -0.0528301,
        -0.024907708,
        -0.78283954,
        -0.39324254,
        -0.8450923,
        0.042578816,
        -0.3671133,
        -0.13685977,
        0.7856333,
        0.8088105,
        0.95746875,
        -0.5931272,
        -0.68767,
        -0.37818354,
        0.28042495,
        0.8369961,
        0.34585822,
        0.005751729,
        0.58561707,
        0.81843925,
        0.83077073,
        -0.42357963,
        0.5882435,
        0.29078186,
        0.5033963,
        0.10584557,
        -0.35981745,
        0.913043,
        -0.23870456,
        -0.83979607,
        0.15164363,
        0.8038385,
        0.93705225,
        0.84855294,
        0.8812306,
        0.11959231,
        -0.6749821,
        0.97543645,
        0.94856715,
        0.27228653,
        -0.48775214,
        0.7162008,
        0.41819584,
        -0.8625717,
        0.42886198,
        0.628031,
        0.4519285,
        0.65535283,
        0.92976713,
        -0.3495342,
        -0.526288,
        0.5864465,
        0.21716678,
        0.5495815,
        -0.65840244,
        0.007034421,
        0.4180714,
        -0.76685095,
        -0.6482403,
        0.20045674,
        -0.6517775,
        -0.8995664,
        0.91153145,
        0.60357165,
        0.48854434,
        -0.18739235,
        0.04056132,
        0.6187458,
        -0.645756,
        -0.8882704,
        0.14716375,
        -0.4792723,
        0.021013618,
        -0.9252875,
        0.0034104586,
        0.6776514,
        -0.6552031,
        0.4958502,
        -0.85588074,
        -0.3994984,
        0.6283419,
        -0.64507747,
        0.08480942,
        0.4877714,
        0.57825994,
        -0.07702243,
        -0.54359907,
        -0.43814296,
        -0.7184608,
        0.42085588,
        -0.6327281,
        0.8345742,
        0.9541559,
        0.09723103,
        0.79099965,
        0.09012616,
        -0.20772612,
        -0.9473064,
        0.73803926,
        -0.2680604,
        0.3901626,
        0.94202375,
        -0.11829555,
        -0.73831415,
        0.53034496,
        0.1192559,
        0.8807311,
        -0.5335085,
        0.6045828,
        0.8241751,
        0.4282502,
        -0.3361568,
        -0.32509798,
        0.6909933,
        0.988513,
        0.34138906,
        0.8337562,
        0.054166436,
        0.5454781,
        0.0550133,
        0.5012157,
        0.34839737,
        0.97955585,
        -0.3291356,
        0.12205851,
        0.47061646,
        0.5719652,
        0.19231999,
        0.79875994,
        -0.37658924,
        -0.3866741,
        -0.8953035,
        -0.84327936,
        -0.09458077,
        -0.7554009,
        0.92625093,
        -0.5487518,
        0.94175315,
        -0.7224195,
        -0.20768416,
        0.7874582,
        0.7146919,
        0.25416052,
        0.08472192,
        -0.10712898,
        0.8056054,
        0.8654258,
        0.581259,
        -0.5502736,
        0.99561477,
        0.78753567,
        0.8538983,
        0.124836326,
        -0.75979924,
        -0.7859535,
        -0.5708062,
        -0.7645707,
        0.6541164,
        0.16783464,
        0.56452084,
        0.49641263,
        0.8927965,
        -0.62133807,
        0.87011075,
        -0.08240354,
        -0.7168231,
        -0.92174935,
        -0.3189966,
        -0.22721231,
        -0.30858535,
        -0.897012,
        -0.65484095,
        0.43348038,
        -0.3862936,
        0.12405288,
        0.73348165,
        0.13138044,
        -0.6307814,
        0.7562971,
        -0.43755883,
        -0.6506071,
        -0.19210923,
        -0.56387514,
        0.90713286,
        -0.14940679,
        -0.40528864,
        -0.20746434,
        -0.6115822,
        -0.36480612,
        0.5829344,
        0.19264734,
        -0.5028505,
        0.17949474,
        -0.34824175,
        0.7710967,
        -0.94271064,
        -0.1559993,
        -0.6550069,
        -0.2658109,
        0.35666668,
        -0.16380394,
        -0.3465833,
        0.8660786,
        0.8575866,
        -0.738333,
        -0.06139052,
        0.97137403,
        -0.8365271,
        0.22331965,
        -0.74749637,
        -0.5465612,
        -0.716393,
        0.81646585,
        -0.083607554,
        0.87723804,
        0.62544847,
        -0.19943774,
        0.52860713,
        0.4264263,
        0.007221818,
        -0.3672263,
        0.34922802,
        0.8007436,
        -0.65759254,
        -0.20086896,
        -0.73823905,
        0.7844739,
        -0.7732165,
        0.23476446,
        0.5689118,
        -0.4456038,
        -0.35676545,
        0.35876286,
        0.6551907,
        -0.49538487,
        -0.7975488,
        0.072487235,
        -0.51173156,
        0.21469319,
        0.27362025,
        -0.7016666,
        -0.27568358,
        0.7939546,
        0.80573463,
        0.44691145,
        0.50269437,
        -0.41842097,
        -0.93949103,
        0.14696467,
        0.34606493,
        0.9798889,
        -0.3657586,
        0.9957392,
        -0.70787907,
        -0.9617448,
        0.98591495,
        0.40989983,
        -0.79259205,
        -0.433016,
        0.36473978,
        0.7563646,
        0.76491904,
        -0.79306126,
        0.6146593,
        -0.77038956,
        -0.45383686,
        0.16028178,
        -0.018010974,
        -0.36455363,
        -0.27279705,
        0.6571851,
        0.78869796,
        0.5593741,
        0.11321199,
        0.596854,
        -0.9948888,
        -0.44821543,
        0.1987549,
        0.17674601,
        0.64627004,
        0.72827816,
        0.93498087,
        0.7680001,
        -0.38435978,
        0.5678463,
        -0.3922562,
        0.110364795,
        0.5019243,
        0.3956002,
        0.47342837,
        0.5187731,
        -0.09815872,
        0.59345484,
        -0.42230648,
        -0.9900863,
        -0.80889726,
        -0.07521951,
        0.89842033,
        0.0444299,
        0.5262046,
        -0.6983192,
        -0.6165013,
        -0.2684216,
        0.3089472,
        -0.72259927,
        0.13738906,
        0.5703118,
        -0.018238425,
        -0.6795161,
        -0.016328216,
        0.43866742,
        -0.4725303,
        -0.115839124,
        0.38815033,
        -0.35132068,
        -0.31069988,
        -0.95802045,
        0.7769983,
        0.29119956,
        0.67887306,
        -0.5720925,
        0.79406977,
        -0.71090674,
        -0.4064812,
        0.4582256,
        -0.80916667,
        0.7694993,
        -0.07884562,
        0.07710254,
        -0.8930304,
        -0.2693171,
        0.25939763,
        -0.99855757,
        0.7527385,
        -0.2188884,
        0.35950196,
        0.71578646,
        -0.4726438,
        -0.8729353,
        -0.87412214,
        0.29609168,
        0.4827963,
        -0.13219202,
        -0.95848083,
        -0.68553066,
        -0.57791775,
        -0.55683154,
        0.6789429,
        0.6236596,
        -0.18103135,
        0.5040171,
        0.38210332,
        0.44441044,
        -0.21389997,
        -0.68337274,
        -0.78363466,
        -0.6453452,
        -0.01848042,
        0.5672555,
        -0.89007425,
        -0.5960049,
        -0.4674973,
        0.29373705,
        0.44062173,
        0.5296962,
        0.7576904,
        -0.7113676,
        -0.52556676,
        0.08797157,
        0.7777834,
        0.96291375,
        -0.7475827,
        -0.88498116,
        0.31764448,
        -0.5184242,
        0.8002672,
        0.18657792,
        0.40251768,
        -0.3305995,
        -0.092467666,
        -0.28767222,
        0.544662,
        -0.65507054,
        -0.41544908,
        -0.20703661,
        0.49809682,
        -0.3961038,
        -0.3527233,
        -0.83204556,
        -0.98558784,
        0.008838773,
        -0.12905705,
        -0.29898638,
        -0.6226701,
        -0.045709968,
        -0.57247084,
        0.77599883,
        -0.14639437,
        0.34100664,
        0.056698203,
        0.6559124,
        0.22575057,
        0.017148614,
        -0.07918799,
        -0.05344212,
        -0.6984236,
        -0.565437,
        0.99310064,
        0.3090273,
        0.46325767,
        -0.28580517,
        -0.2606644,
        0.63994145,
        -0.21698296,
        -0.90346575,
        -0.7357352,
        0.26053202,
        0.53359723,
        0.09739506,
        0.96573997,
        -0.9764154,
        -0.9443369,
        -0.87587833,
        -0.7438891,
        -0.36594504,
        -0.7944195,
        0.6244967,
        -0.08729398,
        0.8724184,
        -0.41951913,
        -0.7834387,
        0.121385455,
        -0.26056284,
        0.87699246,
        -0.48084182,
        -0.4210338,
        -0.8153777,
        0.035969615,
        0.4643563,
        -0.59050196,
        0.88967943,
        0.04737842,
        0.19675744,
        -0.27090806,
        0.20485389,
        -0.43967527,
        0.2530259,
        0.8544824,
        0.34779227,
        0.63173366,
        0.189798,
        -0.50725526,
        0.040042996,
        0.5677297,
        0.65901136,
        -0.3469097,
        0.6878567,
        -0.49720067,
        0.5146768,
        -0.022532105,
        -0.28137892,
        0.94411874,
        0.8210299,
        0.8517759,
        0.7969184,
        0.76562047,
        0.5402148,
        -0.24307477,
        0.515929,
        -0.69805956,
        -0.2744977,
        -0.26929373,
        -0.1288253,
        0.5027747,
        0.027149081,
        -0.5140998,
        -0.6754427,
        -0.8448787,
        -0.7370708,
        -0.9617481,
        -0.6425154,
        -0.14173758,
        -0.42640203,
        0.41208732,
        -0.6083874,
        0.7878618,
        0.6818068,
        -0.7939484,
        -0.10448372,
        0.24535596,
        -0.09806788,
        -0.8117161,
        -0.6751938,
        0.860281,
        0.29632485,
        -0.3416311,
        -0.82175183,
        -0.34594792,
        0.8269284,
        0.951282,
        -0.55120844,
        0.62999344,
        -0.276066,
        0.126171,
        -0.39676732,
        0.7078347,
        -0.6739545,
        -0.6884248,
        0.28115666,
        0.7137985,
        -0.18177211,
        0.4244665,
        0.24922788,
        0.7648933,
        -0.148327,
        0.59263206,
        0.9892304,
        -0.5100569,
        -0.0036350489,
        0.7395055,
        -0.10489595,
        0.8493111,
        0.07148731,
        -0.4116394,
        0.8492434,
        0.7922573,
        0.46556628,
        -0.5913307,
        -0.66621995,
        0.7097683,
        -0.56740516,
        0.73243856,
        -0.48615593,
        -0.6052758,
        -0.65733004,
        -0.10255039,
        0.53703237,
        0.067113996,
        0.49878943,
        0.7211182,
        -0.80675006,
        0.98372245,
        -0.30421537,
        -0.90725017,
        -0.35566372,
        -0.017941594,
        0.4510659,
        0.2748946,
        -0.08463299,
        0.2588464,
        0.22113264,
        0.7110734,
        0.87904644,
        -0.9214337,
        0.40753138,
        -0.32617086,
        -0.48836106,
        0.65422654,
        -0.37191457,
        -0.8312013,
        -0.35365337,
        0.6494913,
        -0.30781168,
        -0.48031753,
        -0.8095708,
        -0.2594468,
        -0.9368851,
        0.24302137,
        -0.7220526,
        0.72840166,
        -0.15400994,
        0.3231343,
        0.08194816,
        -0.60550755,
        0.89119387,
        -0.503792,
        -0.53808254,
        -0.509015,
        -0.65127134,
        -0.048900485,
        0.92023516,
        -0.20416534,
        -0.6273804,
        0.17200649,
        -0.931725,
        0.89085984,
        0.9662185,
        0.044315696,
        -0.43342966,
        -0.110030055,
        -0.73985934,
        0.93131924,
        -0.759732,
        0.5305059,
        0.71000934,
        -0.42991704,
        -0.5712556,
        0.8151674,
        -0.7761891,
        -0.36902708,
        -0.26448196,
        0.80419135,
        -0.3338632,
        -0.7894678,
        -0.88599396,
        0.25934732,
        0.04684031,
        0.16597283,
        0.5941231,
        0.84895134,
        -0.9962883,
        -0.13693726,
        -0.3250944,
        0.30118978,
        0.9001379,
        -0.8922601,
        0.10199797,
        -0.64821553,
        -0.92557263,
        0.21552145,
        -0.13678205,
        -0.054893136,
        -0.18966782,
        0.08033526,
        -0.016396165,
        -0.3055362,
        0.7442007,
        0.6640899,
        -0.26034635,
        -0.5016534,
        -0.8001213,
        0.24897587,
        -0.7100127,
        0.33273375,
        -0.7851908,
        -0.44209737,
        -0.4569704,
        -0.682848,
        0.34806,
        -0.10930836,
        -0.48274392,
        0.27266586,
        0.8715856,
        0.44547212,
        0.6276815,
        0.7157049,
        -0.19153702,
        -0.9436147,
        -0.8619673,
        -0.6828854,
        0.23305571,
        -0.42715257,
        -0.94073963,
        -0.93229127,
        -0.33526438,
        0.60000324,
        -0.31943887,
        -0.39107198,
        -0.4623372,
        0.25939286,
        -0.45805758,
        0.06265533,
        -0.9188018,
        0.6280396,
        0.041778207,
        0.06400192,
        -0.48298234,
        -0.6406963,
        0.5942266,
        -0.31374234,
        -0.25897902,
        -0.21225369,
        -0.70543694,
        0.044069648,
        0.6468196,
        -0.45626634,
        -0.24106991,
        -0.5946247,
        0.9699266,
        0.6847465,
        -0.63245153,
        -0.8043847,
        -0.94353724,
        0.97564006,
        0.6501374,
        0.82714343,
        0.018942475,
        0.39168322,
        0.31219518,
        -0.9451308,
        0.048139453,
        0.33814466,
        0.18498313,
        -0.7664585,
        -0.53516334,
        0.31397927,
        -0.056128144,
        0.43041003
      ]
    },
    {
      "index": 2,
      "output": -0.9985726,
      "input_connections": [
        [
          0,
          -0.62452096
        ],
        [
          1,
          -0.12572706
        ],
        [
          3,
          0.24291003
        ],
        [
          4,
          0.0
        ],
        [
          5,
          0.2320689
        ],
        [
          6,
          -0.07849038
        ],
        [
          7,
          -0.79312396
        ]
      ],
      "bias": 0.0,
      "self_activation": 0.29077545,
      "retina_weights": [
        0.4146024,
        -0.016833425,
        0.977335,
        -0.34781498,
        -0.848752,
        -0.80407643,
        0.18496501,
        -0.24615061,
        0.6933961,
        0.44002616,
        0.4104234,
        0.7624035,
        0.6323793,
        -0.97534156,
        -0.6621947,
        0.32604492,
        -0.44184178,
        0.9003558,
        -0.35692614,
        -0.6652787,
        0.28692925,
        0.8818674,
        0.16418469,
        -0.90579534,
        -0.026491523,
        0.6494701,
        -0.31398028,
        -0.47359198,
        -0.0016621351,
        0.9469204,
        -0.6335721,
        -0.06784308,
        0.19648373,
        0.23133934,
        0.52825785,
        0.25704896,
        0.3630451,
        0.9484303,
        -0.034487605,
        0.270337,
        0.15909493,
        -0.5792548,
        0.44797575,
        -0.6002266,
        0.9576366,
        -0.20088875,
        -0.40732783,
        -0.23551977,
        0.13202417,
        -0.12628162,
        -0.664407,
        -0.5429606,
        0.28367007,
        -0.14454949,
        0.4351188,
        -0.8476255,
        -0.6650169,
        0.77834654,
        0.605968,
        -0.21298516,
        0.7648268,
        0.8812711,
        -0.023760438,
        0.66115713,
        0.56527185,
        0.8285098,
        0.09837949,
        -0.9088664,
        -0.9320426,
        -0.37076038,
        -0.68738604,
        -0.33152407,
        -0.7513552,
        -0.92755246,
        -0.36904925,
        0.53917193,
        -0.13850701,
        0.020454764,
        -0.42525643,
        0.31328213,
        0.3858837,
        -0.45165724,
        0.32970083,
        -0.72938156,
        -0.1871928,
        0.38208067,
        0.33296382,
        0.020599723,
        -0.22083461,
        -0.7543869,
        0.14224613,
        0.066554666,
        0.8267832,
        0.77220297,
        -0.47438782,
        -0.32299536,
        0.009944558,
        0.8534882,
        -0.31941432,
        -0.7352333,
        -0.18064058,
        -0.27731508,
        -0.824116,
        -0.96939373,
        0.756788,
        -0.78830266,
        -0.42081755,
        -0.06597149,
        0.47792828,
        -0.40575594,
        -0.7087517,
        0.2238313,
        0.79734325,
        0.8082895,
        0.9322777,
        -0.6853037,
        -0.7211015,
        -0.032095313,
        0.82650757,
        0.6030891,
        -0.5616211,
        -0.017537951,
        0.3386866,
        0.3106848,
        -0.2507493,
        -0.5250363,
        0.5940306,
        -0.6239528,
        -0.86282873,
        -0.25279492,
        0.68581843,
        -0.124976516,
        -0.6077854,
        0.48048532,
        -0.6690023,
        -0.75621724,
        0.13966548,
        -0.77339125,
        -0.77437496,
        -0.70333457,
        -0.8642142,
        0.9784918,
        -0.38599414,
        -0.5244717,
        -0.86879396,
        -0.7050111,
        0.5686908,
        -0.24978006,
        -0.2011522,
        -0.4933836,
        -0.9457998,
        -0.08629811,
        -0.7998359,
        -0.78936887,
        -0.620161,
        0.919435,
        -0.7805214,
        0.8784437,
        -0.0631758,
        0.52333593,
        -0.060010552,
        0.15242779,
        0.54423547,
        0.9712293,
        0.12954271,
        -0.30004638,
        0.24504292,
        -0.089529395,
        -0.8713274,
        -0.55878586,
        0.70316267,
        -0.4008035,
        -0.63799024,
        -0.96273446,
        0.5343764,
        0.8988128,
        0.501328,
        0.5506618,
        -0.11423242,
        -0.9347062,
        -0.5080306,
        -0.7234416,
        0.059102654,
        -0.71029806,
        -0.90976596,
        0.0013233423,
        0.30054677,
        -0.5052807,
        -0.32342643,
        -0.1470002,
        0.1471585,
        -0.9088874,
        0.4169141,
        -0.9703729,
        0.07782042,
        0.70129156,
        -0.8482313,
        -0.12418854,
        0.797591,
        -0.54455036,
        0.9014993,
        -0.08888352,
        0.41576207,
        0.09969652,
        -0.034137845,
        0.65943956,
        -0.08630693,
        -0.3765294,
        0.27633584,
        -0.39720815,
        0.33129036,
        -0.16643107,
        0.80668974,
        -0.6595309,
        -0.058035493,
        -0.9043479,
        -0.75177884,
        -0.07143843,
        0.97503996,
        0.1805321,
        0.28994548,
        -0.17548954,
        -0.7712617,
        -0.024946332,
        0.52309227,
        0.31105816,
        0.2590376,
        -0.010649562,
        -0.6255338,
        -0.08515918,
        0.57860994,
        -0.63724923,
        0.51834846,
        0.9134836,
        0.8264115,
        -0.82749295,
        0.6885357,
        0.04996741,
        -0.86271644,
        0.78109837,
        -0.3144073,
        -0.5621132,
        0.9449198,
        0.6070764,
        -0.7724025,
        0.7160156,
        0.06995499,
        0.38701737,
        -0.5370578,
        -0.5867254,
        0.729064,
        0.34357965,
        -0.9786768,
        0.42636907,
        0.44717157,
        0.71944165,
        0.255767,
        0.4431833,
        0.75177693,
        -0.9970124,
        0.8540602,
        0.71711254,
        0.35114396,
        -0.3230211,
        0.8979602,
        -0.31815284,
        -0.9350934,
        -0.5807652,
        0.816133,
        0.4647516,
        0.69704294,
        0.9649501,
        0.54594564,
        0.088772416,
        0.103207946,
        -0.49770373,
        0.4555751,
        -0.22890675,
        -0.6991391,
        0.75779057,
        -0.75230885,
        0.35156357,
        0.07915819,
        0.6323762,
        0.0878464,
        -0.14385402,
        -0.6656511,
        0.7616489,
        -0.8811836,
        0.74322224,
        -0.3097803,
        -0.39005178,
        0.0632962,
        0.12142289,
        -0.460005,
        -0.64136744,
        -0.5085539,
        -0.45498294,
        -0.58801216,
        0.6443038,
        -0.34346527,
        0.49463856,
        0.9595864,
        -0.70894194,
        -0.51621884,
        -0.3141634,
        -0.913599,
        -0.38014764,
        -0.4222209,
        0.2380575,
        -0.4268772,
        0.37380564,
        0.86013985,
        -0.83083177,
        -0.34845275,
        0.3118199,
        0.49203384,
        -0.37950772,
        -0.10711825,
        0.7181227,
        0.632792,
        0.23125994,
        -0.52988523,
        -0.4209296,
        0.5409508,
        -0.406856,
        0.46567714,
        -0.6349523,
        -0.07346833,
        -0.35132593,
        -0.038812995,
        0.8451493,
        -0.57555884,
        -0.47406024,
        -0.6774123,
        0.1206249,
        -0.5468537,
        -0.7612846,
        -0.53354234,
        -0.1500808,
        -0.54850906,
        0.8165698,
        -0.797601,
        0.56133294,
        0.24336922,
        0.50509214,
        -0.13001049,
        0.59824157,
        -0.29992646,
        0.46480072,
        -0.5468349,
        -0.5803446,
        0.87681127,
        0.86755395,
        0.5112562,
        -0.7692654,
        0.4022466,
        0.023218036,
        0.0547024,
        0.23732865,
        -0.9506471,
        -0.7197461,
        0.467044,
        -0.45580858,
        0.7442448,
        0.87183976,
        -0.86723924,
        0.383031,
        0.08413541,
        0.63583255,
        -0.9282875,
        0.7939396,
        0.7069359,
        0.99204445,
        -0.54982656,
        0.075827,
        0.87923336,
        0.1276871,
        0.14411008,
        0.7280874,
        -0.56152314,
        0.44497216,
        -0.89253545,
        0.6217513,
        0.31991565,
        -0.68687105,
        -0.23412192,
        0.71767545,
        0.9363959,
        -0.46541876,
        0.40483987,
        0.53900766,
        0.12042153,
        0.7516525,
        0.38903177,
        0.15662181,
        -0.79362655,
        0.6008129,
        0.28270495,
        -0.21522248,
        0.6609552,
        -0.18836129,
        -0.41490215,
        0.7690213,
        -0.84749675,
        0.6430681,
        0.061869502,
        -0.58828706,
        0.47593915,
        0.2658943,
        0.13967955,
        0.51240706,
        0.6727743,
        0.22963941,
        -0.31913942,
        0.85639215,
        0.8878758,
        -0.11281121,
        0.76448464,
        0.53117156,
        -0.62755823,
        0.37790215,
        0.61913705,
        -0.5840451,
        -0.27181405,
        -0.2047342,
        -0.7942693,
        0.7976594,
        -0.35440797,
        -0.6254561,
        -0.87538314,
        0.52219653,
        -0.43079275,
        0.3956858,
        -0.17777312,
        -0.23744595,
        0.24608386,
        -0.5326318,
        -0.20920289,
        -0.31253093,
        0.79318094,
        -0.27570337,
        0.99060416,
        -0.6963308,
        -0.84202886,
        0.07014525,
        0.51923156,
        0.002341628,
        -0.40474313,
        0.17455494,
        -0.011888146,
        0.8660724,
        -0.23695743,
        0.85331035,
        -0.107043624,
        0.40022194,
        0.43251312,
        -0.28145498,
        -0.88307714,
        0.32163846,
        0.5842676,
        0.6787441,
        -0.9476013,
        -0.22113359,
        -0.5234963,
        0.6820593,
        0.6995692,
        0.99020815,
        -0.93470144,
        -0.032545447,
        -0.09216654,
        -0.34278673,
        0.15412223,
        0.04677236,
        0.66349363,
        0.7206619,
        0.16324437,
        -0.17367733,
        -0.5157301,
        -0.62783813,
        -0.4688608,
        -0.73813534,
        0.1335038,
        0.57992387,
        0.34954536,
        0.30903256,
        -0.7000644,
        -0.6023707,
        -0.22072947,
        0.15697753,
        -0.072785735,
        0.25326025,
        0.51719785,
        -0.9129307,
        0.9677479,
        0.18100631,
        -0.9061034,
        -0.0066298246,
        -0.5082676,
        -0.917722,
        -0.18850482,
        0.8680327,
        -0.33369893,
        -0.6826403,
        0.9506805,
        0.7754245,
        0.78067636,
        -0.7091799,
        0.93980765,
        0.5570073,
        -0.38499445,
        -0.4256665,
        -0.6353378,
        -0.9825902,
        -0.69653535,
        -0.39041132,
        -0.7435038,
        -0.5031976,
        -0.9605012,
        -0.6264162,
        0.6709192,
        0.51077604,
        0.58011866,
        -0.26128882,
        -0.015823483,
        -0.24620426,
        -0.66413784,
        -0.0528301,
        -0.024907708,
        -0.78283954,
        -0.39324254,
        -0.8450923,
        0.042578816,
        -0.3671133,
        -0.13685977,
        0.7856333,
        0.8088105,
        0.95746875,
        -0.5931272,
        -0.68767,
        -0.37818354,
        0.28042495,
        0.8369961,
        0.34585822,
        0.005751729,
        0.58561707,
        0.81843925,
        0.83077073,
        -0.42357963,
        0.5882435,
        0.29078186,
        0.5033963,
        0.10584557,
        -0.35981745,
        0.913043,
        -0.23870456,
        -0.83979607,
        0.15164363,
        0.8038385,
        0.93705225,
        0.84855294,
        0.8812306,
        0.11959231,
        -0.6749821,
        0.97543645,
        0.94856715,
        0.27228653,
        -0.48775214,
        0.7162008,
        0.41819584,
        -0.8625717,
        0.42886198,
        0.628031,
        0.4519285,
        0.65535283,
        0.92976713,
        -0.3495342,
        -0.526288,
        0.5864465,
        0.21716678,
        0.5495815,
        -0.65840244,
        0.007034421,
        0.4180714,
        -0.76685095,
        -0.6482403,
        0.20045674,
        -0.6517775,
        -0.8995664,
        0.91153145,
        0.60357165,
        0.48854434,
        -0.18739235,
        0.04056132,
        0.6187458,
        -0.645756,
        -0.8882704,
        0.14716375,
        -0.4792723,
        0.021013618,
        -0.9252875,
        0.0034104586,
        0.6776514,
        -0.6552031,
        0.4958502,
        -0.85588074,
        -0.3994984,
        0.6283419,
        -0.64507747,
        0.08480942,
        0.4877714,
        0.57825994,
        -0.07702243,
        -0.54359907,
        -0.43814296,
        -0.7184608,
        0.42085588,
        -0.6327281,
        0.8345742,
        0.9541559,
        0.09723103,
        0.79099965,
        0.09012616,
        -0.20772612,
        -0.9473064,
        0.73803926,
        -0.2680604,
        0.3901626,
        0.94202375,
        -0.11829555,
        -0.73831415,
        0.53034496,
        0.1192559,
        0.8807311,
        -0.5335085,
        0.6045828,
        0.8241751,
        0.4282502,
        -0.3361568,
        -0.32509798,
        0.6909933,
        0.988513,
        0.34138906,
        0.8337562,
        0.054166436,
        0.5454781,
        0.0550133,
        0.5012157,
        0.34839737,
        0.97955585,
        -0.3291356,
        0.12205851,
        0.47061646,
        0.5719652,
        0.19231999,
        0.79875994,
        -0.37658924,
        -0.3866741,
        -0.8953035,
        -0.84327936,
        -0.09458077,
        -0.7554009,
        0.92625093,
        -0.5487518,
        0.94175315,
        -0.7224195,
        -0.20768416,
        0.7874582,
        0.7146919,
        0.25416052,
        0.08472192,
        -0.10712898,
        0.8056054,
        0.8654258,
        0.581259,
        -0.5502736,
        0.99561477,
        0.78753567,
        0.8538983,
        0.124836326,
        -0.75979924,
        -0.7859535,
        -0.5708062,
        -0.7645707,
        0.6541164,
        0.16783464,
        0.56452084,
        0.49641263,
        0.8927965,
        -0.62133807,
        0.87011075,
        -0.08240354,
        -0.7168231,
        -0.92174935,
        -0.3189966,
        -0.22721231,
        -0.30858535,
        -0.897012,
        -0.65484095,
        0.43348038,
        -0.3862936,
        0.12405288,
        0.73348165,
        0.13138044,
        -0.6307814,
        0.7562971,
        -0.43755883,
        -0.6506071,
        -0.19210923,
        -0.56387514,
        0.90713286,
        -0.14940679,
        -0.40528864,
        -0.20746434,
        -0.6115822,
        -0.36480612,
        0.5829344,
        0.19264734,
        -0.5028505,
        0.17949474,
        -0.34824175,
        0.7710967,
        -0.94271064,
        -0.1559993,
        -0.6550069,
        -0.2658109,
        0.35666668,
        -0.16380394,
        -0.3465833,
        0.8660786,
        0.8575866,
        -0.738333,
        -0.06139052,
        0.97137403,
        -0.8365271,
        0.22331965,
        -0.74749637,
        -0.5465612,
        -0.716393,
        0.81646585,
        -0.083607554,
        0.87723804,
        0.62544847,
        -0.19943774,
        0.52860713,
        0.4264263,
        0.007221818,
        -0.3672263,
        0.34922802,
        0.8007436,
        -0.65759254,
        -0.20086896,
        -0.73823905,
        0.7844739,
        -0.7732165,
        0.23476446,
        0.5689118,
        -0.4456038,
        -0.35676545,
        0.35876286,
        0.6551907,
        -0.49538487,
        -0.7975488,
        0.072487235,
        -0.51173156,
        0.21469319,
        0.27362025,
        -0.7016666,
        -0.27568358,
        0.7939546,
        0.80573463,
        0.44691145,
        0.50269437,
        -0.41842097,
        -0.93949103,
        0.14696467,
        0.34606493,
        0.9798889,
        -0.3657586,
        0.9957392,
        -0.70787907,
        -0.9617448,
        0.98591495,
        0.40989983,
        -0.79259205,
        -0.433016,
        0.36473978,
        0.7563646,
        0.76491904,
        -0.79306126,
        0.6146593,
        -0.77038956,
        -0.45383686,
        0.16028178,
        -0.018010974,
        -0.36455363,
        -0.27279705,
        0.6571851,
        0.78869796,
        0.5593741,
        0.11321199,
        0.596854,
        -0.9948888,
        -0.44821543,
        0.1987549,
        0.17674601,
        0.64627004,
        0.72827816,
        0.93498087,
        0.7680001,
        -0.38435978,
        0.5678463,
        -0.3922562,
        0.110364795,
        0.5019243,
        0.3956002,
        0.47342837,
        0.5187731,
        -0.09815872,
        0.59345484,
        -0.42230648,
        -0.9900863,
        -0.80889726,
        -0.07521951,
        0.89842033,
        0.0444299,
        0.5262046,
        -0.6983192,
        -0.6165013,
        -0.2684216,
        0.3089472,
        -0.72259927,
        0.13738906,
        0.5703118,
        -0.018238425,
        -0.6795161,
        -0.016328216,
        0.43866742,
        -0.4725303,
        -0.115839124,
        0.38815033,
        -0.35132068,
        -0.31069988,
        -0.95802045,
        0.7769983,
        0.29119956,
        0.67887306,
        -0.5720925,
        0.79406977,
        -0.71090674,
        -0.4064812,
        0.4582256,
        -0.80916667,
        0.7694993,
        -0.07884562,
        0.07710254,
        -0.8930304,
        -0.2693171,
        0.25939763,
        -0.99855757,
        0.7527385,
        -0.2188884,
        0.35950196,
        0.71578646,
        -0.4726438,
        -0.8729353,
        -0.87412214,
        0.29609168,
        0.4827963,
        -0.13219202,
        -0.95848083,
        -0.68553066,
        -0.57791775,
        -0.55683154,
        0.6789429,
        0.6236596,
        -0.18103135,
        0.5040171,
        0.38210332,
        0.44441044,
        -0.21389997,
        -0.68337274,
        -0.78363466,
        -0.6453452,
        -0.01848042,
        0.5672555,
        -0.89007425,
        -0.5960049,
        -0.4674973,
        0.29373705,
        0.44062173,
        0.5296962,
        0.7576904,
        -0.7113676,
        -0.52556676,
        0.08797157,
        0.7777834,
        0.96291375,
        -0.7475827,
        -0.88498116,
        0.31764448,
        -0.5184242,
        0.8002672,
        0.18657792,
        0.40251768,
        -0.3305995,
        -0.092467666,
        -0.28767222,
        0.544662,
        -0.65507054,
        -0.41544908,
        -0.20703661,
        0.49809682,
        -0.3961038,
        -0.3527233,
        -0.83204556,
        -0.98558784,
        0.008838773,
        -0.12905705,
        -0.29898638,
        -0.6226701,
        -0.045709968,
        -0.57247084,
        0.77599883,
        -0.14639437,
        0.34100664,
        0.056698203,
        0.6559124,
        0.22575057,
        0.017148614,
        -0.07918799,
        -0.05344212,
        -0.6984236,
        -0.565437,
        0.99310064,
        0.3090273,
        0.46325767,
        -0.28580517,
        -0.2606644,
        0.63994145,
        -0.21698296,
        -0.90346575,
        -0.7357352,
        0.26053202,
        0.53359723,
        0.09739506,
        0.96573997,
        -0.9764154,
        -0.9443369,
        -0.87587833,
        -0.7438891,
        -0.36594504,
        -0.7944195,
        0.6244967,
        -0.08729398,
        0.8724184,
        -0.41951913,
        -0.7834387,
        0.121385455,
        -0.26056284,
        0.87699246,
        -0.48084182,
        -0.4210338,
        -0.8153777,
        0.035969615,
        0.4643563,
        -0.59050196,
        0.88967943,
        0.04737842,
        0.19675744,
        -0.27090806,
        0.20485389,
        -0.43967527,
        0.2530259,
        0.8544824,
        0.34779227,
        0.63173366,
        0.189798,
        -0.50725526,
        0.040042996,
        0.5677297,
        0.65901136,
        -0.3469097,
        0.6878567,
        -0.49720067,
        0.5146768,
        -0.022532105,
        -0.28137892,
        0.94411874,
        0.8210299,
        0.8517759,
        0.7969184,
        0.76562047,
        0.5402148,
        -0.24307477,
        0.515929,
        -0.69805956,
        -0.2744977,
        -0.26929373,
        -0.1288253,
        0.5027747,
        0.027149081,
        -0.5140998,
        -0.6754427,
        -0.8448787,
        -0.7370708,
        -0.9617481,
        -0.6425154,
        -0.14173758,
        -0.42640203,
        0.41208732,
        -0.6083874,
        0.7878618,
        0.6818068,
        -0.7939484,
        -0.10448372,
        0.24535596,
        -0.09806788,
        -0.8117161,
        -0.6751938,
        0.860281,
        0.29632485,
        -0.3416311,
        -0.82175183,
        -0.34594792,
        0.8269284,
        0.951282,
        -0.55120844,
        0.62999344,
        -0.276066,
        0.126171,
        -0.39676732,
        0.7078347,
        -0.6739545,
        -0.6884248,
        0.28115666,
        0.7137985,
        -0.18177211,
        0.4244665,
        0.24922788,
        0.7648933,
        -0.148327,
        0.59263206,
        0.9892304,
        -0.5100569,
        -0.0036350489,
        0.7395055,
        -0.10489595,
        0.8493111,
        0.07148731,
        -0.4116394,
        0.8492434,
        0.7922573,
        0.46556628,
        -0.5913307,
        -0.66621995,
        0.7097683,
        -0.56740516,
        0.73243856,
        -0.48615593,
        -0.6052758,
        -0.65733004,
        -0.10255039,
        0.53703237,
        0.067113996,
        0.49878943,
        0.7211182,
        -0.80675006,
        0.98372245,
        -0.30421537,
        -0.90725017,
        -0.35566372,
        -0.017941594,
        0.4510659,
        0.2748946,
        -0.08463299,
        0.2588464,
        0.22113264,
        0.7110734,
        0.87904644,
        -0.9214337,
        0.40753138,
        -0.32617086,
        -0.48836106,
        0.65422654,
        -0.37191457,
        -0.8312013,
        -0.35365337,
        0.6494913,
        -0.30781168,
        -0.48031753,
        -0.8095708,
        -0.2594468,
        -0.9368851,
        0.24302137,
        -0.7220526,
        0.72840166,
        -0.15400994,
        0.3231343,
        0.08194816,
        -0.60550755,
        0.89119387,
        -0.503792,
        -0.53808254,
        -0.509015,
        -0.65127134,
        -0.048900485,
        0.92023516,
        -0.20416534,
        -0.6273804,
        0.17200649,
        -0.931725,
        0.89085984,
        0.9662185,
        0.044315696,
        -0.43342966,
        -0.110030055,
        -0.73985934,
        0.93131924,
        -0.759732,
        0.5305059,
        0.71000934,
        -0.42991704,
        -0.5712556,
        0.8151674,
        -0.7761891,
        -0.36902708,
        -0.26448196,
        0.80419135,
        -0.3338632,
        -0.7894678,
        -0.88599396,
        0.25934732,
        0.04684031,
        0.16597283,
        0.5941231,
        0.84895134,
        -0.9962883,
        -0.13693726,
        -0.3250944,
        0.30118978,
        0.9001379,
        -0.8922601,
        0.10199797,
        -0.64821553,
        -0.92557263,
        0.21552145,
        -0.13678205,
        -0.054893136,
        -0.18966782,
        0.08033526,
        -0.016396165,
        -0.3055362,
        0.7442007,
        0.6640899,
        -0.26034635,
        -0.5016534,
        -0.8001213,
        0.24897587,
        -0.7100127,
        0.33273375,
        -0.7851908,
        -0.44209737,
        -0.4569704,
        -0.682848,
        0.34806,
        -0.10930836,
        -0.48274392,
        0.27266586,
        0.8715856,
        0.44547212,
        0.6276815,
        0.7157049,
        -0.19153702,
        -0.9436147,
        -0.8619673,
        -0.6828854,
        0.23305571,
        -0.42715257,
        -0.94073963,
        -0.93229127,
        -0.33526438,
        0.60000324,
        -0.31943887,
        -0.39107198,
        -0.4623372,
        0.25939286,
        -0.45805758,
        0.06265533,
        -0.9188018,
        0.6280396,
        0.041778207,
        0.06400192,
        -0.48298234,
        -0.6406963,
        0.5942266,
        -0.31374234,
        -0.25897902,
        -0.21225369,
        -0.70543694,
        0.044069648,
        0.6468196,
        -0.45626634,
        -0.24106991,
        -0.5946247,
        0.9699266,
        0.6847465,
        -0.63245153,
        -0.8043847,
        -0.94353724,
        0.97564006,
        0.6501374,
        0.82714343,
        0.018942475,
        0.39168322,
        0.31219518,
        -0.9451308,
        0.048139453,
        0.33814466,
        0.18498313,
        -0.7664585,
        -0.53516334,
        0.31397927,
        -0.056128144,
        0.43041003
      ]
    },
    {
      "index": 3,
      "output": -0.99861306,
      "input_connections": [
        [
          0,
          0.0
        ],
        [
          1,
          0.0
        ],
        [
          2,
          0.0
        ],
        [
          4,
          0.0
        ],
        [
          5,
          -0.91413283
        ],
        [
          6,
          0.0
        ],
        [
          7,
          0.0
        ]
      ],
      "bias": 0.04362367,
      "self_activation": 0.0,
      "retina_weights": [
        0.4146024,
        -0.016833425,
        0.977335,
        -0.34781498,
        -0.848752,
        -0.80407643,
        0.18496501,
        -0.24615061,
        0.6933961,
        0.44002616,
        0.4104234,
        0.7624035,
        0.6323793,
        -0.97534156,
        -0.6621947,
        0.32604492,
        -0.44184178,
        0.9003558,
        -0.35692614,
        -0.6652787,
        0.28692925,
        0.8818674,
        0.16418469,
        -0.90579534,
        -0.026491523,
        0.6494701,
        -0.31398028,
        -0.47359198,
        -0.0016621351,
        0.9469204,
        -0.6335721,
        -0.06784308,
        0.19648373,
        0.23133934,
        0.52825785,
        0.25704896,
        0.3630451,
        0.9484303,
        -0.034487605,
        0.270337,
        0.15909493,
        -0.5792548,
        0.44797575,
        -0.6002266,
        0.9576366,
        -0.20088875,
        -0.40732783,
        -0.23551977,
        0.13202417,
        -0.12628162,
        -0.664407,
        -0.5429606,
        0.28367007,
        -0.14454949,
        0.4351188,
        -0.8476255,
        -0.6650169,
        0.77834654,
        0.605968,
        -0.21298516,
        0.7648268,
        0.8812711,
        -0.023760438,
        0.66115713,
        0.56527185,
        0.8285098,
        0.09837949,
        -0.9088664,
        -0.9320426,
        -0.37076038,
        -0.68738604,
        -0.33152407,
        -0.7513552,
        -0.92755246,
        -0.36904925,
        0.53917193,
        -0.13850701,
        0.020454764,
        -0.42525643,
        0.31328213,
        0.3858837,
        -0.45165724,
        0.32970083,
        -0.72938156,
        -0.1871928,
        0.38208067,
        0.33296382,
        0.020599723,
        -0.22083461,
        -0.7543869,
        0.14224613,
        0.066554666,
        0.8267832,
        0.77220297,
        -0.47438782,
        -0.32299536,
        0.009944558,
        0.8534882,
        -0.31941432,
        -0.7352333,
        -0.18064058,
        -0.27731508,
        -0.824116,
        -0.96939373,
        0.756788,
        -0.78830266,
        -0.42081755,
        -0.06597149,
        0.47792828,
        -0.40575594,
        -0.7087517,
        0.2238313,
        0.79734325,
        0.8082895,
        0.9322777,
        -0.6853037,
        -0.7211015,
        -0.032095313,
        0.82650757,
        0.6030891,
        -0.5616211,
        -0.017537951,
        0.3386866,
        0.3106848,
        -0.2507493,
        -0.5250363,
        0.5940306,
        -0.6239528,
        -0.86282873,
        -0.25279492,
        0.68581843,
        -0.124976516,
        -0.6077854,
        0.48048532,
        -0.6690023,
        -0.75621724,
        0.13966548,
        -0.77339125,
        -0.77437496,
        -0.70333457,
        -0.8642142,
        0.9784918,
        -0.38599414,
        -0.5244717,
        -0.86879396,
        -0.7050111,
        0.5686908,
        -0.24978006,
        -0.2011522,
        -0.4933836,
        -0.9457998,
        -0.08629811,
        -0.7998359,
        -0.78936887,
        -0.620161,
        0.919435,
        -0.7805214,
        0.8784437,
        -0.0631758,
        0.52333593,
        -0.060010552,
        0.15242779,
        0.54423547,
        0.9712293,
        0.12954271,
        -0.30004638,
        0.24504292,
        -0.089529395,
        -0.8713274,
        -0.55878586,
        0.70316267,
        -0.4008035,
        -0.63799024,
        -0.96273446,
        0.5343764,
        0.8988128,
        0.501328,
        0.5506618,
        -0.11423242,
        -0.9347062,
        -0.5080306,
        -0.7234416,
        0.059102654,
        -0.71029806,
        -0.90976596,
        0.0013233423,
        0.30054677,
        -0.5052807,
        -0.32342643,
        -0.1470002,
        0.1471585,
        -0.9088874,
        0.4169141,
        -0.9703729,
        0.07782042,
        0.70129156,
        -0.8482313,
        -0.12418854,
        0.797591,
        -0.54455036,
        0.9014993,
        -0.08888352,
        0.41576207,
        0.09969652,
        -0.034137845,
        0.65943956,
        -0.08630693,
        -0.3765294,
        0.27633584,
        -0.39720815,
        0.33129036,
        -0.16643107,
        0.80668974,
        -0.6595309,
        -0.058035493,
        -0.9043479,
        -0.75177884,
        -0.07143843,
        0.97503996,
        0.1805321,
        0.28994548,
        -0.17548954,
        -0.7712617,
        -0.024946332,
        0.52309227,
        0.31105816,
        0.2590376,
        -0.010649562,
        -0.6255338,
        -0.08515918,
        0.57860994,
        -0.63724923,
        0.51834846,
        0.9134836,
        0.8264115,
        -0.82749295,
        0.6885357,
        0.04996741,
        -0.86271644,
        0.78109837,
        -0.3144073,
        -0.5621132,
        0.9449198,
        0.6070764,
        -0.7724025,
        0.7160156,
        0.06995499,
        0.38701737,
        -0.5370578,
        -0.5867254,
        0.729064,
        0.34357965,
        -0.9786768,
        0.42636907,
        0.44717157,
        0.71944165,
        0.255767,
        0.4431833,
        0.75177693,
        -0.9970124,
        0.8540602,
        0.71711254,
        0.35114396,
        -0.3230211,
        0.8979602,
        -0.31815284,
        -0.9350934,
        -0.5807652,
        0.816133,
        0.4647516,
        0.69704294,
        0.9649501,
        0.54594564,
        0.088772416,
        0.103207946,
        -0.49770373,
        0.4555751,
        -0.22890675,
        -0.6991391,
        0.75779057,
        -0.75230885,
        0.35156357,
        0.07915819,
        0.6323762,
        0.0878464,
        -0.14385402,
        -0.6656511,
        0.7616489,
        -0.8811836,
        0.74322224,
        -0.3097803,
        -0.39005178,
        0.0632962,
        0.12142289,
        -0.460005,
        -0.64136744,
        -0.5085539,
        -0.45498294,
        -0.58801216,
        0.6443038,
        -0.34346527,
        0.49463856,
        0.9595864,
        -0.70894194,
        -0.51621884,
        -0.3141634,
        -0.913599,
        -0.38014764,
        -0.4222209,
        0.2380575,
        -0.4268772,
        0.37380564,
        0.86013985,
        -0.83083177,
        -0.34845275,
        0.3118199,
        0.49203384,
        -0.37950772,
        -0.10711825,
        0.7181227,
        0.632792,
        0.23125994,
        -0.52988523,
        -0.4209296,
        0.5409508,
        -0.406856,
        0.46567714,
        -0.6349523,
        -0.07346833,
        -0.35132593,
        -0.038812995,
        0.8451493,
        -0.57555884,
        -0.47406024,
        -0.6774123,
        0.1206249,
        -0.5468537,
        -0.7612846,
        -0.53354234,
        -0.1500808,
        -0.54850906,
        0.8165698,
        -0.797601,
        0.56133294,
        0.24336922,
        0.50509214,
        -0.13001049,
        0.59824157,
        -0.29992646,
        0.46480072,
        -0.5468349,
        -0.5803446,
        0.87681127,
        0.86755395,
        0.5112562,
        -0.7692654,
        0.4022466,
        0.023218036,
        0.0547024,
        0.23732865,
        -0.9506471,
        -0.7197461,
        0.467044,
        -0.45580858,
        0.7442448,
        0.87183976,
        -0.86723924,
        0.383031,
        0.08413541,
        0.63583255,
        -0.9282875,
        0.7939396,
        0.7069359,
        0.99204445,
        -0.54982656,
        0.075827,
        0.87923336,
        0.1276871,
        0.14411008,
        0.7280874,
        -0.56152314,
        0.44497216,
        -0.89253545,
        0.6217513,
        0.31991565,
        -0.68687105,
        -0.23412192,
        0.71767545,
        0.9363959,
        -0.46541876,
        0.40483987,
        0.53900766,
        0.12042153,
        0.7516525,
        0.38903177,
        0.15662181,
        -0.79362655,
        0.6008129,
        0.28270495,
        -0.21522248,
        0.6609552,
        -0.18836129,
        -0.41490215,
        0.7690213,
        -0.84749675,
        0.6430681,
        0.061869502,
        -0.58828706,
        0.47593915,
        0.2658943,
        0.13967955,
        0.51240706,
        0.6727743,
        0.22963941,
        -0.31913942,
        0.85639215,
        0.8878758,
        -0.11281121,
        0.76448464,
        0.53117156,
        -0.62755823,
        0.37790215,
        0.61913705,
        -0.5840451,
        -0.27181405,
        -0.2047342,
        -0.7942693,
        0.7976594,
        -0.35440797,
        -0.6254561,
        -0.87538314,
        0.52219653,
        -0.43079275,
        0.3956858,
        -0.17777312,
        -0.23744595,
        0.24608386,
        -0.5326318,
        -0.20920289,
        -0.31253093,
        0.79318094,
        -0.27570337,
        0.99060416,
        -0.6963308,
        -0.84202886,
        0.07014525,
        0.51923156,
        0.002341628,
        -0.40474313,
        0.17455494,
        -0.011888146,
        0.8660724,
        -0.23695743,
        0.85331035,
        -0.107043624,
        0.40022194,
        0.43251312,
        -0.28145498,
        -0.88307714,
        0.32163846,
        0.5842676,
        0.6787441,
        -0.9476013,
        -0.22113359,
        -0.5234963,
        0.6820593,
        0.6995692,
        0.99020815,
        -0.93470144,
        -0.032545447,
        -0.09216654,
        -0.34278673,
        0.15412223,
        0.04677236,
        0.66349363,
        0.7206619,
        0.16324437,
        -0.17367733,
        -0.5157301,
        -0.62783813,
        -0.4688608,
        -0.73813534,
        0.1335038,
        0.57992387,
        0.34954536,
        0.30903256,
        -0.7000644,
        -0.6023707,
        -0.22072947,
        0.15697753,
        -0.072785735,
        0.25326025,
        0.51719785,
        -0.9129307,
        0.9677479,
        0.18100631,
        -0.9061034,
        -0.0066298246,
        -0.5082676,
        -0.917722,
        -0.18850482,
        0.8680327,
        -0.33369893,
        -0.6826403,
        0.9506805,
        0.7754245,
        0.78067636,
        -0.7091799,
        0.93980765,
        0.5570073,
        -0.38499445,
        -0.4256665,
        -0.6353378,
        -0.9825902,
        -0.69653535,
        -0.39041132,
        -0.7435038,
        -0.5031976,
        -0.9605012,
        -0.6264162,
        0.6709192,
        0.51077604,
        0.58011866,
        -0.26128882,
        -0.015823483,
        -0.24620426,
        -0.66413784,
        -0.0528301,
        -0.024907708,
        -0.78283954,
        -0.39324254,
        -0.8450923,
        0.042578816,
        -0.3671133,
        -0.13685977,
        0.7856333,
        0.8088105,
        0.95746875,
        -0.5931272,
        -0.68767,
        -0.37818354,
        0.28042495,
        0.8369961,
        0.34585822,
        0.005751729,
        0.58561707,
        0.81843925,
        0.83077073,
        -0.42357963,
        0.5882435,
        0.29078186,
        0.5033963,
        0.10584557,
        -0.35981745,
        0.913043,
        -0.23870456,
        -0.83979607,
        0.15164363,
        0.8038385,
        0.93705225,
        0.84855294,
        0.8812306,
        0.11959231,
        -0.6749821,
        0.97543645,
        0.94856715,
        0.27228653,
        -0.48775214,
        0.7162008,
        0.41819584,
        -0.8625717,
        0.42886198,
        0.628031,
        0.4519285,
        0.65535283,
        0.92976713,
        -0.3495342,
        -0.526288,
        0.5864465,
        0.21716678,
        0.5495815,
        -0.65840244,
        0.007034421,
        0.4180714,
        -0.76685095,
        -0.6482403,
        0.20045674,
        -0.6517775,
        -0.8995664,
        0.91153145,
        0.60357165,
        0.48854434,
        -0.18739235,
        0.04056132,
        0.6187458,
        -0.645756,
        -0.8882704,
        0.14716375,
        -0.4792723,
        0.021013618,
        -0.9252875,
        0.0034104586,
        0.6776514,
        -0.6552031,
        0.4958502,
        -0.85588074,
        -0.3994984,
        0.6283419,
        -0.64507747,
        0.08480942,
        0.4877714,
        0.57825994,
        -0.07702243,
        -0.54359907,
        -0.43814296,
        -0.7184608,
        0.42085588,
        -0.6327281,
        0.8345742,
        0.9541559,
        0.09723103,
        0.79099965,
        0.09012616,
        -0.20772612,
        -0.9473064,
        0.73803926,
        -0.2680604,
        0.3901626,
        0.94202375,
        -0.11829555,
        -0.73831415,
        0.53034496,
        0.1192559,
        0.8807311,
        -0.5335085,
        0.6045828,
        0.8241751,
        0.4282502,
        -0.3361568,
        -0.32509798,
        0.6909933,
        0.988513,
        0.34138906,
        0.8337562,
        0.054166436,
        0.5454781,
        0.0550133,
        0.5012157,
        0.34839737,
        0.97955585,
        -0.3291356,
        0.12205851,
        0.47061646,
        0.5719652,
        0.19231999,
        0.79875994,
        -0.37658924,
        -0.3866741,
        -0.8953035,
        -0.84327936,
        -0.09458077,
        -0.7554009,
        0.92625093,
        -0.5487518,
        0.94175315,
        -0.7224195,
        -0.20768416,
        0.7874582,
        0.7146919,
        0.25416052,
        0.08472192,
        -0.10712898,
        0.8056054,
        0.8654258,
        0.581259,
        -0.5502736,
        0.99561477,
        0.78753567,
        0.8538983,
        0.124836326,
        -0.75979924,
        -0.7859535,
        -0.5708062,
        -0.7645707,
        0.6541164,
        0.16783464,
        0.56452084,
        0.49641263,
        0.8927965,
        -0.62133807,
        0.87011075,
        -0.08240354,
        -0.7168231,
        -0.92174935,
        -0.3189966,
        -0.22721231,
        -0.30858535,
        -0.897012,
        -0.65484095,
        0.43348038,
        -0.3862936,
        0.12405288,
        0.73348165,
        0.13138044,
        -0.6307814,
        0.7562971,
        -0.43755883,
        -0.6506071,
        -0.19210923,
        -0.56387514,
        0.90713286,
        -0.14940679,
        -0.40528864,
        -0.20746434,
        -0.6115822,
        -0.36480612,
        0.5829344,
        0.19264734,
        -0.5028505,
        0.17949474,
        -0.34824175,
        0.7710967,
        -0.94271064,
        -0.1559993,
        -0.6550069,
        -0.2658109,
        0.35666668,
        -0.16380394,
        -0.3465833,
        0.8660786,
        0.8575866,
        -0.738333,
        -0.06139052,
        0.97137403,
        -0.8365271,
        0.22331965,
        -0.74749637,
        -0.5465612,
        -0.716393,
        0.81646585,
        -0.083607554,
        0.87723804,
        0.62544847,
        -0.19943774,
        0.52860713,
        0.4264263,
        0.007221818,
        -0.3672263,
        0.34922802,
        0.8007436,
        -0.65759254,
        -0.20086896,
        -0.73823905,
        0.7844739,
        -0.7732165,
        0.23476446,
        0.5689118,
        -0.4456038,
        -0.35676545,
        0.35876286,
        0.6551907,
        -0.49538487,
        -0.7975488,
        0.072487235,
        -0.51173156,
        0.21469319,
        0.27362025,
        -0.7016666,
        -0.27568358,
        0.7939546,
        0.80573463,
        0.44691145,
        0.50269437,
        -0.41842097,
        -0.93949103,
        0.14696467,
        0.34606493,
        0.9798889,
        -0.3657586,
        0.9957392,
        -0.70787907,
        -0.9617448,
        0.98591495,
        0.40989983,
        -0.79259205,
        -0.433016,
        0.36473978,
        0.7563646,
        0.76491904,
        -0.79306126,
        0.6146593,
        -0.77038956,
        -0.45383686,
        0.16028178,
        -0.018010974,
        -0.36455363,
        -0.27279705,
        0.6571851,
        0.78869796,
        0.5593741,
        0.11321199,
        0.596854,
        -0.9948888,
        -0.44821543,
        0.1987549,
        0.17674601,
        0.64627004,
        0.72827816,
        0.93498087,
        0.7680001,
        -0.38435978,
        0.5678463,
        -0.3922562,
        0.110364795,
        0.5019243,
        0.3956002,
        0.47342837,
        0.5187731,
        -0.09815872,
        0.59345484,
        -0.42230648,
        -0.9900863,
        -0.80889726,
        -0.07521951,
        0.89842033,
        0.0444299,
        0.5262046,
        -0.6983192,
        -0.6165013,
        -0.2684216,
        0.3089472,
        -0.72259927,
        0.13738906,
        0.5703118,
        -0.018238425,
        -0.6795161,
        -0.016328216,
        0.43866742,
        -0.4725303,
        -0.115839124,
        0.38815033,
        -0.35132068,
        -0.31069988,
        -0.95802045,
        0.7769983,
        0.29119956,
        0.67887306,
        -0.5720925,
        0.79406977,
        -0.71090674,
        -0.4064812,
        0.4582256,
        -0.80916667,
        0.7694993,
        -0.07884562,
        0.07710254,
        -0.8930304,
        -0.2693171,
        0.25939763,
        -0.99855757,
        0.7527385,
        -0.2188884,
        0.35950196,
        0.71578646,
        -0.4726438,
        -0.8729353,
        -0.87412214,
        0.29609168,
        0.4827963,
        -0.13219202,
        -0.95848083,
        -0.68553066,
        -0.57791775,
        -0.55683154,
        0.6789429,
        0.6236596,
        -0.18103135,
        0.5040171,
        0.38210332,
        0.44441044,
        -0.21389997,
        -0.68337274,
        -0.78363466,
        -0.6453452,
        -0.01848042,
        0.5672555,
        -0.89007425,
        -0.5960049,
        -0.4674973,
        0.29373705,
        0.44062173,
        0.5296962,
        0.7576904,
        -0.7113676,
        -0.52556676,
        0.08797157,
        0.7777834,
        0.96291375,
        -0.7475827,
        -0.88498116,
        0.31764448,
        -0.5184242,
        0.8002672,
        0.18657792,
        0.40251768,
        -0.3305995,
        -0.092467666,
        -0.28767222,
        0.544662,
        -0.65507054,
        -0.41544908,
        -0.20703661,
        0.49809682,
        -0.3961038,
        -0.3527233,
        -0.83204556,
        -0.98558784,
        0.008838773,
        -0.12905705,
        -0.29898638,
        -0.6226701,
        -0.045709968,
        -0.57247084,
        0.77599883,
        -0.14639437,
        0.34100664,
        0.056698203,
        0.6559124,
        0.22575057,
        0.017148614,
        -0.07918799,
        -0.05344212,
        -0.6984236,
        -0.565437,
        0.99310064,
        0.3090273,
        0.46325767,
        -0.28580517,
        -0.2606644,
        0.63994145,
        -0.21698296,
        -0.90346575,
        -0.7357352,
        0.26053202,
        0.53359723,
        0.09739506,
        0.96573997,
        -0.9764154,
        -0.9443369,
        -0.87587833,
        -0.7438891,
        -0.36594504,
        -0.7944195,
        0.6244967,
        -0.08729398,
        0.8724184,
        -0.41951913,
        -0.7834387,
        0.121385455,
        -0.26056284,
        0.87699246,
        -0.48084182,
        -0.4210338,
        -0.8153777,
        0.035969615,
        0.4643563,
        -0.59050196,
        0.88967943,
        0.04737842,
        0.19675744,
        -0.27090806,
        0.20485389,
        -0.43967527,
        0.2530259,
        0.8544824,
        0.34779227,
        0.63173366,
        0.189798,
        -0.50725526,
        0.040042996,
        0.5677297,
        0.65901136,
        -0.3469097,
        0.6878567,
        -0.49720067,
        0.5146768,
        -0.022532105,
        -0.28137892,
        0.94411874,
        0.8210299,
        0.8517759,
        0.7969184,
        0.76562047,
        0.5402148,
        -0.24307477,
        0.515929,
        -0.69805956,
        -0.2744977,
        -0.26929373,
        -0.1288253,
        0.5027747,
        0.027149081,
        -0.5140998,
        -0.6754427,
        -0.8448787,
        -0.7370708,
        -0.9617481,
        -0.6425154,
        -0.14173758,
        -0.42640203,
        0.41208732,
        -0.6083874,
        0.7878618,
        0.6818068,
        -0.7939484,
        -0.10448372,
        0.24535596,
        -0.09806788,
        -0.8117161,
        -0.6751938,
        0.860281,
        0.29632485,
        -0.3416311,
        -0.82175183,
        -0.34594792,
        0.8269284,
        0.951282,
        -0.55120844,
        0.62999344,
        -0.276066,
        0.126171,
        -0.39676732,
        0.7078347,
        -0.6739545,
        -0.6884248,
        0.28115666,
        0.7137985,
        -0.18177211,
        0.4244665,
        0.24922788,
        0.7648933,
        -0.148327,
        0.59263206,
        0.9892304,
        -0.5100569,
        -0.0036350489,
        0.7395055,
        -0.10489595,
        0.8493111,
        0.07148731,
        -0.4116394,
        0.8492434,
        0.7922573,
        0.46556628,
        -0.5913307,
        -0.66621995,
        0.7097683,
        -0.56740516,
        0.73243856,
        -0.48615593,
        -0.6052758,
        -0.65733004,
        -0.10255039,
        0.53703237,
        0.067113996,
        0.49878943,
        0.7211182,
        -0.80675006,
        0.98372245,
        -0.30421537,
        -0.90725017,
        -0.35566372,
        -0.017941594,
        0.4510659,
        0.2748946,
        -0.08463299,
        0.2588464,
        0.22113264,
        0.7110734,
        0.87904644,
        -0.9214337,
        0.40753138,
        -0.32617086,
        -0.48836106,
        0.65422654,
        -0.37191457,
        -0.8312013,
        -0.35365337,
        0.6494913,
        -0.30781168,
        -0.48031753,
        -0.8095708,
        -0.2594468,
        -0.9368851,
        0.24302137,
        -0.7220526,
        0.72840166,
        -0.15400994,
        0.3231343,
        0.08194816,
        -0.60550755,
        0.89119387,
        -0.503792,
        -0.53808254,
        -0.509015,
        -0.65127134,
        -0.048900485,
        0.92023516,
        -0.20416534,
        -0.6273804,
        0.17200649,
        -0.931725,
        0.89085984,
        0.9662185,
        0.044315696,
        -0.43342966,
        -0.110030055,
        -0.73985934,
        0.93131924,
        -0.759732,
        0.5305059,
        0.71000934,
        -0.42991704,
        -0.5712556,
        0.8151674,
        -0.7761891,
        -0.36902708,
        -0.26448196,
        0.80419135,
        -0.3338632,
        -0.7894678,
        -0.88599396,
        0.25934732,
        0.04684031,
        0.16597283,
        0.5941231,
        0.84895134,
        -0.9962883,
        -0.13693726,
        -0.3250944,
        0.30118978,
        0.9001379,
        -0.8922601,
        0.10199797,
        -0.64821553,
        -0.92557263,
        0.21552145,
        -0.13678205,
        -0.054893136,
        -0.18966782,
        0.08033526,
        -0.016396165,
        -0.3055362,
        0.7442007,
        0.6640899,
        -0.26034635,
        -0.5016534,
        -0.8001213,
        0.24897587,
        -0.7100127,
        0.33273375,
        -0.7851908,
        -0.44209737,
        -0.4569704,
        -0.682848,
        0.34806,
        -0.10930836,
        -0.48274392,
        0.27266586,
        0.8715856,
        0.44547212,
        0.6276815,
        0.7157049,
        -0.19153702,
        -0.9436147,
        -0.8619673,
        -0.6828854,
        0.23305571,
        -0.42715257,
        -0.94073963,
        -0.93229127,
        -0.33526438,
        0.60000324,
        -0.31943887,
        -0.39107198,
        -0.4623372,
        0.25939286,
        -0.45805758,
        0.06265533,
