{
  "neurons": [
    {
      "index": 0,
      "output": 0.0,
      "input_connections": [
        [
          1,
          0.0
        ],
        [
          2,
          0.0
        ],
        [
          3,
          0.0
        ],
        [
          4,
          0.0
        ],
        [
          5,
          0.0
        ],
        [
          6,
          0.0
        ],
        [
          7,
          0.0
        ]
      ],
      "bias": 0.0,
      "self_activation": 0.0,
      "retina_weights": [
        0.0,
        0.0,
        0.0,
        0.0,
        0.0,
        0.0,
        0.0,
        0.0,
        0.0,
        0.0,
        0.0,
        0.0,
        0.0,
        0.0,
        0.0,
        0.0,
        0.0,
        0.0,
        0.0,
        0.0,
        0.0,
        0.0,
        0.0,
        0.0,
        0.0,
        0.0,
        0.0,
        0.0,
        0.0,
        0.0,
        0.0,
        0.0,
        0.0,
        0.0,
        0.0,
        0.0,
        0.0,
        0.0,
        0.0,
        0.0,
        0.0,
        0.0,
        0.0,
        0.0,
        0.0,
        0.0,
        0.0,
        0.0,
        0.0,
        0.0,
        0.0,
        0.0,
        0.0,
        0.0,
        0.0,
        0.0,
        0.0,
        0.0,
        0.0,
        0.0,
        0.0,
        0.0,
        0.0,
        0.0,
        0.0,
        0.0,
        0.0,
        0.0,
        0.0,
        0.0,
        0.0,
        0.0,
        0.0,
        0.0,
        0.0,
        0.0,
        0.0,
        0.0,
        0.0,
        0.0,
        0.0,
        0.0,
        0.0,
        0.0,
        0.0,
        0.0,
        0.0,
        0.0,
        0.0,
        0.0,
        0.0,
        0.0,
        0.0,
        0.0,
        0.0,
        0.0,
        0.0,
        0.0,
        0.0,
        0.0,
        0.0,
        0.0,
        0.0,
        0.0,
        0.0,
        0.0,
        0.0,
        0.0,
        0.0,
        0.0,
        0.0,
        0.0,
        0.0,
        0.0,
        0.0,
        0.0,
        0.0,
        0.0,
        0.0,
        0.0,
        0.0,
        0.0,
        0.0,
        0.0,
        0.0,
        0.0,
        0.0,
        0.0,
        0.0,
        0.0,
        0.0,
        0.0,
        0.0,
        0.0,
        0.0,
        0.0,
        0.0,
        0.0,
        0.0,
        0.0,
        0.0,
        0.0,
        0.0,
        0.0,
        0.0,
        0.0,
        0.0,
        0.0,
        0.0,
        0.0,
        0.0,
        0.0,
        0.0,
        0.0,
        0.0,
        0.0,
        0.0,
        0.0,
        0.0,
        0.0,
        0.0,
        0.0,
        0.0,
        0.0,
        0.0,
        0.0,
        0.0,
        0.0,
        0.0,
        0.0,
        0.0,
        0.0,
        0.0,
        0.0,
        0.0,
        0.0,
        0.0,
        0.0,
        0.0,
        0.0,
        0.0,
        0.0,
        0.0,
        0.0,
        0.0,
        0.0,
        0.0,
        0.0,
        0.0,
        0.0,
        0.0,
        0.0,
        0.0,
        0.0,
        0.0,
        0.0,
        0.0,
        0.0,
        0.0,
        0.0,
        0.0,
        0.0,
        0.0,
        0.0,
        0.0,
        0.0,
        0.0,
        0.0,
        0.0,
        0.0,
        0.0,
        0.0,
        0.0,
        0.0,
        0.0,
        0.0,
        0.0,
        0.0,
        0.0,
        0.0,
        0.0,
        0.0,
        0.0,
        0.0,
        0.0
      ]
    },
    {
      "index": 1,
      "output": 0.0,
      "input_connections": [
        [
          0,
          0.0
        ],
        [
          2,
          0.0
        ],
        [
          3,
          0.0
        ],
        [
          4,
          0.0
        ],
        [
          5,
          0.0
        ],
        [
          6,
          0.0
        ],
        [
          7,
          0.0
        ]
      ],
      "bias": 0.0,
      "self_activation": 0.0,
      "retina_weights": [
        0.0,
        0.0,
        0.0,
        0.0,
        0.0,
        0.0,
        0.0,
        0.0,
        0.0,
        0.0,
        0.0,
        0.0,
        0.0,
        0.0,
        0.0,
        0.0,
        0.0,
        0.0,
        0.0,
        0.0,
        0.0,
        0.0,
        0.0,
        0.0,
        0.0,
        0.0,
        0.0,
        0.0,
        0.0,
        0.0,
        0.0,
        0.0,
        0.0,
        0.0,
        0.0,
        0.0,
        0.0,
        0.0,
        0.0,
        0.0,
        0.0,
        0.0,
        0.0,
        0.0,
        0.0,
        0.0,
        0.0,
        0.0,
        0.0,
        0.0,
        0.0,
        0.0,
        0.0,
        0.0,
        0.0,
        0.0,
        0.0,
        0.0,
        0.0,
        0.0,
        0.0,
        0.0,
        0.0,
        0.0,
        0.0,
        0.0,
        0.0,
        0.0,
        0.0,
        0.0,
        0.0,
        0.0,
        0.0,
        0.0,
        0.0,
        0.0,
        0.0,
        0.0,
        0.0,
        0.0,
        0.0,
        0.0,
        0.0,
        0.0,
        0.0,
        0.0,
        0.0,
        0.0,
        0.0,
        0.0,
        0.0,
        0.0,
        0.0,
        0.0,
        0.0,
        0.0,
        0.0,
        0.0,
        0.0,
        0.0,
        0.0,
        0.0,
        0.0,
        0.0,
        0.0,
        0.0,
        0.0,
        0.0,
        0.0,
        0.0,
        0.0,
        0.0,
        0.0,
        0.0,
        0.0,
        0.0,
        0.0,
        0.0,
        0.0,
        0.0,
        0.0,
        0.0,
        0.0,
        0.0,
        0.0,
        0.0,
        0.0,
        0.0,
        0.0,
        0.0,
        0.0,
        0.0,
        0.0,
        0.0,
        0.0,
        0.0,
        0.0,
        0.0,
        0.0,
        0.0,
        0.0,
        0.0,
        0.0,
        0.0,
        0.0,
        0.0,
        0.0,
        0.0,
        0.0,
        0.0,
        0.0,
        0.0,
        0.0,
        0.0,
        0.0,
        0.0,
        0.0,
        0.0,
        0.0,
        0.0,
        0.0,
        0.0,
        0.0,
        0.0,
        0.0,
        0.0,
        0.0,
        0.0,
        0.0,
        0.0,
        0.0,
        0.0,
        0.0,
        0.0,
        0.0,
        0.0,
        0.0,
        0.0,
        0.0,
        0.0,
        0.0,
        0.0,
        0.0,
        0.0,
        0.0,
        0.0,
        0.0,
        0.0,
        0.0,
        0.0,
        0.0,
        0.0,
        0.0,
        0.0,
        0.0,
        0.0,
        0.0,
        0.0,
        0.0,
        0.0,
        0.0,
        0.0,
        0.0,
        0.0,
        0.0,
        0.0,
        0.0,
        0.0,
        0.0,
        0.0,
        0.0,
        0.0,
        0.0,
        0.0,
        0.0,
        0.0,
        0.0,
        0.0,
        0.0,
        0.0,
        0.0,
        0.0,
        0.0,
        0.0,
        0.0
      ]
    },
    {
      "index": 2,
      "output": 0.30725822,
      "input_connections": [
        [
          0,
          -0.29600185
        ],
        [
          1,
          0.0
        ],
        [
          3,
          -0.086146586
        ],
        [
          4,
          0.46687663
        ],
        [
          5,
          0.0
        ],
        [
          6,
          0.0
        ],
        [
          7,
          0.0
        ]
      ],
      "bias": 0.0,
      "self_activation": 0.0,
      "retina_weights": [
        0.0,
        0.0,
        0.0,
        0.0,
        0.0,
        0.0,
        0.0,
        0.0,
        0.0,
        0.0,
        0.0,
        0.0,
        0.0,
        0.0,
        0.0,
        0.0,
        0.0,
        0.0,
        0.0,
        0.0,
        0.0,
        0.0,
        0.0,
        0.0,
        0.0,
        0.0,
        0.0,
        0.0,
        0.0,
        0.0,
        0.0,
        0.0,
        0.0,
        0.0,
        0.0,
        0.0,
        0.0,
        0.0,
        0.0,
        0.0,
        0.0,
        0.0,
        0.0,
        0.0,
        0.0,
        0.0,
        0.0,
        0.0,
        0.0,
        0.0,
        0.0,
        0.0,
        0.0,
        0.0,
        0.0,
        0.0,
        0.0,
        0.0,
        0.0,
        0.0,
        0.0,
        0.0,
        0.0,
        0.0,
        0.0,
        0.0,
        0.0,
        0.0,
        0.0,
        0.0,
        0.0,
        0.0,
        0.0,
        0.0,
        0.0,
        0.0,
        0.0,
        0.0,
        0.0,
        0.0,
        0.0,
        0.0,
        0.0,
        0.0,
        0.0,
        0.0,
        0.0,
        0.0,
        0.0,
        0.0,
        0.0,
        0.0,
        0.0,
        0.0,
        0.0,
        0.0,
        0.0,
        0.0,
        0.0,
        0.0,
        0.0,
        0.0,
        0.0,
        0.0,
        0.0,
        0.0,
        0.0,
        0.0,
        0.0,
        0.0,
        0.0,
        0.0,
        0.0,
        0.0,
        0.0,
        0.0,
        0.0,
        0.0,
        0.0,
        0.0,
        0.0,
        0.0,
        0.0,
        0.0,
        0.0,
        0.0,
        0.0,
        0.0,
        0.0,
        0.0,
        0.0,
        0.0,
        0.0,
        0.0,
        0.0,
        0.0,
        0.0,
        0.0,
        0.0,
        0.0,
        0.0,
        0.0,
        0.0,
        0.0,
        0.0,
        0.0,
        0.0,
        0.0,
        0.0,
        0.0,
        0.0,
        0.0,
        0.0,
        0.0,
        0.0,
        0.0,
        0.0,
        0.0,
        0.0,
        0.0,
        0.0,
        0.0,
        0.0,
        0.0,
        0.0,
        0.0,
        0.0,
        0.0,
        0.0,
        0.0,
        -0.1902144,
        0.0,
        0.0,
        0.0,
        0.0,
        0.0,
        0.0,
        0.0,
        0.0,
        0.0,
        0.0,
        0.0,
        0.0,
        0.0,
        0.0,
        0.0,
        0.0,
        0.0,
        0.0,
        0.0,
        0.0,
        0.0,
        0.0,
        0.0,
        0.0,
        0.0,
        0.0,
        0.0,
        0.0,
        0.0,
        0.0,
        0.0,
        0.0,
        0.0,
        0.0,
        0.0,
        0.0,
        0.0,
        0.0,
        0.0,
        0.0,
        0.0,
        0.0,
        0.0,
        0.0,
        0.0,
        0.0,
        0.0,
        0.0,
        0.0,
        0.0,
        0.0,
        0.0,
        0.0,
        0.0
      ]
    },
    {
      "index": 3,
      "output": 0.6742918,
      "input_connections": [
        [
          0,
          -0.013322924
        ],
        [
          1,
          0.0
        ],
        [
          2,
          0.0
        ],
        [
          4,
          0.0
        ],
        [
          5,
          -0.04712832
        ],
        [
          6,
          -0.035235446
        ],
        [
          7,
          0.0
        ]
      ],
      "bias": -0.021641493,
      "self_activation": -0.2584487,
      "retina_weights": [
        0.7162466,
        -0.6733942,
        -0.012446284,
        -0.5540225,
        0.13037431,
        -0.21042407,
        0.58468056,
        -0.86527634,
        -0.15556729,
        0.48397553,
        -0.7505684,
        0.8634081,
        -0.595792,
        0.8253195,
        0.8602629,
        0.20130336,
        0.022642255,
        -0.3713345,
        0.9377341,
        -0.02578795,
        -0.2768423,
        -0.047115207,
        -0.19754303,
        -0.7151084,
        0.9116063,
        0.30776632,
        0.528368,
        0.17257702,
        -0.68611383,
        0.75204563,
        0.108727336,
        0.81112003,
        0.36488855,
        -0.4313113,
        -0.4677598,
        -0.39711827,
        -0.5068154,
        0.57094646,
        -0.78916,
        -0.9515898,
        -0.8392618,
        0.97207403,
        -0.7175062,
        0.7276614,
        -0.054546714,
        -0.89648247,
        0.5706291,
        -0.5988936,
        0.7009783,
        0.059460998,
        -0.9158361,
        -0.25891656,
        0.6156013,
        -0.90800786,
        0.71096015,
        -0.37379974,
        -0.644238,
        0.54837966,
        -0.37003702,
        -0.31496495,
        0.08518827,
        0.97931004,
        0.018054843,
        -0.6887841,
        0.45243943,
        -0.74995685,
        0.86005354,
        0.833096,
        0.16087663,
        -0.5516526,
        -0.17869508,
        0.6202216,
        0.24844158,
        -0.22293341,
        -0.9667473,
        0.8329785,
        0.3466698,
        -0.41189474,
        0.8702369,
        -0.70536184,
        0.38588655,
        0.7854073,
        0.7024765,
        0.2877518,
        -0.042727403,
        -0.05309546,
        0.43497598,
        0.19285095,
        -0.60243124,
        -0.9394839,
        0.109026074,
        0.41538942,
        0.21336567,
        -0.90927005,
        -0.17089283,
        0.10869062,
        0.053038478,
        0.6458888,
        -0.21266949,
        0.51824903,
        -0.020352721,
        0.85569525,
        -0.8175905,
        -0.6038441,
        -0.26236218,
        -0.50216,
        0.84958434,
        0.2632357,
        -0.31018752,
        0.90292025,
        -0.9130013,
        -0.8698342,
        -0.097825885,
        -0.40455884,
        0.78442264,
        -0.47838873,
        -0.9788785,
        0.0070160627,
        -0.036122918,
        0.46887124,
        -0.19186342,
        0.13694274,
        0.91173124,
        -0.16002929,
        0.75240827,
        0.288885,
        -0.7798207,
        0.8023019,
        -0.28502482,
        -0.46882147,
        0.23655021,
        0.6306312,
        -0.49816126,
        -0.9289503,
        -0.6820667,
        0.7884352,
        0.9055011,
        0.7355411,
        -0.7556865,
        -0.13520205,
        -0.76460314,
        -0.35586256,
        0.66648483,
        0.8145602,
        0.38748038,
        0.15062344,
        -0.17912447,
        -0.3777408,
        0.13369238,
        0.33423078,
        -0.045847297,
        0.51917124,
        0.11185634,
        -0.101026654,
        -0.84114337,
        0.40866125,
        0.10637152,
        -0.95414186,
        -0.33153313,
        0.076800704,
        -0.095862985,
        -0.95901155,
        -0.39616936,
        0.7272649,
        -0.058007598,
        0.7568488,
        -0.0111807585,
        -0.038110614,
        0.67593,
        0.8729763,
        0.98392296,
        0.5437944,
        -0.44981855,
        -0.19489253,
        0.2550658,
        0.71867514,
        0.25619447,
        -0.7220795,
        -0.6819868,
        -0.6902623,
        -0.57060975,
        0.45180643,
        -0.8939159,
        -0.64354086,
        0.5053401,
        0.67400575,
        -0.48065013,
        0.27622163,
        0.35350955,
        0.1632148,
        -0.96428156,
        0.11926973,
        0.11890519,
        0.10591447,
        0.79999876,
        0.3326155,
        -0.5798096,
        0.11606705,
        -0.73176956,
        -0.3695385,
        -0.25955695,
        -0.032241225,
        -0.9889717,
        0.25421464,
        0.29572022,
        0.973768,
        -0.04521048,
        -0.6998482,
        -0.1840769,
        -0.7770431,
        -0.8550303,
        0.21152794,
        0.76630497,
        0.8214047,
        -0.43550032,
        -0.81000304,
        0.7063737,
        0.16303909,
        -0.60982794,
        -0.9431977,
        0.10418403,
        0.52804685,
        0.39094722,
        0.22898829,
        0.95615387
      ]
    },
    {
      "index": 4,
      "output": 0.8045014,
      "input_connections": [
        [
          0,
          0.0
        ],
        [
          1,
          0.0
        ],
        [
          2,
          0.26826784
        ],
        [
          3,
          0.0
        ],
        [
          5,
          0.0
        ],
        [
          6,
          0.0
        ],
        [
          7,
          0.0
        ]
      ],
      "bias": 0.0,
      "self_activation": 0.0,
      "retina_weights": [
        0.7162466,
        -0.6733942,
        -0.012446284,
        -0.5540225,
        0.13037431,
        -0.21042407,
        0.58468056,
        -0.86527634,
        -0.15556729,
        0.48397553,
        -0.7505684,
        0.8634081,
        -0.595792,
        0.8253195,
        0.8602629,
        0.20130336,
        0.022642255,
        -0.3713345,
        0.9377341,
        -0.02578795,
        -0.2768423,
        -0.047115207,
        -0.19754303,
        -0.7151084,
        0.9116063,
        0.30776632,
        0.528368,
        0.17257702,
        -0.68611383,
        0.75204563,
        0.108727336,
        0.81112003,
        0.36488855,
        -0.4313113,
        -0.4677598,
        -0.39711827,
        -0.5068154,
        0.57094646,
        -0.78916,
        -0.9515898,
        -0.8392618,
        0.97207403,
        -0.7175062,
        0.7276614,
        -0.054546714,
        -0.89648247,
        0.5706291,
        -0.5988936,
        0.7009783,
        0.059460998,
        -0.9158361,
        -0.25891656,
        0.6156013,
        -0.90800786,
        0.71096015,
        -0.37379974,
        -0.644238,
        0.54837966,
        -0.37003702,
        -0.31496495,
        0.08518827,
        0.97931004,
        0.018054843,
        -0.6887841,
        0.45243943,
        -0.74995685,
        0.86005354,
        0.833096,
        0.16087663,
        -0.5516526,
        -0.17869508,
        0.6202216,
        0.24844158,
        -0.22293341,
        -0.9667473,
        0.8329785,
        0.3466698,
        -0.41189474,
        0.8702369,
        -0.70536184,
        0.38588655,
        0.7854073,
        0.7024765,
        0.2877518,
        0.9421418,
        -0.05309546,
        0.43497598,
        0.19285095,
        -0.60243124,
        -0.9394839,
        0.109026074,
        0.41538942,
        0.21336567,
        -0.90927005,
        -0.17089283,
        0.10869062,
        0.053038478,
        0.6458888,
        -0.21266949,
        0.51824903,
        -0.020352721,
        0.85569525,
        -0.8175905,
        -0.6038441,
        -0.26236218,
        -0.50216,
        0.84958434,
        0.2632357,
        -0.31018752,
        0.90292025,
        -0.9130013,
        -0.8698342,
        -0.097825885,
        -0.40455884,
        0.78442264,
        -0.47838873,
        -0.9788785,
        0.0070160627,
        -0.036122918,
        0.46887124,
        -0.19186342,
        0.13694274,
        0.91173124,
        -0.16002929,
        0.75240827,
        0.288885,
        -0.7798207,
        0.8023019,
        -0.28502482,
        -0.46882147,
        0.23655021,
        0.6306312,
        -0.49816126,
        -0.9289503,
        -0.6820667,
        0.7884352,
        0.9055011,
        0.7355411,
        -0.7556865,
        -0.13520205,
        -0.76460314,
        -0.35586256,
        0.66648483,
        0.8145602,
        0.38748038,
        0.15062344,
        -0.17912447,
        -0.3777408,
        0.13369238,
        0.33423078,
        -0.045847297,
        0.51917124,
        0.11185634,
        -0.101026654,
        -0.84114337,
        0.40866125,
        0.10637152,
        -0.95414186,
        -0.33153313,
        0.076800704,
        -0.095862985,
        -0.95901155,
        -0.39616936,
        0.7272649,
        -0.058007598,
        0.7568488,
        -0.0111807585,
        -0.038110614,
        0.67593,
        0.8729763,
        0.98392296,
        0.5437944,
        -0.44981855,
        -0.19489253,
        0.2550658,
        0.71867514,
        0.25619447,
        -0.7220795,
        -0.6819868,
        -0.6902623,
        -0.57060975,
        0.45180643,
        -0.8939159,
        -0.64354086,
        0.5053401,
        0.67400575,
        -0.48065013,
        0.27622163,
        0.35350955,
        0.1632148,
        -0.96428156,
        0.11926973,
        0.11890519,
        0.10591447,
        0.79999876,
        0.3326155,
        -0.5798096,
        0.11606705,
        -0.73176956,
        -0.3695385,
        -0.25955695,
        -0.032241225,
        -0.9889717,
        0.25421464,
        0.29572022,
        0.973768,
        -0.04521048,
        -0.6998482,
        -0.1840769,
        -0.7770431,
        -0.8550303,
        0.21152794,
        0.76630497,
        0.8214047,
        -0.43550032,
        -0.81000304,
        0.7063737,
        0.16303909,
        -0.60982794,
        -0.9431977,
        0.10418403,
        0.52804685,
        0.39094722,
        0.22898829,
        0.95615387
      ]
    },
    {
      "index": 5,
      "output": 0.09827586,
      "input_connections": [
        [
          0,
          -0.685415
        ],
        [
          1,
          0.0
        ],
        [
          2,
          0.0
        ],
        [
          3,
          0.0
        ],
        [
          4,
          0.0
        ],
        [
          6,
          0.0
        ],
        [
          7,
          0.0
        ]
      ],
      "bias": 0.0,
      "self_activation": -0.016779965,
      "retina_weights": [
        0.0,
        0.0,
        0.0,
        0.0,
        0.0,
        0.0,
        0.0,
        0.0,
        0.0,
        0.0,
        0.0,
        0.0,
        0.0,
        0.0,
        0.0,
        0.0,
        0.0,
        0.0,
        0.0,
        0.0,
        0.0,
        0.0,
        0.0,
        0.0,
        0.0,
        0.0,
        0.0,
        0.0,
        0.0,
        0.0,
        0.0,
        0.0,
        0.0,
        0.0,
        0.0,
        0.0,
        0.0,
        0.0,
        0.0,
        0.0,
        0.0,
        0.0,
        0.0,
        0.0,
        0.0,
        0.0,
        0.0,
        0.0,
        0.0,
        0.0,
        0.0,
        0.0,
        0.0,
        0.0,
        0.0,
        0.0,
        0.0,
        0.0,
        0.0,
        0.0,
        0.0,
        0.0,
        0.0,
        0.0,
        0.0,
        0.0,
        0.0,
        0.0,
        0.0,
        0.0,
        0.0,
        0.0,
        0.0,
        0.0,
        0.0,
        0.0,
        0.0,
        0.0,
        0.0,
        0.0,
        0.0,
        0.0,
        0.0,
        0.0,
        0.0,
        0.0,
        0.0,
        0.0,
        0.0,
        0.0,
        0.0,
        0.0,
        0.0,
        0.0,
        0.0,
        0.0,
        0.0,
        0.0,
        0.0,
        0.0,
        0.0,
        0.0,
        0.0,
        0.0,
        0.0,
        0.0,
        0.0,
        0.0,
        0.0,
        0.0,
        0.0,
        0.0,
        0.0,
        0.0,
        0.0,
        0.0,
        0.0,
        0.0,
        0.0,
        0.100243166,
        0.0,
        0.0,
        0.0,
        0.0,
        0.0,
        0.0,
        0.0,
        0.0,
        0.0,
        0.0,
        0.0,
        0.0,
        0.0,
        0.0,
        0.0,
        0.0,
        0.0,
        0.0,
        0.0,
        0.0,
        0.0,
        0.0,
        0.0,
        0.0,
        0.0,
        0.0,
        0.0,
        0.0,
        0.0,
        0.0,
        0.0,
        0.0,
        0.0,
        0.0,
        0.0,
        0.0,
        0.0,
        0.0,
        0.0,
        0.0,
        0.0,
        0.0,
        0.0,
        0.0,
        0.0,
        0.0,
        0.0,
        0.0,
        0.0,
        0.0,
        0.0,
        0.0,
        0.0,
        0.0,
        0.0,
        0.0,
        0.0,
        0.0,
        0.0,
        0.0,
        0.0,
        0.0,
        0.0,
        0.0,
        0.0,
        0.0,
        0.0,
        0.0,
        0.0,
        0.0,
        0.0,
        0.0,
        0.0,
        0.0,
        0.0,
        0.0,
        0.0,
        0.0,
        0.0,
        0.0,
        0.0,
        0.0,
        0.0,
        0.0,
        0.0,
        0.0,
        0.0,
        0.0,
        0.0,
        0.0,
        0.0,
        0.0,
        0.0,
        0.0,
        0.0,
        0.0,
        0.0,
        0.0,
        0.0,
        0.0,
        0.0,
        0.0,
        0.0,
        0.0,
        0.0
      ]
    },
    {
      "index": 6,
      "output": 0.2753147,
      "input_connections": [
        [
          0,
          -0.027311206
        ],
        [
          1,
          -0.4359815
        ],
        [
          2,
          0.0
        ],
        [
          3,
          0.15847051
        ],
        [
          4,
          0.0
        ],
        [
          5,
          -0.8872187
        ],
        [
          7,
          0.0
        ]
      ],
      "bias": -0.24850175,
      "self_activation": 0.0,
      "retina_weights": [
        0.7162466,
        -0.6733942,
        -0.012446284,
        -0.5540225,
        0.13037431,
        -0.21042407,
        0.58468056,
        -0.86527634,
        -0.15556729,
        0.13404067,
        -0.7505684,
        0.8634081,
        -0.595792,
        0.8253195,
        0.8602629,
        0.20130336,
        0.022642255,
        -0.3713345,
        0.9377341,
        -0.02578795,
        -0.2768423,
        -0.047115207,
        -0.19754303,
        -0.7151084,
        0.9116063,
        0.30776632,
        0.528368,
        0.17257702,
        -0.68611383,
        0.75204563,
        0.108727336,
        0.81112003,
        0.36488855,
        -0.4313113,
        -0.4677598,
        -0.39711827,
        -0.5068154,
        0.57094646,
        -0.78916,
        -0.9515898,
        -0.8392618,
        0.97207403,
        -0.7175062,
        0.7276614,
        -0.054546714,
        -0.89648247,
        0.5706291,
        -0.5988936,
        0.7009783,
        0.059460998,
        -0.9158361,
        -0.25891656,
        0.6156013,
        -0.90800786,
        0.71096015,
        -0.37379974,
        -0.644238,
        0.54837966,
        -0.37003702,
        -0.31496495,
        0.08518827,
        0.97931004,
        0.018054843,
        -0.6887841,
        0.45243943,
        -0.74995685,
        0.86005354,
        0.833096,
        0.16087663,
        -0.5516526,
        -0.17869508,
        0.6202216,
        0.24844158,
        -0.22293341,
        -0.9667473,
        0.8329785,
        0.3466698,
        -0.41189474,
        0.8702369,
        -0.70536184,
        0.38588655,
        0.7854073,
        0.7024765,
        0.2877518,
        -0.12283959,
        -0.05309546,
        0.43497598,
        0.19285095,
        -0.60243124,
        -0.9394839,
        0.109026074,
        0.41538942,
        0.21336567,
        -0.90927005,
        -0.17089283,
        0.10869062,
        0.053038478,
        0.6458888,
        -0.21266949,
        0.51824903,
        -0.020352721,
        0.85569525,
        -0.8175905,
        -0.6038441,
        -0.26236218,
        -0.50216,
        0.84958434,
        0.2632357,
        -0.31018752,
        0.90292025,
        -0.9130013,
        -0.8698342,
        -0.097825885,
        -0.40455884,
        0.78442264,
        -0.47838873,
        -0.9788785,
        0.0070160627,
        -0.036122918,
        0.46887124,
        -0.19186342,
        0.13694274,
        0.91173124,
        -0.16002929,
        0.75240827,
        0.288885,
        -0.7798207,
        0.8023019,
        -0.28502482,
        -0.46882147,
        0.06911402,
        0.6306312,
        -0.49816126,
        -0.9289503,
        -0.6820667,
        0.7884352,
        0.9055011,
        0.7355411,
        -0.7556865,
        -0.13520205,
        -0.76460314,
        -0.35586256,
        0.66648483,
        0.8145602,
        0.38748038,
        0.15062344,
        -0.17912447,
        -0.3777408,
        0.13369238,
        0.33423078,
        -0.045847297,
        0.51917124,
        0.11185634,
        -0.101026654,
        -0.84114337,
        0.40866125,
        0.10637152,
        -0.95414186,
        -0.33153313,
        0.076800704,
        -0.095862985,
        -0.95901155,
        -0.39616936,
        0.7272649,
        -0.058007598,
        0.7568488,
        -0.0111807585,
        -0.038110614,
        0.67593,
        0.8729763,
        0.98392296,
        0.5437944,
        -0.44981855,
        -0.19489253,
        0.2550658,
        0.71867514,
        0.25619447,
        -0.7220795,
        -0.6819868,
        -0.6902623,
        -0.57060975,
        0.45180643,
        -0.8939159,
        -0.64354086,
        0.5053401,
        0.67400575,
        -0.48065013,
        0.27622163,
        0.35350955,
        0.1632148,
        -0.96428156,
        0.11926973,
        0.11890519,
        0.10591447,
        0.79999876,
        0.3326155,
        -0.5798096,
        0.11606705,
        -0.73176956,
        -0.3695385,
        -0.25955695,
        -0.032241225,
        -0.9889717,
        0.25421464,
        0.29572022,
        0.973768,
        -0.04521048,
        -0.6998482,
        -0.1840769,
        -0.7770431,
        -0.8550303,
        0.21152794,
        0.76630497,
        0.8214047,
        -0.43550032,
        -0.81000304,
        0.7063737,
        0.16303909,
        -0.60982794,
        -0.9431977,
        0.10418403,
        0.52804685,
        0.39094722,
        0.22898829,
        0.95615387
      ]
    },
    {
      "index": 7,
      "output": 0.6856194,
      "input_connections": [
        [
          0,
          -0.22974908
        ],
        [
          1,
          0.0
        ],
        [
          2,
          0.0
        ],
        [
          3,
          0.0
        ],
        [
          4,
          0.7706888
        ],
        [
          5,
          0.0
        ],
        [
          6,
          0.0
        ]
      ],
      "bias": 0.20084447,
      "self_activation": 0.027387489,
      "retina_weights": [
        0.0,
        0.0,
        0.0,
        0.0,
        0.0,
        0.0,
        0.0,
        0.0,
        0.0,
        0.0,
        0.0,
        0.0,
        0.0,
        0.0,
        0.0,
        0.0,
        0.0,
        0.0,
        0.0,
        0.0,
        0.0,
        0.0,
        0.0,
        0.0,
        0.0,
        0.0,
        0.0,
        0.0,
        0.0,
        0.0,
        0.0,
        0.0,
        0.0,
        0.0,
        0.0,
        0.0,
        0.0,
        0.0,
        0.0,
        0.0,
        0.0,
        0.0,
        0.0,
        0.0,
        0.0,
        0.0,
        0.0,
        0.0,
        0.0,
        0.0,
        0.0,
        0.0,
        0.0,
        0.0,
        0.0,
        0.0,
        0.0,
        0.0,
        0.0,
        0.0,
        0.0,
        0.0,
        0.0,
        0.0,
        0.0,
        0.0,
        0.0,
        0.0,
        0.0,
        0.0,
        0.0,
        0.0,
        0.0,
        0.0,
        0.0,
        0.0,
        0.0,
        0.0,
        0.0,
        0.0,
        0.0,
        0.0,
        0.0,
        0.0,
        0.0,
        0.0,
        0.0,
        0.0,
        0.0,
        0.0,
        0.0,
        0.0,
        0.0,
        0.0,
        0.0,
        0.0,
        0.0,
        0.0,
        0.0,
        0.0,
        0.0,
        0.0,
        0.0,
        0.0,
        0.0,
        0.0,
        0.0,
        0.0,
        0.0,
        0.0,
        0.0,
        0.0,
        0.0,
        0.0,
        0.0,
        0.0,
        0.0,
        0.0,
        0.0,
        0.0,
        0.0,
        0.0,
        0.0,
        0.0,
        0.0,
        0.0,
        0.0,
        0.0,
        0.0,
        0.0,
        0.0,
        0.0,
        0.0,
        0.0,
        0.0,
        0.0,
        0.0,
        0.0,
        0.0,
        0.0,
        0.0,
        0.0,
        0.0,
        0.0,
        0.0,
        0.0,
        0.0,
        0.0,
        0.0,
        0.0,
        0.0,
        0.0,
        0.0,
        0.0,
        0.0,
        0.0,
        0.0,
        0.0,
        0.0,
        0.0,
        0.0,
        0.0,
        0.0,
        0.0,
        0.0,
        0.0,
        0.0,
        0.0,
        0.0,
        0.0,
        0.0,
        0.0,
        0.0,
        0.0,
        0.0,
        0.0,
        0.0,
        0.0,
        0.0,
        0.0,
        0.0,
        0.0,
        0.0,
        0.0,
        0.0,
        0.0,
        0.0,
        0.0,
        0.0,
        0.0,
        0.0,
        0.0,
        0.0,
        0.0,
        0.0,
        0.0,
        0.0,
        0.0,
        0.0,
        0.0,
        0.0,
        0.0,
        0.0,
        0.0,
        0.0,
        0.0,
        0.0,
        0.0,
        0.0,
        0.0,
        0.0,
        0.0,
        0.0,
        0.0,
        0.0,
        0.0,
        0.0,
        0.0,
        0.0,
        0.0,
        0.0,
        0.0,
        0.0,
        0.0,
        0.0
      ]
    }
  ],
  "short_term_memory": {
    "snapshots": [
      {
        "outputs": [
          0.0,
          0.0,
          0.36334628,
          0.6168276,
          0.7928401,
          0.10212931,
          0.49298444,
          0.7495263
        ],
        "time_step": 1
      },
      {
        "outputs": [
          0.0,
          0.0,
          0.30681077,
          0.6780913,
          0.8097456,
          0.098211825,
          0.26369944,
          0.68176526
        ],
        "time_step": 2
      },
      {
        "outputs": [
          0.0,
          0.0,
          0.30917782,
          0.6739811,
          0.80445904,
          0.09827693,
          0.27592358,
          0.6876996
        ],
        "time_step": 3
      },
      {
        "outputs": [
          0.0,
          0.0,
          0.30726454,
          0.6743239,
          0.80468297,
          0.09827585,
          0.27526832,
          0.6856323
        ],
        "time_step": 4
      },
      {
        "outputs": [
          0.0,
          0.0,
          0.3073325,
          0.6742883,
          0.80450195,
          0.09827586,
          0.27531943,
          0.68569374
        ],
        "time_step": 5
      },
      {
        "outputs": [
          0.0,
          0.0,
          0.30725875,
          0.6742923,
          0.8045084,
          0.09827586,
          0.27531418,
          0.6856208
        ],
        "time_step": 6
      },
      {
        "outputs": [
          0.0,
          0.0,
          0.3072611,
          0.6742917,
          0.8045014,
          0.09827586,
          0.27531484,
          0.6856223
        ],
        "time_step": 7
      },
      {
        "outputs": [
          0.0,
          0.0,
          0.30725825,
          0.6742918,
          0.80450165,
          0.09827586,
          0.2753147,
          0.6856195
        ],
        "time_step": 8
      },
      {
        "outputs": [
          0.0,
          0.0,
          0.3072583,
          0.6742918,
          0.8045014,
          0.09827586,
          0.2753147,
          0.6856196
        ],
        "time_step": 9
      },
      {
        "outputs": [
          0.0,
          0.0,
          0.30725822,
          0.6742918,
          0.8045014,
          0.09827586,
          0.2753147,
          0.6856194
        ],
        "time_step": 10
      },
      {
        "outputs": [
          0.0,
          0.0,
          0.30725822,
          0.6742918,
          0.8045014,
          0.09827586,
          0.2753147,
          0.6856194
        ],
        "time_step": 11
      },
      {
        "outputs": [
          0.0,
          0.0,
          0.30725822,
          0.6742918,
          0.8045014,
          0.09827586,
          0.2753147,
          0.6856194
        ],
        "time_step": 12
      },
      {
        "outputs": [
          0.0,
          0.0,
          0.30725822,
          0.6742918,
          0.8045014,
          0.09827586,
          0.2753147,
          0.6856194
        ],
        "time_step": 13
      },
      {
        "outputs": [
          0.0,
          0.0,
          0.30725822,
          0.6742918,
          0.8045014,
          0.09827586,
          0.2753147,
          0.6856194
        ],
        "time_step": 14
      },
      {
        "outputs": [
          0.0,
          0.0,
          0.30725822,
          0.6742918,
          0.8045014,
          0.09827586,
          0.2753147,
          0.6856194
        ],
        "time_step": 15
      },
      {
        "outputs": [
          0.0,
          0.0,
          0.30725822,
          0.6742918,
          0.8045014,
          0.09827586,
          0.2753147,
          0.6856194
        ],
        "time_step": 16
      },
      {
        "outputs": [
          0.0,
          0.0,
          0.30725822,
          0.6742918,
          0.8045014,
          0.09827586,
          0.2753147,
          0.6856194
        ],
        "time_step": 17
      },
      {
        "outputs": [
          0.0,
          0.0,
          0.30725822,
          0.6742918,
          0.8045014,
          0.09827586,
          0.2753147,
          0.6856194
        ],
        "time_step": 18
      },
      {
        "outputs": [
          0.0,
          0.0,
          0.30725822,
          0.6742918,
          0.8045014,
          0.09827586,
          0.2753147,
          0.6856194
        ],
        "time_step": 19
      },
      {
        "outputs": [
          0.0,
          0.0,
          0.30725822,
          0.6742918,
          0.8045014,
          0.09827586,
          0.2753147,
          0.6856194
        ],
        "time_step": 20
      }
    ]
  },
  "graph": {
    "nodes": [
      [
        0,
        0.0
      ],
      [
        1,
        0.0
      ],
      [
        2,
        0.0
      ],
      [
        3,
        -0.02
      ],
      [
        4,
        0.0
      ],
      [
        5,
        0.0
      ],
      [
        6,
        -0.25
      ],
      [
        7,
        0.2
      ]
    ],
    "node_holes": [],
    "edge_property": "directed",
    "edges": [
      [
        3,
        3,
        -0.26
      ],
      [
        5,
        5,
        -0.02
      ],
      [
        7,
        7,
        0.03
      ],
      [
        0,
        2,
        -0.3
      ],
      [
        3,
        2,
        -0.09
      ],
      [
        4,
        2,
        0.47
      ],
      [
        0,
        3,
        -0.01
      ],
      [
        5,
        3,
        -0.05
      ],
      [
        6,
        3,
        -0.04
      ],
      [
        2,
        4,
        0.27
      ],
      [
        0,
        5,
        -0.69
      ],
      [
        0,
        6,
        -0.03
      ],
      [
        1,
        6,
        -0.44
      ],
      [
        3,
        6,
        0.16
      ],
      [
        5,
        6,
        -0.89
      ],
      [
        0,
        7,
        -0.23
      ],
      [
        4,
        7,
        0.77
      ]
    ]
  },
  "statistics": {
    "deleted_neurons": 10,
    "deleted_weights": 13,
    "deleted_biases": 13,
    "deleted_self_activations": 9,
    "mutated_neurons": 10,
    "mutated_weights": 7,
    "mutated_biases": 7,
    "mutated_self_activations": 4,
    "fitness": 0.0,
    "variance": 0.12222355
  },
  "mutation_variance": 0.12222355,
  "mean": 0.0
}
