{
  "neurons": [
    {
      "index": 0,
      "output": 0.13246587,
      "input_connections": [
        [
          1,
          0.0
        ],
        [
          2,
          0.0
        ],
        [
          3,
          0.0
        ],
        [
          4,
          0.0
        ],
        [
          5,
          0.0
        ],
        [
          6,
          0.06082258
        ],
        [
          7,
          0.06915217
        ]
      ],
      "bias": 0.037175514,
      "self_activation": 0.2748994,
      "retina_weights": [
        0.0,
        0.0,
        0.0,
        0.0,
        0.0,
        0.0,
        0.0,
        0.0,
        0.0,
        0.0,
        0.0,
        0.0,
        0.0,
        0.0,
        0.0,
        0.0,
        0.0,
        0.0,
        0.0,
        0.0,
        0.0,
        0.0,
        0.0,
        0.0,
        0.0,
        0.0,
        0.0,
        0.0,
        0.0,
        0.0,
        0.0,
        0.0,
        0.0,
        0.0,
        0.0,
        0.0,
        0.0,
        0.0,
        0.0,
        0.0,
        0.0,
        0.0,
        0.0,
        0.0,
        0.0,
        0.0,
        0.0,
        0.0,
        0.0,
        0.0,
        0.0,
        0.0,
        0.0,
        0.0,
        0.0,
        0.0,
        0.0,
        0.0,
        0.0,
        0.0,
        0.0,
        0.0,
        0.0,
        0.0,
        0.0,
        0.0,
        0.0,
        0.0,
        0.0,
        0.0,
        0.0,
        0.0,
        0.0,
        0.0,
        0.0,
        0.0,
        0.0,
        0.0,
        0.0,
        0.0,
        0.0,
        0.0,
        0.0,
        0.0,
        0.0,
        0.0,
        0.0,
        0.0,
        0.0,
        0.0,
        0.0,
        0.0,
        0.0,
        0.0,
        0.0,
        0.0,
        0.0,
        0.0,
        0.0,
        0.0,
        0.0,
        0.0,
        0.0,
        0.0,
        0.0,
        0.0,
        0.0,
        0.0,
        0.0,
        0.0,
        0.0,
        0.0,
        0.0,
        0.0,
        0.0,
        0.0,
        0.0,
        0.0,
        0.0,
        0.0,
        0.0,
        0.0,
        0.0,
        0.0,
        0.0,
        0.0,
        0.0,
        0.0,
        0.0,
        0.0,
        0.0,
        0.0,
        0.0,
        0.0,
        0.0,
        0.0,
        0.0,
        0.0,
        0.0,
        0.0,
        0.0,
        0.0,
        0.0,
        0.0,
        0.0,
        0.0,
        0.0,
        0.0,
        0.0,
        0.0,
        0.0,
        0.0,
        0.0,
        0.0,
        0.0,
        0.0,
        0.0,
        0.0,
        0.0,
        0.0,
        0.0,
        0.0,
        0.0,
        0.0,
        0.0,
        0.0,
        0.0,
        0.0,
        0.0,
        0.0,
        0.0,
        0.0,
        0.0,
        0.0,
        0.0,
        0.0,
        0.0,
        0.0,
        0.0,
        0.0,
        0.0,
        0.0,
        0.0,
        0.0,
        0.0,
        0.0,
        0.0,
        0.0,
        0.0,
        0.0,
        0.0,
        0.0,
        0.0,
        0.0,
        0.0,
        0.0,
        0.0,
        0.0,
        0.0,
        0.0,
        0.0,
        0.0,
        0.0,
        0.0,
        0.0,
        0.0,
        0.0,
        0.0,
        0.0,
        0.0,
        0.0,
        0.0,
        0.0,
        0.0,
        0.0,
        0.0,
        0.0,
        0.0,
        0.0,
        0.0,
        0.0,
        0.0,
        0.0,
        0.0,
        0.0,
        0.0,
        0.0,
        0.0,
        0.0,
        0.0,
        0.0,
        0.0,
        0.0,
        0.0,
        0.0,
        0.0,
        0.0,
        0.0,
        0.0,
        0.0,
        0.0,
        0.0,
        0.0,
        0.0,
        0.0,
        0.0,
        0.0,
        0.0,
        0.0,
        0.0,
        0.0,
        0.0,
        0.0,
        0.0,
        0.0,
        0.0,
        0.0,
        0.0,
        0.0,
        0.0,
        0.0,
        0.0,
        0.0,
        0.0,
        0.0,
        0.0,
        0.0,
        0.0,
        0.0,
        0.0,
        0.0,
        0.0,
        0.0,
        0.0,
        0.0,
        0.0,
        0.0,
        0.0,
        0.0,
        0.0,
        0.0,
        0.0,
        0.0,
        0.0,
        0.0,
        0.0,
        0.0,
        0.0,
        0.0,
        0.0,
        0.0,
        0.0,
        0.0,
        0.0,
        0.0,
        0.0,
        0.0,
        0.0,
        0.0,
        0.0,
        0.0,
        0.0,
        0.0,
        0.0,
        0.0,
        0.0,
        0.0,
        0.0,
        0.0,
        0.0,
        0.0,
        0.0,
        0.0,
        0.0,
        0.0,
        0.0,
        0.0,
        0.0,
        0.0,
        0.0,
        0.0,
        0.0,
        0.0,
        0.0,
        0.0,
        0.0,
        0.0,
        0.0,
        0.0,
        0.0,
        0.0,
        0.0,
        0.0,
        0.0,
        0.0,
        0.0,
        0.0,
        0.0,
        0.0,
        0.0,
        0.0,
        0.0,
        0.0,
        0.0,
        0.0,
        0.0,
        0.0,
        0.0,
        0.0,
        0.0,
        0.0,
        0.0,
        0.0,
        0.0,
        0.0,
        0.0,
        0.0,
        0.0,
        0.0,
        0.0,
        0.0,
        0.0,
        0.0,
        0.0,
        0.0,
        0.0,
        0.0,
        0.0,
        0.0,
        0.0,
        0.0,
        0.0,
        0.0,
        0.0,
        0.0,
        0.0,
        0.0,
        0.0,
        0.0,
        0.0,
        0.0,
        0.0,
        0.0,
        0.0,
        0.0,
        0.0,
        0.0,
        0.0,
        0.0,
        0.0,
        0.0,
        0.0,
        0.0,
        0.0,
        0.0,
        0.0,
        0.0,
        0.0,
        0.0,
        0.0,
        0.0,
        0.0,
        0.0,
        0.0,
        0.0,
        0.0,
        0.0,
        0.0,
        0.0,
        0.0,
        0.0,
        0.0,
        0.0,
        0.0,
        0.0,
        0.0,
        0.0,
        0.0,
        0.0,
        0.0,
        0.0,
        0.0,
        0.0,
        0.0,
        0.0,
        0.0,
        0.0,
        0.0,
        0.0,
        0.0,
        0.0,
        0.0,
        0.0,
        0.0,
        0.0,
        0.0,
        0.0,
        0.0,
        0.0,
        0.0,
        0.0,
        0.0,
        0.0,
        0.0,
        0.0,
        0.0,
        0.0,
        0.0,
        0.0,
        0.0,
        0.0,
        0.0,
        0.0,
        0.0,
        0.0,
        0.0,
        0.0,
        0.0,
        0.0,
        0.0,
        0.0,
        0.0,
        0.0,
        0.0,
        0.0,
        0.0,
        0.0,
        0.0,
        0.0,
        0.0,
        0.0,
        0.0,
        0.0,
        0.0,
        0.0,
        0.0,
        0.0,
        0.0,
        0.0,
        0.0,
        0.0,
        0.0,
        0.0,
        0.0,
        0.0,
        0.0,
        0.0,
        0.0,
        0.0,
        0.0,
        0.0,
        0.0,
        0.0,
        0.0,
        0.0,
        0.0,
        0.0,
        0.0,
        0.0,
        0.0,
        0.0,
        0.0,
        0.0,
        0.0,
        0.0,
        0.0,
        0.0,
        0.0,
        0.0,
        0.0,
        0.0,
        0.0,
        0.0,
        0.0,
        0.0,
        0.0,
        0.0,
        0.0,
        0.0,
        0.0,
        0.0,
        0.0,
        0.0,
        0.0,
        0.0,
        0.0,
        0.0,
        0.0,
        0.0
      ]
    },
    {
      "index": 1,
      "output": 1.0,
      "input_connections": [
        [
          0,
          0.0
        ],
        [
          2,
          0.20470968
        ],
        [
          3,
          0.0
        ],
        [
          4,
          0.0
        ],
        [
          5,
          0.0
        ],
        [
          6,
          -0.16533045
        ],
        [
          7,
          0.0
        ]
      ],
      "bias": 0.0,
      "self_activation": 0.0,
      "retina_weights": [
        -0.1272937,
        -0.13026536,
        -0.065104604,
        -0.64802766,
        0.055321813,
        -0.725013,
        0.99355793,
        0.8613465,
        0.22708523,
        -0.015632749,
        -0.9860351,
        -0.42544788,
        -0.8393369,
        -0.0682379,
        -0.049395204,
        -0.95585823,
        -0.49405664,
        0.874825,
        -0.78356934,
        -0.48257345,
        0.33712733,
        0.89141583,
        0.061545253,
        0.6305492,
        -0.29431266,
        0.58174825,
        0.96152496,
        0.30124366,
        -0.45658797,
        0.39763677,
        0.60271835,
        0.39606082,
        -0.33175486,
        -0.8518932,
        -0.60141987,
        -0.79247046,
        -0.17005646,
        0.56006384,
        0.54875684,
        -0.37984198,
        -0.056676824,
        -0.7961738,
        0.5519564,
        0.30696476,
        0.76535964,
        -0.92097616,
        0.6173959,
        -0.46834797,
        0.54798317,
        0.8111415,
        -0.8385465,
        0.9664295,
        0.74430275,
        0.32326663,
        0.030206561,
        0.13104713,
        0.4058243,
        0.49279106,
        -0.44868487,
        -0.78613615,
        -0.017582774,
        0.62489104,
        -0.9666555,
        0.97385,
        0.39337265,
        -0.988312,
        0.4335729,
        -0.4785034,
        0.78454566,
        0.8365314,
        -0.93125486,
        0.9818685,
        0.5157182,
        0.4419986,
        -0.27075332,
        0.5955992,
        0.62661076,
        -0.023798347,
        0.9894676,
        0.44394863,
        -0.01011765,
        0.6590698,
        -0.028006911,
        0.81941843,
        0.4854175,
        -0.614819,
        0.3828367,
        -0.47083443,
        -0.12672675,
        -0.23828042,
        -0.7843838,
        0.38053644,
        0.9305484,
        -0.0053528547,
        -0.88171935,
        -0.2519676,
        -0.51663584,
        0.6267915,
        -0.23226607,
        -0.33239287,
        -0.24815977,
        0.37334454,
        0.735801,
        0.6253352,
        0.0891248,
        0.571784,
        0.4920658,
        -0.8017864,
        0.26741993,
        -0.85007024,
        -0.8241136,
        -0.49446195,
        -0.2850713,
        0.92566276,
        -0.61393064,
        0.1716255,
        0.7168622,
        -0.644387,
        0.7162552,
        -0.24032056,
        -0.7348902,
        -0.76557565,
        0.64897156,
        -0.2802543,
        0.29166496,
        0.63348675,
        -0.52639955,
        -0.4416613,
        -0.35781354,
        -0.10268319,
        0.2273761,
        0.4983791,
        0.43098462,
        0.50104785,
        0.38335717,
        -0.92787194,
        -0.5734288,
        0.65958023,
        -0.12966645,
        -0.0089303255,
        0.86836576,
        0.36975873,
        0.580148,
        0.06989658,
        -0.46508688,
        0.30496776,
        0.4301306,
        -0.40609306,
        -0.46265477,
        0.73852944,
        0.39710748,
        0.7962172,
        -0.40487546,
        -0.06053841,
        0.0036360025,
        0.68220854,
        0.17323983,
        0.7454469,
        -0.9224906,
        0.95008326,
        0.2136296,
        0.102611184,
        -0.6949301,
        -0.3489985,
        0.67350864,
        -0.21654141,
        -0.018518806,
        -0.17738664,
        -0.41784662,
        0.6952703,
        0.30337656,
        -0.7412834,
        0.3036052,
        0.24747527,
        0.9828322,
        0.18298256,
        -0.6419039,
        0.13498747,
        -0.28546137,
        -0.43960994,
        0.31024063,
        -0.5428557,
        0.4916047,
        0.87710786,
        0.4157406,
        0.36849988,
        0.61612797,
        0.060488105,
        0.12192309,
        -0.45073026,
        -0.6275325,
        -0.6294794,
        0.73848915,
        0.80721116,
        -0.2322563,
        -0.12279189,
        -0.46906823,
        0.55506015,
        0.900352,
        -0.5074155,
        0.8154652,
        -0.87834096,
        0.09191716,
        0.6795373,
        0.48813164,
        -0.23034847,
        -0.7585938,
        -0.61299556,
        -0.76122665,
        0.66523933,
        -0.86497045,
        0.1858989,
        -0.76174307,
        -0.85942245,
        -0.95200586,
        -0.76043653,
        0.156968,
        0.29970133,
        0.76804924,
        0.6041527,
        0.1883961,
        -0.38426465,
        0.24681962,
        -0.70233274,
        0.110091805,
        -0.0036290884,
        -0.53158206,
        -0.04839337,
        -0.512212,
        0.12098658,
        0.48154604,
        0.19311607,
        -0.34451908,
        -0.5659115,
        0.65210843,
        0.6716168,
        0.5853002,
        0.8923938,
        -0.57547516,
        0.0582031,
        0.7074075,
        0.5050316,
        -0.5850293,
        0.8847351,
        -0.29906672,
        -0.6688936,
        -0.27168983,
        -0.7150376,
        0.74315596,
        -0.71029663,
        0.19862401,
        0.5532887,
        0.08781755,
        -0.97491956,
        0.57617307,
        0.9060943,
        0.40983784,
        0.8000524,
        0.13350117,
        0.06435859,
        0.5382366,
        0.44156468,
        -0.48212904,
        0.66271615,
        0.694926,
        0.8130963,
        -0.21365511,
        0.4300779,
        -0.48009628,
        0.3945452,
        -0.7126391,
        -0.9035511,
        0.15476596,
        0.1131109,
        0.43416846,
        0.24537003,
        0.33795202,
        -0.3589403,
        -0.34104627,
        0.091801286,
        0.189664,
        -0.11898053,
        -0.7472584,
        0.5614877,
        -0.65059066,
        0.32761872,
        0.64308405,
        -0.8693161,
        -0.21965182,
        0.47007453,
        0.74546456,
        -0.61486405,
        0.75160265,
        -0.7368567,
        -0.9413893,
        -0.24690998,
        0.845855,
        0.4308709,
        -0.8317547,
        -0.81883526,
        -0.6195387,
        0.016919255,
        -0.788677,
        -0.46263212,
        -0.97321653,
        0.7716925,
        0.75034785,
        0.4796964,
        0.9953227,
        0.003318429,
        0.74405766,
        0.5074377,
        -0.4750647,
        0.08677423,
        -0.5930781,
        0.9718344,
        -0.26545638,
        -0.61271304,
        0.09828317,
        0.16450226,
        0.8920398,
        0.7974317,
        0.29739678,
        -0.22332704,
        0.45471466,
        -0.19192111,
        0.8448765,
        0.98401666,
        -0.7239337,
        -0.05364144,
        0.2982539,
        0.3387798,
        0.41009915,
        -0.29101723,
        0.5468185,
        0.3559023,
        0.65842247,
        0.38884342,
        0.962338,
        0.9563825,
        0.0009161234,
        -0.89370465,
        -0.454915,
        0.3744787,
        -0.16536367,
        0.28433168,
        0.2394439,
        -0.7756648,
        0.2823459,
        -0.19814241,
        0.5704546,
        0.94007826,
        -0.4406466,
        0.82532525,
        -0.38938493,
        0.16462624,
        0.6554668,
        0.66044736,
        0.43592918,
        -0.63827515,
        -0.33113593,
        0.9922106,
        -0.63353705,
        -0.76529145,
        0.4112624,
        -0.99966025,
        -0.78125834,
        0.90765214,
        0.443385,
        0.13712299,
        0.5737386,
        0.52117753,
        -0.18654025,
        -0.39474934,
        -0.57737654,
        0.4423529,
        -0.29079574,
        -0.70160055,
        -0.21336567,
        -0.20114362,
        0.14668047,
        0.3822397,
        -0.11292279,
        0.5460403,
        0.14746034,
        0.4578725,
        -0.108112216,
        0.6895058,
        -0.45455402,
        -0.8626683,
        0.63429475,
        0.34637225,
        0.8221693,
        -0.8131323,
        -0.6783042,
        0.3522817,
        -0.99027395,
        -0.10420501,
        0.15863883,
        0.5278945,
        -0.23950589,
        0.15275943,
        0.7883544,
        0.6825979,
        -0.68407583,
        0.25845993,
        -0.006158471,
        -0.48812622,
        -0.07943165,
        0.8874359,
        -0.41538328,
        0.7036793,
        0.34114516,
        -0.43801564,
        -0.24887168,
        0.21360719,
        -0.44026536,
        0.33149183,
        -0.666903,
        0.859231,
        0.8238604,
        0.12386191,
        -0.12856114,
        -0.40398926,
        0.2382015,
        0.6394675,
        -0.27431887,
        -0.7641213,
        -0.8899834,
        0.24319994,
        -0.31403202,
        -0.8394203,
        0.27287328,
        0.54631186,
        -0.7453282,
        -0.7089603,
        0.6870954,
        -0.2750954,
        -0.4840476,
        0.30251706,
        0.5127299,
        0.3291756,
        -0.20168006,
        -0.9116695,
        0.05791533,
        0.86012125,
        -0.4975564,
        -0.8137777,
        -0.99899435,
        0.3720349,
        -0.19335759,
        0.043620706,
        0.9471319,
        -0.3301584,
        0.83668256,
        -0.8537643,
        0.09363949,
        0.7065065,
        0.4864887,
        0.62579393,
        0.8152759,
        0.7987151,
        0.13306034,
        0.8930752,
        0.47751462,
        0.8349688,
        0.7268245,
        -0.2958123,
        -0.60643166,
        -0.895591,
        0.5064783,
        -0.3692996,
        0.71739554,
        0.3902408,
        -0.14686668,
        0.9490349,
        -0.12719333,
        -0.6422894,
        -0.49153417,
        0.73950505,
        0.93132305,
        -0.04912126,
        0.6172652,
        -0.20139325,
        0.093209386,
        -0.67309403,
        0.61168885,
        -0.6999028,
        -0.738297,
        0.98482203,
        -0.11334264,
        0.9868803,
        -0.43389934,
        0.7199688,
        0.67061496,
        0.8153415,
        0.00037252903,
        0.7314663,
        0.8096721,
        -0.9658437,
        -0.7800422,
        0.811785,
        0.04956305,
        0.28313434,
        -0.4209141,
        -0.06374061,
        0.9700165,
        0.4103254,
        0.81804895,
        0.7934258,
        0.21257842,
        0.9188378,
        0.96311593,
        -0.8021817,
        0.5864525,
        0.21220052,
        -0.270863,
        -0.2438854,
        0.6555793,
        -0.9376521,
        -0.108606935,
        0.24320042,
        0.8657391,
        0.25476873,
        0.8609097,
        0.45958865,
        0.110830426,
        0.6311507,
        -0.98438406
      ]
    },
    {
      "index": 2,
      "output": 0.025399305,
      "input_connections": [
        [
          0,
          -0.0013552123
        ],
        [
          1,
          -0.012442568
        ],
        [
          3,
          0.0
        ],
        [
          4,
          0.0
        ],
        [
          5,
          -0.03079757
        ],
        [
          6,
          0.0
        ],
        [
          7,
          0.04815233
        ]
      ],
      "bias": 0.03937702,
      "self_activation": 0.0,
      "retina_weights": [
        0.0,
        0.0,
        0.0,
        0.0,
        0.0,
        0.0,
        0.0,
        0.0,
        0.0,
        0.0,
        0.0,
        0.0,
        0.0,
        0.0,
        0.0,
        0.0,
        0.0,
        0.0,
        0.0,
        0.0,
        0.0,
        0.0,
        0.0,
        0.0,
        0.0,
        0.0,
        0.0,
        0.0,
        0.0,
        0.0,
        0.0,
        0.0,
        0.0,
        0.0,
        0.0,
        0.0,
        0.0,
        0.0,
        0.0,
        0.0,
        0.0,
        0.0,
        0.0,
        0.0,
        0.0,
        0.0,
        0.0,
        0.0,
        0.0,
        0.0,
        0.0,
        0.0,
        0.0,
        0.0,
        0.0,
        0.0,
        0.0,
        0.0,
        0.0,
        0.0,
        0.0,
        0.0,
        0.0,
        0.0,
        0.0,
        0.0,
        0.0,
        0.0,
        0.0,
        0.0,
        0.0,
        0.0,
        0.0,
        0.0,
        0.0,
        0.0,
        0.0,
        0.0,
        0.0,
        0.0,
        0.0,
        0.0,
        0.0,
        0.0,
        0.0,
        0.0,
        0.0,
        0.0,
        0.0,
        0.0,
        0.0,
        0.0,
        0.0,
        0.0,
        0.0,
        0.0,
        0.0,
        0.0,
        0.0,
        0.0,
        0.0,
        0.0,
        0.0,
        0.0,
        0.0,
        0.0,
        0.0,
        0.0,
        0.0,
        0.0,
        0.0,
        0.0,
        0.0,
        0.0,
        0.0,
        0.0,
        0.0,
        0.0,
        0.0,
        0.0,
        0.0,
        0.0,
        0.0,
        0.0,
        0.0,
        0.0,
        0.0,
        0.0,
        0.0,
        0.0,
        0.0,
        0.0,
        0.0,
        0.0,
        0.0,
        0.0,
        0.0,
        0.0,
        0.0,
        0.0,
        0.0,
        0.0,
        0.0,
        0.0,
        0.0,
        0.0,
        0.0,
        0.0,
        0.0,
        0.0,
        0.0,
        0.0,
        0.0,
        0.0,
        0.0,
        0.0,
        0.0,
        0.0,
        0.0,
        0.0,
        0.0,
        0.0,
        0.0,
        0.0,
        0.0,
        0.0,
        0.0,
        0.0,
        0.0,
        0.0,
        0.0,
        0.0,
        0.0,
        0.0,
        0.0,
        0.0,
        0.0,
        0.0,
        0.0,
        0.0,
        0.0,
        0.0,
        0.0,
        0.0,
        0.0,
        0.0,
        0.0,
        0.0,
        0.0,
        0.0,
        0.0,
        0.0,
        0.0,
        0.0,
        0.0,
        0.0,
        0.0,
        0.0,
        0.0,
        0.0,
        0.0,
        0.0,
        0.0,
        0.0,
        0.0,
        0.0,
        0.0,
        0.0,
        0.0,
        0.0,
        0.0,
        0.0,
        0.0,
        0.0,
        0.0,
        0.0,
        0.0,
        0.0,
        0.0,
        0.0,
        0.0,
        0.0,
        0.0,
        0.0,
        0.0,
        0.0,
        0.0,
        0.0,
        0.0,
        0.0,
        0.0,
        0.0,
        0.0,
        0.0,
        0.0,
        0.0,
        0.0,
        0.0,
        0.0,
        0.0,
        0.0,
        0.0,
        0.0,
        0.0,
        0.0,
        0.0,
        0.0,
        0.0,
        0.0,
        0.0,
        0.0,
        0.0,
        0.0,
        0.0,
        0.0,
        0.0,
        0.0,
        0.0,
        0.0,
        0.0,
        0.0,
        0.0,
        0.0,
        0.0,
        0.0,
        0.0,
        0.0,
        0.0,
        0.0,
        0.0,
        0.0,
        0.0,
        0.0,
        0.0,
        0.0,
        0.0,
        0.0,
        0.0,
        0.0,
        0.0,
        0.0,
        0.0,
        0.0,
        0.0,
        0.0,
        0.0,
        0.0,
        0.0,
        0.0,
        0.0,
        0.0,
        0.0,
        0.0,
        0.0,
        0.0,
        0.0,
        0.0,
        0.0,
        0.0,
        0.0,
        0.0,
        0.0,
        0.0,
        0.0,
        0.0,
        0.0,
        0.0,
        0.0,
        0.0,
        0.0,
        0.0,
        0.0,
        0.0,
        0.0,
        0.0,
        0.0,
        0.0,
        0.0,
        0.0,
        0.0,
        0.0,
        0.0,
        0.0,
        0.0,
        0.0,
        0.0,
        0.0,
        0.0,
        0.0,
        0.0,
        0.0,
        0.0,
        0.0,
        0.0,
        0.0,
        0.0,
        0.0,
        0.0,
        0.0,
        0.0,
        0.0,
        0.0,
        0.0,
        0.0,
        0.0,
        0.0,
        0.0,
        0.0,
        0.0,
        0.0,
        0.0,
        0.0,
        0.0,
        0.0,
        0.0,
        0.0,
        0.0,
        0.0,
        0.0,
        0.0,
        0.0,
        0.0,
        0.0,
        0.0,
        0.0,
        0.0,
        0.0,
        0.0,
        0.0,
        0.0,
        0.0,
        0.0,
        0.0,
        0.0,
        0.0,
        0.0,
        0.0,
        0.0,
        0.0,
        0.0,
        0.0,
        0.0,
        0.0,
        0.0,
        0.0,
        0.0,
        0.0,
        0.0,
        0.0,
        0.0,
        0.0,
        0.0,
        0.0,
        0.0,
        0.0,
        0.0,
        0.0,
        0.0,
        0.0,
        0.0,
        0.0,
        0.0,
        0.0,
        0.0,
        0.0,
        0.0,
        0.0,
        0.0,
        0.0,
        0.0,
        0.0,
        0.0,
        0.0,
        0.0,
        0.0,
        0.0,
        0.0,
        0.0,
        0.0,
        0.0,
        0.0,
        0.0,
        0.0,
        0.0,
        0.0,
        0.0,
        0.0,
        0.0,
        0.0,
        0.0,
        0.0,
        0.0,
        0.0,
        0.0,
        0.0,
        0.0,
        0.0,
        0.0,
        0.0,
        0.0,
        0.0,
        0.0,
        0.0,
        0.0,
        0.0,
        0.0,
        0.0,
        0.0,
        0.0,
        0.0,
        0.0,
        0.0,
        0.0,
        0.0,
        0.0,
        0.0,
        0.0,
        0.0,
        0.0,
        0.0,
        0.0,
        0.0,
        0.0,
        0.0,
        0.0,
        0.0,
        0.0,
        0.0,
        0.0,
        0.0,
        0.0,
        0.0,
        0.0,
        0.0,
        0.0,
        0.0,
        0.0,
        0.0,
        0.0,
        0.0,
        0.0,
        0.0,
        0.0,
        0.0,
        0.0,
        0.0,
        0.0,
        0.0,
        0.0,
        0.0,
        0.0,
        0.0,
        0.0,
        0.0,
        0.0,
        0.0,
        0.0,
        0.0,
        0.0,
        0.0,
        0.0,
        0.0,
        0.0,
        0.0,
        0.0,
        0.0,
        0.0,
        0.0,
        0.0,
        0.0,
        0.0,
        0.0,
        0.0,
        0.0,
        0.0,
        0.0,
        0.0,
        0.0,
        0.0,
        0.0,
        0.0,
        0.0,
        0.0,
        0.0,
        0.0,
        0.0,
        0.0,
        0.0,
        0.0
      ]
    },
    {
      "index": 3,
      "output": -0.08818283,
      "input_connections": [
        [
          0,
          -0.6126546
        ],
        [
          1,
          0.0
        ],
        [
          2,
          0.024484444
        ],
        [
          4,
          0.0
        ],
        [
          5,
          0.031585038
        ],
        [
          6,
          0.0
        ],
        [
          7,
          -0.8285792
        ]
      ],
      "bias": -0.022378396,
      "self_activation": 0.0,
      "retina_weights": [
        0.0,
        0.0,
        0.0,
        0.0,
        0.0,
        0.0,
        0.0,
        0.0,
        0.0,
        0.0,
        0.0,
        0.0,
        0.0,
        0.0,
        0.0,
        0.0,
        0.0,
        0.0,
        0.0,
        0.0,
        0.0,
        0.0,
        0.0,
        0.0,
        0.0,
        0.0,
        0.0,
        0.0,
        0.0,
        0.0,
        0.0,
        0.0,
        0.0,
        0.0,
        0.0,
        0.0,
        0.0,
        0.0,
        0.0,
        0.0,
        0.0,
        0.0,
        0.0,
        0.0,
        0.0,
        0.0,
        0.0,
        0.0,
        0.0,
        0.0,
        0.0,
        0.0,
        0.0,
        0.0,
        0.0,
        0.0,
        0.0,
        0.0,
        0.0,
        0.0,
        0.0,
        0.0,
        0.0,
        0.0,
        0.0,
        0.0,
        0.0,
        0.0,
        0.0,
        0.0,
        0.0,
        0.0,
        0.0,
        0.0,
        0.0,
        0.0,
        0.0,
        0.0,
        0.0,
        0.0,
        0.0,
        0.0,
        0.0,
        0.0,
        0.0,
        0.0,
        0.0,
        0.0,
        0.0,
        0.0,
        0.0,
        0.0,
        0.0,
        0.0,
        0.0,
        0.0,
        0.0,
        0.0,
        0.0,
        0.0,
        0.0,
        0.0,
        0.0,
        0.0,
        0.0,
        0.0,
        0.0,
        0.0,
        0.0,
        0.0,
        0.0,
        0.0,
        0.0,
        0.0,
        0.0,
        0.0,
        0.0,
        0.0,
        0.0,
        0.0,
        0.0,
        0.0,
        0.0,
        0.0,
        0.0,
        0.0,
        0.0,
        0.0,
        0.0,
        0.0,
        0.0,
        0.0,
        0.0,
        0.0,
        0.0,
        0.0,
        0.0,
        0.0,
        0.0,
        0.0,
        0.0,
        0.0,
        0.0,
        0.0,
        0.0,
        0.0,
        0.0,
        0.0,
        0.0,
        0.0,
        0.0,
        0.0,
        0.0,
        0.0,
        0.0,
        0.0,
        0.0,
        0.0,
        0.0,
        0.0,
        0.0,
        0.0,
        0.0,
        0.0,
        0.0,
        0.0,
        0.0,
        0.0,
        0.0,
        0.0,
        0.0,
        0.0,
        0.0,
        0.0,
        0.0,
        0.0,
        0.0,
        0.0,
        0.0,
        0.0,
        0.0,
        0.0,
        0.0,
        0.0,
        0.0,
        0.0,
        0.0,
        0.0,
        0.0,
        0.0,
        0.0,
        0.0,
        0.0,
        0.0,
        0.0,
        0.0,
        0.0,
        0.0,
        0.0,
        0.0,
        0.0,
        0.0,
        0.0,
        0.0,
        0.0,
        0.0,
        0.0,
        0.0,
        0.0,
        0.0,
        0.0,
        0.0,
        0.0,
        0.0,
        0.0,
        0.0,
        0.0,
        0.0,
        0.0,
        0.0,
        0.0,
        0.0,
        0.0,
        0.0,
        0.0,
        0.0,
        0.0,
        0.0,
        0.0,
        0.0,
        0.0,
        0.0,
        0.0,
        0.0,
        0.0,
        0.0,
        0.0,
        0.0,
        0.0,
        0.0,
        0.0,
        0.0,
        0.0,
        0.0,
        0.0,
        0.0,
        0.0,
        0.0,
        0.0,
        0.0,
        0.0,
        0.0,
        0.0,
        0.0,
        0.0,
        0.0,
        0.0,
        0.0,
        0.0,
        0.0,
        0.0,
        0.0,
        0.0,
        0.0,
        0.0,
        0.0,
        0.0,
        0.0,
        0.0,
        0.0,
        0.0,
        0.0,
        0.0,
        0.0,
        0.0,
        0.0,
        0.0,
        0.0,
        0.0,
        0.0,
        0.0,
        0.0,
        0.0,
        0.0,
        0.0,
        0.0,
        0.0,
        0.0,
        0.0,
        0.0,
        0.0,
        0.0,
        0.0,
        0.0,
        0.0,
        0.0,
        0.0,
        0.0,
        0.0,
        0.0,
        0.0,
        0.0,
        0.0,
        0.0,
        0.0,
        0.0,
        0.0,
        0.0,
        0.0,
        0.0,
        0.0,
        0.0,
        0.0,
        0.0,
        0.0,
        0.0,
        0.0,
        0.0,
        0.0,
        0.0,
        0.0,
        0.0,
        0.0,
        0.0,
        0.0,
        0.0,
        0.0,
        0.0,
        0.0,
        0.0,
        0.0,
        0.0,
        0.0,
        0.0,
        0.0,
        0.0,
        0.0,
        0.0,
        0.0,
        0.0,
        0.0,
        0.0,
        0.0,
        0.0,
        0.0,
        0.0,
        0.0,
        0.0,
        0.0,
        0.0,
        0.0,
        0.0,
        0.0,
        0.0,
        0.0,
        0.0,
        0.0,
        0.0,
        0.0,
        0.0,
        0.0,
        0.0,
        0.0,
        0.0,
        0.0,
        0.0,
        0.0,
        0.0,
        0.0,
        0.0,
        0.0,
        0.0,
        0.0,
        0.0,
        0.0,
        0.0,
        0.0,
        0.0,
        0.0,
        0.0,
        0.0,
        0.0,
        0.0,
        0.0,
        0.0,
        0.0,
        0.0,
        0.0,
        0.0,
        0.0,
        0.0,
        0.0,
        0.0,
        0.0,
        0.0,
        0.0,
        0.0,
        0.0,
        0.0,
        0.0,
        0.0,
        0.0,
        0.0,
        0.0,
        0.0,
        0.0,
        0.0,
        0.0,
        0.0,
        0.0,
        0.0,
        0.0,
        0.0,
        0.0,
        0.0,
        0.0,
        0.0,
        0.0,
        0.0,
        0.0,
        0.0,
        0.0,
        0.0,
        0.0,
        0.0,
        0.0,
        0.0,
        0.0,
        0.0,
        0.0,
        0.0,
        0.0,
        0.0,
        0.0,
        0.0,
        0.0,
        0.0,
        0.0,
        0.0,
        0.0,
        0.0,
        0.0,
        0.0,
        0.0,
        0.0,
        0.0,
        0.0,
        0.0,
        0.0,
        0.0,
        0.0,
        0.0,
        0.0,
        0.0,
        0.0,
        0.0,
        0.0,
        0.0,
        0.0,
        0.0,
        0.0,
        0.0,
        0.0,
        0.0,
        0.0,
        0.0,
        0.0,
        0.0,
        0.0,
        0.0,
        0.0,
        0.0,
        0.0,
        0.0,
        0.0,
        0.0,
        0.0,
        0.0,
        0.0,
        0.0,
        0.0,
        0.0,
        0.0,
        0.0,
        0.0,
        0.0,
        0.0,
        0.0,
        0.0,
        0.0,
        0.0,
        0.0,
        0.0,
        0.0,
        0.0,
        0.0,
        0.0,
        0.0,
        0.0,
        0.0,
        0.0,
        0.0,
        0.0,
        0.0,
        0.0,
        0.0,
        0.0,
        0.0,
        0.0,
        0.0,
        0.0,
        0.0,
        0.0,
        0.0,
        0.0,
        0.0,
        0.0,
        0.0,
        0.0,
        0.0,
        0.0,
        0.0,
        0.0,
        0.0,
        0.0,
        0.0,
        0.0,
        0.0,
        0.0
      ]
    },
    {
      "index": 4,
      "output": 0.12715091,
      "input_connections": [
        [
          0,
          0.8572266
        ],
        [
          1,
          0.0
        ],
        [
          2,
          0.0
        ],
        [
          3,
          0.0
        ],
        [
          5,
          0.0
        ],
        [
          6,
          0.0
        ],
        [
          7,
          0.0
        ]
      ],
      "bias": 0.014289592,
      "self_activation": 0.0,
      "retina_weights": [
        0.0,
        0.0,
        0.0,
        0.0,
        0.0,
        0.0,
        0.0,
        0.0,
        0.0,
        0.0,
        0.0,
        0.0,
        0.0,
        0.0,
        0.0,
        0.0,
        0.0,
        0.0,
        0.0,
        0.0,
        0.0,
        0.0,
        0.0,
        0.0,
        0.0,
        0.0,
        0.0,
        0.0,
        0.0,
        0.0,
        0.0,
        0.0,
        0.0,
        0.0,
        0.0,
        0.0,
        0.0,
        0.0,
        0.0,
        0.0,
        0.0,
        0.0,
        0.0,
        0.0,
        0.0,
        0.0,
        0.0,
        0.0,
        0.0,
        0.0,
        0.0,
        0.0,
        0.0,
        0.0,
        0.0,
        0.0,
        0.0,
        0.0,
        0.0,
        0.0,
        0.0,
        0.0,
        0.0,
        0.0,
        0.0,
        0.0,
        0.0,
        0.0,
        0.0,
        0.0,
        0.0,
        0.0,
        0.0,
        0.0,
        0.0,
        0.0,
        0.0,
        0.0,
        0.0,
        0.0,
        0.0,
        0.0,
        0.0,
        0.0,
        0.0,
        0.0,
        0.0,
        0.0,
        0.0,
        0.0,
        0.0,
        0.0,
        0.0,
        0.0,
        0.0,
        0.0,
        0.0,
        0.0,
        0.0,
        0.0,
        0.0,
        0.0,
        0.0,
        0.0,
        0.0,
        0.0,
        0.0,
        0.0,
        0.0,
        0.0,
        0.0,
        0.0,
        0.0,
        0.0,
        0.0,
        0.0,
        0.0,
        0.0,
        0.0,
        0.0,
        0.0,
        0.0,
        0.0,
        0.0,
        0.0,
        0.0,
        0.0,
        0.0,
        0.0,
        0.0,
        0.0,
        0.0,
        0.0,
        0.0,
        0.0,
        0.0,
        0.0,
        0.0,
        0.0,
        0.0,
        0.0,
        0.0,
        0.0,
        0.0,
        0.0,
        0.0,
        0.0,
        0.0,
        0.0,
        0.0,
        0.0,
        0.0,
        0.0,
        0.0,
        0.0,
        0.0,
        0.0,
        0.0,
        0.0,
        0.0,
        0.0,
        0.0,
        0.0,
        0.0,
        0.0,
        0.0,
        0.0,
        0.0,
        0.0,
        0.0,
        0.0,
        0.0,
        0.0,
        0.0,
        0.0,
        0.0,
        0.0,
        0.0,
        0.0,
        0.0,
        0.0,
        0.0,
        0.0,
        0.0,
        0.0,
        0.0,
        0.0,
        0.0,
        0.0,
        0.0,
        0.0,
        0.0,
        0.0,
        0.0,
        0.0,
        0.0,
        0.0,
        0.0,
        0.0,
        0.0,
        0.0,
        0.0,
        0.0,
        0.0,
        0.0,
        0.0,
        0.0,
        0.0,
        0.0,
        0.0,
        0.0,
        0.0,
        0.0,
        0.0,
        0.0,
        0.0,
        0.0,
        0.0,
        0.0,
        0.0,
        0.0,
        0.0,
        0.0,
        0.0,
        0.0,
        0.0,
        0.0,
        0.0,
        0.0,
        0.0,
        0.0,
        0.0,
        0.0,
        0.0,
        0.0,
        0.0,
        0.0,
        0.0,
        0.0,
        0.0,
        0.0,
        0.0,
        0.0,
        0.0,
        0.0,
        0.0,
        0.0,
        0.0,
        0.0,
        0.0,
        0.0,
        0.0,
        0.0,
        0.0,
        0.0,
        0.0,
        0.0,
        0.0,
        0.0,
        0.0,
        0.0,
        0.0,
        0.0,
        0.0,
        0.0,
        0.0,
        0.0,
        0.0,
        0.0,
        0.0,
        0.0,
        0.0,
        0.0,
        0.0,
        0.0,
        0.0,
        0.0,
        0.0,
        0.0,
        0.0,
        0.0,
        0.0,
        0.0,
        0.0,
        0.0,
        0.0,
        0.0,
        0.0,
        0.0,
        0.0,
        0.0,
        0.0,
        0.0,
        0.0,
        0.0,
        0.0,
        0.0,
        0.0,
        0.0,
        0.0,
        0.0,
        0.0,
        0.0,
        0.0,
        0.0,
        0.0,
        0.0,
        0.0,
        0.0,
        0.0,
        0.0,
        0.0,
        0.0,
        0.0,
        0.0,
        0.0,
        0.0,
        0.0,
        0.0,
        0.0,
        0.0,
        0.0,
        0.0,
        0.0,
        0.0,
        0.0,
        0.0,
        0.0,
        0.0,
        0.0,
        0.0,
        0.0,
        0.0,
        0.0,
        0.0,
        0.0,
        0.0,
        0.0,
        0.0,
        0.0,
        0.0,
        0.0,
        0.0,
        0.0,
        0.0,
        0.0,
        0.0,
        0.0,
        0.0,
        0.0,
        0.0,
        0.0,
        0.0,
        0.0,
        0.0,
        0.0,
        0.0,
        0.0,
        0.0,
        0.0,
        0.0,
        0.0,
        0.0,
        0.0,
        0.0,
        0.0,
        0.0,
        0.0,
        0.0,
        0.0,
        0.0,
        0.0,
        0.0,
        0.0,
        0.0,
        0.0,
        0.0,
        0.0,
        0.0,
        0.0,
        0.0,
        0.0,
        0.0,
        0.0,
        0.0,
        0.0,
        0.0,
        0.0,
        0.0,
        0.0,
        0.0,
        0.0,
        0.0,
        0.0,
        0.0,
        0.0,
        0.0,
        0.0,
        0.0,
        0.0,
        0.0,
        0.0,
        0.0,
        0.0,
        0.0,
        0.0,
        0.0,
        0.0,
        0.0,
        0.0,
        0.0,
        0.0,
        0.0,
        0.0,
        0.0,
        0.0,
        0.0,
        0.0,
        0.0,
        0.0,
        0.0,
        0.0,
        0.0,
        0.0,
        0.0,
        0.0,
        0.0,
        0.0,
        0.0,
        0.0,
        0.0,
        0.0,
        0.0,
        0.0,
        0.0,
        0.0,
        0.0,
        0.0,
        0.0,
        0.0,
        0.0,
        0.0,
        0.0,
        0.0,
        0.0,
        0.0,
        0.0,
        0.0,
        0.0,
        0.0,
        0.0,
        0.0,
        0.0,
        0.0,
        0.0,
        0.0,
        0.0,
        0.0,
        0.0,
        0.0,
        0.0,
        0.0,
        0.0,
        0.0,
        0.0,
        0.0,
        0.0,
        0.0,
        0.0,
        0.0,
        0.0,
        0.0,
        0.0,
        0.0,
        0.0,
        0.0,
        0.0,
        0.0,
        0.0,
        0.0,
        0.0,
        0.0,
        0.0,
        0.0,
        0.0,
        0.0,
        0.0,
        0.0,
        0.0,
        0.0,
        0.0,
        0.0,
        0.0,
        0.0,
        0.0,
        0.0,
        0.0,
        0.0,
        0.0,
        0.0,
        0.0,
        0.0,
        0.0,
        0.0,
        0.0,
        0.0,
        0.0,
        0.0,
        0.0,
        0.0,
        0.0,
        0.0,
        0.0,
        0.0,
        0.0,
        0.0,
        0.0,
        0.0,
        0.0,
        0.0,
        0.0,
        0.0,
        0.0,
        0.0,
        0.0,
        0.0,
        0.0,
        0.0,
        0.0
      ]
    },
    {
      "index": 5,
      "output": 0.01752331,
      "input_connections": [
        [
          0,
          -0.018063515
        ],
        [
          1,
          0.0
        ],
        [
          2,
          -0.029053302
        ],
        [
          3,
          -0.112429395
        ],
        [
          4,
          0.026507542
        ],
        [
          6,
          0.007889073
        ],
        [
          7,
          0.0
        ]
      ],
      "bias": 0.0,
      "self_activation": -0.02956287,
      "retina_weights": [
        0.0,
        0.0,
        0.0,
        0.0,
        0.0,
        0.0,
        0.0,
        0.0,
        0.0,
        0.0,
        0.0,
        0.0,
        0.0,
        0.0,
        0.0,
        0.0,
        0.0,
        0.0,
        0.0,
        0.0,
        0.0,
        0.0,
        0.0,
        0.0,
        0.0,
        0.0,
        0.0,
        0.0,
        0.0,
        0.0,
        0.0,
        0.0,
        0.0,
        0.0,
        0.0,
        0.0,
        0.0,
        0.0,
        0.0,
        0.0,
        0.0,
        0.0,
        0.0,
        0.0,
        0.0,
        0.0,
        0.0,
        0.0,
        0.0,
        0.0,
        0.0,
        0.0,
        0.0,
        0.0,
        0.0,
        0.0,
        0.0,
        0.0,
        0.0,
        0.0,
        0.0,
        0.0,
        0.0,
        0.0,
        0.0,
        0.0,
        0.0,
        0.0,
        0.0,
        0.0,
        0.0,
        0.0,
        0.0,
        0.0,
        0.0,
        0.0,
        0.0,
        0.0,
        0.0,
        0.0,
        0.0,
        0.0,
        0.0,
        0.0,
        0.0,
        0.0,
        0.0,
        0.0,
        0.0,
        0.0,
        0.0,
        0.0,
        0.0,
        0.0,
        0.0,
        0.0,
        0.0,
        0.0,
        0.0,
        0.0,
        0.0,
        0.0,
        0.0,
        0.0,
        0.0,
        0.0,
        0.0,
        0.0,
        0.0,
        0.0,
        0.0,
        0.0,
        0.0,
        0.0,
        0.0,
        0.0,
        0.0,
        0.0,
        0.0,
        0.0,
        0.0,
        0.0,
        0.0,
        0.0,
        0.0,
        0.0,
        0.0,
        0.0,
        0.0,
        0.0,
        0.0,
        0.0,
        0.0,
        0.0,
        0.0,
        0.0,
        0.0,
        0.0,
        0.0,
        0.0,
        0.0,
        0.0,
        0.0,
        0.0,
        0.0,
        0.0,
        0.0,
        0.0,
        0.0,
        0.0,
        0.0,
        0.0,
        0.0,
        0.0,
        0.0,
        0.0,
        0.0,
        0.0,
        0.0,
        0.0,
        0.0,
        0.0,
        0.0,
        0.0,
        0.0,
        0.0,
        0.0,
        0.0,
        0.0,
        0.0,
        0.0,
        0.0,
        0.0,
        0.0,
        0.0,
        0.0,
        0.0,
        0.0,
        0.0,
        0.0,
        0.0,
        0.0,
        0.0,
        0.0,
        0.0,
        0.0,
        0.0,
        0.0,
        0.0,
        0.0,
        0.0,
        0.0,
        0.0,
        0.0,
        0.0,
        0.0,
        0.0,
        0.0,
        0.0,
        0.0,
        0.0,
        0.0,
        0.0,
        0.0,
        0.0,
        0.0,
        0.0,
        0.0,
        0.0,
        0.0,
        0.0,
        0.0,
        0.0,
        0.0,
        0.0,
        0.0,
        0.0,
        0.0,
        0.0,
        0.0,
        0.0,
        0.0,
        0.0,
        0.0,
        0.0,
        0.0,
        0.0,
        0.0,
        0.0,
        0.0,
        0.0,
        0.0,
        0.0,
        0.0,
        0.0,
        0.0,
        0.0,
        0.0,
        0.0,
        0.0,
        0.0,
        0.0,
        0.0,
        0.0,
        0.0,
        0.0,
        0.0,
        0.0,
        0.0,
        0.0,
        0.0,
        0.0,
        0.0,
        0.0,
        0.0,
        0.0,
        0.0,
        0.0,
        0.0,
        0.0,
        0.0,
        0.0,
        0.0,
        0.0,
        0.0,
        0.0,
        0.0,
        0.0,
        0.0,
        0.0,
        0.0,
        0.0,
        0.0,
        0.0,
        0.0,
        0.0,
        0.0,
        0.0,
        0.0,
        0.0,
        0.0,
        0.0,
        0.0,
        0.0,
        0.0,
        0.0,
        0.0,
        0.0,
        0.0,
        0.0,
        0.0,
        0.0,
        0.0,
        0.0,
        0.0,
        0.0,
        0.0,
        0.0,
        0.0,
        0.0,
        0.0,
        0.0,
        0.0,
        0.0,
        0.0,
        0.0,
        0.0,
        0.0,
        0.0,
        0.0,
        0.0,
        0.0,
        0.0,
        0.0,
        0.0,
        0.0,
        0.0,
        0.0,
        0.0,
        0.0,
        0.0,
        0.0,
        0.0,
        0.0,
        0.0,
        0.0,
        0.0,
        0.0,
        0.0,
        0.0,
        0.0,
        0.0,
        0.0,
        0.0,
        0.0,
        0.0,
        0.0,
        0.0,
        0.0,
        0.0,
        0.0,
        0.0,
        0.0,
        0.0,
        0.0,
        0.0,
        0.0,
        0.0,
        0.0,
        0.0,
        0.0,
        0.0,
        0.0,
        0.0,
        0.0,
        0.0,
        0.0,
        0.0,
        0.0,
        0.0,
        0.0,
        0.0,
        0.0,
        0.0,
        0.0,
        0.0,
        0.0,
        0.0,
        0.0,
        0.0,
        0.0,
        0.0,
        0.0,
        0.0,
        0.0,
        0.0,
        0.0,
        0.0,
        0.0,
        0.0,
        0.0,
        0.0,
        0.0,
        0.0,
        0.0,
        0.0,
        0.0,
        0.0,
        0.0,
        0.0,
        0.0,
        0.0,
        0.0,
        0.0,
        0.0,
        0.0,
        0.0,
        0.0,
        0.0,
        0.0,
        0.0,
        0.0,
        0.0,
        0.0,
        0.0,
        0.0,
        0.0,
        0.0,
        0.0,
        0.0,
        0.0,
        0.0,
        0.0,
        0.0,
        0.0,
        0.0,
        0.0,
        0.0,
        0.0,
        0.0,
        0.0,
        0.0,
        0.0,
        0.0,
        0.0,
        0.0,
        0.0,
        0.0,
        0.0,
        0.0,
        0.0,
        0.0,
        0.0,
        0.0,
        0.0,
        0.0,
        0.0,
        0.0,
        0.0,
        0.0,
        0.0,
        0.0,
        0.0,
        0.0,
        0.0,
        0.0,
        0.0,
        0.0,
        0.0,
        0.0,
        0.0,
        0.0,
        0.0,
        0.0,
        0.0,
        0.0,
        0.0,
        0.0,
        0.0,
        0.0,
        0.0,
        0.0,
        0.0,
        0.0,
        0.0,
        0.0,
        0.0,
        0.0,
        0.0,
        0.0,
        0.0,
        0.0,
        0.0,
        0.0,
        0.0,
        0.0,
        0.0,
        0.0,
        0.0,
        0.0,
        0.0,
        0.0,
        0.0,
        0.0,
        0.0,
        0.0,
        0.0,
        0.0,
        0.0,
        0.0,
        0.0,
        0.0,
        0.0,
        0.0,
        0.0,
        0.0,
        0.0,
        0.0,
        0.0,
        0.0,
        0.0,
        0.0,
        0.0,
        0.0,
        0.0,
        0.0,
        0.0,
        0.0,
        0.0,
        0.0,
        0.0,
        0.0,
        0.0,
        0.0,
        0.0,
        0.0,
        0.0,
        0.0,
        0.0,
        0.0,
        0.0,
        0.0,
        0.0,
        0.0,
        0.0,
        0.0,
        0.0,
        0.0,
        0.0
      ]
    },
    {
      "index": 6,
      "output": 1.0,
      "input_connections": [
        [
          0,
          -0.043661557
        ],
        [
          1,
          -0.009159444
        ],
        [
          2,
          -0.3146013
        ],
        [
          3,
          -0.18776648
        ],
        [
          4,
          0.0
        ],
        [
          5,
          0.081340946
        ],
        [
          7,
          -0.013422736
        ]
      ],
      "bias": -0.18798892,
      "self_activation": 0.0,
      "retina_weights": [
        -0.1272937,
        -0.13026536,
        -0.065104604,
        -0.64802766,
        0.055321813,
        -0.725013,
        0.99355793,
        0.8613465,
        0.22708523,
        -0.015632749,
        -0.9860351,
        -0.42544788,
        -0.8393369,
        -0.0682379,
        -0.049395204,
        -0.95585823,
        -0.49405664,
        0.874825,
        -0.78356934,
        -0.48257345,
        0.33712733,
        0.89141583,
        0.061545253,
        0.6305492,
        -0.29431266,
        0.58174825,
        0.96152496,
        0.30124366,
        -0.45658797,
        0.39763677,
        0.60271835,
        0.39606082,
        -0.33175486,
        -0.8518932,
        -0.60141987,
        -0.79247046,
        -0.17005646,
        0.56006384,
        0.54875684,
        -0.37984198,
        0.4889964,
        -0.7961738,
        0.5519564,
        0.30696476,
        0.76535964,
        -0.92097616,
        0.6173959,
        -0.46834797,
        0.54798317,
        0.8111415,
        -0.8385465,
        0.9664295,
        0.74430275,
        0.32326663,
        0.030206561,
        0.13104713,
        0.4058243,
        0.49279106,
        -0.44868487,
        -0.78613615,
        -0.017582774,
        0.62489104,
        -0.9666555,
        0.97385,
        0.39337265,
        -0.988312,
        0.4335729,
        -0.4785034,
        0.78454566,
        0.8365314,
        -0.93125486,
        0.9818685,
        0.5157182,
        0.4419986,
        -0.27075332,
        0.5955992,
        0.62661076,
        -0.023798347,
        0.9894676,
        0.44394863,
        -0.01011765,
        0.6590698,
        -0.028006911,
        0.81941843,
        0.4854175,
        -0.614819,
        0.3828367,
        -0.47083443,
        -0.12672675,
        -0.23828042,
        -0.7843838,
        0.38053644,
        0.9305484,
        -0.0053528547,
        -0.88171935,
        -0.2519676,
        -0.51663584,
        0.6267915,
        -0.23226607,
        -0.33239287,
        -0.24815977,
        0.37334454,
        0.735801,
        0.6253352,
        0.0891248,
        0.571784,
        0.4920658,
        -0.8017864,
        0.26741993,
        -0.85007024,
        -0.8241136,
        -0.49446195,
        -0.2850713,
        0.92566276,
        -0.61393064,
        0.1716255,
        0.7168622,
        -0.644387,
        0.7162552,
        -0.24032056,
        -0.7348902,
        -0.76557565,
        0.64897156,
        -0.2802543,
        0.29166496,
        0.63348675,
        -0.52639955,
        -0.4416613,
        -0.35781354,
        -0.10268319,
        0.2273761,
        0.4983791,
        0.43098462,
        0.50104785,
        0.38335717,
        -0.92787194,
        -0.5734288,
        0.65958023,
        -0.12966645,
        -0.0089303255,
        0.86836576,
        0.36975873,
        0.580148,
        0.06989658,
        -0.46508688,
        0.30496776,
        0.4301306,
        -0.40609306,
        -0.46265477,
        0.73852944,
        0.39710748,
        0.7962172,
        -0.40487546,
        -0.06053841,
        0.0036360025,
        0.68220854,
        0.17323983,
        0.7454469,
        -0.9224906,
        0.95008326,
        0.2136296,
        0.102611184,
        -0.6949301,
        -0.3489985,
        0.67350864,
        -0.21654141,
        -0.018518806,
        -0.053949308,
        -0.41784662,
        0.6952703,
        0.30337656,
        -0.7412834,
        0.3036052,
        0.24747527,
        0.9828322,
        0.18298256,
        -0.6419039,
        0.13498747,
        -0.28546137,
        -0.43960994,
        0.31024063,
        -0.5428557,
        0.4916047,
        0.87710786,
        0.4157406,
        0.36849988,
        0.61612797,
        0.060488105,
        0.12192309,
        -0.45073026,
        -0.6275325,
        -0.6294794,
        0.73848915,
        0.80721116,
        -0.2322563,
        -0.12279189,
        -0.46906823,
        0.55506015,
        0.900352,
        -0.5074155,
        0.8154652,
        -0.87834096,
        0.09191716,
        0.6795373,
        0.48813164,
        -0.23034847,
        -0.7585938,
        -0.61299556,
        -0.76122665,
        0.66523933,
        -0.86497045,
        0.1858989,
        -0.76174307,
        -0.85942245,
        -0.95200586,
        -0.76043653,
        0.156968,
        0.29970133,
        0.76804924,
        0.6041527,
        0.1883961,
        -0.38426465,
        0.24681962,
        -0.70233274,
        0.110091805,
        -0.0036290884,
        -0.53158206,
        -0.04839337,
        -0.512212,
        0.12098658,
        0.48154604,
        0.19311607,
        -0.34451908,
        -0.5659115,
        0.65210843,
        0.6716168,
        0.5853002,
        0.8923938,
        -0.57547516,
        0.0582031,
        0.7074075,
        0.5050316,
        -0.5850293,
        0.8847351,
        -0.29906672,
        -0.6688936,
        -0.27168983,
        -0.7150376,
        0.74315596,
        -0.71029663,
        0.19862401,
        0.5532887,
        0.08781755,
        -0.97491956,
        0.57617307,
        0.9060943,
        0.40983784,
        0.8000524,
        0.13350117,
        0.06435859,
        0.5382366,
        0.44156468,
        -0.48212904,
        0.66271615,
        0.694926,
        0.8130963,
        -0.21365511,
        0.4300779,
        -0.48009628,
        0.3945452,
        -0.7126391,
        -0.9035511,
        0.15476596,
        0.1131109,
        0.43416846,
        0.24537003,
        0.33795202,
        -0.3589403,
        -0.34104627,
        0.091801286,
        0.189664,
        -0.11898053,
        -0.7472584,
        0.5614877,
        -0.65059066,
        0.32761872,
        0.64308405,
        -0.8693161,
        -0.21965182,
        0.47007453,
        0.74546456,
        -0.61486405,
        0.75160265,
        -0.7368567,
        -0.9413893,
        -0.24690998,
        0.845855,
        0.4308709,
        -0.8317547,
        -0.81883526,
        -0.6195387,
        0.016919255,
        -0.788677,
        -0.46263212,
        -0.97321653,
        0.7716925,
        0.75034785,
        0.4796964,
        0.9953227,
        0.003318429,
        0.74405766,
        0.5074377,
        -0.4750647,
        0.08677423,
        -0.5930781,
        0.9718344,
        -0.26545638,
        -0.61271304,
        0.09828317,
        0.16450226,
        0.8920398,
        0.7974317,
        0.29739678,
        -0.22332704,
        0.45471466,
        -0.19192111,
        0.8448765,
        0.98401666,
        -0.7239337,
        -0.05364144,
        0.2982539,
        0.3387798,
        0.41009915,
        -0.29101723,
        0.5468185,
        0.3559023,
        0.65842247,
        0.38884342,
        0.962338,
        0.9563825,
        0.0009161234,
        -0.89370465,
        -0.454915,
        0.3744787,
        -0.16536367,
        0.28433168,
        0.2394439,
        -0.7756648,
        0.2823459,
        -0.19814241,
        0.5704546,
        0.94007826,
        -0.4406466,
        0.82532525,
        -0.38938493,
        0.16462624,
        0.6554668,
        0.66044736,
        0.43592918,
        -0.63827515,
        -0.33113593,
        0.9922106,
        -0.63353705,
        -0.76529145,
        0.4112624,
        -0.99966025,
        -0.78125834,
        0.90765214,
        0.443385,
        0.13712299,
        0.5737386,
        0.52117753,
        -0.18654025,
        -0.39474934,
        -0.57737654,
        0.4423529,
        -0.29079574,
        -0.70160055,
        -0.21336567,
        -0.20114362,
        0.14668047,
        0.3822397,
        -0.11292279,
        0.5460403,
        0.14746034,
        0.4578725,
        -0.108112216,
        0.6895058,
        -0.45455402,
        -0.8626683,
        0.63429475,
        0.34637225,
        0.8221693,
        -0.8131323,
        -0.6783042,
        0.3522817,
        -0.99027395,
        -0.10420501,
        0.15863883,
        0.5278945,
        -0.23950589,
        0.15275943,
        0.7883544,
        0.6825979,
        -0.68407583,
        0.25845993,
        -0.006158471,
        -0.48812622,
        -0.07943165,
        0.8874359,
        -0.41538328,
        0.7036793,
        0.34114516,
        -0.43801564,
        -0.24887168,
        0.21360719,
        -0.44026536,
        0.33149183,
        -0.666903,
        0.859231,
        0.8238604,
        0.12386191,
        -0.12856114,
        -0.40398926,
        0.2382015,
        0.6394675,
        -0.27431887,
        -0.7641213,
        -0.8899834,
        0.24319994,
        -0.31403202,
        -0.8394203,
        0.27287328,
        0.54631186,
        -0.7453282,
        -0.7089603,
        0.6870954,
        -0.2750954,
        -0.4840476,
        0.30251706,
        0.5127299,
        0.3291756,
        -0.20168006,
        -0.9116695,
        0.05791533,
        0.86012125,
        -0.4975564,
        -0.8137777,
        -0.99899435,
        0.3720349,
        -0.19335759,
        0.043620706,
        0.9471319,
        -0.3301584,
        0.83668256,
        -0.8537643,
        0.09363949,
        0.7065065,
        0.4864887,
        0.62579393,
        0.8152759,
        0.7987151,
        0.13306034,
        0.8930752,
        0.47751462,
        0.8349688,
        0.7268245,
        -0.2958123,
        -0.60643166,
        -0.895591,
        0.5064783,
        -0.3692996,
        0.71739554,
        0.3902408,
        -0.14686668,
        0.9490349,
        -0.12719333,
        -0.6422894,
        -0.49153417,
        0.73950505,
        0.93132305,
        -0.04912126,
        0.6172652,
        -0.20139325,
        0.093209386,
        -0.67309403,
        0.61168885,
        -0.6999028,
        -0.738297,
        0.98482203,
        -0.11334264,
        0.9868803,
        -0.43389934,
        0.7199688,
        0.67061496,
        0.8153415,
        0.00037252903,
        0.7314663,
        0.8096721,
        -0.9658437,
        -0.7800422,
        0.811785,
        0.04956305,
        0.28313434,
        -0.4209141,
        -0.06374061,
        0.9700165,
        0.4103254,
        0.81804895,
        0.7934258,
        0.21257842,
        0.9188378,
        0.96311593,
        -0.8021817,
        0.5864525,
        0.21220052,
        -0.270863,
        -0.2438854,
        0.6555793,
        -0.9376521,
        -0.108606935,
        0.24320042,
        0.8657391,
        0.25476873,
        0.8609097,
        0.45958865,
        0.110830426,
        0.6311507,
        -0.98438406
      ]
    },
    {
      "index": 7,
      "output": -0.01683169,
      "input_connections": [
        [
          0,
          0.0050843093
        ],
        [
          1,
          0.020679817
        ],
        [
          2,
          -0.010899864
        ],
        [
          3,
          0.033403065
        ],
        [
          4,
          -0.0029129607
        ],
        [
          5,
          0.0029581434
        ],
        [
          6,
          0.00025362827
        ]
      ],
      "bias": -0.021210242,
      "self_activation": 0.044791665,
      "retina_weights": [
        0.0,
        0.0,
        0.0,
        0.0,
        0.0,
        0.0,
        0.0,
        0.0,
        0.0,
        0.0,
        0.0,
        0.0,
        0.0,
        0.0,
        0.0,
        0.0,
        0.0,
        0.0,
        0.0,
        0.0,
        0.0,
        0.0,
        0.0,
        0.0,
        0.0,
        0.0,
        0.0,
        0.0,
        0.0,
        0.0,
        0.0,
        0.0,
        0.0,
        0.0,
        0.0,
        0.0,
        0.0,
        0.0,
        0.0,
        0.0,
        0.0,
        0.0,
        0.0,
        0.0,
        0.0,
        0.0,
        0.0,
        0.0,
        0.0,
        0.0,
        0.0,
        0.0,
        0.0,
        0.0,
        0.0,
        0.0,
        0.0,
        0.0,
        0.0,
        0.0,
        0.0,
        0.0,
        0.0,
        0.0,
        0.0,
        0.0,
        0.0,
        0.0,
        0.0,
        0.0,
        0.0,
        0.0,
        0.0,
        0.0,
        0.0,
        0.0,
        0.0,
        0.0,
        0.0,
        0.0,
        0.0,
        0.0,
        0.0,
        0.0,
        0.0,
        0.0,
        0.0,
        0.0,
        0.0,
        0.0,
        0.0,
        0.0,
        0.0,
        0.0,
        0.0,
        0.0,
        0.0,
        0.0,
        0.0,
        0.0,
        0.0,
        0.0,
        0.0,
        0.0,
        0.0,
        0.0,
        0.0,
        0.0,
        0.0,
        0.0,
        0.0,
        0.0,
        0.0,
        0.0,
        0.0,
        0.0,
        0.0,
        0.0,
        0.0,
        0.0,
        0.0,
        0.0,
        0.0,
        0.0,
        0.0,
        0.0,
        0.0,
        0.0,
        0.0,
        0.0,
        0.0,
        0.0,
        0.0,
        0.0,
        0.0,
        0.0,
        0.0,
        0.0,
        0.0,
        0.0,
        0.0,
        0.0,
        0.0,
        0.0,
        0.0,
        0.0,
        0.0,
        0.0,
        0.0,
        0.0,
        0.0,
        0.0,
        0.0,
        0.0,
        0.0,
        0.0,
        0.0,
        0.0,
        0.0,
        0.0,
        0.0,
        0.0,
        0.0,
        0.0,
        0.0,
        0.0,
        0.0,
        0.0,
        0.0,
        0.0,
        -0.012935084,
        0.0,
        0.0,
        0.0,
        0.0,
        0.0,
        0.0,
        0.0,
        0.0,
        0.0,
        0.0,
        0.0,
        0.0,
        0.0,
        0.0,
        0.0,
        0.0,
        0.0,
        0.0,
        0.0,
        0.0,
        0.0,
        0.0,
        0.0,
        0.0,
        0.0,
        0.0,
        0.0,
        0.0,
        0.0,
        0.0,
        0.0,
        0.0,
        0.0,
        0.0,
        0.0,
        0.0,
        0.0,
        0.0,
        0.0,
        0.0,
        0.0,
        0.0,
        0.0,
        0.0,
        0.0,
        0.0,
        0.0,
        0.0,
        0.0,
        0.0,
        0.0,
        0.0,
        0.0,
        0.0,
        0.0,
        0.0,
        0.0,
        0.0,
        0.0,
        0.0,
        0.0,
        0.0,
        0.0,
        0.0,
        0.0,
        0.0,
        0.0,
        0.0,
        0.0,
        0.0,
        0.0,
        0.0,
        0.0,
        0.0,
        0.0,
        0.0,
        0.0,
        0.0,
        0.0,
        0.0,
        0.0,
        0.0,
        0.0,
        0.0,
        0.0,
        0.0,
        0.0,
        0.0,
        0.0,
        0.0,
        0.0,
        0.0,
        0.0,
        0.0,
        0.0,
        0.0,
        0.0,
        0.0,
        0.0,
        0.0,
        0.0,
        0.0,
        0.0,
        0.0,
        0.0,
        0.0,
        0.0,
        0.0,
        0.0,
        0.0,
        0.0,
        0.0,
        0.0,
        0.0,
        0.0,
        0.0,
        0.0,
        0.0,
        0.0,
        0.0,
        0.0,
        0.0,
        0.0,
        0.0,
        0.0,
        0.0,
        0.0,
        0.0,
        0.0,
        0.0,
        0.0,
        0.0,
        0.0,
        0.0,
        0.0,
        0.0,
        0.0,
        0.0,
        0.0,
        0.0,
        0.0,
        0.0,
        0.0,
        0.0,
        0.0,
        0.0,
        0.0,
        0.0,
        0.0,
        0.0,
        0.0,
        0.0,
        0.0,
        0.0,
        0.0,
        0.0,
        0.0,
        0.0,
        0.0,
        0.0,
        0.0,
        0.0,
        0.0,
        0.0,
        0.0,
        0.0,
        0.0,
        0.0,
        0.0,
        0.0,
        0.0,
        0.0,
        0.0,
        0.0,
        0.0,
        0.0,
        0.0,
        0.0,
        0.0,
        0.0,
        0.0,
        0.0,
        0.0,
        0.0,
        0.0,
        0.0,
        0.0,
        0.0,
        0.0,
        0.0,
        0.0,
        0.0,
        0.0,
        0.0,
        0.0,
        0.0,
        0.0,
        0.0,
        0.0,
        0.0,
        0.0,
        0.0,
        0.0,
        0.0,
        0.0,
        0.0,
        0.0,
        0.0,
        0.0,
        0.0,
        0.0,
        0.0,
        0.0,
        0.0,
        0.0,
        0.0,
        0.0,
        0.0,
        0.0,
        0.0,
        0.0,
        0.0,
        0.0,
        0.0,
        0.0,
        0.0,
        0.0,
        0.0,
        0.0,
        0.0,
        0.0,
        0.0,
        0.0,
        0.0,
        0.0,
        0.0,
        0.0,
        0.0,
        0.0,
        0.0,
        0.0,
        0.0,
        0.0,
        0.0,
        0.0,
        0.0,
        0.0,
        0.0,
        0.0,
        0.0,
        0.0,
        0.0,
        0.0,
        0.0,
        0.0,
        0.0,
        0.0,
        0.0,
        0.0,
        0.0,
        0.0,
        0.0,
        0.0,
        0.0,
        0.0,
        0.0,
        0.0,
        0.0,
        0.0,
        0.0,
        0.0,
        0.0,
        0.0,
        0.0,
        0.0,
        0.0,
        0.0,
        0.0,
        0.0,
        0.0,
        0.0,
        0.0,
        0.0,
        0.0,
        0.0,
        0.0,
        0.0,
        0.0,
        0.0,
        0.0,
        0.0,
        0.0,
        0.0,
        0.0,
        0.0,
        0.0,
        0.0,
        0.0,
        0.0,
        0.0,
        0.0,
        0.0,
        0.0,
        0.0,
        0.0,
        0.0,
        0.0,
        0.0,
        0.0,
        0.0,
        0.0,
        0.0,
        0.0,
        0.0,
        0.0,
        0.0,
        0.0,
        0.0,
        0.0,
        0.0,
        0.0,
        0.0,
        0.0,
        0.0,
        0.0,
        0.0,
        0.0,
        0.0,
        0.0,
        0.0,
        0.0,
        0.0,
        0.0,
        0.0,
        0.0,
        0.0,
        0.0,
        0.0,
        0.0,
        0.0,
        0.0,
        0.0,
        0.0,
        0.0,
        0.0,
        0.0,
        0.0,
        0.0,
        0.0,
        0.0,
        0.0,
        0.0,
        0.0,
        0.0,
        0.0,
        0.0,
        0.0,
        0.0
      ]
    }
  ],
  "short_term_memory": {
    "snapshots": [
      {
        "outputs": [
          0.12908228,
          1.0,
          0.025425443,
          -0.07765997,
          0.11790387,
          0.007391741,
          1.0,
          -0.013682701
        ],
        "time_step": 1
      },
      {
        "outputs": [
          0.1317659,
          1.0,
          0.025867242,
          -0.08903169,
          0.12429624,
          0.016455298,
          1.0,
          -0.016359797
        ],
        "time_step": 2
      },
      {
        "outputs": [
          0.13230889,
          1.0,
          0.025455834,
          -0.08816739,
          0.12656054,
          0.01757368,
          1.0,
          -0.016842404
        ],
        "time_step": 3
      },
      {
        "outputs": [
          0.13242273,
          1.0,
          0.025397452,
          -0.08807564,
          0.12701851,
          0.01750563,
          1.0,
          -0.016831197
        ],
        "time_step": 4
      },
      {
        "outputs": [
          0.13245425,
          1.0,
          0.025399933,
          -0.0881576,
          0.12711452,
          0.017509107,
          1.0,
          -0.016827952
        ],
        "time_step": 5
      },
      {
        "outputs": [
          0.132463,
          1.0,
          0.025399938,
          -0.08817926,
          0.1271411,
          0.01752012,
          1.0,
          -0.01683068
        ],
        "time_step": 6
      },
      {
        "outputs": [
          0.13246517,
          1.0,
          0.025399458,
          -0.088181995,
          0.12714848,
          0.017522773,
          1.0,
          -0.016831528
        ],
        "time_step": 7
      },
      {
        "outputs": [
          0.13246569,
          1.0,
          0.025399331,
          -0.088182546,
          0.12715033,
          0.017523171,
          1.0,
          -0.016831651
        ],
        "time_step": 8
      },
      {
        "outputs": [
          0.13246582,
          1.0,
          0.025399312,
          -0.088182755,
          0.12715074,
          0.017523268,
          1.0,
          -0.016831676
        ],
        "time_step": 9
      },
      {
        "outputs": [
          0.13246587,
          1.0,
          0.025399309,
          -0.08818281,
          0.12715086,
          0.017523296,
          1.0,
          -0.016831687
        ],
        "time_step": 10
      },
      {
        "outputs": [
          0.13246587,
          1.0,
          0.025399305,
          -0.08818283,
          0.12715091,
          0.017523304,
          1.0,
          -0.016831689
        ],
        "time_step": 11
      },
      {
        "outputs": [
          0.13246587,
          1.0,
          0.025399305,
          -0.08818283,
          0.12715091,
          0.01752331,
          1.0,
          -0.01683169
        ],
        "time_step": 12
      },
      {
        "outputs": [
          0.13246587,
          1.0,
          0.025399305,
          -0.08818283,
          0.12715091,
          0.01752331,
          1.0,
          -0.01683169
        ],
        "time_step": 13
      },
      {
        "outputs": [
          0.13246587,
          1.0,
          0.025399305,
          -0.08818283,
          0.12715091,
          0.01752331,
          1.0,
          -0.01683169
        ],
        "time_step": 14
      },
      {
        "outputs": [
          0.13246587,
          1.0,
          0.025399305,
          -0.08818283,
          0.12715091,
          0.01752331,
          1.0,
          -0.01683169
        ],
        "time_step": 15
      },
      {
        "outputs": [
          0.13246587,
          1.0,
          0.025399305,
          -0.08818283,
          0.12715091,
          0.01752331,
          1.0,
          -0.01683169
        ],
        "time_step": 16
      },
      {
        "outputs": [
          0.13246587,
          1.0,
          0.025399305,
          -0.08818283,
          0.12715091,
          0.01752331,
          1.0,
          -0.01683169
        ],
        "time_step": 17
      },
      {
        "outputs": [
          0.13246587,
          1.0,
          0.025399305,
          -0.08818283,
          0.12715091,
          0.01752331,
          1.0,
          -0.01683169
        ],
        "time_step": 18
      },
      {
        "outputs": [
          0.13246587,
          1.0,
          0.025399305,
          -0.08818283,
          0.12715091,
          0.01752331,
          1.0,
          -0.01683169
        ],
        "time_step": 19
      },
      {
        "outputs": [
          0.13246587,
          1.0,
          0.025399305,
          -0.08818283,
          0.12715091,
          0.01752331,
          1.0,
          -0.01683169
        ],
        "time_step": 20
      },
      {
        "outputs": [
          0.13246587,
          1.0,
          0.025399305,
          -0.08818283,
          0.12715091,
          0.01752331,
          1.0,
          -0.01683169
        ],
        "time_step": 21
      },
      {
        "outputs": [
          0.13246587,
          1.0,
          0.025399305,
          -0.08818283,
          0.12715091,
          0.01752331,
          1.0,
          -0.01683169
        ],
        "time_step": 22
      },
      {
        "outputs": [
          0.13246587,
          1.0,
          0.025399305,
          -0.08818283,
          0.12715091,
          0.01752331,
          1.0,
          -0.01683169
        ],
        "time_step": 23
      },
      {
        "outputs": [
          0.13246587,
          1.0,
          0.025399305,
          -0.08818283,
          0.12715091,
          0.01752331,
          1.0,
          -0.01683169
        ],
        "time_step": 24
      },
      {
        "outputs": [
          0.13246587,
          1.0,
          0.025399305,
          -0.08818283,
          0.12715091,
          0.01752331,
          1.0,
          -0.01683169
        ],
        "time_step": 25
      },
      {
        "outputs": [
          0.13246587,
          1.0,
          0.025399305,
          -0.08818283,
          0.12715091,
          0.01752331,
          1.0,
          -0.01683169
        ],
        "time_step": 26
      },
      {
        "outputs": [
          0.13246587,
          1.0,
          0.025399305,
          -0.08818283,
          0.12715091,
          0.01752331,
          1.0,
          -0.01683169
        ],
        "time_step": 27
      },
      {
        "outputs": [
          0.13246587,
          1.0,
          0.025399305,
          -0.08818283,
          0.12715091,
          0.01752331,
          1.0,
          -0.01683169
        ],
        "time_step": 28
      },
      {
        "outputs": [
          0.13246587,
          1.0,
          0.025399305,
          -0.08818283,
          0.12715091,
          0.01752331,
          1.0,
          -0.01683169
        ],
        "time_step": 29
      },
      {
        "outputs": [
          0.13246587,
          1.0,
          0.025399305,
          -0.08818283,
          0.12715091,
          0.01752331,
          1.0,
          -0.01683169
        ],
        "time_step": 30
      },
      {
        "outputs": [
          0.13246587,
          1.0,
          0.025399305,
          -0.08818283,
          0.12715091,
          0.01752331,
          1.0,
          -0.01683169
        ],
        "time_step": 31
      },
      {
        "outputs": [
          0.13246587,
          1.0,
          0.025399305,
          -0.08818283,
          0.12715091,
          0.01752331,
          1.0,
          -0.01683169
        ],
        "time_step": 32
      },
      {
        "outputs": [
          0.13246587,
          1.0,
          0.025399305,
          -0.08818283,
          0.12715091,
          0.01752331,
          1.0,
          -0.01683169
        ],
        "time_step": 33
      },
      {
        "outputs": [
          0.13246587,
          1.0,
          0.025399305,
          -0.08818283,
          0.12715091,
          0.01752331,
          1.0,
          -0.01683169
        ],
        "time_step": 34
      },
      {
        "outputs": [
          0.13246587,
          1.0,
          0.025399305,
          -0.08818283,
          0.12715091,
          0.01752331,
          1.0,
          -0.01683169
        ],
        "time_step": 35
      },
      {
        "outputs": [
          0.13246587,
          1.0,
          0.025399305,
          -0.08818283,
          0.12715091,
          0.01752331,
          1.0,
          -0.01683169
        ],
        "time_step": 36
      },
      {
        "outputs": [
          0.13246587,
          1.0,
          0.025399305,
          -0.08818283,
          0.12715091,
          0.01752331,
          1.0,
          -0.01683169
        ],
        "time_step": 37
      },
      {
        "outputs": [
          0.13246587,
          1.0,
          0.025399305,
          -0.08818283,
          0.12715091,
          0.01752331,
          1.0,
          -0.01683169
        ],
        "time_step": 38
      },
      {
        "outputs": [
          0.13246587,
          1.0,
          0.025399305,
          -0.08818283,
          0.12715091,
          0.01752331,
          1.0,
          -0.01683169
        ],
        "time_step": 39
      },
      {
        "outputs": [
          0.13246587,
          1.0,
          0.025399305,
          -0.08818283,
          0.12715091,
          0.01752331,
          1.0,
          -0.01683169
        ],
        "time_step": 40
      }
    ]
  },
  "graph": {
    "nodes": [
      [
        0,
        0.04
      ],
      [
        1,
        0.0
      ],
      [
        2,
        0.04
      ],
      [
        3,
        -0.02
      ],
      [
        4,
        0.01
      ],
      [
        5,
        0.0
      ],
      [
        6,
        -0.19
      ],
      [
        7,
        -0.02
      ]
    ],
    "node_holes": [],
    "edge_property": "directed",
    "edges": [
      [
        0,
        0,
        0.27
      ],
      [
        5,
        5,
        -0.03
      ],
      [
        7,
        7,
        0.04
      ],
      [
        6,
        0,
        0.06
      ],
      [
        7,
        0,
        0.07
      ],
      [
        2,
        1,
        0.2
      ],
      [
        6,
        1,
        -0.17
      ],
      [
        1,
        2,
        -0.01
      ],
      [
        5,
        2,
        -0.03
      ],
      [
        7,
        2,
        0.05
      ],
      [
        0,
        3,
        -0.61
      ],
      [
        2,
        3,
        0.02
      ],
      [
        5,
        3,
        0.03
      ],
      [
        7,
        3,
        -0.83
      ],
      [
        0,
        4,
        0.86
      ],
      [
        0,
        5,
        -0.02
      ],
      [
        2,
        5,
        -0.03
      ],
      [
        3,
        5,
        -0.11
      ],
      [
        4,
        5,
        0.03
      ],
      [
        6,
        5,
        0.01
      ],
      [
        0,
        6,
        -0.04
      ],
      [
        1,
        6,
        -0.01
      ],
      [
        2,
        6,
        -0.31
      ],
      [
        3,
        6,
        -0.19
      ],
      [
        5,
        6,
        0.08
      ],
      [
        7,
        6,
        -0.01
      ],
      [
        0,
        7,
        0.01
      ],
      [
        1,
        7,
        0.02
      ],
      [
        2,
        7,
        -0.01
      ],
      [
        3,
        7,
        0.03
      ]
    ]
  },
  "statistics": {
    "deleted_neurons": 6,
    "deleted_weights": 7,
    "deleted_biases": 15,
    "deleted_self_activations": 2,
    "mutated_neurons": 6,
    "mutated_weights": 3,
    "mutated_biases": 8,
    "mutated_self_activations": 4,
    "fitness": 0.0,
    "variance": 0.017725863
  },
  "mutation_variance": 0.017725863,
  "mean": 0.0
}
