{
  "neurons": [
    {
      "index": 0,
      "output": -0.26511356,
      "input_connections": [
        [
          1,
          -8.21931e-10
        ],
        [
          2,
          5.8670013e-12
        ],
        [
          3,
          0.0
        ],
        [
          4,
          0.0
        ],
        [
          5,
          3.608106e-12
        ],
        [
          6,
          0.0
        ],
        [
          7,
          6.940799e-13
        ]
      ],
      "bias": 0.0,
      "self_activation": -3.343439e-11,
      "retina_weights": [
        0.51191497,
        0.4054035,
        -0.2652623,
        0.4975766,
        0.80140257,
        0.45312846,
        -0.8432524,
        0.86180854,
        0.29517353,
        0.5633347,
        -0.7186408,
        0.51758265,
        -0.32633728,
        -0.9709668,
        -0.0013684034,
        -0.5638909,
        -0.19499052,
        -0.93562484,
        -0.34331745,
        0.7520764,
        0.49687874,
        0.29598296,
        0.549582,
        0.30046976,
        0.37791646,
        0.29483235,
        -0.21707785,
        0.43965256,
        -0.22990668,
        -0.6794205,
        -0.717793,
        0.3861643,
        0.89941335,
        -0.03883469,
        0.11692488,
        -0.010742068,
        0.39649284,
        -0.032329917,
        -0.9375169,
        -0.11800134,
        -0.35701126,
        -0.08026183,
        -0.8943083,
        -0.8896234,
        -0.08073342,
        0.2716757,
        0.41539276,
        -0.5711135,
        -0.73943067,
        0.10008943,
        -0.3820762,
        0.79310584,
        -0.6394987,
        0.09016788,
        -0.39114922,
        -0.6493695,
        -0.5894994,
        -0.5658192,
        0.9644203,
        -0.028560042,
        0.504282,
        0.8758955,
        -0.3991353,
        0.8482342,
        0.43750608,
        -0.017898202,
        0.5085931,
        -0.7066605,
        0.32113254,
        0.102190375,
        0.10468733,
        0.53921986,
        -0.47608703,
        0.8444586,
        -0.657531,
        0.74443173,
        -0.9215591,
        -0.6593168,
        0.73124886,
        0.014866948,
        0.9340751,
        -0.06393874,
        0.72360754,
        0.20231092,
        -0.66070485,
        -0.90981865,
        0.26397002,
        -0.24864352,
        -0.95644426,
        0.102396846,
        -0.777668,
        -0.5567898,
        0.18598616,
        -0.16115987,
        -0.7394848,
        -0.37308162,
        -0.6526141,
        0.9153359,
        0.8758936,
        -0.30571145,
        0.727756,
        -0.69467187,
        0.8935361,
        -0.53727645,
        0.43840992,
        -0.27615947,
        0.51233745,
        0.34766233,
        0.24296677,
        -0.98626924,
        0.32439816,
        0.31786382,
        0.5279577,
        0.23349988,
        -0.88490176,
        -0.036580443,
        0.8529768,
        -0.31086868,
        -0.34082168,
        0.06668246,
        -0.0710088
      ]
    },
    {
      "index": 1,
      "output": -0.26511356,
      "input_connections": [
        [
          0,
          0.0
        ],
        [
          2,
          3.3692005e-12
        ],
        [
          3,
          0.0
        ],
        [
          4,
          0.0
        ],
        [
          5,
          -3.1489318e-11
        ],
        [
          6,
          0.0
        ],
        [
          7,
          0.0
        ]
      ],
      "bias": 0.0,
      "self_activation": 0.0,
      "retina_weights": [
        0.51191497,
        0.4054035,
        -0.2652623,
        0.4975766,
        0.80140257,
        0.45312846,
        -0.8432524,
        0.86180854,
        0.29517353,
        0.5633347,
        -0.7186408,
        0.51758265,
        -0.32633728,
        -0.9709668,
        -0.0013684034,
        -0.5638909,
        -0.19499052,
        -0.93562484,
        -0.34331745,
        0.7520764,
        0.49687874,
        0.29598296,
        0.549582,
        0.30046976,
        0.37791646,
        0.29483235,
        -0.21707785,
        0.43965256,
        -0.22990668,
        -0.6794205,
        -0.717793,
        0.3861643,
        0.89941335,
        -0.03883469,
        0.11692488,
        -0.010742068,
        0.39649284,
        -0.032329917,
        -0.9375169,
        -0.11800134,
        -0.35701126,
        -0.08026183,
        -0.8943083,
        -0.8896234,
        -0.08073342,
        0.2716757,
        0.41539276,
        -0.5711135,
        -0.73943067,
        0.10008943,
        -0.3820762,
        0.79310584,
        -0.6394987,
        0.09016788,
        -0.39114922,
        -0.6493695,
        -0.5894994,
        -0.5658192,
        0.9644203,
        -0.028560042,
        0.504282,
        0.8758955,
        -0.3991353,
        0.8482342,
        0.43750608,
        -0.017898202,
        0.5085931,
        -0.7066605,
        0.32113254,
        0.102190375,
        0.10468733,
        0.53921986,
        -0.47608703,
        0.8444586,
        -0.657531,
        0.74443173,
        -0.9215591,
        -0.6593168,
        0.73124886,
        0.014866948,
        0.9340751,
        -0.06393874,
        0.72360754,
        0.20231092,
        -0.66070485,
        -0.90981865,
        0.26397002,
        -0.24864352,
        -0.95644426,
        0.102396846,
        -0.777668,
        -0.5567898,
        0.18598616,
        -0.16115987,
        -0.7394848,
        -0.37308162,
        -0.6526141,
        0.9153359,
        0.8758936,
        -0.30571145,
        0.727756,
        -0.69467187,
        0.8935361,
        -0.53727645,
        0.43840992,
        -0.27615947,
        0.51233745,
        0.34766233,
        0.24296677,
        -0.98626924,
        0.32439816,
        0.31786382,
        0.5279577,
        0.23349988,
        -0.88490176,
        -0.036580443,
        0.8529768,
        -0.31086868,
        -0.34082168,
        0.06668246,
        -0.0710088
      ]
    },
    {
      "index": 2,
      "output": -0.26511356,
      "input_connections": [
        [
          0,
          0.0
        ],
        [
          1,
          0.0
        ],
        [
          3,
          0.0
        ],
        [
          4,
          -4.8913412e-12
        ],
        [
          5,
          -7.499292e-12
        ],
        [
          6,
          0.0
        ],
        [
          7,
          0.0
        ]
      ],
      "bias": 0.0,
      "self_activation": 0.0,
      "retina_weights": [
        0.51191497,
        0.4054035,
        -0.2652623,
        0.4975766,
        0.80140257,
        0.45312846,
        -0.8432524,
        0.86180854,
        0.29517353,
        0.5633347,
        -0.7186408,
        0.51758265,
        -0.32633728,
        -0.9709668,
        -0.0013684034,
        -0.5638909,
        -0.19499052,
        -0.93562484,
        -0.34331745,
        0.7520764,
        0.49687874,
        0.29598296,
        0.549582,
        0.30046976,
        0.37791646,
        0.29483235,
        -0.21707785,
        0.43965256,
        -0.22990668,
        -0.6794205,
        -0.717793,
        0.3861643,
        0.89941335,
        -0.03883469,
        0.11692488,
        -0.010742068,
        0.39649284,
        -0.032329917,
        -0.9375169,
        -0.11800134,
        -0.35701126,
        -0.08026183,
        -0.8943083,
        -0.8896234,
        -0.08073342,
        0.2716757,
        0.41539276,
        -0.5711135,
        -0.73943067,
        0.10008943,
        -0.3820762,
        0.79310584,
        -0.6394987,
        0.09016788,
        -0.39114922,
        -0.6493695,
        -0.5894994,
        -0.5658192,
        0.9644203,
        -0.028560042,
        0.504282,
        0.8758955,
        -0.3991353,
        0.8482342,
        0.43750608,
        -0.017898202,
        0.5085931,
        -0.7066605,
        0.32113254,
        0.102190375,
        0.10468733,
        0.53921986,
        -0.47608703,
        0.8444586,
        -0.657531,
        0.74443173,
        -0.9215591,
        -0.6593168,
        0.73124886,
        0.014866948,
        0.9340751,
        -0.06393874,
        0.72360754,
        0.20231092,
        -0.66070485,
        -0.90981865,
        0.26397002,
        -0.24864352,
        -0.95644426,
        0.102396846,
        -0.777668,
        -0.5567898,
        0.18598616,
        -0.16115987,
        -0.7394848,
        -0.37308162,
        -0.6526141,
        0.9153359,
        0.8758936,
        -0.30571145,
        0.727756,
        -0.69467187,
        0.8935361,
        -0.53727645,
        0.43840992,
        -0.27615947,
        0.51233745,
        0.34766233,
        0.24296677,
        -0.98626924,
        0.32439816,
        0.31786382,
        0.5279577,
        0.23349988,
        -0.88490176,
        -0.036580443,
        0.8529768,
        -0.31086868,
        -0.34082168,
        0.06668246,
        -0.0710088
      ]
    },
    {
      "index": 3,
      "output": -0.26511356,
      "input_connections": [
        [
          0,
          1.3059463e-11
        ],
        [
          1,
          0.0
        ],
        [
          2,
          0.0
        ],
        [
          4,
          0.0
        ],
        [
          5,
          0.0
        ],
        [
          6,
          0.0
        ],
        [
          7,
          0.0
        ]
      ],
      "bias": 0.0,
      "self_activation": 0.0,
      "retina_weights": [
        0.51191497,
        0.4054035,
        -0.2652623,
        0.4975766,
        0.80140257,
        0.45312846,
        -0.8432524,
        0.86180854,
        0.29517353,
        0.5633347,
        -0.7186408,
        0.51758265,
        -0.32633728,
        -0.9709668,
        -0.0013684034,
        -0.5638909,
        -0.19499052,
        -0.93562484,
        -0.34331745,
        0.7520764,
        0.49687874,
        0.29598296,
        0.549582,
        0.30046976,
        0.37791646,
        0.29483235,
        -0.21707785,
        0.43965256,
        -0.22990668,
        -0.6794205,
        -0.717793,
        0.3861643,
        0.89941335,
        -0.03883469,
        0.11692488,
        -0.010742068,
        0.39649284,
        -0.032329917,
        -0.9375169,
        -0.11800134,
        -0.35701126,
        -0.08026183,
        -0.8943083,
        -0.8896234,
        -0.08073342,
        0.2716757,
        0.41539276,
        -0.5711135,
        -0.73943067,
        0.10008943,
        -0.3820762,
        0.79310584,
        -0.6394987,
        0.09016788,
        -0.39114922,
        -0.6493695,
        -0.5894994,
        -0.5658192,
        0.9644203,
        -0.028560042,
        0.504282,
        0.8758955,
        -0.3991353,
        0.8482342,
        0.43750608,
        -0.017898202,
        0.5085931,
        -0.7066605,
        0.32113254,
        0.102190375,
        0.10468733,
        0.53921986,
        -0.47608703,
        0.8444586,
        -0.657531,
        0.74443173,
        -0.9215591,
        -0.6593168,
        0.73124886,
        0.014866948,
        0.9340751,
        -0.06393874,
        0.72360754,
        0.20231092,
        -0.66070485,
        -0.90981865,
        0.26397002,
        -0.24864352,
        -0.95644426,
        0.102396846,
        -0.777668,
        -0.5567898,
        0.18598616,
        -0.16115987,
        -0.7394848,
        -0.37308162,
        -0.6526141,
        0.9153359,
        0.8758936,
        -0.30571145,
        0.727756,
        -0.69467187,
        0.8935361,
        -0.53727645,
        0.43840992,
        -0.27615947,
        0.51233745,
        0.34766233,
        0.24296677,
        -0.98626924,
        0.32439816,
        0.31786382,
        0.5279577,
        0.23349988,
        -0.88490176,
        -0.036580443,
        0.8529768,
        -0.31086868,
        -0.34082168,
        0.06668246,
        -0.0710088
      ]
    },
    {
      "index": 4,
      "output": -0.26511356,
      "input_connections": [
        [
          0,
          -5.1343235e-12
        ],
        [
          1,
          2.2962452e-12
        ],
        [
          2,
          3.3730863e-12
        ],
        [
          3,
          -4.747513e-13
        ],
        [
          5,
          1.1601476e-12
        ],
        [
          6,
          5.814537e-13
        ],
        [
          7,
          2.6369274e-12
        ]
      ],
      "bias": -4.631831e-12,
      "self_activation": 0.0,
      "retina_weights": [
        0.51191497,
        0.4054035,
        -0.2652623,
        0.4975766,
        0.80140257,
        0.45312846,
        -0.8432524,
        0.86180854,
        0.29517353,
        0.5633347,
        -0.7186408,
        0.51758265,
        -0.32633728,
        -0.9709668,
        -0.0013684034,
        -0.5638909,
        -0.19499052,
        -0.93562484,
        -0.34331745,
        0.7520764,
        0.49687874,
        0.29598296,
        0.549582,
        0.30046976,
        0.37791646,
        0.29483235,
        -0.21707785,
        0.43965256,
        -0.22990668,
        -0.6794205,
        -0.717793,
        0.3861643,
        0.89941335,
        -0.03883469,
        0.11692488,
        -0.010742068,
        0.39649284,
        -0.032329917,
        -0.9375169,
        -0.11800134,
        -0.35701126,
        -0.08026183,
        -0.8943083,
        -0.8896234,
        -0.08073342,
        0.2716757,
        0.41539276,
        -0.5711135,
        -0.73943067,
        0.10008943,
        -0.3820762,
        0.79310584,
        -0.6394987,
        0.09016788,
        -0.39114922,
        -0.6493695,
        -0.5894994,
        -0.5658192,
        0.9644203,
        -0.028560042,
        0.504282,
        0.8758955,
        -0.3991353,
        0.8482342,
        0.43750608,
        -0.017898202,
        0.5085931,
        -0.7066605,
        0.32113254,
        0.102190375,
        0.10468733,
        0.53921986,
        -0.47608703,
        0.8444586,
        -0.657531,
        0.74443173,
        -0.9215591,
        -0.6593168,
        0.73124886,
        0.014866948,
        0.9340751,
        -0.06393874,
        0.72360754,
        0.20231092,
        -0.66070485,
        -0.90981865,
        0.26397002,
        -0.24864352,
        -0.95644426,
        0.102396846,
        -0.777668,
        -0.5567898,
        0.18598616,
        -0.16115987,
        -0.7394848,
        -0.37308162,
        -0.6526141,
        0.9153359,
        0.8758936,
        -0.30571145,
        0.727756,
        -0.69467187,
        0.8935361,
        -0.53727645,
        0.43840992,
        -0.27615947,
        0.51233745,
        0.34766233,
        0.24296677,
        -0.98626924,
        0.32439816,
        0.31786382,
        0.5279577,
        0.23349988,
        -0.88490176,
        -0.036580443,
        0.8529768,
        -0.31086868,
        -0.34082168,
        0.06668246,
        -0.0710088
      ]
    },
    {
      "index": 5,
      "output": -0.26511356,
      "input_connections": [
        [
          0,
          -7.98013e-12
        ],
        [
          1,
          0.0
        ],
        [
          2,
          1.4976605e-11
        ],
        [
          3,
          -4.9163734e-10
        ],
        [
          4,
          0.0
        ],
        [
          6,
          4.9208784e-12
        ],
        [
          7,
          1.4714841e-12
        ]
      ],
      "bias": -2.84173e-11,
      "self_activation": 0.0,
      "retina_weights": [
        0.51191497,
        0.4054035,
        -0.2652623,
        0.4975766,
        0.80140257,
        0.45312846,
        -0.8432524,
        0.86180854,
        0.29517353,
        0.5633347,
        -0.7186408,
        0.51758265,
        -0.32633728,
        -0.9709668,
        -0.0013684034,
        -0.5638909,
        -0.19499052,
        -0.93562484,
        -0.34331745,
        0.7520764,
        0.49687874,
        0.29598296,
        0.549582,
        0.30046976,
        0.37791646,
        0.29483235,
        -0.21707785,
        0.43965256,
        -0.22990668,
        -0.6794205,
        -0.717793,
        0.3861643,
        0.89941335,
        -0.03883469,
        0.11692488,
        -0.010742068,
        0.39649284,
        -0.032329917,
        -0.9375169,
        -0.11800134,
        -0.35701126,
        -0.08026183,
        -0.8943083,
        -0.8896234,
        -0.08073342,
        0.2716757,
        0.41539276,
        -0.5711135,
        -0.73943067,
        0.10008943,
        -0.3820762,
        0.79310584,
        -0.6394987,
        0.09016788,
        -0.39114922,
        -0.6493695,
        -0.5894994,
        -0.5658192,
        0.9644203,
        -0.028560042,
        0.504282,
        0.8758955,
        -0.3991353,
        0.8482342,
        0.43750608,
        -0.017898202,
        0.5085931,
        -0.7066605,
        0.32113254,
        0.102190375,
        0.10468733,
        0.53921986,
        -0.47608703,
        0.8444586,
        -0.657531,
        0.74443173,
        -0.9215591,
        -0.6593168,
        0.73124886,
        0.014866948,
        0.9340751,
        -0.06393874,
        0.72360754,
        0.20231092,
        -0.66070485,
        -0.90981865,
        0.26397002,
        -0.24864352,
        -0.95644426,
        0.102396846,
        -0.777668,
        -0.5567898,
        0.18598616,
        -0.16115987,
        -0.7394848,
        -0.37308162,
        -0.6526141,
        0.9153359,
        0.8758936,
        -0.30571145,
        0.727756,
        -0.69467187,
        0.8935361,
        -0.53727645,
        0.43840992,
        -0.27615947,
        0.51233745,
        0.34766233,
        0.24296677,
        -0.98626924,
        0.32439816,
        0.31786382,
        0.5279577,
        0.23349988,
        -0.88490176,
        -0.036580443,
        0.8529768,
        -0.31086868,
        -0.34082168,
        0.06668246,
        -0.0710088
      ]
    },
    {
      "index": 6,
      "output": -0.26511356,
      "input_connections": [
        [
          0,
          0.0
        ],
        [
          1,
          0.0
        ],
        [
          2,
          0.0
        ],
        [
          3,
          0.0
        ],
        [
          4,
          -9.806423e-13
        ],
        [
          5,
          -3.6773154e-12
        ],
        [
          7,
          3.7788566e-12
        ]
      ],
      "bias": 1.8281195e-13,
      "self_activation": 0.0,
      "retina_weights": [
        0.51191497,
        0.4054035,
        -0.2652623,
        0.4975766,
        0.80140257,
        0.45312846,
        -0.8432524,
        0.86180854,
        0.29517353,
        0.5633347,
        -0.7186408,
        0.51758265,
        -0.32633728,
        -0.9709668,
        -0.0013684034,
        -0.5638909,
        -0.19499052,
        -0.93562484,
        -0.34331745,
        0.7520764,
        0.49687874,
        0.29598296,
        0.549582,
        0.30046976,
        0.37791646,
        0.29483235,
        -0.21707785,
        0.43965256,
        -0.22990668,
        -0.6794205,
        -0.717793,
        0.3861643,
        0.89941335,
        -0.03883469,
        0.11692488,
        -0.010742068,
        0.39649284,
        -0.032329917,
        -0.9375169,
        -0.11800134,
        -0.35701126,
        -0.08026183,
        -0.8943083,
        -0.8896234,
        -0.08073342,
        0.2716757,
        0.41539276,
        -0.5711135,
        -0.73943067,
        0.10008943,
        -0.3820762,
        0.79310584,
        -0.6394987,
        0.09016788,
        -0.39114922,
        -0.6493695,
        -0.5894994,
        -0.5658192,
        0.9644203,
        -0.028560042,
        0.504282,
        0.8758955,
        -0.3991353,
        0.8482342,
        0.43750608,
        -0.017898202,
        0.5085931,
        -0.7066605,
        0.32113254,
        0.102190375,
        0.10468733,
        0.53921986,
        -0.47608703,
        0.8444586,
        -0.657531,
        0.74443173,
        -0.9215591,
        -0.6593168,
        0.73124886,
        0.014866948,
        0.9340751,
        -0.06393874,
        0.72360754,
        0.20231092,
        -0.66070485,
        -0.90981865,
        0.26397002,
        -0.24864352,
        -0.95644426,
        0.102396846,
        -0.777668,
        -0.5567898,
        0.18598616,
        -0.16115987,
        -0.7394848,
        -0.37308162,
        -0.6526141,
        0.9153359,
        0.8758936,
        -0.30571145,
        0.727756,
        -0.69467187,
        0.8935361,
        -0.53727645,
        0.43840992,
        -0.27615947,
        0.51233745,
        0.34766233,
        0.24296677,
        -0.98626924,
        0.32439816,
        0.31786382,
        0.5279577,
        0.23349988,
        -0.88490176,
        -0.036580443,
        0.8529768,
        -0.31086868,
        -0.34082168,
        0.06668246,
        -0.0710088
      ]
    },
    {
      "index": 7,
      "output": -0.26511356,
      "input_connections": [
        [
          0,
          -1.25227e-11
        ],
        [
          1,
          0.0
        ],
        [
          2,
          3.604611e-13
        ],
        [
          3,
          0.0
        ],
        [
          4,
          -4.1598673e-12
        ],
        [
          5,
          -3.838375e-12
        ],
        [
          6,
          -2.7701543e-12
        ]
      ],
      "bias": 0.0,
      "self_activation": 4.0983883e-12,
      "retina_weights": [
        0.51191497,
        0.4054035,
        -0.2652623,
        0.4975766,
        0.80140257,
        0.45312846,
        -0.8432524,
        0.86180854,
        0.29517353,
        0.5633347,
        -0.7186408,
        0.51758265,
        -0.32633728,
        -0.9709668,
        -0.0013684034,
        -0.5638909,
        -0.19499052,
        -0.93562484,
        -0.34331745,
        0.7520764,
        0.49687874,
        0.29598296,
        0.549582,
        0.30046976,
        0.37791646,
        0.29483235,
        -0.21707785,
        0.43965256,
        -0.22990668,
        -0.6794205,
        -0.717793,
        0.3861643,
        0.89941335,
        -0.03883469,
        0.11692488,
        -0.010742068,
        0.39649284,
        -0.032329917,
        -0.9375169,
        -0.11800134,
        -0.35701126,
        -0.08026183,
        -0.8943083,
        -0.8896234,
        -0.08073342,
        0.2716757,
        0.41539276,
        -0.5711135,
        -0.73943067,
        0.10008943,
        -0.3820762,
        0.79310584,
        -0.6394987,
        0.09016788,
        -0.39114922,
        -0.6493695,
        -0.5894994,
        -0.5658192,
        0.9644203,
        -0.028560042,
        0.504282,
        0.8758955,
        -0.3991353,
        0.8482342,
        0.43750608,
        -0.017898202,
        0.5085931,
        -0.7066605,
        0.32113254,
        0.102190375,
        0.10468733,
        0.53921986,
        -0.47608703,
        0.8444586,
        -0.657531,
        0.74443173,
        -0.9215591,
        -0.6593168,
        0.73124886,
        0.014866948,
        0.9340751,
        -0.06393874,
        0.72360754,
        0.20231092,
        -0.66070485,
        -0.90981865,
        0.26397002,
        -0.24864352,
        -0.95644426,
        0.102396846,
        -0.777668,
        -0.5567898,
        0.18598616,
        -0.16115987,
        -0.7394848,
        -0.37308162,
        -0.6526141,
        0.9153359,
        0.8758936,
        -0.30571145,
        0.727756,
        -0.69467187,
        0.8935361,
        -0.53727645,
        0.43840992,
        -0.27615947,
        0.51233745,
        0.34766233,
        0.24296677,
        -0.98626924,
        0.32439816,
        0.31786382,
        0.5279577,
        0.23349988,
        -0.88490176,
        -0.036580443,
        0.8529768,
        -0.31086868,
        -0.34082168,
        0.06668246,
        -0.0710088
      ]
    }
  ],
  "short_term_memory": {
    "snapshots": [
      {
        "outputs": [
          -0.26511356,
          -0.26511356,
          -0.26511356,
          -0.26511356,
          -0.26511356,
          -0.26511356,
          -0.26511356,
          -0.26511356
        ],
        "time_step": 1
      },
      {
        "outputs": [
          -0.26511356,
          -0.26511356,
          -0.26511356,
          -0.26511356,
          -0.26511356,
          -0.26511356,
          -0.26511356,
          -0.26511356
        ],
        "time_step": 2
      },
      {
        "outputs": [
          -0.26511356,
          -0.26511356,
          -0.26511356,
          -0.26511356,
          -0.26511356,
          -0.26511356,
          -0.26511356,
          -0.26511356
        ],
        "time_step": 3
      },
      {
        "outputs": [
          -0.26511356,
          -0.26511356,
          -0.26511356,
          -0.26511356,
          -0.26511356,
          -0.26511356,
          -0.26511356,
          -0.26511356
        ],
        "time_step": 4
      },
      {
        "outputs": [
          -0.26511356,
          -0.26511356,
          -0.26511356,
          -0.26511356,
          -0.26511356,
          -0.26511356,
          -0.26511356,
          -0.26511356
        ],
        "time_step": 5
      },
      {
        "outputs": [
          -0.26511356,
          -0.26511356,
          -0.26511356,
          -0.26511356,
          -0.26511356,
          -0.26511356,
          -0.26511356,
          -0.26511356
        ],
        "time_step": 6
      },
      {
        "outputs": [
          -0.26511356,
          -0.26511356,
          -0.26511356,
          -0.26511356,
          -0.26511356,
          -0.26511356,
          -0.26511356,
          -0.26511356
        ],
        "time_step": 7
      },
      {
        "outputs": [
          -0.26511356,
          -0.26511356,
          -0.26511356,
          -0.26511356,
          -0.26511356,
          -0.26511356,
          -0.26511356,
          -0.26511356
        ],
        "time_step": 8
      },
      {
        "outputs": [
          -0.26511356,
          -0.26511356,
          -0.26511356,
          -0.26511356,
          -0.26511356,
          -0.26511356,
          -0.26511356,
          -0.26511356
        ],
        "time_step": 9
      },
      {
        "outputs": [
          -0.26511356,
          -0.26511356,
          -0.26511356,
          -0.26511356,
          -0.26511356,
          -0.26511356,
          -0.26511356,
          -0.26511356
        ],
        "time_step": 10
      },
      {
        "outputs": [
          -0.26511356,
          -0.26511356,
          -0.26511356,
          -0.26511356,
          -0.26511356,
          -0.26511356,
          -0.26511356,
          -0.26511356
        ],
        "time_step": 11
      },
      {
        "outputs": [
          -0.26511356,
          -0.26511356,
          -0.26511356,
          -0.26511356,
          -0.26511356,
          -0.26511356,
          -0.26511356,
          -0.26511356
        ],
        "time_step": 12
      },
      {
        "outputs": [
          -0.26511356,
          -0.26511356,
          -0.26511356,
          -0.26511356,
          -0.26511356,
          -0.26511356,
          -0.26511356,
          -0.26511356
        ],
        "time_step": 13
      },
      {
        "outputs": [
          -0.26511356,
          -0.26511356,
          -0.26511356,
          -0.26511356,
          -0.26511356,
          -0.26511356,
          -0.26511356,
          -0.26511356
        ],
        "time_step": 14
      },
      {
        "outputs": [
          -0.26511356,
          -0.26511356,
          -0.26511356,
          -0.26511356,
          -0.26511356,
          -0.26511356,
          -0.26511356,
          -0.26511356
        ],
        "time_step": 15
      },
      {
        "outputs": [
          -0.26511356,
          -0.26511356,
          -0.26511356,
          -0.26511356,
          -0.26511356,
          -0.26511356,
          -0.26511356,
          -0.26511356
        ],
        "time_step": 16
      },
      {
        "outputs": [
          -0.26511356,
          -0.26511356,
          -0.26511356,
          -0.26511356,
          -0.26511356,
          -0.26511356,
          -0.26511356,
          -0.26511356
        ],
        "time_step": 17
      },
      {
        "outputs": [
          -0.26511356,
          -0.26511356,
          -0.26511356,
          -0.26511356,
          -0.26511356,
          -0.26511356,
          -0.26511356,
          -0.26511356
        ],
        "time_step": 18
      },
      {
        "outputs": [
          -0.26511356,
          -0.26511356,
          -0.26511356,
          -0.26511356,
          -0.26511356,
          -0.26511356,
          -0.26511356,
          -0.26511356
        ],
        "time_step": 19
      },
      {
        "outputs": [
          -0.26511356,
          -0.26511356,
          -0.26511356,
          -0.26511356,
          -0.26511356,
          -0.26511356,
          -0.26511356,
          -0.26511356
        ],
        "time_step": 20
      }
    ]
  },
  "graph": {
    "nodes": [
      [
        0,
        0.0
      ],
      [
        1,
        0.0
      ],
      [
        2,
        0.0
      ],
      [
        3,
        0.0
      ],
      [
        4,
        -0.0
      ],
      [
        5,
        -0.0
      ],
      [
        6,
        0.0
      ],
      [
        7,
        0.0
      ]
    ],
    "node_holes": [],
    "edge_property": "directed",
    "edges": []
  },
  "statistics": {
    "deleted_neurons": 47,
    "deleted_weights": 74,
    "deleted_biases": 110,
    "deleted_self_activations": 54,
    "mutated_neurons": 38,
    "mutated_weights": 75,
    "mutated_biases": 97,
    "mutated_self_activations": 47,
    "fitness": 0.0,
    "variance": 1.7955572e-12
  },
  "mutation_variance": 1.7955572e-12,
  "mean": 0.0
}
