{
  "neurons": [
    {
      "index": 0,
      "output": 1.0,
      "input_connections": [
        [
          1,
          0.0
        ],
        [
          2,
          0.0
        ],
        [
          3,
          0.0
        ],
        [
          4,
          0.0
        ],
        [
          5,
          0.0
        ],
        [
          6,
          0.0
        ],
        [
          7,
          0.0
        ]
      ],
      "bias": 0.0,
      "self_activation": 0.0,
      "retina_weights": [
        6.9928513,
        7.590822,
        -2.83498,
        -5.3751082,
        -1.3863697,
        -8.207805,
        -6.8178434,
        1.6062603,
        5.774624,
        6.8371124,
        -3.0627198,
        -4.821636,
        -0.73478603,
        -5.6889386,
        5.211217,
        3.4781084,
        -9.630628,
        -2.0678177,
        -7.3948956,
        1.4047966,
        -2.8914495,
        -8.012821,
        6.639429,
        8.426386,
        -1.288208,
        2.9812994,
        9.612474,
        4.430233,
        4.5400896,
        4.967269,
        2.8996363,
        5.7130375,
        -3.8267393,
        5.9172792,
        2.0204935,
        -0.5867977,
        0.665432,
        7.521782,
        -9.24225,
        8.2514,
        -8.128197,
        0.020571709,
        0.08403683,
        -3.5498042,
        -8.841076,
        9.551929,
        -7.305271,
        -5.705795,
        -3.6193342,
        -0.6721277,
        2.0559368,
        -1.7973156,
        7.7831116,
        -1.3988104,
        5.035121,
        4.294547,
        -5.487315,
        -2.7099152,
        4.41002,
        4.172186,
        3.2140293,
        4.736353,
        8.57081,
        -0.059539795,
        4.132928,
        2.961277,
        -2.6972194,
        -6.395752,
        7.26355,
        3.7930193,
        -4.9210424,
        -3.008706,
        2.0095978,
        0.20154572,
        7.758993,
        -9.692235,
        -7.629719,
        -2.9920645,
        -8.045964,
        -3.4140677,
        -2.7296348,
        -8.308196,
        4.9184265,
        4.9743233,
        -1.7299051,
        -4.8397703,
        -5.5931897,
        6.6749516,
        9.872297,
        9.030926,
        5.411352,
        -4.0284867,
        -6.8202972,
        -6.2572546,
        7.5867367,
        -0.85700893,
        1.2353649,
        6.1047325,
        -3.3846612,
        6.9317284,
        9.521246,
        -3.0238242,
        -9.911742,
        4.404217,
        7.384714,
        -4.4724817,
        -3.5911531,
        1.4735546,
        3.0638943,
        0.8080778,
        9.795605,
        -3.4688063,
        7.6797066,
        -4.6285744,
        -0.18106651,
        -8.225028,
        4.334902,
        -0.19902134,
        8.306669,
        -7.3197603,
        0.32037354,
        0.082984924,
        -2.9089088,
        -4.7491283,
        4.35223,
        2.7237787,
        7.921173,
        3.2714262,
        6.1420155,
        -2.4480047,
        -7.8378363,
        -1.7767353,
        -8.815715,
        -1.4004154,
        1.5531244,
        -9.593692,
        4.8457537,
        -2.260138,
        5.5946054,
        2.3531208,
        -9.281389,
        4.524335,
        -9.889522,
        -7.760091,
        -8.135049,
        -5.601351,
        6.866995,
        9.851885,
        -0.05079651,
        5.3367176,
        4.976267,
        8.771412,
        7.763836,
        -6.5305586,
        3.7843952,
        3.816432,
        0.8493986,
        1.2964497,
        3.659295,
        -4.4599075,
        -3.873262,
        -9.127719,
        0.20574665,
        7.126522,
        -0.97562027,
        -7.799492,
        -5.205545,
        3.6243238,
        -6.6990995,
        9.57399,
        3.999261,
        -7.058854,
        7.945833,
        -8.240506,
        2.0477524,
        -1.4999809,
        1.8681583,
        -1.3293095,
        -8.945281,
        -3.6199589,
        -7.8973293,
        3.3307514,
        6.8620453,
        7.2815247,
        8.385496,
        9.321472,
        3.419176,
        5.189575,
        0.0052366257,
        -5.5454965,
        4.933344,
        -1.9465609,
        5.4858036,
        -2.5709195,
        -3.1808896,
        7.8225746,
        -7.2164106,
        -5.7528515,
        -8.513174,
        -1.3201923,
        -6.3904066,
        6.479664,
        -1.0208693,
        7.2782993,
        -1.1643524,
        1.6513433,
        -3.3248444,
        7.3785515,
        -6.401722,
        9.710676,
        -3.8565702,
        1.8381491,
        -6.714649,
        -8.503344,
        -9.162833,
        2.7756367,
        5.703847,
        8.612577,
        1.9893847,
        -0.82519245,
        2.6611004,
        -5.1463337,
        -5.5168242,
        4.101697,
        -0.1317854,
        4.71187,
        -7.4402523,
        9.620771,
        -4.812321,
        -7.119341,
        1.7527733,
        -2.0706906,
        -2.237598,
        -5.3686185,
        -8.086493,
        3.5979567,
        -7.7831907,
        9.76376,
        -3.800611,
        -4.9742813,
        1.3520899,
        0.9315357,
        8.894697,
        -5.1344795,
        -9.5422,
        8.189659,
        -1.9304123,
        1.9166031,
        -0.8879204,
        -6.108455,
        6.986517,
        -2.9547615,
        3.636674,
        5.825779,
        5.7689495,
        2.5731792,
        -1.7022266,
        5.945136,
        4.7428837,
        -1.4878883,
        7.148506,
        -6.772995,
        7.244339,
        2.0909252,
        -4.863636,
        3.3308544,
        1.0005388,
        -3.3889003,
        9.422991,
        2.4885187,
        6.0676193,
        0.28181458,
        5.4267235,
        5.1835194,
        -1.6254635,
        5.7067432,
        -5.1997585,
        8.889065,
        -4.849767,
        3.9622774,
        -1.0087385,
        2.6815405,
        -2.048315,
        4.5977173,
        2.0730438,
        -7.1520805,
        -4.10078,
        0.06307697,
        -9.950371,
        1.6930237,
        -1.1171885,
        6.5283203,
        -4.1872377,
        -4.414875,
        9.281826,
        -3.3987422,
        -3.2555695,
        -3.3452053,
        5.486988,
        -6.020982,
        1.380311,
        2.861868,
        5.4753466,
        -5.5379386,
        -3.0968637,
        -2.3652616,
        1.5659294,
        4.679676,
        6.3721523,
        -2.757134,
        -5.067107,
        4.3479385,
        -5.4684777,
        -3.1164737,
        5.6821384,
        -8.758356,
        8.9702,
        -8.519149,
        6.9903526,
        -9.129207,
        7.4035835,
        -1.1440935,
        2.5613728,
        -0.72986317,
        -4.2951603,
        -3.032269,
        0.5537834,
        5.171406,
        -2.4639716,
        6.937109,
        -9.625918,
        -1.2669506,
        6.6233788,
        1.9475803,
        -7.4378366,
        9.6435795,
        -7.9703903,
        2.760686,
        -4.651148,
        -1.8959894,
        2.474123,
        9.4471,
        5.0193996,
        -3.9601178,
        2.528924,
        -4.1280646,
        -8.160896,
        5.1134863,
        2.1476707,
        -6.1174555,
        4.8946514,
        -6.068482,
        3.7627974,
        9.308414,
        2.206026,
        8.827877,
        5.657467,
        -9.363523,
        6.6169014,
        7.9877586,
        8.664965,
        6.000271,
        8.415985,
        -4.515905,
        4.1772785,
        -1.8778315,
        -1.9492903,
        3.2274904,
        -3.21598,
        5.6540623,
        8.947546,
        -9.067717,
        -5.6899924,
        -7.1585035,
        8.592316,
        -4.599275,
        -1.6046019,
        -3.6589308,
        8.702116,
        -5.498163,
        -7.971239,
        -3.1251116,
        -2.8119917,
        -0.7895603,
        -0.56944084,
        5.4718056,
        8.442211,
        -4.869475,
        3.7930098,
        9.943804,
        -4.35224,
        1.3923655,
        8.995806,
        -4.2532296,
        6.3436737,
        0.8281698,
        7.005686,
        -2.7796693,
        4.7429647,
        -9.968448,
        7.986603,
        -1.5886898,
        -3.526134,
        -4.0723486,
        7.337023,
        8.672642,
        -3.0619426,
        2.7397976,
        6.3587666,
        -1.4468327,
        -7.8361034,
        1.9006071,
        -7.7713633,
        7.8611183,
        -8.259851,
        -0.55783176,
        7.780573,
        0.8640871,
        -4.291081,
        -7.8010244,
        6.03211,
        -7.2508764,
        -5.477671,
        -2.3968234,
        8.505959,
        -9.150068,
        5.4947586,
        -0.89980507,
        -8.509905,
        1.7184534,
        -3.6025782,
        -3.9023466,
        3.5180244,
        -5.5754943,
        -7.280323,
        7.119812,
        -4.508886,
        4.5723543,
        2.5333395,
        9.066257,
        -4.1054506,
        -7.804446,
        7.5662174,
        -1.6796608,
        3.730651,
        -5.7719536,
        -1.7783298,
        -6.014597,
        1.1210356,
        5.192649,
        9.987261,
        5.048517,
        7.0687294,
        -0.89945984,
        5.728773,
        5.12356,
        -4.8927803,
        2.6310072,
        6.242859,
        -3.3126516,
        8.010918,
        -1.5134306,
        0.12062931,
        3.1016388,
        0.7782564,
        9.881582,
        8.701166,
        1.5291061,
        8.842163,
        -5.539939,
        4.5424023,
        -4.5809,
        -7.7875376,
        8.840755,
        -0.02581501,
        6.291567,
        -1.9527645,
        8.763809,
        0.44895267,
        -4.968087,
        1.9925747,
        5.3919687,
        9.992285,
        1.8320522,
        -7.3507805,
        -4.3897624,
        4.966255,
        -1.9793978,
        -7.0718355,
        0.053726196,
        -3.2733436,
        9.358648,
        4.3622103,
        -2.592506,
        -7.232032,
        3.3465662,
        2.9429808,
        8.288395,
        -2.5468154,
        -0.68881226,
        -8.300197,
        9.874235,
        2.070037,
        1.6899958,
        -7.7164793,
        -0.76632404,
        9.536184,
        -5.7819767,
        -8.970804,
        -5.633995,
        4.360284,
        7.6705494,
        8.217646,
        -7.838456,
        7.2407093,
        0.56847954,
        -1.3238068,
        -6.1414595,
        1.1591997,
        2.5116453,
        7.137327,
        6.5331707,
        -5.9811945,
        6.035452,
        -3.7326188,
        8.979561,
        -4.157271,
        3.777112,
        -3.57974,
        -0.43667507,
        5.4688873,
        -9.0569515,
        9.910755,
        6.3254128,
        8.912567,
        -1.6056337,
        -8.124921,
        -9.956994,
        -7.1280384,
        1.2587509,
        -0.44157887,
        -4.87482,
        5.170562,
        0.6588898,
        -3.8657565,
        -7.9435606,
        -0.05706978,
        7.266264,
        -7.591996,
        -3.9834328,
        2.6534424,
        0.4731617,
        -7.628441,
        -7.1591063,
        6.3591213,
        -4.1293283,
        6.161871,
        4.742688,
        1.057724,
        0.4483261,
        -5.1977773,
        -9.49927,
        0.6030617,
        -8.893835,
        7.1184196,
        -2.4406424,
        -5.017981,
        -3.8416786,
        -4.5630426,
        7.3496,
        9.2325115,
        -1.0936184,
        4.9821005,
        9.053936,
        -1.3684387,
        4.450794,
        8.842079,
        7.701084,
        -7.1028423,
        9.690214,
        1.539341,
        -1.6237469,
        -4.491846,
        -9.188428,
        -3.9971204,
        1.3528166,
        7.695057,
        2.044982,
        -0.8921976,
        -8.0306835,
        -3.5974665,
        -4.7181983,
        7.0058956,
        2.0656881,
        8.773813,
        2.4016705,
        1.5071716,
        9.203514,
        8.770924,
        -5.460324,
        8.891903,
        6.8116093,
        -1.1699553,
        6.9201584,
        -2.6968617,
        -4.677107,
        7.809948,
        -9.82965,
        6.8960667,
        2.625865,
        -2.442781,
        -2.861683,
        -0.67797565,
        -2.8045506,
        0.2204647,
        -7.2430058,
        -5.592801,
        -1.9730701,
        6.660433,
        6.582037,
        -6.6846437,
        -0.8558645,
        0.8931074,
        0.7726326,
        4.9799576,
        -3.5093517,
        8.958044,
        7.554188,
        0.05488968,
        -5.5350466,
        9.406139,
        6.6467495,
        3.4469042,
        -7.076537,
        6.631901,
        5.998637,
        5.5844517,
        6.331249,
        -2.5491328,
        -7.9301596,
        9.3106365,
        9.432926,
        5.7936735,
        -1.5237303,
        -0.86122894,
        -4.067311,
        -5.7341666,
        -2.9307027,
        1.9927607,
        5.543646,
        -6.245558,
        5.3365746,
        0.077711105,
        -6.1732073,
        3.8506327,
        8.297855,
        -8.777091,
        6.7596645,
        9.791199,
        -2.3646536,
        4.4563303,
        3.931652,
        9.5328045,
        2.0802727,
        -3.815865,
        -3.7573452,
        -7.6049204,
        -2.1059074,
        -0.31350327,
        1.6847506,
        -1.0855598,
        -4.3453593,
        6.9268246,
        4.1903677,
        6.9165897,
        -4.484696,
        -8.081055,
        -1.6668339,
        -0.34255886,
        -5.74202,
        -3.582086,
        -5.800595,
        6.2510605,
        -4.0060396,
        -1.0333462,
        2.5696936,
        -1.3833799,
        -4.7488995,
        2.525526,
        4.3175926,
        -6.5486574,
        3.9919748,
        4.245247,
        -2.192029,
        -9.839503,
        -7.050562,
        3.888258,
        -3.7182755,
        5.2505465,
        5.828597,
        -1.0450907,
        -0.23198795,
        0.8621845,
        -8.635833,
        6.0462,
        -5.289199,
        5.34126,
        5.448617,
        8.493706,
        4.914938,
        -3.4950538,
        8.873293,
        0.48405552,
        7.385906,
        7.5563335,
        5.324892,
        6.9849987,
        -0.012420654,
        -3.3788128,
        9.879002,
        5.7228155,
        6.452667,
        -5.0506563,
        1.5757313,
        8.188595,
        -7.9586763,
        9.152109,
        -3.8936968,
        2.6298866,
        4.440137,
        -9.492967,
        3.7575636,
        1.707758,
        7.113632,
        4.9032364,
        3.8835917,
        4.416975,
        8.399397,
        -0.16658211,
        0.597538,
        -3.6376305,
        -5.604629,
        -5.1241584,
        -2.5152512,
        6.098776,
        4.452986,
        3.777648,
        7.604639,
        9.76256,
        5.317499,
        6.6741943,
        -8.068271,
        -3.3521552,
        0.19576931,
        -8.919849,
        -0.43530655,
        -8.3180065,
        9.118572,
        0.24776554,
        -4.2642303,
        1.7768707,
        4.57333,
        7.3761997,
        -1.7463703,
        5.5576773,
        -6.6662836,
        -1.7561646,
        0.39626217,
        -5.542626,
        2.1683369,
        9.947935,
        -8.567006,
        9.8316345,
        -7.034313,
        -3.589055,
        0.64046764,
        3.5836182,
        6.1739445,
        -8.552747,
        4.979247,
        7.27112,
        2.603241,
        6.036274,
        8.734858,
        -9.610865,
        -9.204275,
        4.8871174,
        9.767437,
        3.4679995,
        -9.528186,
        2.6116982,
        8.980728,
        1.2839565,
        7.2830257,
        3.3208427,
        2.9044476,
        -1.8012018,
        4.933323,
        5.9413376,
        -0.7902975,
        -7.9661007,
        0.9889116,
        -6.3520594,
        0.38781548,
        0.66875076,
        7.761421,
        -6.843128,
        -9.293863,
        8.409456,
        3.0902662,
        -5.508024,
        -8.345348,
        5.8175344,
        -1.4938421,
        -2.9630322,
        0.66506004,
        7.6706085,
        7.442793,
        -2.9676576,
        3.3786287,
        -0.42275333,
        -4.060008,
        -8.155799,
        7.85153,
        -4.7663517,
        9.69186,
        5.4598207,
        -1.6867723,
        9.749599,
        9.484573,
        9.179777,
        -0.9193554,
        2.3915253,
        4.0389385,
        0.05316353,
        3.1513777,
        5.567855,
        6.759493,
        9.790146,
        1.2561522,
        -4.1517467,
        6.29879,
        -8.980009,
        -8.988111,
        7.672228,
        -5.8206863,
        2.1284428,
        3.4236917,
        -6.2204022,
        -5.658793,
        6.930895,
        4.3113766,
        -5.38717,
        2.3996792,
        -4.6498985,
        -6.182079,
        -0.48477554,
        8.197166,
        3.876051,
        5.1809587,
        1.6224566,
        -5.841765,
        6.211073,
        7.045189,
        -6.65168,
        4.623164,
        1.5807972,
        -9.100137,
        9.593622,
        1.2670193,
        5.0107136,
        -1.8052645,
        -0.69154453,
        -7.2107096,
        6.026684,
        1.5125599,
        -3.3570786,
        -5.5039687,
        6.401596,
        -2.622542,
        9.327421,
        2.3359356,
        1.9573221,
        1.9858637,
        -0.7527962,
        5.726449,
        -5.506675,
        -4.459879,
        -1.5889969,
        7.7190514,
        -4.2493815,
        -7.496125,
        1.5587034,
        8.275423,
        5.2358646,
        -1.8969765,
        -6.842596,
        4.133605,
        -7.857229,
        -4.7791333,
        -9.770519,
        4.653941,
        -3.6078758,
        7.8015194,
        5.6966896,
        5.680565,
        5.8783455,
        1.9312563,
        1.7326632,
        1.1742105,
        1.0867777,
        8.640842,
        -7.4971695,
        -1.9170017,
        8.988621,
        -5.4403133,
        8.296581,
        -8.109347,
        2.1875992,
        3.7073746,
        1.9905605,
        -5.08728,
        2.8990784,
        1.4859734,
        1.8126955,
        -4.4716043,
        4.7763023,
        8.028919,
        6.645998,
        -7.620742,
        -1.5047779,
        -1.4743128,
        2.008749,
        6.295883,
        9.981009,
        -7.73936,
        -5.7960267,
        -1.8371172,
        -9.300544,
        8.946281,
        0.7321062,
        0.40793514,
        -5.9885592,
        -1.0825605,
        -1.0815945,
        4.036628,
        -0.10874939,
        1.8375053,
        7.456785,
        8.269629,
        0.27911758,
        2.0460424,
        -2.4527183,
        5.5059566,
        -4.763748,
        1.666812,
        -8.4022875,
        -5.7300277,
        -4.3058486,
        -8.021417,
        -9.787083,
        -9.135842,
        0.7458391,
        -9.669642,
        9.472382,
        0.23085499,
        -5.415141,
        -7.146058,
        -6.109342,
        5.527026,
        2.292162,
        6.951847,
        -1.7674799,
        2.775155,
        -1.9493456,
        1.7036781,
        0.4279623,
        6.377178,
        -5.89271,
        2.8335037,
        -5.6162925,
        -4.6535177,
        2.8076944,
        9.727871,
        9.898304,
        -2.104453,
        -2.1214046,
        2.4932518,
        8.752089,
        6.539671,
        -6.0940404,
        8.091452,
        9.276825,
        -6.2717676,
        -8.190064,
        9.491526,
        4.4835863,
        5.1937046,
        -1.573967,
        -7.4336023,
        9.32733,
        -1.6321554,
        1.2258472,
        -4.892778,
        1.425313,
        2.9110136,
        -1.4485111,
        -4.374003,
        8.361811,
        -3.687138,
        2.9281225,
        -1.7714872,
        -5.9539075,
        9.557571,
        -5.7987638,
        3.309001,
        -3.4052749,
        6.6287556,
        9.917479,
        -3.5424418,
        8.582659,
        4.871258,
        3.5639725,
        -2.4963846,
        -3.6787982,
        2.6410923,
        9.073416,
        1.3015547,
        0.98342514,
        -3.5333438,
        1.6516867,
        -4.7607512,
        5.373019,
        8.591351,
        -2.1093526,
        -1.9211168,
        -7.0003242,
        1.4442883,
        -7.114522,
        -4.88671,
        -7.9147453,
        7.7713966,
        -3.3712716,
        1.1341867,
        9.514336,
        -7.410886,
        -1.348588,
        6.866394,
        -5.2077527,
        3.3301601,
        8.874155,
        9.883577,
        -4.214222,
        6.1240826,
        -8.650734,
        -1.8970127,
        -8.150551,
        -6.155395,
        -7.527072,
        1.7351141,
        -6.472871,
        6.425314,
        5.1763506,
        8.179487,
        3.6274137,
        -6.1645575,
        4.2227135,
        0.4574194,
        -3.0073566,
        6.8996754,
        -3.2141562,
        7.700325,
        -1.0462017,
        4.2542543,
        8.784243,
        1.0620346,
        9.717117,
        8.991409,
        -1.602294,
        -4.0117307,
        8.900095,
        5.078518,
        6.208807,
        4.646715,
        -2.4924555,
        -7.4775333,
        3.8886747,
        8.275496,
        -5.3322597,
        -4.0819855,
        -4.9656696,
        4.8221245,
        1.413311,
        -1.3881607,
        6.02503,
        3.2275972,
        -0.6423683,
        -6.6984386,
        5.7934847,
        0.25480175,
        5.6513157,
        6.2099476,
        -3.3839078,
        -5.678684,
        -9.163711,
        -8.03878,
        -8.808517,
        1.2196646,
        -8.091027,
        5.9464617,
        -9.451327,
        -8.880798,
        -5.587792,
        3.4523668,
        -1.5479631,
        2.4257126,
        -4.151203,
        -5.348086,
        -9.992237,
        2.3237715,
        -2.6003332,
        -8.060598,
        9.212936,
        -5.8038254,
        9.855377,
        9.917805,
        3.3630428,
        -0.7447214,
        7.2467747,
        1.9590225,
        -6.4492083,
        -3.8425965,
        8.833706,
        0.32409286,
        6.325388,
        -7.4162073,
        -4.51786,
        -4.396064,
        0.04502201,
        9.777399,
        -5.0753493,
        -1.0677662,
        2.4697742,
        4.820033,
        -3.087966,
        7.7042885,
        -7.6490707,
        1.8902626,
        -5.1171536,
        -3.2627745,
        7.514311,
        -3.8291283,
        6.004114,
        -7.0330715,
        -4.1638966,
        6.0235443,
        7.103319,
        -4.900076,
        -5.793726,
        5.258569,
        -3.2340689,
        -8.708215,
        -6.9253635,
        6.2998714,
        -8.443853,
        -1.7096415,
        -3.7550707,
        -7.8855705,
        0.9855375,
        -7.0121546,
        0.13359642,
        -1.148633,
        -1.9644661,
        6.9508514,
        -2.2702184,
        -6.167204,
        5.002157,
        -4.989235,
        -5.350997,
        0.2880516,
        -7.7532578,
        -6.5800495,
        1.9188461,
        -0.034317017,
        5.906698,
        4.839016,
        -1.3573904,
        9.413223,
        -2.3742404,
        -7.033725,
        2.852069,
        -4.3970747,
        3.8132515,
        2.558075,
        5.5540457,
        -2.030641,
        2.3638783,
        1.5508614,
        -8.13534,
        -7.9510403,
        -1.0710688,
        -9.902694,
        -5.548615,
        -2.9562087,
        9.813219,
        9.727728,
        6.1696053,
        -2.8739185,
        4.7389116,
        3.9816275,
        7.657194,
        -5.3979535,
        2.1384058,
        -4.201216,
        9.696255,
        -2.9291983,
        -1.3262215,
        7.6659355,
        -3.3497305,
        5.4982634,
        8.861078,
        3.4842005,
        9.262604,
        -4.5516176,
        9.502563,
        6.165062,
        7.7285156,
        2.4314156,
        1.0938606,
        -0.93580437,
        1.8755808,
        4.2594824,
        2.6989326,
        3.1664743,
        0.5801878,
        2.0643578,
        2.151884,
        -2.1476808,
        9.575491,
        -1.6484089,
        9.009401,
        -7.496195,
        -8.648682,
        3.2844505,
        -7.907979,
        6.86104,
        -6.054394,
        -9.805727,
        -0.2028408,
        -8.732877,
        9.189373,
        -3.1497402,
        -2.3608985,
        -5.054559,
        1.8059435,
        7.4610424,
        -9.785096,
        -1.3575163,
        7.541792,
        5.240161,
        -4.347276,
        -9.601514,
        -2.2532763,
        4.154168,
        1.3766041,
        -1.0767498,
        4.6384754,
        -2.3917737,
        -0.6242008,
        -3.6020322,
        -9.93722,
        -9.913783,
        -9.896523,
        -5.786001,
        5.010421,
        3.7042437,
        -3.2361693,
        -8.780727,
        2.558941,
        -0.02947712,
        1.0465374,
        5.027382,
        3.0547132,
        -2.142488,
        -4.160783,
        5.0919476,
        1.9135513,
        2.8069458,
        -4.0694566,
        -4.0004344,
        -5.190162,
        -9.624741,
        -1.142623,
        0.8420906,
        -3.5621376,
        -5.309381,
        -3.6551995,
        9.952112,
        2.8449306,
        -3.3254046,
        -5.361242,
        6.565052,
        -6.2694044,
        9.735636,
        -3.0972428,
        4.1472616,
        8.99202,
        6.569723,
        -4.3328185,
        1.6622553,
        -2.6998634,
        6.706753,
        0.091947556,
        6.531975,
        9.841782,
        -6.6211987,
        3.8470259,
        -7.789647,
        -4.7920246,
        -4.5291085,
        1.1370459,
        9.479031,
        -8.660526,
        -0.33028507,
        0.1578722,
        1.6252937,
        -8.983275,
        8.074865,
        1.0111799,
        -6.3340635,
        9.442564,
        7.295124,
        5.0831146,
        2.9824057,
        2.2596464,
        4.3583336,
        -9.83036,
        2.9510775,
        0.32953358,
        -8.586664,
        9.360014,
        9.774267,
        -5.639908,
        7.045166,
        0.5807123,
        3.8858328,
        -8.359577,
        0.3600254,
        -1.1554518,
        -3.7536306,
        -7.2035284,
        -5.5348105,
        -4.9957747,
        7.706066,
        -4.6829505,
        2.2973194,
        -9.568448,
        -4.7786136,
        2.455801,
        -5.4183264,
        2.0314445,
        9.239588,
        1.6654787,
        -1.6144867,
        -8.62394,
        -7.5054617,
        1.9947824,
        -6.107659,
        -6.504032,
        9.504236,
        -6.7075205,
        -6.653228,
        1.5505209,
        7.592308,
        -0.8826227,
        -7.3596067,
        -3.0815334,
        -5.221946,
        -3.2785172,
        -1.4329805,
        -6.7114086,
        5.662181,
        -7.0286674,
        -9.038134,
        -6.7937326,
        -2.4115386,
        -9.803686,
        9.262476,
        -4.4214673,
        -9.535327,
        2.9581585,
        8.014824,
        -0.19325447,
        -4.2293615,
        1.389471,
        8.556095,
        -4.009239,
        -9.904051,
        -1.3930197,
        6.2723255,
        8.227755,
        -2.3333945,
        2.9989395,
        3.9542446,
        6.8894215,
        -5.71572,
        0.021205902,
        9.163355,
        9.23049,
        -0.6117554,
        -1.244072,
        -8.348877,
        9.0390415,
        -3.4547658,
        8.127947,
        4.619499,
        8.988911,
        -4.5707293,
        -6.6165133,
        9.184748,
        -7.125346,
        -5.5433555,
        -3.7763686,
        -6.215398,
        7.9710617,
        -3.7710042,
        1.1342468,
        -0.12020779,
        -2.9163523,
        -5.2328057,
        -6.6313953,
        2.1131668,
        1.7160501,
        -1.4830961,
        3.0505238,
        -0.019943237,
        2.1242151,
        -0.395607,
        2.5652752,
        -7.160077,
        5.262388,
        7.0412025,
        2.3044024,
        6.364174,
        -3.9919753,
        9.459135,
        -0.49339008,
        0.25315666,
        6.4489307,
        -9.5582695,
        2.956811,
        4.260663,
        9.737759,
        -7.4983597,
        2.330881,
        4.862853,
        6.1861324,
        -6.846239,
        -3.9528031,
        4.766322,
        -9.1598625,
        3.2271662,
        3.5592375,
        -2.2901096,
        -3.9603133,
        -9.5776415,
        7.545515,
        5.0594063,
        1.9417753,
        6.6136894,
        9.880451,
        1.9138584,
        -9.947276,
        -4.831702,
        -8.922815,
        -1.3775463,
        3.9460812,
        8.926231,
        -6.3271494,
        4.7890816,
        7.7979603,
        7.046524,
        2.4798594,
        -0.045740128,
        9.415226,
        3.8604918,
        2.216052,
        9.180189,
        6.700878,
        4.680911,
        -0.6194153,
        4.4436064,
        -6.55128,
        -7.39624,
        -4.037902,
        0.8846817,
        -9.072628,
        4.1447935,
        1.3166533,
        -1.1782665,
        3.0636082,
        7.021633,
        6.916752,
        5.68155,
        -9.756848,
        -8.553073,
        -6.038284,
        -4.766969,
        7.106209,
        -5.988745,
        -0.5944462,
        -1.1499872,
        2.3619375,
        4.429265,
        3.6057148,
        9.479582,
        3.8102255,
        -3.936264,
        -5.1735873,
        -9.911966,
        4.004363,
        -8.027525,
        9.599049,
        -9.902961,
        1.528739,
        4.25733,
        -2.7989287,
        6.3919277,
        -7.573514,
        1.6136637,
        8.790459,
        -8.356359,
        -6.3474226,
        0.47625446,
        2.7591076,
        -2.5407763,
        -6.0787673,
        -4.611394,
        -7.536995,
        -2.8471918,
        -3.9453907,
        -5.7676406,
        -9.687462,
        -3.3556504,
        3.9058437,
        -2.4742618,
        -7.437188,
        8.914339,
        2.533001,
        -3.1926007,
        -7.069788,
        -2.7850695,
        3.7276258,
        1.7136469,
        -8.185951,
        0.85142994,
        -0.37006283,
        -5.784368,
        5.412511,
        -8.422418,
        -2.8815527,
        3.6815653,
        9.434467,
        -1.5872974,
        4.793659,
        1.1032972,
        -0.1688757,
        -8.100696,
        8.625111,
        -1.0223074,
        -1.2281933,
        -8.619325,
        5.748624,
        -0.47314835,
        2.41084,
        9.933504,
        -5.23426,
        2.502657,
        9.016663,
        -6.082575,
        6.55509,
        8.157112,
        1.5034637,
        -5.2717586,
        7.6432743,
        -7.77297,
        -9.844003,
        8.16905,
        2.6094255,
        4.617139,
        5.373024,
        -7.7387667,
        -1.9764557,
        1.1397781,
        7.1598625,
        -2.476119,
        2.3122444,
        2.1264372,
        -8.088653,
        -7.083685,
        -1.5209951,
        2.812663,
        -8.30585,
        -2.466065,
        -3.1280632,
        0.4625044,
        8.774807,
        6.111828,
        -0.9700031,
        9.088053,
        0.32384014,
        -2.0380416,
        3.2308064,
        -1.7857828,
        -1.2560768,
        -6.3721848,
        7.4664536,
        7.653017,
        0.9219351,
        -9.430687,
        -1.5920849,
        -9.022033,
        -3.891849,
        5.4041996,
        -4.7204514,
        2.5339737,
        4.491516,
        8.769535,
        6.0177536,
        -4.4307942,
        8.765957,
        -4.5264573,
        -6.682541,
        8.795763,
        2.0527134,
        -9.885235,
        6.5818825,
        6.0138664,
        5.852212,
        -6.4062376,
        -0.4551525,
        6.430603,
        9.5637665,
        7.083294,
        1.1491547,
        7.8825035,
        8.968069,
        5.515625,
        1.9972363,
        -3.4134216,
        1.6129627,
        6.8546143,
        1.7314157,
        -5.8084984,
        8.628593,
        -8.092351,
        -8.310372,
        4.0195904,
        -6.786518,
        -5.7498784,
        4.389385,
        -5.167827,
        -4.68986,
        -6.1578937,
        9.765034,
        -2.2327485,
        7.8096104,
        3.5677395,
        -0.35891914,
        -9.60735,
        0.5629864,
        8.998138,
        -0.13067627,
        -2.5191803,
        -0.5247612,
        7.9828568,
        4.7482576,
        -0.004026413,
        -3.0637498,
        4.9807158,
        0.2830782,
        5.7286615,
        7.516327,
        -7.5914,
        7.4420033,
        -2.744183,
        0.92692757,
        -5.4146547,
        0.3655634,
        2.7600536,
        -6.7110777,
        4.3202295,
        1.5919218,
        5.3138437,
        -8.069162,
        -0.71373844,
        0.41809464,
        4.4433985,
        9.960064,
        -6.6000957,
        -5.0204964,
        0.9278164,
        7.398714,
        -9.714133,
        -3.3232517,
        -7.907135,
        3.5931292,
        -3.6508174,
        -1.2569609,
        4.766308,
        4.7443686,
        -9.237175,
        -8.563547,
        -0.57459736,
        -8.695726,
        2.273775,
        -7.897517,
        -9.721767,
        1.0590277,
        -3.3435817,
        -3.249442,
        1.443161,
        7.505621,
        7.8118534,
        -3.1506104,
        -4.8995037,
        -5.0851316,
        2.8269873,
        -1.0373755,
        8.032431,
        -9.434123,
        9.870676,
        -8.960263,
        -3.7960978,
        -0.8575716,
        -6.830389,
        9.245075,
        -4.5186253,
        8.050451,
        -8.5356,
        8.965689,
        3.996068,
        -9.805109,
        4.7185574,
        -9.958918,
        2.5411358,
        0.059165,
        0.17042732,
        4.5757523,
        3.7851944,
        3.1338396,
        -0.6548996,
        -0.67699146,
        4.094802,
        4.7899666,
        0.56753254,
        9.826555,
        2.5981913,
        2.0788898,
        6.567192,
        -8.345234,
        -3.7462754,
        -1.411788,
        -9.484379,
        8.503698,
        3.679041,
        9.8650875,
        5.7210846,
        6.4600773,
        -4.157364,
        -7.680602,
        -5.0557036,
        -3.5054464,
        2.4920597,
        -3.6367054,
        5.024742,
        1.1498222,
        5.30307,
        3.294798,
        0.7314911,
        -1.4379015,
        -0.7740755,
        8.722836,
        -9.538302,
        6.16243,
        7.64851,
        0.7043419,
        -1.9391527,
        3.4202633,
        -7.301881,
        8.028358,
        -4.5955153,
        2.0373163,
        -6.34875,
        -6.3078566,
        -1.0751266,
        6.7367325,
        -5.337848,
        2.2783623,
        4.765481,
        -5.762145,
        -4.216091,
        -8.193798,
        -0.13776207,
        -2.9255862,
        3.498067,
        -3.6952252,
        3.0696812,
        9.154282,
        -8.645741,
        -3.883397,
        -7.231412,
        8.94669,
        -3.5216231,
        -0.7387705,
        9.655315,
        0.7530012,
        6.702875,
        -2.3354378,
        3.7016592,
        -4.1411157,
        7.622589,
        -7.182557,
        -8.811045,
        4.2093887,
        -1.7673388,
        2.5420275,
        -0.14779472,
        0.30793762,
        -9.274836,
        -8.823113,
        3.1486788,
        -6.4034176,
        8.531279,
        -3.0125422,
        -6.090762,
        0.5179367,
        6.0764275,
        1.9749012,
        -6.266162,
        -6.569764,
        9.0805435,
        -5.1004167,
        1.0178461,
        -6.3778257,
        -6.8729353,
        -9.957104,
        6.649246,
        -4.2395635
      ]
    },
    {
      "index": 1,
      "output": 1.0,
      "input_connections": [
        [
          0,
          0.0
        ],
        [
          2,
          0.0247006
        ],
        [
          3,
          0.0
        ],
        [
          4,
          0.0
        ],
        [
          5,
          0.0
        ],
        [
          6,
          0.0
        ],
        [
          7,
          0.08032898
        ]
      ],
      "bias": -0.01999817,
      "self_activation": 0.031751864,
      "retina_weights": [
        6.9928513,
        7.590822,
        -2.83498,
        -5.3751082,
        -1.3863697,
        -8.207805,
        -6.8178434,
        1.6062603,
        5.774624,
        6.8371124,
        -3.0627198,
        -4.821636,
        -0.73478603,
        -5.6889386,
        5.211217,
        3.4781084,
        -9.630628,
        -2.0678177,
        -7.3948956,
        1.4047966,
        -2.8914495,
        -8.012821,
        6.639429,
        8.426386,
        -1.288208,
        2.9812994,
        9.612474,
        4.430233,
        4.5400896,
        4.967269,
        2.8996363,
        5.7130375,
        -3.8267393,
        5.9172792,
        2.0204935,
        -0.5867977,
        0.665432,
        7.521782,
        -9.24225,
        8.2514,
        -8.128197,
        0.020571709,
        0.08403683,
        -3.5498042,
        -8.841076,
        9.551929,
        -7.305271,
        -5.705795,
        -3.6193342,
        -0.6721277,
        2.0559368,
        -1.7973156,
        7.7831116,
        -1.3988104,
        5.035121,
        4.294547,
        -5.487315,
        -2.7099152,
        4.41002,
        4.172186,
        3.2140293,
        4.736353,
        8.57081,
        -0.059539795,
        4.132928,
        2.961277,
        -2.6972194,
        -6.395752,
        7.26355,
        3.7930193,
        -4.9210424,
        -3.008706,
        2.0095978,
        0.20154572,
        7.758993,
        -9.692235,
        -7.629719,
        -2.9920645,
        -8.045964,
        -3.4140677,
        -2.7296348,
        -8.308196,
        4.9184265,
        4.9743233,
        -1.7299051,
        -4.8397703,
        -5.5931897,
        6.6749516,
        9.872297,
        9.030926,
        5.411352,
        -4.0284867,
        -6.8202972,
        -6.2572546,
        7.5867367,
        -0.85700893,
        1.2353649,
        6.1047325,
        -3.3846612,
        6.9317284,
        9.521246,
        -3.0238242,
        -9.911742,
        4.404217,
        7.384714,
        -4.4724817,
        -3.5911531,
        1.4735546,
        3.0638943,
        0.8080778,
        9.795605,
        -3.4688063,
        7.6797066,
        -4.6285744,
        -0.18106651,
        -8.225028,
        4.334902,
        -0.19902134,
        8.306669,
        -7.3197603,
        0.32037354,
        0.082984924,
        -2.9089088,
        -4.7491283,
        4.35223,
        2.7237787,
        7.921173,
        3.2714262,
        6.1420155,
        -2.4480047,
        -7.8378363,
        -1.7767353,
        -8.815715,
        -1.4004154,
        1.5531244,
        -9.593692,
        4.8457537,
        -2.260138,
        5.5946054,
        2.3531208,
        -9.281389,
        4.524335,
        -9.889522,
        -7.760091,
        -8.135049,
        -5.601351,
        6.866995,
        9.851885,
        -0.05079651,
        5.3367176,
        4.976267,
        8.771412,
        7.763836,
        -6.5305586,
        3.7843952,
        3.816432,
        0.8493986,
        1.2964497,
        3.659295,
        -4.4599075,
        -3.873262,
        -9.127719,
        0.20574665,
        7.126522,
        -0.97562027,
        -7.799492,
        -5.205545,
        3.6243238,
        -6.6990995,
        9.57399,
        3.999261,
        -7.058854,
        7.945833,
        -8.240506,
        2.0477524,
        -1.4999809,
        1.8681583,
        -1.3293095,
        -8.945281,
        -3.6199589,
        -7.8973293,
        3.3307514,
        6.8620453,
        7.2815247,
        8.385496,
        9.321472,
        3.419176,
        5.189575,
        0.0052366257,
        -5.5454965,
        4.933344,
        -1.9465609,
        5.4858036,
        -2.5709195,
        -3.1808896,
        7.8225746,
        -7.2164106,
        -5.7528515,
        -8.513174,
        -1.3201923,
        -6.3904066,
        6.479664,
        -1.0208693,
        7.2782993,
        -1.1643524,
        1.6513433,
        -3.3248444,
        7.3785515,
        -6.401722,
        9.710676,
        -3.8565702,
        1.8381491,
        -6.714649,
        -8.503344,
        -9.162833,
        2.7756367,
        5.703847,
        8.612577,
        1.9893847,
        -0.82519245,
        2.6611004,
        -5.1463337,
        -5.5168242,
        4.101697,
        -0.1317854,
        4.71187,
        -7.4402523,
        9.620771,
        -4.812321,
        -7.119341,
        1.7527733,
        -2.0706906,
        -2.237598,
        -5.3686185,
        -8.086493,
        3.5979567,
        -7.7831907,
        9.76376,
        -3.800611,
        -4.9742813,
        1.3520899,
        0.9315357,
        8.894697,
        -5.1344795,
        -9.5422,
        8.189659,
        -1.9304123,
        1.9166031,
        -0.8879204,
        -6.108455,
        6.986517,
        -2.9547615,
        3.636674,
        5.825779,
        5.7689495,
        2.5731792,
        -1.7022266,
        5.945136,
        4.7428837,
        -1.4878883,
        7.148506,
        -6.772995,
        7.244339,
        2.0909252,
        -4.863636,
        3.3308544,
        1.0005388,
        -3.3889003,
        9.422991,
        2.4885187,
        6.0676193,
        0.28181458,
        5.4267235,
        5.1835194,
        -1.6254635,
        5.7067432,
        -5.1997585,
        8.889065,
        -4.849767,
        3.9622774,
        -1.0087385,
        2.6815405,
        -2.048315,
        4.5977173,
        2.0730438,
        -7.1520805,
        -4.10078,
        0.06307697,
        -9.950371,
        1.6930237,
        -1.1171885,
        6.5283203,
        -4.1872377,
        -4.414875,
        9.281826,
        -3.3987422,
        -3.2555695,
        -3.3452053,
        5.486988,
        -6.020982,
        1.380311,
        2.861868,
        5.4753466,
        -5.5379386,
        -3.0968637,
        -2.3652616,
        1.5659294,
        4.679676,
        6.3721523,
        -2.757134,
        -5.067107,
        4.3479385,
        -5.4684777,
        -3.1164737,
        5.6821384,
        -8.758356,
        8.9702,
        -8.519149,
        6.9903526,
        -9.129207,
        7.4035835,
        -1.1440935,
        2.5613728,
        -0.72986317,
        -4.2951603,
        -3.032269,
        0.5537834,
        5.171406,
        -2.4639716,
        6.937109,
        -9.625918,
        -1.2669506,
        6.6233788,
        1.9475803,
        -7.4378366,
        9.6435795,
        -7.9703903,
        2.760686,
        -4.651148,
        -1.8959894,
        2.474123,
        9.4471,
        5.0193996,
        -3.9601178,
        2.528924,
        -4.1280646,
        -8.160896,
        5.1134863,
        2.1476707,
        -6.1174555,
        4.8946514,
        -6.068482,
        3.7627974,
        9.308414,
        2.206026,
        8.827877,
        5.657467,
        -9.363523,
        6.6169014,
        7.9877586,
        8.664965,
        6.000271,
        8.415985,
        -4.515905,
        4.1772785,
        -1.8778315,
        -1.9492903,
        3.2274904,
        -3.21598,
        5.6540623,
        8.947546,
        -9.067717,
        -5.6899924,
        -7.1585035,
        8.592316,
        -4.599275,
        -1.6046019,
        -3.6589308,
        8.702116,
        -5.498163,
        -7.971239,
        -3.1251116,
        -2.8119917,
        -0.7895603,
        -0.56944084,
        5.4718056,
        8.442211,
        -4.869475,
        3.7930098,
        9.943804,
        -4.35224,
        1.3923655,
        8.995806,
        -4.2532296,
        6.3436737,
        0.8281698,
        7.005686,
        -2.7796693,
        4.7429647,
        -9.968448,
        7.986603,
        -1.5886898,
        -3.526134,
        -4.0723486,
        7.337023,
        8.672642,
        -3.0619426,
        2.7397976,
        6.3587666,
        -1.4468327,
        -7.8361034,
        1.9006071,
        -7.7713633,
        7.8611183,
        -8.259851,
        -0.55783176,
        7.780573,
        0.8640871,
        -4.291081,
        -7.8010244,
        6.03211,
        -7.2508764,
        -5.477671,
        -2.3968234,
        8.505959,
        -9.150068,
        5.4947586,
        -0.89980507,
        -8.509905,
        1.7184534,
        -3.6025782,
        -3.9023466,
        3.5180244,
        -5.5754943,
        -7.280323,
        7.119812,
        -4.508886,
        4.5723543,
        2.5333395,
        9.066257,
        -4.1054506,
        -7.804446,
        7.5662174,
        -1.6796608,
        3.730651,
        -5.7719536,
        -1.7783298,
        -6.014597,
        1.1210356,
        5.192649,
        9.987261,
        5.048517,
        7.0687294,
        -0.89945984,
        5.728773,
        5.12356,
        -4.8927803,
        2.6310072,
        6.242859,
        -3.3126516,
        8.010918,
        -1.5134306,
        0.12062931,
        3.1016388,
        0.7782564,
        9.881582,
        8.701166,
        1.5291061,
        8.842163,
        -5.539939,
        4.5424023,
        -4.5809,
        -7.7875376,
        8.840755,
        -0.02581501,
        6.291567,
        -1.9527645,
        8.763809,
        0.44895267,
        -4.968087,
        1.9925747,
        5.3919687,
        9.992285,
        1.8320522,
        -7.3507805,
        -4.3897624,
        4.966255,
        -1.9793978,
        -7.0718355,
        0.053726196,
        -3.2733436,
        9.358648,
        4.3622103,
        -2.592506,
        -7.232032,
        3.3465662,
        2.9429808,
        8.288395,
        -2.5468154,
        -0.68881226,
        -8.300197,
        9.874235,
        2.070037,
        1.6899958,
        -7.7164793,
        -0.76632404,
        9.536184,
        -5.7819767,
        -8.970804,
        -5.633995,
        4.360284,
        7.6705494,
        8.217646,
        -7.838456,
        7.2407093,
        0.56847954,
        -1.3238068,
        -6.1414595,
        1.1591997,
        2.5116453,
        7.137327,
        6.5331707,
        -5.9811945,
        6.035452,
        -3.7326188,
        8.979561,
        -4.157271,
        3.777112,
        -3.57974,
        -0.43667507,
        5.4688873,
        -9.0569515,
        9.910755,
        6.3254128,
        8.912567,
        -1.6056337,
        -8.124921,
        -9.956994,
        -7.1280384,
        1.2587509,
        -0.44157887,
        -4.87482,
        5.170562,
        0.6588898,
        -3.8657565,
        -7.9435606,
        -0.05706978,
        7.266264,
        -7.591996,
        -3.9834328,
        2.6534424,
        0.4731617,
        -7.628441,
        -7.1591063,
        6.3591213,
        -4.1293283,
        6.161871,
        4.742688,
        1.057724,
        0.4483261,
        -5.1977773,
        -9.49927,
        0.6030617,
        -8.893835,
        7.1184196,
        -2.4406424,
        -5.017981,
        -3.8416786,
        -4.5630426,
        7.3496,
        9.2325115,
        -1.0936184,
        4.9821005,
        9.053936,
        -1.3684387,
        4.450794,
        8.842079,
        7.701084,
        -7.1028423,
        9.690214,
        1.539341,
        -1.6237469,
        -4.491846,
        -9.188428,
        -3.9971204,
        1.3528166,
        7.695057,
        2.044982,
        -0.8921976,
        -8.0306835,
        -3.5974665,
        -4.7181983,
        7.0058956,
        2.0656881,
        8.773813,
        2.4016705,
        1.5071716,
        9.203514,
        8.770924,
        -5.460324,
        8.891903,
        6.8116093,
        -1.1699553,
        6.9201584,
        -2.6968617,
        -4.677107,
        7.809948,
        -9.82965,
        6.8960667,
        2.625865,
        -2.442781,
        -2.861683,
        -0.67797565,
        -2.8045506,
        0.2204647,
        -7.2430058,
        -5.592801,
        -1.9730701,
        6.660433,
        6.582037,
        -6.6846437,
        -0.8558645,
        0.8931074,
        0.7726326,
        4.9799576,
        -3.5093517,
        8.958044,
        7.554188,
        0.05488968,
        -5.5350466,
        9.406139,
        6.6467495,
        3.4469042,
        -7.076537,
        6.631901,
        5.998637,
        5.5844517,
        6.331249,
        -2.5491328,
        -7.9301596,
        9.3106365,
        9.432926,
        5.7936735,
        -1.5237303,
        -0.86122894,
        -4.067311,
        -5.7341666,
        -2.9307027,
        1.9927607,
        5.543646,
        -6.245558,
        5.3365746,
        0.077711105,
        -6.1732073,
        3.8506327,
        8.297855,
        -8.777091,
        6.7596645,
        9.791199,
        -2.3646536,
        4.4563303,
        3.931652,
        9.5328045,
        2.0802727,
        -3.815865,
        -3.7573452,
        -7.6049204,
        -2.1059074,
        -0.31350327,
        1.6847506,
        -1.0855598,
        -4.3453593,
        6.9268246,
        4.1903677,
        6.9165897,
        -4.484696,
        -8.081055,
        -1.6668339,
        -0.34255886,
        -5.74202,
        -3.582086,
        -5.800595,
        6.2510605,
        -4.0060396,
        -1.0333462,
        2.5696936,
        -1.3833799,
        -4.7488995,
        2.525526,
        4.3175926,
        -6.5486574,
        3.9919748,
        4.245247,
        -2.192029,
        -9.839503,
        -7.050562,
        3.888258,
        -3.7182755,
        5.2505465,
        5.828597,
        -1.0450907,
        -0.23198795,
        0.8621845,
        -8.635833,
        6.0462,
        -5.289199,
        5.34126,
        5.448617,
        8.493706,
        4.914938,
        -3.4950538,
        8.873293,
        0.48405552,
        7.385906,
        7.5563335,
        5.324892,
        6.9849987,
        -0.012420654,
        -3.3788128,
        9.879002,
        5.7228155,
        6.452667,
        -5.0506563,
        1.5757313,
        8.188595,
        -7.9586763,
        9.152109,
        -3.8936968,
        2.6298866,
        4.440137,
        -9.492967,
        3.7575636,
        1.707758,
        7.113632,
        4.9032364,
        3.8835917,
        4.416975,
        8.399397,
        -0.16658211,
        0.597538,
        -3.6376305,
        -5.604629,
        -5.1241584,
        -2.5152512,
        6.098776,
        4.452986,
        3.777648,
        7.604639,
        9.76256,
        5.317499,
        6.6741943,
        -8.068271,
        -3.3521552,
        0.19576931,
        -8.919849,
        -0.43530655,
        -8.3180065,
        9.118572,
        0.24776554,
        -4.2642303,
        1.7768707,
        4.57333,
        7.3761997,
        -1.7463703,
        5.5576773,
        -6.6662836,
        -1.7561646,
        0.39626217,
        -5.542626,
        2.1683369,
        9.947935,
        -8.567006,
        9.8316345,
        -7.034313,
        -3.589055,
        0.64046764,
        3.5836182,
        6.1739445,
        -8.552747,
        4.979247,
        7.27112,
        2.603241,
        6.036274,
        8.734858,
        -9.610865,
        -9.204275,
        4.8871174,
        9.767437,
        3.4679995,
        -9.528186,
        2.6116982,
        8.980728,
        1.2839565,
        7.2830257,
        3.3208427,
        2.9044476,
        -1.8012018,
        4.933323,
        5.9413376,
        -0.7902975,
        -7.9661007,
        0.9889116,
        -6.3520594,
        0.38781548,
        0.66875076,
        7.761421,
        -6.843128,
        -9.293863,
        8.409456,
        3.0902662,
        -5.508024,
        -8.345348,
        5.8175344,
        -1.4938421,
        -2.9630322,
        0.66506004,
        7.6706085,
        7.442793,
        -2.9676576,
        3.3786287,
        -0.42275333,
        -4.060008,
        -8.155799,
        7.85153,
        -4.7663517,
        9.69186,
        5.4598207,
        -1.6867723,
        9.749599,
        9.484573,
        9.179777,
        -0.9193554,
        2.3915253,
        4.0389385,
        0.05316353,
        3.1513777,
        5.567855,
        6.759493,
        9.790146,
        1.2561522,
        -4.1517467,
        6.29879,
        -8.980009,
        -8.988111,
        7.672228,
        -5.8206863,
        2.1284428,
        3.4236917,
        -6.2204022,
        -5.658793,
        6.930895,
        4.3113766,
        -5.38717,
        2.3996792,
        -4.6498985,
        -6.182079,
        -0.48477554,
        8.197166,
        3.876051,
        5.1809587,
        1.6224566,
        -5.841765,
        6.211073,
        7.045189,
        -6.65168,
        4.623164,
        1.5807972,
        -9.100137,
        9.593622,
        1.2670193,
        5.0107136,
        -1.8052645,
        -0.69154453,
        -7.2107096,
        6.026684,
        1.5125599,
        -3.3570786,
        -5.5039687,
        6.401596,
        -2.622542,
        9.327421,
        2.3359356,
        1.9573221,
        1.9858637,
        -0.7527962,
        5.726449,
        -5.506675,
        -4.459879,
        -1.5889969,
        7.7190514,
        -4.2493815,
        -7.496125,
        1.5587034,
        8.275423,
        5.2358646,
        -1.8969765,
        -6.842596,
        4.133605,
        -7.857229,
        -4.7791333,
        -9.770519,
        4.653941,
        -3.6078758,
        7.8015194,
        5.6966896,
        5.680565,
        5.8783455,
        1.9312563,
        1.7326632,
        1.1742105,
        1.0867777,
        8.640842,
        -7.4971695,
        -1.9170017,
        8.988621,
        -5.4403133,
        8.296581,
        -8.109347,
        2.1875992,
        3.7073746,
        1.9905605,
        -5.08728,
        2.8990784,
        1.4859734,
        1.8126955,
        -4.4716043,
        4.7763023,
        8.028919,
        6.645998,
        -7.620742,
        -1.5047779,
        -1.4743128,
        2.008749,
        6.295883,
        9.981009,
        -7.73936,
        -5.7960267,
        -1.8371172,
        -9.300544,
        8.946281,
        0.7321062,
        0.40793514,
        -5.9885592,
        -1.0825605,
        -1.0815945,
        4.036628,
        -0.10874939,
        1.8375053,
        7.456785,
        8.269629,
        0.27911758,
        2.0460424,
        -2.4527183,
        5.5059566,
        -4.763748,
        1.666812,
        -8.4022875,
        -5.7300277,
        -4.3058486,
        -8.021417,
        -9.787083,
        -9.135842,
        0.7458391,
        -9.669642,
        9.472382,
        0.23085499,
        -5.415141,
        -7.146058,
        -6.109342,
        5.527026,
        2.292162,
        6.951847,
        -1.7674799,
        2.775155,
        -1.9493456,
        1.7036781,
        0.4279623,
        6.377178,
        -5.89271,
        2.8335037,
        -5.6162925,
        -4.6535177,
        2.8076944,
        9.727871,
        9.898304,
        -2.104453,
        -2.1214046,
        2.4932518,
        8.752089,
        6.539671,
        -6.0940404,
        8.091452,
        9.276825,
        -6.2717676,
        -8.190064,
        9.491526,
        4.4835863,
        5.1937046,
        -1.573967,
        -7.4336023,
        9.32733,
        -1.6321554,
        1.2258472,
        -4.892778,
        1.425313,
        2.9110136,
        -1.4485111,
        -4.374003,
        8.361811,
        -3.687138,
        2.9281225,
        -1.7714872,
        -5.9539075,
        9.557571,
        -5.7987638,
        3.309001,
        -3.4052749,
        6.6287556,
        9.917479,
        -3.5424418,
        8.582659,
        4.871258,
        3.5639725,
        -2.4963846,
        -3.6787982,
        2.6410923,
        9.073416,
        1.3015547,
        0.98342514,
        -3.5333438,
        1.6516867,
        -4.7607512,
        5.373019,
        8.591351,
        -2.1093526,
        -1.9211168,
        -7.0003242,
        1.4442883,
        -7.114522,
        -4.88671,
        -7.9147453,
        7.7713966,
        -3.3712716,
        1.1341867,
        9.514336,
        -7.410886,
        -1.348588,
        6.866394,
        -5.2077527,
        3.3301601,
        8.874155,
        9.883577,
        -4.214222,
        6.1240826,
        -8.650734,
        -1.8970127,
        -8.150551,
        -6.155395,
        -7.527072,
        1.7351141,
        -6.472871,
        6.425314,
        5.1763506,
        8.179487,
        3.6274137,
        -6.1645575,
        4.2227135,
        0.4574194,
        -3.0073566,
        6.8996754,
        -3.2141562,
        7.700325,
        -1.0462017,
        4.2542543,
        8.784243,
        1.0620346,
        9.717117,
        8.991409,
        -1.602294,
        -4.0117307,
        8.900095,
        5.078518,
        6.208807,
        4.646715,
        -2.4924555,
        -7.4775333,
        3.8886747,
        8.275496,
        -5.3322597,
        -4.0819855,
        -4.9656696,
        4.8221245,
        1.413311,
        -1.3881607,
        6.02503,
        3.2275972,
        -0.6423683,
        -6.6984386,
        5.7934847,
        0.25480175,
        5.6513157,
        6.2099476,
        -3.3839078,
        -5.678684,
        -9.163711,
        -8.03878,
        -8.808517,
        1.2196646,
        -8.091027,
        5.9464617,
        -9.451327,
        -8.880798,
        -5.587792,
        3.4523668,
        -1.5479631,
        2.4257126,
        -4.151203,
        -5.348086,
        -9.992237,
        2.3237715,
        -2.6003332,
        -8.060598,
        9.212936,
        -5.8038254,
        9.855377,
        9.917805,
        3.3630428,
        -0.7447214,
        7.2467747,
        1.9590225,
        -6.4492083,
        -3.8425965,
        8.833706,
        0.32409286,
        6.325388,
        -7.4162073,
        -4.51786,
        -4.396064,
        0.04502201,
        9.777399,
        -5.0753493,
        -1.0677662,
        2.4697742,
        4.820033,
        -3.087966,
        7.7042885,
        -7.6490707,
        1.8902626,
        -5.1171536,
        -3.2627745,
        7.514311,
        -3.8291283,
        6.004114,
        -7.0330715,
        -4.1638966,
        6.0235443,
        7.103319,
        -4.900076,
        -5.793726,
        5.258569,
        -3.2340689,
        -8.708215,
        -6.9253635,
        6.2998714,
        -8.443853,
        -1.7096415,
        -3.7550707,
        -7.8855705,
        0.9855375,
        -7.0121546,
        0.13359642,
        -1.148633,
        -1.9644661,
        6.9508514,
        -2.2702184,
        -6.167204,
        5.002157,
        -4.989235,
        -5.350997,
        0.2880516,
        -7.7532578,
        -6.5800495,
        1.9188461,
        -0.034317017,
        5.906698,
        4.839016,
        -1.3573904,
        9.413223,
        -2.3742404,
        -7.033725,
        2.852069,
        -4.3970747,
        3.8132515,
        2.558075,
        5.5540457,
        -2.030641,
        2.3638783,
        1.5508614,
        -8.13534,
        -7.9510403,
        -1.0710688,
        -9.902694,
        -5.548615,
        -2.9562087,
        9.813219,
        9.727728,
        6.1696053,
        -2.8739185,
        4.7389116,
        3.9816275,
        7.657194,
        -5.3979535,
        2.1384058,
        -4.201216,
        9.696255,
        -2.9291983,
        -1.3262215,
        7.6659355,
        -3.3497305,
        5.4982634,
        8.861078,
        3.4842005,
        9.262604,
        -4.5516176,
        9.502563,
        6.165062,
        7.7285156,
        2.4314156,
        1.0938606,
        -0.93580437,
        1.8755808,
        4.2594824,
        2.6989326,
        3.1664743,
        0.5801878,
        2.0643578,
        2.151884,
        -2.1476808,
        9.575491,
        -1.6484089,
        9.009401,
        -7.496195,
        -8.648682,
        3.2844505,
        -7.907979,
        6.86104,
        -6.054394,
        -9.805727,
        -0.2028408,
        -8.732877,
        9.189373,
        -3.1497402,
        -2.3608985,
        -5.054559,
        1.8059435,
        7.4610424,
        -9.785096,
        -1.3575163,
        7.541792,
        5.240161,
        -4.347276,
        -9.601514,
        -2.2532763,
        4.154168,
        1.3766041,
        -1.0767498,
        4.6384754,
        -2.3917737,
        -0.6242008,
        -3.6020322,
        -9.93722,
        -9.913783,
        -9.896523,
        -5.786001,
        5.010421,
        3.7042437,
        -3.2361693,
        -8.780727,
        2.558941,
        -0.02947712,
        1.0465374,
        5.027382,
        3.0547132,
        -2.142488,
        -4.160783,
        5.0919476,
        1.9135513,
        2.8069458,
        -4.0694566,
        -4.0004344,
        -5.190162,
        -9.624741,
        -1.142623,
        0.8420906,
        -3.5621376,
        -5.309381,
        -3.6551995,
        9.952112,
        2.8449306,
        -3.3254046,
        -5.361242,
        6.565052,
        -6.2694044,
        9.735636,
        -3.0972428,
        4.1472616,
        8.99202,
        6.569723,
        -4.3328185,
        1.6622553,
        -2.6998634,
        6.706753,
        0.091947556,
        6.531975,
        9.841782,
        -6.6211987,
        3.8470259,
        -7.789647,
        -4.7920246,
        -4.5291085,
        1.1370459,
        9.479031,
        -8.660526,
        -0.33028507,
        0.1578722,
        1.6252937,
        -8.983275,
        8.074865,
        1.0111799,
        -6.3340635,
        9.442564,
        7.295124,
        5.0831146,
        2.9824057,
        2.2596464,
        4.3583336,
        -9.83036,
        2.9510775,
        0.32953358,
        -8.586664,
        9.360014,
        9.774267,
        -5.639908,
        7.045166,
        0.5807123,
        3.8858328,
        -8.359577,
        0.3600254,
        -1.1554518,
        -3.7536306,
        -7.2035284,
        -5.5348105,
        -4.9957747,
        7.706066,
        -4.6829505,
        2.2973194,
        -9.568448,
        -4.7786136,
        2.455801,
        -5.4183264,
        2.0314445,
        9.239588,
        1.6654787,
        -1.6144867,
        -8.62394,
        -7.5054617,
        1.9947824,
        -6.107659,
        -6.504032,
        9.504236,
        -6.7075205,
        -6.653228,
        1.5505209,
        7.592308,
        -0.8826227,
        -7.3596067,
        -3.0815334,
        -5.221946,
        -3.2785172,
        -1.4329805,
        -6.7114086,
        5.662181,
        -7.0286674,
        -9.038134,
        -6.7937326,
        -2.4115386,
        -9.803686,
        9.262476,
        -4.4214673,
        -9.535327,
        2.9581585,
        8.014824,
        -0.19325447,
        -4.2293615,
        1.389471,
        8.556095,
        -4.009239,
        -9.904051,
        -1.3930197,
        6.2723255,
        8.227755,
        -2.3333945,
        2.9989395,
        3.9542446,
        6.8894215,
        -5.71572,
        0.021205902,
        9.163355,
        9.23049,
        -0.6117554,
        -1.244072,
        -8.348877,
        9.0390415,
        -3.4547658,
        8.127947,
        4.619499,
        8.988911,
        -4.5707293,
        -6.6165133,
        9.184748,
        -7.125346,
        -5.5433555,
        -3.7763686,
        -6.215398,
        7.9710617,
        -3.7710042,
        1.1342468,
        -0.12020779,
        -2.9163523,
        -5.2328057,
        -6.6313953,
        2.1131668,
        1.7160501,
        -1.4830961,
        3.0505238,
        -0.019943237,
        2.1242151,
        -0.395607,
        2.5652752,
        -7.160077,
        5.262388,
        7.0412025,
        2.3044024,
        6.364174,
        -3.9919753,
        9.459135,
        -0.49339008,
        0.25315666,
        6.4489307,
        -9.5582695,
        2.956811,
        4.260663,
        9.737759,
        -7.4983597,
        2.330881,
        4.862853,
        6.1861324,
        -6.846239,
        -3.9528031,
        4.766322,
        -9.1598625,
        3.2271662,
        3.5592375,
        -2.2901096,
        -3.9603133,
        -9.5776415,
        7.545515,
        5.0594063,
        1.9417753,
        6.6136894,
        9.880451,
        1.9138584,
        -9.947276,
        -4.831702,
        -8.922815,
        -1.3775463,
        3.9460812,
        8.926231,
        -6.3271494,
        4.7890816,
        7.7979603,
        7.046524,
        2.4798594,
        -0.045740128,
        9.415226,
        3.8604918,
        2.216052,
        9.180189,
        6.700878,
        4.680911,
        -0.6194153,
        4.4436064,
        -6.55128,
        -7.39624,
        -4.037902,
        0.8846817,
        -9.072628,
        4.1447935,
        1.3166533,
        -1.1782665,
        3.0636082,
        7.021633,
        6.916752,
        5.68155,
        -9.756848,
        -8.553073,
        -6.038284,
        -4.766969,
        7.106209,
        -5.988745,
        -0.5944462,
        -1.1499872,
        2.3619375,
        4.429265,
        3.6057148,
        9.479582,
        3.8102255,
        -3.936264,
        -5.1735873,
        -9.911966,
        4.004363,
        -8.027525,
        9.599049,
        -9.902961,
        1.528739,
        4.25733,
        -2.7989287,
        6.3919277,
        -7.573514,
        1.6136637,
        8.790459,
        -8.356359,
        -6.3474226,
        0.47625446,
        2.7591076,
        -2.5407763,
        -6.0787673,
        -4.611394,
        -7.536995,
        -2.8471918,
        -3.9453907,
        -5.7676406,
        -9.687462,
        -3.3556504,
        3.9058437,
        -2.4742618,
        -7.437188,
        8.914339,
        2.533001,
        -3.1926007,
        -7.069788,
        -2.7850695,
        3.7276258,
        1.7136469,
        -8.185951,
        0.85142994,
        -0.37006283,
        -5.784368,
        5.412511,
        -8.422418,
        -2.8815527,
        3.6815653,
        9.434467,
        -1.5872974,
        4.793659,
        1.1032972,
        -0.1688757,
        -8.100696,
        8.625111,
        -1.0223074,
        -1.2281933,
        -8.619325,
        5.748624,
        -0.47314835,
        2.41084,
        9.933504,
        -5.23426,
        2.502657,
        9.016663,
        -6.082575,
        6.55509,
        8.157112,
        1.5034637,
        -5.2717586,
        7.6432743,
        -7.77297,
        -9.844003,
        8.16905,
        2.6094255,
        4.617139,
        5.373024,
        -7.7387667,
        -1.9764557,
        1.1397781,
        7.1598625,
        -2.476119,
        2.3122444,
        2.1264372,
        -8.088653,
        -7.083685,
        -1.5209951,
        2.812663,
        -8.30585,
        -2.466065,
        -3.1280632,
        0.4625044,
        8.774807,
        6.111828,
        -0.9700031,
        9.088053,
        0.32384014,
        -2.0380416,
        3.2308064,
        -1.7857828,
        -1.2560768,
        -6.3721848,
        7.4664536,
        7.653017,
        0.9219351,
        -9.430687,
        -1.5920849,
        -9.022033,
        -3.891849,
        5.4041996,
        -4.7204514,
        2.5339737,
        4.491516,
        8.769535,
        6.0177536,
        -4.4307942,
        8.765957,
        -4.5264573,
        -6.682541,
        8.795763,
        2.0527134,
        -9.885235,
        6.5818825,
        6.0138664,
        5.852212,
        -6.4062376,
        -0.4551525,
        6.430603,
        9.5637665,
        7.083294,
        1.1491547,
        7.8825035,
        8.968069,
        5.515625,
        1.9972363,
        -3.4134216,
        1.6129627,
        6.8546143,
        1.7314157,
        -5.8084984,
        8.628593,
        -8.092351,
        -8.310372,
        4.0195904,
        -6.786518,
        -5.7498784,
        4.389385,
        -5.167827,
        -4.68986,
        -6.1578937,
        9.765034,
        -2.2327485,
        7.8096104,
        3.5677395,
        -0.35891914,
        -9.60735,
        0.5629864,
        8.998138,
        -0.13067627,
        -2.5191803,
        -0.5247612,
        7.9828568,
        4.7482576,
        -0.004026413,
        -3.0637498,
        4.9807158,
        0.2830782,
        5.7286615,
        7.516327,
        -7.5914,
        7.4420033,
        -2.744183,
        0.92692757,
        -5.4146547,
        0.3655634,
        2.7600536,
        -6.7110777,
        4.3202295,
        1.5919218,
        5.3138437,
        -8.069162,
        -0.71373844,
        0.41809464,
        4.4433985,
        9.960064,
        -6.6000957,
        -5.0204964,
        0.9278164,
        7.398714,
        -9.714133,
        -3.3232517,
        -7.907135,
        3.5931292,
        -3.6508174,
        -1.2569609,
        4.766308,
        4.7443686,
        -9.237175,
        -8.563547,
        -0.57459736,
        -8.695726,
        2.273775,
        -7.897517,
        -9.721767,
        1.0590277,
        -3.3435817,
        -3.249442,
        1.443161,
        7.505621,
        7.8118534,
        -3.1506104,
        -4.8995037,
        -5.0851316,
        2.8269873,
        -1.0373755,
        8.032431,
        -9.434123,
        9.870676,
        -8.960263,
        -3.7960978,
        -0.8575716,
        -6.830389,
        9.245075,
        -4.5186253,
        8.050451,
        -8.5356,
        8.965689,
        3.996068,
        -9.805109,
        4.7185574,
        -9.958918,
        2.5411358,
        0.059165,
        0.17042732,
        4.5757523,
        3.7851944,
        3.1338396,
        -0.6548996,
        -0.67699146,
        4.094802,
        4.7899666,
        0.56753254,
        9.826555,
        2.5981913,
        2.0788898,
        6.567192,
        -8.345234,
        -3.7462754,
        -1.411788,
        -9.484379,
        8.503698,
        3.679041,
        9.8650875,
        5.7210846,
        6.4600773,
        -4.157364,
        -7.680602,
        -5.0557036,
        -3.5054464,
        2.4920597,
        -3.6367054,
        5.024742,
        1.1498222,
        5.30307,
        3.294798,
        0.7314911,
        -1.4379015,
        -0.7740755,
        8.722836,
        -9.538302,
        6.16243,
        7.64851,
        0.7043419,
        -1.9391527,
        3.4202633,
        -7.301881,
        8.028358,
        -4.5955153,
        2.0373163,
        -6.34875,
        -6.3078566,
        -1.0751266,
        6.7367325,
        -5.337848,
        2.2783623,
        4.765481,
        -5.762145,
        -4.216091,
        -8.193798,
        -0.13776207,
        -2.9255862,
        3.498067,
        -3.6952252,
        3.0696812,
        9.154282,
        -8.645741,
        -3.883397,
        -7.231412,
        8.94669,
        -3.5216231,
        -0.7387705,
        9.655315,
        0.7530012,
        6.702875,
        -2.3354378,
        3.7016592,
        -4.1411157,
        7.622589,
        -7.182557,
        -8.811045,
        4.2093887,
        -1.7673388,
        2.5420275,
        -0.14779472,
        0.30793762,
        -9.274836,
        -8.823113,
        3.1486788,
        -6.4034176,
        8.531279,
        -3.0125422,
        -6.090762,
        0.5179367,
        6.0764275,
        1.9749012,
        -6.266162,
        -6.569764,
        9.0805435,
        -5.1004167,
        1.0178461,
        -6.3778257,
        -6.8729353,
        -9.957104,
        6.649246,
        -4.2395635
      ]
    },
    {
      "index": 2,
      "output": 1.0,
      "input_connections": [
        [
          0,
          0.0
        ],
        [
          1,
          0.0
        ],
        [
          3,
          0.0
        ],
        [
          4,
          0.15050238
        ],
        [
          5,
          0.0
        ],
        [
          6,
          0.0
        ],
        [
          7,
          0.0
        ]
      ],
      "bias": 0.03018337,
      "self_activation": -0.072955444,
      "retina_weights": [
        6.9928513,
        7.590822,
        -2.83498,
        -5.3751082,
        -1.3863697,
        -8.207805,
        -6.8178434,
        1.6062603,
        5.774624,
        6.8371124,
        -3.0627198,
        -4.821636,
        -0.73478603,
        -5.6889386,
        5.211217,
        3.4781084,
        -9.630628,
        -2.0678177,
        -7.3948956,
        1.4047966,
        -2.8914495,
        -8.012821,
        6.639429,
        8.426386,
        -1.288208,
        2.9812994,
        9.612474,
        4.430233,
        4.5400896,
        4.967269,
        2.8996363,
        5.7130375,
        -3.8267393,
        5.9172792,
        2.0204935,
        -0.5867977,
        0.665432,
        7.521782,
        -9.24225,
        8.2514,
        -8.128197,
        0.020571709,
        0.08403683,
        -3.5498042,
        -8.841076,
        9.551929,
        -7.305271,
        -5.705795,
        -3.6193342,
        -0.6721277,
        2.0559368,
        -1.7973156,
        7.7831116,
        -1.3988104,
        5.035121,
        4.294547,
        -5.487315,
        -2.7099152,
        4.41002,
        4.172186,
        3.2140293,
        4.736353,
        8.57081,
        -0.059539795,
        4.132928,
        2.961277,
        -2.6972194,
        -6.395752,
        7.26355,
        3.7930193,
        -4.9210424,
        -3.008706,
        2.0095978,
        0.20154572,
        7.758993,
        -9.692235,
        -7.629719,
        -2.9920645,
        -8.045964,
        -3.4140677,
        -2.7296348,
        -8.308196,
        4.9184265,
        4.9743233,
        -1.7299051,
        -4.8397703,
        -5.5931897,
        6.6749516,
        9.872297,
        9.030926,
        5.411352,
        -4.0284867,
        -6.8202972,
        -6.2572546,
        7.5867367,
        -0.85700893,
        1.2353649,
        6.1047325,
        -3.3846612,
        6.9317284,
        9.521246,
        -3.0238242,
        -9.911742,
        4.404217,
        7.384714,
        -4.4724817,
        -3.5911531,
        1.4735546,
        3.0638943,
        0.8080778,
        9.795605,
        -3.4688063,
        7.6797066,
        -4.6285744,
        -0.18106651,
        -8.225028,
        4.334902,
        -0.19902134,
        8.306669,
        -7.3197603,
        0.32037354,
        0.082984924,
        -2.9089088,
        -4.7491283,
        4.35223,
        2.7237787,
        7.921173,
        3.2714262,
        6.1420155,
        -2.4480047,
        -7.8378363,
        -1.7767353,
        -8.815715,
        -1.4004154,
        1.5531244,
        -9.593692,
        4.8457537,
        -2.260138,
        5.5946054,
        2.3531208,
        -9.281389,
        4.524335,
        -9.889522,
        -7.760091,
        -8.135049,
        -5.601351,
        6.866995,
        9.851885,
        -0.05079651,
        5.3367176,
        4.976267,
        8.771412,
        7.763836,
        -6.5305586,
        3.7843952,
        3.816432,
        0.8493986,
        1.2964497,
        3.659295,
        -4.4599075,
        -3.873262,
        -9.127719,
        0.20574665,
        7.126522,
        -0.97562027,
        -7.799492,
        -5.205545,
        3.6243238,
        -6.6990995,
        9.57399,
        3.999261,
        -7.058854,
        7.945833,
        -8.240506,
        2.0477524,
        -1.4999809,
        1.8681583,
        -1.3293095,
        -8.945281,
        -3.6199589,
        -7.8973293,
        3.3307514,
        6.8620453,
        7.2815247,
        8.385496,
        9.321472,
        3.419176,
        5.189575,
        0.0052366257,
        -5.5454965,
        4.933344,
        -1.9465609,
        5.4858036,
        -2.5709195,
        -3.1808896,
        7.8225746,
        -7.2164106,
        -5.7528515,
        -8.513174,
        -1.3201923,
        -6.3904066,
        6.479664,
        -1.0208693,
        7.2782993,
        -1.1643524,
        1.6513433,
        -3.3248444,
        7.3785515,
        -6.401722,
        9.710676,
        -3.8565702,
        1.8381491,
        -6.714649,
        -8.503344,
        -9.162833,
        2.7756367,
        5.703847,
        8.612577,
        1.9893847,
        -0.82519245,
        2.6611004,
        -5.1463337,
        -5.5168242,
        4.101697,
        -0.1317854,
        4.71187,
        -7.4402523,
        9.620771,
        -4.812321,
        -7.119341,
        1.7527733,
        -2.0706906,
        -2.237598,
        -5.3686185,
        -8.086493,
        3.5979567,
        -7.7831907,
        9.76376,
        -3.800611,
        -4.9742813,
        1.3520899,
        0.9315357,
        8.894697,
        -5.1344795,
        -9.5422,
        8.189659,
        -1.9304123,
        1.9166031,
        -0.8879204,
        -6.108455,
        6.986517,
        -2.9547615,
        3.636674,
        5.825779,
        5.7689495,
        2.5731792,
        -1.7022266,
        5.945136,
        4.7428837,
        -1.4878883,
        7.148506,
        -6.772995,
        7.244339,
        2.0909252,
        -4.863636,
        3.3308544,
        1.0005388,
        -3.3889003,
        9.422991,
        2.4885187,
        6.0676193,
        0.28181458,
        5.4267235,
        5.1835194,
        -1.6254635,
        5.7067432,
        -5.1997585,
        8.889065,
        -4.849767,
        3.9622774,
        -1.0087385,
        2.6815405,
        -2.048315,
        4.5977173,
        2.0730438,
        -7.1520805,
        -4.10078,
        0.06307697,
        -9.950371,
        1.6930237,
        -1.1171885,
        6.5283203,
        -4.1872377,
        -4.414875,
        9.281826,
        -3.3987422,
        -3.2555695,
        -3.3452053,
        5.486988,
        -6.020982,
        1.380311,
        2.861868,
        5.4753466,
        -5.5379386,
        -3.0968637,
        -2.3652616,
        1.5659294,
        4.679676,
        6.3721523,
        -2.757134,
        -5.067107,
        4.3479385,
        -5.4684777,
        -3.1164737,
        5.6821384,
        -8.758356,
        8.9702,
        -8.519149,
        6.9903526,
        -9.129207,
        7.4035835,
        -1.1440935,
        2.5613728,
        -0.72986317,
        -4.2951603,
        -3.032269,
        0.5537834,
        5.171406,
        -2.4639716,
        6.937109,
        -9.625918,
        -1.2669506,
        6.6233788,
        1.9475803,
        -7.4378366,
        9.6435795,
        -7.9703903,
        2.760686,
        -4.651148,
        -1.8959894,
        2.474123,
        9.4471,
        5.0193996,
        -3.9601178,
        2.528924,
        -4.1280646,
        -8.160896,
        5.1134863,
        2.1476707,
        -6.1174555,
        4.8946514,
        -6.068482,
        3.7627974,
        9.308414,
        2.206026,
        8.827877,
        5.657467,
        -9.363523,
        6.6169014,
        7.9877586,
        8.664965,
        6.000271,
        8.415985,
        -4.515905,
        4.1772785,
        -1.8778315,
        -1.9492903,
        3.2274904,
        -3.21598,
        5.6540623,
        8.947546,
        -9.067717,
        -5.6899924,
        -7.1585035,
        8.592316,
        -4.599275,
        -1.6046019,
        -3.6589308,
        8.702116,
        -5.498163,
        -7.971239,
        -3.1251116,
        -2.8119917,
        -0.7895603,
        -0.56944084,
        5.4718056,
        8.442211,
        -4.869475,
        3.7930098,
        9.943804,
        -4.35224,
        1.3923655,
        8.995806,
        -4.2532296,
        6.3436737,
        0.8281698,
        7.005686,
        -2.7796693,
        4.7429647,
        -9.968448,
        7.986603,
        -1.5886898,
        -3.526134,
        -4.0723486,
        7.337023,
        8.672642,
        -3.0619426,
        2.7397976,
        6.3587666,
        -1.4468327,
        -7.8361034,
        1.9006071,
        -7.7713633,
        7.8611183,
        -8.259851,
        -0.55783176,
        7.780573,
        0.8640871,
        -4.291081,
        -7.8010244,
        6.03211,
        -7.2508764,
        -5.477671,
        -2.3968234,
        8.505959,
        -9.150068,
        5.4947586,
        -0.89980507,
        -8.509905,
        1.7184534,
        -3.6025782,
        -3.9023466,
        3.5180244,
        -5.5754943,
        -7.280323,
        7.119812,
        -4.508886,
        4.5723543,
        2.5333395,
        9.066257,
        -4.1054506,
        -7.804446,
        7.5662174,
        -1.6796608,
        3.730651,
        -5.7719536,
        -1.7783298,
        -6.014597,
        1.1210356,
        5.192649,
        9.987261,
        5.048517,
        7.0687294,
        -0.89945984,
        5.728773,
        5.12356,
        -4.8927803,
        2.6310072,
        6.242859,
        -3.3126516,
        8.010918,
        -1.5134306,
        0.12062931,
        3.1016388,
        0.7782564,
        9.881582,
        8.701166,
        1.5291061,
        8.842163,
        -5.539939,
        4.5424023,
        -4.5809,
        -7.7875376,
        8.840755,
        -0.02581501,
        6.291567,
        -1.9527645,
        8.763809,
        0.44895267,
        -4.968087,
        1.9925747,
        5.3919687,
        9.992285,
        1.8320522,
        -7.3507805,
        -4.3897624,
        4.966255,
        -1.9793978,
        -7.0718355,
        0.053726196,
        -3.2733436,
        9.358648,
        4.3622103,
        -2.592506,
        -7.232032,
        3.3465662,
        2.9429808,
        8.288395,
        -2.5468154,
        -0.68881226,
        -8.300197,
        9.874235,
        2.070037,
        1.6899958,
        -7.7164793,
        -0.76632404,
        9.536184,
        -5.7819767,
        -8.970804,
        -5.633995,
        4.360284,
        7.6705494,
        8.217646,
        -7.838456,
        7.2407093,
        0.56847954,
        -1.3238068,
        -6.1414595,
        1.1591997,
        2.5116453,
        7.137327,
        6.5331707,
        -5.9811945,
        6.035452,
        -3.7326188,
        8.979561,
        -4.157271,
        3.777112,
        -3.57974,
        -0.43667507,
        5.4688873,
        -9.0569515,
        9.910755,
        6.3254128,
        8.912567,
        -1.6056337,
        -8.124921,
        -9.956994,
        -7.1280384,
        1.2587509,
        -0.44157887,
        -4.87482,
        5.170562,
        0.6588898,
        -3.8657565,
        -7.9435606,
        -0.05706978,
        7.266264,
        -7.591996,
        -3.9834328,
        2.6534424,
        0.4731617,
        -7.628441,
        -7.1591063,
        6.3591213,
        -4.1293283,
        6.161871,
        4.742688,
        1.057724,
        0.4483261,
        -5.1977773,
        -9.49927,
        0.6030617,
        -8.893835,
        7.1184196,
        -2.4406424,
        -5.017981,
        -3.8416786,
        -4.5630426,
        7.3496,
        9.2325115,
        -1.0936184,
        4.9821005,
        9.053936,
        -1.3684387,
        4.450794,
        8.842079,
        7.701084,
        -7.1028423,
        9.690214,
        1.539341,
        -1.6237469,
        -4.491846,
        -9.188428,
        -3.9971204,
        1.3528166,
        7.695057,
        2.044982,
        -0.8921976,
        -8.0306835,
        -3.5974665,
        -4.7181983,
        7.0058956,
        2.0656881,
        8.773813,
        2.4016705,
        1.5071716,
        9.203514,
        8.770924,
        -5.460324,
        8.891903,
        6.8116093,
        -1.1699553,
        6.9201584,
        -2.6968617,
        -4.677107,
        7.809948,
        -9.82965,
        6.8960667,
        2.625865,
        -2.442781,
        -2.861683,
        -0.67797565,
        -2.8045506,
        0.2204647,
        -7.2430058,
        -5.592801,
        -1.9730701,
        6.660433,
        6.582037,
        -6.6846437,
        -0.8558645,
        0.8931074,
        0.7726326,
        4.9799576,
        -3.5093517,
        8.958044,
        7.554188,
        0.05488968,
        -5.5350466,
        9.406139,
        6.6467495,
        3.4469042,
        -7.076537,
        6.631901,
        5.998637,
        5.5844517,
        6.331249,
        -2.5491328,
        -7.9301596,
        9.3106365,
        9.432926,
        5.7936735,
        -1.5237303,
        -0.86122894,
        -4.067311,
        -5.7341666,
        -2.9307027,
        1.9927607,
        5.543646,
        -6.245558,
        5.3365746,
        0.077711105,
        -6.1732073,
        3.8506327,
        8.297855,
        -8.777091,
        6.7596645,
        9.791199,
        -2.3646536,
        4.4563303,
        3.931652,
        9.5328045,
        2.0802727,
        -3.815865,
        -3.7573452,
        -7.6049204,
        -2.1059074,
        -0.31350327,
        1.6847506,
        -1.0855598,
        -4.3453593,
        6.9268246,
        4.1903677,
        6.9165897,
        -4.484696,
        -8.081055,
        -1.6668339,
        -0.34255886,
        -5.74202,
        -3.582086,
        -5.800595,
        6.2510605,
        -4.0060396,
        -1.0333462,
        2.5696936,
        -1.3833799,
        -4.7488995,
        2.525526,
        4.3175926,
        -6.5486574,
        3.9919748,
        4.245247,
        -2.192029,
        -9.839503,
        -7.050562,
        3.888258,
        -3.7182755,
        5.2505465,
        5.828597,
        -1.0450907,
        -0.23198795,
        0.8621845,
        -8.635833,
        6.0462,
        -5.289199,
        5.34126,
        5.448617,
        8.493706,
        4.914938,
        -3.4950538,
        8.873293,
        0.48405552,
        7.385906,
        7.5563335,
        5.324892,
        6.9849987,
        -0.012420654,
        -3.3788128,
        9.879002,
        5.7228155,
        6.452667,
        -5.0506563,
        1.5757313,
        8.188595,
        -7.9586763,
        9.152109,
        -3.8936968,
        2.6298866,
        4.440137,
        -9.492967,
        3.7575636,
        1.707758,
        7.113632,
        4.9032364,
        3.8835917,
        4.416975,
        8.399397,
        -0.16658211,
        0.597538,
        -3.6376305,
        -5.604629,
        -5.1241584,
        -2.5152512,
        6.098776,
        4.452986,
        3.777648,
        7.604639,
        9.76256,
        5.317499,
        6.6741943,
        -8.068271,
        -3.3521552,
        0.19576931,
        -8.919849,
        -0.43530655,
        -8.3180065,
        9.118572,
        0.24776554,
        -4.2642303,
        1.7768707,
        4.57333,
        7.3761997,
        -1.7463703,
        5.5576773,
        -6.6662836,
        -1.7561646,
        0.39626217,
        -5.542626,
        2.1683369,
        9.947935,
        -8.567006,
        9.8316345,
        -7.034313,
        -3.589055,
        0.64046764,
        3.5836182,
        6.1739445,
        -8.552747,
        4.979247,
        7.27112,
        2.603241,
        6.036274,
        8.734858,
        -9.610865,
        -9.204275,
        4.8871174,
        9.767437,
        3.4679995,
        -9.528186,
        2.6116982,
        8.980728,
        1.2839565,
        7.2830257,
        3.3208427,
        2.9044476,
        -1.8012018,
        4.933323,
        5.9413376,
        -0.7902975,
        -7.9661007,
        0.9889116,
        -6.3520594,
        0.38781548,
        0.66875076,
        7.761421,
        -6.843128,
        -9.293863,
        8.409456,
        3.0902662,
        -5.508024,
        -8.345348,
        5.8175344,
        -1.4938421,
        -2.9630322,
        0.66506004,
        7.6706085,
        7.442793,
        -2.9676576,
        3.3786287,
        -0.42275333,
        -4.060008,
        -8.155799,
        7.85153,
        -4.7663517,
        9.69186,
        5.4598207,
        -1.6867723,
        9.749599,
        9.484573,
        9.179777,
        -0.9193554,
        2.3915253,
        4.0389385,
        0.05316353,
        3.1513777,
        5.567855,
        6.759493,
        9.790146,
        1.2561522,
        -4.1517467,
        6.29879,
        -8.980009,
        -8.988111,
        7.672228,
        -5.8206863,
        2.1284428,
        3.4236917,
        -6.2204022,
        -5.658793,
        6.930895,
        4.3113766,
        -5.38717,
        2.3996792,
        -4.6498985,
        -6.182079,
        -0.48477554,
        8.197166,
        3.876051,
        5.1809587,
        1.6224566,
        -5.841765,
        6.211073,
        7.045189,
        -6.65168,
        4.623164,
        1.5807972,
        -9.100137,
        9.593622,
        1.2670193,
        5.0107136,
        -1.8052645,
        -0.69154453,
        -7.2107096,
        6.026684,
        1.5125599,
        -3.3570786,
        -5.5039687,
        6.401596,
        -2.622542,
        9.327421,
        2.3359356,
        1.9573221,
        1.9858637,
        -0.7527962,
        5.726449,
        -5.506675,
        -4.459879,
        -1.5889969,
        7.7190514,
        -4.2493815,
        -7.496125,
        1.5587034,
        8.275423,
        5.2358646,
        -1.8969765,
        -6.842596,
        4.133605,
        -7.857229,
        -4.7791333,
        -9.770519,
        4.653941,
        -3.6078758,
        7.8015194,
        5.6966896,
        5.680565,
        5.8783455,
        1.9312563,
        1.7326632,
        1.1742105,
        1.0867777,
        8.640842,
        -7.4971695,
        -1.9170017,
        8.988621,
        -5.4403133,
        8.296581,
        -8.109347,
        2.1875992,
        3.7073746,
        1.9905605,
        -5.08728,
        2.8990784,
        1.4859734,
        1.8126955,
        -4.4716043,
        4.7763023,
        8.028919,
        6.645998,
        -7.620742,
        -1.5047779,
        -1.4743128,
        2.008749,
        6.295883,
        9.981009,
        -7.73936,
        -5.7960267,
        -1.8371172,
        -9.300544,
        8.946281,
        0.7321062,
        0.40793514,
        -5.9885592,
        -1.0825605,
        -1.0815945,
        4.036628,
        -0.10874939,
        1.8375053,
        7.456785,
        8.269629,
        0.27911758,
        2.0460424,
        -2.4527183,
        5.5059566,
        -4.763748,
        1.666812,
        -8.4022875,
        -5.7300277,
        -4.3058486,
        -8.021417,
        -9.787083,
        -9.135842,
        0.7458391,
        -9.669642,
        9.472382,
        0.23085499,
        -5.415141,
        -7.146058,
        -6.109342,
        5.527026,
        2.292162,
        6.951847,
        -1.7674799,
        2.775155,
        -1.9493456,
        1.7036781,
        0.4279623,
        6.377178,
        -5.89271,
        2.8335037,
        -5.6162925,
        -4.6535177,
        2.8076944,
        9.727871,
        9.898304,
        -2.104453,
        -2.1214046,
        2.4932518,
        8.752089,
        6.539671,
        -6.0940404,
        8.091452,
        9.276825,
        -6.2717676,
        -8.190064,
        9.491526,
        4.4835863,
        5.1937046,
        -1.573967,
        -7.4336023,
        9.32733,
        -1.6321554,
        1.2258472,
        -4.892778,
        1.425313,
        2.9110136,
        -1.4485111,
        -4.374003,
        8.361811,
        -3.687138,
        2.9281225,
        -1.7714872,
        -5.9539075,
        9.557571,
        -5.7987638,
        3.309001,
        -3.4052749,
        6.6287556,
        9.917479,
        -3.5424418,
        8.582659,
        4.871258,
        3.5639725,
        -2.4963846,
        -3.6787982,
        2.6410923,
        9.073416,
        1.3015547,
        0.98342514,
        -3.5333438,
        1.6516867,
        -4.7607512,
        5.373019,
        8.591351,
        -2.1093526,
        -1.9211168,
        -7.0003242,
        1.4442883,
        -7.114522,
        -4.88671,
        -7.9147453,
        7.7713966,
        -3.3712716,
        1.1341867,
        9.514336,
        -7.410886,
        -1.348588,
        6.866394,
        -5.2077527,
        3.3301601,
        8.874155,
        9.883577,
        -4.214222,
        6.1240826,
        -8.650734,
        -1.8970127,
        -8.150551,
        -6.155395,
        -7.527072,
        1.7351141,
        -6.472871,
        6.425314,
        5.1763506,
        8.179487,
        3.6274137,
        -6.1645575,
        4.2227135,
        0.4574194,
        -3.0073566,
        6.8996754,
        -3.2141562,
        7.700325,
        -1.0462017,
        4.2542543,
        8.784243,
        1.0620346,
        9.717117,
        8.991409,
        -1.602294,
        -4.0117307,
        8.900095,
        5.078518,
        6.208807,
        4.646715,
        -2.4924555,
        -7.4775333,
        3.8886747,
        8.275496,
        -5.3322597,
        -4.0819855,
        -4.9656696,
        4.8221245,
        1.413311,
        -1.3881607,
        6.02503,
        3.2275972,
        -0.6423683,
        -6.6984386,
        5.7934847,
        0.25480175,
        5.6513157,
        6.2099476,
        -3.3839078,
        -5.678684,
        -9.163711,
        -8.03878,
        -8.808517,
        1.2196646,
        -8.091027,
        5.9464617,
        -9.451327,
        -8.880798,
        -5.587792,
        3.4523668,
        -1.5479631,
        2.4257126,
        -4.151203,
        -5.348086,
        -9.992237,
        2.3237715,
        -2.6003332,
        -8.060598,
        9.212936,
        -5.8038254,
        9.855377,
        9.917805,
        3.3630428,
        -0.7447214,
        7.2467747,
        1.9590225,
        -6.4492083,
        -3.8425965,
        8.833706,
        0.32409286,
        6.325388,
        -7.4162073,
        -4.51786,
        -4.396064,
        0.04502201,
        9.777399,
        -5.0753493,
        -1.0677662,
        2.4697742,
        4.820033,
        -3.087966,
        7.7042885,
        -7.6490707,
        1.8902626,
        -5.1171536,
        -3.2627745,
        7.514311,
        -3.8291283,
        6.004114,
        -7.0330715,
        -4.1638966,
        6.0235443,
        7.103319,
        -4.900076,
        -5.793726,
        5.258569,
        -3.2340689,
        -8.708215,
        -6.9253635,
        6.2998714,
        -8.443853,
        -1.7096415,
        -3.7550707,
        -7.8855705,
        0.9855375,
        -7.0121546,
        0.13359642,
        -1.148633,
        -1.9644661,
        6.9508514,
        -2.2702184,
        -6.167204,
        5.002157,
        -4.989235,
        -5.350997,
        0.2880516,
        -7.7532578,
        -6.5800495,
        1.9188461,
        -0.034317017,
        5.906698,
        4.839016,
        -1.3573904,
        9.413223,
        -2.3742404,
        -7.033725,
        2.852069,
        -4.3970747,
        3.8132515,
        2.558075,
        5.5540457,
        -2.030641,
        2.3638783,
        1.5508614,
        -8.13534,
        -7.9510403,
        -1.0710688,
        -9.902694,
        -5.548615,
        -2.9562087,
        9.813219,
        9.727728,
        6.1696053,
        -2.8739185,
        4.7389116,
        3.9816275,
        7.657194,
        -5.3979535,
        2.1384058,
        -4.201216,
        9.696255,
        -2.9291983,
        -1.3262215,
        7.6659355,
        -3.3497305,
        5.4982634,
        8.861078,
        3.4842005,
        9.262604,
        -4.5516176,
        9.502563,
        6.165062,
        7.7285156,
        2.4314156,
        1.0938606,
        -0.93580437,
        1.8755808,
        4.2594824,
        2.6989326,
        3.1664743,
        0.5801878,
        2.0643578,
        2.151884,
        -2.1476808,
        9.575491,
        -1.6484089,
        9.009401,
        -7.496195,
        -8.648682,
        3.2844505,
        -7.907979,
        6.86104,
        -6.054394,
        -9.805727,
        -0.2028408,
        -8.732877,
        9.189373,
        -3.1497402,
        -2.3608985,
        -5.054559,
        1.8059435,
        7.4610424,
        -9.785096,
        -1.3575163,
        7.541792,
        5.240161,
        -4.347276,
        -9.601514,
        -2.2532763,
        4.154168,
        1.3766041,
        -1.0767498,
        4.6384754,
        -2.3917737,
        -0.6242008,
        -3.6020322,
        -9.93722,
        -9.913783,
        -9.896523,
        -5.786001,
        5.010421,
        3.7042437,
        -3.2361693,
        -8.780727,
        2.558941,
        -0.02947712,
        1.0465374,
        5.027382,
        3.0547132,
        -2.142488,
        -4.160783,
        5.0919476,
        1.9135513,
        2.8069458,
        -4.0694566,
        -4.0004344,
        -5.190162,
        -9.624741,
        -1.142623,
        0.8420906,
        -3.5621376,
        -5.309381,
        -3.6551995,
        9.952112,
        2.8449306,
        -3.3254046,
        -5.361242,
        6.565052,
        -6.2694044,
        9.735636,
        -3.0972428,
        4.1472616,
        8.99202,
        6.569723,
        -4.3328185,
        1.6622553,
        -2.6998634,
        6.706753,
        0.091947556,
        6.531975,
        9.841782,
        -6.6211987,
        3.8470259,
        -7.789647,
        -4.7920246,
        -4.5291085,
        1.1370459,
        9.479031,
        -8.660526,
        -0.33028507,
        0.1578722,
        1.6252937,
        -8.983275,
        8.074865,
        1.0111799,
        -6.3340635,
        9.442564,
        7.295124,
        5.0831146,
        2.9824057,
        2.2596464,
        4.3583336,
        -9.83036,
        2.9510775,
        0.32953358,
        -8.586664,
        9.360014,
        9.774267,
        -5.639908,
        7.045166,
        0.5807123,
        3.8858328,
        -8.359577,
        0.3600254,
        -1.1554518,
        -3.7536306,
        -7.2035284,
        -5.5348105,
        -4.9957747,
        7.706066,
        -4.6829505,
        2.2973194,
        -9.568448,
        -4.7786136,
        2.455801,
        -5.4183264,
        2.0314445,
        9.239588,
        1.6654787,
        -1.6144867,
        -8.62394,
        -7.5054617,
        1.9947824,
        -6.107659,
        -6.504032,
        9.504236,
        -6.7075205,
        -6.653228,
        1.5505209,
        7.592308,
        -0.8826227,
        -7.3596067,
        -3.0815334,
        -5.221946,
        -3.2785172,
        -1.4329805,
        -6.7114086,
        5.662181,
        -7.0286674,
        -9.038134,
        -6.7937326,
        -2.4115386,
        -9.803686,
        9.262476,
        -4.4214673,
        -9.535327,
        2.9581585,
        8.014824,
        -0.19325447,
        -4.2293615,
        1.389471,
        8.556095,
        -4.009239,
        -9.904051,
        -1.3930197,
        6.2723255,
        8.227755,
        -2.3333945,
        2.9989395,
        3.9542446,
        6.8894215,
        -5.71572,
        0.021205902,
        9.163355,
        9.23049,
        -0.6117554,
        -1.244072,
        -8.348877,
        9.0390415,
        -3.4547658,
        8.127947,
        4.619499,
        8.988911,
        -4.5707293,
        -6.6165133,
        9.184748,
        -7.125346,
        -5.5433555,
        -3.7763686,
        -6.215398,
        7.9710617,
        -3.7710042,
        1.1342468,
        -0.12020779,
        -2.9163523,
        -5.2328057,
        -6.6313953,
        2.1131668,
        1.7160501,
        -1.4830961,
        3.0505238,
        -0.019943237,
        2.1242151,
        -0.395607,
        2.5652752,
        -7.160077,
        5.262388,
        7.0412025,
        2.3044024,
        6.364174,
        -3.9919753,
        9.459135,
        -0.49339008,
        0.25315666,
        6.4489307,
        -9.5582695,
        2.956811,
        4.260663,
        9.737759,
        -7.4983597,
        2.330881,
        4.862853,
        6.1861324,
        -6.846239,
        -3.9528031,
        4.766322,
        -9.1598625,
        3.2271662,
        3.5592375,
        -2.2901096,
        -3.9603133,
        -9.5776415,
