{
  "neurons": [
    {
      "index": 0,
      "output": 0.99736804,
      "input_connections": [
        [
          1,
          0.33218
        ],
        [
          2,
          0.05505736
        ],
        [
          3,
          -3.6590538
        ],
        [
          4,
          -0.13824582
        ],
        [
          5,
          0.23304299
        ]
      ],
      "bias": 0.5714576,
      "self_activation": -0.12490895,
      "retina_weights": [
        0.0,
        0.22254461,
        0.0,
        0.0,
        0.0,
        0.0,
        0.0,
        0.0,
        1.3803372,
        0.07113658,
        0.0,
        0.0,
        0.04602586,
        0.060356196,
        0.0,
        0.057901394,
        0.0,
        0.0,
        0.0,
        0.0,
        1.4322,
        -0.43584982,
        0.0047623515,
        -0.2391231,
        0.0,
        0.0,
        0.0,
        0.0,
        0.0,
        -0.15440068,
        0.0,
        -0.23810735,
        0.0,
        0.12908657,
        0.0,
        0.0,
        0.0,
        0.0,
        0.0,
        -0.049618118,
        0.0,
        0.0,
        -0.29682592,
        0.0,
        0.0,
        0.015043706,
        0.0,
        0.0,
        0.0,
        -0.18150592,
        0.22698507,
        0.0,
        0.0,
        -0.0070035458,
        0.0,
        3.9282236,
        0.0,
        0.0,
        0.0,
        0.18173534,
        0.0,
        0.0,
        0.0,
        -0.06217953,
        0.18407077,
        0.0,
        0.20291537,
        0.0,
        0.0,
        -0.05163031,
        -0.24675739,
        0.0,
        0.08112779,
        0.0019082576,
        0.0,
        0.11567298,
        0.0,
        0.0,
        -0.006662883,
        0.0,
        0.0
      ]
    },
    {
      "index": 1,
      "output": -0.80622107,
      "input_connections": [
        [
          0,
          -2.6484938
        ],
        [
          2,
          0.24344423
        ],
        [
          3,
          -3.640911
        ],
        [
          4,
          -0.08384771
        ],
        [
          5,
          -3.9426003
        ]
      ],
      "bias": 0.028379664,
      "self_activation": 0.23107105,
      "retina_weights": [
        0.19935909,
        -0.11535645,
        0.0,
        0.0265112,
        0.0,
        -0.06476527,
        0.0,
        0.0,
        -0.05863235,
        0.0,
        0.0,
        0.0,
        0.14361101,
        0.1447666,
        -0.030083485,
        0.3089951,
        0.0,
        0.0,
        0.0,
        0.0,
        0.0,
        0.0,
        -0.28098753,
        0.11369376,
        -2.9913282,
        0.0,
        0.0,
        0.0,
        0.0,
        0.0,
        0.0,
        0.0,
        0.0,
        0.29134047,
        -0.03216473,
        0.4728853,
        0.0,
        -1.4852731,
        0.0,
        -0.02554416,
        0.0,
        0.0,
        0.0,
        0.0,
        0.0,
        0.0,
        -0.15303427,
        -0.097299196,
        0.0,
        0.0,
        0.0,
        0.0,
        0.46991202,
        0.0,
        0.0,
        0.0,
        0.0,
        0.21166262,
        0.0,
        0.0,
        0.0,
        0.099359624,
        3.4028912,
        0.0,
        0.0,
        0.0,
        -0.005316198,
        0.0,
        0.0,
        0.0,
        2.211173,
        1.4071116,
        0.0,
        1.1624589,
        3.375517,
        0.0,
        0.1893335,
        0.0,
        0.0,
        0.0,
        0.0
      ]
    },
    {
      "index": 2,
      "output": 0.999916,
      "input_connections": [
        [
          0,
          0.23865974
        ],
        [
          1,
          -0.18019226
        ],
        [
          3,
          -0.044212528
        ],
        [
          4,
          0.39862102
        ],
        [
          5,
          0.21485505
        ]
      ],
      "bias": -0.0078575015,
      "self_activation": 0.475349,
      "retina_weights": [
        0.0,
        -0.4085879,
        -0.0428515,
        -0.039658867,
        0.25771236,
        0.0,
        0.0,
        0.0,
        0.4462743,
        -0.012157224,
        0.24890676,
        0.0,
        0.2134645,
        0.045543414,
        0.0,
        0.09211737,
        0.25284576,
        -0.27113232,
        0.0,
        0.12525731,
        0.1950821,
        -0.11379767,
        0.52151537,
        0.29636422,
        0.36300516,
        0.0,
        0.0,
        0.0,
        0.0,
        0.04894036,
        0.0,
        -0.13393313,
        0.15793243,
        0.0,
        -0.1662119,
        0.12199536,
        -0.31466532,
        0.0,
        0.0,
        0.20932567,
        0.44264936,
        0.0,
        0.2829111,
        0.050631497,
        0.0,
        0.0,
        0.026302367,
        0.058995046,
        0.0,
        0.0,
        -0.02774445,
        0.0,
        -0.02534882,
        0.0,
        0.0,
        0.15606979,
        0.15060136,
        0.45020562,
        0.0,
        0.0,
        0.0,
        0.44329447,
        -0.03148853,
        -0.21354178,
        -0.0023124367,
        0.22715464,
        0.0,
        0.0,
        0.18165717,
        -0.16680163,
        -0.33813405,
        -0.12017078,
        0.38169444,
        0.092385,
        0.0,
        0.12750572,
        0.0,
        0.16359293,
        0.0,
        -0.014623329,
        0.029326074
      ]
    },
    {
      "index": 3,
      "output": 0.9999043,
      "input_connections": [
        [
          0,
          -0.20750657
        ],
        [
          1,
          -0.29575226
        ],
        [
          2,
          0.09867319
        ],
        [
          4,
          -0.037114985
        ],
        [
          5,
          -0.2110635
        ]
      ],
      "bias": 0.41232726,
      "self_activation": 0.048547197,
      "retina_weights": [
        0.33582598,
        0.0,
        0.0,
        0.39682305,
        0.0,
        0.14617233,
        0.38863868,
        0.0,
        -0.14976737,
        0.2834603,
        -0.06513331,
        0.0,
        0.0,
        -0.091699876,
        0.0,
        0.20171812,
        0.0,
        -0.07519347,
        -0.17379582,
        -0.22097275,
        0.1673299,
        -0.19042346,
        0.18247029,
        0.19045186,
        0.0,
        0.3750994,
        0.04906237,
        0.0,
        0.4984449,
        -0.04875026,
        -0.1339286,
        -0.0035693273,
        0.18109474,
        0.11803999,
        0.0,
        0.0,
        0.37318838,
        0.0,
        0.09181203,
        0.0,
        0.26859412,
        -0.16052628,
        -0.048946984,
        0.10254042,
        0.047043573,
        0.28925842,
        -0.0004950762,
        0.0,
        -0.17602909,
        0.08126894,
        0.30482438,
        0.20750281,
        0.21423393,
        0.043323334,
        0.4160147,
        0.0,
        -2.1575353,
        -0.08780118,
        -0.050376482,
        0.10198327,
        1.8097014,
        0.0,
        0.19308582,
        0.13608558,
        -0.1950171,
        0.028413966,
        0.04688735,
        -0.2020418,
        0.0,
        -0.05679632,
        -0.9107013,
        0.1235497,
        1.0712323,
        -0.14943591,
        0.0,
        0.0,
        0.0,
        -0.073737375,
        0.052617583,
        0.0,
        0.45891693
      ]
    },
    {
      "index": 4,
      "output": -0.9980086,
      "input_connections": [
        [
          0,
          0.36261418
        ],
        [
          1,
          3.0270424
        ],
        [
          2,
          0.25521812
        ],
        [
          3,
          0.34380358
        ],
        [
          5,
          -0.41589805
        ]
      ],
      "bias": -0.2690322,
      "self_activation": 0.030069597,
      "retina_weights": [
        0.0,
        0.0,
        0.17755148,
        0.0,
        -0.079480134,
        2.1334991,
        -0.040552936,
        -0.1423004,
        -0.4562211,
        0.0,
        0.23275498,
        -1.7501934,
        0.26406938,
        0.0,
        0.0,
        -0.044124745,
        0.0,
        0.27081588,
        0.2502571,
        0.40041763,
        0.11577589,
        -0.3240997,
        -3.149127,
        0.25502253,
        0.0,
        -0.006081894,
        0.0,
        -0.25295725,
        0.2666584,
        0.6289049,
        0.13341448,
        0.008044668,
        0.0,
        0.0,
        0.012503952,
        0.0,
        0.2097952,
        0.0,
        0.0,
        0.0,
        0.0,
        -0.12864104,
        -0.16880041,
        0.3232288,
        0.0,
        -1.5677726,
        0.4291745,
        0.0,
        0.0,
        0.15254721,
        0.0,
        0.39541727,
        -0.31691286,
        0.0,
        0.0,
        -0.16062665,
        0.0,
        0.11608152,
        -0.19975615,
        0.32202205,
        -0.02018024,
        0.0,
        0.0,
        0.0,
        0.0,
        -0.18006492,
        0.0,
        -0.08132041,
        0.0,
        0.46688658,
        0.0,
        0.0,
        0.0,
        0.0,
        0.0,
        0.0,
        0.20871468,
        0.0,
        0.0,
        0.0,
        0.029778354
      ]
    },
    {
      "index": 5,
      "output": 0.9876828,
      "input_connections": [
        [
          0,
          0.2997869
        ],
        [
          1,
          -0.012308717
        ],
        [
          2,
          -0.08920885
        ],
        [
          3,
          0.026842132
        ],
        [
          4,
          0.14989829
        ]
      ],
      "bias": -0.15620375,
      "self_activation": 0.0,
      "retina_weights": [
        0.0,
        0.0,
        -0.0641151,
        0.0,
        -0.05358941,
        0.16613773,
        0.0,
        0.0,
        0.0,
        -0.2216604,
        -0.21343994,
        -0.23203743,
        -0.17143798,
        0.17326936,
        0.0,
        -0.092299886,
        0.12719312,
        0.0,
        0.26023862,
        0.12936911,
        0.0,
        0.0,
        0.0,
        -0.13683444,
        0.0,
        0.32195255,
        0.0,
        0.09360978,
        0.14374232,
        0.0,
        -0.019036576,
        0.0,
        0.0,
        0.0,
        0.0,
        0.0,
        0.2472035,
        0.1504076,
        -0.20604622,
        0.0,
        0.0,
        0.0,
        0.03353043,
        0.3504483,
        2.4531002,
        0.06804873,
        0.06505911,
        0.0,
        0.0,
        0.10397328,
        0.0,
        0.2224378,
        -0.06208677,
        -0.2326799,
        0.0,
        0.08617658,
        0.0,
        -0.3537171,
        0.0,
        0.0,
        0.0,
        0.024635985,
        0.21464586,
        0.0,
        0.0,
        0.12954599,
        0.29609305,
        0.32645187,
        0.11507321,
        -2.1852987,
        0.0,
        0.0,
        0.19999684,
        0.28116307,
        0.0,
        -0.22040227,
        0.0,
        0.0036026388,
        0.18916109,
        0.0,
        0.08952345
      ]
    }
  ],
  "short_term_memory": {
    "snapshots": [
      {
        "outputs": [
          0.99736804,
          -0.80622107,
          0.999916,
          0.9999043,
          -0.9980086,
          0.9876828
        ],
        "time_step": 0
      },
      {
        "outputs": [
          0.99736804,
          -0.80622107,
          0.999916,
          0.9999043,
          -0.9980086,
          0.9876828
        ],
        "time_step": 1
      },
      {
        "outputs": [
          0.99736804,
          -0.80622107,
          0.999916,
          0.9999043,
          -0.9980086,
          0.9876828
        ],
        "time_step": 2
      },
      {
        "outputs": [
          0.99736804,
          -0.80622107,
          0.999916,
          0.9999043,
          -0.9980086,
          0.9876828
        ],
        "time_step": 3
      },
      {
        "outputs": [
          0.99736804,
          -0.80622107,
          0.999916,
          0.9999043,
          -0.9980086,
          0.9876828
        ],
        "time_step": 4
      },
      {
        "outputs": [
          0.99736804,
          -0.80622107,
          0.999916,
          0.9999043,
          -0.9980086,
          0.9876828
        ],
        "time_step": 5
      },
      {
        "outputs": [
          0.99736804,
          -0.80622107,
          0.999916,
          0.9999043,
          -0.9980086,
          0.9876828
        ],
        "time_step": 6
      },
      {
        "outputs": [
          0.99736804,
          -0.80622107,
          0.999916,
          0.9999043,
          -0.9980086,
          0.9876828
        ],
        "time_step": 7
      },
      {
        "outputs": [
          0.99736804,
          -0.80622107,
          0.999916,
          0.9999043,
          -0.9980086,
          0.9876828
        ],
        "time_step": 8
      },
      {
        "outputs": [
          0.99736804,
          -0.80622107,
          0.999916,
          0.9999043,
          -0.9980086,
          0.9876828
        ],
        "time_step": 9
      },
      {
        "outputs": [
          0.99736804,
          -0.80622107,
          0.999916,
          0.9999043,
          -0.9980086,
          0.9876828
        ],
        "time_step": 10
      },
      {
        "outputs": [
          0.99736804,
          -0.80622107,
          0.999916,
          0.9999043,
          -0.9980086,
          0.9876828
        ],
        "time_step": 11
      },
      {
        "outputs": [
          0.99736804,
          -0.80622107,
          0.999916,
          0.9999043,
          -0.9980086,
          0.9876828
        ],
        "time_step": 12
      },
      {
        "outputs": [
          0.99736804,
          -0.80622107,
          0.999916,
          0.9999043,
          -0.9980086,
          0.9876828
        ],
        "time_step": 13
      },
      {
        "outputs": [
          0.99736804,
          -0.80622107,
          0.999916,
          0.9999043,
          -0.9980086,
          0.9876828
        ],
        "time_step": 14
      },
      {
        "outputs": [
          0.99736804,
          -0.80622107,
          0.999916,
          0.9999043,
          -0.9980086,
          0.9876828
        ],
        "time_step": 15
      },
      {
        "outputs": [
          0.99736804,
          -0.80622107,
          0.999916,
          0.9999043,
          -0.9980086,
          0.9876828
        ],
        "time_step": 16
      },
      {
        "outputs": [
          0.99736804,
          -0.80622107,
          0.999916,
          0.9999043,
          -0.9980086,
          0.9876828
        ],
        "time_step": 17
      },
      {
        "outputs": [
          0.99736804,
          -0.80622107,
          0.999916,
          0.9999043,
          -0.9980086,
          0.9876828
        ],
        "time_step": 18
      },
      {
        "outputs": [
          0.99736804,
          -0.80622107,
          0.999916,
          0.9999043,
          -0.9980086,
          0.9876828
        ],
        "time_step": 19
      },
      {
        "outputs": [
          0.99736804,
          -0.80622107,
          0.999916,
          0.9999043,
          -0.9980086,
          0.9876828
        ],
        "time_step": 20
      },
      {
        "outputs": [
          0.99736804,
          -0.80622107,
          0.999916,
          0.9999043,
          -0.9980086,
          0.9876828
        ],
        "time_step": 21
      },
      {
        "outputs": [
          0.99736804,
          -0.80622107,
          0.999916,
          0.9999043,
          -0.9980086,
          0.9876828
        ],
        "time_step": 22
      },
      {
        "outputs": [
          0.99736804,
          -0.80622107,
          0.999916,
          0.9999043,
          -0.9980086,
          0.9876828
        ],
        "time_step": 23
      },
      {
        "outputs": [
          0.99736804,
          -0.80622107,
          0.999916,
          0.9999043,
          -0.9980086,
          0.9876828
        ],
        "time_step": 24
      },
      {
        "outputs": [
          0.99736804,
          -0.80622107,
          0.999916,
          0.9999043,
          -0.9980086,
          0.9876828
        ],
        "time_step": 25
      },
      {
        "outputs": [
          0.99736804,
          -0.80622107,
          0.999916,
          0.9999043,
          -0.9980086,
          0.9876828
        ],
        "time_step": 26
      },
      {
        "outputs": [
          0.99736804,
          -0.80622107,
          0.999916,
          0.9999043,
          -0.9980086,
          0.9876828
        ],
        "time_step": 27
      },
      {
        "outputs": [
          0.99736804,
          -0.80622107,
          0.999916,
          0.9999043,
          -0.9980086,
          0.9876828
        ],
        "time_step": 28
      },
      {
        "outputs": [
          0.99736804,
          -0.80622107,
          0.999916,
          0.9999043,
          -0.9980086,
          0.9876828
        ],
        "time_step": 29
      },
      {
        "outputs": [
          0.99736804,
          -0.80622107,
          0.999916,
          0.9999043,
          -0.9980086,
          0.9876828
        ],
        "time_step": 30
      },
      {
        "outputs": [
          0.99736804,
          -0.80622107,
          0.999916,
          0.9999043,
          -0.9980086,
          0.9876828
        ],
        "time_step": 31
      },
      {
        "outputs": [
          0.99736804,
          -0.80622107,
          0.999916,
          0.9999043,
          -0.9980086,
          0.9876828
        ],
        "time_step": 32
      },
      {
        "outputs": [
          0.99736804,
          -0.80622107,
          0.999916,
          0.9999043,
          -0.9980086,
          0.9876828
        ],
        "time_step": 33
      },
      {
        "outputs": [
          0.99736804,
          -0.80622107,
          0.999916,
          0.9999043,
          -0.9980086,
          0.9876828
        ],
        "time_step": 34
      },
      {
        "outputs": [
          0.99736804,
          -0.80622107,
          0.999916,
          0.9999043,
          -0.9980086,
          0.9876828
        ],
        "time_step": 35
      },
      {
        "outputs": [
          0.99736804,
          -0.80622107,
          0.999916,
          0.9999043,
          -0.9980086,
          0.9876828
        ],
        "time_step": 36
      },
      {
        "outputs": [
          0.99736804,
          -0.80622107,
          0.999916,
          0.9999043,
          -0.9980086,
          0.9876828
        ],
        "time_step": 37
      },
      {
        "outputs": [
          0.99736804,
          -0.80622107,
          0.999916,
          0.9999043,
          -0.9980086,
          0.9876828
        ],
        "time_step": 38
      },
      {
        "outputs": [
          0.99736804,
          -0.80622107,
          0.999916,
          0.9999043,
          -0.9980086,
          0.9876828
        ],
        "time_step": 39
      },
      {
        "outputs": [
          0.99736804,
          -0.80622107,
          0.999916,
          0.9999043,
          -0.9980086,
          0.9876828
        ],
        "time_step": 40
      },
      {
        "outputs": [
          0.99736804,
          -0.80622107,
          0.999916,
          0.9999043,
          -0.9980086,
          0.9876828
        ],
        "time_step": 41
      },
      {
        "outputs": [
          0.99736804,
          -0.80622107,
          0.999916,
          0.9999043,
          -0.9980086,
          0.9876828
        ],
        "time_step": 42
      },
      {
        "outputs": [
          0.99736804,
          -0.80622107,
          0.999916,
          0.9999043,
          -0.9980086,
          0.9876828
        ],
        "time_step": 43
      },
      {
        "outputs": [
          0.99736804,
          -0.80622107,
          0.999916,
          0.9999043,
          -0.9980086,
          0.9876828
        ],
        "time_step": 44
      },
      {
        "outputs": [
          0.99736804,
          -0.80622107,
          0.999916,
          0.9999043,
          -0.9980086,
          0.9876828
        ],
        "time_step": 45
      },
      {
        "outputs": [
          0.99736804,
          -0.80622107,
          0.999916,
          0.9999043,
          -0.9980086,
          0.9876828
        ],
        "time_step": 46
      },
      {
        "outputs": [
          0.99736804,
          -0.80622107,
          0.999916,
          0.9999043,
          -0.9980086,
          0.9876828
        ],
        "time_step": 47
      },
      {
        "outputs": [
          0.99736804,
          -0.80622107,
          0.999916,
          0.9999043,
          -0.9980086,
          0.9876828
        ],
        "time_step": 48
      },
      {
        "outputs": [
          0.99736804,
          -0.80622107,
          0.999916,
          0.9999043,
          -0.9980086,
          0.9876828
        ],
        "time_step": 49
      },
      {
        "outputs": [
          0.99736804,
          -0.80622107,
          0.999916,
          0.9999043,
          -0.9980086,
          0.9876828
        ],
        "time_step": 50
      },
      {
        "outputs": [
          0.99736804,
          -0.80622107,
          0.999916,
          0.9999043,
          -0.9980086,
          0.9876828
        ],
        "time_step": 51
      },
      {
        "outputs": [
          0.99736804,
          -0.80622107,
          0.999916,
          0.9999043,
          -0.9980086,
          0.9876828
        ],
        "time_step": 52
      },
      {
        "outputs": [
          0.99736804,
          -0.80622107,
          0.999916,
          0.9999043,
          -0.9980086,
          0.9876828
        ],
        "time_step": 53
      },
      {
        "outputs": [
          0.99736804,
          -0.80622107,
          0.999916,
          0.9999043,
          -0.9980086,
          0.9876828
        ],
        "time_step": 54
      },
      {
        "outputs": [
          0.99736804,
          -0.80622107,
          0.999916,
          0.9999043,
          -0.9980086,
          0.9876828
        ],
        "time_step": 55
      },
      {
        "outputs": [
          0.99736804,
          -0.80622107,
          0.999916,
          0.9999043,
          -0.9980086,
          0.9876828
        ],
        "time_step": 56
      },
      {
        "outputs": [
          0.99736804,
          -0.80622107,
          0.999916,
          0.9999043,
          -0.9980086,
          0.9876828
        ],
        "time_step": 57
      },
      {
        "outputs": [
          0.99736804,
          -0.80622107,
          0.999916,
          0.9999043,
          -0.9980086,
          0.9876828
        ],
        "time_step": 58
      },
      {
        "outputs": [
          0.99736804,
          -0.80622107,
          0.999916,
          0.9999043,
          -0.9980086,
          0.9876828
        ],
        "time_step": 59
      },
      {
        "outputs": [
          0.99736804,
          -0.80622107,
          0.999916,
          0.9999043,
          -0.9980086,
          0.9876828
        ],
        "time_step": 60
      },
      {
        "outputs": [
          0.99736804,
          -0.80622107,
          0.999916,
          0.9999043,
          -0.9980086,
          0.9876828
        ],
        "time_step": 61
      },
      {
        "outputs": [
          0.99736804,
          -0.80622107,
          0.999916,
          0.9999043,
          -0.9980086,
          0.9876828
        ],
        "time_step": 62
      },
      {
        "outputs": [
          0.99736804,
          -0.80622107,
          0.999916,
          0.9999043,
          -0.9980086,
          0.9876828
        ],
        "time_step": 63
      },
      {
        "outputs": [
          0.99736804,
          -0.80622107,
          0.999916,
          0.9999043,
          -0.9980086,
          0.9876828
        ],
        "time_step": 64
      },
      {
        "outputs": [
          0.99736804,
          -0.80622107,
          0.999916,
          0.9999043,
          -0.9980086,
          0.9876828
        ],
        "time_step": 65
      },
      {
        "outputs": [
          0.99736804,
          -0.80622107,
          0.999916,
          0.9999043,
          -0.9980086,
          0.9876828
        ],
        "time_step": 66
      },
      {
        "outputs": [
          0.99736804,
          -0.80622107,
          0.999916,
          0.9999043,
          -0.9980086,
          0.9876828
        ],
        "time_step": 67
      },
      {
        "outputs": [
          0.99736804,
          -0.80622107,
          0.999916,
          0.9999043,
          -0.9980086,
          0.9876828
        ],
        "time_step": 68
      },
      {
        "outputs": [
          0.99736804,
          -0.80622107,
          0.999916,
          0.9999043,
          -0.9980086,
          0.9876828
        ],
        "time_step": 69
      },
      {
        "outputs": [
          0.99736804,
          -0.80622107,
          0.999916,
          0.9999043,
          -0.9980086,
          0.9876828
        ],
        "time_step": 70
      },
      {
        "outputs": [
          0.99736804,
          -0.80622107,
          0.999916,
          0.9999043,
          -0.9980086,
          0.9876828
        ],
        "time_step": 71
      },
      {
        "outputs": [
          0.99736804,
          -0.80622107,
          0.999916,
          0.9999043,
          -0.9980086,
          0.9876828
        ],
        "time_step": 72
      },
      {
        "outputs": [
          0.99736804,
          -0.80622107,
          0.999916,
          0.9999043,
          -0.9980086,
          0.9876828
        ],
        "time_step": 73
      },
      {
        "outputs": [
          0.99736804,
          -0.80622107,
          0.999916,
          0.9999043,
          -0.9980086,
          0.9876828
        ],
        "time_step": 74
      },
      {
        "outputs": [
          0.99736804,
          -0.80622107,
          0.999916,
          0.9999043,
          -0.9980086,
          0.9876828
        ],
        "time_step": 75
      },
      {
        "outputs": [
          0.99736804,
          -0.80622107,
          0.999916,
          0.9999043,
          -0.9980086,
          0.9876828
        ],
        "time_step": 76
      },
      {
        "outputs": [
          0.99736804,
          -0.80622107,
          0.999916,
          0.9999043,
          -0.9980086,
          0.9876828
        ],
        "time_step": 77
      },
      {
        "outputs": [
          0.99736804,
          -0.80622107,
          0.999916,
          0.9999043,
          -0.9980086,
          0.9876828
        ],
        "time_step": 78
      },
      {
        "outputs": [
          0.99736804,
          -0.80622107,
          0.999916,
          0.9999043,
          -0.9980086,
          0.9876828
        ],
        "time_step": 79
      },
      {
        "outputs": [
          0.99736804,
          -0.80622107,
          0.999916,
          0.9999043,
          -0.9980086,
          0.9876828
        ],
        "time_step": 80
      },
      {
        "outputs": [
          0.99736804,
          -0.80622107,
          0.999916,
          0.9999043,
          -0.9980086,
          0.9876828
        ],
        "time_step": 81
      },
      {
        "outputs": [
          0.99736804,
          -0.80622107,
          0.999916,
          0.9999043,
          -0.9980086,
          0.9876828
        ],
        "time_step": 82
      },
      {
        "outputs": [
          0.99736804,
          -0.80622107,
          0.999916,
          0.9999043,
          -0.9980086,
          0.9876828
        ],
        "time_step": 83
      },
      {
        "outputs": [
          0.99736804,
          -0.80622107,
          0.999916,
          0.9999043,
          -0.9980086,
          0.9876828
        ],
        "time_step": 84
      },
      {
        "outputs": [
          0.99736804,
          -0.80622107,
          0.999916,
          0.9999043,
          -0.9980086,
          0.9876828
        ],
        "time_step": 85
      },
      {
        "outputs": [
          0.99736804,
          -0.80622107,
          0.999916,
          0.9999043,
          -0.9980086,
          0.9876828
        ],
        "time_step": 86
      },
      {
        "outputs": [
          0.99736804,
          -0.80622107,
          0.999916,
          0.9999043,
          -0.9980086,
          0.9876828
        ],
        "time_step": 87
      },
      {
        "outputs": [
          0.99736804,
          -0.80622107,
          0.999916,
          0.9999043,
          -0.9980086,
          0.9876828
        ],
        "time_step": 88
      },
      {
        "outputs": [
          0.99736804,
          -0.80622107,
          0.999916,
          0.9999043,
          -0.9980086,
          0.9876828
        ],
        "time_step": 89
      },
      {
        "outputs": [
          0.99736804,
          -0.80622107,
          0.999916,
          0.9999043,
          -0.9980086,
          0.9876828
        ],
        "time_step": 90
      },
      {
        "outputs": [
          0.99736804,
          -0.80622107,
          0.999916,
          0.9999043,
          -0.9980086,
          0.9876828
        ],
        "time_step": 91
      },
      {
        "outputs": [
          0.99736804,
          -0.80622107,
          0.999916,
          0.9999043,
          -0.9980086,
          0.9876828
        ],
        "time_step": 92
      },
      {
        "outputs": [
          0.99736804,
          -0.80622107,
          0.999916,
          0.9999043,
          -0.9980086,
          0.9876828
        ],
        "time_step": 93
      },
      {
        "outputs": [
          0.99736804,
          -0.80622107,
          0.999916,
          0.9999043,
          -0.9980086,
          0.9876828
        ],
        "time_step": 94
      },
      {
        "outputs": [
          0.99736804,
          -0.80622107,
          0.999916,
          0.9999043,
          -0.9980086,
          0.9876828
        ],
        "time_step": 95
      },
      {
        "outputs": [
          0.99736804,
          -0.80622107,
          0.999916,
          0.9999043,
          -0.9980086,
          0.9876828
        ],
        "time_step": 96
      },
      {
        "outputs": [
          0.99736804,
          -0.80622107,
          0.999916,
          0.9999043,
          -0.9980086,
          0.9876828
        ],
        "time_step": 97
      },
      {
        "outputs": [
          0.99736804,
          -0.80622107,
          0.999916,
          0.9999043,
          -0.9980086,
          0.9876828
        ],
        "time_step": 98
      },
      {
        "outputs": [
          0.99736804,
          -0.80622107,
          0.999916,
          0.9999043,
          -0.9980086,
          0.9876828
        ],
        "time_step": 99
      },
      {
        "outputs": [
          0.99736804,
          -0.80622107,
          0.999916,
          0.9999043,
          -0.9980086,
          0.9876828
        ],
        "time_step": 100
      }
    ]
  },
  "graph": {
    "nodes": [
      [
        0,
        0.57
      ],
      [
        1,
        0.03
      ],
      [
        2,
        -0.01
      ],
      [
        3,
        0.41
      ],
      [
        4,
        -0.27
      ],
      [
        5,
        -0.16
      ]
    ],
    "node_holes": [],
    "edge_property": "directed",
    "edges": [
      [
        0,
        0,
        -0.12
      ],
      [
        1,
        1,
        0.23
      ],
      [
        2,
        2,
        0.48
      ],
      [
        3,
        3,
        0.05
      ],
      [
        4,
        4,
        0.03
      ],
      [
        1,
        0,
        0.33
      ],
      [
        2,
        0,
        0.06
      ],
      [
        3,
        0,
        -3.66
      ],
      [
        4,
        0,
        -0.14
      ],
      [
        5,
        0,
        0.23
      ],
      [
        0,
        1,
        -2.65
      ],
      [
        2,
        1,
        0.24
      ],
      [
        3,
        1,
        -3.64
      ],
      [
        4,
        1,
        -0.08
      ],
      [
        5,
        1,
        -3.94
      ],
      [
        0,
        2,
        0.24
      ],
      [
        1,
        2,
        -0.18
      ],
      [
        3,
        2,
        -0.04
      ],
      [
        4,
        2,
        0.4
      ],
      [
        5,
        2,
        0.21
      ],
      [
        0,
        3,
        -0.21
      ],
      [
        1,
        3,
        -0.3
      ],
      [
        2,
        3,
        0.1
      ],
      [
        4,
        3,
        -0.04
      ],
      [
        5,
        3,
        -0.21
      ],
      [
        0,
        4,
        0.36
      ],
      [
        1,
        4,
        3.03
      ],
      [
        2,
        4,
        0.26
      ],
      [
        3,
        4,
        0.34
      ],
      [
        5,
        4,
        -0.42
      ],
      [
        0,
        5,
        0.3
      ],
      [
        1,
        5,
        -0.01
      ],
      [
        2,
        5,
        -0.09
      ],
      [
        3,
        5,
        0.03
      ],
      [
        4,
        5,
        0.15
      ]
    ]
  },
  "statistics": {
    "deleted_neurons": 0,
    "deleted_weights": 39,
    "deleted_biases": 0,
    "deleted_self_activations": 47,
    "mutated_neurons": 151,
    "mutated_weights": 192,
    "mutated_biases": 219,
    "mutated_self_activations": 248,
    "fitness": 0.0,
    "variance": 0.0
  },
  "mutation_variance": 0.2,
  "mean": 0.1,
  "retina_positions": [
    [
      {
        "x": 32,
        "y": 32
      },
      63,
      ""
    ],
    [
      {
        "x": 56,
        "y": 32
      },
      63,
      ""
    ],
    [
      {
        "x": 56,
        "y": 32
      },
      63,
      ""
    ],
    [
      {
        "x": 80,
        "y": 32
      },
      63,
      ""
    ],
    [
      {
        "x": 80,
        "y": 32
      },
      63,
      ""
    ],
    [
      {
        "x": 104,
        "y": 32
      },
      63,
      ""
    ],
    [
      {
        "x": 104,
        "y": 32
      },
      63,
      ""
    ],
    [
      {
        "x": 128,
        "y": 32
      },
      63,
      ""
    ],
    [
      {
        "x": 128,
        "y": 32
      },
      63,
      ""
    ],
    [
      {
        "x": 152,
        "y": 32
      },
      63,
      ""
    ],
    [
      {
        "x": 152,
        "y": 32
      },
      63,
      ""
    ],
    [
      {
        "x": 176,
        "y": 32
      },
      63,
      ""
    ],
    [
      {
        "x": 176,
        "y": 32
      },
      63,
      ""
    ],
    [
      {
        "x": 200,
        "y": 32
      },
      63,
      ""
    ],
    [
      {
        "x": 200,
        "y": 32
      },
      63,
      ""
    ],
    [
      {
        "x": 224,
        "y": 32
      },
      63,
      ""
    ],
    [
      {
        "x": 224,
        "y": 32
      },
      63,
      ""
    ],
    [
      {
        "x": 248,
        "y": 32
      },
      63,
      ""
    ],
    [
      {
        "x": 248,
        "y": 32
      },
      63,
      ""
    ],
    [
      {
        "x": 272,
        "y": 32
      },
      63,
      ""
    ],
    [
      {
        "x": 272,
        "y": 32
      },
      63,
      ""
    ],
    [
      {
        "x": 289,
        "y": 32
      },
      63,
      ""
    ],
    [
      {
        "x": 289,
        "y": 32
      },
      63,
      ""
    ],
    [
      {
        "x": 289,
        "y": 32
      },
      63,
      ""
    ],
    [
      {
        "x": 289,
        "y": 32
      },
      63,
      ""
    ],
    [
      {
        "x": 289,
        "y": 32
      },
      63,
      ""
    ],
    [
      {
        "x": 289,
        "y": 32
      },
      63,
      ""
    ],
    [
      {
        "x": 289,
        "y": 32
      },
      63,
      ""
    ],
    [
      {
        "x": 289,
        "y": 32
      },
      63,
      ""
    ],
    [
      {
        "x": 289,
        "y": 32
      },
      63,
      ""
    ],
    [
      {
        "x": 289,
        "y": 32
      },
      63,
      ""
    ],
    [
      {
        "x": 289,
        "y": 32
      },
      63,
      ""
    ],
    [
      {
        "x": 289,
        "y": 32
      },
      63,
      ""
    ],
    [
      {
        "x": 289,
        "y": 32
      },
      63,
      ""
    ],
    [
      {
        "x": 289,
        "y": 32
      },
      63,
      ""
    ],
    [
      {
        "x": 289,
        "y": 32
      },
      63,
      ""
    ],
    [
      {
        "x": 289,
        "y": 32
      },
      63,
      ""
    ],
    [
      {
        "x": 289,
        "y": 32
      },
      63,
      ""
    ],
    [
      {
        "x": 289,
        "y": 32
      },
      63,
      ""
    ],
    [
      {
        "x": 289,
        "y": 32
      },
      63,
      ""
    ],
    [
      {
        "x": 289,
        "y": 32
      },
      63,
      ""
    ],
    [
      {
        "x": 289,
        "y": 32
      },
      63,
      ""
    ],
    [
      {
        "x": 289,
        "y": 32
      },
      63,
      ""
    ],
    [
      {
        "x": 289,
        "y": 32
      },
      63,
      ""
    ],
    [
      {
        "x": 289,
        "y": 32
      },
      63,
      ""
    ],
    [
      {
        "x": 289,
        "y": 32
      },
      63,
      ""
    ],
    [
      {
        "x": 289,
        "y": 32
      },
      63,
      ""
    ],
    [
      {
        "x": 289,
        "y": 32
      },
      63,
      ""
    ],
    [
      {
        "x": 289,
        "y": 32
      },
      63,
      ""
    ],
    [
      {
        "x": 289,
        "y": 32
      },
      63,
      ""
    ],
    [
      {
        "x": 289,
        "y": 32
      },
      63,
      ""
    ],
    [
      {
        "x": 289,
        "y": 32
      },
      63,
      ""
    ],
    [
      {
        "x": 289,
        "y": 32
      },
      63,
      ""
    ],
    [
      {
        "x": 289,
        "y": 32
      },
      63,
      ""
    ],
    [
      {
        "x": 289,
        "y": 32
      },
      63,
      ""
    ],
    [
      {
        "x": 289,
        "y": 32
      },
      63,
      ""
    ],
    [
      {
        "x": 289,
        "y": 32
      },
      63,
      ""
    ],
    [
      {
        "x": 289,
        "y": 32
      },
      63,
      ""
    ],
    [
      {
        "x": 289,
        "y": 32
      },
      63,
      ""
    ],
    [
      {
        "x": 289,
        "y": 32
      },
      63,
      ""
    ],
    [
      {
        "x": 289,
        "y": 32
      },
      63,
      ""
    ],
    [
      {
        "x": 289,
        "y": 32
      },
      63,
      ""
    ],
    [
      {
        "x": 289,
        "y": 32
      },
      63,
      ""
    ],
    [
      {
        "x": 289,
        "y": 32
      },
      63,
      ""
    ],
    [
      {
        "x": 289,
        "y": 32
      },
      63,
      ""
    ],
    [
      {
        "x": 289,
        "y": 32
      },
      63,
      ""
    ],
    [
      {
        "x": 289,
        "y": 32
      },
      63,
      ""
    ],
    [
      {
        "x": 289,
        "y": 32
      },
      63,
      ""
    ],
    [
      {
        "x": 289,
        "y": 32
      },
      63,
      ""
    ],
    [
      {
        "x": 289,
        "y": 32
      },
      63,
      ""
    ],
    [
      {
        "x": 289,
        "y": 32
      },
      63,
      ""
    ],
    [
      {
        "x": 289,
        "y": 32
      },
      63,
      ""
    ],
    [
      {
        "x": 289,
        "y": 32
      },
      63,
      ""
    ],
    [
      {
        "x": 289,
        "y": 32
      },
      63,
      ""
    ],
    [
      {
        "x": 289,
        "y": 32
      },
      63,
      ""
    ],
    [
      {
        "x": 289,
        "y": 32
      },
      63,
      ""
    ],
    [
      {
        "x": 289,
        "y": 32
      },
      63,
      ""
    ],
    [
      {
        "x": 289,
        "y": 32
      },
      63,
      ""
    ],
    [
      {
        "x": 289,
        "y": 32
      },
      63,
      ""
    ],
    [
      {
        "x": 289,
        "y": 32
      },
      63,
      ""
    ],
    [
      {
        "x": 289,
        "y": 32
      },
      63,
      ""
    ],
    [
      {
        "x": 289,
        "y": 32
      },
      63,
      ""
    ],
    [
      {
        "x": 289,
        "y": 32
      },
      63,
      ""
    ],
    [
      {
        "x": 289,
        "y": 32
      },
      63,
      ""
    ],
    [
      {
        "x": 289,
        "y": 32
      },
      63,
      ""
    ],
    [
      {
        "x": 289,
        "y": 32
      },
      63,
      ""
    ],
    [
      {
        "x": 289,
        "y": 32
      },
      63,
      ""
    ],
    [
      {
        "x": 289,
        "y": 32
      },
      63,
      ""
    ],
    [
      {
        "x": 289,
        "y": 32
      },
      63,
      ""
    ],
    [
      {
        "x": 289,
        "y": 32
      },
      63,
      ""
    ],
    [
      {
        "x": 289,
        "y": 32
      },
      63,
      ""
    ],
    [
      {
        "x": 289,
        "y": 32
      },
      63,
      ""
    ],
    [
      {
        "x": 289,
        "y": 32
      },
      63,
      ""
    ],
    [
      {
        "x": 289,
        "y": 32
      },
      63,
      ""
    ],
    [
      {
        "x": 289,
        "y": 32
      },
      63,
      ""
    ],
    [
      {
        "x": 289,
        "y": 32
      },
      63,
      ""
    ],
    [
      {
        "x": 289,
        "y": 32
      },
      63,
      ""
    ],
    [
      {
        "x": 289,
        "y": 32
      },
      63,
      ""
    ],
    [
      {
        "x": 289,
        "y": 32
      },
      63,
      ""
    ],
    [
      {
        "x": 289,
        "y": 32
      },
      63,
      ""
    ],
    [
      {
        "x": 289,
        "y": 32
      },
      63,
      ""
    ],
    [
      {
        "x": 289,
        "y": 32
      },
      63,
      ""
    ],
    [
      {
        "x": 289,
        "y": 32
      },
      63,
      ""
    ],
    [
      {
        "x": 289,
        "y": 32
      },
      63,
      ""
    ],
    [
      {
        "x": 289,
        "y": 32
      },
      63,
      ""
    ],
    [
      {
        "x": 289,
        "y": 32
      },
      63,
      ""
    ],
    [
      {
        "x": 289,
        "y": 32
      },
      63,
      ""
    ],
    [
      {
        "x": 289,
        "y": 32
      },
      63,
      ""
    ],
    [
      {
        "x": 289,
        "y": 32
      },
      63,
      ""
    ],
    [
      {
        "x": 289,
        "y": 32
      },
      63,
      ""
    ],
    [
      {
        "x": 289,
        "y": 32
      },
      63,
      ""
    ],
    [
      {
        "x": 289,
        "y": 32
      },
      63,
      ""
    ],
    [
      {
        "x": 289,
        "y": 32
      },
      63,
      ""
    ],
    [
      {
        "x": 289,
        "y": 32
      },
      63,
      ""
    ],
    [
      {
        "x": 289,
        "y": 32
      },
      63,
      ""
    ],
    [
      {
        "x": 289,
        "y": 32
      },
      63,
      ""
    ],
    [
      {
        "x": 289,
        "y": 32
      },
      63,
      ""
    ],
    [
      {
        "x": 289,
        "y": 32
      },
      63,
      ""
    ],
    [
      {
        "x": 289,
        "y": 32
      },
      63,
      ""
    ],
    [
      {
        "x": 289,
        "y": 32
      },
      63,
      ""
    ],
    [
      {
        "x": 289,
        "y": 32
      },
      63,
      ""
    ],
    [
      {
        "x": 289,
        "y": 32
      },
      63,
      ""
    ],
    [
      {
        "x": 289,
        "y": 32
      },
      63,
      ""
    ],
    [
      {
        "x": 289,
        "y": 32
      },
      63,
      ""
    ],
    [
      {
        "x": 289,
        "y": 32
      },
      63,
      ""
    ],
    [
      {
        "x": 289,
        "y": 32
      },
      63,
      ""
    ],
    [
      {
        "x": 289,
        "y": 32
      },
      63,
      ""
    ],
    [
      {
        "x": 289,
        "y": 32
      },
      63,
      ""
    ],
    [
      {
        "x": 289,
        "y": 32
      },
      63,
      ""
    ],
    [
      {
        "x": 289,
        "y": 32
      },
      63,
      ""
    ],
    [
      {
        "x": 289,
        "y": 32
      },
      63,
      ""
    ],
    [
      {
        "x": 289,
        "y": 32
      },
      63,
      ""
    ],
    [
      {
        "x": 289,
        "y": 32
      },
      63,
      ""
    ],
    [
      {
        "x": 289,
        "y": 32
      },
      63,
      ""
    ],
    [
      {
        "x": 289,
        "y": 32
      },
      63,
      ""
    ],
    [
      {
        "x": 289,
        "y": 32
      },
      63,
      ""
    ],
    [
      {
        "x": 289,
        "y": 32
      },
      63,
      ""
    ],
    [
      {
        "x": 289,
        "y": 32
      },
      63,
      ""
    ],
    [
      {
        "x": 289,
        "y": 32
      },
      63,
      ""
    ],
    [
      {
        "x": 289,
        "y": 32
      },
      63,
      ""
    ],
    [
      {
        "x": 289,
        "y": 32
      },
      63,
      ""
    ],
    [
      {
        "x": 289,
        "y": 32
      },
      63,
      ""
    ],
    [
      {
        "x": 289,
        "y": 32
      },
      63,
      ""
    ],
    [
      {
        "x": 289,
        "y": 32
      },
      63,
      ""
    ],
    [
      {
        "x": 289,
        "y": 32
      },
      63,
      ""
    ],
    [
      {
        "x": 289,
        "y": 32
      },
      63,
      ""
    ],
    [
      {
        "x": 289,
        "y": 32
      },
      63,
      ""
    ],
    [
      {
        "x": 289,
        "y": 32
      },
      63,
      ""
    ],
    [
      {
        "x": 289,
        "y": 32
      },
      63,
      ""
    ],
    [
      {
        "x": 289,
        "y": 32
      },
      63,
      ""
    ],
    [
      {
        "x": 289,
        "y": 32
      },
      63,
      ""
    ],
    [
      {
        "x": 289,
        "y": 32
      },
      63,
      ""
    ],
    [
      {
        "x": 289,
        "y": 32
      },
      63,
      ""
    ],
    [
      {
        "x": 289,
        "y": 32
      },
      63,
      ""
    ],
    [
      {
        "x": 289,
        "y": 32
      },
      63,
      ""
    ],
    [
      {
        "x": 289,
        "y": 32
      },
      63,
      ""
    ],
    [
      {
        "x": 289,
        "y": 32
      },
      63,
      ""
    ],
    [
      {
        "x": 289,
        "y": 32
      },
      63,
      ""
    ],
    [
      {
        "x": 289,
        "y": 32
      },
      63,
      ""
    ],
    [
      {
        "x": 289,
        "y": 32
      },
      63,
      ""
    ],
    [
      {
        "x": 289,
        "y": 32
      },
      63,
      ""
    ],
    [
      {
        "x": 289,
        "y": 32
      },
      63,
      ""
    ],
    [
      {
        "x": 289,
        "y": 32
      },
      63,
      ""
    ],
    [
      {
        "x": 289,
        "y": 32
      },
      63,
      ""
    ],
    [
      {
        "x": 289,
        "y": 32
      },
      63,
      ""
    ],
    [
      {
        "x": 289,
        "y": 32
      },
      63,
      ""
    ],
    [
      {
        "x": 289,
        "y": 32
      },
      63,
      ""
    ],
    [
      {
        "x": 289,
        "y": 32
      },
      63,
      ""
    ],
    [
      {
        "x": 289,
        "y": 32
      },
      63,
      ""
    ],
    [
      {
        "x": 289,
        "y": 32
      },
      63,
      ""
    ],
    [
      {
        "x": 289,
        "y": 32
      },
      63,
      ""
    ],
    [
      {
        "x": 289,
        "y": 32
      },
      63,
      ""
    ],
    [
      {
        "x": 289,
        "y": 32
      },
      63,
      ""
    ],
    [
      {
        "x": 289,
        "y": 32
      },
      63,
      ""
    ],
    [
      {
        "x": 289,
        "y": 32
      },
      63,
      ""
    ],
    [
      {
        "x": 289,
        "y": 32
      },
      63,
      ""
    ],
    [
      {
        "x": 289,
        "y": 32
      },
      63,
      ""
    ],
    [
      {
        "x": 289,
        "y": 32
      },
      63,
      ""
    ],
    [
      {
        "x": 289,
        "y": 32
      },
      63,
      ""
    ],
    [
      {
        "x": 289,
        "y": 32
      },
      63,
      ""
    ],
    [
      {
        "x": 289,
        "y": 32
      },
      63,
      ""
    ],
    [
      {
        "x": 289,
        "y": 32
      },
      63,
      ""
    ],
    [
      {
        "x": 289,
        "y": 32
      },
      63,
      ""
    ],
    [
      {
        "x": 289,
        "y": 32
      },
      63,
      ""
    ],
    [
      {
        "x": 289,
        "y": 32
      },
      63,
      ""
    ],
    [
      {
        "x": 289,
        "y": 32
      },
      63,
      ""
    ],
    [
      {
        "x": 289,
        "y": 32
      },
      63,
      ""
    ],
    [
      {
        "x": 289,
        "y": 32
      },
      63,
      ""
    ],
    [
      {
        "x": 289,
        "y": 32
      },
      63,
      ""
    ],
    [
      {
        "x": 289,
        "y": 32
      },
      63,
      ""
    ],
    [
      {
        "x": 289,
        "y": 32
      },
      63,
      ""
    ],
    [
      {
        "x": 289,
        "y": 32
      },
      63,
      ""
    ],
    [
      {
        "x": 289,
        "y": 32
      },
      63,
      ""
    ],
    [
      {
        "x": 289,
        "y": 32
      },
      63,
      ""
    ],
    [
      {
        "x": 289,
        "y": 32
      },
      63,
      ""
    ],
    [
      {
        "x": 289,
        "y": 32
      },
      63,
      ""
    ],
    [
      {
        "x": 289,
        "y": 32
      },
      63,
      ""
    ],
    [
      {
        "x": 289,
        "y": 32
      },
      63,
      ""
    ],
    [
      {
        "x": 289,
        "y": 32
      },
      63,
      ""
    ],
    [
      {
        "x": 289,
        "y": 32
      },
      63,
      ""
    ]
  ]
}
