{
  "neurons": [
    {
      "index": 0,
      "output": 0.111343354,
      "input_connections": [
        [
          1,
          0.10909702
        ],
        [
          2,
          0.05505736
        ],
        [
          3,
          -3.6590538
        ],
        [
          4,
          3.4020872
        ],
        [
          5,
          0.23304299
        ]
      ],
      "bias": 0.076970935,
      "self_activation": 0.25845763,
      "retina_weights": [
        0.0,
        0.22254461,
        0.0,
        0.0,
        0.0,
        0.0,
        0.0,
        0.0,
        1.3803372,
        0.07113658,
        0.0,
        0.36461487,
        0.04602586,
        0.060356196,
        0.0,
        0.057901394,
        0.0,
        0.0,
        0.0,
        0.0,
        1.4322,
        -0.43584982,
        0.0047623515,
        -0.2391231,
        0.0,
        0.0,
        0.0,
        0.0,
        0.0,
        -0.15440068,
        0.0,
        -0.23810735,
        0.0,
        0.12908657,
        0.0,
        0.0,
        0.0,
        0.0588703,
        0.0,
        -0.049618118,
        0.0,
        0.0,
        -0.29682592,
        0.0,
        0.0,
        0.015043706,
        0.0,
        0.0,
        0.0,
        -0.18150592,
        0.07415602,
        0.0,
        0.0,
        -0.0070035458,
        0.0,
        3.9282236,
        0.0,
        0.0,
        0.0,
        0.18173534,
        0.0,
        0.0,
        0.0,
        -0.06217953,
        0.18407077,
        0.0,
        0.20291537,
        0.0,
        0.0,
        -0.05163031,
        -0.24675739,
        0.0,
        0.08112779,
        0.0019082576,
        0.0,
        0.11567298,
        0.0,
        0.0,
        -0.006662883,
        0.0,
        0.0
      ]
    },
    {
      "index": 1,
      "output": -0.8461899,
      "input_connections": [
        [
          0,
          -2.6484938
        ],
        [
          2,
          0.20375392
        ],
        [
          3,
          -3.640911
        ],
        [
          4,
          -0.14911357
        ],
        [
          5,
          -3.9426003
        ]
      ],
      "bias": -0.22547969,
      "self_activation": 0.23920396,
      "retina_weights": [
        0.19935909,
        0.0,
        0.0,
        0.0265112,
        0.0,
        0.3236603,
        0.0,
        0.0,
        0.0,
        0.0,
        0.18936586,
        0.0,
        0.14361101,
        0.1447666,
        -0.030083485,
        0.3089951,
        0.0,
        0.0,
        0.0,
        0.0,
        0.0,
        0.0,
        -0.28098753,
        0.11369376,
        -2.9913282,
        0.0,
        0.0,
        0.0,
        0.0,
        0.0,
        0.0,
        0.0,
        0.0,
        0.29134047,
        -0.03216473,
        0.4728853,
        0.0,
        -1.4852731,
        0.0,
        -0.02554416,
        0.0,
        0.0,
        0.0,
        0.0,
        0.0,
        0.0,
        -0.15303427,
        -0.097299196,
        0.0,
        0.0,
        0.0,
        0.0,
        0.09322106,
        0.0,
        0.0,
        0.0,
        0.0,
        0.21166262,
        0.0,
        0.0,
        0.0,
        0.099359624,
        3.4028912,
        0.0,
        0.0,
        0.0,
        -0.005316198,
        0.0,
        0.0,
        0.0,
        2.211173,
        1.4071116,
        0.0,
        1.1624589,
        3.375517,
        0.0,
        0.0,
        0.0,
        0.0,
        0.0,
        0.0
      ]
    },
    {
      "index": 2,
      "output": 0.99938333,
      "input_connections": [
        [
          0,
          0.18704648
        ],
        [
          1,
          0.03301531
        ],
        [
          3,
          -0.054847546
        ],
        [
          4,
          0.3576446
        ],
        [
          5,
          0.06792939
        ]
      ],
      "bias": 0.04007907,
      "self_activation": 0.0,
      "retina_weights": [
        0.0,
        0.23835641,
        -0.0428515,
        -0.039658867,
        0.25771236,
        0.0,
        0.0,
        0.0,
        -0.07803095,
        -0.012157224,
        0.24890676,
        0.0,
        0.0,
        0.045543414,
        0.0,
        0.09211737,
        0.25284576,
        -0.27113232,
        0.0,
        0.10846433,
        0.1950821,
        -0.11379767,
        0.52151537,
        0.29636422,
        0.36300516,
        0.0,
        0.16641124,
        0.0,
        0.0,
        0.04894036,
        0.0,
        -0.13393313,
        0.15793243,
        0.0,
        -0.0038500652,
        0.12199536,
        -0.31466532,
        0.0,
        0.0,
        0.053611003,
        0.44264936,
        0.0,
        0.2829111,
        0.050631497,
        0.105831474,
        0.0,
        0.0567383,
        0.058995046,
        0.0,
        0.0,
        -0.073466845,
        0.0,
        -0.02534882,
        0.0,
        0.28383404,
        0.15606979,
        0.15060136,
        -0.030442573,
        0.0,
        0.0,
        0.0,
        0.0,
        -0.03148853,
        -0.21354178,
        -0.0023124367,
        0.22715464,
        0.09500039,
        0.0,
        0.18165717,
        0.02234725,
        -0.36735144,
        -0.12017078,
        0.38169444,
        0.092385,
        0.0,
        0.12750572,
        0.0,
        0.16359293,
        0.0,
        -0.014623329,
        0.029326074
      ]
    },
    {
      "index": 3,
      "output": 0.9997682,
      "input_connections": [
        [
          0,
          -0.21311697
        ],
        [
          1,
          0.023189873
        ],
        [
          2,
          0.1685074
        ],
        [
          4,
          0.0
        ],
        [
          5,
          0.17044851
        ]
      ],
      "bias": 0.20902842,
      "self_activation": 0.08465564,
      "retina_weights": [
        0.33582598,
        0.0,
        0.0,
        -0.013145424,
        0.09500578,
        0.14617233,
        0.38863868,
        0.0,
        -0.14976737,
        0.2834603,
        0.059654962,
        0.0,
        0.0,
        -0.091699876,
        0.052228954,
        0.20171812,
        0.0,
        -0.07519347,
        -0.17379582,
        -0.22097275,
        0.1673299,
        0.08694278,
        0.18247029,
        0.19045186,
        -0.05677051,
        0.3750994,
        0.04906237,
        0.0,
        0.4984449,
        0.056491166,
        0.14452903,
        -0.0035693273,
        0.18109474,
        0.11803999,
        0.0,
        0.0,
        0.11029063,
        0.0,
        0.09181203,
        0.08530723,
        0.26859412,
        -0.16052628,
        -0.048946984,
        0.10254042,
        0.047043573,
        0.28925842,
        -0.0004950762,
        0.0,
        -0.17602909,
        0.08126894,
        0.38080078,
        0.20750281,
        -0.12531567,
        0.043323334,
        0.4160147,
        0.0,
        -2.1575353,
        -0.08780118,
        -0.050376482,
        0.10198327,
        1.8097014,
        0.0,
        0.19308582,
        0.13608558,
        -0.1950171,
        0.016764745,
        -0.45551857,
        -0.13423184,
        0.0,
        -0.05679632,
        -0.9107013,
        0.1235497,
        1.0712323,
        -0.14943591,
        0.0,
        0.0,
        0.0,
        -0.073737375,
        0.052617583,
        0.0,
        0.45891693
      ]
    },
    {
      "index": 4,
      "output": -0.9995981,
      "input_connections": [
        [
          0,
          0.025117554
        ],
        [
          1,
          3.0270424
        ],
        [
          2,
          -0.18315089
        ],
        [
          3,
          0.028262869
        ],
        [
          5,
          0.00798355
        ]
      ],
      "bias": -0.18869019,
      "self_activation": 0.12832457,
      "retina_weights": [
        0.0,
        0.0,
        -0.19325408,
        0.0,
        -0.079480134,
        2.1334991,
        -0.040552936,
        -0.1423004,
        -0.4562211,
        0.0,
        0.0,
        -1.7501934,
        -0.019567728,
        0.0,
        0.0,
        -0.044124745,
        0.0,
        0.27081588,
        0.32850257,
        0.10132867,
        0.11577589,
        0.28503692,
        -3.149127,
        0.25502253,
        0.0,
        -0.006081894,
        0.0,
        0.06384798,
        0.2666584,
        0.6289049,
        0.13341448,
        0.008044668,
        0.0,
        0.0,
        0.012503952,
        0.0,
        0.2097952,
        0.0,
        0.0,
        0.0,
        0.0,
        -0.12864104,
        -0.16880041,
        0.23423576,
        0.20293811,
        -1.5677726,
        0.46903956,
        0.0,
        0.0,
        0.15254721,
        0.0,
        0.39541727,
        -0.21346486,
        0.11568054,
        0.0,
        -0.16062665,
        0.0,
        0.11608152,
        -0.19975615,
        0.32202205,
        -0.02018024,
        0.0,
        0.0,
        0.0,
        0.0,
        -0.18006492,
        0.0,
        -0.08132041,
        0.0,
        0.46688658,
        0.0,
        0.0,
        0.0,
        0.0,
        0.0,
        0.0,
        0.20871468,
        0.0,
        0.0,
        0.0,
        0.029778354
      ]
    },
    {
      "index": 5,
      "output": -0.9398786,
      "input_connections": [
        [
          0,
          0.024131872
        ],
        [
          1,
          -0.012308717
        ],
        [
          2,
          -0.09397077
        ],
        [
          3,
          -0.15843442
        ],
        [
          4,
          3.0886211
        ]
      ],
      "bias": 0.3102259,
      "self_activation": -0.25259608,
      "retina_weights": [
        0.0,
        0.0,
        -0.0641151,
        0.37552357,
        -0.05358941,
        0.16613773,
        0.0,
        0.0,
        0.0,
        -0.2216604,
        -0.21343994,
        -0.23203743,
        -0.17143798,
        0.17326936,
        0.0,
        0.038618367,
        0.12719312,
        0.0,
        0.1411687,
        0.12936911,
        0.0,
        0.0,
        0.0,
        -0.13683444,
        0.0,
        0.32195255,
        0.0,
        0.09360978,
        0.14374232,
        0.0,
        -0.019036576,
        0.0,
        0.0,
        0.0,
        0.0,
        0.0,
        0.2472035,
        0.1504076,
        -0.38681865,
        0.0,
        0.0,
        0.0,
        -0.14692506,
        0.3504483,
        2.4531002,
        0.06804873,
        -0.20531586,
        0.0,
        0.0,
        0.10397328,
        0.0,
        0.2224378,
        -0.06208677,
        -0.2326799,
        0.0,
        0.08617658,
        0.0,
        -0.3537171,
        0.0,
        0.0,
        0.0,
        0.024635985,
        0.21464586,
        0.0,
        0.0,
        0.12954599,
        0.29609305,
        0.32645187,
        0.0,
        -2.1852987,
        0.0,
        0.0,
        0.19999684,
        0.28116307,
        0.0,
        -0.22040227,
        0.0,
        0.0036026388,
        -0.20167342,
        0.0,
        -0.25457335
      ]
    }
  ],
  "short_term_memory": {
    "snapshots": [
      {
        "outputs": [
          -0.46662042,
          1.0,
          0.99876785,
          0.99979043,
          0.89778185,
          -0.8694924
        ],
        "time_step": 0
      },
      {
        "outputs": [
          0.9999866,
          1.0,
          0.9996875,
          0.9997852,
          0.93605494,
          0.99976933
        ],
        "time_step": 1
      },
      {
        "outputs": [
          0.999998,
          -0.79166955,
          0.9998637,
          0.9997878,
          0.9426921,
          0.9995638
        ],
        "time_step": 2
      },
      {
        "outputs": [
          0.99999714,
          -0.90598434,
          0.9998473,
          0.99976945,
          -0.99867904,
          0.9995994
        ],
        "time_step": 3
      },
      {
        "outputs": [
          0.111343354,
          -0.8461899,
          0.99938333,
          0.9997682,
          -0.9995981,
          -0.9398786
        ],
        "time_step": 4
      },
      {
        "outputs": [
          -0.51276827,
          0.99999994,
          0.99888486,
          0.9996934,
          -0.99946487,
          -0.85436
        ],
        "time_step": 5
      },
      {
        "outputs": [
          -0.46662042,
          1.0,
          0.99876785,
          0.99979043,
          0.89778185,
          -0.8694924
        ],
        "time_step": 6
      },
      {
        "outputs": [
          0.9999866,
          1.0,
          0.9996875,
          0.9997852,
          0.93605494,
          0.99976933
        ],
        "time_step": 7
      },
      {
        "outputs": [
          0.999998,
          -0.79166955,
          0.9998637,
          0.9997878,
          0.9426921,
          0.9995638
        ],
        "time_step": 8
      },
      {
        "outputs": [
          0.99999714,
          -0.90598434,
          0.9998473,
          0.99976945,
          -0.99867904,
          0.9995994
        ],
        "time_step": 9
      },
      {
        "outputs": [
          0.111343354,
          -0.8461899,
          0.99938333,
          0.9997682,
          -0.9995981,
          -0.9398786
        ],
        "time_step": 10
      },
      {
        "outputs": [
          -0.51276827,
          0.99999994,
          0.99888486,
          0.9996934,
          -0.99946487,
          -0.85436
        ],
        "time_step": 11
      },
      {
        "outputs": [
          -0.46662042,
          1.0,
          0.99876785,
          0.99979043,
          0.89778185,
          -0.8694924
        ],
        "time_step": 12
      },
      {
        "outputs": [
          0.9999866,
          1.0,
          0.9996875,
          0.9997852,
          0.93605494,
          0.99976933
        ],
        "time_step": 13
      },
      {
        "outputs": [
          0.999998,
          -0.79166955,
          0.9998637,
          0.9997878,
          0.9426921,
          0.9995638
        ],
        "time_step": 14
      },
      {
        "outputs": [
          0.99999714,
          -0.90598434,
          0.9998473,
          0.99976945,
          -0.99867904,
          0.9995994
        ],
        "time_step": 15
      },
      {
        "outputs": [
          0.111343354,
          -0.8461899,
          0.99938333,
          0.9997682,
          -0.9995981,
          -0.9398786
        ],
        "time_step": 16
      },
      {
        "outputs": [
          -0.51276827,
          0.99999994,
          0.99888486,
          0.9996934,
          -0.99946487,
          -0.85436
        ],
        "time_step": 17
      },
      {
        "outputs": [
          -0.46662042,
          1.0,
          0.99876785,
          0.99979043,
          0.89778185,
          -0.8694924
        ],
        "time_step": 18
      },
      {
        "outputs": [
          0.9999866,
          1.0,
          0.9996875,
          0.9997852,
          0.93605494,
          0.99976933
        ],
        "time_step": 19
      },
      {
        "outputs": [
          0.999998,
          -0.79166955,
          0.9998637,
          0.9997878,
          0.9426921,
          0.9995638
        ],
        "time_step": 20
      },
      {
        "outputs": [
          0.99999714,
          -0.90598434,
          0.9998473,
          0.99976945,
          -0.99867904,
          0.9995994
        ],
        "time_step": 21
      },
      {
        "outputs": [
          0.111343354,
          -0.8461899,
          0.99938333,
          0.9997682,
          -0.9995981,
          -0.9398786
        ],
        "time_step": 22
      },
      {
        "outputs": [
          -0.51276827,
          0.99999994,
          0.99888486,
          0.9996934,
          -0.99946487,
          -0.85436
        ],
        "time_step": 23
      },
      {
        "outputs": [
          -0.46662042,
          1.0,
          0.99876785,
          0.99979043,
          0.89778185,
          -0.8694924
        ],
        "time_step": 24
      },
      {
        "outputs": [
          0.9999866,
          1.0,
          0.9996875,
          0.9997852,
          0.93605494,
          0.99976933
        ],
        "time_step": 25
      },
      {
        "outputs": [
          0.999998,
          -0.79166955,
          0.9998637,
          0.9997878,
          0.9426921,
          0.9995638
        ],
        "time_step": 26
      },
      {
        "outputs": [
          0.99999714,
          -0.90598434,
          0.9998473,
          0.99976945,
          -0.99867904,
          0.9995994
        ],
        "time_step": 27
      },
      {
        "outputs": [
          0.111343354,
          -0.8461899,
          0.99938333,
          0.9997682,
          -0.9995981,
          -0.9398786
        ],
        "time_step": 28
      },
      {
        "outputs": [
          -0.51276827,
          0.99999994,
          0.99888486,
          0.9996934,
          -0.99946487,
          -0.85436
        ],
        "time_step": 29
      },
      {
        "outputs": [
          -0.46662042,
          1.0,
          0.99876785,
          0.99979043,
          0.89778185,
          -0.8694924
        ],
        "time_step": 30
      },
      {
        "outputs": [
          0.9999866,
          1.0,
          0.9996875,
          0.9997852,
          0.93605494,
          0.99976933
        ],
        "time_step": 31
      },
      {
        "outputs": [
          0.999998,
          -0.79166955,
          0.9998637,
          0.9997878,
          0.9426921,
          0.9995638
        ],
        "time_step": 32
      },
      {
        "outputs": [
          0.99999714,
          -0.90598434,
          0.9998473,
          0.99976945,
          -0.99867904,
          0.9995994
        ],
        "time_step": 33
      },
      {
        "outputs": [
          0.111343354,
          -0.8461899,
          0.99938333,
          0.9997682,
          -0.9995981,
          -0.9398786
        ],
        "time_step": 34
      },
      {
        "outputs": [
          -0.51276827,
          0.99999994,
          0.99888486,
          0.9996934,
          -0.99946487,
          -0.85436
        ],
        "time_step": 35
      },
      {
        "outputs": [
          -0.46662042,
          1.0,
          0.99876785,
          0.99979043,
          0.89778185,
          -0.8694924
        ],
        "time_step": 36
      },
      {
        "outputs": [
          0.9999866,
          1.0,
          0.9996875,
          0.9997852,
          0.93605494,
          0.99976933
        ],
        "time_step": 37
      },
      {
        "outputs": [
          0.999998,
          -0.79166955,
          0.9998637,
          0.9997878,
          0.9426921,
          0.9995638
        ],
        "time_step": 38
      },
      {
        "outputs": [
          0.99999714,
          -0.90598434,
          0.9998473,
          0.99976945,
          -0.99867904,
          0.9995994
        ],
        "time_step": 39
      },
      {
        "outputs": [
          0.111343354,
          -0.8461899,
          0.99938333,
          0.9997682,
          -0.9995981,
          -0.9398786
        ],
        "time_step": 40
      },
      {
        "outputs": [
          -0.51276827,
          0.99999994,
          0.99888486,
          0.9996934,
          -0.99946487,
          -0.85436
        ],
        "time_step": 41
      },
      {
        "outputs": [
          -0.46662042,
          1.0,
          0.99876785,
          0.99979043,
          0.89778185,
          -0.8694924
        ],
        "time_step": 42
      },
      {
        "outputs": [
          0.9999866,
          1.0,
          0.9996875,
          0.9997852,
          0.93605494,
          0.99976933
        ],
        "time_step": 43
      },
      {
        "outputs": [
          0.999998,
          -0.79166955,
          0.9998637,
          0.9997878,
          0.9426921,
          0.9995638
        ],
        "time_step": 44
      },
      {
        "outputs": [
          0.99999714,
          -0.90598434,
          0.9998473,
          0.99976945,
          -0.99867904,
          0.9995994
        ],
        "time_step": 45
      },
      {
        "outputs": [
          0.111343354,
          -0.8461899,
          0.99938333,
          0.9997682,
          -0.9995981,
          -0.9398786
        ],
        "time_step": 46
      },
      {
        "outputs": [
          -0.51276827,
          0.99999994,
          0.99888486,
          0.9996934,
          -0.99946487,
          -0.85436
        ],
        "time_step": 47
      },
      {
        "outputs": [
          -0.46662042,
          1.0,
          0.99876785,
          0.99979043,
          0.89778185,
          -0.8694924
        ],
        "time_step": 48
      },
      {
        "outputs": [
          0.9999866,
          1.0,
          0.9996875,
          0.9997852,
          0.93605494,
          0.99976933
        ],
        "time_step": 49
      },
      {
        "outputs": [
          0.999998,
          -0.79166955,
          0.9998637,
          0.9997878,
          0.9426921,
          0.9995638
        ],
        "time_step": 50
      },
      {
        "outputs": [
          0.99999714,
          -0.90598434,
          0.9998473,
          0.99976945,
          -0.99867904,
          0.9995994
        ],
        "time_step": 51
      },
      {
        "outputs": [
          0.111343354,
          -0.8461899,
          0.99938333,
          0.9997682,
          -0.9995981,
          -0.9398786
        ],
        "time_step": 52
      },
      {
        "outputs": [
          -0.51276827,
          0.99999994,
          0.99888486,
          0.9996934,
          -0.99946487,
          -0.85436
        ],
        "time_step": 53
      },
      {
        "outputs": [
          -0.46662042,
          1.0,
          0.99876785,
          0.99979043,
          0.89778185,
          -0.8694924
        ],
        "time_step": 54
      },
      {
        "outputs": [
          0.9999866,
          1.0,
          0.9996875,
          0.9997852,
          0.93605494,
          0.99976933
        ],
        "time_step": 55
      },
      {
        "outputs": [
          0.999998,
          -0.79166955,
          0.9998637,
          0.9997878,
          0.9426921,
          0.9995638
        ],
        "time_step": 56
      },
      {
        "outputs": [
          0.99999714,
          -0.90598434,
          0.9998473,
          0.99976945,
          -0.99867904,
          0.9995994
        ],
        "time_step": 57
      },
      {
        "outputs": [
          0.111343354,
          -0.8461899,
          0.99938333,
          0.9997682,
          -0.9995981,
          -0.9398786
        ],
        "time_step": 58
      },
      {
        "outputs": [
          -0.51276827,
          0.99999994,
          0.99888486,
          0.9996934,
          -0.99946487,
          -0.85436
        ],
        "time_step": 59
      },
      {
        "outputs": [
          -0.46662042,
          1.0,
          0.99876785,
          0.99979043,
          0.89778185,
          -0.8694924
        ],
        "time_step": 60
      },
      {
        "outputs": [
          0.9999866,
          1.0,
          0.9996875,
          0.9997852,
          0.93605494,
          0.99976933
        ],
        "time_step": 61
      },
      {
        "outputs": [
          0.999998,
          -0.79166955,
          0.9998637,
          0.9997878,
          0.9426921,
          0.9995638
        ],
        "time_step": 62
      },
      {
        "outputs": [
          0.99999714,
          -0.90598434,
          0.9998473,
          0.99976945,
          -0.99867904,
          0.9995994
        ],
        "time_step": 63
      },
      {
        "outputs": [
          0.111343354,
          -0.8461899,
          0.99938333,
          0.9997682,
          -0.9995981,
          -0.9398786
        ],
        "time_step": 64
      },
      {
        "outputs": [
          -0.51276827,
          0.99999994,
          0.99888486,
          0.9996934,
          -0.99946487,
          -0.85436
        ],
        "time_step": 65
      },
      {
        "outputs": [
          -0.46662042,
          1.0,
          0.99876785,
          0.99979043,
          0.89778185,
          -0.8694924
        ],
        "time_step": 66
      },
      {
        "outputs": [
          0.9999866,
          1.0,
          0.9996875,
          0.9997852,
          0.93605494,
          0.99976933
        ],
        "time_step": 67
      },
      {
        "outputs": [
          0.999998,
          -0.79166955,
          0.9998637,
          0.9997878,
          0.9426921,
          0.9995638
        ],
        "time_step": 68
      },
      {
        "outputs": [
          0.99999714,
          -0.90598434,
          0.9998473,
          0.99976945,
          -0.99867904,
          0.9995994
        ],
        "time_step": 69
      },
      {
        "outputs": [
          0.111343354,
          -0.8461899,
          0.99938333,
          0.9997682,
          -0.9995981,
          -0.9398786
        ],
        "time_step": 70
      },
      {
        "outputs": [
          -0.51276827,
          0.99999994,
          0.99888486,
          0.9996934,
          -0.99946487,
          -0.85436
        ],
        "time_step": 71
      },
      {
        "outputs": [
          -0.46662042,
          1.0,
          0.99876785,
          0.99979043,
          0.89778185,
          -0.8694924
        ],
        "time_step": 72
      },
      {
        "outputs": [
          0.9999866,
          1.0,
          0.9996875,
          0.9997852,
          0.93605494,
          0.99976933
        ],
        "time_step": 73
      },
      {
        "outputs": [
          0.999998,
          -0.79166955,
          0.9998637,
          0.9997878,
          0.9426921,
          0.9995638
        ],
        "time_step": 74
      },
      {
        "outputs": [
          0.99999714,
          -0.90598434,
          0.9998473,
          0.99976945,
          -0.99867904,
          0.9995994
        ],
        "time_step": 75
      },
      {
        "outputs": [
          0.111343354,
          -0.8461899,
          0.99938333,
          0.9997682,
          -0.9995981,
          -0.9398786
        ],
        "time_step": 76
      },
      {
        "outputs": [
          -0.51276827,
          0.99999994,
          0.99888486,
          0.9996934,
          -0.99946487,
          -0.85436
        ],
        "time_step": 77
      },
      {
        "outputs": [
          -0.46662042,
          1.0,
          0.99876785,
          0.99979043,
          0.89778185,
          -0.8694924
        ],
        "time_step": 78
      },
      {
        "outputs": [
          0.9999866,
          1.0,
          0.9996875,
          0.9997852,
          0.93605494,
          0.99976933
        ],
        "time_step": 79
      },
      {
        "outputs": [
          0.999998,
          -0.79166955,
          0.9998637,
          0.9997878,
          0.9426921,
          0.9995638
        ],
        "time_step": 80
      },
      {
        "outputs": [
          0.99999714,
          -0.90598434,
          0.9998473,
          0.99976945,
          -0.99867904,
          0.9995994
        ],
        "time_step": 81
      },
      {
        "outputs": [
          0.111343354,
          -0.8461899,
          0.99938333,
          0.9997682,
          -0.9995981,
          -0.9398786
        ],
        "time_step": 82
      },
      {
        "outputs": [
          -0.51276827,
          0.99999994,
          0.99888486,
          0.9996934,
          -0.99946487,
          -0.85436
        ],
        "time_step": 83
      },
      {
        "outputs": [
          -0.46662042,
          1.0,
          0.99876785,
          0.99979043,
          0.89778185,
          -0.8694924
        ],
        "time_step": 84
      },
      {
        "outputs": [
          0.9999866,
          1.0,
          0.9996875,
          0.9997852,
          0.93605494,
          0.99976933
        ],
        "time_step": 85
      },
      {
        "outputs": [
          0.999998,
          -0.79166955,
          0.9998637,
          0.9997878,
          0.9426921,
          0.9995638
        ],
        "time_step": 86
      },
      {
        "outputs": [
          0.99999714,
          -0.90598434,
          0.9998473,
          0.99976945,
          -0.99867904,
          0.9995994
        ],
        "time_step": 87
      },
      {
        "outputs": [
          0.111343354,
          -0.8461899,
          0.99938333,
          0.9997682,
          -0.9995981,
          -0.9398786
        ],
        "time_step": 88
      },
      {
        "outputs": [
          -0.51276827,
          0.99999994,
          0.99888486,
          0.9996934,
          -0.99946487,
          -0.85436
        ],
        "time_step": 89
      },
      {
        "outputs": [
          -0.46662042,
          1.0,
          0.99876785,
          0.99979043,
          0.89778185,
          -0.8694924
        ],
        "time_step": 90
      },
      {
        "outputs": [
          0.9999866,
          1.0,
          0.9996875,
          0.9997852,
          0.93605494,
          0.99976933
        ],
        "time_step": 91
      },
      {
        "outputs": [
          0.999998,
          -0.79166955,
          0.9998637,
          0.9997878,
          0.9426921,
          0.9995638
        ],
        "time_step": 92
      },
      {
        "outputs": [
          0.99999714,
          -0.90598434,
          0.9998473,
          0.99976945,
          -0.99867904,
          0.9995994
        ],
        "time_step": 93
      },
      {
        "outputs": [
          0.111343354,
          -0.8461899,
          0.99938333,
          0.9997682,
          -0.9995981,
          -0.9398786
        ],
        "time_step": 94
      },
      {
        "outputs": [
          -0.51276827,
          0.99999994,
          0.99888486,
          0.9996934,
          -0.99946487,
          -0.85436
        ],
        "time_step": 95
      },
      {
        "outputs": [
          -0.46662042,
          1.0,
          0.99876785,
          0.99979043,
          0.89778185,
          -0.8694924
        ],
        "time_step": 96
      },
      {
        "outputs": [
          0.9999866,
          1.0,
          0.9996875,
          0.9997852,
          0.93605494,
          0.99976933
        ],
        "time_step": 97
      },
      {
        "outputs": [
          0.999998,
          -0.79166955,
          0.9998637,
          0.9997878,
          0.9426921,
          0.9995638
        ],
        "time_step": 98
      },
      {
        "outputs": [
          0.99999714,
          -0.90598434,
          0.9998473,
          0.99976945,
          -0.99867904,
          0.9995994
        ],
        "time_step": 99
      },
      {
        "outputs": [
          0.111343354,
          -0.8461899,
          0.99938333,
          0.9997682,
          -0.9995981,
          -0.9398786
        ],
        "time_step": 100
      }
    ]
  },
  "graph": {
    "nodes": [
      [
        0,
        0.08
      ],
      [
        1,
        -0.23
      ],
      [
        2,
        0.04
      ],
      [
        3,
        0.21
      ],
      [
        4,
        -0.19
      ],
      [
        5,
        0.31
      ]
    ],
    "node_holes": [],
    "edge_property": "directed",
    "edges": [
      [
        0,
        0,
        0.26
      ],
      [
        1,
        1,
        0.24
      ],
      [
        3,
        3,
        0.08
      ],
      [
        4,
        4,
        0.13
      ],
      [
        5,
        5,
        -0.25
      ],
      [
        1,
        0,
        0.11
      ],
      [
        2,
        0,
        0.06
      ],
      [
        3,
        0,
        -3.66
      ],
      [
        4,
        0,
        3.4
      ],
      [
        5,
        0,
        0.23
      ],
      [
        0,
        1,
        -2.65
      ],
      [
        2,
        1,
        0.2
      ],
      [
        3,
        1,
        -3.64
      ],
      [
        4,
        1,
        -0.15
      ],
      [
        5,
        1,
        -3.94
      ],
      [
        0,
        2,
        0.19
      ],
      [
        1,
        2,
        0.03
      ],
      [
        3,
        2,
        -0.05
      ],
      [
        4,
        2,
        0.36
      ],
      [
        5,
        2,
        0.07
      ],
      [
        0,
        3,
        -0.21
      ],
      [
        1,
        3,
        0.02
      ],
      [
        2,
        3,
        0.17
      ],
      [
        5,
        3,
        0.17
      ],
      [
        0,
        4,
        0.03
      ],
      [
        1,
        4,
        3.03
      ],
      [
        2,
        4,
        -0.18
      ],
      [
        3,
        4,
        0.03
      ],
      [
        5,
        4,
        0.01
      ],
      [
        0,
        5,
        0.02
      ],
      [
        1,
        5,
        -0.01
      ],
      [
        2,
        5,
        -0.09
      ],
      [
        3,
        5,
        -0.16
      ],
      [
        4,
        5,
        3.09
      ]
    ]
  },
  "statistics": {
    "deleted_neurons": 0,
    "deleted_weights": 39,
    "deleted_biases": 0,
    "deleted_self_activations": 44,
    "mutated_neurons": 155,
    "mutated_weights": 189,
    "mutated_biases": 216,
    "mutated_self_activations": 250,
    "fitness": 0.0,
    "variance": 0.0
  },
  "mutation_variance": 0.2,
  "mean": 0.1,
  "retina_positions": [
    [
      {
        "x": 32,
        "y": 32
      },
      63,
      ""
    ],
    [
      {
        "x": 32,
        "y": 57
      },
      63,
      ""
    ],
    [
      {
        "x": 32,
        "y": 57
      },
      63,
      ""
    ],
    [
      {
        "x": 56,
        "y": 82
      },
      63,
      ""
    ],
    [
      {
        "x": 56,
        "y": 82
      },
      63,
      ""
    ],
    [
      {
        "x": 80,
        "y": 63
      },
      63,
      ""
    ],
    [
      {
        "x": 80,
        "y": 63
      },
      63,
      ""
    ],
    [
      {
        "x": 104,
        "y": 41
      },
      63,
      ""
    ],
    [
      {
        "x": 104,
        "y": 41
      },
      63,
      ""
    ],
    [
      {
        "x": 106,
        "y": 32
      },
      63,
      ""
    ],
    [
      {
        "x": 106,
        "y": 32
      },
      63,
      ""
    ],
    [
      {
        "x": 94,
        "y": 56
      },
      63,
      ""
    ],
    [
      {
        "x": 94,
        "y": 56
      },
      63,
      ""
    ],
    [
      {
        "x": 83,
        "y": 81
      },
      63,
      ""
    ],
    [
      {
        "x": 83,
        "y": 81
      },
      63,
      ""
    ],
    [
      {
        "x": 107,
        "y": 106
      },
      63,
      ""
    ],
    [
      {
        "x": 107,
        "y": 106
      },
      63,
      ""
    ],
    [
      {
        "x": 131,
        "y": 87
      },
      63,
      ""
    ],
    [
      {
        "x": 131,
        "y": 87
      },
      63,
      ""
    ],
    [
      {
        "x": 155,
        "y": 65
      },
      63,
      ""
    ],
    [
      {
        "x": 155,
        "y": 65
      },
      63,
      ""
    ],
    [
      {
        "x": 157,
        "y": 44
      },
      63,
      ""
    ],
    [
      {
        "x": 157,
        "y": 44
      },
      63,
      ""
    ],
    [
      {
        "x": 145,
        "y": 68
      },
      63,
      ""
    ],
    [
      {
        "x": 145,
        "y": 68
      },
      63,
      ""
    ],
    [
      {
        "x": 134,
        "y": 93
      },
      63,
      ""
    ],
    [
      {
        "x": 134,
        "y": 93
      },
      63,
      ""
    ],
    [
      {
        "x": 158,
        "y": 118
      },
      63,
      ""
    ],
    [
      {
        "x": 158,
        "y": 118
      },
      63,
      ""
    ],
    [
      {
        "x": 182,
        "y": 99
      },
      63,
      ""
    ],
    [
      {
        "x": 182,
        "y": 99
      },
      63,
      ""
    ],
    [
      {
        "x": 206,
        "y": 77
      },
      63,
      ""
    ],
    [
      {
        "x": 206,
        "y": 77
      },
      63,
      ""
    ],
    [
      {
        "x": 208,
        "y": 56
      },
      63,
      ""
    ],
    [
      {
        "x": 208,
        "y": 56
      },
      63,
      ""
    ],
    [
      {
        "x": 196,
        "y": 80
      },
      63,
      ""
    ],
    [
      {
        "x": 196,
        "y": 80
      },
      63,
      ""
    ],
    [
      {
        "x": 185,
        "y": 105
      },
      63,
      ""
    ],
    [
      {
        "x": 185,
        "y": 105
      },
      63,
      ""
    ],
    [
      {
        "x": 209,
        "y": 130
      },
      63,
      ""
    ],
    [
      {
        "x": 209,
        "y": 130
      },
      63,
      ""
    ],
    [
      {
        "x": 233,
        "y": 111
      },
      63,
      ""
    ],
    [
      {
        "x": 233,
        "y": 111
      },
      63,
      ""
    ],
    [
      {
        "x": 257,
        "y": 89
      },
      63,
      ""
    ],
    [
      {
        "x": 257,
        "y": 89
      },
      63,
      ""
    ],
    [
      {
        "x": 259,
        "y": 68
      },
      63,
      ""
    ],
    [
      {
        "x": 259,
        "y": 68
      },
      63,
      ""
    ],
    [
      {
        "x": 247,
        "y": 92
      },
      63,
      ""
    ],
    [
      {
        "x": 247,
        "y": 92
      },
      63,
      ""
    ],
    [
      {
        "x": 236,
        "y": 117
      },
      63,
      ""
    ],
    [
      {
        "x": 236,
        "y": 117
      },
      63,
      ""
    ],
    [
      {
        "x": 260,
        "y": 142
      },
      63,
      ""
    ],
    [
      {
        "x": 260,
        "y": 142
      },
      63,
      ""
    ],
    [
      {
        "x": 284,
        "y": 123
      },
      63,
      ""
    ],
    [
      {
        "x": 284,
        "y": 123
      },
      63,
      ""
    ],
    [
      {
        "x": 289,
        "y": 101
      },
      63,
      ""
    ],
    [
      {
        "x": 289,
        "y": 101
      },
      63,
      ""
    ],
    [
      {
        "x": 289,
        "y": 80
      },
      63,
      ""
    ],
    [
      {
        "x": 289,
        "y": 80
      },
      63,
      ""
    ],
    [
      {
        "x": 277,
        "y": 104
      },
      63,
      ""
    ],
    [
      {
        "x": 277,
        "y": 104
      },
      63,
      ""
    ],
    [
      {
        "x": 266,
        "y": 129
      },
      63,
      ""
    ],
    [
      {
        "x": 266,
        "y": 129
      },
      63,
      ""
    ],
    [
      {
        "x": 289,
        "y": 154
      },
      63,
      ""
    ],
    [
      {
        "x": 289,
        "y": 154
      },
      63,
      ""
    ],
    [
      {
        "x": 289,
        "y": 135
      },
      63,
      ""
    ],
    [
      {
        "x": 289,
        "y": 135
      },
      63,
      ""
    ],
    [
      {
        "x": 289,
        "y": 113
      },
      63,
      ""
    ],
    [
      {
        "x": 289,
        "y": 113
      },
      63,
      ""
    ],
    [
      {
        "x": 289,
        "y": 92
      },
      63,
      ""
    ],
    [
      {
        "x": 289,
        "y": 92
      },
      63,
      ""
    ],
    [
      {
        "x": 277,
        "y": 116
      },
      63,
      ""
    ],
    [
      {
        "x": 277,
        "y": 116
      },
      63,
      ""
    ],
    [
      {
        "x": 266,
        "y": 141
      },
      63,
      ""
    ],
    [
      {
        "x": 266,
        "y": 141
      },
      63,
      ""
    ],
    [
      {
        "x": 289,
        "y": 166
      },
      63,
      ""
    ],
    [
      {
        "x": 289,
        "y": 166
      },
      63,
      ""
    ],
    [
      {
        "x": 289,
        "y": 147
      },
      63,
      ""
    ],
    [
      {
        "x": 289,
        "y": 147
      },
      63,
      ""
    ],
    [
      {
        "x": 289,
        "y": 125
      },
      63,
      ""
    ],
    [
      {
        "x": 289,
        "y": 125
      },
      63,
      ""
    ],
    [
      {
        "x": 289,
        "y": 104
      },
      63,
      ""
    ],
    [
      {
        "x": 289,
        "y": 104
      },
      63,
      ""
    ],
    [
      {
        "x": 277,
        "y": 128
      },
      63,
      ""
    ],
    [
      {
        "x": 277,
        "y": 128
      },
      63,
      ""
    ],
    [
      {
        "x": 266,
        "y": 153
      },
      63,
      ""
    ],
    [
      {
        "x": 266,
        "y": 153
      },
      63,
      ""
    ],
    [
      {
        "x": 289,
        "y": 178
      },
      63,
      ""
    ],
    [
      {
        "x": 289,
        "y": 178
      },
      63,
      ""
    ],
    [
      {
        "x": 289,
        "y": 159
      },
      63,
      ""
    ],
    [
      {
        "x": 289,
        "y": 159
      },
      63,
      ""
    ],
    [
      {
        "x": 289,
        "y": 137
      },
      63,
      ""
    ],
    [
      {
        "x": 289,
        "y": 137
      },
      63,
      ""
    ],
    [
      {
        "x": 289,
        "y": 116
      },
      63,
      ""
    ],
    [
      {
        "x": 289,
        "y": 116
      },
      63,
      ""
    ],
    [
      {
        "x": 277,
        "y": 140
      },
      63,
      ""
    ],
    [
      {
        "x": 277,
        "y": 140
      },
      63,
      ""
    ],
    [
      {
        "x": 266,
        "y": 165
      },
      63,
      ""
    ],
    [
      {
        "x": 266,
        "y": 165
      },
      63,
      ""
    ],
    [
      {
        "x": 289,
        "y": 190
      },
      63,
      ""
    ],
    [
      {
        "x": 289,
        "y": 190
      },
      63,
      ""
    ],
    [
      {
        "x": 289,
        "y": 171
      },
      63,
      ""
    ],
    [
      {
        "x": 289,
        "y": 171
      },
      63,
      ""
    ],
    [
      {
        "x": 289,
        "y": 149
      },
      63,
      ""
    ],
    [
      {
        "x": 289,
        "y": 149
      },
      63,
      ""
    ],
    [
      {
        "x": 289,
        "y": 128
      },
      63,
      ""
    ],
    [
      {
        "x": 289,
        "y": 128
      },
      63,
      ""
    ],
    [
      {
        "x": 277,
        "y": 152
      },
      63,
      ""
    ],
    [
      {
        "x": 277,
        "y": 152
      },
      63,
      ""
    ],
    [
      {
        "x": 266,
        "y": 177
      },
      63,
      ""
    ],
    [
      {
        "x": 266,
        "y": 177
      },
      63,
      ""
    ],
    [
      {
        "x": 289,
        "y": 202
      },
      63,
      ""
    ],
    [
      {
        "x": 289,
        "y": 202
      },
      63,
      ""
    ],
    [
      {
        "x": 289,
        "y": 183
      },
      63,
      ""
    ],
    [
      {
        "x": 289,
        "y": 183
      },
      63,
      ""
    ],
    [
      {
        "x": 289,
        "y": 161
      },
      63,
      ""
    ],
    [
      {
        "x": 289,
        "y": 161
      },
      63,
      ""
    ],
    [
      {
        "x": 289,
        "y": 140
      },
      63,
      ""
    ],
    [
      {
        "x": 289,
        "y": 140
      },
      63,
      ""
    ],
    [
      {
        "x": 277,
        "y": 164
      },
      63,
      ""
    ],
    [
      {
        "x": 277,
        "y": 164
      },
      63,
      ""
    ],
    [
      {
        "x": 266,
        "y": 189
      },
      63,
      ""
    ],
    [
      {
        "x": 266,
        "y": 189
      },
      63,
      ""
    ],
    [
      {
        "x": 289,
        "y": 209
      },
      63,
      ""
    ],
    [
      {
        "x": 289,
        "y": 209
      },
      63,
      ""
    ],
    [
      {
        "x": 289,
        "y": 190
      },
      63,
      ""
    ],
    [
      {
        "x": 289,
        "y": 190
      },
      63,
      ""
    ],
    [
      {
        "x": 289,
        "y": 168
      },
      63,
      ""
    ],
    [
      {
        "x": 289,
        "y": 168
      },
      63,
      ""
    ],
    [
      {
        "x": 289,
        "y": 147
      },
      63,
      ""
    ],
    [
      {
        "x": 289,
        "y": 147
      },
      63,
      ""
    ],
    [
      {
        "x": 277,
        "y": 171
      },
      63,
      ""
    ],
    [
      {
        "x": 277,
        "y": 171
      },
      63,
      ""
    ],
    [
      {
        "x": 266,
        "y": 196
      },
      63,
      ""
    ],
    [
      {
        "x": 266,
        "y": 196
      },
      63,
      ""
    ],
    [
      {
        "x": 289,
        "y": 209
      },
      63,
      ""
    ],
    [
      {
        "x": 289,
        "y": 209
      },
      63,
      ""
    ],
    [
      {
        "x": 289,
        "y": 190
      },
      63,
      ""
    ],
    [
      {
        "x": 289,
        "y": 190
      },
      63,
      ""
    ],
    [
      {
        "x": 289,
        "y": 168
      },
      63,
      ""
    ],
    [
      {
        "x": 289,
        "y": 168
      },
      63,
      ""
    ],
    [
      {
        "x": 289,
        "y": 147
      },
      63,
      ""
    ],
    [
      {
        "x": 289,
        "y": 147
      },
      63,
      ""
    ],
    [
      {
        "x": 277,
        "y": 171
      },
      63,
      ""
    ],
    [
      {
        "x": 277,
        "y": 171
      },
      63,
      ""
    ],
    [
      {
        "x": 266,
        "y": 196
      },
      63,
      ""
    ],
    [
      {
        "x": 266,
        "y": 196
      },
      63,
      ""
    ],
    [
      {
        "x": 289,
        "y": 209
      },
      63,
      ""
    ],
    [
      {
        "x": 289,
        "y": 209
      },
      63,
      ""
    ],
    [
      {
        "x": 289,
        "y": 190
      },
      63,
      ""
    ],
    [
      {
        "x": 289,
        "y": 190
      },
      63,
      ""
    ],
    [
      {
        "x": 289,
        "y": 168
      },
      63,
      ""
    ],
    [
      {
        "x": 289,
        "y": 168
      },
      63,
      ""
    ],
    [
      {
        "x": 289,
        "y": 147
      },
      63,
      ""
    ],
    [
      {
        "x": 289,
        "y": 147
      },
      63,
      ""
    ],
    [
      {
        "x": 277,
        "y": 171
      },
      63,
      ""
    ],
    [
      {
        "x": 277,
        "y": 171
      },
      63,
      ""
    ],
    [
      {
        "x": 266,
        "y": 196
      },
      63,
      ""
    ],
    [
      {
        "x": 266,
        "y": 196
      },
      63,
      ""
    ],
    [
      {
        "x": 289,
        "y": 209
      },
      63,
      ""
    ],
    [
      {
        "x": 289,
        "y": 209
      },
      63,
      ""
    ],
    [
      {
        "x": 289,
        "y": 190
      },
      63,
      ""
    ],
    [
      {
        "x": 289,
        "y": 190
      },
      63,
      ""
    ],
    [
      {
        "x": 289,
        "y": 168
      },
      63,
      ""
    ],
    [
      {
        "x": 289,
        "y": 168
      },
      63,
      ""
    ],
    [
      {
        "x": 289,
        "y": 147
      },
      63,
      ""
    ],
    [
      {
        "x": 289,
        "y": 147
      },
      63,
      ""
    ],
    [
      {
        "x": 277,
        "y": 171
      },
      63,
      ""
    ],
    [
      {
        "x": 277,
        "y": 171
      },
      63,
      ""
    ],
    [
      {
        "x": 266,
        "y": 196
      },
      63,
      ""
    ],
    [
      {
        "x": 266,
        "y": 196
      },
      63,
      ""
    ],
    [
      {
        "x": 289,
        "y": 209
      },
      63,
      ""
    ],
    [
      {
        "x": 289,
        "y": 209
      },
      63,
      ""
    ],
    [
      {
        "x": 289,
        "y": 190
      },
      63,
      ""
    ],
    [
      {
        "x": 289,
        "y": 190
      },
      63,
      ""
    ],
    [
      {
        "x": 289,
        "y": 168
      },
      63,
      ""
    ],
    [
      {
        "x": 289,
        "y": 168
      },
      63,
      ""
    ],
    [
      {
        "x": 289,
        "y": 147
      },
      63,
      ""
    ],
    [
      {
        "x": 289,
        "y": 147
      },
      63,
      ""
    ],
    [
      {
        "x": 277,
        "y": 171
      },
      63,
      ""
    ],
    [
      {
        "x": 277,
        "y": 171
      },
      63,
      ""
    ],
    [
      {
        "x": 266,
        "y": 196
      },
      63,
      ""
    ],
    [
      {
        "x": 266,
        "y": 196
      },
      63,
      ""
    ],
    [
      {
        "x": 289,
        "y": 209
      },
      63,
      ""
    ],
    [
      {
        "x": 289,
        "y": 209
      },
      63,
      ""
    ],
    [
      {
        "x": 289,
        "y": 190
      },
      63,
      ""
    ],
    [
      {
        "x": 289,
        "y": 190
      },
      63,
      ""
    ],
    [
      {
        "x": 289,
        "y": 168
      },
      63,
      ""
    ],
    [
      {
        "x": 289,
        "y": 168
      },
      63,
      ""
    ],
    [
      {
        "x": 289,
        "y": 147
      },
      63,
      ""
    ],
    [
      {
        "x": 289,
        "y": 147
      },
      63,
      ""
    ],
    [
      {
        "x": 277,
        "y": 171
      },
      63,
      ""
    ],
    [
      {
        "x": 277,
        "y": 171
      },
      63,
      ""
    ],
    [
      {
        "x": 266,
        "y": 196
      },
      63,
      ""
    ],
    [
      {
        "x": 266,
        "y": 196
      },
      63,
      ""
    ],
    [
      {
        "x": 289,
        "y": 209
      },
      63,
      ""
    ],
    [
      {
        "x": 289,
        "y": 209
      },
      63,
      ""
    ],
    [
      {
        "x": 289,
        "y": 190
      },
      63,
      ""
    ],
    [
      {
        "x": 289,
        "y": 190
      },
      63,
      ""
    ],
    [
      {
        "x": 289,
        "y": 168
      },
      63,
      ""
    ]
  ]
}
