{
  "neurons": [
    {
      "index": 0,
      "output": -1.0,
      "input_connections": [
        [
          1,
          3.9902058
        ],
        [
          2,
          6.082468
        ],
        [
          3,
          -8.737556
        ],
        [
          4,
          -7.5345707
        ],
        [
          5,
          0.0
        ],
        [
          6,
          -9.814174
        ],
        [
          7,
          8.199202
        ]
      ],
      "bias": 0.00034586716,
      "self_activation": -0.035200108,
      "retina_weights": [
        -1.9140568,
        -6.678753,
        5.3217354,
        7.374777,
        8.374733,
        -3.0276604,
        -1.4095707,
        3.8277206,
        -1.0252275,
        -0.26524925,
        8.817783,
        -7.397706,
        -4.2692013,
        -5.628502,
        -4.1965456,
        5.2175303,
        1.9201221,
        -3.6770554,
        0.71450615,
        2.5792274,
        7.457222,
        -6.7187614,
        -0.06874466,
        6.7871685,
        9.260365,
        8.814175,
        -8.384406,
        7.4493313,
        2.1728,
        -9.64925,
        0.64178085,
        9.888718,
        0.004573822,
        0.6106148,
        8.013515,
        -1.4821854,
        6.682564,
        5.4588737,
        -1.1111898,
        6.936926,
        6.4361,
        9.695789,
        -7.1355963,
        -5.2764173,
        -3.132989,
        1.4378061,
        -1.4432755,
        -0.5391569,
        4.0434084,
        -8.175184,
        7.7400455,
        -8.575149,
        -8.037081,
        -2.1148005,
        0.7486687,
        -2.1875134,
        7.157816,
        -0.1865406,
        -1.8059988,
        -0.49379063,
        -8.600509,
        -4.1118283,
        -2.9245467,
        3.371025,
        8.448692,
        3.2143173,
        -5.928802,
        -3.7430043,
        -0.36565018,
        5.4759064,
        0.6849899,
        4.7968016,
        6.84766,
        4.743043,
        2.362155,
        6.021349,
        -3.5628672,
        8.462187,
        -0.017565727,
        4.645046,
        0.5085335,
        -7.129822,
        -9.029247,
        1.6347132,
        -9.590375,
        7.3869915,
        -3.6559315,
        -4.793629,
        2.6771507,
        -1.0461683,
        -8.420362,
        -8.5206175,
        8.016724,
        7.7816257,
        -2.4810805,
        -2.3630323,
        -2.253529,
        1.3952694,
        -9.582443,
        1.706954,
        5.1870556,
        -6.978614,
        9.331503,
        3.3113537,
        -1.4839258,
        2.5489798,
        -4.1318793,
        7.6428795,
        6.7214985,
        9.655819,
        8.199398,
        -7.693267,
        8.259031,
        1.0186634,
        0.04920101,
        7.696453,
        -3.7888403,
        0.913826,
        -0.31144333,
        0.14417267,
        -6.3547134,
        -6.423871,
        7.982826,
        4.945298,
        -0.79828644,
        0.15600586,
        9.253317,
        -6.30939,
        6.7721615,
        9.737253,
        2.729992,
        6.536953,
        3.3087578,
        2.3537817,
        -4.5959873,
        -3.3893533,
        -5.1816173,
        0.33953762,
        -1.7533274,
        -8.714104,
        9.912392,
        1.9096193,
        -7.5681086,
        -3.6177702,
        -5.826213,
        -2.5692935,
        -3.5066648,
        -1.1255665,
        0.8294573,
        0.43625736,
        -2.75943,
        1.4459763,
        -9.576275,
        -6.25587,
        6.669132,
        5.0812235,
        -7.232294,
        -4.8005147,
        8.19767,
        -4.2493052,
        -8.1137705,
        5.0615234,
        2.0329895,
        1.5165911,
        -7.169344,
        3.8960943,
        4.4283304,
        1.4072123,
        5.596282,
        5.844673,
        -5.38197,
        -6.1322207,
        4.6898947,
        -5.479073,
        5.3722687,
        -8.572347,
        -1.7580147,
        7.756941,
        4.437913,
        -1.96315,
        8.342918,
        0.54298306,
        -9.607391,
        5.3391113,
        5.0783577,
        -7.4554825,
        7.0904922,
        3.4827385,
        -6.986639,
        0.41088486,
        -4.633717,
        -5.310704,
        -3.8730688,
        1.5747299,
        7.338825,
        -6.7003536,
        -0.1417656,
        -5.8953137,
        -8.746853,
        -1.3332481,
        -1.4619913,
        6.9500217,
        -2.3172941,
        -3.5505958,
        3.551527,
        5.496315,
        -1.8026848,
        8.151218,
        4.8388424,
        0.59807396,
        5.3749695,
        3.0167427,
        7.8699017,
        -9.394986,
        9.491886,
        4.4302235,
        -2.1658626,
        -3.3051105,
        6.30484,
        -9.148595,
        3.0784092,
        1.5329466,
        -3.4187026,
        -5.0933046,
        8.377428,
        8.954098,
        -8.898659,
        -4.569115,
        1.1280003,
        1.6973267,
        -6.3817425,
        -9.365377,
        3.5572538,
        4.4206486,
        7.156187,
        9.407532,
        -1.3044872,
        -8.43012,
        -9.554331,
        9.750978,
        -9.151194,
        2.2530403,
        0.9022198,
        4.8360834,
        6.989237,
        -9.854383,
        -2.7963681,
        -6.517455,
        4.819211,
        1.6862688,
        8.488554,
        6.9513054,
        6.8633404,
        -5.127167,
        2.1639767,
        -2.8885837,
        -4.961769,
        3.0309,
        -6.841593,
        -6.3559837,
        3.904892,
        7.9415054,
        0.130373,
        8.840765,
        -0.30044746,
        5.256485,
        9.71117,
        -7.624552,
        5.5553236,
        -7.9483747,
        4.5039377,
        1.6152296,
        7.0771637,
        -4.564945,
        -8.590509,
        -3.4366317,
        -4.0778203,
        7.1754932,
        5.4051104,
        -5.563144,
        5.046584,
        4.146508,
        3.813511,
        -3.9272447,
        -5.4088492,
        9.053545,
        2.5949965,
        0.5066004,
        -9.675028,
        -8.725286,
        6.371723,
        7.8418026,
        -0.03935051,
        6.404747,
        1.55692,
        -1.3294592,
        -5.680527,
        9.005161,
        5.637068,
        6.105158,
        -3.9153285,
        -6.731925,
        1.4434919,
        2.6984348,
        -8.880741,
        -6.3705254,
        6.438221,
        -1.2360897,
        -0.33040428,
        -5.524146,
        -8.575611,
        -5.9931035,
        1.4556227,
        9.355455,
        6.702942,
        -6.9186735,
        -5.204334,
        -4.7726007,
        2.4065409,
        3.0807295,
        -7.595191,
        -2.6685138,
        4.974738,
        7.3562527,
        -8.007803,
        2.5841274,
        -0.84443474,
        3.2528887,
        -1.5857782,
        5.2434034,
        -4.1013474,
        -1.0784788,
        9.353348,
        -7.0309753,
        -3.3992453,
        -1.0893698,
        5.1360693,
        -7.032344,
        -5.5762954,
        -7.6525564,
        -2.3009362,
        -7.6139994,
        -5.4656906,
        9.668793,
        -0.09632492,
        4.1325483,
        -2.7060528,
        -4.6073313,
        4.1599092,
        -2.1563163,
        9.569447,
        6.6672897,
        9.410372,
        3.4661446,
        -6.723819,
        -8.731763,
        -8.842985,
        -5.329046,
        6.1846733,
        2.7331076,
        -4.690809,
        -1.4650526,
        3.2812605,
        5.654997,
        1.501936,
        4.859332,
        5.5931225,
        2.2793999,
        -6.578929,
        -0.9845514,
        -0.34236145,
        -4.953775,
        -5.8673425,
        7.6328697,
        7.9322166,
        6.951357,
        7.2684956,
        0.55424595,
        -5.225074,
        -4.4282312,
        -2.0665207,
        -4.308321,
        -8.663771,
        9.539848,
        4.7165194,
        -1.9401636,
        0.42795086,
        -8.632495,
        -3.5039706,
        -8.813095,
        7.9873314,
        -3.5971065,
        -3.2587023,
        -0.10321045,
        -2.9986234,
        -8.845503,
        -4.4774146,
        9.384684,
        -2.0145693,
        3.8536587,
        -4.0137835,
        3.459097,
        -0.6303711,
        -6.394553,
        -4.49871,
        -5.0362344,
        2.577301,
        7.904974,
        -6.2597866,
        0.7558718,
        7.0825443,
        9.416231,
        5.548476,
        -8.29052,
        -7.4591465,
        5.113806,
        -8.736975,
        7.2345867,
        2.2599468,
        3.8234148,
        -7.3961754,
        -1.497571,
        8.256392,
        -9.985852,
        -0.25490665,
        -0.8599224,
        8.501183,
        -2.2538366,
        2.0584574,
        0.41403866,
        -0.32897377,
        -5.0530167,
        -1.384675,
        -9.2118,
        2.8529825,
        -9.920011,
        -3.2043595,
        -3.9634986,
        8.034157,
        0.5264225,
        -5.247187,
        2.0552597,
        0.46875095,
        -3.3361168,
        -0.0039520264,
        5.6678905,
        3.1971445,
        8.84586,
        -2.127129,
        -4.865045,
        1.0370407,
        -1.5658112,
        -0.94431114,
        -6.565099,
        9.755531,
        -3.3913512,
        7.8508816,
        -6.9992704,
        4.1417847,
        -2.075931,
        -5.2349157,
        -7.371027,
        -4.1095657,
        -6.1520357,
        0.90936756,
        0.74182415,
        3.1672373,
        -8.713648,
        -6.692686,
        -8.736439,
        -1.792552,
        5.737275,
        6.886425,
        -9.613702,
        -2.6860256,
        0.15525913,
        -8.357236,
        -9.448824,
        3.007575,
        4.6747103,
        -1.054389,
        -2.2339907,
        7.053005,
        -2.7813168,
        -4.406788,
        -2.4831166,
        0.10885811,
        5.7726803,
        -6.721835,
        2.4380865,
        -1.3886013,
        -0.020202637,
        -1.0585995,
        -2.4432125,
        7.5008698,
        4.349779,
        -2.9661484,
        7.975275,
        6.3084755,
        -5.2807946,
        5.037138,
        -8.805654,
        0.33297443,
        4.763666,
        4.343315,
        6.7146225,
        -2.8799744,
        -3.091826,
        8.855034,
        3.0871906,
        -2.0630732,
        1.5664806,
        -5.0432534,
        -7.854745,
        5.5702724,
        9.710798,
        6.443945,
        1.5609064,
        8.492968,
        -1.1026373,
        4.1499653,
        6.446518,
        -6.4513826,
        -0.02291584,
        -4.8178954,
        -0.7209511,
        -9.077725,
        9.489346,
        2.1500053,
        -9.337978,
        -0.21240616,
        -2.0359888,
        0.98600006,
        3.8705168,
        -6.422868,
        -6.0268993,
        0.34144306,
        0.0063762665,
        9.698042,
        8.628008,
        3.8598862,
        -3.1934233,
        9.735304,
        4.3296204,
        5.8189144,
        4.901458,
        -9.373336,
        1.4032612,
        -7.1544905,
        7.7562656,
        -6.602597,
        -4.1892595,
        -5.604226,
        9.957838,
        5.9867496,
        7.9526997,
        5.2786818,
        -2.8172965,
        -0.8655853,
        -9.846845,
        8.748407,
        3.0509386,
        6.2347374,
        -7.139902,
        9.930716,
        -7.610178,
        0.76030636,
        -6.8127985,
        7.5245953,
        7.7268276,
        6.968031,
        5.718335,
        3.9264593,
        -6.210906,
        -6.0900755,
        4.654523,
        -3.9320083,
        -8.382869,
        -7.5563116,
        -8.177695,
        -0.3613634,
        -6.3389893,
        -3.1806488,
        -0.77861214,
        2.463049,
        -4.594795,
        6.0401115,
        -0.12528801,
        -9.113652,
        -2.0087543,
        -5.391247,
        8.111612,
        4.634308,
        -5.76024,
        -3.739924,
        -5.857527,
        -2.539012,
        6.3609257,
        -3.5482664,
        -5.376682,
        -9.880731,
        0.9884081,
        -0.22539043,
        9.844643,
        -0.8458729,
        2.8797474,
        -6.777174,
        3.6310377,
        1.2132845,
        3.4211197,
        -7.7050877,
        2.7929869,
        -5.7960935,
        0.68255997,
        3.9363394,
        -4.021389,
        3.2891712,
        -5.6765814,
        -1.7764797,
        -1.0699978,
        -5.9147615,
        -9.855988,
        9.0295925,
        -7.2988844,
        6.6808853,
        3.2425652,
        -2.6794834,
        -6.053726,
        4.761094,
        6.153322,
        -9.939523,
        2.860876,
        5.7184353,
        -1.8812599,
        -4.413969,
        -7.0261545,
        -9.053838,
        -3.3888693,
        3.3711138,
        -8.504872,
        1.3986454,
        -2.180201,
        -1.7392864,
        -0.04581356,
        -6.804535,
        3.437027,
        -9.198208,
        -1.9393768,
        2.043353,
        -5.8942122,
        4.3253746,
        2.977644,
        3.4992876,
        5.7480946,
        0.25039577,
        2.3818455,
        1.912035,
        6.7195797,
        -9.536276,
        2.758397,
        -7.565241,
        1.5348921,
        3.7014065,
        -2.0553007,
        -2.40024,
        -6.6285915,
        -2.4471154,
        -0.5898876,
        -6.5625143,
        2.8064575,
        -2.841,
        8.571449,
        6.1827183,
        -8.184716,
        0.09904289,
        9.168226,
        1.5287552,
        -2.1102943,
        7.02981,
        5.524439,
        9.713692,
        0.56980705,
        -0.33711624,
        -7.8409357,
        7.029917,
        -4.393303,
        4.797434,
        5.323395,
        -5.0651784,
        5.7731457,
        8.604084,
        -7.3341675,
        -6.0329814,
        3.2060661,
        -7.92181,
        -4.460954,
        -0.7712641,
        -3.7421842,
        2.3561563,
        -8.216407,
        -7.585761,
        -5.467269,
        6.6076813,
        1.7028799,
        6.9088097,
        7.776079,
        -7.3136473,
        -1.3611355,
        3.2034435,
        -9.669514,
        -5.4523773,
        8.22854,
        1.177536,
        -2.2440042,
        3.3970747,
        2.7053175,
        1.7774496,
        2.7173986,
        0.30553246,
        5.256461,
        -5.5105157,
        -4.300415,
        9.366322,
        -6.2809706,
        4.3403397,
        -7.241246,
        2.4373827,
        6.9170494,
        -9.626524,
        3.611823,
        -7.5640554,
        0.1886282,
        2.0433578,
        3.0067053,
        2.1980057,
        -8.91675,
        9.431643,
        1.828166,
        -6.802001,
        8.522036,
        6.503195,
        8.494949,
        5.2127733,
        9.501736,
        3.7689104,
        3.5884418,
        8.523706,
        -1.4339514,
        5.614416,
        -8.743162,
        9.637291,
        1.9386377,
        -5.388009,
        1.6394367,
        -0.94726753,
        -3.038282,
        -1.9512548,
        -0.41361713,
        4.907879,
        6.701475,
        9.805149,
        -9.442391,
        3.8238916,
        7.124897,
        -9.383723,
        4.341873,
        2.0224295,
        -8.094956,
        -8.393874,
        4.945406,
        5.0712414,
        -5.245485,
        -7.4845953,
        7.7631226,
        3.228551,
        -7.743001,
        -9.686251,
        3.8488684,
        -6.821272,
        2.3077068,
        -0.70214653,
        5.652093,
        8.487923,
        -9.628908,
        -2.9751678,
        6.8033333,
        -8.850419,
        -9.703097,
        -6.33753,
        -3.1456132,
        1.4836969,
        -7.817752,
        -8.191299,
        -2.1532931,
        2.707037,
        -1.4357157,
        -2.0017638,
        2.892932,
        8.335421,
        6.7496643,
        -2.6346679,
        -8.388038,
        -1.0881081,
        -4.386601,
        -8.244567,
        -4.4958873,
        -2.5579185,
        -5.2104874,
        -4.789371,
        -9.498515,
        1.1008492,
        -4.2111154,
        -8.837457,
        -2.5771828,
        -3.1668777,
        8.761572,
        -8.691306,
        -3.7338037,
        3.842286,
        -0.35072517,
        -9.17213,
        2.4654808,
        -4.8621054,
        7.8138676,
        -5.470168,
        9.602089,
        5.5056753,
        4.17554,
        6.847702,
        8.736078,
        7.865219,
        9.341797,
        -8.60589,
        9.59885,
        -5.4490585,
        4.885684,
        0.12397385,
        6.7414913,
        -2.7065701,
        -2.2994056,
        6.2271214,
        9.742714,
        -1.0357513,
        -7.6809664,
        -5.893509,
        -2.036368,
        3.0908098,
        8.5251465,
        0.7013235,
        5.9894457,
        4.4815073,
        7.4380245,
        4.314829,
        -8.182712,
        7.18379,
        7.9381866,
        -0.55529976,
        -2.3092856,
        -8.003254,
        -0.8835974,
        -3.7177248,
        1.9373045,
        -3.423533,
        -7.9765463,
        -9.159524,
        4.5106163,
        -0.48834515,
        -0.8246012,
        2.4180136,
        -4.3620677,
        -1.5516844,
        0.49400425,
        -0.91545963,
        -1.4599218,
        -5.7246227,
        5.886318,
        1.9500408,
        2.630826,
        -1.9384308,
        3.9194384,
        3.155757,
        3.9729252,
        -2.9093451,
        -2.6108904,
        -9.341865,
        8.064747,
        -4.9175115,
        5.785445,
        3.068575,
        -4.7280593,
        4.845027,
        -1.9674768,
        8.687746,
        8.0795765,
        9.718866,
        -1.3898983,
        -1.0798998,
        7.609621,
        -6.696188,
        -9.920015,
        -4.0481443,
        3.2569876,
        3.4629478,
        6.3209496,
        7.375355,
        2.427844,
        -3.86589,
        2.228159,
        -2.7257414,
        -8.955576,
        -6.665718,
        1.0721359,
        8.772516,
        -5.459964,
        7.968498,
        8.524467,
        -3.3709211,
        7.4111023,
        -5.339541,
        -6.9917793,
        2.7079859,
        2.357708,
        9.331099,
        5.555772,
        -6.560828,
        -7.6241274,
        2.1863852,
        -4.7340794,
        4.4703016,
        2.5944939,
        3.5129795,
        -2.5583096,
        -0.53666973,
        6.878769,
        6.8492184,
        -0.9140053,
        -3.233201,
        0.121017456,
        4.485115,
        0.23235416,
        -1.8204393,
        -9.552946,
        8.995867,
        -5.553641,
        -8.546381,
        -8.838746,
        8.331894,
        -1.0983105,
        -9.808504,
        3.824133,
        -9.119515,
        -5.3179164,
        8.183226,
        -7.2338247,
        -5.770511,
        6.2617226,
        -6.1322255,
        9.635479,
        -4.278199,
        4.23643,
        -4.3626113,
        -3.2482715,
        -4.716508,
        4.7272053,
        -0.14401627,
        -3.868291,
        4.2290154,
        -6.7065067,
        -3.1684775,
        -7.4100876,
        -7.5703287,
        4.5359335,
        4.766573,
        4.04513,
        2.210885,
        8.842535,
        2.2999964,
        6.109087,
        -8.360577,
        0.24797535,
        -5.8628244,
        5.7280083,
        -3.9645905,
        3.9051857,
        -9.610901,
        -4.252381,
        -1.2594671,
        2.431635,
        -4.025864,
        8.977352,
        -5.5137796,
        -9.175825,
        1.7456207,
        0.35941696,
        -7.0475054,
        -7.3383045,
        -0.18074894,
        7.538191,
        -7.3648405,
        -6.80892,
        -1.9563026,
        7.866747,
        9.424778,
        -5.2736897,
        6.7366257,
        3.126978,
        -7.7766705,
        2.193407,
        7.7766533,
        1.2148104,
        -4.719693,
        -7.9106092,
        2.2616444,
        -5.839197,
        6.208721,
        -1.1273994,
        -0.5637779,
        -0.36581707,
        1.5947332,
        5.972945,
        -0.14104748,
        9.553333,
        8.712358,
        -4.9216075,
        -3.4225936,
        1.5903816,
        0.94393826,
        -9.860632,
        6.5704975,
        3.8424911,
        -6.8303366,
        -4.8716326,
        2.4536886,
        0.33430958,
        9.123732,
        -5.8530517,
        9.072889,
        7.846571,
        -2.2875633,
        1.1201944,
        0.80903435,
        -3.6316247,
        0.20001507,
        -9.3999815,
        3.2739153,
        -8.735592,
        2.1502342,
        -4.4894023,
        -3.2399507,
        -0.07842255,
        -8.7656355,
        4.355999,
        -2.1951523,
        9.508945,
        -3.085093,
        -8.386113,
        -8.268132,
        1.914712,
        1.7682467,
        4.551791,
        -0.7520933,
        -1.802,
        5.838417,
        -1.1373158,
        -5.7580967,
        -7.946474,
        0.28652287,
        -6.8613644,
        -5.518467,
        1.8895159,
        0.6137142,
        0.9422054,
        5.4325714,
        5.333933,
        8.219561,
        -1.0191174,
        9.003805,
        -3.7359328,
        -4.8447723,
        -5.37559,
        2.5058737,
        -8.649928,
        -9.60063,
        9.594345,
        -6.0199924,
        5.360874,
        2.4919739,
        -2.7697153,
        -5.505056
      ]
    },
    {
      "index": 1,
      "output": -1.0,
      "input_connections": [
        [
          0,
          2.407156
        ],
        [
          2,
          3.856822
        ],
        [
          3,
          -0.10116482
        ],
        [
          4,
          0.0
        ],
        [
          5,
          6.949749
        ],
        [
          6,
          -2.2146192
        ],
        [
          7,
          9.024565
        ]
      ],
      "bias": -7.8883095,
      "self_activation": -8.912196,
      "retina_weights": [
        -1.9140568,
        -6.678753,
        5.3217354,
        7.374777,
        8.374733,
        -3.0276604,
        -1.4095707,
        3.8277206,
        -1.0252275,
        -0.26524925,
        8.817783,
        -7.397706,
        -4.2692013,
        -5.628502,
        -4.1965456,
        5.2175303,
        1.9201221,
        -3.6770554,
        0.71450615,
        2.5792274,
        7.457222,
        -6.7187614,
        -0.06874466,
        6.7871685,
        9.260365,
        8.814175,
        -8.384406,
        7.4493313,
        2.1728,
        -9.64925,
        0.64178085,
        9.888718,
        0.004573822,
        0.6106148,
        8.013515,
        -1.4821854,
        6.682564,
        5.4588737,
        -1.1111898,
        6.936926,
        6.4361,
        9.695789,
        -7.1355963,
        -5.2764173,
        -3.132989,
        1.4378061,
        -1.4432755,
        -0.5391569,
        4.0434084,
        -8.175184,
        7.7400455,
        -8.575149,
        -8.037081,
        -2.1148005,
        0.7486687,
        -2.1875134,
        7.157816,
        -0.1865406,
        -1.8059988,
        -0.49379063,
        -8.600509,
        -4.1118283,
        -2.9245467,
        3.371025,
        8.448692,
        3.2143173,
        -5.928802,
        -3.7430043,
        -0.36565018,
        5.4759064,
        0.6849899,
        4.7968016,
        6.84766,
        4.743043,
        2.362155,
        6.021349,
        -3.5628672,
        8.462187,
        -0.017565727,
        4.645046,
        0.5085335,
        -7.129822,
        -9.029247,
        1.6347132,
        -9.590375,
        7.3869915,
        -3.6559315,
        -4.793629,
        2.6771507,
        -1.0461683,
        -8.420362,
        -8.5206175,
        8.016724,
        7.7816257,
        -2.4810805,
        -2.3630323,
        -2.253529,
        1.3952694,
        -9.582443,
        1.706954,
        5.1870556,
        -6.978614,
        9.331503,
        3.3113537,
        -1.4839258,
        2.5489798,
        -4.1318793,
        7.6428795,
        6.7214985,
        9.655819,
        8.199398,
        -7.693267,
        8.259031,
        1.0186634,
        0.04920101,
        7.696453,
        -3.7888403,
        0.913826,
        -0.31144333,
        0.14417267,
        -6.3547134,
        -6.423871,
        7.982826,
        4.945298,
        -0.79828644,
        0.15600586,
        9.253317,
        -6.30939,
        6.7721615,
        9.737253,
        2.729992,
        6.536953,
        3.3087578,
        2.3537817,
        -4.5959873,
        -3.3893533,
        -5.1816173,
        0.33953762,
        -1.7533274,
        -8.714104,
        9.912392,
        1.9096193,
        -7.5681086,
        -3.6177702,
        -5.826213,
        -2.5692935,
        -3.5066648,
        -1.1255665,
        0.8294573,
        0.43625736,
        -2.75943,
        1.4459763,
        -9.576275,
        -6.25587,
        6.669132,
        5.0812235,
        -7.232294,
        -4.8005147,
        8.19767,
        -4.2493052,
        -8.1137705,
        5.0615234,
        2.0329895,
        1.5165911,
        -7.169344,
        3.8960943,
        4.4283304,
        1.4072123,
        5.596282,
        5.844673,
        -5.38197,
        -6.1322207,
        4.6898947,
        -5.479073,
        5.3722687,
        -8.572347,
        -1.7580147,
        7.756941,
        4.437913,
        -1.96315,
        8.342918,
        0.54298306,
        -9.607391,
        5.3391113,
        5.0783577,
        -7.4554825,
        7.0904922,
        3.4827385,
        -6.986639,
        0.41088486,
        -4.633717,
        -5.310704,
        -3.8730688,
        1.5747299,
        7.338825,
        -6.7003536,
        -0.1417656,
        -5.8953137,
        -8.746853,
        -1.3332481,
        -1.4619913,
        6.9500217,
        -2.3172941,
        -3.5505958,
        3.551527,
        5.496315,
        -1.8026848,
        8.151218,
        4.8388424,
        0.59807396,
        5.3749695,
        3.0167427,
        7.8699017,
        -9.394986,
        9.491886,
        4.4302235,
        -2.1658626,
        -3.3051105,
        6.30484,
        -9.148595,
        3.0784092,
        1.5329466,
        -3.4187026,
        -5.0933046,
        8.377428,
        8.954098,
        -8.898659,
        -4.569115,
        1.1280003,
        1.6973267,
        -6.3817425,
        -9.365377,
        3.5572538,
        4.4206486,
        7.156187,
        9.407532,
        -1.3044872,
        -8.43012,
        -9.554331,
        9.750978,
        -9.151194,
        2.2530403,
        0.9022198,
        4.8360834,
        6.989237,
        -9.854383,
        -2.7963681,
        -6.517455,
        4.819211,
        1.6862688,
        8.488554,
        6.9513054,
        6.8633404,
        -5.127167,
        2.1639767,
        -2.8885837,
        -4.961769,
        3.0309,
        -6.841593,
        -6.3559837,
        3.904892,
        7.9415054,
        0.130373,
        8.840765,
        -0.30044746,
        5.256485,
        9.71117,
        -7.624552,
        5.5553236,
        -7.9483747,
        4.5039377,
        1.6152296,
        7.0771637,
        -4.564945,
        -8.590509,
        -3.4366317,
        -4.0778203,
        7.1754932,
        5.4051104,
        -5.563144,
        5.046584,
        4.146508,
        3.813511,
        -3.9272447,
        -5.4088492,
        9.053545,
        2.5949965,
        0.5066004,
        -9.675028,
        -8.725286,
        6.371723,
        7.8418026,
        -0.03935051,
        6.404747,
        1.55692,
        -1.3294592,
        -5.680527,
        9.005161,
        5.637068,
        6.105158,
        -3.9153285,
        -6.731925,
        1.4434919,
        2.6984348,
        -8.880741,
        -6.3705254,
        6.438221,
        -1.2360897,
        -0.33040428,
        -5.524146,
        -8.575611,
        -5.9931035,
        1.4556227,
        9.355455,
        6.702942,
        -6.9186735,
        -5.204334,
        -4.7726007,
        2.4065409,
        3.0807295,
        -7.595191,
        -2.6685138,
        4.974738,
        7.3562527,
        -8.007803,
        2.5841274,
        -0.84443474,
        3.2528887,
        -1.5857782,
        5.2434034,
        -4.1013474,
        -1.0784788,
        9.353348,
        -7.0309753,
        -3.3992453,
        -1.0893698,
        5.1360693,
        -7.032344,
        -5.5762954,
        -7.6525564,
        -2.3009362,
        -7.6139994,
        -5.4656906,
        9.668793,
        -0.09632492,
        4.1325483,
        -2.7060528,
        -4.6073313,
        4.1599092,
        -2.1563163,
        9.569447,
        6.6672897,
        9.410372,
        3.4661446,
        -6.723819,
        -8.731763,
        -8.842985,
        -5.329046,
        6.1846733,
        2.7331076,
        -4.690809,
        -1.4650526,
        3.2812605,
        5.654997,
        1.501936,
        4.859332,
        5.5931225,
        2.2793999,
        -6.578929,
        -0.9845514,
        -0.34236145,
        -4.953775,
        -5.8673425,
        7.6328697,
        7.9322166,
        6.951357,
        7.2684956,
        0.55424595,
        -5.225074,
        -4.4282312,
        -2.0665207,
        -4.308321,
        -8.663771,
        9.539848,
        4.7165194,
        -1.9401636,
        0.42795086,
        -8.632495,
        -3.5039706,
        -8.813095,
        7.9873314,
        -3.5971065,
        -3.2587023,
        -0.10321045,
        -2.9986234,
        -8.845503,
        -4.4774146,
        9.384684,
        -2.0145693,
        3.8536587,
        -4.0137835,
        3.459097,
        -0.6303711,
        -6.394553,
        -4.49871,
        -5.0362344,
        2.577301,
        7.904974,
        -6.2597866,
        0.7558718,
        7.0825443,
        9.416231,
        5.548476,
        -8.29052,
        -7.4591465,
        5.113806,
        -8.736975,
        7.2345867,
        2.2599468,
        3.8234148,
        -7.3961754,
        -1.497571,
        8.256392,
        -9.985852,
        -0.25490665,
        -0.8599224,
        8.501183,
        -2.2538366,
        2.0584574,
        0.41403866,
        -0.32897377,
        -5.0530167,
        -1.384675,
        -9.2118,
        2.8529825,
        -9.920011,
        -3.2043595,
        -3.9634986,
        8.034157,
        0.5264225,
        -5.247187,
        2.0552597,
        0.46875095,
        -3.3361168,
        -0.0039520264,
        5.6678905,
        3.1971445,
        8.84586,
        -2.127129,
        -4.865045,
        1.0370407,
        -1.5658112,
        -0.94431114,
        -6.565099,
        9.755531,
        -3.3913512,
        7.8508816,
        -6.9992704,
        4.1417847,
        -2.075931,
        -5.2349157,
        -7.371027,
        -4.1095657,
        -6.1520357,
        0.90936756,
        0.74182415,
        3.1672373,
        -8.713648,
        -6.692686,
        -8.736439,
        -1.792552,
        5.737275,
        6.886425,
        -9.613702,
        -2.6860256,
        0.15525913,
        -8.357236,
        -9.448824,
        3.007575,
        4.6747103,
        -1.054389,
        -2.2339907,
        7.053005,
        -2.7813168,
        -4.406788,
        -2.4831166,
        0.10885811,
        5.7726803,
        -6.721835,
        2.4380865,
        -1.3886013,
        -0.020202637,
        -1.0585995,
        -2.4432125,
        7.5008698,
        4.349779,
        -2.9661484,
        7.975275,
        6.3084755,
        -5.2807946,
        5.037138,
        -8.805654,
        0.33297443,
        4.763666,
        4.343315,
        6.7146225,
        -2.8799744,
        -3.091826,
        8.855034,
        3.0871906,
        -2.0630732,
        1.5664806,
        -5.0432534,
        -7.854745,
        5.5702724,
        9.710798,
        6.443945,
        1.5609064,
        8.492968,
        -1.1026373,
        4.1499653,
        6.446518,
        -6.4513826,
        -0.02291584,
        -4.8178954,
        -0.7209511,
        -9.077725,
        9.489346,
        2.1500053,
        -9.337978,
        -0.21240616,
        -2.0359888,
        0.98600006,
        3.8705168,
        -6.422868,
        -6.0268993,
        0.34144306,
        0.0063762665,
        9.698042,
        8.628008,
        3.8598862,
        -3.1934233,
        9.735304,
        4.3296204,
        5.8189144,
        4.901458,
        -9.373336,
        1.4032612,
        -7.1544905,
        7.7562656,
        -6.602597,
        -4.1892595,
        -5.604226,
        9.957838,
        5.9867496,
        7.9526997,
        5.2786818,
        -2.8172965,
        -0.8655853,
        -9.846845,
        8.748407,
        3.0509386,
        6.2347374,
        -7.139902,
        9.930716,
        -7.610178,
        0.76030636,
        -6.8127985,
        7.5245953,
        7.7268276,
        6.968031,
        5.718335,
        3.9264593,
        -6.210906,
        -6.0900755,
        4.654523,
        -3.9320083,
        -8.382869,
        -7.5563116,
        -8.177695,
        -0.3613634,
        -6.3389893,
        -3.1806488,
        -0.77861214,
        2.463049,
        -4.594795,
        6.0401115,
        -0.12528801,
        -9.113652,
        -2.0087543,
        -5.391247,
        8.111612,
        4.634308,
        -5.76024,
        -3.739924,
        -5.857527,
        -2.539012,
        6.3609257,
        -3.5482664,
        -5.376682,
        -9.880731,
        0.9884081,
        -0.22539043,
        9.844643,
        -0.8458729,
        2.8797474,
        -6.777174,
        3.6310377,
        1.2132845,
        3.4211197,
        -7.7050877,
        2.7929869,
        -5.7960935,
        0.68255997,
        3.9363394,
        -4.021389,
        3.2891712,
        -5.6765814,
        -1.7764797,
        -1.0699978,
        -5.9147615,
        -9.855988,
        9.0295925,
        -7.2988844,
        6.6808853,
        3.2425652,
        -2.6794834,
        -6.053726,
        4.761094,
        6.153322,
        -9.939523,
        2.860876,
        5.7184353,
        -1.8812599,
        -4.413969,
        -7.0261545,
        -9.053838,
        -3.3888693,
        3.3711138,
        -8.504872,
        1.3986454,
        -2.180201,
        -1.7392864,
        -0.04581356,
        -6.804535,
        3.437027,
        -9.198208,
        -1.9393768,
        2.043353,
        -5.8942122,
        4.3253746,
        2.977644,
        3.4992876,
        5.7480946,
        0.25039577,
        2.3818455,
        1.912035,
        6.7195797,
        -9.536276,
        2.758397,
        -7.565241,
        1.5348921,
        3.7014065,
        -2.0553007,
        -2.40024,
        -6.6285915,
        -2.4471154,
        -0.5898876,
        -6.5625143,
        2.8064575,
        -2.841,
        8.571449,
        6.1827183,
        -8.184716,
        0.09904289,
        9.168226,
        1.5287552,
        -2.1102943,
        7.02981,
        5.524439,
        9.713692,
        0.56980705,
        -0.33711624,
        -7.8409357,
        7.029917,
        -4.393303,
        4.797434,
        5.323395,
        -5.0651784,
        5.7731457,
        8.604084,
        -7.3341675,
        -6.0329814,
        3.2060661,
        -7.92181,
        -4.460954,
        -0.7712641,
        -3.7421842,
        2.3561563,
        -8.216407,
        -7.585761,
        -5.467269,
        6.6076813,
        1.7028799,
        6.9088097,
        7.776079,
        -7.3136473,
        -1.3611355,
        3.2034435,
        -9.669514,
        -5.4523773,
        8.22854,
        1.177536,
        -2.2440042,
        3.3970747,
        2.7053175,
        1.7774496,
        2.7173986,
        0.30553246,
        5.256461,
        -5.5105157,
        -4.300415,
        9.366322,
        -6.2809706,
        4.3403397,
        -7.241246,
        2.4373827,
        6.9170494,
        -9.626524,
        3.611823,
        -7.5640554,
        0.1886282,
        2.0433578,
        3.0067053,
        2.1980057,
        -8.91675,
        9.431643,
        1.828166,
        -6.802001,
        8.522036,
        6.503195,
        8.494949,
        5.2127733,
        9.501736,
        3.7689104,
        3.5884418,
        8.523706,
        -1.4339514,
        5.614416,
        -8.743162,
        9.637291,
        1.9386377,
        -5.388009,
        1.6394367,
        -0.94726753,
        -3.038282,
        -1.9512548,
        -0.41361713,
        4.907879,
        6.701475,
        9.805149,
        -9.442391,
        3.8238916,
        7.124897,
        -9.383723,
        4.341873,
        2.0224295,
        -8.094956,
        -8.393874,
        4.945406,
        5.0712414,
        -5.245485,
        -7.4845953,
        7.7631226,
        3.228551,
        -7.743001,
        -9.686251,
        3.8488684,
        -6.821272,
        2.3077068,
        -0.70214653,
        5.652093,
        8.487923,
        -9.628908,
        -2.9751678,
        6.8033333,
        -8.850419,
        -9.703097,
        -6.33753,
        -3.1456132,
        1.4836969,
        -7.817752,
        -8.191299,
        -2.1532931,
        2.707037,
        -1.4357157,
        -2.0017638,
        2.892932,
        8.335421,
        6.7496643,
        -2.6346679,
        -8.388038,
        -1.0881081,
        -4.386601,
        -8.244567,
        -4.4958873,
        -2.5579185,
        -5.2104874,
        -4.789371,
        -9.498515,
        1.1008492,
        -4.2111154,
        -8.837457,
        -2.5771828,
        -3.1668777,
        8.761572,
        -8.691306,
        -3.7338037,
        3.842286,
        -0.35072517,
        -9.17213,
        2.4654808,
        -4.8621054,
        7.8138676,
        -5.470168,
        9.602089,
        5.5056753,
        4.17554,
        6.847702,
        8.736078,
        7.865219,
        9.341797,
        -8.60589,
        9.59885,
        -5.4490585,
        4.885684,
        0.12397385,
        6.7414913,
        -2.7065701,
        -2.2994056,
        6.2271214,
        9.742714,
        -1.0357513,
        -7.6809664,
        -5.893509,
        -2.036368,
        3.0908098,
        8.5251465,
        0.7013235,
        5.9894457,
        4.4815073,
        7.4380245,
        4.314829,
        -8.182712,
        7.18379,
        7.9381866,
        -0.55529976,
        -2.3092856,
        -8.003254,
        -0.8835974,
        -3.7177248,
        1.9373045,
        -3.423533,
        -7.9765463,
        -9.159524,
        4.5106163,
        -0.48834515,
        -0.8246012,
        2.4180136,
        -4.3620677,
        -1.5516844,
        0.49400425,
        -0.91545963,
        -1.4599218,
        -5.7246227,
        5.886318,
        1.9500408,
        2.630826,
        -1.9384308,
        3.9194384,
        3.155757,
        3.9729252,
        -2.9093451,
        -2.6108904,
        -9.341865,
        8.064747,
        -4.9175115,
        5.785445,
        3.068575,
        -4.7280593,
        4.845027,
        -1.9674768,
        8.687746,
        8.0795765,
        9.718866,
        -1.3898983,
        -1.0798998,
        7.609621,
        -6.696188,
        -9.920015,
        -4.0481443,
        3.2569876,
        3.4629478,
        6.3209496,
        7.375355,
        2.427844,
        -3.86589,
        2.228159,
        -2.7257414,
        -8.955576,
        -6.665718,
        1.0721359,
        8.772516,
        -5.459964,
        7.968498,
        8.524467,
        -3.3709211,
        7.4111023,
        -5.339541,
        -6.9917793,
        2.7079859,
        2.357708,
        9.331099,
        5.555772,
        -6.560828,
        -7.6241274,
        2.1863852,
        -4.7340794,
        4.4703016,
        2.5944939,
        3.5129795,
        -2.5583096,
        -0.53666973,
        6.878769,
        6.8492184,
        -0.9140053,
        -3.233201,
        0.121017456,
        4.485115,
        0.23235416,
        -1.8204393,
        -9.552946,
        8.995867,
        -5.553641,
        -8.546381,
        -8.838746,
        8.331894,
        -1.0983105,
        -9.808504,
        3.824133,
        -9.119515,
        -5.3179164,
        8.183226,
        -7.2338247,
        -5.770511,
        6.2617226,
        -6.1322255,
        9.635479,
        -4.278199,
        4.23643,
        -4.3626113,
        -3.2482715,
        -4.716508,
        4.7272053,
        -0.14401627,
        -3.868291,
        4.2290154,
        -6.7065067,
        -3.1684775,
        -7.4100876,
        -7.5703287,
        4.5359335,
        4.766573,
        4.04513,
        2.210885,
        8.842535,
        2.2999964,
        6.109087,
        -8.360577,
        0.24797535,
        -5.8628244,
        5.7280083,
        -3.9645905,
        3.9051857,
        -9.610901,
        -4.252381,
        -1.2594671,
        2.431635,
        -4.025864,
        8.977352,
        -5.5137796,
        -9.175825,
        1.7456207,
        0.35941696,
        -7.0475054,
        -7.3383045,
        -0.18074894,
        7.538191,
        -7.3648405,
        -6.80892,
        -1.9563026,
        7.866747,
        9.424778,
        -5.2736897,
        6.7366257,
        3.126978,
        -7.7766705,
        2.193407,
        7.7766533,
        1.2148104,
        -4.719693,
        -7.9106092,
        2.2616444,
        -5.839197,
        6.208721,
        -1.1273994,
        -0.5637779,
        -0.36581707,
        1.5947332,
        5.972945,
        -0.14104748,
        9.553333,
        8.712358,
        -4.9216075,
        -3.4225936,
        1.5903816,
        0.94393826,
        -9.860632,
        6.5704975,
        3.8424911,
        -6.8303366,
        -4.8716326,
        2.4536886,
        0.33430958,
        9.123732,
        -5.8530517,
        9.072889,
        7.846571,
        -2.2875633,
        1.1201944,
        0.80903435,
        -3.6316247,
        0.20001507,
        -9.3999815,
        3.2739153,
        -8.735592,
        2.1502342,
        -4.4894023,
        -3.2399507,
        -0.07842255,
        -8.7656355,
        4.355999,
        -2.1951523,
        9.508945,
        -3.085093,
        -8.386113,
        -8.268132,
        1.914712,
        1.7682467,
        4.551791,
        -0.7520933,
        -1.802,
        5.838417,
        -1.1373158,
        -5.7580967,
        -7.946474,
        0.28652287,
        -6.8613644,
        -5.518467,
        1.8895159,
        0.6137142,
        0.9422054,
        5.4325714,
        5.333933,
        8.219561,
        -1.0191174,
        9.003805,
        -3.7359328,
        -4.8447723,
        -5.37559,
        2.5058737,
        -8.649928,
        -9.60063,
        9.594345,
        -6.0199924,
        5.360874,
        2.4919739,
        -2.7697153,
        -5.505056
      ]
    },
    {
      "index": 2,
      "output": -1.0,
      "input_connections": [
        [
          0,
          2.7387228
        ],
        [
          1,
          1.4480152
        ],
        [
          3,
          0.3294859
        ],
        [
          4,
          -5.984294
        ],
        [
          5,
          6.5929985
        ],
        [
          6,
          8.668331
        ],
        [
          7,
          -8.412118
        ]
      ],
      "bias": 0.18709792,
      "self_activation": -0.008286944,
      "retina_weights": [
        -1.9140568,
        -6.678753,
        5.3217354,
        7.374777,
        8.374733,
        -3.0276604,
        -1.4095707,
        3.8277206,
        -1.0252275,
        -0.26524925,
        8.817783,
        -7.397706,
        -4.2692013,
        -5.628502,
        -4.1965456,
        5.2175303,
        1.9201221,
        -3.6770554,
        0.71450615,
        2.5792274,
        7.457222,
        -6.7187614,
        -0.06874466,
        6.7871685,
        9.260365,
        8.814175,
        -8.384406,
        7.4493313,
        2.1728,
        -9.64925,
        0.64178085,
        9.888718,
        0.004573822,
        0.6106148,
        8.013515,
        -1.4821854,
        6.682564,
        5.4588737,
        -1.1111898,
        6.936926,
        6.4361,
        9.695789,
        -7.1355963,
        -5.2764173,
        -3.132989,
        1.4378061,
        -1.4432755,
        -0.5391569,
        4.0434084,
        -8.175184,
        7.7400455,
        -8.575149,
        -8.037081,
        -2.1148005,
        0.7486687,
        -2.1875134,
        7.157816,
        -0.1865406,
        -1.8059988,
        -0.49379063,
        -8.600509,
        -4.1118283,
        -2.9245467,
        3.371025,
        8.448692,
        3.2143173,
        -5.928802,
        -3.7430043,
        -0.36565018,
        5.4759064,
        0.6849899,
        4.7968016,
        6.84766,
        4.743043,
        2.362155,
        6.021349,
        -3.5628672,
        8.462187,
        -0.017565727,
        4.645046,
        0.5085335,
        -7.129822,
        -9.029247,
        1.6347132,
        -9.590375,
        7.3869915,
        -3.6559315,
        -4.793629,
        2.6771507,
        -1.0461683,
        -8.420362,
        -8.5206175,
        8.016724,
        7.7816257,
        -2.4810805,
        -2.3630323,
        -2.253529,
        1.3952694,
        -9.582443,
        1.706954,
        5.1870556,
        -6.978614,
        9.331503,
        3.3113537,
        -1.4839258,
        2.5489798,
        -4.1318793,
        7.6428795,
        6.7214985,
        9.655819,
        8.199398,
        -7.693267,
        8.259031,
        1.0186634,
        0.04920101,
        7.696453,
        -3.7888403,
        0.913826,
        -0.31144333,
        0.14417267,
        -6.3547134,
        -6.423871,
        7.982826,
        4.945298,
        -0.79828644,
        0.15600586,
        9.253317,
        -6.30939,
        6.7721615,
        9.737253,
        2.729992,
        6.536953,
        3.3087578,
        2.3537817,
        -4.5959873,
        -3.3893533,
        -5.1816173,
        0.33953762,
        -1.7533274,
        -8.714104,
        9.912392,
        1.9096193,
        -7.5681086,
        -3.6177702,
        -5.826213,
        -2.5692935,
        -3.5066648,
        -1.1255665,
        0.8294573,
        0.43625736,
        -2.75943,
        1.4459763,
        -9.576275,
        -6.25587,
        6.669132,
        5.0812235,
        -7.232294,
        -4.8005147,
        8.19767,
        -4.2493052,
        -8.1137705,
        5.0615234,
        2.0329895,
        1.5165911,
        -7.169344,
        3.8960943,
        4.4283304,
        1.4072123,
        5.596282,
        5.844673,
        -5.38197,
        -6.1322207,
        4.6898947,
        -5.479073,
        5.3722687,
        -8.572347,
        -1.7580147,
        7.756941,
        4.437913,
        -1.96315,
        8.342918,
        0.54298306,
        -9.607391,
        5.3391113,
        5.0783577,
        -7.4554825,
        7.0904922,
        3.4827385,
        -6.986639,
        0.41088486,
        -4.633717,
        -5.310704,
        -3.8730688,
        1.5747299,
        7.338825,
        -6.7003536,
        -0.1417656,
        -5.8953137,
        -8.746853,
        -1.3332481,
        -1.4619913,
        6.9500217,
        -2.3172941,
        -3.5505958,
        3.551527,
        5.496315,
        -1.8026848,
        8.151218,
        4.8388424,
        0.59807396,
        5.3749695,
        3.0167427,
        7.8699017,
        -9.394986,
        9.491886,
        4.4302235,
        -2.1658626,
        -3.3051105,
        6.30484,
        -9.148595,
        3.0784092,
        1.5329466,
        -3.4187026,
        -5.0933046,
        8.377428,
        8.954098,
        -8.898659,
        -4.569115,
        1.1280003,
        1.6973267,
        -6.3817425,
        -9.365377,
        3.5572538,
        4.4206486,
        7.156187,
        9.407532,
        -1.3044872,
        -8.43012,
        -9.554331,
        9.750978,
        -9.151194,
        2.2530403,
        0.9022198,
        4.8360834,
        6.989237,
        -9.854383,
        -2.7963681,
        -6.517455,
        4.819211,
        1.6862688,
        8.488554,
        6.9513054,
        6.8633404,
        -5.127167,
        2.1639767,
        -2.8885837,
        -4.961769,
        3.0309,
        -6.841593,
        -6.3559837,
        3.904892,
        7.9415054,
        0.130373,
        8.840765,
        -0.30044746,
        5.256485,
        9.71117,
        -7.624552,
        5.5553236,
        -7.9483747,
        4.5039377,
        1.6152296,
        7.0771637,
        -4.564945,
        -8.590509,
        -3.4366317,
        -4.0778203,
        7.1754932,
        5.4051104,
        -5.563144,
        5.046584,
        4.146508,
        3.813511,
        -3.9272447,
        -5.4088492,
        9.053545,
        2.5949965,
        0.5066004,
        -9.675028,
        -8.725286,
        6.371723,
        7.8418026,
        -0.03935051,
        6.404747,
        1.55692,
        -1.3294592,
        -5.680527,
        9.005161,
        5.637068,
        6.105158,
        -3.9153285,
        -6.731925,
        1.4434919,
        2.6984348,
        -8.880741,
        -6.3705254,
        6.438221,
        -1.2360897,
        -0.33040428,
        -5.524146,
        -8.575611,
        -5.9931035,
        1.4556227,
        9.355455,
        6.702942,
        -6.9186735,
        -5.204334,
        -4.7726007,
        2.4065409,
        3.0807295,
        -7.595191,
        -2.6685138,
        4.974738,
        7.3562527,
        -8.007803,
        2.5841274,
        -0.84443474,
        3.2528887,
        -1.5857782,
        5.2434034,
        -4.1013474,
        -1.0784788,
        9.353348,
        -7.0309753,
        -3.3992453,
        -1.0893698,
        5.1360693,
        -7.032344,
        -5.5762954,
        -7.6525564,
        -2.3009362,
        -7.6139994,
        -5.4656906,
        9.668793,
        -0.09632492,
        4.1325483,
        -2.7060528,
        -4.6073313,
        4.1599092,
        -2.1563163,
        9.569447,
        6.6672897,
        9.410372,
        3.4661446,
        -6.723819,
        -8.731763,
        -8.842985,
        -5.329046,
        6.1846733,
        2.7331076,
        -4.690809,
        -1.4650526,
        3.2812605,
        5.654997,
        1.501936,
        4.859332,
        5.5931225,
        2.2793999,
        -6.578929,
        -0.9845514,
        -0.34236145,
        -4.953775,
        -5.8673425,
        7.6328697,
        7.9322166,
        6.951357,
        7.2684956,
        0.55424595,
        -5.225074,
        -4.4282312,
        -2.0665207,
        -4.308321,
        -8.663771,
        9.539848,
        4.7165194,
        -1.9401636,
        0.42795086,
        -8.632495,
        -3.5039706,
        -8.813095,
        7.9873314,
        -3.5971065,
        -3.2587023,
        -0.10321045,
        -2.9986234,
        -8.845503,
        -4.4774146,
        9.384684,
        -2.0145693,
        3.8536587,
        -4.0137835,
        3.459097,
        -0.6303711,
        -6.394553,
        -4.49871,
        -5.0362344,
        2.577301,
        7.904974,
        -6.2597866,
        0.7558718,
        7.0825443,
        9.416231,
        5.548476,
        -8.29052,
        -7.4591465,
        5.113806,
        -8.736975,
        7.2345867,
        2.2599468,
        3.8234148,
        -7.3961754,
        -1.497571,
        8.256392,
        -9.985852,
        -0.25490665,
        -0.8599224,
        8.501183,
        -2.2538366,
        2.0584574,
        0.41403866,
        -0.32897377,
        -5.0530167,
        -1.384675,
        -9.2118,
        2.8529825,
        -9.920011,
        -3.2043595,
        -3.9634986,
        8.034157,
        0.5264225,
        -5.247187,
        2.0552597,
        0.46875095,
        -3.3361168,
        -0.0039520264,
        5.6678905,
        3.1971445,
        8.84586,
        -2.127129,
        -4.865045,
        1.0370407,
        -1.5658112,
        -0.94431114,
        -6.565099,
        9.755531,
        -3.3913512,
        7.8508816,
        -6.9992704,
        4.1417847,
        -2.075931,
        -5.2349157,
        -7.371027,
        -4.1095657,
        -6.1520357,
        0.90936756,
        0.74182415,
        3.1672373,
        -8.713648,
        -6.692686,
        -8.736439,
        -1.792552,
        5.737275,
        6.886425,
        -9.613702,
        -2.6860256,
        0.15525913,
        -8.357236,
        -9.448824,
        3.007575,
        4.6747103,
        -1.054389,
        -2.2339907,
        7.053005,
        -2.7813168,
        -4.406788,
        -2.4831166,
        0.10885811,
        5.7726803,
        -6.721835,
        2.4380865,
        -1.3886013,
        -0.020202637,
        -1.0585995,
        -2.4432125,
        7.5008698,
        4.349779,
        -2.9661484,
        7.975275,
        6.3084755,
        -5.2807946,
        5.037138,
        -8.805654,
        0.33297443,
        4.763666,
        4.343315,
        6.7146225,
        -2.8799744,
        -3.091826,
        8.855034,
        3.0871906,
        -2.0630732,
        1.5664806,
        -5.0432534,
        -7.854745,
        5.5702724,
        9.710798,
        6.443945,
        1.5609064,
        8.492968,
        -1.1026373,
        4.1499653,
        6.446518,
        -6.4513826,
        -0.02291584,
        -4.8178954,
        -0.7209511,
        -9.077725,
        9.489346,
        2.1500053,
        -9.337978,
        -0.21240616,
        -2.0359888,
        0.98600006,
        3.8705168,
        -6.422868,
        -6.0268993,
        0.34144306,
        0.0063762665,
        9.698042,
        8.628008,
        3.8598862,
        -3.1934233,
        9.735304,
        4.3296204,
        5.8189144,
        4.901458,
        -9.373336,
        1.4032612,
        -7.1544905,
        7.7562656,
        -6.602597,
        -4.1892595,
        -5.604226,
        9.957838,
        5.9867496,
        7.9526997,
        5.2786818,
        -2.8172965,
        -0.8655853,
        -9.846845,
        8.748407,
        3.0509386,
        6.2347374,
        -7.139902,
        9.930716,
        -7.610178,
        0.76030636,
        -6.8127985,
        7.5245953,
        7.7268276,
        6.968031,
        5.718335,
        3.9264593,
        -6.210906,
        -6.0900755,
        4.654523,
        -3.9320083,
        -8.382869,
        -7.5563116,
        -8.177695,
        -0.3613634,
        -6.3389893,
        -3.1806488,
        -0.77861214,
        2.463049,
        -4.594795,
        6.0401115,
        -0.12528801,
        -9.113652,
        -2.0087543,
        -5.391247,
        8.111612,
        4.634308,
        -5.76024,
        -3.739924,
        -5.857527,
        -2.539012,
        6.3609257,
        -3.5482664,
        -5.376682,
        -9.880731,
        0.9884081,
        -0.22539043,
        9.844643,
        -0.8458729,
        2.8797474,
        -6.777174,
        3.6310377,
        1.2132845,
        3.4211197,
        -7.7050877,
        2.7929869,
        -5.7960935,
        0.68255997,
        3.9363394,
        -4.021389,
        3.2891712,
        -5.6765814,
        -1.7764797,
        -1.0699978,
        -5.9147615,
        -9.855988,
        9.0295925,
        -7.2988844,
        6.6808853,
        3.2425652,
        -2.6794834,
        -6.053726,
        4.761094,
        6.153322,
        -9.939523,
        2.860876,
        5.7184353,
        -1.8812599,
        -4.413969,
        -7.0261545,
        -9.053838,
        -3.3888693,
        3.3711138,
        -8.504872,
        1.3986454,
        -2.180201,
        -1.7392864,
        -0.04581356,
        -6.804535,
        3.437027,
        -9.198208,
        -1.9393768,
        2.043353,
        -5.8942122,
        4.3253746,
        2.977644,
        3.4992876,
        5.7480946,
        0.25039577,
        2.3818455,
        1.912035,
        6.7195797,
        -9.536276,
        2.758397,
        -7.565241,
        1.5348921,
        3.7014065,
        -2.0553007,
        -2.40024,
        -6.6285915,
        -2.4471154,
        -0.5898876,
        -6.5625143,
        2.8064575,
        -2.841,
        8.571449,
        6.1827183,
        -8.184716,
        0.09904289,
        9.168226,
        1.5287552,
        -2.1102943,
        7.02981,
        5.524439,
        9.713692,
        0.56980705,
        -0.33711624,
        -7.8409357,
        7.029917,
        -4.393303,
        4.797434,
        5.323395,
        -5.0651784,
        5.7731457,
        8.604084,
        -7.3341675,
        -6.0329814,
        3.2060661,
        -7.92181,
        -4.460954,
        -0.7712641,
        -3.7421842,
        2.3561563,
        -8.216407,
        -7.585761,
        -5.467269,
        6.6076813,
        1.7028799,
        6.9088097,
        7.776079,
        -7.3136473,
        -1.3611355,
        3.2034435,
        -9.669514,
        -5.4523773,
        8.22854,
        1.177536,
        -2.2440042,
        3.3970747,
        2.7053175,
        1.7774496,
        2.7173986,
        0.30553246,
        5.256461,
        -5.5105157,
        -4.300415,
        9.366322,
        -6.2809706,
        4.3403397,
        -7.241246,
        2.4373827,
        6.9170494,
        -9.626524,
        3.611823,
        -7.5640554,
        0.1886282,
        2.0433578,
        3.0067053,
        2.1980057,
        -8.91675,
        9.431643,
        1.828166,
        -6.802001,
        8.522036,
        6.503195,
        8.494949,
        5.2127733,
        9.501736,
        3.7689104,
        3.5884418,
        8.523706,
        -1.4339514,
        5.614416,
        -8.743162,
        9.637291,
        1.9386377,
        -5.388009,
        1.6394367,
        -0.94726753,
        -3.038282,
        -1.9512548,
        -0.41361713,
        4.907879,
        6.701475,
        9.805149,
        -9.442391,
        3.8238916,
        7.124897,
        -9.383723,
        4.341873,
        2.0224295,
        -8.094956,
        -8.393874,
        4.945406,
        5.0712414,
        -5.245485,
        -7.4845953,
        7.7631226,
        3.228551,
        -7.743001,
        -9.686251,
        3.8488684,
        -6.821272,
        2.3077068,
        -0.70214653,
        5.652093,
        8.487923,
        -9.628908,
        -2.9751678,
        6.8033333,
        -8.850419,
        -9.703097,
        -6.33753,
        -3.1456132,
        1.4836969,
        -7.817752,
        -8.191299,
        -2.1532931,
        2.707037,
        -1.4357157,
        -2.0017638,
        2.892932,
        8.335421,
        6.7496643,
        -2.6346679,
        -8.388038,
        -1.0881081,
        -4.386601,
        -8.244567,
        -4.4958873,
        -2.5579185,
        -5.2104874,
        -4.789371,
        -9.498515,
        1.1008492,
        -4.2111154,
        -8.837457,
        -2.5771828,
        -3.1668777,
        8.761572,
        -8.691306,
        -3.7338037,
        3.842286,
        -0.35072517,
        -9.17213,
        2.4654808,
        -4.8621054,
        7.8138676,
        -5.470168,
        9.602089,
        5.5056753,
        4.17554,
        6.847702,
        8.736078,
        7.865219,
        9.341797,
        -8.60589,
        9.59885,
        -5.4490585,
        4.885684,
        0.12397385,
        6.7414913,
        -2.7065701,
        -2.2994056,
        6.2271214,
        9.742714,
        -1.0357513,
        -7.6809664,
        -5.893509,
        -2.036368,
        3.0908098,
        8.5251465,
        0.7013235,
        5.9894457,
        4.4815073,
        7.4380245,
        4.314829,
        -8.182712,
        7.18379,
        7.9381866,
        -0.55529976,
        -2.3092856,
        -8.003254,
        -0.8835974,
        -3.7177248,
        1.9373045,
        -3.423533,
        -7.9765463,
        -9.159524,
        4.5106163,
        -0.48834515,
        -0.8246012,
        2.4180136,
        -4.3620677,
        -1.5516844,
        0.49400425,
        -0.91545963,
        -1.4599218,
        -5.7246227,
        5.886318,
        1.9500408,
        2.630826,
        -1.9384308,
        3.9194384,
        3.155757,
        3.9729252,
        -2.9093451,
        -2.6108904,
        -9.341865,
        8.064747,
        -4.9175115,
        5.785445,
        3.068575,
        -4.7280593,
        4.845027,
        -1.9674768,
        8.687746,
        8.0795765,
        9.718866,
        -1.3898983,
        -1.0798998,
        7.609621,
        -6.696188,
        -9.920015,
        -4.0481443,
        3.2569876,
        3.4629478,
        6.3209496,
        7.375355,
        2.427844,
        -3.86589,
        2.228159,
        -2.7257414,
        -8.955576,
        -6.665718,
        1.0721359,
        8.772516,
        -5.459964,
        7.968498,
        8.524467,
        -3.3709211,
        7.4111023,
        -5.339541,
        -6.9917793,
        2.7079859,
        2.357708,
        9.331099,
        5.555772,
        -6.560828,
        -7.6241274,
        2.1863852,
        -4.7340794,
        4.4703016,
        2.5944939,
        3.5129795,
        -2.5583096,
        -0.53666973,
        6.878769,
        6.8492184,
        -0.9140053,
        -3.233201,
        0.121017456,
        4.485115,
        0.23235416,
        -1.8204393,
        -9.552946,
        8.995867,
        -5.553641,
        -8.546381,
        -8.838746,
        8.331894,
        -1.0983105,
        -9.808504,
        3.824133,
        -9.119515,
        -5.3179164,
        8.183226,
        -7.2338247,
        -5.770511,
        6.2617226,
        -6.1322255,
        9.635479,
        -4.278199,
        4.23643,
        -4.3626113,
        -3.2482715,
        -4.716508,
        4.7272053,
        -0.14401627,
        -3.868291,
        4.2290154,
        -6.7065067,
        -3.1684775,
        -7.4100876,
        -7.5703287,
        4.5359335,
        4.766573,
        4.04513,
        2.210885,
        8.842535,
        2.2999964,
        6.109087,
        -8.360577,
        0.24797535,
        -5.8628244,
        5.7280083,
        -3.9645905,
        3.9051857,
        -9.610901,
        -4.252381,
        -1.2594671,
        2.431635,
        -4.025864,
        8.977352,
        -5.5137796,
        -9.175825,
        1.7456207,
        0.35941696,
        -7.0475054,
        -7.3383045,
        -0.18074894,
        7.538191,
        -7.3648405,
        -6.80892,
        -1.9563026,
        7.866747,
        9.424778,
        -5.2736897,
        6.7366257,
        3.126978,
        -7.7766705,
        2.193407,
        7.7766533,
        1.2148104,
        -4.719693,
        -7.9106092,
        2.2616444,
        -5.839197,
        6.208721,
        -1.1273994,
        -0.5637779,
        -0.36581707,
        1.5947332,
        5.972945,
        -0.14104748,
        9.553333,
        8.712358,
        -4.9216075,
        -3.4225936,
        1.5903816,
        0.94393826,
        -9.860632,
        6.5704975,
        3.8424911,
        -6.8303366,
        -4.8716326,
        2.4536886,
        0.33430958,
        9.123732,
        -5.8530517,
        9.072889,
        7.846571,
        -2.2875633,
        1.1201944,
        0.80903435,
        -3.6316247,
        0.20001507,
        -9.3999815,
        3.2739153,
        -8.735592,
        2.1502342,
        -4.4894023,
        -3.2399507,
        -0.07842255,
        -8.7656355,
        4.355999,
        -2.1951523,
        9.508945,
        -3.085093,
        -8.386113,
        -8.268132,
        1.914712,
        1.7682467,
        4.551791,
        -0.7520933,
        -1.802,
        5.838417,
        -1.1373158,
        -5.7580967,
        -7.946474,
        0.28652287,
        -6.8613644,
        -5.518467,
        1.8895159,
        0.6137142,
        0.9422054,
        5.4325714,
        5.333933,
        8.219561,
        -1.0191174,
        9.003805,
        -3.7359328,
        -4.8447723,
        -5.37559,
        2.5058737,
        -8.649928,
        -9.60063,
        9.594345,
        -6.0199924,
        5.360874,
        2.4919739,
        -2.7697153,
        -5.505056
      ]
    },
    {
      "index": 3,
      "output": 0.9703392,
      "input_connections": [
        [
          0,
          0.0
        ],
        [
          1,
          -6.7669773
        ],
        [
          2,
          -2.7806969
        ],
        [
          4,
          0.0
        ],
        [
          5,
          -9.405882
        ],
        [
          6,
          -2.3893657
        ],
        [
          7,
          -2.6649232
        ]
      ],
      "bias": -0.046285246,
      "self_activation": 0.0,
      "retina_weights": [
        -1.9140568,
        -6.678753,
        5.3217354,
        7.374777,
        8.374733,
        -3.0276604,
        -1.4095707,
        3.8277206,
        -1.0252275,
        -0.26524925,
        8.817783,
        -7.397706,
        -4.2692013,
        -5.628502,
        -4.1965456,
        5.2175303,
        1.9201221,
        -3.6770554,
        0.71450615,
        2.5792274,
        7.457222,
        -6.7187614,
        -0.06874466,
        6.7871685,
        9.260365,
        8.814175,
        -8.384406,
        7.4493313,
        2.1728,
        -9.64925,
        0.64178085,
        9.888718,
        0.004573822,
        0.6106148,
        8.013515,
        -1.4821854,
        6.682564,
        5.4588737,
        -1.1111898,
        6.936926,
        6.4361,
        9.695789,
        -7.1355963,
        -5.2764173,
        -3.132989,
        1.4378061,
        -1.4432755,
        -0.5391569,
        4.0434084,
        -8.175184,
        7.7400455,
        -8.575149,
        -8.037081,
        -2.1148005,
        0.7486687,
        -2.1875134,
        7.157816,
        -0.1865406,
        -1.8059988,
        -0.49379063,
        -8.600509,
        -4.1118283,
        -2.9245467,
        3.371025,
        8.448692,
        3.2143173,
        -5.928802,
        -3.7430043,
        -0.36565018,
        5.4759064,
        0.6849899,
        4.7968016,
        6.84766,
        4.743043,
        2.362155,
        6.021349,
        -3.5628672,
        8.462187,
        -0.017565727,
        4.645046,
        0.5085335,
        -7.129822,
        -9.029247,
        1.6347132,
        -9.590375,
        7.3869915,
        -3.6559315,
        -4.793629,
        2.6771507,
        -1.0461683,
        -8.420362,
        -8.5206175,
        8.016724,
        7.7816257,
        -2.4810805,
        -2.3630323,
        -2.253529,
        1.3952694,
        -9.582443,
        1.706954,
        5.1870556,
        -6.978614,
        9.331503,
        3.3113537,
        -1.4839258,
        2.5489798,
        -4.1318793,
        7.6428795,
        6.7214985,
        9.655819,
        8.199398,
        -7.693267,
        8.259031,
        1.0186634,
        0.04920101,
        7.696453,
        -3.7888403,
        0.913826,
        -0.31144333,
        0.14417267,
        -6.3547134,
        -6.423871,
        7.982826,
        4.945298,
        -0.79828644,
        0.15600586,
        9.253317,
        -6.30939,
        6.7721615,
        9.737253,
        2.729992,
        6.536953,
        3.3087578,
        2.3537817,
        -4.5959873,
        -3.3893533,
        -5.1816173,
        0.33953762,
        -1.7533274,
        -8.714104,
        9.912392,
        1.9096193,
        -7.5681086,
        -3.6177702,
        -5.826213,
        -2.5692935,
        -3.5066648,
        -1.1255665,
        0.8294573,
        0.43625736,
        -2.75943,
        1.4459763,
        -9.576275,
        -6.25587,
        6.669132,
        5.0812235,
        -7.232294,
        -4.8005147,
        8.19767,
        -4.2493052,
        -8.1137705,
        5.0615234,
        2.0329895,
        1.5165911,
        -7.169344,
        3.8960943,
        4.4283304,
        1.4072123,
        5.596282,
        5.844673,
        -5.38197,
        -6.1322207,
        4.6898947,
        -5.479073,
        5.3722687,
        -8.572347,
        -1.7580147,
        7.756941,
        4.437913,
        -1.96315,
        8.342918,
        0.54298306,
        -9.607391,
        5.3391113,
        5.0783577,
        -7.4554825,
        7.0904922,
        3.4827385,
        -6.986639,
        0.41088486,
        -4.633717,
        -5.310704,
        -3.8730688,
        1.5747299,
        7.338825,
        -6.7003536,
        -0.1417656,
        -5.8953137,
        -8.746853,
        -1.3332481,
        -1.4619913,
        6.9500217,
        -2.3172941,
        -3.5505958,
        3.551527,
        5.496315,
        -1.8026848,
        8.151218,
        4.8388424,
        0.59807396,
        5.3749695,
        3.0167427,
        7.8699017,
        -9.394986,
        9.491886,
        4.4302235,
        -2.1658626,
        -3.3051105,
        6.30484,
        -9.148595,
        3.0784092,
        1.5329466,
        -3.4187026,
        -5.0933046,
        8.377428,
        8.954098,
        -8.898659,
        -4.569115,
        1.1280003,
        1.6973267,
        -6.3817425,
        -9.365377,
        3.5572538,
        4.4206486,
        7.156187,
        9.407532,
        -1.3044872,
        -8.43012,
        -9.554331,
        9.750978,
        -9.151194,
        2.2530403,
        0.9022198,
        4.8360834,
        6.989237,
        -9.854383,
        -2.7963681,
        -6.517455,
        4.819211,
        1.6862688,
        8.488554,
        6.9513054,
        6.8633404,
        -5.127167,
        2.1639767,
        -2.8885837,
        -4.961769,
        3.0309,
        -6.841593,
        -6.3559837,
        3.904892,
        7.9415054,
        0.130373,
        8.840765,
        -0.30044746,
        5.256485,
        9.71117,
        -7.624552,
        5.5553236,
        -7.9483747,
        4.5039377,
        1.6152296,
        7.0771637,
        -4.564945,
        -8.590509,
        -3.4366317,
        -4.0778203,
        7.1754932,
        5.4051104,
        -5.563144,
        5.046584,
        4.146508,
        3.813511,
        -3.9272447,
        -5.4088492,
        9.053545,
        2.5949965,
        0.5066004,
        -9.675028,
        -8.725286,
        6.371723,
        7.8418026,
        -0.03935051,
        6.404747,
        1.55692,
        -1.3294592,
        -5.680527,
        9.005161,
        5.637068,
        6.105158,
        -3.9153285,
        -6.731925,
        1.4434919,
        2.6984348,
        -8.880741,
        -6.3705254,
        6.438221,
        -1.2360897,
        -0.33040428,
        -5.524146,
        -8.575611,
        -5.9931035,
        1.4556227,
        9.355455,
        6.702942,
        -6.9186735,
        -5.204334,
        -4.7726007,
        2.4065409,
        3.0807295,
        -7.595191,
        -2.6685138,
        4.974738,
        7.3562527,
        -8.007803,
        2.5841274,
        -0.84443474,
        3.2528887,
        -1.5857782,
        5.2434034,
        -4.1013474,
        -1.0784788,
        9.353348,
        -7.0309753,
        -3.3992453,
        -1.0893698,
        5.1360693,
        -7.032344,
        -5.5762954,
        -7.6525564,
        -2.3009362,
        -7.6139994,
        -5.4656906,
        9.668793,
        -0.09632492,
        4.1325483,
        -2.7060528,
        -4.6073313,
        4.1599092,
        -2.1563163,
        9.569447,
        6.6672897,
        9.410372,
        3.4661446,
        -6.723819,
        -8.731763,
        -8.842985,
        -5.329046,
        6.1846733,
        2.7331076,
        -4.690809,
        -1.4650526,
        3.2812605,
        5.654997,
        1.501936,
        4.859332,
        5.5931225,
        2.2793999,
        -6.578929,
        -0.9845514,
        -0.34236145,
        -4.953775,
        -5.8673425,
        7.6328697,
        7.9322166,
        6.951357,
        7.2684956,
        0.55424595,
        -5.225074,
        -4.4282312,
        -2.0665207,
        -4.308321,
        -8.663771,
        9.539848,
        4.7165194,
        -1.9401636,
        0.42795086,
        -8.632495,
        -3.5039706,
        -8.813095,
        7.9873314,
        -3.5971065,
        -3.2587023,
        -0.10321045,
        -2.9986234,
        -8.845503,
        -4.4774146,
        9.384684,
        -2.0145693,
        3.8536587,
        -4.0137835,
        3.459097,
        -0.6303711,
        -6.394553,
        -4.49871,
        -5.0362344,
        2.577301,
        7.904974,
        -6.2597866,
        0.7558718,
        7.0825443,
        9.416231,
        5.548476,
        -8.29052,
        -7.4591465,
        5.113806,
        -8.736975,
        7.2345867,
        2.2599468,
        3.8234148,
        -7.3961754,
        -1.497571,
        8.256392,
        -9.985852,
        -0.25490665,
        -0.8599224,
        8.501183,
        -2.2538366,
        2.0584574,
        0.41403866,
        -0.32897377,
        -5.0530167,
        -1.384675,
        -9.2118,
        2.8529825,
        -9.920011,
        -3.2043595,
        -3.9634986,
        8.034157,
        0.5264225,
        -5.247187,
        2.0552597,
        0.46875095,
        -3.3361168,
        -0.0039520264,
        5.6678905,
        3.1971445,
        8.84586,
        -2.127129,
        -4.865045,
        1.0370407,
        -1.5658112,
        -0.94431114,
        -6.565099,
        9.755531,
        -3.3913512,
        7.8508816,
        -6.9992704,
        4.1417847,
        -2.075931,
        -5.2349157,
        -7.371027,
        -4.1095657,
        -6.1520357,
        0.90936756,
        0.74182415,
        3.1672373,
        -8.713648,
        -6.692686,
        -8.736439,
        -1.792552,
        5.737275,
        6.886425,
        -9.613702,
        -2.6860256,
        0.15525913,
        -8.357236,
        -9.448824,
        3.007575,
        4.6747103,
        -1.054389,
        -2.2339907,
        7.053005,
        -2.7813168,
        -4.406788,
        -2.4831166,
        0.10885811,
        5.7726803,
        -6.721835,
        2.4380865,
        -1.3886013,
        -0.020202637,
        -1.0585995,
        -2.4432125,
        7.5008698,
        4.349779,
        -2.9661484,
        7.975275,
        6.3084755,
        -5.2807946,
        5.037138,
        -8.805654,
        0.33297443,
        4.763666,
        4.343315,
        6.7146225,
        -2.8799744,
        -3.091826,
        8.855034,
        3.0871906,
        -2.0630732,
        1.5664806,
        -5.0432534,
        -7.854745,
        5.5702724,
        9.710798,
        6.443945,
        1.5609064,
        8.492968,
        -1.1026373,
        4.1499653,
        6.446518,
        -6.4513826,
        -0.02291584,
        -4.8178954,
        -0.7209511,
        -9.077725,
        9.489346,
        2.1500053,
        -9.337978,
        -0.21240616,
        -2.0359888,
        0.98600006,
        3.8705168,
        -6.422868,
        -6.0268993,
        0.34144306,
        0.0063762665,
        9.698042,
        8.628008,
        3.8598862,
        -3.1934233,
        9.735304,
        4.3296204,
        5.8189144,
        4.901458,
        -9.373336,
        1.4032612,
        -7.1544905,
        7.7562656,
        -6.602597,
        -4.1892595,
        -5.604226,
        9.957838,
        5.9867496,
        7.9526997,
        5.2786818,
        -2.8172965,
        -0.8655853,
        -9.846845,
        8.748407,
        3.0509386,
        6.2347374,
        -7.139902,
        9.930716,
        -7.610178,
        0.76030636,
        -6.8127985,
        7.5245953,
        7.7268276,
        6.968031,
        5.718335,
        3.9264593,
        -6.210906,
        -6.0900755,
        4.654523,
        -3.9320083,
        -8.382869,
        -7.5563116,
        -8.177695,
        -0.3613634,
        -6.3389893,
        -3.1806488,
        -0.77861214,
        2.463049,
        -4.594795,
        6.0401115,
        -0.12528801,
        -9.113652,
        -2.0087543,
        -5.391247,
        8.111612,
        4.634308,
        -5.76024,
        -3.739924,
        -5.857527,
        -2.539012,
        6.3609257,
        -3.5482664,
        -5.376682,
        -9.880731,
        0.9884081,
        -0.22539043,
        9.844643,
        -0.8458729,
        2.8797474,
        -6.777174,
        3.6310377,
        1.2132845,
        3.4211197,
        -7.7050877,
        2.7929869,
        -5.7960935,
        0.68255997,
        3.9363394,
        -4.021389,
        3.2891712,
        -5.6765814,
        -1.7764797,
        -1.0699978,
        -5.9147615,
        -9.855988,
        9.0295925,
        -7.2988844,
        6.6808853,
        3.2425652,
        -2.6794834,
        -6.053726,
        4.761094,
        6.153322,
        -9.939523,
        2.860876,
        5.7184353,
        -1.8812599,
        -4.413969,
        -7.0261545,
        -9.053838,
        -3.3888693,
        3.3711138,
        -8.504872,
        1.3986454,
        -2.180201,
        -1.7392864,
        -0.04581356,
        -6.804535,
        3.437027,
        -9.198208,
        -1.9393768,
        2.043353,
        -5.8942122,
        4.3253746,
        2.977644,
        3.4992876,
        5.7480946,
        0.25039577,
        2.3818455,
        1.912035,
        6.7195797,
        -9.536276,
        2.758397,
        -7.565241,
        1.5348921,
        3.7014065,
        -2.0553007,
        -2.40024,
        -6.6285915,
        -2.4471154,
        -0.5898876,
        -6.5625143,
        2.8064575,
        -2.841,
        8.571449,
        6.1827183,
        -8.184716,
        0.09904289,
        9.168226,
        1.5287552,
        -2.1102943,
        7.02981,
        5.524439,
        9.713692,
        0.56980705,
        -0.33711624,
        -7.8409357,
        7.029917,
        -4.393303,
        4.797434,
        5.323395,
        -5.0651784,
        5.7731457,
        8.604084,
        -7.3341675,
        -6.0329814,
        3.2060661,
        -7.92181,
        -4.460954,
        -0.7712641,
        -3.7421842,
        2.3561563,
        -8.216407,
        -7.585761,
        -5.467269,
        6.6076813,
        1.7028799,
        6.9088097,
        7.776079,
        -7.3136473,
        -1.3611355,
        3.2034435,
        -9.669514,
        -5.4523773,
        8.22854,
        1.177536,
        -2.2440042,
        3.3970747,
        2.7053175,
        1.7774496,
        2.7173986,
        0.30553246,
        5.256461,
        -5.5105157,
        -4.300415,
        9.366322,
        -6.2809706,
        4.3403397,
        -7.241246,
        2.4373827,
        6.9170494,
        -9.626524,
        3.611823,
        -7.5640554,
        0.1886282,
        2.0433578,
        3.0067053,
        2.1980057,
        -8.91675,
        9.431643,
        1.828166,
        -6.802001,
        8.522036,
        6.503195,
        8.494949,
        5.2127733,
        9.501736,
        3.7689104,
        3.5884418,
        8.523706,
        -1.4339514,
        5.614416,
        -8.743162,
        9.637291,
        1.9386377,
        -5.388009,
        1.6394367,
        -0.94726753,
        -3.038282,
        -1.9512548,
        -0.41361713,
        4.907879,
        6.701475,
        9.805149,
        -9.442391,
        3.8238916,
        7.124897,
        -9.383723,
        4.341873,
        2.0224295,
        -8.094956,
        -8.393874,
        4.945406,
        5.0712414,
        -5.245485,
        -7.4845953,
        7.7631226,
        3.228551,
        -7.743001,
        -9.686251,
        3.8488684,
        -6.821272,
        2.3077068,
        -0.70214653,
        5.652093,
        8.487923,
        -9.628908,
        -2.9751678,
        6.8033333,
        -8.850419,
        -9.703097,
        -6.33753,
        -3.1456132,
        1.4836969,
        -7.817752,
        -8.191299,
        -2.1532931,
        2.707037,
        -1.4357157,
        -2.0017638,
        2.892932,
        8.335421,
        6.7496643,
        -2.6346679,
        -8.388038,
        -1.0881081,
        -4.386601,
        -8.244567,
        -4.4958873,
        -2.5579185,
        -5.2104874,
        -4.789371,
        -9.498515,
        1.1008492,
        -4.2111154,
        -8.837457,
        -2.5771828,
        -3.1668777,
        8.761572,
        -8.691306,
        -3.7338037,
        3.842286,
        -0.35072517,
        -9.17213,
        2.4654808,
        -4.8621054,
        7.8138676,
        -5.470168,
        9.602089,
        5.5056753,
        4.17554,
        6.847702,
        8.736078,
        7.865219,
        9.341797,
        -8.60589,
        9.59885,
        -5.4490585,
        4.885684,
        0.12397385,
        6.7414913,
        -2.7065701,
        -2.2994056,
        6.2271214,
        9.742714,
        -1.0357513,
        -7.6809664,
        -5.893509,
        -2.036368,
        3.0908098,
        8.5251465,
        0.7013235,
        5.9894457,
        4.4815073,
        7.4380245,
        4.314829,
        -8.182712,
        7.18379,
        7.9381866,
        -0.55529976,
        -2.3092856,
        -8.003254,
        -0.8835974,
        -3.7177248,
        1.9373045,
        -3.423533,
        -7.9765463,
        -9.159524,
        4.5106163,
        -0.48834515,
        -0.8246012,
        2.4180136,
        -4.3620677,
        -1.5516844,
        0.49400425,
        -0.91545963,
        -1.4599218,
        -5.7246227,
        5.886318,
        1.9500408,
        2.630826,
        -1.9384308,
        3.9194384,
        3.155757,
        3.9729252,
        -2.9093451,
        -2.6108904,
        -9.341865,
        8.064747,
        -4.9175115,
        5.785445,
        3.068575,
        -4.7280593,
        4.845027,
        -1.9674768,
        8.687746,
        8.0795765,
        9.718866,
        -1.3898983,
        -1.0798998,
        7.609621,
        -6.696188,
        -9.920015,
        -4.0481443,
        3.2569876,
        3.4629478,
        6.3209496,
        7.375355,
        2.427844,
        -3.86589,
        2.228159,
        -2.7257414,
        -8.955576,
        -6.665718,
        1.0721359,
        8.772516,
        -5.459964,
        7.968498,
        8.524467,
        -3.3709211,
        7.4111023,
        -5.339541,
        -6.9917793,
        2.7079859,
        2.357708,
        9.331099,
        5.555772,
        -6.560828,
        -7.6241274,
        2.1863852,
        -4.7340794,
        4.4703016,
        2.5944939,
        3.5129795,
        -2.5583096,
        -0.53666973,
        6.878769,
        6.8492184,
        -0.9140053,
        -3.233201,
        0.121017456,
        4.485115,
        0.23235416,
        -1.8204393,
        -9.552946,
        8.995867,
        -5.553641,
        -8.546381,
        -8.838746,
        8.331894,
        -1.0983105,
        -9.808504,
        3.824133,
        -9.119515,
        -5.3179164,
        8.183226,
        -7.2338247,
        -5.770511,
        6.2617226,
        -6.1322255,
        9.635479,
        -4.278199,
        4.23643,
        -4.3626113,
        -3.2482715,
        -4.716508,
        4.7272053,
        -0.14401627,
        -3.868291,
        4.2290154,
        -6.7065067,
        -3.1684775,
        -7.4100876,
        -7.5703287,
        4.5359335,
        4.766573,
        4.04513,
        2.210885,
        8.842535,
        2.2999964,
        6.109087,
        -8.360577,
        0.24797535,
        -5.8628244,
        5.7280083,
        -3.9645905,
        3.9051857,
        -9.610901,
        -4.252381,
        -1.2594671,
        2.431635,
        -4.025864,
        8.977352,
        -5.5137796,
        -9.175825,
        1.7456207,
        0.35941696,
        -7.0475054,
        -7.3383045,
        -0.18074894,
        7.538191,
        -7.3648405,
        -6.80892,
        -1.9563026,
        7.866747,
        9.424778,
        -5.2736897,
        6.7366257,
        3.126978,
        -7.7766705,
        2.193407,
        7.7766533,
        1.2148104,
        -4.719693,
        -7.9106092,
        2.2616444,
        -5.839197,
        6.208721,
        -1.1273994,
        -0.5637779,
        -0.36581707,
        1.5947332,
        5.972945,
        -0.14104748,
        9.553333,
        8.712358,
        -4.9216075,
        -3.4225936,
        1.5903816,
        0.94393826,
        -9.860632,
        6.5704975,
        3.8424911,
        -6.8303366,
        -4.8716326,
        2.4536886,
        0.33430958,
        9.123732,
        -5.8530517,
        9.072889,
        7.846571,
        -2.2875633,
        1.1201944,
        0.80903435,
        -3.6316247,
        0.20001507,
        -9.3999815,
        3.2739153,
        -8.735592,
        2.1502342,
        -4.4894023,
        -3.2399507,
        -0.07842255,
        -8.7656355,
        4.355999,
        -2.1951523,
        9.508945,
        -3.085093,
        -8.386113,
        -8.268132,
        1.914712,
        1.7682467,
        4.551791,
        -0.7520933,
        -1.802,
        5.838417,
        -1.1373158,
        -5.7580967,
        -7.946474,
        0.28652287,
        -6.8613644,
        -5.518467,
        1.8895159,
        0.6137142,
        0.9422054,
        5.4325714,
        5.333933,
        8.219561,
        -1.0191174,
        9.003805,
        -3.7359328,
        -4.8447723,
        -5.37559,
        2.5058737,
        -8.649928,
        -9.60063,
        9.594345,
        -6.0199924,
        5.360874,
        2.4919739,
        -2.7697153,
        -5.505056
      ]
    },
    {
      "index": 4,
      "output": -1.0,
      "input_connections": [
        [
          0,
          -6.202144
        ],
        [
          1,
          -3.7703104
        ],
        [
          2,
          -2.0522704
        ],
        [
          3,
          -9.229242
        ],
        [
          5,
          -0.34313014
        ],
        [
          6,
          -6.7890806
        ],
        [
          7,
          8.113384
        ]
      ],
      "bias": 0.021744728,
      "self_activation": 0.0,
      "retina_weights": [
        -1.9140568,
        -6.678753,
        5.3217354,
        7.374777,
        8.374733,
        -3.0276604,
        -1.4095707,
        3.8277206,
        -1.0252275,
        -0.26524925,
        8.817783,
        -7.397706,
        -4.2692013,
        -5.628502,
        -4.1965456,
        5.2175303,
        1.9201221,
        -3.6770554,
        0.71450615,
        2.5792274,
        7.457222,
        -6.7187614,
        -0.06874466,
        6.7871685,
        9.260365,
        8.814175,
        -8.384406,
        7.4493313,
        2.1728,
        -9.64925,
        0.64178085,
        9.888718,
        0.004573822,
        0.6106148,
        8.013515,
        -1.4821854,
        6.682564,
        5.4588737,
        -1.1111898,
        6.936926,
        6.4361,
        9.695789,
        -7.1355963,
        -5.2764173,
        -3.132989,
        1.4378061,
        -1.4432755,
        -0.5391569,
        4.0434084,
        -8.175184,
        7.7400455,
        -8.575149,
        -8.037081,
        -2.1148005,
        0.7486687,
        -2.1875134,
        7.157816,
        -0.1865406,
        -1.8059988,
        -0.49379063,
        -8.600509,
        -4.1118283,
        -2.9245467,
        3.371025,
        8.448692,
        3.2143173,
        -5.928802,
        -3.7430043,
        -0.36565018,
        5.4759064,
        0.6849899,
        4.7968016,
        6.84766,
        4.743043,
        2.362155,
        6.021349,
        -3.5628672,
        8.462187,
        -0.017565727,
        4.645046,
        0.5085335,
        -7.129822,
        -9.029247,
        1.6347132,
        -9.590375,
        7.3869915,
        -3.6559315,
        -4.793629,
        2.6771507,
        -1.0461683,
        -8.420362,
        -8.5206175,
        8.016724,
        7.7816257,
        -2.4810805,
        -2.3630323,
        -2.253529,
        1.3952694,
        -9.582443,
        1.706954,
        5.1870556,
        -6.978614,
        9.331503,
        3.3113537,
        -1.4839258,
        2.5489798,
        -4.1318793,
        7.6428795,
        6.7214985,
        9.655819,
        8.199398,
        -7.693267,
        8.259031,
        1.0186634,
        0.04920101,
        7.696453,
        -3.7888403,
        0.913826,
        -0.31144333,
        0.14417267,
        -6.3547134,
        -6.423871,
        7.982826,
        4.945298,
        -0.79828644,
        0.15600586,
        9.253317,
        -6.30939,
        6.7721615,
        9.737253,
        2.729992,
        6.536953,
        3.3087578,
        2.3537817,
        -4.5959873,
        -3.3893533,
        -5.1816173,
        0.33953762,
        -1.7533274,
        -8.714104,
        9.912392,
        1.9096193,
        -7.5681086,
        -3.6177702,
        -5.826213,
        -2.5692935,
        -3.5066648,
        -1.1255665,
        0.8294573,
        0.43625736,
        -2.75943,
        1.4459763,
        -9.576275,
        -6.25587,
        6.669132,
        5.0812235,
        -7.232294,
        -4.8005147,
        8.19767,
        -4.2493052,
        -8.1137705,
        5.0615234,
        2.0329895,
        1.5165911,
        -7.169344,
        3.8960943,
        4.4283304,
        1.4072123,
        5.596282,
        5.844673,
        -5.38197,
        -6.1322207,
        4.6898947,
        -5.479073,
        5.3722687,
        -8.572347,
        -1.7580147,
        7.756941,
        4.437913,
        -1.96315,
        8.342918,
        0.54298306,
        -9.607391,
        5.3391113,
        5.0783577,
        -7.4554825,
        7.0904922,
        3.4827385,
        -6.986639,
        0.41088486,
        -4.633717,
        -5.310704,
        -3.8730688,
        1.5747299,
        7.338825,
        -6.7003536,
        -0.1417656,
        -5.8953137,
        -8.746853,
        -1.3332481,
        -1.4619913,
        6.9500217,
        -2.3172941,
        -3.5505958,
        3.551527,
        5.496315,
        -1.8026848,
        8.151218,
        4.8388424,
        0.59807396,
        5.3749695,
        3.0167427,
        7.8699017,
        -9.394986,
        9.491886,
        4.4302235,
        -2.1658626,
        -3.3051105,
        6.30484,
        -9.148595,
        3.0784092,
        1.5329466,
        -3.4187026,
        -5.0933046,
        8.377428,
        8.954098,
        -8.898659,
        -4.569115,
        1.1280003,
        1.6973267,
        -6.3817425,
        -9.365377,
        3.5572538,
        4.4206486,
        7.156187,
        9.407532,
        -1.3044872,
        -8.43012,
        -9.554331,
        9.750978,
        -9.151194,
        2.2530403,
        0.9022198,
        4.8360834,
        6.989237,
        -9.854383,
        -2.7963681,
        -6.517455,
        4.819211,
        1.6862688,
        8.488554,
        6.9513054,
        6.8633404,
        -5.127167,
        2.1639767,
        -2.8885837,
        -4.961769,
        3.0309,
        -6.841593,
        -6.3559837,
        3.904892,
        7.9415054,
        0.130373,
        8.840765,
        -0.30044746,
        5.256485,
        9.71117,
        -7.624552,
        5.5553236,
        -7.9483747,
        4.5039377,
        1.6152296,
        7.0771637,
        -4.564945,
        -8.590509,
        -3.4366317,
        -4.0778203,
        7.1754932,
        5.4051104,
        -5.563144,
        5.046584,
        4.146508,
        3.813511,
        -3.9272447,
        -5.4088492,
        9.053545,
        2.5949965,
        0.5066004,
        -9.675028,
        -8.725286,
        6.371723,
        7.8418026,
        -0.03935051,
        6.404747,
        1.55692,
        -1.3294592,
        -5.680527,
        9.005161,
        5.637068,
        6.105158,
        -3.9153285,
        -6.731925,
        1.4434919,
        2.6984348,
        -8.880741,
        -6.3705254,
        6.438221,
        -1.2360897,
        -0.33040428,
        -5.524146,
        -8.575611,
        -5.9931035,
        1.4556227,
        9.355455,
        6.702942,
        -6.9186735,
        -5.204334,
        -4.7726007,
        2.4065409,
        3.0807295,
        -7.595191,
        -2.6685138,
        4.974738,
        7.3562527,
        -8.007803,
        2.5841274,
        -0.84443474,
        3.2528887,
        -1.5857782,
        5.2434034,
        -4.1013474,
        -1.0784788,
        9.353348,
        -7.0309753,
        -3.3992453,
        -1.0893698,
        5.1360693,
        -7.032344,
        -5.5762954,
        -7.6525564,
        -2.3009362,
        -7.6139994,
        -5.4656906,
        9.668793,
        -0.09632492,
        4.1325483,
        -2.7060528,
        -4.6073313,
        4.1599092,
        -2.1563163,
        9.569447,
        6.6672897,
        9.410372,
        3.4661446,
        -6.723819,
        -8.731763,
        -8.842985,
        -5.329046,
        6.1846733,
        2.7331076,
        -4.690809,
        -1.4650526,
        3.2812605,
        5.654997,
        1.501936,
        4.859332,
        5.5931225,
        2.2793999,
        -6.578929,
        -0.9845514,
        -0.34236145,
        -4.953775,
        -5.8673425,
        7.6328697,
        7.9322166,
        6.951357,
        7.2684956,
        0.55424595,
        -5.225074,
        -4.4282312,
        -2.0665207,
        -4.308321,
        -8.663771,
        9.539848,
        4.7165194,
        -1.9401636,
        0.42795086,
        -8.632495,
        -3.5039706,
        -8.813095,
        7.9873314,
        -3.5971065,
        -3.2587023,
        -0.10321045,
        -2.9986234,
        -8.845503,
        -4.4774146,
        9.384684,
        -2.0145693,
        3.8536587,
        -4.0137835,
        3.459097,
        -0.6303711,
        -6.394553,
        -4.49871,
        -5.0362344,
        2.577301,
        7.904974,
        -6.2597866,
        0.7558718,
        7.0825443,
        9.416231,
        5.548476,
        -8.29052,
        -7.4591465,
        5.113806,
        -8.736975,
        7.2345867,
        2.2599468,
        3.8234148,
        -7.3961754,
        -1.497571,
        8.256392,
        -9.985852,
        -0.25490665,
        -0.8599224,
        8.501183,
        -2.2538366,
        2.0584574,
        0.41403866,
        -0.32897377,
        -5.0530167,
        -1.384675,
        -9.2118,
        2.8529825,
        -9.920011,
        -3.2043595,
        -3.9634986,
        8.034157,
        0.5264225,
        -5.247187,
        2.0552597,
        0.46875095,
        -3.3361168,
        -0.0039520264,
        5.6678905,
        3.1971445,
        8.84586,
        -2.127129,
        -4.865045,
        1.0370407,
        -1.5658112,
        -0.94431114,
        -6.565099,
        9.755531,
        -3.3913512,
        7.8508816,
        -6.9992704,
        4.1417847,
        -2.075931,
        -5.2349157,
        -7.371027,
        -4.1095657,
        -6.1520357,
        0.90936756,
        0.74182415,
        3.1672373,
        -8.713648,
        -6.692686,
        -8.736439,
        -1.792552,
        5.737275,
        6.886425,
        -9.613702,
        -2.6860256,
        0.15525913,
        -8.357236,
        -9.448824,
        3.007575,
        4.6747103,
        -1.054389,
        -2.2339907,
        7.053005,
        -2.7813168,
        -4.406788,
        -2.4831166,
        0.10885811,
        5.7726803,
        -6.721835,
        2.4380865,
        -1.3886013,
        -0.020202637,
        -1.0585995,
        -2.4432125,
        7.5008698,
        4.349779,
        -2.9661484,
        7.975275,
        6.3084755,
        -5.2807946,
        5.037138,
        -8.805654,
        0.33297443,
        4.763666,
        4.343315,
        6.7146225,
        -2.8799744,
        -3.091826,
        8.855034,
        3.0871906,
        -2.0630732,
        1.5664806,
        -5.0432534,
        -7.854745,
        5.5702724,
        9.710798,
        6.443945,
        1.5609064,
        8.492968,
        -1.1026373,
        4.1499653,
        6.446518,
        -6.4513826,
        -0.02291584,
        -4.8178954,
        -0.7209511,
        -9.077725,
        9.489346,
        2.1500053,
        -9.337978,
        -0.21240616,
        -2.0359888,
        0.98600006,
        3.8705168,
        -6.422868,
        -6.0268993,
        0.34144306,
        0.0063762665,
        9.698042,
        8.628008,
        3.8598862,
        -3.1934233,
        9.735304,
        4.3296204,
        5.8189144,
        4.901458,
        -9.373336,
        1.4032612,
        -7.1544905,
        7.7562656,
        -6.602597,
        -4.1892595,
        -5.604226,
        9.957838,
        5.9867496,
        7.9526997,
        5.2786818,
        -2.8172965,
        -0.8655853,
        -9.846845,
        8.748407,
        3.0509386,
        6.2347374,
        -7.139902,
        9.930716,
        -7.610178,
        0.76030636,
        -6.8127985,
        7.5245953,
        7.7268276,
        6.968031,
        5.718335,
        3.9264593,
        -6.210906,
        -6.0900755,
        4.654523,
        -3.9320083,
        -8.382869,
        -7.5563116,
        -8.177695,
        -0.3613634,
        -6.3389893,
        -3.1806488,
        -0.77861214,
        2.463049,
        -4.594795,
        6.0401115,
        -0.12528801,
        -9.113652,
        -2.0087543,
        -5.391247,
        8.111612,
        4.634308,
        -5.76024,
        -3.739924,
        -5.857527,
        -2.539012,
        6.3609257,
        -3.5482664,
        -5.376682,
        -9.880731,
        0.9884081,
        -0.22539043,
        9.844643,
        -0.8458729,
        2.8797474,
        -6.777174,
        3.6310377,
        1.2132845,
        3.4211197,
        -7.7050877,
        2.7929869,
        -5.7960935,
        0.68255997,
        3.9363394,
        -4.021389,
        3.2891712,
        -5.6765814,
        -1.7764797,
        -1.0699978,
        -5.9147615,
        -9.855988,
        9.0295925,
        -7.2988844,
        6.6808853,
        3.2425652,
        -2.6794834,
        -6.053726,
        4.761094,
        6.153322,
        -9.939523,
        2.860876,
        5.7184353,
        -1.8812599,
        -4.413969,
        -7.0261545,
        -9.053838,
        -3.3888693,
        3.3711138,
        -8.504872,
        1.3986454,
        -2.180201,
        -1.7392864,
        -0.04581356,
        -6.804535,
        3.437027,
        -9.198208,
        -1.9393768,
        2.043353,
        -5.8942122,
        4.3253746,
        2.977644,
        3.4992876,
        5.7480946,
        0.25039577,
        2.3818455,
        1.912035,
        6.7195797,
        -9.536276,
        2.758397,
        -7.565241,
        1.5348921,
        3.7014065,
        -2.0553007,
        -2.40024,
        -6.6285915,
        -2.4471154,
        -0.5898876,
        -6.5625143,
        2.8064575,
        -2.841,
        8.571449,
        6.1827183,
        -8.184716,
        0.09904289,
        9.168226,
        1.5287552,
        -2.1102943,
        7.02981,
        5.524439,
        9.713692,
        0.56980705,
        -0.33711624,
        -7.8409357,
        7.029917,
        -4.393303,
        4.797434,
        5.323395,
        -5.0651784,
        5.7731457,
        8.604084,
        -7.3341675,
        -6.0329814,
        3.2060661,
        -7.92181,
        -4.460954,
        -0.7712641,
        -3.7421842,
        2.3561563,
        -8.216407,
        -7.585761,
        -5.467269,
        6.6076813,
        1.7028799,
        6.9088097,
        7.776079,
        -7.3136473,
        -1.3611355,
        3.2034435,
        -9.669514,
        -5.4523773,
        8.22854,
        1.177536,
        -2.2440042,
        3.3970747,
        2.7053175,
        1.7774496,
        2.7173986,
        0.30553246,
        5.256461,
        -5.5105157,
        -4.300415,
        9.366322,
        -6.2809706,
        4.3403397,
        -7.241246,
        2.4373827,
        6.9170494,
        -9.626524,
