{
  "neurons": [
    {
      "index": 0,
      "output": 1.0,
      "input_connections": [
        [
          1,
          0.0
        ],
        [
          2,
          0.0
        ],
        [
          3,
          0.0
        ],
        [
          4,
          -8.192188
        ],
        [
          5,
          0.0
        ],
        [
          6,
          0.0
        ],
        [
          7,
          0.0
        ]
      ],
      "bias": -0.015981771,
      "self_activation": 0.0,
      "retina_weights": [
        -9.929263,
        0.90933704,
        -5.394294,
        5.2325315,
        6.031418,
        6.668545,
        2.5624886,
        -9.557545,
        4.26005,
        0.75922394,
        -5.9093018,
        -9.565589,
        3.441802,
        -4.305846,
        3.6047783,
        4.368128,
        1.4632044,
        -4.869694,
        -1.2681665,
        3.625699,
        0.3743782,
        -8.200502,
        9.856144,
        3.1394444,
        -0.6303539,
        -1.491684,
        -6.079685,
        6.8416786,
        7.193434,
        8.784119,
        1.4449558,
        7.8978405,
        -3.9092202,
        7.2914524,
        3.0375347,
        -6.8843555,
        9.474489,
        2.1920166,
        3.478097,
        -7.469158,
        0.9914074,
        -7.3893948,
        2.3677502,
        3.1741009,
        -1.2123508,
        -1.6983385,
        -7.9083986,
        8.7687435,
        0.12908554,
        0.75285816,
        -1.6518488,
        4.260234,
        0.37165546,
        8.9137745,
        -0.14450264,
        -7.3390675,
        -8.725157,
        -2.881114,
        8.926765,
        -1.0273733,
        6.689455,
        3.8230982,
        -0.9687443,
        1.8189917,
        -5.717606,
        -8.443429,
        -6.7952175,
        2.4842987,
        -9.760134,
        -8.958308,
        -0.8866615,
        7.712652,
        -3.5792227,
        1.970171,
        -3.0328007,
        4.339799,
        -8.504164,
        -0.10622883,
        1.0880051,
        -7.874384,
        -3.4372659,
        4.3240347,
        4.189502,
        0.559083,
        -3.330893,
        -8.320972,
        3.9959564,
        7.4347553,
        -4.897327,
        6.223282,
        1.3003502,
        2.415761,
        1.5058889,
        -7.551074,
        -3.9943595,
        -3.0516024,
        -9.500875,
        5.2753487,
        4.6608076,
        6.5402756,
        8.949436,
        4.84223,
        3.5715303,
        1.8365469,
        1.9250717,
        -3.0343552,
        -7.070732,
        3.3896103,
        0.8121958,
        8.742153,
        3.2853613,
        4.8304405,
        5.7169456,
        -8.564873,
        -7.2974606,
        -7.987377,
        -0.57584953,
        3.0473337,
        7.74107,
        -6.2788725,
        -6.5210648,
        7.4095306,
        -4.2479153,
        -6.3829565,
        -1.3050051,
        5.2620687,
        3.2775412,
        6.688528,
        -8.506031,
        -6.197166,
        -4.5093317,
        -6.863103,
        2.6488247,
        7.4068413,
        8.77762,
        8.552458,
        0.3276434,
        -5.851826,
        8.449141,
        7.4579105,
        9.081694,
        8.804512,
        -7.9487658,
        -9.887915,
        4.354063,
        4.7368994,
        -9.056575,
        -8.8483095,
        -2.9659457,
        1.7024031,
        -0.6051817,
        -6.493678,
        -9.684193,
        -0.9154577,
        -7.2593975,
        -4.091732,
        2.094201,
        -7.5673914,
        -8.146474,
        -2.6580853,
        7.715189,
        -3.5389657,
        -1.039216,
        7.1831074,
        5.590829,
        8.144302,
        -9.654932,
        0.89967155,
        -2.6610894,
        -1.1852331,
        7.9632473,
        -6.967971,
        7.769041,
        8.116943,
        4.5097265,
        -2.1915355,
        0.127882,
        -4.03017,
        -5.971696,
        0.72401905,
        7.204319,
        -4.5090146,
        7.503731,
        4.5722065,
        -3.2060976,
        -2.8094358,
        -9.801927,
        2.1037521,
        5.7705708,
        -9.316561,
        2.5652943,
        3.7876787,
        9.486601,
        5.984189,
        9.09091,
        6.403303,
        -7.5341845,
        -8.659759,
        -6.106114,
        -7.917981,
        -3.640637,
        0.024395943,
        -9.764511,
        -4.585163,
        -1.4237757,
        -4.6953077,
        -8.527131,
        2.327098,
        3.5639153,
        4.9339495,
        7.8542995,
        -7.9575253,
        9.564184,
        5.4475584,
        7.1356544,
        9.994013,
        -5.1684685,
        -6.0807056,
        -5.8588214,
        6.2934914,
        -7.9550266,
        4.037629,
        -9.509961,
        0.91093636,
        1.5405979,
        0.3617487,
        7.5170364,
        9.927597,
        -1.2730093,
        -4.7009296,
        7.617775,
        2.0531235,
        9.992317,
        3.532096,
        6.008568,
        -4.6275992,
        -0.8446636,
        -0.020162582,
        -3.0958385,
        -0.8340397,
        7.209095,
        4.069461,
        -6.333699,
        5.387995,
        3.6460772,
        6.070633,
        8.319761,
        -3.4931822,
        3.95368,
        -7.281744,
        4.061824,
        -2.8261013,
        9.119398,
        7.9295826,
        -4.77138,
        9.92248,
        7.6004734,
        -3.5388632,
        4.7433987,
        5.5663195,
        -6.960721,
        -1.3408031,
        -9.475629,
        -0.7675257,
        -1.5341702,
        -6.4649487,
        0.058527946,
        2.3955336,
        1.1757174,
        9.398176,
        -0.8071203,
        -8.089786,
        -0.30730915,
        -0.7810707,
        -8.284299,
        -7.7269125,
        0.2134285,
        3.326954,
        7.5428677,
        4.5626297,
        2.0669308,
        7.844242,
        2.4038372,
        -3.0787368,
        -6.692786,
        2.2039566,
        -1.6865673,
        -2.6488943,
        0.89785004,
        8.057219,
        -3.263001,
        3.1025686,
        4.8144493,
        -6.2362857,
        3.074645,
        9.361759,
        -4.049165,
        0.8307066,
        9.631159,
        -4.351539,
        -4.981658,
        -0.39470577,
        -6.505413,
        -7.8335857,
        8.25433,
        -3.6011047,
        -6.406255,
        8.090162,
        0.4683218,
        5.9033766,
        -2.4563875,
        -3.4169788,
        -4.5029945,
        -8.550973,
        -0.26815128,
        0.48361206,
        -0.7184429,
        9.867735,
        -6.3790846,
        -3.0946226,
        -9.961033,
        1.8412676,
        -2.3947873,
        3.8998947,
        -1.0064068,
        -3.6700673,
        7.891571,
        -0.0011129379,
        -4.414868,
        -0.13310623,
        9.735138,
        6.4122334,
        -3.6644025,
        -2.0079174,
        0.769824,
        -0.03779602,
        5.5118675,
        -8.995008,
        4.417371,
        5.444936,
        5.193164,
        4.3747435,
        1.6965809,
        7.360779,
        7.8555927,
        -6.6409893,
        2.604147,
        -7.653408,
        5.8072605,
        -9.208908,
        8.938065,
        8.370857,
        -3.7042136,
        -2.3825564,
        -7.2351284,
        9.581131,
        5.919613,
        -6.7328424,
        1.4655104,
        -0.7745352,
        -6.262293,
        8.664843,
        -3.418922,
        7.006981,
        3.0737553,
        -9.235827,
        9.699671,
        6.9791317,
        -7.186475,
        -0.016881943,
        6.1225033,
        8.581652,
        2.798277,
        3.5040293,
        -7.661874,
        -4.7845883,
        -1.6265936,
        -7.1140385,
        -7.3797054,
        -3.173427,
        -2.0803561,
        4.0296755,
        -8.528209,
        -9.791732,
        -1.7886057,
        -3.8421602,
        -7.111761,
        -8.64594,
        -6.048164,
        2.5395308,
        2.8676853,
        -6.4425898,
        -1.0031071,
        -9.73186,
        -2.005519,
        3.6296616,
        8.914352,
        4.5141068,
        -6.6090317,
        -6.8599625,
        6.893984,
        0.2795992,
        -4.197933,
        -5.1303144,
        5.116433,
        -3.5166807,
        -8.554206,
        -6.940586,
        -8.701243,
        -2.6088567,
        -9.194138,
        -1.2217541,
        5.099515,
        9.917995,
        -0.8849659,
        7.4032116,
        -6.625862,
        7.9229603,
        -6.0737486,
        -8.387628,
        -4.0792317,
        -9.195809,
        7.1318264,
        -9.92347,
        -7.884202,
        9.984222,
        2.9563627,
        -7.140643,
        -6.151082,
        3.5531816,
        0.3273716,
        -6.8107767,
        -7.9391623,
        -4.320831,
        2.0166817,
        8.308729,
        -6.9959497,
        5.846347,
        -9.264619,
        -9.797222,
        -2.3806849,
        8.333637,
        -6.283188,
        -5.188784,
        -3.9493484,
        -7.9442644,
        5.881299,
        7.5291862,
        0.91437244,
        -1.7092199,
        2.3259125,
        2.446784,
        -0.051282883,
        4.475814,
        -0.5253525,
        -2.8690953,
        -1.5322275,
        1.1943426,
        -0.23043823,
        -1.2468786,
        2.8585567,
        1.6114674,
        -0.2535572,
        -9.481926,
        9.719578,
        1.7305841,
        -7.653885,
        -6.0245247,
        -6.626897,
        0.8144798,
        -8.142035,
        6.4080677,
        7.000532,
        9.093498,
        8.317665,
        -3.800735,
        3.8796415,
        -1.2120314,
        -9.123712,
        -0.35467815,
        9.823429,
        4.431306,
        8.800241,
        -7.841179,
        -3.1106992,
        4.1506443,
        -0.47980022,
        3.4018173,
        2.358531,
        -5.608179,
        5.865945,
        6.2442493,
        -6.531555,
        5.8662167,
        -1.8667784,
        -1.1490984,
        3.9617815,
        -5.8447356,
        1.8305979,
        -4.930279,
        -6.858201,
        0.8428087,
        -6.1265464,
        0.23479843,
        -6.7955065,
        1.75002,
        3.2690134,
        -4.6384473,
        -3.6262126,
        4.632617,
        4.830264,
        -7.069435,
        -0.4468174,
        8.366093,
        -9.918181,
        9.380695,
        -2.1517982,
        9.938259,
        -0.31560326,
        -8.154017,
        5.039956,
        -9.604397,
        -8.75734,
        7.1299686,
        2.8780355,
        -1.9159355,
        6.3975906,
        9.545284,
        -7.325096,
        4.1409645,
        7.907938,
        -2.7658076,
        5.517866,
        -4.0652676,
        -1.2622709,
        5.326518,
        -5.6218905,
        -8.656559,
        5.278014,
        -3.937449,
        9.659304,
        -5.5697126,
        -5.7590456,
        9.547672,
        0.26243305,
        -0.6326761,
        4.72803,
        2.9901752,
        -4.5340843,
        -0.55279446,
        5.9510746,
        2.6232061,
        4.0491447,
        -8.58855,
        6.910181,
        7.2412415,
        7.1933975,
        2.5327597,
        -9.242258,
        9.278177,
        5.8971825,
        6.0493584,
        -9.206116,
        -2.1308532,
        -0.20130062,
        -4.014568,
        4.0734234,
        3.3398619,
        -9.673597,
        5.1870794,
        -6.0911317,
        6.2712803,
        9.050318,
        9.531195,
        5.4872313,
        -3.1285448,
        -5.604133,
        4.618951,
        9.703566,
        -4.195487,
        -2.0910754,
        -8.550212,
        -5.9543557,
        -4.831142,
        -4.577853,
        0.61480427,
        -3.0565996,
        1.2452021,
        2.812868,
        9.249395,
        5.0111837,
        -5.847916,
        7.1055317,
        1.4443359,
        8.83301,
        -0.5734148,
        -2.6131434,
        9.094091,
        3.8279333,
        0.32172108,
        0.6054678,
        -2.8996296,
        -8.938219,
        8.015884,
        6.325983,
        8.0993805,
        -0.5140343,
        3.0694427,
        8.01693,
        -3.4417791,
        -8.762605,
        -9.917169,
        -6.4717264,
        1.9243488,
        8.890268,
        0.37809944,
        3.6905994,
        4.73322,
        8.808416,
        3.651847,
        -9.339983,
        6.8132324,
        -0.84385586,
        -9.452071,
        4.210042,
        -0.36700916,
        4.520239,
        -4.166097,
        -6.624174,
        8.200403,
        -0.47879887,
        -2.2575583,
        -9.5582075,
        -7.799837,
        -1.8181744,
        -2.534575,
        -1.0833874,
        4.6995697,
        4.0908537,
        3.2053242,
        5.9726753,
        4.898778,
        2.1112194,
        -0.22663975,
        -8.003206,
        -7.5740433,
        -5.4691763,
        1.230546,
        6.41963,
        5.925724,
        6.9975414,
        2.4916258,
        -6.891551,
        0.2960291,
        -3.426332,
        1.4997969,
        7.5452003,
        -3.4963293,
        0.8502445,
        -1.4694376,
        -6.0998697,
        -7.0175695,
        3.9540586,
        -4.276616,
        -6.1014767,
        8.962069,
        -6.375203,
        9.859314,
        1.781455,
        -2.5697894,
        6.2819405,
        7.0720215,
        -7.3385305,
        -6.548972,
        4.6459064,
        -1.7262764,
        0.273386,
        -0.13920689,
        0.83623314,
        -5.474269,
        -5.6627603,
        2.0650396,
        3.5172882,
        -4.3625493,
        0.8154354,
        -9.670889,
        -7.13113,
        8.593763,
        4.1920366,
        9.993355,
        8.439564,
        5.5853214,
        2.9832182,
        1.2572441,
        7.939459,
        -4.1288633,
        -4.0427537,
        -2.8256292,
        -0.10182762,
        -6.3836193,
        1.8142948,
        -8.561961,
        6.5692368,
        5.5338993,
        -0.23137474,
        -0.014890671,
        -2.448007,
        3.3170118,
        -8.848226,
        -0.14265251,
        -7.9432697,
        9.506645,
        -3.134951,
        -7.043087,
        0.5277691,
        -6.5036507,
        7.6306763,
        -7.4950027,
        4.5641623,
        7.92556,
        7.6209373,
        -7.9699297,
        -1.3626995,
        7.944813,
        -9.430008,
        3.1187496,
        8.197081,
        2.3973122,
        3.3111963,
        3.1920156,
        -7.675564,
        1.5244904,
        7.9017315,
        9.050306,
        5.8011427,
        -1.6892262,
        9.789803,
        6.2200127,
        4.1121473,
        -5.898101,
        5.5149975,
        -9.350724,
        2.0638094,
        3.4010944,
        0.101080894,
        -7.076702,
        6.407757,
        -3.6502094,
        7.1846256,
        9.881033,
        8.472511,
        -5.3473396,
        -0.796978,
        4.7284975,
        8.398691,
        -9.998762,
        -5.4378242,
        -7.251396,
        6.867853,
        -6.613698,
        1.5263901,
        4.0355005,
        6.338579,
        7.5075397,
        -6.7558355,
        3.318285,
        6.0590134,
        0.35554314,
        -7.6743984,
        2.1567545,
        4.8049746,
        -7.686205,
        9.721323,
        -1.5951242,
        -5.2442117,
        -8.457572,
        4.8666725,
        -0.9039774,
        -6.612501,
        -1.6518297,
        8.33012,
        4.2179165,
        -2.007276,
        1.0333338,
        -4.8503704,
        8.313181,
        -2.618775,
        -9.325709,
        6.94849,
        -5.6768365,
        3.1975994,
        -7.966511,
        -1.639451,
        9.004761,
        7.8212223,
        -1.6633453,
        -0.0023117065,
        5.8844395,
        4.4551477,
        1.8540039,
        6.934519,
        -6.5535975,
        -3.7883945,
        1.4075098,
        4.3141594,
        9.369579,
        3.2262573,
        -2.3902287,
        -0.93270016,
        -7.858183,
        -5.5036755,
        -0.016309738,
        3.0527391,
        -0.34174156,
        0.74077034,
        -1.0497656,
        -3.7105842,
        3.1881466,
        1.4322748,
        1.232749,
        2.5180569,
        7.1468353,
        9.916296,
        2.1714106,
        4.354409,
        -4.112932,
        -9.716317,
        0.8418093,
        -4.4457097,
        1.25105,
        6.6560764,
        3.8138523,
        7.279255,
        -1.732542,
        5.462102,
        -5.805871,
        -0.61460876,
        -7.908745,
        -5.5838175,
        -5.49211,
        5.553381,
        6.0610237,
        -8.074033,
        -7.636196,
        -5.6110067,
        -9.827037,
        -7.9754496,
        1.5471611,
        5.0586834,
        2.5350704,
        7.268364,
        -6.215429,
        6.2126026,
        3.492938,
        -8.627863,
        -1.2267418,
        1.0806427,
        7.2473373,
        -8.790643,
        -3.4538622,
        -3.0179472,
        8.115179,
        -9.091751,
        -0.6317539,
        9.592978,
        0.34319782,
        -8.998138,
        3.3497562,
        -5.13123,
        -3.0571623,
        5.1640787,
        9.784704,
        -3.706612,
        -1.079649,
        -3.399181,
        1.6086092,
        -5.384638,
        -5.7788105,
        -5.255801,
        2.5579395,
        7.550461,
        -0.9058037,
        -9.360439,
        -2.8197427,
        2.3671713,
        3.5458555,
        5.8036346,
        -0.73473644,
        -6.616809,
        -3.149969,
        5.5997887,
        0.04402542,
        -2.6131768,
        2.4233904,
        5.806245,
        -9.680214,
        6.892683,
        3.009447,
        -4.327218,
        9.088779,
        3.1312618,
        -3.932726,
        3.0812988,
        6.8232594,
        0.2764473,
        2.3486557,
        2.9717722,
        7.3155174,
        2.3954906,
        9.6981945,
        -0.23818874,
        -9.508734,
        -1.0330458,
        9.16844,
        -6.553688,
        2.3900213,
        -2.819397,
        -3.0126114,
        3.0602322,
        -8.794327,
        -3.659906,
        2.0906868,
        2.8455124,
        -2.355217,
        -3.3368392,
        -8.6363125,
        -3.9681716,
        2.456623,
        0.6134548,
        1.7547712,
        -9.997999,
        -4.304089,
        7.837286,
        -7.748887,
        9.044289,
        8.951973,
        -1.6227741,
        -6.9837255,
        6.5855618,
        -8.68757,
        -0.73879623,
        3.5546503,
        -7.5219774,
        -6.7791862,
        7.7821255,
        -9.402695,
        -7.685382,
        7.846222,
        3.7370625,
        -1.2933865,
        -8.277545,
        -0.0674696,
        -1.1396093,
        -2.4997153,
        -1.0649414,
        0.34806824,
        -7.9299784,
        4.0188656,
        8.667444,
        -4.544844,
        6.80077,
        -0.8552618,
        9.836601,
        7.278492,
        5.364544,
        -9.490619,
        -2.6341171,
        -9.341545,
        -2.2751894,
        -7.9918003,
        0.4043045,
        8.726282,
        -3.007781,
        -9.405572,
        2.8842983,
        -0.7604065,
        9.888073,
        -3.1543465,
        -0.49178982,
        6.324768,
        -7.8276987,
        -4.5721097,
        4.146515,
        9.892702,
        -0.42845917,
        -1.4364424,
        -4.973604,
        4.972638,
        4.1145124,
        2.2894564,
        -0.84636116,
        8.287006,
        -9.540973,
        9.513851,
        7.8609962,
        -9.450151,
        7.3477554,
        9.3214245,
        -1.9874134,
        -8.434176,
        -2.3591008,
        -7.4467754,
        -4.2536182,
        3.1423435,
        9.885788,
        3.7542143,
        3.505539,
        8.001732,
        -6.649809,
        -4.8408027,
        -2.9138775,
        -4.5654745,
        -3.7650843,
        -3.5533304,
        -6.4306374,
        4.6289577,
        5.131213,
        6.872755,
        3.7431564,
        -8.809382,
        5.888838,
        8.455708,
        -7.6148577,
        2.5035248,
        9.919971,
        4.9304876,
        5.0257463,
        3.580142,
        8.685326,
        4.9266586,
        7.9519463,
        -2.2195663,
        5.8297005,
        4.202737,
        2.0709953,
        -3.8770552,
        3.1766424,
        -4.8941774,
        2.0749607,
        1.8731747,
        -5.766079,
        -6.9836493,
        -5.028028,
        1.0328588,
        -1.2435741,
        -3.894455,
        8.149925,
        -2.9303403,
        -5.9324117,
        -1.0433998,
        -7.402503,
        -0.69362545,
        -1.4688005,
        8.641897,
        5.746171,
        1.7543116,
        -9.979658,
        7.3050995,
        -4.6164937,
        5.8928604,
        -8.544321,
        -2.686593,
        -4.447264,
        6.1157,
        -9.193068,
        1.3765564,
        -7.824499,
        8.644526,
        -2.2479715,
        3.927783,
        7.204565,
        4.4700584,
        -9.79295,
        1.2611256,
        8.218056,
        8.30583,
        0.28632736,
        5.3332367,
        -6.0302825,
        -8.19493,
        -9.133837,
        -2.7120538,
        -9.566557,
        -6.8536253,
        -7.7770014,
        0.21613693,
        9.317574,
        -2.0328178,
        -3.0128427
      ]
    },
    {
      "index": 1,
      "output": 1.0,
      "input_connections": [
        [
          0,
          0.0
        ],
        [
          2,
          0.0
        ],
        [
          3,
          -5.5137177
        ],
        [
          4,
          0.0
        ],
        [
          5,
          -8.590009
        ],
        [
          6,
          0.0
        ],
        [
          7,
          0.0
        ]
      ],
      "bias": 0.022465322,
      "self_activation": 0.030544464,
      "retina_weights": [
        -9.929263,
        0.90933704,
        -5.394294,
        5.2325315,
        6.031418,
        6.668545,
        2.5624886,
        -9.557545,
        4.26005,
        0.75922394,
        -5.9093018,
        -9.565589,
        3.441802,
        -4.305846,
        3.6047783,
        4.368128,
        1.4632044,
        -4.869694,
        -1.2681665,
        3.625699,
        0.3743782,
        -8.200502,
        9.856144,
        3.1394444,
        -0.6303539,
        -1.491684,
        -6.079685,
        6.8416786,
        7.193434,
        8.784119,
        1.4449558,
        7.8978405,
        -3.9092202,
        7.2914524,
        3.0375347,
        -6.8843555,
        9.474489,
        2.1920166,
        3.478097,
        -7.469158,
        0.9914074,
        -7.3893948,
        2.3677502,
        3.1741009,
        -1.2123508,
        -1.6983385,
        -7.9083986,
        8.7687435,
        0.12908554,
        0.75285816,
        -1.6518488,
        4.260234,
        0.37165546,
        8.9137745,
        -0.14450264,
        -7.3390675,
        -8.725157,
        -2.881114,
        8.926765,
        -1.0273733,
        6.689455,
        3.8230982,
        -0.9687443,
        1.8189917,
        -5.717606,
        -8.443429,
        -6.7952175,
        2.4842987,
        -9.760134,
        -8.958308,
        -0.8866615,
        7.712652,
        -3.5792227,
        1.970171,
        -3.0328007,
        4.339799,
        -8.504164,
        -0.10622883,
        1.0880051,
        -7.874384,
        -3.4372659,
        4.3240347,
        4.189502,
        0.559083,
        -3.330893,
        -8.320972,
        3.9959564,
        7.4347553,
        -4.897327,
        6.223282,
        1.3003502,
        2.415761,
        1.5058889,
        -7.551074,
        -3.9943595,
        -3.0516024,
        -9.500875,
        5.2753487,
        4.6608076,
        6.5402756,
        8.949436,
        4.84223,
        3.5715303,
        1.8365469,
        1.9250717,
        -3.0343552,
        -7.070732,
        3.3896103,
        0.8121958,
        8.742153,
        3.2853613,
        4.8304405,
        5.7169456,
        -8.564873,
        -7.2974606,
        -7.987377,
        -0.57584953,
        3.0473337,
        7.74107,
        -6.2788725,
        -6.5210648,
        7.4095306,
        -4.2479153,
        -6.3829565,
        -1.3050051,
        5.2620687,
        3.2775412,
        6.688528,
        -8.506031,
        -6.197166,
        -4.5093317,
        -6.863103,
        2.6488247,
        7.4068413,
        8.77762,
        8.552458,
        0.3276434,
        -5.851826,
        8.449141,
        7.4579105,
        9.081694,
        8.804512,
        -7.9487658,
        -9.887915,
        4.354063,
        4.7368994,
        -9.056575,
        -8.8483095,
        -2.9659457,
        1.7024031,
        -0.6051817,
        -6.493678,
        -9.684193,
        -0.9154577,
        -7.2593975,
        -4.091732,
        2.094201,
        -7.5673914,
        -8.146474,
        -2.6580853,
        7.715189,
        -3.5389657,
        -1.039216,
        7.1831074,
        5.590829,
        8.144302,
        -9.654932,
        0.89967155,
        -2.6610894,
        -1.1852331,
        7.9632473,
        -6.967971,
        7.769041,
        8.116943,
        4.5097265,
        -2.1915355,
        0.127882,
        -4.03017,
        -5.971696,
        0.72401905,
        7.204319,
        -4.5090146,
        7.503731,
        4.5722065,
        -3.2060976,
        -2.8094358,
        -9.801927,
        2.1037521,
        5.7705708,
        -9.316561,
        2.5652943,
        3.7876787,
        9.486601,
        5.984189,
        9.09091,
        6.403303,
        -7.5341845,
        -8.659759,
        -6.106114,
        -7.917981,
        -3.640637,
        0.024395943,
        -9.764511,
        -4.585163,
        -1.4237757,
        -4.6953077,
        -8.527131,
        2.327098,
        3.5639153,
        4.9339495,
        7.8542995,
        -7.9575253,
        9.564184,
        5.4475584,
        7.1356544,
        9.994013,
        -5.1684685,
        -6.0807056,
        -5.8588214,
        6.2934914,
        -7.9550266,
        4.037629,
        -9.509961,
        0.91093636,
        1.5405979,
        0.3617487,
        7.5170364,
        9.927597,
        -1.2730093,
        -4.7009296,
        7.617775,
        2.0531235,
        9.992317,
        3.532096,
        6.008568,
        -4.6275992,
        -0.8446636,
        -0.020162582,
        -3.0958385,
        -0.8340397,
        7.209095,
        4.069461,
        -6.333699,
        5.387995,
        3.6460772,
        6.070633,
        8.319761,
        -3.4931822,
        3.95368,
        -7.281744,
        4.061824,
        -2.8261013,
        9.119398,
        7.9295826,
        -4.77138,
        9.92248,
        7.6004734,
        -3.5388632,
        4.7433987,
        5.5663195,
        -6.960721,
        -1.3408031,
        -9.475629,
        -0.7675257,
        -1.5341702,
        -6.4649487,
        0.058527946,
        2.3955336,
        1.1757174,
        9.398176,
        -0.8071203,
        -8.089786,
        -0.30730915,
        -0.7810707,
        -8.284299,
        -7.7269125,
        0.2134285,
        3.326954,
        7.5428677,
        4.5626297,
        2.0669308,
        7.844242,
        2.4038372,
        -3.0787368,
        -6.692786,
        2.2039566,
        -1.6865673,
        -2.6488943,
        0.89785004,
        8.057219,
        -3.263001,
        3.1025686,
        4.8144493,
        -6.2362857,
        3.074645,
        9.361759,
        -4.049165,
        0.8307066,
        9.631159,
        -4.351539,
        -4.981658,
        -0.39470577,
        -6.505413,
        -7.8335857,
        8.25433,
        -3.6011047,
        -6.406255,
        8.090162,
        0.4683218,
        5.9033766,
        -2.4563875,
        -3.4169788,
        -4.5029945,
        -8.550973,
        -0.26815128,
        0.48361206,
        -0.7184429,
        9.867735,
        -6.3790846,
        -3.0946226,
        -9.961033,
        1.8412676,
        -2.3947873,
        3.8998947,
        -1.0064068,
        -3.6700673,
        7.891571,
        -0.0011129379,
        -4.414868,
        -0.13310623,
        9.735138,
        6.4122334,
        -3.6644025,
        -2.0079174,
        0.769824,
        -0.03779602,
        5.5118675,
        -8.995008,
        4.417371,
        5.444936,
        5.193164,
        4.3747435,
        1.6965809,
        7.360779,
        7.8555927,
        -6.6409893,
        2.604147,
        -7.653408,
        5.8072605,
        -9.208908,
        8.938065,
        8.370857,
        -3.7042136,
        -2.3825564,
        -7.2351284,
        9.581131,
        5.919613,
        -6.7328424,
        1.4655104,
        -0.7745352,
        -6.262293,
        8.664843,
        -3.418922,
        7.006981,
        3.0737553,
        -9.235827,
        9.699671,
        6.9791317,
        -7.186475,
        -0.016881943,
        6.1225033,
        8.581652,
        2.798277,
        3.5040293,
        -7.661874,
        -4.7845883,
        -1.6265936,
        -7.1140385,
        -7.3797054,
        -3.173427,
        -2.0803561,
        4.0296755,
        -8.528209,
        -9.791732,
        -1.7886057,
        -3.8421602,
        -7.111761,
        -8.64594,
        -6.048164,
        2.5395308,
        2.8676853,
        -6.4425898,
        -1.0031071,
        -9.73186,
        -2.005519,
        3.6296616,
        8.914352,
        4.5141068,
        -6.6090317,
        -6.8599625,
        6.893984,
        0.2795992,
        -4.197933,
        -5.1303144,
        5.116433,
        -3.5166807,
        -8.554206,
        -6.940586,
        -8.701243,
        -2.6088567,
        -9.194138,
        -1.2217541,
        5.099515,
        9.917995,
        -0.8849659,
        7.4032116,
        -6.625862,
        7.9229603,
        -6.0737486,
        -8.387628,
        -4.0792317,
        -9.195809,
        7.1318264,
        -9.92347,
        -7.884202,
        9.984222,
        2.9563627,
        -7.140643,
        -6.151082,
        3.5531816,
        0.3273716,
        -6.8107767,
        -7.9391623,
        -4.320831,
        2.0166817,
        8.308729,
        -6.9959497,
        5.846347,
        -9.264619,
        -9.797222,
        -2.3806849,
        8.333637,
        -6.283188,
        -5.188784,
        -3.9493484,
        -7.9442644,
        5.881299,
        7.5291862,
        0.91437244,
        -1.7092199,
        2.3259125,
        2.446784,
        -0.051282883,
        4.475814,
        -0.5253525,
        -2.8690953,
        -1.5322275,
        1.1943426,
        -0.23043823,
        -1.2468786,
        2.8585567,
        1.6114674,
        -0.2535572,
        -9.481926,
        9.719578,
        1.7305841,
        -7.653885,
        -6.0245247,
        -6.626897,
        0.8144798,
        -8.142035,
        6.4080677,
        7.000532,
        9.093498,
        8.317665,
        -3.800735,
        3.8796415,
        -1.2120314,
        -9.123712,
        -0.35467815,
        9.823429,
        4.431306,
        8.800241,
        -7.841179,
        -3.1106992,
        4.1506443,
        -0.47980022,
        3.4018173,
        2.358531,
        -5.608179,
        5.865945,
        6.2442493,
        -6.531555,
        5.8662167,
        -1.8667784,
        -1.1490984,
        3.9617815,
        -5.8447356,
        1.8305979,
        -4.930279,
        -6.858201,
        0.8428087,
        -6.1265464,
        0.23479843,
        -6.7955065,
        1.75002,
        3.2690134,
        -4.6384473,
        -3.6262126,
        4.632617,
        4.830264,
        -7.069435,
        -0.4468174,
        8.366093,
        -9.918181,
        9.380695,
        -2.1517982,
        9.938259,
        -0.31560326,
        -8.154017,
        5.039956,
        -9.604397,
        -8.75734,
        7.1299686,
        2.8780355,
        -1.9159355,
        6.3975906,
        9.545284,
        -7.325096,
        4.1409645,
        7.907938,
        -2.7658076,
        5.517866,
        -4.0652676,
        -1.2622709,
        5.326518,
        -5.6218905,
        -8.656559,
        5.278014,
        -3.937449,
        9.659304,
        -5.5697126,
        -5.7590456,
        9.547672,
        0.26243305,
        -0.6326761,
        4.72803,
        2.9901752,
        -4.5340843,
        -0.55279446,
        5.9510746,
        2.6232061,
        4.0491447,
        -8.58855,
        6.910181,
        7.2412415,
        7.1933975,
        2.5327597,
        -9.242258,
        9.278177,
        5.8971825,
        6.0493584,
        -9.206116,
        -2.1308532,
        -0.20130062,
        -4.014568,
        4.0734234,
        3.3398619,
        -9.673597,
        5.1870794,
        -6.0911317,
        6.2712803,
        9.050318,
        9.531195,
        5.4872313,
        -3.1285448,
        -5.604133,
        4.618951,
        9.703566,
        -4.195487,
        -2.0910754,
        -8.550212,
        -5.9543557,
        -4.831142,
        -4.577853,
        0.61480427,
        -3.0565996,
        1.2452021,
        2.812868,
        9.249395,
        5.0111837,
        -5.847916,
        7.1055317,
        1.4443359,
        8.83301,
        -0.5734148,
        -2.6131434,
        9.094091,
        3.8279333,
        0.32172108,
        0.6054678,
        -2.8996296,
        -8.938219,
        8.015884,
        6.325983,
        8.0993805,
        -0.5140343,
        3.0694427,
        8.01693,
        -3.4417791,
        -8.762605,
        -9.917169,
        -6.4717264,
        1.9243488,
        8.890268,
        0.37809944,
        3.6905994,
        4.73322,
        8.808416,
        3.651847,
        -9.339983,
        6.8132324,
        -0.84385586,
        -9.452071,
        4.210042,
        -0.36700916,
        4.520239,
        -4.166097,
        -6.624174,
        8.200403,
        -0.47879887,
        -2.2575583,
        -9.5582075,
        -7.799837,
        -1.8181744,
        -2.534575,
        -1.0833874,
        4.6995697,
        4.0908537,
        3.2053242,
        5.9726753,
        4.898778,
        2.1112194,
        -0.22663975,
        -8.003206,
        -7.5740433,
        -5.4691763,
        1.230546,
        6.41963,
        5.925724,
        6.9975414,
        2.4916258,
        -6.891551,
        0.2960291,
        -3.426332,
        1.4997969,
        7.5452003,
        -3.4963293,
        0.8502445,
        -1.4694376,
        -6.0998697,
        -7.0175695,
        3.9540586,
        -4.276616,
        -6.1014767,
        8.962069,
        -6.375203,
        9.859314,
        1.781455,
        -2.5697894,
        6.2819405,
        7.0720215,
        -7.3385305,
        -6.548972,
        4.6459064,
        -1.7262764,
        0.273386,
        -0.13920689,
        0.83623314,
        -5.474269,
        -5.6627603,
        2.0650396,
        3.5172882,
        -4.3625493,
        0.8154354,
        -9.670889,
        -7.13113,
        8.593763,
        4.1920366,
        9.993355,
        8.439564,
        5.5853214,
        2.9832182,
        1.2572441,
        7.939459,
        -4.1288633,
        -4.0427537,
        -2.8256292,
        -0.10182762,
        -6.3836193,
        1.8142948,
        -8.561961,
        6.5692368,
        5.5338993,
        -0.23137474,
        -0.014890671,
        -2.448007,
        3.3170118,
        -8.848226,
        -0.14265251,
        -7.9432697,
        9.506645,
        -3.134951,
        -7.043087,
        0.5277691,
        -6.5036507,
        7.6306763,
        -7.4950027,
        4.5641623,
        7.92556,
        7.6209373,
        -7.9699297,
        -1.3626995,
        7.944813,
        -9.430008,
        3.1187496,
        8.197081,
        2.3973122,
        3.3111963,
        3.1920156,
        -7.675564,
        1.5244904,
        7.9017315,
        9.050306,
        5.8011427,
        -1.6892262,
        9.789803,
        6.2200127,
        4.1121473,
        -5.898101,
        5.5149975,
        -9.350724,
        2.0638094,
        3.4010944,
        0.101080894,
        -7.076702,
        6.407757,
        -3.6502094,
        7.1846256,
        9.881033,
        8.472511,
        -5.3473396,
        -0.796978,
        4.7284975,
        8.398691,
        -9.998762,
        -5.4378242,
        -7.251396,
        6.867853,
        -6.613698,
        1.5263901,
        4.0355005,
        6.338579,
        7.5075397,
        -6.7558355,
        3.318285,
        6.0590134,
        0.35554314,
        -7.6743984,
        2.1567545,
        4.8049746,
        -7.686205,
        9.721323,
        -1.5951242,
        -5.2442117,
        -8.457572,
        4.8666725,
        -0.9039774,
        -6.612501,
        -1.6518297,
        8.33012,
        4.2179165,
        -2.007276,
        1.0333338,
        -4.8503704,
        8.313181,
        -2.618775,
        -9.325709,
        6.94849,
        -5.6768365,
        3.1975994,
        -7.966511,
        -1.639451,
        9.004761,
        7.8212223,
        -1.6633453,
        -0.0023117065,
        5.8844395,
        4.4551477,
        1.8540039,
        6.934519,
        -6.5535975,
        -3.7883945,
        1.4075098,
        4.3141594,
        9.369579,
        3.2262573,
        -2.3902287,
        -0.93270016,
        -7.858183,
        -5.5036755,
        -0.016309738,
        3.0527391,
        -0.34174156,
        0.74077034,
        -1.0497656,
        -3.7105842,
        3.1881466,
        1.4322748,
        1.232749,
        2.5180569,
        7.1468353,
        9.916296,
        2.1714106,
        4.354409,
        -4.112932,
        -9.716317,
        0.8418093,
        -4.4457097,
        1.25105,
        6.6560764,
        3.8138523,
        7.279255,
        -1.732542,
        5.462102,
        -5.805871,
        -0.61460876,
        -7.908745,
        -5.5838175,
        -5.49211,
        5.553381,
        6.0610237,
        -8.074033,
        -7.636196,
        -5.6110067,
        -9.827037,
        -7.9754496,
        1.5471611,
        5.0586834,
        2.5350704,
        7.268364,
        -6.215429,
        6.2126026,
        3.492938,
        -8.627863,
        -1.2267418,
        1.0806427,
        7.2473373,
        -8.790643,
        -3.4538622,
        -3.0179472,
        8.115179,
        -9.091751,
        -0.6317539,
        9.592978,
        0.34319782,
        -8.998138,
        3.3497562,
        -5.13123,
        -3.0571623,
        5.1640787,
        9.784704,
        -3.706612,
        -1.079649,
        -3.399181,
        1.6086092,
        -5.384638,
        -5.7788105,
        -5.255801,
        2.5579395,
        7.550461,
        -0.9058037,
        -9.360439,
        -2.8197427,
        2.3671713,
        3.5458555,
        5.8036346,
        -0.73473644,
        -6.616809,
        -3.149969,
        5.5997887,
        0.04402542,
        -2.6131768,
        2.4233904,
        5.806245,
        -9.680214,
        6.892683,
        3.009447,
        -4.327218,
        9.088779,
        3.1312618,
        -3.932726,
        3.0812988,
        6.8232594,
        0.2764473,
        2.3486557,
        2.9717722,
        7.3155174,
        2.3954906,
        9.6981945,
        -0.23818874,
        -9.508734,
        -1.0330458,
        9.16844,
        -6.553688,
        2.3900213,
        -2.819397,
        -3.0126114,
        3.0602322,
        -8.794327,
        -3.659906,
        2.0906868,
        2.8455124,
        -2.355217,
        -3.3368392,
        -8.6363125,
        -3.9681716,
        2.456623,
        0.6134548,
        1.7547712,
        -9.997999,
        -4.304089,
        7.837286,
        -7.748887,
        9.044289,
        8.951973,
        -1.6227741,
        -6.9837255,
        6.5855618,
        -8.68757,
        -0.73879623,
        3.5546503,
        -7.5219774,
        -6.7791862,
        7.7821255,
        -9.402695,
        -7.685382,
        7.846222,
        3.7370625,
        -1.2933865,
        -8.277545,
        -0.0674696,
        -1.1396093,
        -2.4997153,
        -1.0649414,
        0.34806824,
        -7.9299784,
        4.0188656,
        8.667444,
        -4.544844,
        6.80077,
        -0.8552618,
        9.836601,
        7.278492,
        5.364544,
        -9.490619,
        -2.6341171,
        -9.341545,
        -2.2751894,
        -7.9918003,
        0.4043045,
        8.726282,
        -3.007781,
        -9.405572,
        2.8842983,
        -0.7604065,
        9.888073,
        -3.1543465,
        -0.49178982,
        6.324768,
        -7.8276987,
        -4.5721097,
        4.146515,
        9.892702,
        -0.42845917,
        -1.4364424,
        -4.973604,
        4.972638,
        4.1145124,
        2.2894564,
        -0.84636116,
        8.287006,
        -9.540973,
        9.513851,
        7.8609962,
        -9.450151,
        7.3477554,
        9.3214245,
        -1.9874134,
        -8.434176,
        -2.3591008,
        -7.4467754,
        -4.2536182,
        3.1423435,
        9.885788,
        3.7542143,
        3.505539,
        8.001732,
        -6.649809,
        -4.8408027,
        -2.9138775,
        -4.5654745,
        -3.7650843,
        -3.5533304,
        -6.4306374,
        4.6289577,
        5.131213,
        6.872755,
        3.7431564,
        -8.809382,
        5.888838,
        8.455708,
        -7.6148577,
        2.5035248,
        9.919971,
        4.9304876,
        5.0257463,
        3.580142,
        8.685326,
        4.9266586,
        7.9519463,
        -2.2195663,
        5.8297005,
        4.202737,
        2.0709953,
        -3.8770552,
        3.1766424,
        -4.8941774,
        2.0749607,
        1.8731747,
        -5.766079,
        -6.9836493,
        -5.028028,
        1.0328588,
        -1.2435741,
        -3.894455,
        8.149925,
        -2.9303403,
        -5.9324117,
        -1.0433998,
        -7.402503,
        -0.69362545,
        -1.4688005,
        8.641897,
        5.746171,
        1.7543116,
        -9.979658,
        7.3050995,
        -4.6164937,
        5.8928604,
        -8.544321,
        -2.686593,
        -4.447264,
        6.1157,
        -9.193068,
        1.3765564,
        -7.824499,
        8.644526,
        -2.2479715,
        3.927783,
        7.204565,
        4.4700584,
        -9.79295,
        1.2611256,
        8.218056,
        8.30583,
        0.28632736,
        5.3332367,
        -6.0302825,
        -8.19493,
        -9.133837,
        -2.7120538,
        -9.566557,
        -6.8536253,
        -7.7770014,
        0.21613693,
        9.317574,
        -2.0328178,
        -3.0128427
      ]
    },
    {
      "index": 2,
      "output": 1.0,
      "input_connections": [
        [
          0,
          0.0
        ],
        [
          1,
          -8.959782
        ],
        [
          3,
          0.0
        ],
        [
          4,
          -3.669209
        ],
        [
          5,
          0.1893536
        ],
        [
          6,
          0.0
        ],
        [
          7,
          0.0
        ]
      ],
      "bias": 0.0,
      "self_activation": -0.23720342,
      "retina_weights": [
        -9.929263,
        0.90933704,
        -5.394294,
        5.2325315,
        6.031418,
        6.668545,
        2.5624886,
        -9.557545,
        4.26005,
        0.75922394,
        -5.9093018,
        -9.565589,
        3.441802,
        -4.305846,
        3.6047783,
        4.368128,
        1.4632044,
        -4.869694,
        -1.2681665,
        3.625699,
        0.3743782,
        -8.200502,
        9.856144,
        3.1394444,
        -0.6303539,
        -1.491684,
        -6.079685,
        6.8416786,
        7.193434,
        8.784119,
        1.4449558,
        7.8978405,
        -3.9092202,
        7.2914524,
        3.0375347,
        -6.8843555,
        9.474489,
        2.1920166,
        3.478097,
        -7.469158,
        0.9914074,
        -7.3893948,
        2.3677502,
        3.1741009,
        -1.2123508,
        -1.6983385,
        -7.9083986,
        8.7687435,
        0.12908554,
        0.75285816,
        -1.6518488,
        4.260234,
        0.37165546,
        8.9137745,
        -0.14450264,
        -7.3390675,
        -8.725157,
        -2.881114,
        8.926765,
        -1.0273733,
        6.689455,
        3.8230982,
        -0.9687443,
        1.8189917,
        -5.717606,
        -8.443429,
        -6.7952175,
        2.4842987,
        -9.760134,
        -8.958308,
        -0.8866615,
        7.712652,
        -3.5792227,
        1.970171,
        -3.0328007,
        4.339799,
        -8.504164,
        -0.10622883,
        1.0880051,
        -7.874384,
        -3.4372659,
        4.3240347,
        4.189502,
        0.559083,
        -3.330893,
        -8.320972,
        3.9959564,
        7.4347553,
        -4.897327,
        6.223282,
        1.3003502,
        2.415761,
        1.5058889,
        -7.551074,
        -3.9943595,
        -3.0516024,
        -9.500875,
        5.2753487,
        4.6608076,
        6.5402756,
        8.949436,
        4.84223,
        3.5715303,
        1.8365469,
        1.9250717,
        -3.0343552,
        -7.070732,
        3.3896103,
        0.8121958,
        8.742153,
        3.2853613,
        4.8304405,
        5.7169456,
        -8.564873,
        -7.2974606,
        -7.987377,
        -0.57584953,
        3.0473337,
        7.74107,
        -6.2788725,
        -6.5210648,
        7.4095306,
        -4.2479153,
        -6.3829565,
        -1.3050051,
        5.2620687,
        3.2775412,
        6.688528,
        -8.506031,
        -6.197166,
        -4.5093317,
        -6.863103,
        2.6488247,
        7.4068413,
        8.77762,
        8.552458,
        0.3276434,
        -5.851826,
        8.449141,
        7.4579105,
        9.081694,
        8.804512,
        -7.9487658,
        -9.887915,
        4.354063,
        4.7368994,
        -9.056575,
        -8.8483095,
        -2.9659457,
        1.7024031,
        -0.6051817,
        -6.493678,
        -9.684193,
        -0.9154577,
        -7.2593975,
        -4.091732,
        2.094201,
        -7.5673914,
        -8.146474,
        -2.6580853,
        7.715189,
        -3.5389657,
        -1.039216,
        7.1831074,
        5.590829,
        8.144302,
        -9.654932,
        0.89967155,
        -2.6610894,
        -1.1852331,
        7.9632473,
        -6.967971,
        7.769041,
        8.116943,
        4.5097265,
        -2.1915355,
        0.127882,
        -4.03017,
        -5.971696,
        0.72401905,
        7.204319,
        -4.5090146,
        7.503731,
        4.5722065,
        -3.2060976,
        -2.8094358,
        -9.801927,
        2.1037521,
        5.7705708,
        -9.316561,
        2.5652943,
        3.7876787,
        9.486601,
        5.984189,
        9.09091,
        6.403303,
        -7.5341845,
        -8.659759,
        -6.106114,
        -7.917981,
        -3.640637,
        0.024395943,
        -9.764511,
        -4.585163,
        -1.4237757,
        -4.6953077,
        -8.527131,
        2.327098,
        3.5639153,
        4.9339495,
        7.8542995,
        -7.9575253,
        9.564184,
        5.4475584,
        7.1356544,
        9.994013,
        -5.1684685,
        -6.0807056,
        -5.8588214,
        6.2934914,
        -7.9550266,
        4.037629,
        -9.509961,
        0.91093636,
        1.5405979,
        0.3617487,
        7.5170364,
        9.927597,
        -1.2730093,
        -4.7009296,
        7.617775,
        2.0531235,
        9.992317,
        3.532096,
        6.008568,
        -4.6275992,
        -0.8446636,
        -0.020162582,
        -3.0958385,
        -0.8340397,
        7.209095,
        4.069461,
        -6.333699,
        5.387995,
        3.6460772,
        6.070633,
        8.319761,
        -3.4931822,
        3.95368,
        -7.281744,
        4.061824,
        -2.8261013,
        9.119398,
        7.9295826,
        -4.77138,
        9.92248,
        7.6004734,
        -3.5388632,
        4.7433987,
        5.5663195,
        -6.960721,
        -1.3408031,
        -9.475629,
        -0.7675257,
        -1.5341702,
        -6.4649487,
        0.058527946,
        2.3955336,
        1.1757174,
        9.398176,
        -0.8071203,
        -8.089786,
        -0.30730915,
        -0.7810707,
        -8.284299,
        -7.7269125,
        0.2134285,
        3.326954,
        7.5428677,
        4.5626297,
        2.0669308,
        7.844242,
        2.4038372,
        -3.0787368,
        -6.692786,
        2.2039566,
        -1.6865673,
        -2.6488943,
        0.89785004,
        8.057219,
        -3.263001,
        3.1025686,
        4.8144493,
        -6.2362857,
        3.074645,
        9.361759,
        -4.049165,
        0.8307066,
        9.631159,
        -4.351539,
        -4.981658,
        -0.39470577,
        -6.505413,
        -7.8335857,
        8.25433,
        -3.6011047,
        -6.406255,
        8.090162,
        0.4683218,
        5.9033766,
        -2.4563875,
        -3.4169788,
        -4.5029945,
        -8.550973,
        -0.26815128,
        0.48361206,
        -0.7184429,
        9.867735,
        -6.3790846,
        -3.0946226,
        -9.961033,
        1.8412676,
        -2.3947873,
        3.8998947,
        -1.0064068,
        -3.6700673,
        7.891571,
        -0.0011129379,
        -4.414868,
        -0.13310623,
        9.735138,
        6.4122334,
        -3.6644025,
        -2.0079174,
        0.769824,
        -0.03779602,
        5.5118675,
        -8.995008,
        4.417371,
        5.444936,
        5.193164,
        4.3747435,
        1.6965809,
        7.360779,
        7.8555927,
        -6.6409893,
        2.604147,
        -7.653408,
        5.8072605,
        -9.208908,
        8.938065,
        8.370857,
        -3.7042136,
        -2.3825564,
        -7.2351284,
        9.581131,
        5.919613,
        -6.7328424,
        1.4655104,
        -0.7745352,
        -6.262293,
        8.664843,
        -3.418922,
        7.006981,
        3.0737553,
        -9.235827,
        9.699671,
        6.9791317,
        -7.186475,
        -0.016881943,
        6.1225033,
        8.581652,
        2.798277,
        3.5040293,
        -7.661874,
        -4.7845883,
        -1.6265936,
        -7.1140385,
        -7.3797054,
        -3.173427,
        -2.0803561,
        4.0296755,
        -8.528209,
        -9.791732,
        -1.7886057,
        -3.8421602,
        -7.111761,
        -8.64594,
        -6.048164,
        2.5395308,
        2.8676853,
        -6.4425898,
        -1.0031071,
        -9.73186,
        -2.005519,
        3.6296616,
        8.914352,
        4.5141068,
        -6.6090317,
        -6.8599625,
        6.893984,
        0.2795992,
        -4.197933,
        -5.1303144,
        5.116433,
        -3.5166807,
        -8.554206,
        -6.940586,
        -8.701243,
        -2.6088567,
        -9.194138,
        -1.2217541,
        5.099515,
        9.917995,
        -0.8849659,
        7.4032116,
        -6.625862,
        7.9229603,
        -6.0737486,
        -8.387628,
        -4.0792317,
        -9.195809,
        7.1318264,
        -9.92347,
        -7.884202,
        9.984222,
        2.9563627,
        -7.140643,
        -6.151082,
        3.5531816,
        0.3273716,
        -6.8107767,
        -7.9391623,
        -4.320831,
        2.0166817,
        8.308729,
        -6.9959497,
        5.846347,
        -9.264619,
        -9.797222,
        -2.3806849,
        8.333637,
        -6.283188,
        -5.188784,
        -3.9493484,
        -7.9442644,
        5.881299,
        7.5291862,
        0.91437244,
        -1.7092199,
        2.3259125,
        2.446784,
        -0.051282883,
        4.475814,
        -0.5253525,
        -2.8690953,
        -1.5322275,
        1.1943426,
        -0.23043823,
        -1.2468786,
        2.8585567,
        1.6114674,
        -0.2535572,
        -9.481926,
        9.719578,
        1.7305841,
        -7.653885,
        -6.0245247,
        -6.626897,
        0.8144798,
        -8.142035,
        6.4080677,
        7.000532,
        9.093498,
        8.317665,
        -3.800735,
        3.8796415,
        -1.2120314,
        -9.123712,
        -0.35467815,
        9.823429,
        4.431306,
        8.800241,
        -7.841179,
        -3.1106992,
        4.1506443,
        -0.47980022,
        3.4018173,
        2.358531,
        -5.608179,
        5.865945,
        6.2442493,
        -6.531555,
        5.8662167,
        -1.8667784,
        -1.1490984,
        3.9617815,
        -5.8447356,
        1.8305979,
        -4.930279,
        -6.858201,
        0.8428087,
        -6.1265464,
        0.23479843,
        -6.7955065,
        1.75002,
        3.2690134,
        -4.6384473,
        -3.6262126,
        4.632617,
        4.830264,
        -7.069435,
        -0.4468174,
        8.366093,
        -9.918181,
        9.380695,
        -2.1517982,
        9.938259,
        -0.31560326,
        -8.154017,
        5.039956,
        -9.604397,
        -8.75734,
        7.1299686,
        2.8780355,
        -1.9159355,
        6.3975906,
        9.545284,
        -7.325096,
        4.1409645,
        7.907938,
        -2.7658076,
        5.517866,
        -4.0652676,
        -1.2622709,
        5.326518,
        -5.6218905,
        -8.656559,
        5.278014,
        -3.937449,
        9.659304,
        -5.5697126,
        -5.7590456,
        9.547672,
        0.26243305,
        -0.6326761,
        4.72803,
        2.9901752,
        -4.5340843,
        -0.55279446,
        5.9510746,
        2.6232061,
        4.0491447,
        -8.58855,
        6.910181,
        7.2412415,
        7.1933975,
        2.5327597,
        -9.242258,
        9.278177,
        5.8971825,
        6.0493584,
        -9.206116,
        -2.1308532,
        -0.20130062,
        -4.014568,
        4.0734234,
        3.3398619,
        -9.673597,
        5.1870794,
        -6.0911317,
        6.2712803,
        9.050318,
        9.531195,
        5.4872313,
        -3.1285448,
        -5.604133,
        4.618951,
        9.703566,
        -4.195487,
        -2.0910754,
        -8.550212,
        -5.9543557,
        -4.831142,
        -4.577853,
        0.61480427,
        -3.0565996,
        1.2452021,
        2.812868,
        9.249395,
        5.0111837,
        -5.847916,
        7.1055317,
        1.4443359,
        8.83301,
        -0.5734148,
        -2.6131434,
        9.094091,
        3.8279333,
        0.32172108,
        0.6054678,
        -2.8996296,
        -8.938219,
        8.015884,
        6.325983,
        8.0993805,
        -0.5140343,
        3.0694427,
        8.01693,
        -3.4417791,
        -8.762605,
        -9.917169,
        -6.4717264,
        1.9243488,
        8.890268,
        0.37809944,
        3.6905994,
        4.73322,
        8.808416,
        3.651847,
        -9.339983,
        6.8132324,
        -0.84385586,
        -9.452071,
        4.210042,
        -0.36700916,
        4.520239,
        -4.166097,
        -6.624174,
        8.200403,
        -0.47879887,
        -2.2575583,
        -9.5582075,
        -7.799837,
        -1.8181744,
        -2.534575,
        -1.0833874,
        4.6995697,
        4.0908537,
        3.2053242,
        5.9726753,
        4.898778,
        2.1112194,
        -0.22663975,
        -8.003206,
        -7.5740433,
        -5.4691763,
        1.230546,
        6.41963,
        5.925724,
        6.9975414,
        2.4916258,
        -6.891551,
        0.2960291,
        -3.426332,
        1.4997969,
        7.5452003,
        -3.4963293,
        0.8502445,
        -1.4694376,
        -6.0998697,
        -7.0175695,
        3.9540586,
        -4.276616,
        -6.1014767,
        8.962069,
        -6.375203,
        9.859314,
        1.781455,
        -2.5697894,
        6.2819405,
        7.0720215,
        -7.3385305,
        -6.548972,
        4.6459064,
        -1.7262764,
        0.273386,
        -0.13920689,
        0.83623314,
        -5.474269,
        -5.6627603,
        2.0650396,
        3.5172882,
        -4.3625493,
        0.8154354,
        -9.670889,
        -7.13113,
        8.593763,
        4.1920366,
        9.993355,
        8.439564,
        5.5853214,
        2.9832182,
        1.2572441,
        7.939459,
        -4.1288633,
        -4.0427537,
        -2.8256292,
        -0.10182762,
        -6.3836193,
        1.8142948,
        -8.561961,
        6.5692368,
        5.5338993,
        -0.23137474,
        -0.014890671,
        -2.448007,
        3.3170118,
        -8.848226,
        -0.14265251,
        -7.9432697,
        9.506645,
        -3.134951,
        -7.043087,
        0.5277691,
        -6.5036507,
        7.6306763,
        -7.4950027,
        4.5641623,
        7.92556,
        7.6209373,
        -7.9699297,
        -1.3626995,
        7.944813,
        -9.430008,
        3.1187496,
        8.197081,
        2.3973122,
        3.3111963,
        3.1920156,
        -7.675564,
        1.5244904,
        7.9017315,
        9.050306,
        5.8011427,
        -1.6892262,
        9.789803,
        6.2200127,
        4.1121473,
        -5.898101,
        5.5149975,
        -9.350724,
        2.0638094,
        3.4010944,
        0.101080894,
        -7.076702,
        6.407757,
        -3.6502094,
        7.1846256,
        9.881033,
        8.472511,
        -5.3473396,
        -0.796978,
        4.7284975,
        8.398691,
        -9.998762,
        -5.4378242,
        -7.251396,
        6.867853,
        -6.613698,
        1.5263901,
        4.0355005,
        6.338579,
        7.5075397,
        -6.7558355,
        3.318285,
        6.0590134,
        0.35554314,
        -7.6743984,
        2.1567545,
        4.8049746,
        -7.686205,
        9.721323,
        -1.5951242,
        -5.2442117,
        -8.457572,
        4.8666725,
        -0.9039774,
        -6.612501,
        -1.6518297,
        8.33012,
        4.2179165,
        -2.007276,
        1.0333338,
        -4.8503704,
        8.313181,
        -2.618775,
        -9.325709,
        6.94849,
        -5.6768365,
        3.1975994,
        -7.966511,
        -1.639451,
        9.004761,
        7.8212223,
        -1.6633453,
        -0.0023117065,
        5.8844395,
        4.4551477,
        1.8540039,
        6.934519,
        -6.5535975,
        -3.7883945,
        1.4075098,
        4.3141594,
        9.369579,
        3.2262573,
        -2.3902287,
        -0.93270016,
        -7.858183,
        -5.5036755,
        -0.016309738,
        3.0527391,
        -0.34174156,
        0.74077034,
        -1.0497656,
        -3.7105842,
        3.1881466,
        1.4322748,
        1.232749,
        2.5180569,
        7.1468353,
        9.916296,
        2.1714106,
        4.354409,
        -4.112932,
        -9.716317,
        0.8418093,
        -4.4457097,
        1.25105,
        6.6560764,
        3.8138523,
        7.279255,
        -1.732542,
        5.462102,
        -5.805871,
        -0.61460876,
        -7.908745,
        -5.5838175,
        -5.49211,
        5.553381,
        6.0610237,
        -8.074033,
        -7.636196,
        -5.6110067,
        -9.827037,
        -7.9754496,
        1.5471611,
        5.0586834,
        2.5350704,
        7.268364,
        -6.215429,
        6.2126026,
        3.492938,
        -8.627863,
        -1.2267418,
        1.0806427,
        7.2473373,
        -8.790643,
        -3.4538622,
        -3.0179472,
        8.115179,
        -9.091751,
        -0.6317539,
        9.592978,
        0.34319782,
        -8.998138,
        3.3497562,
        -5.13123,
        -3.0571623,
        5.1640787,
        9.784704,
        -3.706612,
        -1.079649,
        -3.399181,
        1.6086092,
        -5.384638,
        -5.7788105,
        -5.255801,
        2.5579395,
        7.550461,
        -0.9058037,
        -9.360439,
        -2.8197427,
        2.3671713,
        3.5458555,
        5.8036346,
        -0.73473644,
        -6.616809,
        -3.149969,
        5.5997887,
        0.04402542,
        -2.6131768,
        2.4233904,
        5.806245,
        -9.680214,
        6.892683,
        3.009447,
        -4.327218,
        9.088779,
        3.1312618,
        -3.932726,
        3.0812988,
        6.8232594,
        0.2764473,
        2.3486557,
        2.9717722,
        7.3155174,
        2.3954906,
        9.6981945,
        -0.23818874,
        -9.508734,
        -1.0330458,
        9.16844,
        -6.553688,
        2.3900213,
        -2.819397,
        -3.0126114,
        3.0602322,
        -8.794327,
        -3.659906,
        2.0906868,
        2.8455124,
        -2.355217,
        -3.3368392,
        -8.6363125,
        -3.9681716,
        2.456623,
        0.6134548,
        1.7547712,
        -9.997999,
        -4.304089,
        7.837286,
        -7.748887,
        9.044289,
        8.951973,
        -1.6227741,
        -6.9837255,
        6.5855618,
        -8.68757,
        -0.73879623,
        3.5546503,
        -7.5219774,
        -6.7791862,
        7.7821255,
        -9.402695,
        -7.685382,
        7.846222,
        3.7370625,
        -1.2933865,
        -8.277545,
        -0.0674696,
        -1.1396093,
        -2.4997153,
        -1.0649414,
        0.34806824,
        -7.9299784,
        4.0188656,
        8.667444,
        -4.544844,
        6.80077,
        -0.8552618,
        9.836601,
        7.278492,
        5.364544,
        -9.490619,
        -2.6341171,
        -9.341545,
        -2.2751894,
        -7.9918003,
        0.4043045,
        8.726282,
        -3.007781,
        -9.405572,
        2.8842983,
        -0.7604065,
        9.888073,
        -3.1543465,
        -0.49178982,
        6.324768,
        -7.8276987,
        -4.5721097,
        4.146515,
        9.892702,
        -0.42845917,
        -1.4364424,
        -4.973604,
        4.972638,
        4.1145124,
        2.2894564,
        -0.84636116,
        8.287006,
        -9.540973,
        9.513851,
        7.8609962,
        -9.450151,
        7.3477554,
        9.3214245,
        -1.9874134,
        -8.434176,
        -2.3591008,
        -7.4467754,
        -4.2536182,
        3.1423435,
        9.885788,
        3.7542143,
        3.505539,
        8.001732,
        -6.649809,
        -4.8408027,
        -2.9138775,
        -4.5654745,
        -3.7650843,
        -3.5533304,
        -6.4306374,
        4.6289577,
        5.131213,
        6.872755,
        3.7431564,
        -8.809382,
        5.888838,
        8.455708,
        -7.6148577,
        2.5035248,
        9.919971,
        4.9304876,
        5.0257463,
        3.580142,
        8.685326,
        4.9266586,
        7.9519463,
        -2.2195663,
        5.8297005,
        4.202737,
        2.0709953,
        -3.8770552,
        3.1766424,
        -4.8941774,
        2.0749607,
        1.8731747,
        -5.766079,
        -6.9836493,
        -5.028028,
        1.0328588,
        -1.2435741,
        -3.894455,
        8.149925,
        -2.9303403,
        -5.9324117,
        -1.0433998,
        -7.402503,
        -0.69362545,
        -1.4688005,
        8.641897,
        5.746171,
        1.7543116,
        -9.979658,
        7.3050995,
        -4.6164937,
        5.8928604,
        -8.544321,
        -2.686593,
        -4.447264,
        6.1157,
        -9.193068,
        1.3765564,
        -7.824499,
        8.644526,
        -2.2479715,
        3.927783,
        7.204565,
        4.4700584,
        -9.79295,
        1.2611256,
        8.218056,
        8.30583,
        0.28632736,
        5.3332367,
        -6.0302825,
        -8.19493,
        -9.133837,
        -2.7120538,
        -9.566557,
        -6.8536253,
        -7.7770014,
        0.21613693,
        9.317574,
        -2.0328178,
        -3.0128427
      ]
    },
    {
      "index": 3,
      "output": 1.0,
      "input_connections": [
        [
          0,
          0.0
        ],
        [
          1,
          0.0
        ],
        [
          2,
          0.0
        ],
        [
          4,
          0.0
        ],
        [
          5,
          0.15874627
        ],
        [
          6,
          0.0
        ],
        [
          7,
          0.0
        ]
      ],
      "bias": 0.0,
      "self_activation": 0.0,
      "retina_weights": [
        -9.929263,
        0.90933704,
        -5.394294,
        5.2325315,
        6.031418,
        6.668545,
        2.5624886,
        -9.557545,
        4.26005,
        0.75922394,
        -5.9093018,
        -9.565589,
        3.441802,
        -4.305846,
        3.6047783,
        4.368128,
        1.4632044,
        -4.869694,
        -1.2681665,
        3.625699,
        0.3743782,
        -8.200502,
        9.856144,
        3.1394444,
        -0.6303539,
        -1.491684,
        -6.079685,
        6.8416786,
        7.193434,
        8.784119,
        1.4449558,
        7.8978405,
        -3.9092202,
        7.2914524,
        3.0375347,
        -6.8843555,
        9.474489,
        2.1920166,
        3.478097,
        -7.469158,
        0.9914074,
        -7.3893948,
        2.3677502,
        3.1741009,
        -1.2123508,
        -1.6983385,
        -7.9083986,
        8.7687435,
        0.12908554,
        0.75285816,
        -1.6518488,
        4.260234,
        0.37165546,
        8.9137745,
        -0.14450264,
        -7.3390675,
        -8.725157,
        -2.881114,
        8.926765,
        -1.0273733,
        6.689455,
        3.8230982,
        -0.9687443,
        1.8189917,
        -5.717606,
        -8.443429,
        -6.7952175,
        2.4842987,
        -9.760134,
        -8.958308,
        -0.8866615,
        7.712652,
        -3.5792227,
        1.970171,
        -3.0328007,
        4.339799,
        -8.504164,
        -0.10622883,
        1.0880051,
        -7.874384,
        -3.4372659,
        4.3240347,
        4.189502,
        0.559083,
        -3.330893,
        -8.320972,
        3.9959564,
        7.4347553,
        -4.897327,
        6.223282,
        1.3003502,
        2.415761,
        1.5058889,
        -7.551074,
        -3.9943595,
        -3.0516024,
        -9.500875,
        5.2753487,
        4.6608076,
        6.5402756,
        8.949436,
        4.84223,
        3.5715303,
        1.8365469,
        1.9250717,
        -3.0343552,
        -7.070732,
        3.3896103,
        0.8121958,
        8.742153,
        3.2853613,
        4.8304405,
        5.7169456,
        -8.564873,
        -7.2974606,
        -7.987377,
        -0.57584953,
        3.0473337,
        7.74107,
        -6.2788725,
        -6.5210648,
        7.4095306,
        -4.2479153,
        -6.3829565,
        -1.3050051,
        5.2620687,
        3.2775412,
        6.688528,
        -8.506031,
        -6.197166,
        -4.5093317,
        -6.863103,
        2.6488247,
        7.4068413,
        8.77762,
        8.552458,
        0.3276434,
        -5.851826,
        8.449141,
        7.4579105,
        9.081694,
        8.804512,
        -7.9487658,
        -9.887915,
        4.354063,
        4.7368994,
        -9.056575,
        -8.8483095,
        -2.9659457,
        1.7024031,
        -0.6051817,
        -6.493678,
        -9.684193,
        -0.9154577,
        -7.2593975,
        -4.091732,
        2.094201,
        -7.5673914,
        -8.146474,
        -2.6580853,
        7.715189,
        -3.5389657,
        -1.039216,
        7.1831074,
        5.590829,
        8.144302,
        -9.654932,
        0.89967155,
        -2.6610894,
        -1.1852331,
        7.9632473,
        -6.967971,
        7.769041,
        8.116943,
        4.5097265,
        -2.1915355,
        0.127882,
        -4.03017,
        -5.971696,
        0.72401905,
        7.204319,
        -4.5090146,
        7.503731,
        4.5722065,
        -3.2060976,
        -2.8094358,
        -9.801927,
        2.1037521,
        5.7705708,
        -9.316561,
        2.5652943,
        3.7876787,
        9.486601,
        5.984189,
        9.09091,
        6.403303,
        -7.5341845,
        -8.659759,
        -6.106114,
        -7.917981,
        -3.640637,
        0.024395943,
        -9.764511,
        -4.585163,
        -1.4237757,
        -4.6953077,
        -8.527131,
        2.327098,
        3.5639153,
        4.9339495,
        7.8542995,
        -7.9575253,
        9.564184,
        5.4475584,
        7.1356544,
        9.994013,
        -5.1684685,
        -6.0807056,
        -5.8588214,
        6.2934914,
        -7.9550266,
        4.037629,
        -9.509961,
        0.91093636,
        1.5405979,
        0.3617487,
        7.5170364,
        9.927597,
        -1.2730093,
        -4.7009296,
        7.617775,
        2.0531235,
        9.992317,
        3.532096,
        6.008568,
        -4.6275992,
        -0.8446636,
        -0.020162582,
        -3.0958385,
        -0.8340397,
        7.209095,
        4.069461,
        -6.333699,
        5.387995,
        3.6460772,
        6.070633,
        8.319761,
        -3.4931822,
        3.95368,
        -7.281744,
        4.061824,
        -2.8261013,
        9.119398,
        7.9295826,
        -4.77138,
        9.92248,
        7.6004734,
        -3.5388632,
        4.7433987,
        5.5663195,
        -6.960721,
        -1.3408031,
        -9.475629,
        -0.7675257,
        -1.5341702,
        -6.4649487,
        0.058527946,
        2.3955336,
        1.1757174,
        9.398176,
        -0.8071203,
        -8.089786,
        -0.30730915,
        -0.7810707,
        -8.284299,
        -7.7269125,
        0.2134285,
        3.326954,
        7.5428677,
        4.5626297,
        2.0669308,
        7.844242,
        2.4038372,
        -3.0787368,
        -6.692786,
        2.2039566,
        -1.6865673,
        -2.6488943,
        0.89785004,
        8.057219,
        -3.263001,
        3.1025686,
        4.8144493,
        -6.2362857,
        3.074645,
        9.361759,
        -4.049165,
        0.8307066,
        9.631159,
        -4.351539,
        -4.981658,
        -0.39470577,
        -6.505413,
        -7.8335857,
        8.25433,
        -3.6011047,
        -6.406255,
        8.090162,
        0.4683218,
        5.9033766,
        -2.4563875,
        -3.4169788,
        -4.5029945,
        -8.550973,
        -0.26815128,
        0.48361206,
        -0.7184429,
        9.867735,
        -6.3790846,
        -3.0946226,
        -9.961033,
        1.8412676,
        -2.3947873,
        3.8998947,
        -1.0064068,
        -3.6700673,
        7.891571,
        -0.0011129379,
        -4.414868,
        -0.13310623,
        9.735138,
        6.4122334,
        -3.6644025,
        -2.0079174,
        0.769824,
        -0.03779602,
        5.5118675,
        -8.995008,
        4.417371,
        5.444936,
        5.193164,
        4.3747435,
        1.6965809,
        7.360779,
        7.8555927,
        -6.6409893,
        2.604147,
        -7.653408,
        5.8072605,
        -9.208908,
        8.938065,
        8.370857,
        -3.7042136,
        -2.3825564,
        -7.2351284,
        9.581131,
        5.919613,
        -6.7328424,
        1.4655104,
        -0.7745352,
        -6.262293,
        8.664843,
        -3.418922,
        7.006981,
        3.0737553,
        -9.235827,
        9.699671,
        6.9791317,
        -7.186475,
        -0.016881943,
        6.1225033,
        8.581652,
        2.798277,
        3.5040293,
        -7.661874,
        -4.7845883,
        -1.6265936,
        -7.1140385,
        -7.3797054,
        -3.173427,
        -2.0803561,
        4.0296755,
        -8.528209,
        -9.791732,
        -1.7886057,
        -3.8421602,
        -7.111761,
        -8.64594,
        -6.048164,
        2.5395308,
        2.8676853,
        -6.4425898,
        -1.0031071,
        -9.73186,
        -2.005519,
        3.6296616,
        8.914352,
        4.5141068,
        -6.6090317,
        -6.8599625,
        6.893984,
        0.2795992,
        -4.197933,
        -5.1303144,
        5.116433,
        -3.5166807,
        -8.554206,
        -6.940586,
        -8.701243,
        -2.6088567,
        -9.194138,
        -1.2217541,
        5.099515,
        9.917995,
        -0.8849659,
        7.4032116,
        -6.625862,
        7.9229603,
        -6.0737486,
        -8.387628,
        -4.0792317,
        -9.195809,
        7.1318264,
        -9.92347,
        -7.884202,
        9.984222,
        2.9563627,
        -7.140643,
        -6.151082,
        3.5531816,
        0.3273716,
        -6.8107767,
        -7.9391623,
        -4.320831,
        2.0166817,
        8.308729,
        -6.9959497,
        5.846347,
        -9.264619,
        -9.797222,
        -2.3806849,
        8.333637,
        -6.283188,
        -5.188784,
        -3.9493484,
        -7.9442644,
        5.881299,
        7.5291862,
        0.91437244,
        -1.7092199,
        2.3259125,
        2.446784,
        -0.051282883,
        4.475814,
        -0.5253525,
        -2.8690953,
        -1.5322275,
        1.1943426,
        -0.23043823,
        -1.2468786,
        2.8585567,
        1.6114674,
        -0.2535572,
        -9.481926,
        9.719578,
        1.7305841,
        -7.653885,
        -6.0245247,
        -6.626897,
        0.8144798,
        -8.142035,
        6.4080677,
        7.000532,
        9.093498,
        8.317665,
        -3.800735,
        3.8796415,
        -1.2120314,
        -9.123712,
        -0.35467815,
        9.823429,
        4.431306,
        8.800241,
        -7.841179,
        -3.1106992,
        4.1506443,
        -0.47980022,
        3.4018173,
        2.358531,
        -5.608179,
        5.865945,
        6.2442493,
        -6.531555,
        5.8662167,
        -1.8667784,
        -1.1490984,
        3.9617815,
        -5.8447356,
        1.8305979,
        -4.930279,
        -6.858201,
        0.8428087,
        -6.1265464,
        0.23479843,
        -6.7955065,
        1.75002,
        3.2690134,
        -4.6384473,
        -3.6262126,
        4.632617,
        4.830264,
        -7.069435,
        -0.4468174,
        8.366093,
        -9.918181,
        9.380695,
        -2.1517982,
        9.938259,
        -0.31560326,
        -8.154017,
        5.039956,
        -9.604397,
        -8.75734,
        7.1299686,
        2.8780355,
        -1.9159355,
        6.3975906,
        9.545284,
        -7.325096,
        4.1409645,
        7.907938,
        -2.7658076,
        5.517866,
        -4.0652676,
        -1.2622709,
        5.326518,
        -5.6218905,
        -8.656559,
        5.278014,
        -3.937449,
        9.659304,
        -5.5697126,
        -5.7590456,
        9.547672,
        0.26243305,
        -0.6326761,
        4.72803,
        2.9901752,
        -4.5340843,
        -0.55279446,
        5.9510746,
        2.6232061,
        4.0491447,
        -8.58855,
        6.910181,
        7.2412415,
        7.1933975,
        2.5327597,
        -9.242258,
        9.278177,
        5.8971825,
        6.0493584,
        -9.206116,
        -2.1308532,
        -0.20130062,
        -4.014568,
        4.0734234,
        3.3398619,
        -9.673597,
        5.1870794,
        -6.0911317,
        6.2712803,
        9.050318,
        9.531195,
        5.4872313,
        -3.1285448,
        -5.604133,
        4.618951,
        9.703566,
        -4.195487,
        -2.0910754,
        -8.550212,
        -5.9543557,
        -4.831142,
        -4.577853,
        0.61480427,
        -3.0565996,
        1.2452021,
        2.812868,
        9.249395,
        5.0111837,
        -5.847916,
        7.1055317,
        1.4443359,
        8.83301,
        -0.5734148,
        -2.6131434,
        9.094091,
        3.8279333,
        0.32172108,
        0.6054678,
        -2.8996296,
        -8.938219,
        8.015884,
        6.325983,
        8.0993805,
        -0.5140343,
        3.0694427,
        8.01693,
        -3.4417791,
        -8.762605,
        -9.917169,
        -6.4717264,
        1.9243488,
        8.890268,
        0.37809944,
        3.6905994,
        4.73322,
        8.808416,
        3.651847,
        -9.339983,
        6.8132324,
        -0.84385586,
        -9.452071,
        4.210042,
        -0.36700916,
        4.520239,
        -4.166097,
        -6.624174,
        8.200403,
        -0.47879887,
        -2.2575583,
        -9.5582075,
        -7.799837,
        -1.8181744,
        -2.534575,
        -1.0833874,
        4.6995697,
        4.0908537,
        3.2053242,
        5.9726753,
        4.898778,
        2.1112194,
        -0.22663975,
        -8.003206,
        -7.5740433,
        -5.4691763,
        1.230546,
        6.41963,
        5.925724,
        6.9975414,
        2.4916258,
        -6.891551,
        0.2960291,
        -3.426332,
        1.4997969,
        7.5452003,
        -3.4963293,
        0.8502445,
        -1.4694376,
        -6.0998697,
        -7.0175695,
        3.9540586,
        -4.276616,
        -6.1014767,
        8.962069,
        -6.375203,
        9.859314,
        1.781455,
        -2.5697894,
        6.2819405,
        7.0720215,
        -7.3385305,
        -6.548972,
        4.6459064,
        -1.7262764,
        0.273386,
        -0.13920689,
        0.83623314,
        -5.474269,
        -5.6627603,
        2.0650396,
        3.5172882,
        -4.3625493,
        0.8154354,
        -9.670889,
        -7.13113,
        8.593763,
        4.1920366,
        9.993355,
        8.439564,
        5.5853214,
        2.9832182,
        1.2572441,
        7.939459,
        -4.1288633,
        -4.0427537,
        -2.8256292,
        -0.10182762,
        -6.3836193,
        1.8142948,
        -8.561961,
        6.5692368,
        5.5338993,
        -0.23137474,
        -0.014890671,
        -2.448007,
        3.3170118,
        -8.848226,
        -0.14265251,
        -7.9432697,
        9.506645,
        -3.134951,
        -7.043087,
        0.5277691,
        -6.5036507,
        7.6306763,
        -7.4950027,
        4.5641623,
        7.92556,
        7.6209373,
        -7.9699297,
        -1.3626995,
        7.944813,
        -9.430008,
        3.1187496,
        8.197081,
        2.3973122,
        3.3111963,
        3.1920156,
        -7.675564,
        1.5244904,
        7.9017315,
        9.050306,
        5.8011427,
        -1.6892262,
        9.789803,
        6.2200127,
        4.1121473,
        -5.898101,
        5.5149975,
        -9.350724,
        2.0638094,
        3.4010944,
        0.101080894,
        -7.076702,
        6.407757,
        -3.6502094,
        7.1846256,
        9.881033,
        8.472511,
        -5.3473396,
        -0.796978,
        4.7284975,
        8.398691,
        -9.998762,
        -5.4378242,
        -7.251396,
        6.867853,
        -6.613698,
        1.5263901,
        4.0355005,
        6.338579,
        7.5075397,
        -6.7558355,
        3.318285,
        6.0590134,
        0.35554314,
        -7.6743984,
        2.1567545,
        4.8049746,
        -7.686205,
        9.721323,
        -1.5951242,
        -5.2442117,
        -8.457572,
        4.8666725,
        -0.9039774,
        -6.612501,
        -1.6518297,
        8.33012,
        4.2179165,
        -2.007276,
        1.0333338,
        -4.8503704,
        8.313181,
        -2.618775,
        -9.325709,
        6.94849,
        -5.6768365,
        3.1975994,
        -7.966511,
        -1.639451,
        9.004761,
        7.8212223,
        -1.6633453,
        -0.0023117065,
        5.8844395,
        4.4551477,
        1.8540039,
        6.934519,
        -6.5535975,
        -3.7883945,
        1.4075098,
        4.3141594,
        9.369579,
        3.2262573,
        -2.3902287,
        -0.93270016,
        -7.858183,
        -5.5036755,
        -0.016309738,
        3.0527391,
        -0.34174156,
        0.74077034,
        -1.0497656,
        -3.7105842,
        3.1881466,
        1.4322748,
        1.232749,
        2.5180569,
        7.1468353,
        9.916296,
        2.1714106,
        4.354409,
        -4.112932,
        -9.716317,
        0.8418093,
        -4.4457097,
        1.25105,
        6.6560764,
        3.8138523,
        7.279255,
        -1.732542,
        5.462102,
        -5.805871,
        -0.61460876,
        -7.908745,
        -5.5838175,
        -5.49211,
        5.553381,
        6.0610237,
        -8.074033,
        -7.636196,
        -5.6110067,
        -9.827037,
        -7.9754496,
        1.5471611,
        5.0586834,
        2.5350704,
        7.268364,
        -6.215429,
        6.2126026,
        3.492938,
        -8.627863,
        -1.2267418,
        1.0806427,
        7.2473373,
        -8.790643,
        -3.4538622,
        -3.0179472,
        8.115179,
        -9.091751,
        -0.6317539,
        9.592978,
        0.34319782,
        -8.998138,
        3.3497562,
        -5.13123,
        -3.0571623,
        5.1640787,
        9.784704,
        -3.706612,
        -1.079649,
        -3.399181,
        1.6086092,
        -5.384638,
        -5.7788105,
        -5.255801,
        2.5579395,
        7.550461,
        -0.9058037,
        -9.360439,
        -2.8197427,
        2.3671713,
        3.5458555,
        5.8036346,
        -0.73473644,
        -6.616809,
        -3.149969,
        5.5997887,
        0.04402542,
        -2.6131768,
        2.4233904,
        5.806245,
        -9.680214,
        6.892683,
        3.009447,
        -4.327218,
        9.088779,
        3.1312618,
        -3.932726,
        3.0812988,
        6.8232594,
        0.2764473,
        2.3486557,
        2.9717722,
        7.3155174,
        2.3954906,
        9.6981945,
        -0.23818874,
        -9.508734,
        -1.0330458,
        9.16844,
        -6.553688,
        2.3900213,
        -2.819397,
        -3.0126114,
        3.0602322,
        -8.794327,
        -3.659906,
        2.0906868,
        2.8455124,
        -2.355217,
        -3.3368392,
        -8.6363125,
        -3.9681716,
        2.456623,
        0.6134548,
        1.7547712,
        -9.997999,
        -4.304089,
        7.837286,
        -7.748887,
        9.044289,
        8.951973,
        -1.6227741,
        -6.9837255,
        6.5855618,
        -8.68757,
        -0.73879623,
        3.5546503,
        -7.5219774,
        -6.7791862,
        7.7821255,
        -9.402695,
        -7.685382,
        7.846222,
        3.7370625,
        -1.2933865,
        -8.277545,
        -0.0674696,
        -1.1396093,
        -2.4997153,
        -1.0649414,
        0.34806824,
        -7.9299784,
        4.0188656,
        8.667444,
        -4.544844,
        6.80077,
        -0.8552618,
        9.836601,
        7.278492,
        5.364544,
        -9.490619,
        -2.6341171,
        -9.341545,
        -2.2751894,
        -7.9918003,
        0.4043045,
        8.726282,
        -3.007781,
        -9.405572,
        2.8842983,
        -0.7604065,
        9.888073,
        -3.1543465,
        -0.49178982,
        6.324768,
        -7.8276987,
        -4.5721097,
        4.146515,
        9.892702,
        -0.42845917,
        -1.4364424,
        -4.973604,
        4.972638,
        4.1145124,
        2.2894564,
        -0.84636116,
        8.287006,
        -9.540973,
        9.513851,
        7.8609962,
        -9.450151,
        7.3477554,
        9.3214245,
        -1.9874134,
        -8.434176,
        -2.3591008,
        -7.4467754,
        -4.2536182,
        3.1423435,
        9.885788,
        3.7542143,
        3.505539,
        8.001732,
        -6.649809,
        -4.8408027,
        -2.9138775,
        -4.5654745,
        -3.7650843,
        -3.5533304,
        -6.4306374,
        4.6289577,
        5.131213,
        6.872755,
        3.7431564,
        -8.809382,
        5.888838,
        8.455708,
        -7.6148577,
        2.5035248,
        9.919971,
        4.9304876,
        5.0257463,
        3.580142,
        8.685326,
        4.9266586,
        7.9519463,
        -2.2195663,
        5.8297005,
        4.202737,
        2.0709953,
        -3.8770552,
        3.1766424,
        -4.8941774,
        2.0749607,
        1.8731747,
        -5.766079,
        -6.9836493,
        -5.028028,
        1.0328588,
        -1.2435741,
        -3.894455,
        8.149925,
        -2.9303403,
        -5.9324117,
        -1.0433998,
        -7.402503,
        -0.69362545,
        -1.4688005,
        8.641897,
        5.746171,
        1.7543116,
        -9.979658,
        7.3050995,
        -4.6164937,
        5.8928604,
        -8.544321,
        -2.686593,
        -4.447264,
        6.1157,
        -9.193068,
        1.3765564,
        -7.824499,
        8.644526,
        -2.2479715,
        3.927783,
        7.204565,
        4.4700584,
        -9.79295,
        1.2611256,
        8.218056,
        8.30583,
        0.28632736,
        5.3332367,
        -6.0302825,
        -8.19493,
        -9.133837,
        -2.7120538,
        -9.566557,
        -6.8536253,
        -7.7770014,
        0.21613693,
        9.317574,
        -2.0328178,
        -3.0128427
      ]
    },
    {
      "index": 4,
      "output": 1.0,
      "input_connections": [
        [
          0,
          0.0
        ],
        [
          1,
          0.0
        ],
        [
          2,
          0.0
        ],
        [
          3,
          0.0
        ],
        [
          5,
          0.0
        ],
        [
          6,
          0.0
        ],
        [
          7,
          0.0
        ]
      ],
      "bias": 0.0,
      "self_activation": 0.0,
      "retina_weights": [
        -9.929263,
        0.90933704,
        -5.394294,
        5.2325315,
        6.031418,
        6.668545,
        2.5624886,
        -9.557545,
        4.26005,
        0.75922394,
        -5.9093018,
        -9.565589,
        3.441802,
        -4.305846,
        3.6047783,
        4.368128,
        1.4632044,
        -4.869694,
        -1.2681665,
        3.625699,
        0.3743782,
        -8.200502,
        9.856144,
        3.1394444,
        -0.6303539,
        -1.491684,
        -6.079685,
        6.8416786,
        7.193434,
        8.784119,
        1.4449558,
        7.8978405,
        -3.9092202,
        7.2914524,
        3.0375347,
        -6.8843555,
        9.474489,
        2.1920166,
        3.478097,
        -7.469158,
        0.9914074,
        -7.3893948,
        2.3677502,
        3.1741009,
        -1.2123508,
        -1.6983385,
        -7.9083986,
        8.7687435,
        0.12908554,
        0.75285816,
        -1.6518488,
        4.260234,
        0.37165546,
        8.9137745,
        -0.14450264,
        -7.3390675,
        -8.725157,
        -2.881114,
        8.926765,
        -1.0273733,
        6.689455,
        3.8230982,
        -0.9687443,
        1.8189917,
        -5.717606,
        -8.443429,
        -6.7952175,
        2.4842987,
        -9.760134,
        -8.958308,
        -0.8866615,
        7.712652,
        -3.5792227,
        1.970171,
        -3.0328007,
        4.339799,
        -8.504164,
        -0.10622883,
        1.0880051,
        -7.874384,
        -3.4372659,
        4.3240347,
        4.189502,
        0.559083,
        -3.330893,
        -8.320972,
        3.9959564,
        7.4347553,
        -4.897327,
        6.223282,
        1.3003502,
        2.415761,
        1.5058889,
        -7.551074,
        -3.9943595,
        -3.0516024,
        -9.500875,
        5.2753487,
        4.6608076,
        6.5402756,
        8.949436,
        4.84223,
        3.5715303,
        1.8365469,
        1.9250717,
        -3.0343552,
        -7.070732,
        3.3896103,
        0.8121958,
        8.742153,
        3.2853613,
        4.8304405,
        5.7169456,
        -8.564873,
        -7.2974606,
        -7.987377,
        -0.57584953,
        3.0473337,
        7.74107,
        -6.2788725,
        -6.5210648,
        7.4095306,
        -4.2479153,
        -6.3829565,
        -1.3050051,
        5.2620687,
        3.2775412,
        6.688528,
        -8.506031,
        -6.197166,
        -4.5093317,
        -6.863103,
        2.6488247,
        7.4068413,
        8.77762,
        8.552458,
        0.3276434,
        -5.851826,
        8.449141,
        7.4579105,
        9.081694,
        8.804512,
        -7.9487658,
        -9.887915,
        4.354063,
        4.7368994,
        -9.056575,
        -8.8483095,
        -2.9659457,
        1.7024031,
        -0.6051817,
        -6.493678,
        -9.684193,
        -0.9154577,
        -7.2593975,
        -4.091732,
        2.094201,
        -7.5673914,
        -8.146474,
        -2.6580853,
        7.715189,
        -3.5389657,
        -1.039216,
        7.1831074,
        5.590829,
        8.144302,
        -9.654932,
        0.89967155,
        -2.6610894,
        -1.1852331,
        7.9632473,
        -6.967971,
        7.769041,
        8.116943,
        4.5097265,
        -2.1915355,
        0.127882,
        -4.03017,
        -5.971696,
        0.72401905,
        7.204319,
        -4.5090146,
        7.503731,
        4.5722065,
        -3.2060976,
        -2.8094358,
        -9.801927,
        2.1037521,
        5.7705708,
        -9.316561,
        2.5652943,
        3.7876787,
        9.486601,
        5.984189,
        9.09091,
        6.403303,
        -7.5341845,
        -8.659759,
        -6.106114,
        -7.917981,
        -3.640637,
        0.024395943,
        -9.764511,
        -4.585163,
        -1.4237757,
        -4.6953077,
        -8.527131,
        2.327098,
        3.5639153,
        4.9339495,
        7.8542995,
        -7.9575253,
        9.564184,
        5.4475584,
        7.1356544,
        9.994013,
        -5.1684685,
        -6.0807056,
        -5.8588214,
        6.2934914,
        -7.9550266,
        4.037629,
        -9.509961,
        0.91093636,
        1.5405979,
        0.3617487,
        7.5170364,
        9.927597,
        -1.2730093,
        -4.7009296,
        7.617775,
        2.0531235,
        9.992317,
        3.532096,
        6.008568,
        -4.6275992,
        -0.8446636,
        -0.020162582,
        -3.0958385,
        -0.8340397,
        7.209095,
        4.069461,
        -6.333699,
        5.387995,
        3.6460772,
        6.070633,
        8.319761,
        -3.4931822,
        3.95368,
        -7.281744,
        4.061824,
        -2.8261013,
        9.119398,
        7.9295826,
        -4.77138,
        9.92248,
        7.6004734,
        -3.5388632,
        4.7433987,
        5.5663195,
        -6.960721,
        -1.3408031,
        -9.475629,
        -0.7675257,
        -1.5341702,
        -6.4649487,
        0.058527946,
        2.3955336,
        1.1757174,
        9.398176,
        -0.8071203,
        -8.089786,
        -0.30730915,
        -0.7810707,
        -8.284299,
        -7.7269125,
        0.2134285,
        3.326954,
        7.5428677,
        4.5626297,
        2.0669308,
        7.844242,
        2.4038372,
        -3.0787368,
        -6.692786,
        2.2039566,
        -1.6865673,
        -2.6488943,
        0.89785004,
        8.057219,
        -3.263001,
        3.1025686,
        4.8144493,
        -6.2362857,
        3.074645,
        9.361759,
        -4.049165,
        0.8307066,
        9.631159,
        -4.351539,
        -4.981658,
        -0.39470577,
        -6.505413,
        -7.8335857,
        8.25433,
        -3.6011047,
        -6.406255,
        8.090162,
        0.4683218,
        5.9033766,
        -2.4563875,
        -3.4169788,
        -4.5029945,
        -8.550973,
        -0.26815128,
        0.48361206,
        -0.7184429,
        9.867735,
        -6.3790846,
        -3.0946226,
        -9.961033,
        1.8412676,
        -2.3947873,
        3.8998947,
        -1.0064068,
        -3.6700673,
        7.891571,
        -0.0011129379,
        -4.414868,
        -0.13310623,
        9.735138,
        6.4122334,
        -3.6644025,
        -2.0079174,
        0.769824,
        -0.03779602,
        5.5118675,
        -8.995008,
        4.417371,
        5.444936,
        5.193164,
        4.3747435,
        1.6965809,
        7.360779,
        7.8555927,
        -6.6409893,
        2.604147,
        -7.653408,
        5.8072605,
        -9.208908,
        8.938065,
        8.370857,
        -3.7042136,
        -2.3825564,
        -7.2351284,
        9.581131,
        5.919613,
        -6.7328424,
        1.4655104,
        -0.7745352,
        -6.262293,
        8.664843,
        -3.418922,
        7.006981,
        3.0737553,
        -9.235827,
        9.699671,
        6.9791317,
        -7.186475,
        -0.016881943,
        6.1225033,
        8.581652,
        2.798277,
        3.5040293,
        -7.661874,
        -4.7845883,
        -1.6265936,
        -7.1140385,
        -7.3797054,
        -3.173427,
        -2.0803561,
        4.0296755,
        -8.528209,
        -9.791732,
        -1.7886057,
        -3.8421602,
        -7.111761,
        -8.64594,
        -6.048164,
        2.5395308,
        2.8676853,
        -6.4425898,
        -1.0031071,
        -9.73186,
        -2.005519,
        3.6296616,
        8.914352,
        4.5141068,
        -6.6090317,
        -6.8599625,
        6.893984,
        0.2795992,
        -4.197933,
        -5.1303144,
        5.116433,
        -3.5166807,
        -8.554206,
        -6.940586,
        -8.701243,
        -2.6088567,
        -9.194138,
        -1.2217541,
        5.099515,
        9.917995,
        -0.8849659,
        7.4032116,
        -6.625862,
        7.9229603,
        -6.0737486,
        -8.387628,
        -4.0792317,
        -9.195809,
        7.1318264,
        -9.92347,
        -7.884202,
        9.984222,
        2.9563627,
        -7.140643,
        -6.151082,
        3.5531816,
        0.3273716,
        -6.8107767,
        -7.9391623,
        -4.320831,
        2.0166817,
        8.308729,
        -6.9959497,
        5.846347,
        -9.264619,
        -9.797222,
        -2.3806849,
        8.333637,
        -6.283188,
        -5.188784,
        -3.9493484,
        -7.9442644,
        5.881299,
        7.5291862,
        0.91437244,
        -1.7092199,
        2.3259125,
        2.446784,
        -0.051282883,
        4.475814,
        -0.5253525,
        -2.8690953,
        -1.5322275,
        1.1943426,
        -0.23043823,
        -1.2468786,
        2.8585567,
        1.6114674,
        -0.2535572,
        -9.481926,
        9.719578,
        1.7305841,
        -7.653885,
        -6.0245247,
        -6.626897,
        0.8144798,
        -8.142035,
        6.4080677,
        7.000532,
        9.093498,
        8.317665,
        -3.800735,
        3.8796415,
        -1.2120314,
        -9.123712,
        -0.35467815,
        9.823429,
        4.431306,
        8.800241,
        -7.841179,
        -3.1106992,
        4.1506443,
        -0.47980022,
        3.4018173,
        2.358531,
        -5.608179,
        5.865945,
        6.2442493,
        -6.531555,
        5.8662167,
        -1.8667784,
        -1.1490984,
        3.9617815,
        -5.8447356,
        1.8305979,
        -4.930279,
        -6.858201,
        0.8428087,
        -6.1265464,
        0.23479843,
        -6.7955065,
        1.75002,
        3.2690134,
        -4.6384473,
        -3.6262126,
        4.632617,
        4.830264,
        -7.069435,
        -0.4468174,
        8.366093,
        -9.918181,
        9.380695,
        -2.1517982,
        9.938259,
        -0.31560326,
        -8.154017,
        5.039956,
        -9.604397,
        -8.75734,
        7.1299686,
        2.8780355,
        -1.9159355,
        6.3975906,
        9.545284,
        -7.325096,
        4.1409645,
        7.907938,
        -2.7658076,
        5.517866,
        -4.0652676,
        -1.2622709,
        5.326518,
        -5.6218905,
        -8.656559,
        5.278014,
        -3.937449,
        9.659304,
        -5.5697126,
        -5.7590456,
        9.547672,
        0.26243305,
        -0.6326761,
        4.72803,
        2.9901752,
        -4.5340843,
        -0.55279446,
        5.9510746,
        2.6232061,
        4.0491447,
        -8.58855,
        6.910181,
        7.2412415,
        7.1933975,
        2.5327597,
        -9.242258,
        9.278177,
        5.8971825,
        6.0493584,
        -9.206116,
        -2.1308532,
        -0.20130062,
        -4.014568,
        4.0734234,
        3.3398619,
        -9.673597,
        5.1870794,
        -6.0911317,
        6.2712803,
        9.050318,
        9.531195,
        5.4872313,
        -3.1285448,
        -5.604133,
        4.618951,
        9.703566,
        -4.195487,
        -2.0910754,
        -8.550212,
        -5.9543557,
        -4.831142,
        -4.577853,
        0.61480427,
        -3.0565996,
        1.2452021,
        2.812868,
        9.249395,
        5.0111837,
        -5.847916,
        7.1055317,
        1.4443359,
        8.83301,
        -0.5734148,
        -2.6131434,
        9.094091,
        3.8279333,
        0.32172108,
        0.6054678,
        -2.8996296,
        -8.938219,
        8.015884,
        6.325983,
        8.0993805,
        -0.5140343,
        3.0694427,
        8.01693,
        -3.4417791,
        -8.762605,
        -9.917169,
        -6.4717264,
        1.9243488,
        8.890268,
        0.37809944,
        3.6905994,
        4.73322,
        8.808416,
        3.651847,
        -9.339983,
        6.8132324,
        -0.84385586,
        -9.452071,
        4.210042,
        -0.36700916,
        4.520239,
        -4.166097,
        -6.624174,
        8.200403,
        -0.47879887,
        -2.2575583,
        -9.5582075,
        -7.799837,
        -1.8181744,
        -2.534575,
        -1.0833874,
        4.6995697,
        4.0908537,
        3.2053242,
        5.9726753,
        4.898778,
        2.1112194,
        -0.22663975,
        -8.003206,
        -7.5740433,
        -5.4691763,
        1.230546,
        6.41963,
        5.925724,
        6.9975414,
        2.4916258,
        -6.891551,
        0.2960291,
        -3.426332,
        1.4997969,
        7.5452003,
        -3.4963293,
        0.8502445,
        -1.4694376,
        -6.0998697,
        -7.0175695,
        3.9540586,
        -4.276616,
        -6.1014767,
        8.962069,
        -6.375203,
        9.859314,
        1.781455,
        -2.5697894,
        6.2819405,
        7.0720215,
        -7.3385305,
        -6.548972,
        4.6459064,
        -1.7262764,
        0.273386,
        -0.13920689,
        0.83623314,
        -5.474269,
        -5.6627603,
        2.0650396,
        3.5172882,
        -4.3625493,
        0.8154354,
        -9.670889,
        -7.13113,
        8.593763,
        4.1920366,
        9.993355,
        8.439564,
        5.5853214,
        2.9832182,
        1.2572441,
        7.939459,
        -4.1288633,
        -4.0427537,
        -2.8256292,
        -0.10182762,
        -6.3836193,
        1.8142948,
        -8.561961,
        6.5692368,
        5.5338993,
        -0.23137474,
        -0.014890671,
        -2.448007,
        3.3170118,
        -8.848226,
        -0.14265251,
        -7.9432697,
        9.506645,
        -3.134951,
        -7.043087,
        0.5277691,
        -6.5036507,
        7.6306763,
        -7.4950027,
        4.5641623,
        7.92556,
        7.6209373,
        -7.9699297,
        -1.3626995,
        7.944813,
        -9.430008,
        3.1187496,
        8.197081,
        2.3973122,
        3.3111963,
        3.1920156,
        -7.675564,
        1.5244904,
        7.9017315,
        9.050306,
        5.8011427,
        -1.6892262,
        9.789803,
        6.2200127,
        4.1121473,
        -5.898101,
        5.5149975,
        -9.350724,
