{
  "neurons": [
    {
      "index": 0,
      "output": -1.0,
      "input_connections": [
        [
          1,
          0.0
        ],
        [
          2,
          0.0
        ],
        [
          3,
          0.0
        ],
        [
          4,
          0.0
        ],
        [
          5,
          0.0
        ],
        [
          6,
          0.0
        ],
        [
          7,
          0.0
        ]
      ],
      "bias": 0.10700832,
      "self_activation": 0.0,
      "retina_weights": [
        -3.1671305,
        -3.5562773,
        6.0574684,
        1.0596695,
        1.0102997,
        8.117727,
        0.9332695,
        4.4306984,
        -9.673755,
        -3.4365506,
        9.810089,
        -7.0303173,
        2.78129,
        6.998125,
        3.988556,
        8.590828,
        5.782058,
        -3.316774,
        -8.0972595,
        -3.351335,
        -4.682979,
        9.824724,
        -8.676116,
        7.976715,
        0.45812225,
        -4.6061177,
        -9.268923,
        4.8089848,
        9.607796,
        8.742966,
        -0.9736624,
        -7.8540344,
        2.430791,
        -0.17258835,
        -8.917152,
        4.1461935,
        0.9539547,
        -5.907087,
        6.7359104,
        -0.04482174,
        -3.867144,
        -6.7692184,
        6.634035,
        -8.730917,
        -2.7658672,
        3.1564865,
        4.40926,
        -2.996356,
        4.7197237,
        1.3178501,
        3.8847551,
        -4.8884554,
        5.985793,
        6.182625,
        -2.1067157,
        1.6389809,
        -1.7065687,
        -7.8317566,
        4.408861,
        -4.264483,
        4.5292654,
        7.20294,
        6.2353745,
        -8.200376,
        -2.825851,
        6.782837,
        8.591543,
        9.794117,
        -4.61976,
        -0.71800613,
        -8.282997,
        9.205732,
        0.3824196,
        0.10043526,
        0.8170595,
        -2.3464408,
        -5.673928,
        7.1088696,
        -1.9854565,
        3.3153973,
        5.1919737,
        7.7027855,
        -9.150953,
        5.328452,
        2.9295502,
        4.581808,
        9.016977,
        1.3568058,
        -3.5314007,
        4.5105305,
        7.718546,
        8.17654,
        7.3996315,
        5.3574295,
        0.17956161,
        -5.631952,
        1.837739,
        -4.5580454,
        6.1584034,
        -5.5602593,
        9.383778,
        -2.864048,
        -3.7505336,
        -9.959132,
        -6.5660543,
        6.6094017,
        -2.3737445,
        -1.4082308,
        -4.203288,
        -3.5134835,
        -1.5577383,
        5.1581116,
        -1.6599741,
        8.796965,
        1.0240021,
        -4.037747,
        -1.5900078,
        1.8019905,
        -6.810808,
        -7.6497984,
        -0.9032335,
        8.0066395,
        4.7508106,
        1.8971195,
        -9.455433,
        2.8028069,
        -1.7075815,
        2.4909916,
        -9.117584,
        -1.4499207,
        -6.6347647,
        -2.5298781,
        6.5387917,
        6.875555,
        1.4443436,
        -2.2462406,
        -3.101749,
        -8.258882,
        4.561244,
        2.567235,
        5.40302,
        -2.9674597,
        -6.62749,
        0.17741585,
        -4.2418284,
        -1.8210688,
        8.540379,
        -2.531938,
        -2.4913254,
        -1.5631552,
        -7.4275656,
        9.136612,
        3.1343212,
        1.3264742,
        7.6023197,
        -7.6656218,
        1.4617071,
        -7.0336504,
        1.5659437,
        -3.8613243,
        -5.2348967,
        -5.5054064,
        4.5821533,
        7.44351,
        -2.1443954,
        -0.14457417,
        9.915775,
        6.3232136,
        3.1237087,
        1.0161791,
        -3.8479252,
        2.1120462,
        -1.024827,
        2.718152,
        -3.2013865,
        -8.766801,
        2.591959,
        9.105131,
        8.266005,
        -4.8382087,
        -9.524183,
        -4.678771,
        -3.4205313,
        5.48825,
        -9.754483,
        7.27853,
        -8.28274,
        1.8828049,
        -1.6248102,
        3.7782679,
        4.709305,
        7.6087894,
        -2.9321833,
        -2.4731007,
        -1.8879976,
        9.84544,
        -7.6954527,
        6.1280403,
        2.8412333,
        -6.283822,
        8.825953,
        -2.7521152,
        2.0285978,
        -9.273372,
        6.6829205,
        -8.095207,
        -8.425126,
        -3.0645914,
        -9.846289,
        -8.856565,
        -0.34561348,
        3.5886774,
        7.4387856,
        -5.9977336,
        0.5166378,
        -8.015265,
        -4.01756,
        -4.040975,
        -3.8322825,
        4.0954866,
        -1.8475285,
        1.4271889,
        -4.2733974,
        2.960559,
        5.0283165,
        2.9568233,
        -1.5401497,
        4.9409714,
        -3.6050434,
        8.400175,
        7.3411427,
        3.0404577,
        7.559843,
        -3.1909056,
        -8.071539,
        -0.01808548,
        0.715991,
        8.486301,
        -5.4729195,
        -4.9902864,
        9.5331955,
        -9.340908,
        -2.440516,
        4.8255434,
        -3.1903954,
        2.8034582,
        -7.305848,
        5.3319206,
        -3.331327,
        -9.483399,
        -4.2654915,
        -2.6619906,
        1.7226162,
        -3.430657,
        -6.720664,
        -3.8138337,
        0.3395548,
        6.4617825,
        1.8411293,
        -2.3200955,
        -5.0051827,
        -8.651611,
        -4.021506,
        3.3463945,
        8.2579155,
        -7.2008867,
        3.4869728,
        -1.5679617,
        7.8911343,
        -8.950908,
        -6.332402,
        8.678612,
        5.2333136,
        -0.80943966,
        -6.3334227,
        4.568802,
        -1.803195,
        -8.904171,
        7.3677483,
        7.041752,
        7.081814,
        -1.3843431,
        -3.2325573,
        1.8407688,
        0.23484612,
        -5.9144278,
        -8.00831,
        8.279104,
        -2.3997416,
        -4.7245092,
        -4.1600294,
        -6.2244673,
        -6.0913463,
        8.834202,
        9.027981,
        3.6620054,
        3.465146,
        1.4236822,
        -3.8315005,
        3.5842857,
        -0.26877117,
        -3.1896467,
        -4.103863,
        6.8865223,
        1.9683828,
        -6.1922283,
        5.3935947,
        -5.289528,
        -1.1958017,
        -6.582205,
        4.1889057,
        -4.088988,
        2.4450626,
        3.5982952,
        1.1093464,
        -9.959976,
        -4.8898835,
        -7.137844,
        -3.9707274,
        9.971451,
        -0.5168524,
        6.92564,
        -9.067037,
        -6.3322544,
        -5.2490897,
        9.574379,
        4.49936,
        8.95022,
        -4.98167,
        -8.527033,
        3.7357655,
        -0.6538315,
        8.195316,
        -5.757243,
        -7.3611755,
        7.8056297,
        9.927813,
        -3.8335414,
        -1.4360209,
        3.829073,
        -5.744607,
        8.419872,
        5.739006,
        -0.29143238,
        0.13245964,
        2.7983465,
        9.314846,
        9.145977,
        8.304758,
        -9.109489,
        -4.308204,
        3.670267,
        5.88412,
        4.784478,
        0.44928455,
        -8.305227,
        2.3593893,
        -2.8612537,
        -3.6588664,
        -2.7203698,
        5.957526,
        -4.195368,
        -0.78150463,
        -6.9639654,
        1.19625,
        7.791149,
        8.101526,
        3.571948,
        -5.762121,
        7.7283,
        -2.8784533,
        9.019171,
        -2.8819747,
        -9.357538,
        3.718625,
        6.3981915,
        5.6029596,
        -5.6913633,
        -3.84412,
        0.2969513,
        8.532911,
        4.5429144,
        1.2777624,
        -3.141653,
        -0.8702841,
        0.1693716,
        -9.509964,
        0.1091423,
        6.194481,
        7.9982853,
        -9.52167,
        9.533407,
        -4.056248,
        2.943202,
        -7.438879,
        9.952862,
        4.720598,
        -3.0895634,
        -9.719729,
        -1.6712704,
        -2.551517,
        -5.1594133,
        4.0667906,
        -8.13633,
        9.979658,
        -1.5714712,
        -7.4989767,
        1.2616768,
        -0.19187164,
        -0.2557869,
        -9.991586,
        -2.9511971,
        -0.78462315,
        -3.492505,
        0.44246292,
        7.715292,
        8.607086,
        -8.519232,
        -6.2874193,
        -3.1028361,
        8.355465,
        -0.80012226,
        -0.7013645,
        0.7492771,
        7.7946777,
        -6.1429353,
        -3.1996794,
        -0.99918747,
        -8.121448,
        -9.814577,
        1.1965456,
        -6.5388584,
        -9.661617,
        8.323452,
        1.7923965,
        4.7318325,
        -0.43455315,
        -9.938237,
        5.608186,
        -2.7823205,
        -7.653639,
        -4.927277,
        1.983489,
        0.24271107,
        6.604862,
        7.0733852,
        8.2008095,
        -8.464761,
        2.501913,
        -3.4961958,
        -5.0279183,
        8.8851185,
        -0.9619446,
        -7.2748823,
        3.8802633,
        -5.51084,
        -6.8559856,
        -5.271992,
        9.77113,
        1.1768093,
        5.0309076,
        1.2051258,
        5.4925957,
        9.914169,
        8.906389,
        -7.780716,
        -5.2102466,
        -0.80310535,
        -2.288188,
        -8.092427,
        -4.8186703,
        -8.190286,
        -7.4074907,
        -9.681797,
        5.27847,
        -2.6054664,
        0.25786972,
        4.920925,
        8.140736,
        6.916319,
        7.742853,
        -9.066002,
        9.477047,
        3.7222872,
        -9.090149,
        -5.7403274,
        4.547042,
        -4.3443365,
        -7.2380877,
        -5.218379,
        2.3885021,
        8.399076,
        4.0249834,
        -3.3962913,
        -2.0400634,
        5.527581,
        -9.398561,
        -2.0817223,
        -3.8598366,
        -1.4594355,
        3.7717905,
        -9.723678,
        5.72313,
        7.306988,
        6.740553,
        8.583271,
        -8.895056,
        9.540173,
        -2.1478763,
        -1.04741,
        3.6383286,
        9.220297,
        7.090645,
        0.8282223,
        -8.182165,
        -7.1555824,
        -8.62982,
        -9.585945,
        6.4422913,
        9.549618,
        -9.497888,
        9.030365,
        -9.066779,
        -9.495246,
        -2.1394053,
        -9.010096,
        -2.011217,
        -4.0639133,
        3.3459415,
        6.239586,
        5.6248493,
        -3.8120813,
        -4.1120477,
        3.0344095,
        -1.47406,
        0.51667595,
        -2.1659675,
        7.0404816,
        -4.1070576,
        9.077236,
        -8.470122,
        -1.9157209,
        -0.38875008,
        -1.527709,
        0.729743,
        2.9873095,
        0.6621561,
        2.8484478,
        1.6327581,
        -4.239425,
        2.347392,
        0.33105946,
        1.474863,
        8.985033,
        5.9698505,
        1.1253824,
        7.697792,
        5.4864902,
        4.918317,
        -1.4600391,
        -7.607424,
        -1.5854712,
        -6.3992834,
        9.127832,
        1.4213552,
        -7.8680086,
        8.896278,
        -8.201127,
        -7.5254154,
        7.0380993,
        3.107029,
        -0.14597607,
        -8.862216,
        6.1281033,
        -5.5207987,
        0.62050724,
        2.3440514,
        -6.773758,
        -5.86765,
        9.275297,
        -8.468339,
        -4.371912,
        -0.40425968,
        2.475439,
        -6.5663385,
        5.0525064,
        -2.6361246,
        0.9158764,
        9.127649,
        5.192916,
        2.8699865,
        2.2336826,
        1.8401537,
        -1.3910522,
        -2.5260205,
        -0.9651537,
        3.5842714,
        -9.515984,
        -4.3998713,
        -0.49201202,
        8.059969,
        3.797988,
        2.532958,
        -7.3761415,
        -4.9995966,
        4.7500553,
        9.132109,
        4.173456,
        5.7330027,
        -8.430674,
        -9.224102,
        -1.5664072,
        -6.721718,
        -7.677047,
        -0.9160538,
        -2.1641364,
        -8.661661,
        -8.571453,
        -3.3852096,
        1.1845121,
        -5.5985017,
        0.16345882,
        -5.5828424,
        8.55072,
        -9.63278,
        5.503191,
        1.0902891,
        -4.2986007,
        9.568901,
        2.326292,
        -4.936902,
        6.739361,
        -4.2916055,
        -2.6697607,
        0.48174477,
        -7.9677935,
        4.7463093,
        -7.8720856,
        8.217926,
        -7.975383,
        3.0242739,
        8.522087,
        6.7119884,
        -4.3487353,
        -2.7753086,
        4.227639,
        6.9445724,
        3.2125082,
        0.4455576,
        -6.057386,
        -3.789918,
        8.397352,
        -8.925755,
        -4.603247,
        6.530695,
        9.045105,
        -0.7674475,
        -0.1882782,
        -8.586595,
        5.7477016,
        0.4808607,
        -9.048252,
        6.729395,
        -3.9787192,
        7.267084,
        0.96365833,
        -4.320833,
        -3.5924978,
        2.6719465,
        -5.8865566,
        -8.711519,
        4.629587,
        -6.971636,
        4.957184,
        2.6721754,
        9.514984,
        7.5053787,
        5.636424,
        6.065979,
        1.956974,
        -5.1533337,
        -7.7275896,
        9.913343,
        0.5854473,
        -4.9027724,
        -5.173139,
        0.41741467,
        4.9512854,
        -9.069967,
        7.1828804,
        7.8811016,
        8.159994,
        9.046043,
        4.385375,
        8.538519,
        -9.909074,
        4.299635,
        2.255827,
        -9.994121,
        7.3832245,
        7.3645267,
        7.8679504,
        -2.5577826,
        -4.69032,
        -6.866393,
        -2.2013655,
        8.12388,
        -1.1739702,
        9.799835,
        -8.947703,
        9.322634,
        -7.716484,
        -6.8755293,
        6.1669636,
        9.085489,
        7.1231747,
        -9.430577,
        -3.3035035,
        2.9142418,
        8.432884,
        0.7303295,
        2.4321566,
        0.7744751,
        8.601809,
        -5.9443374,
        3.023323,
        2.0821657,
        4.078785,
        -5.226793,
        -4.7795863,
        -3.497395,
        -7.1133137,
        6.4167233,
        3.1861057,
        -3.3256145,
        -8.692999,
        8.430168,
        -7.627866,
        -0.52252007,
        -3.517775,
        -0.4900589,
        -0.61711216,
        9.867397,
        -7.4805183,
        7.613386,
        -3.7226624,
        -8.417358,
        -0.071071625,
        -4.121563,
        -0.16236973,
        -0.97308064,
        8.572336,
        -1.9526978,
        -4.823496,
        -0.6241913,
        -1.0014315,
        8.518574,
        0.5964432,
        9.469816,
        2.19798,
        0.5862942,
        -5.0295777,
        7.5637054,
        -6.9901676,
        1.8188419,
        0.6490383,
        -9.579565,
        6.9662,
        6.726946,
        2.298502,
        2.5567923,
        -6.6254663,
        -3.1073089,
        -6.263771,
        2.5846252,
        9.862677,
        -1.4756432,
        0.97633266,
        -0.67423725,
        1.3848772,
        1.5161047,
        3.0535517,
        -0.08778,
        2.6872625,
        6.3114758,
        -5.7026787,
        1.3618078,
        -3.7289853,
        9.793734,
        -4.697785,
        -7.1859903,
        -8.200984,
        7.982294,
        6.149212,
        -1.5646667,
        -9.8071,
        2.4424086,
        7.4378605,
        2.174429,
        -8.0960865,
        3.3550653,
        -4.192669,
        -9.275438,
        4.120761,
        8.216925,
        0.5906019,
        0.71269417,
        5.831045,
        1.7995987,
        9.548845,
        -0.7742901,
        3.2198153,
        5.8394375,
        -0.33830357,
        -4.39645,
        -9.799253,
        5.5239697,
        -2.4071636,
        -0.7699604,
        -0.20279598,
        -7.4915667,
        5.6370707,
        -5.2761097,
        -0.08596611,
        -6.9629717,
        -6.99028,
        -7.744939,
        -8.876948,
        -5.373847,
        5.387844,
        2.5979557,
        7.3986397,
        1.4897099,
        0.873147,
        -2.0857515,
        -1.8611851,
        -4.9306483,
        8.883116,
        -2.368938,
        -9.571118,
        7.9930305,
        -8.767905,
        9.75938,
        -5.270066,
        -3.1069584,
        8.839788,
        8.309084,
        -1.3309546,
        -9.945345,
        1.6911402,
        1.4061108,
        -0.076643944,
        0.61488056,
        -1.8487825,
        -8.805477,
        7.787056,
        7.4256477,
        -3.377461,
        5.8288593,
        -5.9124537,
        9.178543,
        2.1045313,
        7.248358,
        -0.014118195,
        9.327265,
        -4.2068596,
        -1.7461605,
        2.468649,
        -9.541793,
        -7.941272,
        3.9843187,
        7.7611637,
        -4.603383,
        8.087698,
        -6.757333,
        8.762068,
        7.489216,
        4.8818502,
        -6.8676424,
        2.1221247,
        -4.7949023,
        -3.9379282,
        -8.313815,
        9.129749,
        -1.399478,
        2.0455132,
        -4.167077,
        5.4351892,
        -5.2001853,
        9.112778,
        -8.6056185,
        3.153883,
        3.918005,
        0.76980686,
        -9.639542,
        -1.3410397,
        8.7449665,
        7.8803577,
        -9.429011,
        3.9843788,
        3.7324963,
        -9.07468,
        -1.9027491,
        2.8523312,
        7.150854,
        -9.089877,
        6.3585587,
        -8.484504,
        -4.5699925,
        -9.996693,
        -7.858116,
        -8.29034,
        -4.3931932,
        -9.115572,
        6.4023266,
        -2.2778597,
        5.264677,
        5.390457,
        -3.943767,
        9.666571,
        2.794651,
        -6.294133,
        -2.554216,
        4.63972,
        -9.688416,
        5.661997,
        -0.80943966,
        -8.420178,
        6.7136097,
        3.0670586,
        8.757082,
        3.0190477,
        -7.370496,
        9.323969,
        4.8747244,
        -6.4423466,
        -3.7134857,
        -8.08291,
        0.91497517,
        -8.833976,
        -2.9745812,
        8.462725,
        8.873295,
        -3.7229748,
        7.815954,
        -4.3555565,
        -0.5403557,
        4.460021,
        1.1283264,
        1.6866312,
        -0.82416916,
        7.9732285,
        3.5201445,
        -5.382566,
        -2.4761667,
        6.982685,
        7.0210304,
        -2.623827,
        3.2035198,
        -3.8969274,
        -5.5947323,
        3.3156643,
        0.5672684,
        -1.0131779,
        -6.5438366,
        -6.8680353,
        1.8824205,
        6.2676353,
        -1.2506142,
        5.7819576,
        7.259096,
        -8.627622,
        -6.975381,
        9.854517,
        -4.786398,
        3.2217274,
        4.833976,
        8.874374,
        -6.1920185,
        8.639231,
        2.5199566,
        -6.5901804,
        -4.4675107,
        9.763084,
        1.0795965,
        -8.438535,
        7.376196,
        8.806166,
        8.925154,
        9.920092,
        5.831498,
        7.5826073,
        5.8414593,
        4.3174515,
        1.7732487,
        1.3770285,
        -9.42657,
        6.664835,
        4.7235336,
        -8.678166,
        5.8363,
        -0.54699326,
        0.737504,
        -6.753084,
        -1.4526529,
        -6.419608,
        5.008251,
        5.054943,
        -3.2548327,
        0.7757225,
        4.360448,
        -5.11491,
        -9.771897,
        -3.764598,
        -7.070141,
        -2.0250335,
        7.119564,
        -0.66013527,
        -8.57949,
        5.798129,
        -8.8570595,
        -4.0291615,
        0.81970596,
        1.626092,
        6.8281517,
        -2.5001736,
        7.4117813,
        2.1105137,
        -0.07448387,
        9.598738,
        5.609462,
        7.00572,
        7.29747,
        3.3408966,
        -1.7084045,
        -6.5205975,
        8.762363,
        6.352066,
        8.432446,
        4.646531,
        3.8026485,
        -6.54665,
        -7.3848457,
        6.3976135,
        9.469341,
        1.3769808,
        8.749041,
        0.45628452,
        -0.6496086,
        -9.686871,
        -7.955489,
        7.733938,
        6.423172,
        4.7964134,
        6.7037106,
        2.8077087,
        5.8286114,
        5.835699,
        3.8327208,
        5.655383,
        -7.286522,
        -0.07228565,
        -2.9462237,
        -3.269343,
        -7.7026625,
        -5.843107,
        -7.142887,
        8.8832,
        9.141428,
        8.223038,
        -1.5410538,
        1.9204273,
        -0.467371,
        1.4522972,
        3.5670624,
        9.076197,
        -8.745108,
        4.0879,
        -4.0408607,
        -8.939473,
        -5.6578274,
        -7.567587,
        -5.738208,
        5.9768314,
        0.7858982,
        -2.4243226,
        -6.205098,
        -9.658966,
        0.77684975,
        3.2628927,
        -2.834651,
        -9.870815,
        0.89204216,
        -7.8326435,
        -4.8792453,
        4.520954,
        -2.7181191,
        -2.2739997,
        2.2005854,
        -0.01656437,
        8.236439,
        2.364932,
        7.4739285,
        -9.245257,
        4.88957,
        2.4859438,
        6.3409824,
        -9.544327,
        -4.663746,
        -6.0137815,
        7.7945366,
        -0.7168884,
        5.237934,
        -3.8478823,
        9.906847,
        0.36878967,
        -1.2575359,
        4.416457,
        -3.2118816,
        -7.153842,
        1.894001,
        -8.923704,
        5.939416,
        -7.432823,
        -3.4081311,
        5.4808207,
        3.370453,
        0.41302586,
        -9.412314,
        7.6009865,
        -7.78615,
        -4.7609944,
        -9.713831,
        -1.4930649,
        -8.506972,
        -0.7868023,
        -5.13514,
        -0.3804674,
        8.672787,
        5.399067,
        -8.0729885,
        3.0777988,
        3.3710442,
        2.1028528,
        2.121643,
        -3.7386317,
        -1.8239489,
        -1.8885965,
        8.714209,
        9.692356,
        -2.572319,
        3.3930597,
        -7.044444,
        6.093973,
        7.34544,
        2.4430122,
        5.6824465,
        -4.2714567,
        -7.2548532,
        -6.438753,
        -0.8877487,
        -4.91775,
        5.407647,
        -1.6734762,
        7.803589,
        1.0800037,
        -2.6786585,
        -5.9393163,
        -7.942815,
        7.870268,
        8.926798,
        -5.254032,
        -1.5711327,
        5.243005,
        4.7488174,
        7.9930134,
        -8.5568285,
        -2.8277845,
        -7.80097,
        -9.551532,
        -6.0044403,
        3.6335983,
        8.780962,
        -9.475681,
        3.782133,
        -7.241111,
        5.30064,
        -3.8489218,
        5.81077,
        2.586874,
        -4.180419,
        -8.094604,
        9.808613,
        -2.258381,
        -7.732649,
        -6.0632486,
        1.7346325,
        -0.058192253,
        -3.5569067,
        6.943716,
        -7.131233,
        -6.5341015,
        -9.661719,
        -3.2169266,
        -3.2061667,
        -2.9419632,
        4.92288,
        6.3089905,
        4.371916,
        4.2497387,
        -8.808413,
        2.158948,
        -7.463214,
        5.8786573,
        6.859209,
        -2.3604407,
        9.245932,
        -2.037889,
        -7.806961,
        -0.43586922,
        0.74072266,
        -1.187417,
        1.8536415,
        -1.6752377,
        8.805849,
        5.1420918,
        3.229436,
        -1.7567272,
        -3.0891795,
        5.8704824,
        9.681267,
        -9.278233,
        0.48794365,
        -2.6486511,
        -9.30402,
        -7.0389843,
        7.683422,
        0.68787956,
        -9.703643,
        -9.026639,
        4.6359196,
        7.9934998,
        -8.079324,
        -7.611027,
        2.3683462,
        -5.188143,
        3.5457602,
        5.8480253,
        2.4941769,
        -4.6403713,
        -8.75344,
        0.32927895,
        -1.6912384,
        -0.16623211,
        -3.9296575,
        -4.0355988,
        -2.8009171,
        -1.9792833,
        -0.6642647,
        -3.1933923,
        -0.6639519,
        -0.23920918,
        5.8795633,
        0.60412025,
        0.73534393,
        8.204597,
        -8.301139,
        6.5534744,
        5.2761908,
        -4.4490786,
        4.544297,
        8.172602,
        -9.910709,
        -2.2093215,
        6.7872944,
        2.0700207,
        -0.8916588,
        -4.438693,
        8.237625,
        0.9423599,
        -0.7666292,
        -7.944894,
        6.914444,
        0.9397831,
        -0.106446266,
        -4.3586655,
        8.617378,
        -7.422044,
        -6.535015,
        -1.2081852,
        -4.925875,
        -5.2768035,
        5.5193777,
        -3.6163015,
        7.537548,
        -5.357148,
        2.202958,
        -7.266283,
        5.3049965,
        -7.2842693,
        8.840929,
        -2.3566809,
        -6.6655035,
        -2.2805657,
        9.996149,
        -2.816443,
        3.9383945,
        0.9595547,
        -6.556465,
        3.1072245,
        3.009776,
        -2.5730987,
        -5.297026,
        5.5340853,
        -9.54499,
        -3.577251,
        -8.647299,
        -6.0580297,
        -3.2469625,
        0.70735073,
        9.6507015,
        3.6404572,
        -3.7655754,
        2.2853527,
        3.402563,
        4.403075,
        -9.085522,
        -7.4682713,
        -5.4459043,
        3.0287132,
        -3.7973328,
        -8.667767,
        -2.8137226,
        -0.82270336,
        7.4865074,
        -3.5960646,
        0.3824129,
        -2.5571508,
        -5.6155725,
        -2.1497216,
        9.757395,
        -3.2154794,
        -4.6643085,
        -7.186143,
        5.9382715,
        3.1659927,
        0.103803635,
        5.9583893,
        1.1023674,
        -6.7274494,
        -4.436712,
        -8.483855,
        -4.6973414,
        -9.133067,
        9.685431,
        -5.487215,
        -9.894278,
        -7.4957323,
        -7.799465,
        -4.6515794,
        -8.053638,
        7.524601,
        -5.8436437,
        -5.135605,
        1.4784155,
        -6.6129446,
        -6.8150063,
        6.41638,
        -9.7473545
      ]
    },
    {
      "index": 1,
      "output": -1.0,
      "input_connections": [
        [
          0,
          0.0
        ],
        [
          2,
          0.0
        ],
        [
          3,
          0.0
        ],
        [
          4,
          0.0
        ],
        [
          5,
          0.0
        ],
        [
          6,
          0.0
        ],
        [
          7,
          0.0
        ]
      ],
      "bias": 0.0,
      "self_activation": 0.0,
      "retina_weights": [
        -3.1671305,
        -3.5562773,
        6.0574684,
        1.0596695,
        1.0102997,
        8.117727,
        0.9332695,
        4.4306984,
        -9.673755,
        -3.4365506,
        9.810089,
        -7.0303173,
        2.78129,
        6.998125,
        3.988556,
        8.590828,
        5.782058,
        -3.316774,
        -8.0972595,
        -3.351335,
        -4.682979,
        9.824724,
        -8.676116,
        7.976715,
        0.45812225,
        -4.6061177,
        -9.268923,
        4.8089848,
        9.607796,
        8.742966,
        -0.9736624,
        -7.8540344,
        2.430791,
        -0.17258835,
        -8.917152,
        4.1461935,
        0.9539547,
        -5.907087,
        6.7359104,
        -0.04482174,
        -3.867144,
        -6.7692184,
        6.634035,
        -8.730917,
        -2.7658672,
        3.1564865,
        4.40926,
        -2.996356,
        4.7197237,
        1.3178501,
        3.8847551,
        -4.8884554,
        5.985793,
        6.182625,
        -2.1067157,
        1.6389809,
        -1.7065687,
        -7.8317566,
        4.408861,
        -4.264483,
        4.5292654,
        7.20294,
        6.2353745,
        -8.200376,
        -2.825851,
        6.782837,
        8.591543,
        9.794117,
        -4.61976,
        -0.71800613,
        -8.282997,
        9.205732,
        0.3824196,
        0.10043526,
        0.8170595,
        -2.3464408,
        -5.673928,
        7.1088696,
        -1.9854565,
        3.3153973,
        5.1919737,
        7.7027855,
        -9.150953,
        5.328452,
        2.9295502,
        4.581808,
        9.016977,
        1.3568058,
        -3.5314007,
        4.5105305,
        7.718546,
        8.17654,
        7.3996315,
        5.3574295,
        0.17956161,
        -5.631952,
        1.837739,
        -4.5580454,
        6.1584034,
        -5.5602593,
        9.383778,
        -2.864048,
        -3.7505336,
        -9.959132,
        -6.5660543,
        6.6094017,
        -2.3737445,
        -1.4082308,
        -4.203288,
        -3.5134835,
        -1.5577383,
        5.1581116,
        -1.6599741,
        8.796965,
        1.0240021,
        -4.037747,
        -1.5900078,
        1.8019905,
        -6.810808,
        -7.6497984,
        -0.9032335,
        8.0066395,
        4.7508106,
        1.8971195,
        -9.455433,
        2.8028069,
        -1.7075815,
        2.4909916,
        -9.117584,
        -1.4499207,
        -6.6347647,
        -2.5298781,
        6.5387917,
        6.875555,
        1.4443436,
        -2.2462406,
        -3.101749,
        -8.258882,
        4.561244,
        2.567235,
        5.40302,
        -2.9674597,
        -6.62749,
        0.17741585,
        -4.2418284,
        -1.8210688,
        8.540379,
        -2.531938,
        -2.4913254,
        -1.5631552,
        -7.4275656,
        9.136612,
        3.1343212,
        1.3264742,
        7.6023197,
        -7.6656218,
        1.4617071,
        -7.0336504,
        1.5659437,
        -3.8613243,
        -5.2348967,
        -5.5054064,
        4.5821533,
        7.44351,
        -2.1443954,
        -0.14457417,
        9.915775,
        6.3232136,
        3.1237087,
        1.0161791,
        -3.8479252,
        2.1120462,
        -1.024827,
        2.718152,
        -3.2013865,
        -8.766801,
        2.591959,
        9.105131,
        8.266005,
        -4.8382087,
        -9.524183,
        -4.678771,
        -3.4205313,
        5.48825,
        -9.754483,
        7.27853,
        -8.28274,
        1.8828049,
        -1.6248102,
        3.7782679,
        4.709305,
        7.6087894,
        -2.9321833,
        -2.4731007,
        -1.8879976,
        9.84544,
        -7.6954527,
        6.1280403,
        2.8412333,
        -6.283822,
        8.825953,
        -2.7521152,
        2.0285978,
        -9.273372,
        6.6829205,
        -8.095207,
        -8.425126,
        -3.0645914,
        -9.846289,
        -8.856565,
        -0.34561348,
        3.5886774,
        7.4387856,
        -5.9977336,
        0.5166378,
        -8.015265,
        -4.01756,
        -4.040975,
        -3.8322825,
        4.0954866,
        -1.8475285,
        1.4271889,
        -4.2733974,
        2.960559,
        5.0283165,
        2.9568233,
        -1.5401497,
        4.9409714,
        -3.6050434,
        8.400175,
        7.3411427,
        3.0404577,
        7.559843,
        -3.1909056,
        -8.071539,
        -0.01808548,
        0.715991,
        8.486301,
        -5.4729195,
        -4.9902864,
        9.5331955,
        -9.340908,
        -2.440516,
        4.8255434,
        -3.1903954,
        2.8034582,
        -7.305848,
        5.3319206,
        -3.331327,
        -9.483399,
        -4.2654915,
        -2.6619906,
        1.7226162,
        -3.430657,
        -6.720664,
        -3.8138337,
        0.3395548,
        6.4617825,
        1.8411293,
        -2.3200955,
        -5.0051827,
        -8.651611,
        -4.021506,
        3.3463945,
        8.2579155,
        -7.2008867,
        3.4869728,
        -1.5679617,
        7.8911343,
        -8.950908,
        -6.332402,
        8.678612,
        5.2333136,
        -0.80943966,
        -6.3334227,
        4.568802,
        -1.803195,
        -8.904171,
        7.3677483,
        7.041752,
        7.081814,
        -1.3843431,
        -3.2325573,
        1.8407688,
        0.23484612,
        -5.9144278,
        -8.00831,
        8.279104,
        -2.3997416,
        -4.7245092,
        -4.1600294,
        -6.2244673,
        -6.0913463,
        8.834202,
        9.027981,
        3.6620054,
        3.465146,
        1.4236822,
        -3.8315005,
        3.5842857,
        -0.26877117,
        -3.1896467,
        -4.103863,
        6.8865223,
        1.9683828,
        -6.1922283,
        5.3935947,
        -5.289528,
        -1.1958017,
        -6.582205,
        4.1889057,
        -4.088988,
        2.4450626,
        3.5982952,
        1.1093464,
        -9.959976,
        -4.8898835,
        -7.137844,
        -3.9707274,
        9.971451,
        -0.5168524,
        6.92564,
        -9.067037,
        -6.3322544,
        -5.2490897,
        9.574379,
        4.49936,
        8.95022,
        -4.98167,
        -8.527033,
        3.7357655,
        -0.6538315,
        8.195316,
        -5.757243,
        -7.3611755,
        7.8056297,
        9.927813,
        -3.8335414,
        -1.4360209,
        3.829073,
        -5.744607,
        8.419872,
        5.739006,
        -0.29143238,
        0.13245964,
        2.7983465,
        9.314846,
        9.145977,
        8.304758,
        -9.109489,
        -4.308204,
        3.670267,
        5.88412,
        4.784478,
        0.44928455,
        -8.305227,
        2.3593893,
        -2.8612537,
        -3.6588664,
        -2.7203698,
        5.957526,
        -4.195368,
        -0.78150463,
        -6.9639654,
        1.19625,
        7.791149,
        8.101526,
        3.571948,
        -5.762121,
        7.7283,
        -2.8784533,
        9.019171,
        -2.8819747,
        -9.357538,
        3.718625,
        6.3981915,
        5.6029596,
        -5.6913633,
        -3.84412,
        0.2969513,
        8.532911,
        4.5429144,
        1.2777624,
        -3.141653,
        -0.8702841,
        0.1693716,
        -9.509964,
        0.1091423,
        6.194481,
        7.9982853,
        -9.52167,
        9.533407,
        -4.056248,
        2.943202,
        -7.438879,
        9.952862,
        4.720598,
        -3.0895634,
        -9.719729,
        -1.6712704,
        -2.551517,
        -5.1594133,
        4.0667906,
        -8.13633,
        9.979658,
        -1.5714712,
        -7.4989767,
        1.2616768,
        -0.19187164,
        -0.2557869,
        -9.991586,
        -2.9511971,
        -0.78462315,
        -3.492505,
        0.44246292,
        7.715292,
        8.607086,
        -8.519232,
        -6.2874193,
        -3.1028361,
        8.355465,
        -0.80012226,
        -0.7013645,
        0.7492771,
        7.7946777,
        -6.1429353,
        -3.1996794,
        -0.99918747,
        -8.121448,
        -9.814577,
        1.1965456,
        -6.5388584,
        -9.661617,
        8.323452,
        1.7923965,
        4.7318325,
        -0.43455315,
        -9.938237,
        5.608186,
        -2.7823205,
        -7.653639,
        -4.927277,
        1.983489,
        0.24271107,
        6.604862,
        7.0733852,
        8.2008095,
        -8.464761,
        2.501913,
        -3.4961958,
        -5.0279183,
        8.8851185,
        -0.9619446,
        -7.2748823,
        3.8802633,
        -5.51084,
        -6.8559856,
        -5.271992,
        9.77113,
        1.1768093,
        5.0309076,
        1.2051258,
        5.4925957,
        9.914169,
        8.906389,
        -7.780716,
        -5.2102466,
        -0.80310535,
        -2.288188,
        -8.092427,
        -4.8186703,
        -8.190286,
        -7.4074907,
        -9.681797,
        5.27847,
        -2.6054664,
        0.25786972,
        4.920925,
        8.140736,
        6.916319,
        7.742853,
        -9.066002,
        9.477047,
        3.7222872,
        -9.090149,
        -5.7403274,
        4.547042,
        -4.3443365,
        -7.2380877,
        -5.218379,
        2.3885021,
        8.399076,
        4.0249834,
        -3.3962913,
        -2.0400634,
        5.527581,
        -9.398561,
        -2.0817223,
        -3.8598366,
        -1.4594355,
        3.7717905,
        -9.723678,
        5.72313,
        7.306988,
        6.740553,
        8.583271,
        -8.895056,
        9.540173,
        -2.1478763,
        -1.04741,
        3.6383286,
        9.220297,
        7.090645,
        0.8282223,
        -8.182165,
        -7.1555824,
        -8.62982,
        -9.585945,
        6.4422913,
        9.549618,
        -9.497888,
        9.030365,
        -9.066779,
        -9.495246,
        -2.1394053,
        -9.010096,
        -2.011217,
        -4.0639133,
        3.3459415,
        6.239586,
        5.6248493,
        -3.8120813,
        -4.1120477,
        3.0344095,
        -1.47406,
        0.51667595,
        -2.1659675,
        7.0404816,
        -4.1070576,
        9.077236,
        -8.470122,
        -1.9157209,
        -0.38875008,
        -1.527709,
        0.729743,
        2.9873095,
        0.6621561,
        2.8484478,
        1.6327581,
        -4.239425,
        2.347392,
        0.33105946,
        1.474863,
        8.985033,
        5.9698505,
        1.1253824,
        7.697792,
        5.4864902,
        4.918317,
        -1.4600391,
        -7.607424,
        -1.5854712,
        -6.3992834,
        9.127832,
        1.4213552,
        -7.8680086,
        8.896278,
        -8.201127,
        -7.5254154,
        7.0380993,
        3.107029,
        -0.14597607,
        -8.862216,
        6.1281033,
        -5.5207987,
        0.62050724,
        2.3440514,
        -6.773758,
        -5.86765,
        9.275297,
        -8.468339,
        -4.371912,
        -0.40425968,
        2.475439,
        -6.5663385,
        5.0525064,
        -2.6361246,
        0.9158764,
        9.127649,
        5.192916,
        2.8699865,
        2.2336826,
        1.8401537,
        -1.3910522,
        -2.5260205,
        -0.9651537,
        3.5842714,
        -9.515984,
        -4.3998713,
        -0.49201202,
        8.059969,
        3.797988,
        2.532958,
        -7.3761415,
        -4.9995966,
        4.7500553,
        9.132109,
        4.173456,
        5.7330027,
        -8.430674,
        -9.224102,
        -1.5664072,
        -6.721718,
        -7.677047,
        -0.9160538,
        -2.1641364,
        -8.661661,
        -8.571453,
        -3.3852096,
        1.1845121,
        -5.5985017,
        0.16345882,
        -5.5828424,
        8.55072,
        -9.63278,
        5.503191,
        1.0902891,
        -4.2986007,
        9.568901,
        2.326292,
        -4.936902,
        6.739361,
        -4.2916055,
        -2.6697607,
        0.48174477,
        -7.9677935,
        4.7463093,
        -7.8720856,
        8.217926,
        -7.975383,
        3.0242739,
        8.522087,
        6.7119884,
        -4.3487353,
        -2.7753086,
        4.227639,
        6.9445724,
        3.2125082,
        0.4455576,
        -6.057386,
        -3.789918,
        8.397352,
        -8.925755,
        -4.603247,
        6.530695,
        9.045105,
        -0.7674475,
        -0.1882782,
        -8.586595,
        5.7477016,
        0.4808607,
        -9.048252,
        6.729395,
        -3.9787192,
        7.267084,
        0.96365833,
        -4.320833,
        -3.5924978,
        2.6719465,
        -5.8865566,
        -8.711519,
        4.629587,
        -6.971636,
        4.957184,
        2.6721754,
        9.514984,
        7.5053787,
        5.636424,
        6.065979,
        1.956974,
        -5.1533337,
        -7.7275896,
        9.913343,
        0.5854473,
        -4.9027724,
        -5.173139,
        0.41741467,
        4.9512854,
        -9.069967,
        7.1828804,
        7.8811016,
        8.159994,
        9.046043,
        4.385375,
        8.538519,
        -9.909074,
        4.299635,
        2.255827,
        -9.994121,
        7.3832245,
        7.3645267,
        7.8679504,
        -2.5577826,
        -4.69032,
        -6.866393,
        -2.2013655,
        8.12388,
        -1.1739702,
        9.799835,
        -8.947703,
        9.322634,
        -7.716484,
        -6.8755293,
        6.1669636,
        9.085489,
        7.1231747,
        -9.430577,
        -3.3035035,
        2.9142418,
        8.432884,
        0.7303295,
        2.4321566,
        0.7744751,
        8.601809,
        -5.9443374,
        3.023323,
        2.0821657,
        4.078785,
        -5.226793,
        -4.7795863,
        -3.497395,
        -7.1133137,
        6.4167233,
        3.1861057,
        -3.3256145,
        -8.692999,
        8.430168,
        -7.627866,
        -0.52252007,
        -3.517775,
        -0.4900589,
        -0.61711216,
        9.867397,
        -7.4805183,
        7.613386,
        -3.7226624,
        -8.417358,
        -0.071071625,
        -4.121563,
        -0.16236973,
        -0.97308064,
        8.572336,
        -1.9526978,
        -4.823496,
        -0.6241913,
        -1.0014315,
        8.518574,
        0.5964432,
        9.469816,
        2.19798,
        0.5862942,
        -5.0295777,
        7.5637054,
        -6.9901676,
        1.8188419,
        0.6490383,
        -9.579565,
        6.9662,
        6.726946,
        2.298502,
        2.5567923,
        -6.6254663,
        -3.1073089,
        -6.263771,
        2.5846252,
        9.862677,
        -1.4756432,
        0.97633266,
        -0.67423725,
        1.3848772,
        1.5161047,
        3.0535517,
        -0.08778,
        2.6872625,
        6.3114758,
        -5.7026787,
        1.3618078,
        -3.7289853,
        9.793734,
        -4.697785,
        -7.1859903,
        -8.200984,
        7.982294,
        6.149212,
        -1.5646667,
        -9.8071,
        2.4424086,
        7.4378605,
        2.174429,
        -8.0960865,
        3.3550653,
        -4.192669,
        -9.275438,
        4.120761,
        8.216925,
        0.5906019,
        0.71269417,
        5.831045,
        1.7995987,
        9.548845,
        -0.7742901,
        3.2198153,
        5.8394375,
        -0.33830357,
        -4.39645,
        -9.799253,
        5.5239697,
        -2.4071636,
        -0.7699604,
        -0.20279598,
        -7.4915667,
        5.6370707,
        -5.2761097,
        -0.08596611,
        -6.9629717,
        -6.99028,
        -7.744939,
        -8.876948,
        -5.373847,
        5.387844,
        2.5979557,
        7.3986397,
        1.4897099,
        0.873147,
        -2.0857515,
        -1.8611851,
        -4.9306483,
        8.883116,
        -2.368938,
        -9.571118,
        7.9930305,
        -8.767905,
        9.75938,
        -5.270066,
        -3.1069584,
        8.839788,
        8.309084,
        -1.3309546,
        -9.945345,
        1.6911402,
        1.4061108,
        -0.076643944,
        0.61488056,
        -1.8487825,
        -8.805477,
        7.787056,
        7.4256477,
        -3.377461,
        5.8288593,
        -5.9124537,
        9.178543,
        2.1045313,
        7.248358,
        -0.014118195,
        9.327265,
        -4.2068596,
        -1.7461605,
        2.468649,
        -9.541793,
        -7.941272,
        3.9843187,
        7.7611637,
        -4.603383,
        8.087698,
        -6.757333,
        8.762068,
        7.489216,
        4.8818502,
        -6.8676424,
        2.1221247,
        -4.7949023,
        -3.9379282,
        -8.313815,
        9.129749,
        -1.399478,
        2.0455132,
        -4.167077,
        5.4351892,
        -5.2001853,
        9.112778,
        -8.6056185,
        3.153883,
        3.918005,
        0.76980686,
        -9.639542,
        -1.3410397,
        8.7449665,
        7.8803577,
        -9.429011,
        3.9843788,
        3.7324963,
        -9.07468,
        -1.9027491,
        2.8523312,
        7.150854,
        -9.089877,
        6.3585587,
        -8.484504,
        -4.5699925,
        -9.996693,
        -7.858116,
        -8.29034,
        -4.3931932,
        -9.115572,
        6.4023266,
        -2.2778597,
        5.264677,
        5.390457,
        -3.943767,
        9.666571,
        2.794651,
        -6.294133,
        -2.554216,
        4.63972,
        -9.688416,
        5.661997,
        -0.80943966,
        -8.420178,
        6.7136097,
        3.0670586,
        8.757082,
        3.0190477,
        -7.370496,
        9.323969,
        4.8747244,
        -6.4423466,
        -3.7134857,
        -8.08291,
        0.91497517,
        -8.833976,
        -2.9745812,
        8.462725,
        8.873295,
        -3.7229748,
        7.815954,
        -4.3555565,
        -0.5403557,
        4.460021,
        1.1283264,
        1.6866312,
        -0.82416916,
        7.9732285,
        3.5201445,
        -5.382566,
        -2.4761667,
        6.982685,
        7.0210304,
        -2.623827,
        3.2035198,
        -3.8969274,
        -5.5947323,
        3.3156643,
        0.5672684,
        -1.0131779,
        -6.5438366,
        -6.8680353,
        1.8824205,
        6.2676353,
        -1.2506142,
        5.7819576,
        7.259096,
        -8.627622,
        -6.975381,
        9.854517,
        -4.786398,
        3.2217274,
        4.833976,
        8.874374,
        -6.1920185,
        8.639231,
        2.5199566,
        -6.5901804,
        -4.4675107,
        9.763084,
        1.0795965,
        -8.438535,
        7.376196,
        8.806166,
        8.925154,
        9.920092,
        5.831498,
        7.5826073,
        5.8414593,
        4.3174515,
        1.7732487,
        1.3770285,
        -9.42657,
        6.664835,
        4.7235336,
        -8.678166,
        5.8363,
        -0.54699326,
        0.737504,
        -6.753084,
        -1.4526529,
        -6.419608,
        5.008251,
        5.054943,
        -3.2548327,
        0.7757225,
        4.360448,
        -5.11491,
        -9.771897,
        -3.764598,
        -7.070141,
        -2.0250335,
        7.119564,
        -0.66013527,
        -8.57949,
        5.798129,
        -8.8570595,
        -4.0291615,
        0.81970596,
        1.626092,
        6.8281517,
        -2.5001736,
        7.4117813,
        2.1105137,
        -0.07448387,
        9.598738,
        5.609462,
        7.00572,
        7.29747,
        3.3408966,
        -1.7084045,
        -6.5205975,
        8.762363,
        6.352066,
        8.432446,
        4.646531,
        3.8026485,
        -6.54665,
        -7.3848457,
        6.3976135,
        9.469341,
        1.3769808,
        8.749041,
        0.45628452,
        -0.6496086,
        -9.686871,
        -7.955489,
        7.733938,
        6.423172,
        4.7964134,
        6.7037106,
        2.8077087,
        5.8286114,
        5.835699,
        3.8327208,
        5.655383,
        -7.286522,
        -0.07228565,
        -2.9462237,
        -3.269343,
        -7.7026625,
        -5.843107,
        -7.142887,
        8.8832,
        9.141428,
        8.223038,
        -1.5410538,
        1.9204273,
        -0.467371,
        1.4522972,
        3.5670624,
        9.076197,
        -8.745108,
        4.0879,
        -4.0408607,
        -8.939473,
        -5.6578274,
        -7.567587,
        -5.738208,
        5.9768314,
        0.7858982,
        -2.4243226,
        -6.205098,
        -9.658966,
        0.77684975,
        3.2628927,
        -2.834651,
        -9.870815,
        0.89204216,
        -7.8326435,
        -4.8792453,
        4.520954,
        -2.7181191,
        -2.2739997,
        2.2005854,
        -0.01656437,
        8.236439,
        2.364932,
        7.4739285,
        -9.245257,
        4.88957,
        2.4859438,
        6.3409824,
        -9.544327,
        -4.663746,
        -6.0137815,
        7.7945366,
        -0.7168884,
        5.237934,
        -3.8478823,
        9.906847,
        0.36878967,
        -1.2575359,
        4.416457,
        -3.2118816,
        -7.153842,
        1.894001,
        -8.923704,
        5.939416,
        -7.432823,
        -3.4081311,
        5.4808207,
        3.370453,
        0.41302586,
        -9.412314,
        7.6009865,
        -7.78615,
        -4.7609944,
        -9.713831,
        -1.4930649,
        -8.506972,
        -0.7868023,
        -5.13514,
        -0.3804674,
        8.672787,
        5.399067,
        -8.0729885,
        3.0777988,
        3.3710442,
        2.1028528,
        2.121643,
        -3.7386317,
        -1.8239489,
        -1.8885965,
        8.714209,
        9.692356,
        -2.572319,
        3.3930597,
        -7.044444,
        6.093973,
        7.34544,
        2.4430122,
        5.6824465,
        -4.2714567,
        -7.2548532,
        -6.438753,
        -0.8877487,
        -4.91775,
        5.407647,
        -1.6734762,
        7.803589,
        1.0800037,
        -2.6786585,
        -5.9393163,
        -7.942815,
        7.870268,
        8.926798,
        -5.254032,
        -1.5711327,
        5.243005,
        4.7488174,
        7.9930134,
        -8.5568285,
        -2.8277845,
        -7.80097,
        -9.551532,
        -6.0044403,
        3.6335983,
        8.780962,
        -9.475681,
        3.782133,
        -7.241111,
        5.30064,
        -3.8489218,
        5.81077,
        2.586874,
        -4.180419,
        -8.094604,
        9.808613,
        -2.258381,
        -7.732649,
        -6.0632486,
        1.7346325,
        -0.058192253,
        -3.5569067,
        6.943716,
        -7.131233,
        -6.5341015,
        -9.661719,
        -3.2169266,
        -3.2061667,
        -2.9419632,
        4.92288,
        6.3089905,
        4.371916,
        4.2497387,
        -8.808413,
        2.158948,
        -7.463214,
        5.8786573,
        6.859209,
        -2.3604407,
        9.245932,
        -2.037889,
        -7.806961,
        -0.43586922,
        0.74072266,
        -1.187417,
        1.8536415,
        -1.6752377,
        8.805849,
        5.1420918,
        3.229436,
        -1.7567272,
        -3.0891795,
        5.8704824,
        9.681267,
        -9.278233,
        0.48794365,
        -2.6486511,
        -9.30402,
        -7.0389843,
        7.683422,
        0.68787956,
        -9.703643,
        -9.026639,
        4.6359196,
        7.9934998,
        -8.079324,
        -7.611027,
        2.3683462,
        -5.188143,
        3.5457602,
        5.8480253,
        2.4941769,
        -4.6403713,
        -8.75344,
        0.32927895,
        -1.6912384,
        -0.16623211,
        -3.9296575,
        -4.0355988,
        -2.8009171,
        -1.9792833,
        -0.6642647,
        -3.1933923,
        -0.6639519,
        -0.23920918,
        5.8795633,
        0.60412025,
        0.73534393,
        8.204597,
        -8.301139,
        6.5534744,
        5.2761908,
        -4.4490786,
        4.544297,
        8.172602,
        -9.910709,
        -2.2093215,
        6.7872944,
        2.0700207,
        -0.8916588,
        -4.438693,
        8.237625,
        0.9423599,
        -0.7666292,
        -7.944894,
        6.914444,
        0.9397831,
        -0.106446266,
        -4.3586655,
        8.617378,
        -7.422044,
        -6.535015,
        -1.2081852,
        -4.925875,
        -5.2768035,
        5.5193777,
        -3.6163015,
        7.537548,
        -5.357148,
        2.202958,
        -7.266283,
        5.3049965,
        -7.2842693,
        8.840929,
        -2.3566809,
        -6.6655035,
        -2.2805657,
        9.996149,
        -2.816443,
        3.9383945,
        0.9595547,
        -6.556465,
        3.1072245,
        3.009776,
        -2.5730987,
        -5.297026,
        5.5340853,
        -9.54499,
        -3.577251,
        -8.647299,
        -6.0580297,
        -3.2469625,
        0.70735073,
        9.6507015,
        3.6404572,
        -3.7655754,
        2.2853527,
        3.402563,
        4.403075,
        -9.085522,
        -7.4682713,
        -5.4459043,
        3.0287132,
        -3.7973328,
        -8.667767,
        -2.8137226,
        -0.82270336,
        7.4865074,
        -3.5960646,
        0.3824129,
        -2.5571508,
        -5.6155725,
        -2.1497216,
        9.757395,
        -3.2154794,
        -4.6643085,
        -7.186143,
        5.9382715,
        3.1659927,
        0.103803635,
        5.9583893,
        1.1023674,
        -6.7274494,
        -4.436712,
        -8.483855,
        -4.6973414,
        -9.133067,
        9.685431,
        -5.487215,
        -9.894278,
        -7.4957323,
        -7.799465,
        -4.6515794,
        -8.053638,
        7.524601,
        -5.8436437,
        -5.135605,
        1.4784155,
        -6.6129446,
        -6.8150063,
        6.41638,
        -9.7473545
      ]
    },
    {
      "index": 2,
      "output": -1.0,
      "input_connections": [
        [
          0,
          0.7149056
        ],
        [
          1,
          -0.6616659
        ],
        [
          3,
          7.580776
        ],
        [
          4,
          0.0
        ],
        [
          5,
          0.14092076
        ],
        [
          6,
          0.0
        ],
        [
          7,
          0.0
        ]
      ],
      "bias": 0.012519398,
      "self_activation": -0.19569123,
      "retina_weights": [
        -3.1671305,
        -3.5562773,
        6.0574684,
        1.0596695,
        1.0102997,
        8.117727,
        0.9332695,
        4.4306984,
        -9.673755,
        -3.4365506,
        9.810089,
        -7.0303173,
        2.78129,
        6.998125,
        3.988556,
        8.590828,
        5.782058,
        -3.316774,
        -8.0972595,
        -3.351335,
        -4.682979,
        9.824724,
        -8.676116,
        7.976715,
        0.45812225,
        -4.6061177,
        -9.268923,
        4.8089848,
        9.607796,
        8.742966,
        -0.9736624,
        -7.8540344,
        2.430791,
        -0.17258835,
        -8.917152,
        4.1461935,
        0.9539547,
        -5.907087,
        6.7359104,
        -0.04482174,
        -3.867144,
        -6.7692184,
        6.634035,
        -8.730917,
        -2.7658672,
        3.1564865,
        4.40926,
        -2.996356,
        4.7197237,
        1.3178501,
        3.8847551,
        -4.8884554,
        5.985793,
        6.182625,
        -2.1067157,
        1.6389809,
        -1.7065687,
        -7.8317566,
        4.408861,
        -4.264483,
        4.5292654,
        7.20294,
        6.2353745,
        -8.200376,
        -2.825851,
        6.782837,
        8.591543,
        9.794117,
        -4.61976,
        -0.71800613,
        -8.282997,
        9.205732,
        0.3824196,
        0.10043526,
        0.8170595,
        -2.3464408,
        -5.673928,
        7.1088696,
        -1.9854565,
        3.3153973,
        5.1919737,
        7.7027855,
        -9.150953,
        5.328452,
        2.9295502,
        4.581808,
        9.016977,
        1.3568058,
        -3.5314007,
        4.5105305,
        7.718546,
        8.17654,
        7.3996315,
        5.3574295,
        0.17956161,
        -5.631952,
        1.837739,
        -4.5580454,
        6.1584034,
        -5.5602593,
        9.383778,
        -2.864048,
        -3.7505336,
        -9.959132,
        -6.5660543,
        6.6094017,
        -2.3737445,
        -1.4082308,
        -4.203288,
        -3.5134835,
        -1.5577383,
        5.1581116,
        -1.6599741,
        8.796965,
        1.0240021,
        -4.037747,
        -1.5900078,
        1.8019905,
        -6.810808,
        -7.6497984,
        -0.9032335,
        8.0066395,
        4.7508106,
        1.8971195,
        -9.455433,
        2.8028069,
        -1.7075815,
        2.4909916,
        -9.117584,
        -1.4499207,
        -6.6347647,
        -2.5298781,
        6.5387917,
        6.875555,
        1.4443436,
        -2.2462406,
        -3.101749,
        -8.258882,
        4.561244,
        2.567235,
        5.40302,
        -2.9674597,
        -6.62749,
        0.17741585,
        -4.2418284,
        -1.8210688,
        8.540379,
        -2.531938,
        -2.4913254,
        -1.5631552,
        -7.4275656,
        9.136612,
        3.1343212,
        1.3264742,
        7.6023197,
        -7.6656218,
        1.4617071,
        -7.0336504,
        1.5659437,
        -3.8613243,
        -5.2348967,
        -5.5054064,
        4.5821533,
        7.44351,
        -2.1443954,
        -0.14457417,
        9.915775,
        6.3232136,
        3.1237087,
        1.0161791,
        -3.8479252,
        2.1120462,
        -1.024827,
        2.718152,
        -3.2013865,
        -8.766801,
        2.591959,
        9.105131,
        8.266005,
        -4.8382087,
        -9.524183,
        -4.678771,
        -3.4205313,
        5.48825,
        -9.754483,
        7.27853,
        -8.28274,
        1.8828049,
        -1.6248102,
        3.7782679,
        4.709305,
        7.6087894,
        -2.9321833,
        -2.4731007,
        -1.8879976,
        9.84544,
        -7.6954527,
        6.1280403,
        2.8412333,
        -6.283822,
        8.825953,
        -2.7521152,
        2.0285978,
        -9.273372,
        6.6829205,
        -8.095207,
        -8.425126,
        -3.0645914,
        -9.846289,
        -8.856565,
        -0.34561348,
        3.5886774,
        7.4387856,
        -5.9977336,
        0.5166378,
        -8.015265,
        -4.01756,
        -4.040975,
        -3.8322825,
        4.0954866,
        -1.8475285,
        1.4271889,
        -4.2733974,
        2.960559,
        5.0283165,
        2.9568233,
        -1.5401497,
        4.9409714,
        -3.6050434,
        8.400175,
        7.3411427,
        3.0404577,
        7.559843,
        -3.1909056,
        -8.071539,
        -0.01808548,
        0.715991,
        8.486301,
        -5.4729195,
        -4.9902864,
        9.5331955,
        -9.340908,
        -2.440516,
        4.8255434,
        -3.1903954,
        2.8034582,
        -7.305848,
        5.3319206,
        -3.331327,
        -9.483399,
        -4.2654915,
        -2.6619906,
        1.7226162,
        -3.430657,
        -6.720664,
        -3.8138337,
        0.3395548,
        6.4617825,
        1.8411293,
        -2.3200955,
        -5.0051827,
        -8.651611,
        -4.021506,
        3.3463945,
        8.2579155,
        -7.2008867,
        3.4869728,
        -1.5679617,
        7.8911343,
        -8.950908,
        -6.332402,
        8.678612,
        5.2333136,
        -0.80943966,
        -6.3334227,
        4.568802,
        -1.803195,
        -8.904171,
        7.3677483,
        7.041752,
        7.081814,
        -1.3843431,
        -3.2325573,
        1.8407688,
        0.23484612,
        -5.9144278,
        -8.00831,
        8.279104,
        -2.3997416,
        -4.7245092,
        -4.1600294,
        -6.2244673,
        -6.0913463,
        8.834202,
        9.027981,
        3.6620054,
        3.465146,
        1.4236822,
        -3.8315005,
        3.5842857,
        -0.26877117,
        -3.1896467,
        -4.103863,
        6.8865223,
        1.9683828,
        -6.1922283,
        5.3935947,
        -5.289528,
        -1.1958017,
        -6.582205,
        4.1889057,
        -4.088988,
        2.4450626,
        3.5982952,
        1.1093464,
        -9.959976,
        -4.8898835,
        -7.137844,
        -3.9707274,
        9.971451,
        -0.5168524,
        6.92564,
        -9.067037,
        -6.3322544,
        -5.2490897,
        9.574379,
        4.49936,
        8.95022,
        -4.98167,
        -8.527033,
        3.7357655,
        -0.6538315,
        8.195316,
        -5.757243,
        -7.3611755,
        7.8056297,
        9.927813,
        -3.8335414,
        -1.4360209,
        3.829073,
        -5.744607,
        8.419872,
        5.739006,
        -0.29143238,
        0.13245964,
        2.7983465,
        9.314846,
        9.145977,
        8.304758,
        -9.109489,
        -4.308204,
        3.670267,
        5.88412,
        4.784478,
        0.44928455,
        -8.305227,
        2.3593893,
        -2.8612537,
        -3.6588664,
        -2.7203698,
        5.957526,
        -4.195368,
        -0.78150463,
        -6.9639654,
        1.19625,
        7.791149,
        8.101526,
        3.571948,
        -5.762121,
        7.7283,
        -2.8784533,
        9.019171,
        -2.8819747,
        -9.357538,
        3.718625,
        6.3981915,
        5.6029596,
        -5.6913633,
        -3.84412,
        0.2969513,
        8.532911,
        4.5429144,
        1.2777624,
        -3.141653,
        -0.8702841,
        0.1693716,
        -9.509964,
        0.1091423,
        6.194481,
        7.9982853,
        -9.52167,
        9.533407,
        -4.056248,
        2.943202,
        -7.438879,
        9.952862,
        4.720598,
        -3.0895634,
        -9.719729,
        -1.6712704,
        -2.551517,
        -5.1594133,
        4.0667906,
        -8.13633,
        9.979658,
        -1.5714712,
        -7.4989767,
        1.2616768,
        -0.19187164,
        -0.2557869,
        -9.991586,
        -2.9511971,
        -0.78462315,
        -3.492505,
        0.44246292,
        7.715292,
        8.607086,
        -8.519232,
        -6.2874193,
        -3.1028361,
        8.355465,
        -0.80012226,
        -0.7013645,
        0.7492771,
        7.7946777,
        -6.1429353,
        -3.1996794,
        -0.99918747,
        -8.121448,
        -9.814577,
        1.1965456,
        -6.5388584,
        -9.661617,
        8.323452,
        1.7923965,
        4.7318325,
        -0.43455315,
        -9.938237,
        5.608186,
        -2.7823205,
        -7.653639,
        -4.927277,
        1.983489,
        0.24271107,
        6.604862,
        7.0733852,
        8.2008095,
        -8.464761,
        2.501913,
        -3.4961958,
        -5.0279183,
        8.8851185,
        -0.9619446,
        -7.2748823,
        3.8802633,
        -5.51084,
        -6.8559856,
        -5.271992,
        9.77113,
        1.1768093,
        5.0309076,
        1.2051258,
        5.4925957,
        9.914169,
        8.906389,
        -7.780716,
        -5.2102466,
        -0.80310535,
        -2.288188,
        -8.092427,
        -4.8186703,
        -8.190286,
        -7.4074907,
        -9.681797,
        5.27847,
        -2.6054664,
        0.25786972,
        4.920925,
        8.140736,
        6.916319,
        7.742853,
        -9.066002,
        9.477047,
        3.7222872,
        -9.090149,
        -5.7403274,
        4.547042,
        -4.3443365,
        -7.2380877,
        -5.218379,
        2.3885021,
        8.399076,
        4.0249834,
        -3.3962913,
        -2.0400634,
        5.527581,
        -9.398561,
        -2.0817223,
        -3.8598366,
        -1.4594355,
        3.7717905,
        -9.723678,
        5.72313,
        7.306988,
        6.740553,
        8.583271,
        -8.895056,
        9.540173,
        -2.1478763,
        -1.04741,
        3.6383286,
        9.220297,
        7.090645,
        0.8282223,
        -8.182165,
        -7.1555824,
        -8.62982,
        -9.585945,
        6.4422913,
        9.549618,
        -9.497888,
        9.030365,
        -9.066779,
        -9.495246,
        -2.1394053,
        -9.010096,
        -2.011217,
        -4.0639133,
        3.3459415,
        6.239586,
        5.6248493,
        -3.8120813,
        -4.1120477,
        3.0344095,
        -1.47406,
        0.51667595,
        -2.1659675,
        7.0404816,
        -4.1070576,
        9.077236,
        -8.470122,
        -1.9157209,
        -0.38875008,
        -1.527709,
        0.729743,
        2.9873095,
        0.6621561,
        2.8484478,
        1.6327581,
        -4.239425,
        2.347392,
        0.33105946,
        1.474863,
        8.985033,
        5.9698505,
        1.1253824,
        7.697792,
        5.4864902,
        4.918317,
        -1.4600391,
        -7.607424,
        -1.5854712,
        -6.3992834,
        9.127832,
        1.4213552,
        -7.8680086,
        8.896278,
        -8.201127,
        -7.5254154,
        7.0380993,
        3.107029,
        -0.14597607,
        -8.862216,
        6.1281033,
        -5.5207987,
        0.62050724,
        2.3440514,
        -6.773758,
        -5.86765,
        9.275297,
        -8.468339,
        -4.371912,
        -0.40425968,
        2.475439,
        -6.5663385,
        5.0525064,
        -2.6361246,
        0.9158764,
        9.127649,
        5.192916,
        2.8699865,
        2.2336826,
        1.8401537,
        -1.3910522,
        -2.5260205,
        -0.9651537,
        3.5842714,
        -9.515984,
        -4.3998713,
        -0.49201202,
        8.059969,
        3.797988,
        2.532958,
        -7.3761415,
        -4.9995966,
        4.7500553,
        9.132109,
        4.173456,
        5.7330027,
        -8.430674,
        -9.224102,
        -1.5664072,
        -6.721718,
        -7.677047,
        -0.9160538,
        -2.1641364,
        -8.661661,
        -8.571453,
        -3.3852096,
        1.1845121,
        -5.5985017,
        0.16345882,
        -5.5828424,
        8.55072,
        -9.63278,
        5.503191,
        1.0902891,
        -4.2986007,
        9.568901,
        2.326292,
        -4.936902,
        6.739361,
        -4.2916055,
        -2.6697607,
        0.48174477,
        -7.9677935,
        4.7463093,
        -7.8720856,
        8.217926,
        -7.975383,
        3.0242739,
        8.522087,
        6.7119884,
        -4.3487353,
        -2.7753086,
        4.227639,
        6.9445724,
        3.2125082,
        0.4455576,
        -6.057386,
        -3.789918,
        8.397352,
        -8.925755,
        -4.603247,
        6.530695,
        9.045105,
        -0.7674475,
        -0.1882782,
        -8.586595,
        5.7477016,
        0.4808607,
        -9.048252,
        6.729395,
        -3.9787192,
        7.267084,
        0.96365833,
        -4.320833,
        -3.5924978,
        2.6719465,
        -5.8865566,
        -8.711519,
        4.629587,
        -6.971636,
        4.957184,
        2.6721754,
        9.514984,
        7.5053787,
        5.636424,
        6.065979,
        1.956974,
        -5.1533337,
        -7.7275896,
        9.913343,
        0.5854473,
        -4.9027724,
        -5.173139,
        0.41741467,
        4.9512854,
        -9.069967,
        7.1828804,
        7.8811016,
        8.159994,
        9.046043,
        4.385375,
        8.538519,
        -9.909074,
        4.299635,
        2.255827,
        -9.994121,
        7.3832245,
        7.3645267,
        7.8679504,
        -2.5577826,
        -4.69032,
        -6.866393,
        -2.2013655,
        8.12388,
        -1.1739702,
        9.799835,
        -8.947703,
        9.322634,
        -7.716484,
        -6.8755293,
        6.1669636,
        9.085489,
        7.1231747,
        -9.430577,
        -3.3035035,
        2.9142418,
        8.432884,
        0.7303295,
        2.4321566,
        0.7744751,
        8.601809,
        -5.9443374,
        3.023323,
        2.0821657,
        4.078785,
        -5.226793,
        -4.7795863,
        -3.497395,
        -7.1133137,
        6.4167233,
        3.1861057,
        -3.3256145,
        -8.692999,
        8.430168,
        -7.627866,
        -0.52252007,
        -3.517775,
        -0.4900589,
        -0.61711216,
        9.867397,
        -7.4805183,
        7.613386,
        -3.7226624,
        -8.417358,
        -0.071071625,
        -4.121563,
        -0.16236973,
        -0.97308064,
        8.572336,
        -1.9526978,
        -4.823496,
        -0.6241913,
        -1.0014315,
        8.518574,
        0.5964432,
        9.469816,
        2.19798,
        0.5862942,
        -5.0295777,
        7.5637054,
        -6.9901676,
        1.8188419,
        0.6490383,
        -9.579565,
        6.9662,
        6.726946,
        2.298502,
        2.5567923,
        -6.6254663,
        -3.1073089,
        -6.263771,
        2.5846252,
        9.862677,
        -1.4756432,
        0.97633266,
        -0.67423725,
        1.3848772,
        1.5161047,
        3.0535517,
        -0.08778,
        2.6872625,
        6.3114758,
        -5.7026787,
        1.3618078,
        -3.7289853,
        9.793734,
        -4.697785,
        -7.1859903,
        -8.200984,
        7.982294,
        6.149212,
        -1.5646667,
        -9.8071,
        2.4424086,
        7.4378605,
        2.174429,
        -8.0960865,
        3.3550653,
        -4.192669,
        -9.275438,
        4.120761,
        8.216925,
        0.5906019,
        0.71269417,
        5.831045,
        1.7995987,
        9.548845,
        -0.7742901,
        3.2198153,
        5.8394375,
        -0.33830357,
        -4.39645,
        -9.799253,
        5.5239697,
        -2.4071636,
        -0.7699604,
        -0.20279598,
        -7.4915667,
        5.6370707,
        -5.2761097,
        -0.08596611,
        -6.9629717,
        -6.99028,
        -7.744939,
        -8.876948,
        -5.373847,
        5.387844,
        2.5979557,
        7.3986397,
        1.4897099,
        0.873147,
        -2.0857515,
        -1.8611851,
        -4.9306483,
        8.883116,
        -2.368938,
        -9.571118,
        7.9930305,
        -8.767905,
        9.75938,
        -5.270066,
        -3.1069584,
        8.839788,
        8.309084,
        -1.3309546,
        -9.945345,
        1.6911402,
        1.4061108,
        -0.076643944,
        0.61488056,
        -1.8487825,
        -8.805477,
        7.787056,
        7.4256477,
        -3.377461,
        5.8288593,
        -5.9124537,
        9.178543,
        2.1045313,
        7.248358,
        -0.014118195,
        9.327265,
        -4.2068596,
        -1.7461605,
        2.468649,
        -9.541793,
        -7.941272,
        3.9843187,
        7.7611637,
        -4.603383,
        8.087698,
        -6.757333,
        8.762068,
        7.489216,
        4.8818502,
        -6.8676424,
        2.1221247,
        -4.7949023,
        -3.9379282,
        -8.313815,
        9.129749,
        -1.399478,
        2.0455132,
        -4.167077,
        5.4351892,
        -5.2001853,
        9.112778,
        -8.6056185,
        3.153883,
        3.918005,
        0.76980686,
        -9.639542,
        -1.3410397,
        8.7449665,
        7.8803577,
        -9.429011,
        3.9843788,
        3.7324963,
        -9.07468,
        -1.9027491,
        2.8523312,
        7.150854,
        -9.089877,
        6.3585587,
        -8.484504,
        -4.5699925,
        -9.996693,
        -7.858116,
        -8.29034,
        -4.3931932,
        -9.115572,
        6.4023266,
        -2.2778597,
        5.264677,
        5.390457,
        -3.943767,
        9.666571,
        2.794651,
        -6.294133,
        -2.554216,
        4.63972,
        -9.688416,
        5.661997,
        -0.80943966,
        -8.420178,
        6.7136097,
        3.0670586,
        8.757082,
        3.0190477,
        -7.370496,
        9.323969,
        4.8747244,
        -6.4423466,
        -3.7134857,
        -8.08291,
        0.91497517,
        -8.833976,
        -2.9745812,
        8.462725,
        8.873295,
        -3.7229748,
        7.815954,
        -4.3555565,
        -0.5403557,
        4.460021,
        1.1283264,
        1.6866312,
        -0.82416916,
        7.9732285,
        3.5201445,
        -5.382566,
        -2.4761667,
        6.982685,
        7.0210304,
        -2.623827,
        3.2035198,
        -3.8969274,
        -5.5947323,
        3.3156643,
        0.5672684,
        -1.0131779,
        -6.5438366,
        -6.8680353,
        1.8824205,
        6.2676353,
        -1.2506142,
        5.7819576,
        7.259096,
        -8.627622,
        -6.975381,
        9.854517,
        -4.786398,
        3.2217274,
        4.833976,
        8.874374,
        -6.1920185,
        8.639231,
        2.5199566,
        -6.5901804,
        -4.4675107,
        9.763084,
        1.0795965,
        -8.438535,
        7.376196,
        8.806166,
        8.925154,
        9.920092,
        5.831498,
        7.5826073,
        5.8414593,
        4.3174515,
        1.7732487,
        1.3770285,
        -9.42657,
        6.664835,
        4.7235336,
        -8.678166,
        5.8363,
        -0.54699326,
        0.737504,
        -6.753084,
        -1.4526529,
        -6.419608,
        5.008251,
        5.054943,
        -3.2548327,
        0.7757225,
        4.360448,
        -5.11491,
        -9.771897,
        -3.764598,
        -7.070141,
        -2.0250335,
        7.119564,
        -0.66013527,
        -8.57949,
        5.798129,
        -8.8570595,
        -4.0291615,
        0.81970596,
        1.626092,
        6.8281517,
        -2.5001736,
        7.4117813,
        2.1105137,
        -0.07448387,
        9.598738,
        5.609462,
        7.00572,
        7.29747,
        3.3408966,
        -1.7084045,
        -6.5205975,
        8.762363,
        6.352066,
        8.432446,
        4.646531,
        3.8026485,
        -6.54665,
        -7.3848457,
        6.3976135,
        9.469341,
        1.3769808,
        8.749041,
        0.45628452,
        -0.6496086,
        -9.686871,
        -7.955489,
        7.733938,
        6.423172,
        4.7964134,
        6.7037106,
        2.8077087,
        5.8286114,
        5.835699,
        3.8327208,
        5.655383,
        -7.286522,
        -0.07228565,
        -2.9462237,
        -3.269343,
        -7.7026625,
        -5.843107,
        -7.142887,
        8.8832,
        9.141428,
        8.223038,
        -1.5410538,
        1.9204273,
        -0.467371,
        1.4522972,
        3.5670624,
        9.076197,
        -8.745108,
        4.0879,
        -4.0408607,
        -8.939473,
        -5.6578274,
        -7.567587,
        -5.738208,
        5.9768314,
        0.7858982,
        -2.4243226,
        -6.205098,
        -9.658966,
        0.77684975,
        3.2628927,
        -2.834651,
        -9.870815,
        0.89204216,
        -7.8326435,
        -4.8792453,
        4.520954,
        -2.7181191,
        -2.2739997,
        2.2005854,
        -0.01656437,
        8.236439,
        2.364932,
        7.4739285,
        -9.245257,
        4.88957,
        2.4859438,
        6.3409824,
        -9.544327,
        -4.663746,
        -6.0137815,
        7.7945366,
        -0.7168884,
        5.237934,
        -3.8478823,
        9.906847,
        0.36878967,
        -1.2575359,
        4.416457,
        -3.2118816,
        -7.153842,
        1.894001,
        -8.923704,
        5.939416,
        -7.432823,
        -3.4081311,
        5.4808207,
        3.370453,
        0.41302586,
        -9.412314,
        7.6009865,
        -7.78615,
        -4.7609944,
        -9.713831,
        -1.4930649,
        -8.506972,
        -0.7868023,
        -5.13514,
        -0.3804674,
        8.672787,
        5.399067,
        -8.0729885,
        3.0777988,
        3.3710442,
        2.1028528,
        2.121643,
        -3.7386317,
        -1.8239489,
        -1.8885965,
        8.714209,
        9.692356,
        -2.572319,
        3.3930597,
        -7.044444,
        6.093973,
        7.34544,
        2.4430122,
        5.6824465,
        -4.2714567,
        -7.2548532,
        -6.438753,
        -0.8877487,
        -4.91775,
        5.407647,
        -1.6734762,
        7.803589,
        1.0800037,
        -2.6786585,
        -5.9393163,
        -7.942815,
        7.870268,
        8.926798,
        -5.254032,
        -1.5711327,
        5.243005,
        4.7488174,
        7.9930134,
        -8.5568285,
        -2.8277845,
        -7.80097,
        -9.551532,
        -6.0044403,
        3.6335983,
        8.780962,
        -9.475681,
        3.782133,
        -7.241111,
        5.30064,
        -3.8489218,
        5.81077,
        2.586874,
        -4.180419,
        -8.094604,
        9.808613,
        -2.258381,
        -7.732649,
        -6.0632486,
        1.7346325,
        -0.058192253,
        -3.5569067,
        6.943716,
        -7.131233,
        -6.5341015,
        -9.661719,
        -3.2169266,
        -3.2061667,
        -2.9419632,
        4.92288,
        6.3089905,
        4.371916,
        4.2497387,
        -8.808413,
        2.158948,
        -7.463214,
        5.8786573,
        6.859209,
        -2.3604407,
        9.245932,
        -2.037889,
        -7.806961,
        -0.43586922,
        0.74072266,
        -1.187417,
        1.8536415,
        -1.6752377,
        8.805849,
        5.1420918,
        3.229436,
        -1.7567272,
        -3.0891795,
        5.8704824,
        9.681267,
        -9.278233,
        0.48794365,
        -2.6486511,
        -9.30402,
        -7.0389843,
        7.683422,
        0.68787956,
        -9.703643,
        -9.026639,
        4.6359196,
        7.9934998,
        -8.079324,
        -7.611027,
        2.3683462,
        -5.188143,
        3.5457602,
        5.8480253,
        2.4941769,
        -4.6403713,
        -8.75344,
        0.32927895,
        -1.6912384,
        -0.16623211,
        -3.9296575,
        -4.0355988,
        -2.8009171,
        -1.9792833,
        -0.6642647,
        -3.1933923,
        -0.6639519,
        -0.23920918,
        5.8795633,
        0.60412025,
        0.73534393,
        8.204597,
        -8.301139,
        6.5534744,
        5.2761908,
        -4.4490786,
        4.544297,
        8.172602,
        -9.910709,
        -2.2093215,
        6.7872944,
        2.0700207,
        -0.8916588,
        -4.438693,
        8.237625,
        0.9423599,
        -0.7666292,
        -7.944894,
        6.914444,
        0.9397831,
        -0.106446266,
        -4.3586655,
        8.617378,
        -7.422044,
        -6.535015,
        -1.2081852,
        -4.925875,
        -5.2768035,
        5.5193777,
        -3.6163015,
        7.537548,
        -5.357148,
        2.202958,
        -7.266283,
        5.3049965,
        -7.2842693,
        8.840929,
        -2.3566809,
        -6.6655035,
        -2.2805657,
        9.996149,
        -2.816443,
        3.9383945,
        0.9595547,
        -6.556465,
        3.1072245,
        3.009776,
        -2.5730987,
        -5.297026,
        5.5340853,
        -9.54499,
        -3.577251,
        -8.647299,
        -6.0580297,
        -3.2469625,
        0.70735073,
        9.6507015,
        3.6404572,
        -3.7655754,
        2.2853527,
        3.402563,
        4.403075,
        -9.085522,
        -7.4682713,
        -5.4459043,
        3.0287132,
        -3.7973328,
        -8.667767,
        -2.8137226,
        -0.82270336,
        7.4865074,
        -3.5960646,
        0.3824129,
        -2.5571508,
        -5.6155725,
        -2.1497216,
        9.757395,
        -3.2154794,
        -4.6643085,
        -7.186143,
        5.9382715,
        3.1659927,
        0.103803635,
        5.9583893,
        1.1023674,
        -6.7274494,
        -4.436712,
        -8.483855,
        -4.6973414,
        -9.133067,
        9.685431,
        -5.487215,
        -9.894278,
        -7.4957323,
        -7.799465,
        -4.6515794,
        -8.053638,
        7.524601,
        -5.8436437,
        -5.135605,
        1.4784155,
        -6.6129446,
        -6.8150063,
        6.41638,
        -9.7473545
      ]
    },
    {
      "index": 3,
      "output": -1.0,
      "input_connections": [
        [
          0,
          0.0
        ],
        [
          1,
          0.0
        ],
        [
          2,
          0.0
        ],
        [
          4,
          0.0
        ],
        [
          5,
          0.0
        ],
        [
          6,
          0.30159047
        ],
        [
          7,
          -0.040339038
        ]
      ],
      "bias": 0.0,
      "self_activation": 0.0,
      "retina_weights": [
        -3.1671305,
        -3.5562773,
        6.0574684,
        1.0596695,
        1.0102997,
        8.117727,
        0.9332695,
        4.4306984,
        -9.673755,
        -3.4365506,
        9.810089,
        -7.0303173,
        2.78129,
        6.998125,
        3.988556,
        8.590828,
        5.782058,
        -3.316774,
        -8.0972595,
        -3.351335,
        -4.682979,
        9.824724,
        -8.676116,
        7.976715,
        0.45812225,
        -4.6061177,
        -9.268923,
        4.8089848,
        9.607796,
        8.742966,
        -0.9736624,
        -7.8540344,
        2.430791,
        -0.17258835,
        -8.917152,
        4.1461935,
        0.9539547,
        -5.907087,
        6.7359104,
        -0.04482174,
        -3.867144,
        -6.7692184,
        6.634035,
        -8.730917,
        -2.7658672,
        3.1564865,
        4.40926,
        -2.996356,
        4.7197237,
        1.3178501,
        3.8847551,
        -4.8884554,
        5.985793,
        6.182625,
        -2.1067157,
        1.6389809,
        -1.7065687,
        -7.8317566,
        4.408861,
        -4.264483,
        4.5292654,
        7.20294,
        6.2353745,
        -8.200376,
        -2.825851,
        6.782837,
        8.591543,
        9.794117,
        -4.61976,
        -0.71800613,
        -8.282997,
        9.205732,
        0.3824196,
        0.10043526,
        0.8170595,
        -2.3464408,
        -5.673928,
        7.1088696,
        -1.9854565,
        3.3153973,
        5.1919737,
        7.7027855,
        -9.150953,
        5.328452,
        2.9295502,
        4.581808,
        9.016977,
        1.3568058,
        -3.5314007,
        4.5105305,
        7.718546,
        8.17654,
        7.3996315,
        5.3574295,
        0.17956161,
        -5.631952,
        1.837739,
        -4.5580454,
        6.1584034,
        -5.5602593,
        9.383778,
        -2.864048,
        -3.7505336,
        -9.959132,
        -6.5660543,
        6.6094017,
        -2.3737445,
        -1.4082308,
        -4.203288,
        -3.5134835,
        -1.5577383,
        5.1581116,
        -1.6599741,
        8.796965,
        1.0240021,
        -4.037747,
        -1.5900078,
        1.8019905,
        -6.810808,
        -7.6497984,
        -0.9032335,
        8.0066395,
        4.7508106,
        1.8971195,
        -9.455433,
        2.8028069,
        -1.7075815,
        2.4909916,
        -9.117584,
        -1.4499207,
        -6.6347647,
        -2.5298781,
        6.5387917,
        6.875555,
        1.4443436,
        -2.2462406,
        -3.101749,
        -8.258882,
        4.561244,
        2.567235,
        5.40302,
        -2.9674597,
        -6.62749,
        0.17741585,
        -4.2418284,
        -1.8210688,
        8.540379,
        -2.531938,
        -2.4913254,
        -1.5631552,
        -7.4275656,
        9.136612,
        3.1343212,
        1.3264742,
        7.6023197,
        -7.6656218,
        1.4617071,
        -7.0336504,
        1.5659437,
        -3.8613243,
        -5.2348967,
        -5.5054064,
        4.5821533,
        7.44351,
        -2.1443954,
        -0.14457417,
        9.915775,
        6.3232136,
        3.1237087,
        1.0161791,
        -3.8479252,
        2.1120462,
        -1.024827,
        2.718152,
        -3.2013865,
        -8.766801,
        2.591959,
        9.105131,
        8.266005,
        -4.8382087,
        -9.524183,
        -4.678771,
        -3.4205313,
        5.48825,
        -9.754483,
        7.27853,
        -8.28274,
        1.8828049,
        -1.6248102,
        3.7782679,
        4.709305,
        7.6087894,
        -2.9321833,
        -2.4731007,
        -1.8879976,
        9.84544,
        -7.6954527,
        6.1280403,
        2.8412333,
        -6.283822,
        8.825953,
        -2.7521152,
        2.0285978,
        -9.273372,
        6.6829205,
        -8.095207,
        -8.425126,
        -3.0645914,
        -9.846289,
        -8.856565,
        -0.34561348,
        3.5886774,
        7.4387856,
        -5.9977336,
        0.5166378,
        -8.015265,
        -4.01756,
        -4.040975,
        -3.8322825,
        4.0954866,
        -1.8475285,
        1.4271889,
        -4.2733974,
        2.960559,
        5.0283165,
        2.9568233,
        -1.5401497,
        4.9409714,
        -3.6050434,
        8.400175,
        7.3411427,
        3.0404577,
        7.559843,
        -3.1909056,
        -8.071539,
        -0.01808548,
        0.715991,
        8.486301,
        -5.4729195,
        -4.9902864,
        9.5331955,
        -9.340908,
        -2.440516,
        4.8255434,
        -3.1903954,
        2.8034582,
        -7.305848,
        5.3319206,
        -3.331327,
        -9.483399,
        -4.2654915,
        -2.6619906,
        1.7226162,
        -3.430657,
        -6.720664,
        -3.8138337,
        0.3395548,
        6.4617825,
        1.8411293,
        -2.3200955,
        -5.0051827,
        -8.651611,
        -4.021506,
        3.3463945,
        8.2579155,
        -7.2008867,
        3.4869728,
        -1.5679617,
        7.8911343,
        -8.950908,
        -6.332402,
        8.678612,
        5.2333136,
        -0.80943966,
        -6.3334227,
        4.568802,
        -1.803195,
        -8.904171,
        7.3677483,
        7.041752,
        7.081814,
        -1.3843431,
        -3.2325573,
        1.8407688,
        0.23484612,
        -5.9144278,
        -8.00831,
        8.279104,
        -2.3997416,
        -4.7245092,
        -4.1600294,
        -6.2244673,
        -6.0913463,
        8.834202,
        9.027981,
        3.6620054,
        3.465146,
        1.4236822,
        -3.8315005,
        3.5842857,
        -0.26877117,
        -3.1896467,
        -4.103863,
        6.8865223,
        1.9683828,
        -6.1922283,
        5.3935947,
        -5.289528,
        -1.1958017,
        -6.582205,
        4.1889057,
        -4.088988,
        2.4450626,
        3.5982952,
        1.1093464,
        -9.959976,
        -4.8898835,
        -7.137844,
        -3.9707274,
        9.971451,
        -0.5168524,
        6.92564,
        -9.067037,
        -6.3322544,
        -5.2490897,
        9.574379,
        4.49936,
        8.95022,
        -4.98167,
        -8.527033,
        3.7357655,
        -0.6538315,
        8.195316,
        -5.757243,
        -7.3611755,
        7.8056297,
        9.927813,
        -3.8335414,
        -1.4360209,
        3.829073,
        -5.744607,
        8.419872,
        5.739006,
        -0.29143238,
        0.13245964,
        2.7983465,
        9.314846,
        9.145977,
        8.304758,
        -9.109489,
        -4.308204,
        3.670267,
        5.88412,
        4.784478,
        0.44928455,
        -8.305227,
        2.3593893,
        -2.8612537,
        -3.6588664,
        -2.7203698,
        5.957526,
        -4.195368,
        -0.78150463,
        -6.9639654,
        1.19625,
        7.791149,
        8.101526,
        3.571948,
        -5.762121,
        7.7283,
        -2.8784533,
        9.019171,
        -2.8819747,
        -9.357538,
        3.718625,
        6.3981915,
        5.6029596,
        -5.6913633,
        -3.84412,
        0.2969513,
        8.532911,
        4.5429144,
        1.2777624,
        -3.141653,
        -0.8702841,
        0.1693716,
        -9.509964,
        0.1091423,
        6.194481,
        7.9982853,
        -9.52167,
        9.533407,
        -4.056248,
        2.943202,
        -7.438879,
        9.952862,
        4.720598,
        -3.0895634,
        -9.719729,
        -1.6712704,
        -2.551517,
        -5.1594133,
        4.0667906,
        -8.13633,
        9.979658,
        -1.5714712,
        -7.4989767,
        1.2616768,
        -0.19187164,
        -0.2557869,
        -9.991586,
        -2.9511971,
        -0.78462315,
        -3.492505,
        0.44246292,
        7.715292,
        8.607086,
        -8.519232,
        -6.2874193,
        -3.1028361,
        8.355465,
        -0.80012226,
        -0.7013645,
        0.7492771,
        7.7946777,
        -6.1429353,
        -3.1996794,
        -0.99918747,
        -8.121448,
        -9.814577,
        1.1965456,
        -6.5388584,
        -9.661617,
        8.323452,
        1.7923965,
        4.7318325,
        -0.43455315,
        -9.938237,
        5.608186,
        -2.7823205,
        -7.653639,
        -4.927277,
        1.983489,
        0.24271107,
        6.604862,
        7.0733852,
        8.2008095,
        -8.464761,
        2.501913,
        -3.4961958,
        -5.0279183,
        8.8851185,
        -0.9619446,
        -7.2748823,
        3.8802633,
        -5.51084,
        -6.8559856,
        -5.271992,
        9.77113,
        1.1768093,
        5.0309076,
        1.2051258,
        5.4925957,
        9.914169,
        8.906389,
        -7.780716,
        -5.2102466,
        -0.80310535,
        -2.288188,
        -8.092427,
        -4.8186703,
        -8.190286,
        -7.4074907,
        -9.681797,
        5.27847,
        -2.6054664,
        0.25786972,
        4.920925,
        8.140736,
        6.916319,
        7.742853,
        -9.066002,
        9.477047,
        3.7222872,
        -9.090149,
        -5.7403274,
        4.547042,
        -4.3443365,
        -7.2380877,
        -5.218379,
        2.3885021,
        8.399076,
        4.0249834,
        -3.3962913,
        -2.0400634,
        5.527581,
        -9.398561,
        -2.0817223,
        -3.8598366,
        -1.4594355,
        3.7717905,
        -9.723678,
        5.72313,
        7.306988,
        6.740553,
        8.583271,
        -8.895056,
        9.540173,
        -2.1478763,
        -1.04741,
        3.6383286,
        9.220297,
        7.090645,
        0.8282223,
        -8.182165,
        -7.1555824,
        -8.62982,
        -9.585945,
        6.4422913,
        9.549618,
        -9.497888,
        9.030365,
        -9.066779,
        -9.495246,
        -2.1394053,
        -9.010096,
        -2.011217,
        -4.0639133,
        3.3459415,
        6.239586,
        5.6248493,
        -3.8120813,
        -4.1120477,
        3.0344095,
        -1.47406,
        0.51667595,
        -2.1659675,
        7.0404816,
        -4.1070576,
        9.077236,
        -8.470122,
        -1.9157209,
        -0.38875008,
        -1.527709,
        0.729743,
        2.9873095,
        0.6621561,
        2.8484478,
        1.6327581,
        -4.239425,
        2.347392,
        0.33105946,
        1.474863,
        8.985033,
        5.9698505,
        1.1253824,
        7.697792,
        5.4864902,
        4.918317,
        -1.4600391,
        -7.607424,
        -1.5854712,
        -6.3992834,
        9.127832,
        1.4213552,
        -7.8680086,
        8.896278,
        -8.201127,
        -7.5254154,
        7.0380993,
        3.107029,
        -0.14597607,
        -8.862216,
        6.1281033,
        -5.5207987,
        0.62050724,
        2.3440514,
        -6.773758,
        -5.86765,
        9.275297,
        -8.468339,
        -4.371912,
        -0.40425968,
        2.475439,
        -6.5663385,
        5.0525064,
        -2.6361246,
        0.9158764,
        9.127649,
        5.192916,
        2.8699865,
        2.2336826,
        1.8401537,
        -1.3910522,
        -2.5260205,
        -0.9651537,
        3.5842714,
        -9.515984,
        -4.3998713,
        -0.49201202,
        8.059969,
        3.797988,
        2.532958,
        -7.3761415,
        -4.9995966,
        4.7500553,
        9.132109,
        4.173456,
        5.7330027,
        -8.430674,
        -9.224102,
        -1.5664072,
        -6.721718,
        -7.677047,
        -0.9160538,
        -2.1641364,
        -8.661661,
        -8.571453,
        -3.3852096,
        1.1845121,
        -5.5985017,
        0.16345882,
        -5.5828424,
        8.55072,
        -9.63278,
        5.503191,
        1.0902891,
        -4.2986007,
        9.568901,
        2.326292,
        -4.936902,
        6.739361,
        -4.2916055,
        -2.6697607,
        0.48174477,
        -7.9677935,
        4.7463093,
        -7.8720856,
        8.217926,
        -7.975383,
        3.0242739,
        8.522087,
        6.7119884,
        -4.3487353,
        -2.7753086,
        4.227639,
        6.9445724,
        3.2125082,
        0.4455576,
        -6.057386,
        -3.789918,
        8.397352,
        -8.925755,
        -4.603247,
        6.530695,
        9.045105,
        -0.7674475,
        -0.1882782,
        -8.586595,
        5.7477016,
        0.4808607,
        -9.048252,
        6.729395,
        -3.9787192,
        7.267084,
        0.96365833,
        -4.320833,
        -3.5924978,
        2.6719465,
        -5.8865566,
        -8.711519,
        4.629587,
        -6.971636,
        4.957184,
        2.6721754,
        9.514984,
        7.5053787,
        5.636424,
        6.065979,
        1.956974,
        -5.1533337,
        -7.7275896,
        9.913343,
        0.5854473,
        -4.9027724,
        -5.173139,
        0.41741467,
        4.9512854,
        -9.069967,
        7.1828804,
        7.8811016,
        8.159994,
        9.046043,
        4.385375,
        8.538519,
        -9.909074,
        4.299635,
        2.255827,
        -9.994121,
        7.3832245,
        7.3645267,
        7.8679504,
        -2.5577826,
        -4.69032,
        -6.866393,
        -2.2013655,
        8.12388,
        -1.1739702,
        9.799835,
        -8.947703,
        9.322634,
        -7.716484,
        -6.8755293,
        6.1669636,
        9.085489,
        7.1231747,
        -9.430577,
        -3.3035035,
        2.9142418,
        8.432884,
        0.7303295,
        2.4321566,
        0.7744751,
        8.601809,
        -5.9443374,
        3.023323,
        2.0821657,
        4.078785,
        -5.226793,
        -4.7795863,
        -3.497395,
        -7.1133137,
        6.4167233,
        3.1861057,
        -3.3256145,
        -8.692999,
        8.430168,
        -7.627866,
        -0.52252007,
        -3.517775,
        -0.4900589,
        -0.61711216,
        9.867397,
        -7.4805183,
        7.613386,
        -3.7226624,
        -8.417358,
        -0.071071625,
        -4.121563,
        -0.16236973,
        -0.97308064,
        8.572336,
        -1.9526978,
        -4.823496,
        -0.6241913,
        -1.0014315,
        8.518574,
        0.5964432,
        9.469816,
        2.19798,
        0.5862942,
        -5.0295777,
        7.5637054,
        -6.9901676,
        1.8188419,
        0.6490383,
        -9.579565,
        6.9662,
        6.726946,
        2.298502,
        2.5567923,
        -6.6254663,
        -3.1073089,
        -6.263771,
        2.5846252,
        9.862677,
        -1.4756432,
        0.97633266,
        -0.67423725,
        1.3848772,
        1.5161047,
        3.0535517,
        -0.08778,
        2.6872625,
        6.3114758,
        -5.7026787,
        1.3618078,
        -3.7289853,
        9.793734,
        -4.697785,
        -7.1859903,
        -8.200984,
        7.982294,
        6.149212,
        -1.5646667,
        -9.8071,
        2.4424086,
        7.4378605,
        2.174429,
        -8.0960865,
        3.3550653,
        -4.192669,
        -9.275438,
        4.120761,
        8.216925,
        0.5906019,
        0.71269417,
        5.831045,
        1.7995987,
        9.548845,
        -0.7742901,
        3.2198153,
        5.8394375,
        -0.33830357,
        -4.39645,
        -9.799253,
        5.5239697,
        -2.4071636,
        -0.7699604,
        -0.20279598,
        -7.4915667,
        5.6370707,
        -5.2761097,
        -0.08596611,
        -6.9629717,
        -6.99028,
        -7.744939,
        -8.876948,
        -5.373847,
        5.387844,
        2.5979557,
        7.3986397,
        1.4897099,
        0.873147,
        -2.0857515,
        -1.8611851,
        -4.9306483,
        8.883116,
        -2.368938,
        -9.571118,
        7.9930305,
        -8.767905,
        9.75938,
        -5.270066,
        -3.1069584,
        8.839788,
        8.309084,
        -1.3309546,
        -9.945345,
        1.6911402,
        1.4061108,
        -0.076643944,
        0.61488056,
        -1.8487825,
        -8.805477,
        7.787056,
        7.4256477,
        -3.377461,
        5.8288593,
        -5.9124537,
        9.178543,
        2.1045313,
        7.248358,
        -0.014118195,
        9.327265,
        -4.2068596,
        -1.7461605,
        2.468649,
        -9.541793,
        -7.941272,
        3.9843187,
        7.7611637,
        -4.603383,
        8.087698,
        -6.757333,
        8.762068,
        7.489216,
        4.8818502,
        -6.8676424,
        2.1221247,
        -4.7949023,
        -3.9379282,
        -8.313815,
        9.129749,
        -1.399478,
        2.0455132,
        -4.167077,
        5.4351892,
        -5.2001853,
        9.112778,
        -8.6056185,
        3.153883,
        3.918005,
        0.76980686,
        -9.639542,
        -1.3410397,
        8.7449665,
        7.8803577,
        -9.429011,
        3.9843788,
        3.7324963,
        -9.07468,
        -1.9027491,
        2.8523312,
        7.150854,
        -9.089877,
        6.3585587,
        -8.484504,
        -4.5699925,
        -9.996693,
        -7.858116,
        -8.29034,
        -4.3931932,
        -9.115572,
        6.4023266,
        -2.2778597,
        5.264677,
        5.390457,
        -3.943767,
        9.666571,
        2.794651,
        -6.294133,
        -2.554216,
        4.63972,
        -9.688416,
        5.661997,
        -0.80943966,
        -8.420178,
        6.7136097,
        3.0670586,
        8.757082,
        3.0190477,
        -7.370496,
        9.323969,
        4.8747244,
        -6.4423466,
        -3.7134857,
        -8.08291,
        0.91497517,
        -8.833976,
        -2.9745812,
        8.462725,
        8.873295,
        -3.7229748,
        7.815954,
        -4.3555565,
        -0.5403557,
        4.460021,
        1.1283264,
        1.6866312,
        -0.82416916,
        7.9732285,
        3.5201445,
        -5.382566,
        -2.4761667,
        6.982685,
        7.0210304,
        -2.623827,
        3.2035198,
        -3.8969274,
        -5.5947323,
        3.3156643,
        0.5672684,
        -1.0131779,
        -6.5438366,
        -6.8680353,
        1.8824205,
        6.2676353,
        -1.2506142,
        5.7819576,
        7.259096,
        -8.627622,
        -6.975381,
        9.854517,
        -4.786398,
        3.2217274,
        4.833976,
        8.874374,
        -6.1920185,
        8.639231,
        2.5199566,
        -6.5901804,
        -4.4675107,
        9.763084,
        1.0795965,
        -8.438535,
        7.376196,
        8.806166,
        8.925154,
        9.920092,
        5.831498,
        7.5826073,
        5.8414593,
        4.3174515,
        1.7732487,
        1.3770285,
        -9.42657,
        6.664835,
        4.7235336,
        -8.678166,
        5.8363,
        -0.54699326,
        0.737504,
        -6.753084,
        -1.4526529,
        -6.419608,
        5.008251,
        5.054943,
        -3.2548327,
        0.7757225,
        4.360448,
        -5.11491,
        -9.771897,
        -3.764598,
        -7.070141,
        -2.0250335,
        7.119564,
        -0.66013527,
        -8.57949,
        5.798129,
        -8.8570595,
        -4.0291615,
        0.81970596,
        1.626092,
        6.8281517,
        -2.5001736,
        7.4117813,
        2.1105137,
        -0.07448387,
        9.598738,
