{
  "neurons": [
    {
      "index": 0,
      "output": -0.6913546,
      "input_connections": [
        [
          1,
          -0.013734385
        ],
        [
          2,
          0.05505736
        ],
        [
          3,
          -3.6590538
        ],
        [
          4,
          3.4020872
        ],
        [
          5,
          0.23304299
        ]
      ],
      "bias": -0.19024569,
      "self_activation": -0.27018833,
      "retina_weights": [
        0.0,
        0.22254461,
        0.0,
        0.0,
        0.0,
        0.0,
        0.0,
        0.0,
        1.3803372,
        0.07113658,
        0.0,
        0.0,
        0.04602586,
        0.060356196,
        0.0,
        0.057901394,
        0.0,
        0.0,
        0.0,
        0.0,
        1.4322,
        -0.43584982,
        0.0047623515,
        -0.2391231,
        0.0,
        0.0,
        0.0,
        0.0,
        0.0,
        -0.15440068,
        0.0,
        -0.23810735,
        0.0,
        0.12908657,
        0.0,
        0.0,
        0.0,
        0.0,
        0.0,
        -0.049618118,
        0.0,
        0.0,
        -0.29682592,
        0.074658714,
        0.0,
        0.015043706,
        0.0,
        0.0,
        0.0,
        -0.18150592,
        0.07415602,
        0.0,
        0.0,
        -0.0070035458,
        0.0,
        3.9282236,
        0.0,
        0.0,
        0.0,
        0.18173534,
        0.0,
        0.0,
        0.0,
        -0.06217953,
        0.18407077,
        0.0,
        0.20291537,
        0.0,
        0.0,
        -0.05163031,
        -0.24675739,
        0.0,
        0.08112779,
        0.0019082576,
        0.0,
        0.11567298,
        0.0,
        0.0,
        -0.006662883,
        0.0,
        0.0
      ]
    },
    {
      "index": 1,
      "output": 1.0,
      "input_connections": [
        [
          0,
          -2.6484938
        ],
        [
          2,
          0.06591056
        ],
        [
          3,
          -3.640911
        ],
        [
          4,
          -0.08384771
        ],
        [
          5,
          -3.9426003
        ]
      ],
      "bias": 0.22192189,
      "self_activation": 0.031354472,
      "retina_weights": [
        0.19935909,
        0.0,
        0.0,
        0.0265112,
        0.0,
        -0.06476527,
        0.0,
        0.0,
        0.0,
        0.0,
        0.0,
        0.0,
        0.14361101,
        0.1447666,
        -0.030083485,
        0.3089951,
        0.0,
        0.0,
        0.0,
        0.0,
        0.0,
        0.0,
        -0.28098753,
        0.11369376,
        -2.9913282,
        0.0,
        0.0,
        0.0,
        0.0,
        0.0,
        0.0,
        0.0,
        0.0,
        0.29134047,
        -0.03216473,
        0.4728853,
        0.0,
        -1.4852731,
        0.0,
        -0.02554416,
        0.0,
        0.0,
        0.0,
        0.0,
        0.0,
        0.0,
        -0.15303427,
        -0.097299196,
        0.0,
        -0.12680256,
        0.0,
        0.0,
        0.09322106,
        0.0,
        0.0,
        0.0,
        0.0,
        0.21166262,
        0.0,
        -0.13785022,
        0.0,
        0.099359624,
        3.4028912,
        0.0,
        0.0,
        0.0,
        -0.005316198,
        0.0,
        0.0,
        0.0,
        2.211173,
        1.4071116,
        0.0,
        1.1624589,
        3.375517,
        0.0,
        0.0,
        0.0,
        0.0,
        0.0,
        0.0
      ]
    },
    {
      "index": 2,
      "output": 0.99838656,
      "input_connections": [
        [
          0,
          0.23865974
        ],
        [
          1,
          0.03301531
        ],
        [
          3,
          -0.030463494
        ],
        [
          4,
          0.30767518
        ],
        [
          5,
          0.12316559
        ]
      ],
      "bias": -0.0078575015,
      "self_activation": 0.2628781,
      "retina_weights": [
        0.0,
        -0.4085879,
        -0.0428515,
        -0.039658867,
        0.25771236,
        0.0,
        0.0,
        0.0,
        -0.07803095,
        -0.012157224,
        0.24890676,
        0.0,
        0.0,
        0.045543414,
        0.0,
        0.09211737,
        0.1251486,
        -0.27113232,
        0.0,
        0.10846433,
        0.1950821,
        -0.11379767,
        0.52151537,
        0.29636422,
        0.36300516,
        0.0,
        0.0,
        0.0,
        0.0,
        0.04894036,
        0.0,
        -0.13393313,
        0.15793243,
        0.0,
        -0.0038500652,
        0.12199536,
        -0.31466532,
        0.0,
        0.0,
        0.20932567,
        0.44264936,
        0.0,
        0.2829111,
        0.050631497,
        0.0,
        0.0,
        0.026302367,
        0.058995046,
        0.0,
        0.0,
        -0.02774445,
        0.0,
        -0.02534882,
        0.0,
        0.28383404,
        0.15606979,
        0.15060136,
        0.45020562,
        0.0,
        0.0,
        0.0,
        0.23028806,
        -0.03148853,
        -0.21354178,
        -0.0023124367,
        0.22715464,
        0.0,
        0.0,
        0.18165717,
        0.02234725,
        -0.33813405,
        -0.12017078,
        0.38169444,
        0.092385,
        -0.024973854,
        0.12750572,
        0.0,
        0.16359293,
        0.0,
        -0.014623329,
        0.029326074
      ]
    },
    {
      "index": 3,
      "output": 0.9988993,
      "input_connections": [
        [
          0,
          0.22398022
        ],
        [
          1,
          0.3939164
        ],
        [
          2,
          0.09867319
        ],
        [
          4,
          0.21775877
        ],
        [
          5,
          0.01861687
        ]
      ],
      "bias": 0.023592867,
      "self_activation": 0.1156512,
      "retina_weights": [
        0.33582598,
        0.0,
        0.0,
        0.39682305,
        0.0,
        0.14617233,
        0.38863868,
        0.0,
        -0.14976737,
        0.2834603,
        -0.06513331,
        0.0,
        0.0,
        -0.091699876,
        0.0,
        0.20171812,
        0.0,
        -0.07519347,
        -0.17379582,
        -0.22097275,
        0.1673299,
        0.08694278,
        0.18247029,
        0.19045186,
        0.0,
        0.3750994,
        0.04906237,
        0.0,
        0.4984449,
        -0.04875026,
        0.14452903,
        -0.0035693273,
        0.18109474,
        0.11803999,
        0.0,
        0.0,
        0.11029063,
        0.0,
        0.09181203,
        0.0,
        0.26859412,
        -0.16052628,
        -0.048946984,
        -0.12026233,
        0.047043573,
        0.28925842,
        -0.0004950762,
        0.0,
        -0.17602909,
        0.08126894,
        0.38080078,
        0.20750281,
        0.21423393,
        0.043323334,
        0.4160147,
        -0.14754122,
        -2.1575353,
        -0.08780118,
        -0.050376482,
        0.10198327,
        1.8097014,
        -0.11564698,
        0.19308582,
        0.13608558,
        -0.1950171,
        0.028413966,
        0.04688735,
        -0.13423184,
        -0.2306261,
        -0.05679632,
        -0.9107013,
        0.1235497,
        1.0712323,
        -0.14943591,
        0.0,
        0.0,
        0.0,
        -0.073737375,
        0.052617583,
        0.0,
        0.45891693
      ]
    },
    {
      "index": 4,
      "output": -0.9999461,
      "input_connections": [
        [
          0,
          0.36261418
        ],
        [
          1,
          3.0270424
        ],
        [
          2,
          -0.18315089
        ],
        [
          3,
          0.24962881
        ],
        [
          5,
          0.0
        ]
      ],
      "bias": 0.54760957,
      "self_activation": 0.030069597,
      "retina_weights": [
        0.0,
        0.0,
        -0.19325408,
        0.0,
        -0.079480134,
        2.1334991,
        -0.040552936,
        -0.1423004,
        -0.4562211,
        0.0,
        0.0,
        -1.7501934,
        -0.019567728,
        0.0,
        0.0,
        -0.044124745,
        0.0,
        0.27081588,
        0.2502571,
        0.2017192,
        0.11577589,
        0.28503692,
        -3.149127,
        0.25502253,
        0.0,
        -0.006081894,
        0.0,
        -0.25295725,
        0.2666584,
        0.6289049,
        0.13341448,
        0.008044668,
        0.0,
        0.0,
        0.012503952,
        0.0,
        0.2097952,
        -0.12067025,
        0.0,
        0.0,
        0.0,
        -0.12864104,
        -0.16880041,
        0.23423576,
        0.0,
        -1.5677726,
        0.0,
        0.0,
        0.0,
        0.15254721,
        0.0,
        0.39541727,
        -0.21346486,
        0.0,
        0.0,
        -0.16062665,
        0.0,
        0.11608152,
        -0.19975615,
        0.32202205,
        -0.02018024,
        -0.02727031,
        0.0,
        0.0,
        0.0,
        -0.18006492,
        0.124251366,
        -0.08132041,
        0.0,
        0.1678482,
        0.0,
        0.0,
        0.0,
        0.0,
        0.0,
        0.0,
        0.20871468,
        0.0,
        0.0,
        -0.28692758,
        0.029778354
      ]
    },
    {
      "index": 5,
      "output": -0.84727204,
      "input_connections": [
        [
          0,
          0.23356894
        ],
        [
          1,
          0.035294987
        ],
        [
          2,
          -0.3334716
        ],
        [
          3,
          0.026842132
        ],
        [
          4,
          3.0886211
        ]
      ],
      "bias": 0.08415773,
      "self_activation": 0.0,
      "retina_weights": [
        0.0,
        0.0,
        -0.0641151,
        0.0,
        0.0,
        0.16613773,
        0.0,
        0.0,
        0.0,
        -0.2216604,
        -0.21343994,
        -0.23203743,
        -0.17143798,
        0.17326936,
        0.0,
        0.038618367,
        0.12719312,
        0.0,
        0.26023862,
        0.12936911,
        0.0,
        0.0,
        0.0,
        -0.13683444,
        0.0,
        0.32195255,
        0.0,
        0.09360978,
        0.14374232,
        0.0,
        -0.019036576,
        0.0,
        0.0,
        0.0,
        0.0,
        0.0,
        0.2472035,
        0.1504076,
        -0.38681865,
        0.0,
        -0.08498233,
        0.0,
        0.03353043,
        0.3504483,
        2.4531002,
        0.06804873,
        -0.20531586,
        0.0,
        0.0,
        0.10397328,
        0.0,
        0.2224378,
        -0.06208677,
        -0.2326799,
        0.0,
        0.08617658,
        0.0,
        -0.3537171,
        0.0,
        0.0,
        0.0,
        0.024635985,
        0.21464586,
        0.0,
        0.0,
        0.12823287,
        0.29609305,
        0.32645187,
        0.0,
        -2.1852987,
        0.0,
        0.0,
        0.19999684,
        0.28116307,
        0.0,
        -0.22040227,
        0.0,
        0.0036026388,
        0.18916109,
        0.0,
        0.22333005
      ]
    }
  ],
  "short_term_memory": {
    "snapshots": [
      {
        "outputs": [
          0.9999577,
          1.0,
          0.9995011,
          0.9998833,
          0.52061135,
          0.9997158
        ],
        "time_step": 0
      },
      {
        "outputs": [
          0.9995685,
          -0.9379518,
          0.9998387,
          0.99994624,
          0.8489647,
          0.9992152
        ],
        "time_step": 1
      },
      {
        "outputs": [
          0.9999562,
          -0.94744796,
          0.99985015,
          0.9997854,
          -0.9997996,
          0.9998815
        ],
        "time_step": 2
      },
      {
        "outputs": [
          -0.72817016,
          -0.9294842,
          0.99953264,
          0.9995165,
          -0.99983066,
          -0.6876076
        ],
        "time_step": 3
      },
      {
        "outputs": [
          -0.6913541,
          1.0,
          0.99838656,
          0.9988993,
          -0.9999461,
          -0.84727204
        ],
        "time_step": 4
      },
      {
        "outputs": [
          -0.72702986,
          1.0,
          0.9985473,
          0.9997616,
          0.53231937,
          -0.8241741
        ],
        "time_step": 5
      },
      {
        "outputs": [
          0.9996336,
          1.0,
          0.9994275,
          0.99987584,
          0.5557755,
          0.998366
        ],
        "time_step": 6
      },
      {
        "outputs": [
          0.9996602,
          -0.93755937,
          0.99984205,
          0.999947,
          0.8492302,
          0.9993683
        ],
        "time_step": 7
      },
      {
        "outputs": [
          0.99995625,
          -0.9475359,
          0.9998502,
          0.9997855,
          -0.99979913,
          0.99988174
        ],
        "time_step": 8
      },
      {
        "outputs": [
          -0.72816885,
          -0.9294847,
          0.9995326,
          0.9995164,
          -0.9998308,
          -0.6876085
        ],
        "time_step": 9
      },
      {
        "outputs": [
          -0.6913546,
          1.0,
          0.99838656,
          0.9988993,
          -0.9999461,
          -0.84727204
        ],
        "time_step": 10
      },
      {
        "outputs": [
          -0.72702986,
          1.0,
          0.9985473,
          0.9997616,
          0.5323192,
          -0.8241741
        ],
        "time_step": 11
      },
      {
        "outputs": [
          0.9996336,
          1.0,
          0.9994275,
          0.99987584,
          0.5557755,
          0.998366
        ],
        "time_step": 12
      },
      {
        "outputs": [
          0.9996602,
          -0.93755937,
          0.99984205,
          0.999947,
          0.8492302,
          0.9993683
        ],
        "time_step": 13
      },
      {
        "outputs": [
          0.99995625,
          -0.9475359,
          0.9998502,
          0.9997855,
          -0.99979913,
          0.99988174
        ],
        "time_step": 14
      },
      {
        "outputs": [
          -0.72816885,
          -0.9294847,
          0.9995326,
          0.9995164,
          -0.9998308,
          -0.6876085
        ],
        "time_step": 15
      },
      {
        "outputs": [
          -0.6913546,
          1.0,
          0.99838656,
          0.9988993,
          -0.9999461,
          -0.84727204
        ],
        "time_step": 16
      },
      {
        "outputs": [
          -0.72702986,
          1.0,
          0.9985473,
          0.9997616,
          0.5323192,
          -0.8241741
        ],
        "time_step": 17
      },
      {
        "outputs": [
          0.9996336,
          1.0,
          0.9994275,
          0.99987584,
          0.5557755,
          0.998366
        ],
        "time_step": 18
      },
      {
        "outputs": [
          0.9996602,
          -0.93755937,
          0.99984205,
          0.999947,
          0.8492302,
          0.9993683
        ],
        "time_step": 19
      },
      {
        "outputs": [
          0.99995625,
          -0.9475359,
          0.9998502,
          0.9997855,
          -0.99979913,
          0.99988174
        ],
        "time_step": 20
      },
      {
        "outputs": [
          -0.72816885,
          -0.9294847,
          0.9995326,
          0.9995164,
          -0.9998308,
          -0.6876085
        ],
        "time_step": 21
      },
      {
        "outputs": [
          -0.6913546,
          1.0,
          0.99838656,
          0.9988993,
          -0.9999461,
          -0.84727204
        ],
        "time_step": 22
      },
      {
        "outputs": [
          -0.72702986,
          1.0,
          0.9985473,
          0.9997616,
          0.5323192,
          -0.8241741
        ],
        "time_step": 23
      },
      {
        "outputs": [
          0.9996336,
          1.0,
          0.9994275,
          0.99987584,
          0.5557755,
          0.998366
        ],
        "time_step": 24
      },
      {
        "outputs": [
          0.9996602,
          -0.93755937,
          0.99984205,
          0.999947,
          0.8492302,
          0.9993683
        ],
        "time_step": 25
      },
      {
        "outputs": [
          0.99995625,
          -0.9475359,
          0.9998502,
          0.9997855,
          -0.99979913,
          0.99988174
        ],
        "time_step": 26
      },
      {
        "outputs": [
          -0.72816885,
          -0.9294847,
          0.9995326,
          0.9995164,
          -0.9998308,
          -0.6876085
        ],
        "time_step": 27
      },
      {
        "outputs": [
          -0.6913546,
          1.0,
          0.99838656,
          0.9988993,
          -0.9999461,
          -0.84727204
        ],
        "time_step": 28
      },
      {
        "outputs": [
          -0.72702986,
          1.0,
          0.9985473,
          0.9997616,
          0.5323192,
          -0.8241741
        ],
        "time_step": 29
      },
      {
        "outputs": [
          0.9996336,
          1.0,
          0.9994275,
          0.99987584,
          0.5557755,
          0.998366
        ],
        "time_step": 30
      },
      {
        "outputs": [
          0.9996602,
          -0.93755937,
          0.99984205,
          0.999947,
          0.8492302,
          0.9993683
        ],
        "time_step": 31
      },
      {
        "outputs": [
          0.99995625,
          -0.9475359,
          0.9998502,
          0.9997855,
          -0.99979913,
          0.99988174
        ],
        "time_step": 32
      },
      {
        "outputs": [
          -0.72816885,
          -0.9294847,
          0.9995326,
          0.9995164,
          -0.9998308,
          -0.6876085
        ],
        "time_step": 33
      },
      {
        "outputs": [
          -0.6913546,
          1.0,
          0.99838656,
          0.9988993,
          -0.9999461,
          -0.84727204
        ],
        "time_step": 34
      },
      {
        "outputs": [
          -0.72702986,
          1.0,
          0.9985473,
          0.9997616,
          0.5323192,
          -0.8241741
        ],
        "time_step": 35
      },
      {
        "outputs": [
          0.9996336,
          1.0,
          0.9994275,
          0.99987584,
          0.5557755,
          0.998366
        ],
        "time_step": 36
      },
      {
        "outputs": [
          0.9996602,
          -0.93755937,
          0.99984205,
          0.999947,
          0.8492302,
          0.9993683
        ],
        "time_step": 37
      },
      {
        "outputs": [
          0.99995625,
          -0.9475359,
          0.9998502,
          0.9997855,
          -0.99979913,
          0.99988174
        ],
        "time_step": 38
      },
      {
        "outputs": [
          -0.72816885,
          -0.9294847,
          0.9995326,
          0.9995164,
          -0.9998308,
          -0.6876085
        ],
        "time_step": 39
      },
      {
        "outputs": [
          -0.6913546,
          1.0,
          0.99838656,
          0.9988993,
          -0.9999461,
          -0.84727204
        ],
        "time_step": 40
      },
      {
        "outputs": [
          -0.72702986,
          1.0,
          0.9985473,
          0.9997616,
          0.5323192,
          -0.8241741
        ],
        "time_step": 41
      },
      {
        "outputs": [
          0.9996336,
          1.0,
          0.9994275,
          0.99987584,
          0.5557755,
          0.998366
        ],
        "time_step": 42
      },
      {
        "outputs": [
          0.9996602,
          -0.93755937,
          0.99984205,
          0.999947,
          0.8492302,
          0.9993683
        ],
        "time_step": 43
      },
      {
        "outputs": [
          0.99995625,
          -0.9475359,
          0.9998502,
          0.9997855,
          -0.99979913,
          0.99988174
        ],
        "time_step": 44
      },
      {
        "outputs": [
          -0.72816885,
          -0.9294847,
          0.9995326,
          0.9995164,
          -0.9998308,
          -0.6876085
        ],
        "time_step": 45
      },
      {
        "outputs": [
          -0.6913546,
          1.0,
          0.99838656,
          0.9988993,
          -0.9999461,
          -0.84727204
        ],
        "time_step": 46
      },
      {
        "outputs": [
          -0.72702986,
          1.0,
          0.9985473,
          0.9997616,
          0.5323192,
          -0.8241741
        ],
        "time_step": 47
      },
      {
        "outputs": [
          0.9996336,
          1.0,
          0.9994275,
          0.99987584,
          0.5557755,
          0.998366
        ],
        "time_step": 48
      },
      {
        "outputs": [
          0.9996602,
          -0.93755937,
          0.99984205,
          0.999947,
          0.8492302,
          0.9993683
        ],
        "time_step": 49
      },
      {
        "outputs": [
          0.99995625,
          -0.9475359,
          0.9998502,
          0.9997855,
          -0.99979913,
          0.99988174
        ],
        "time_step": 50
      },
      {
        "outputs": [
          -0.72816885,
          -0.9294847,
          0.9995326,
          0.9995164,
          -0.9998308,
          -0.6876085
        ],
        "time_step": 51
      },
      {
        "outputs": [
          -0.6913546,
          1.0,
          0.99838656,
          0.9988993,
          -0.9999461,
          -0.84727204
        ],
        "time_step": 52
      },
      {
        "outputs": [
          -0.72702986,
          1.0,
          0.9985473,
          0.9997616,
          0.5323192,
          -0.8241741
        ],
        "time_step": 53
      },
      {
        "outputs": [
          0.9996336,
          1.0,
          0.9994275,
          0.99987584,
          0.5557755,
          0.998366
        ],
        "time_step": 54
      },
      {
        "outputs": [
          0.9996602,
          -0.93755937,
          0.99984205,
          0.999947,
          0.8492302,
          0.9993683
        ],
        "time_step": 55
      },
      {
        "outputs": [
          0.99995625,
          -0.9475359,
          0.9998502,
          0.9997855,
          -0.99979913,
          0.99988174
        ],
        "time_step": 56
      },
      {
        "outputs": [
          -0.72816885,
          -0.9294847,
          0.9995326,
          0.9995164,
          -0.9998308,
          -0.6876085
        ],
        "time_step": 57
      },
      {
        "outputs": [
          -0.6913546,
          1.0,
          0.99838656,
          0.9988993,
          -0.9999461,
          -0.84727204
        ],
        "time_step": 58
      },
      {
        "outputs": [
          -0.72702986,
          1.0,
          0.9985473,
          0.9997616,
          0.5323192,
          -0.8241741
        ],
        "time_step": 59
      },
      {
        "outputs": [
          0.9996336,
          1.0,
          0.9994275,
          0.99987584,
          0.5557755,
          0.998366
        ],
        "time_step": 60
      },
      {
        "outputs": [
          0.9996602,
          -0.93755937,
          0.99984205,
          0.999947,
          0.8492302,
          0.9993683
        ],
        "time_step": 61
      },
      {
        "outputs": [
          0.99995625,
          -0.9475359,
          0.9998502,
          0.9997855,
          -0.99979913,
          0.99988174
        ],
        "time_step": 62
      },
      {
        "outputs": [
          -0.72816885,
          -0.9294847,
          0.9995326,
          0.9995164,
          -0.9998308,
          -0.6876085
        ],
        "time_step": 63
      },
      {
        "outputs": [
          -0.6913546,
          1.0,
          0.99838656,
          0.9988993,
          -0.9999461,
          -0.84727204
        ],
        "time_step": 64
      },
      {
        "outputs": [
          -0.72702986,
          1.0,
          0.9985473,
          0.9997616,
          0.5323192,
          -0.8241741
        ],
        "time_step": 65
      },
      {
        "outputs": [
          0.9996336,
          1.0,
          0.9994275,
          0.99987584,
          0.5557755,
          0.998366
        ],
        "time_step": 66
      },
      {
        "outputs": [
          0.9996602,
          -0.93755937,
          0.99984205,
          0.999947,
          0.8492302,
          0.9993683
        ],
        "time_step": 67
      },
      {
        "outputs": [
          0.99995625,
          -0.9475359,
          0.9998502,
          0.9997855,
          -0.99979913,
          0.99988174
        ],
        "time_step": 68
      },
      {
        "outputs": [
          -0.72816885,
          -0.9294847,
          0.9995326,
          0.9995164,
          -0.9998308,
          -0.6876085
        ],
        "time_step": 69
      },
      {
        "outputs": [
          -0.6913546,
          1.0,
          0.99838656,
          0.9988993,
          -0.9999461,
          -0.84727204
        ],
        "time_step": 70
      },
      {
        "outputs": [
          -0.72702986,
          1.0,
          0.9985473,
          0.9997616,
          0.5323192,
          -0.8241741
        ],
        "time_step": 71
      },
      {
        "outputs": [
          0.9996336,
          1.0,
          0.9994275,
          0.99987584,
          0.5557755,
          0.998366
        ],
        "time_step": 72
      },
      {
        "outputs": [
          0.9996602,
          -0.93755937,
          0.99984205,
          0.999947,
          0.8492302,
          0.9993683
        ],
        "time_step": 73
      },
      {
        "outputs": [
          0.99995625,
          -0.9475359,
          0.9998502,
          0.9997855,
          -0.99979913,
          0.99988174
        ],
        "time_step": 74
      },
      {
        "outputs": [
          -0.72816885,
          -0.9294847,
          0.9995326,
          0.9995164,
          -0.9998308,
          -0.6876085
        ],
        "time_step": 75
      },
      {
        "outputs": [
          -0.6913546,
          1.0,
          0.99838656,
          0.9988993,
          -0.9999461,
          -0.84727204
        ],
        "time_step": 76
      },
      {
        "outputs": [
          -0.72702986,
          1.0,
          0.9985473,
          0.9997616,
          0.5323192,
          -0.8241741
        ],
        "time_step": 77
      },
      {
        "outputs": [
          0.9996336,
          1.0,
          0.9994275,
          0.99987584,
          0.5557755,
          0.998366
        ],
        "time_step": 78
      },
      {
        "outputs": [
          0.9996602,
          -0.93755937,
          0.99984205,
          0.999947,
          0.8492302,
          0.9993683
        ],
        "time_step": 79
      },
      {
        "outputs": [
          0.99995625,
          -0.9475359,
          0.9998502,
          0.9997855,
          -0.99979913,
          0.99988174
        ],
        "time_step": 80
      },
      {
        "outputs": [
          -0.72816885,
          -0.9294847,
          0.9995326,
          0.9995164,
          -0.9998308,
          -0.6876085
        ],
        "time_step": 81
      },
      {
        "outputs": [
          -0.6913546,
          1.0,
          0.99838656,
          0.9988993,
          -0.9999461,
          -0.84727204
        ],
        "time_step": 82
      },
      {
        "outputs": [
          -0.72702986,
          1.0,
          0.9985473,
          0.9997616,
          0.5323192,
          -0.8241741
        ],
        "time_step": 83
      },
      {
        "outputs": [
          0.9996336,
          1.0,
          0.9994275,
          0.99987584,
          0.5557755,
          0.998366
        ],
        "time_step": 84
      },
      {
        "outputs": [
          0.9996602,
          -0.93755937,
          0.99984205,
          0.999947,
          0.8492302,
          0.9993683
        ],
        "time_step": 85
      },
      {
        "outputs": [
          0.99995625,
          -0.9475359,
          0.9998502,
          0.9997855,
          -0.99979913,
          0.99988174
        ],
        "time_step": 86
      },
      {
        "outputs": [
          -0.72816885,
          -0.9294847,
          0.9995326,
          0.9995164,
          -0.9998308,
          -0.6876085
        ],
        "time_step": 87
      },
      {
        "outputs": [
          -0.6913546,
          1.0,
          0.99838656,
          0.9988993,
          -0.9999461,
          -0.84727204
        ],
        "time_step": 88
      },
      {
        "outputs": [
          -0.72702986,
          1.0,
          0.9985473,
          0.9997616,
          0.5323192,
          -0.8241741
        ],
        "time_step": 89
      },
      {
        "outputs": [
          0.9996336,
          1.0,
          0.9994275,
          0.99987584,
          0.5557755,
          0.998366
        ],
        "time_step": 90
      },
      {
        "outputs": [
          0.9996602,
          -0.93755937,
          0.99984205,
          0.999947,
          0.8492302,
          0.9993683
        ],
        "time_step": 91
      },
      {
        "outputs": [
          0.99995625,
          -0.9475359,
          0.9998502,
          0.9997855,
          -0.99979913,
          0.99988174
        ],
        "time_step": 92
      },
      {
        "outputs": [
          -0.72816885,
          -0.9294847,
          0.9995326,
          0.9995164,
          -0.9998308,
          -0.6876085
        ],
        "time_step": 93
      },
      {
        "outputs": [
          -0.6913546,
          1.0,
          0.99838656,
          0.9988993,
          -0.9999461,
          -0.84727204
        ],
        "time_step": 94
      },
      {
        "outputs": [
          -0.72702986,
          1.0,
          0.9985473,
          0.9997616,
          0.5323192,
          -0.8241741
        ],
        "time_step": 95
      },
      {
        "outputs": [
          0.9996336,
          1.0,
          0.9994275,
          0.99987584,
          0.5557755,
          0.998366
        ],
        "time_step": 96
      },
      {
        "outputs": [
          0.9996602,
          -0.93755937,
          0.99984205,
          0.999947,
          0.8492302,
          0.9993683
        ],
        "time_step": 97
      },
      {
        "outputs": [
          0.99995625,
          -0.9475359,
          0.9998502,
          0.9997855,
          -0.99979913,
          0.99988174
        ],
        "time_step": 98
      },
      {
        "outputs": [
          -0.72816885,
          -0.9294847,
          0.9995326,
          0.9995164,
          -0.9998308,
          -0.6876085
        ],
        "time_step": 99
      },
      {
        "outputs": [
          -0.6913546,
          1.0,
          0.99838656,
          0.9988993,
          -0.9999461,
          -0.84727204
        ],
        "time_step": 100
      }
    ]
  },
  "graph": {
    "nodes": [
      [
        0,
        -0.19
      ],
      [
        1,
        0.22
      ],
      [
        2,
        -0.01
      ],
      [
        3,
        0.02
      ],
      [
        4,
        0.55
      ],
      [
        5,
        0.08
      ]
    ],
    "node_holes": [],
    "edge_property": "directed",
    "edges": [
      [
        0,
        0,
        -0.27
      ],
      [
        1,
        1,
        0.03
      ],
      [
        2,
        2,
        0.26
      ],
      [
        3,
        3,
        0.12
      ],
      [
        4,
        4,
        0.03
      ],
      [
        1,
        0,
        -0.01
      ],
      [
        2,
        0,
        0.06
      ],
      [
        3,
        0,
        -3.66
      ],
      [
        4,
        0,
        3.4
      ],
      [
        5,
        0,
        0.23
      ],
      [
        0,
        1,
        -2.65
      ],
      [
        2,
        1,
        0.07
      ],
      [
        3,
        1,
        -3.64
      ],
      [
        4,
        1,
        -0.08
      ],
      [
        5,
        1,
        -3.94
      ],
      [
        0,
        2,
        0.24
      ],
      [
        1,
        2,
        0.03
      ],
      [
        3,
        2,
        -0.03
      ],
      [
        4,
        2,
        0.31
      ],
      [
        5,
        2,
        0.12
      ],
      [
        0,
        3,
        0.22
      ],
      [
        1,
        3,
        0.39
      ],
      [
        2,
        3,
        0.1
      ],
      [
        4,
        3,
        0.22
      ],
      [
        5,
        3,
        0.02
      ],
      [
        0,
        4,
        0.36
      ],
      [
        1,
        4,
        3.03
      ],
      [
        2,
        4,
        -0.18
      ],
      [
        3,
        4,
        0.25
      ],
      [
        0,
        5,
        0.23
      ],
      [
        1,
        5,
        0.04
      ],
      [
        2,
        5,
        -0.33
      ],
      [
        3,
        5,
        0.03
      ],
      [
        4,
        5,
        3.09
      ]
    ]
  },
  "statistics": {
    "deleted_neurons": 0,
    "deleted_weights": 42,
    "deleted_biases": 0,
    "deleted_self_activations": 43,
    "mutated_neurons": 148,
    "mutated_weights": 183,
    "mutated_biases": 219,
    "mutated_self_activations": 251,
    "fitness": 0.0,
    "variance": 0.0
  },
  "mutation_variance": 0.2,
  "mean": 0.1,
  "retina_positions": [
    [
      {
        "x": 32,
        "y": 32
      },
      63,
      ""
    ],
    [
      {
        "x": 56,
        "y": 57
      },
      63,
      ""
    ],
    [
      {
        "x": 56,
        "y": 57
      },
      63,
      ""
    ],
    [
      {
        "x": 80,
        "y": 34
      },
      63,
      ""
    ],
    [
      {
        "x": 80,
        "y": 34
      },
      63,
      ""
    ],
    [
      {
        "x": 104,
        "y": 32
      },
      63,
      ""
    ],
    [
      {
        "x": 104,
        "y": 32
      },
      63,
      ""
    ],
    [
      {
        "x": 86,
        "y": 32
      },
      63,
      ""
    ],
    [
      {
        "x": 86,
        "y": 32
      },
      63,
      ""
    ],
    [
      {
        "x": 69,
        "y": 57
      },
      63,
      ""
    ],
    [
      {
        "x": 69,
        "y": 57
      },
      63,
      ""
    ],
    [
      {
        "x": 51,
        "y": 82
      },
      63,
      ""
    ],
    [
      {
        "x": 51,
        "y": 82
      },
      63,
      ""
    ],
    [
      {
        "x": 75,
        "y": 107
      },
      63,
      ""
    ],
    [
      {
        "x": 75,
        "y": 107
      },
      63,
      ""
    ],
    [
      {
        "x": 99,
        "y": 84
      },
      63,
      ""
    ],
    [
      {
        "x": 99,
        "y": 84
      },
      63,
      ""
    ],
    [
      {
        "x": 123,
        "y": 61
      },
      63,
      ""
    ],
    [
      {
        "x": 123,
        "y": 61
      },
      63,
      ""
    ],
    [
      {
        "x": 105,
        "y": 38
      },
      63,
      ""
    ],
    [
      {
        "x": 105,
        "y": 38
      },
      63,
      ""
    ],
    [
      {
        "x": 88,
        "y": 63
      },
      63,
      ""
    ],
    [
      {
        "x": 88,
        "y": 63
      },
      63,
      ""
    ],
    [
      {
        "x": 70,
        "y": 88
      },
      63,
      ""
    ],
    [
      {
        "x": 70,
        "y": 88
      },
      63,
      ""
    ],
    [
      {
        "x": 94,
        "y": 113
      },
      63,
      ""
    ],
    [
      {
        "x": 94,
        "y": 113
      },
      63,
      ""
    ],
    [
      {
        "x": 118,
        "y": 90
      },
      63,
      ""
    ],
    [
      {
        "x": 118,
        "y": 90
      },
      63,
      ""
    ],
    [
      {
        "x": 142,
        "y": 67
      },
      63,
      ""
    ],
    [
      {
        "x": 142,
        "y": 67
      },
      63,
      ""
    ],
    [
      {
        "x": 124,
        "y": 44
      },
      63,
      ""
    ],
    [
      {
        "x": 124,
        "y": 44
      },
      63,
      ""
    ],
    [
      {
        "x": 107,
        "y": 69
      },
      63,
      ""
    ],
    [
      {
        "x": 107,
        "y": 69
      },
      63,
      ""
    ],
    [
      {
        "x": 89,
        "y": 94
      },
      63,
      ""
    ],
    [
      {
        "x": 89,
        "y": 94
      },
      63,
      ""
    ],
    [
      {
        "x": 113,
        "y": 119
      },
      63,
      ""
    ],
    [
      {
        "x": 113,
        "y": 119
      },
      63,
      ""
    ],
    [
      {
        "x": 137,
        "y": 96
      },
      63,
      ""
    ],
    [
      {
        "x": 137,
        "y": 96
      },
      63,
      ""
    ],
    [
      {
        "x": 161,
        "y": 73
      },
      63,
      ""
    ],
    [
      {
        "x": 161,
        "y": 73
      },
      63,
      ""
    ],
    [
      {
        "x": 143,
        "y": 50
      },
      63,
      ""
    ],
    [
      {
        "x": 143,
        "y": 50
      },
      63,
      ""
    ],
    [
      {
        "x": 126,
        "y": 75
      },
      63,
      ""
    ],
    [
      {
        "x": 126,
        "y": 75
      },
      63,
      ""
    ],
    [
      {
        "x": 108,
        "y": 100
      },
      63,
      ""
    ],
    [
      {
        "x": 108,
        "y": 100
      },
      63,
      ""
    ],
    [
      {
        "x": 132,
        "y": 125
      },
      63,
      ""
    ],
    [
      {
        "x": 132,
        "y": 125
      },
      63,
      ""
    ],
    [
      {
        "x": 156,
        "y": 102
      },
      63,
      ""
    ],
    [
      {
        "x": 156,
        "y": 102
      },
      63,
      ""
    ],
    [
      {
        "x": 180,
        "y": 79
      },
      63,
      ""
    ],
    [
      {
        "x": 180,
        "y": 79
      },
      63,
      ""
    ],
    [
      {
        "x": 162,
        "y": 56
      },
      63,
      ""
    ],
    [
      {
        "x": 162,
        "y": 56
      },
      63,
      ""
    ],
    [
      {
        "x": 145,
        "y": 81
      },
      63,
      ""
    ],
    [
      {
        "x": 145,
        "y": 81
      },
      63,
      ""
    ],
    [
      {
        "x": 127,
        "y": 106
      },
      63,
      ""
    ],
    [
      {
        "x": 127,
        "y": 106
      },
      63,
      ""
    ],
    [
      {
        "x": 151,
        "y": 131
      },
      63,
      ""
    ],
    [
      {
        "x": 151,
        "y": 131
      },
      63,
      ""
    ],
    [
      {
        "x": 175,
        "y": 108
      },
      63,
      ""
    ],
    [
      {
        "x": 175,
        "y": 108
      },
      63,
      ""
    ],
    [
      {
        "x": 199,
        "y": 85
      },
      63,
      ""
    ],
    [
      {
        "x": 199,
        "y": 85
      },
      63,
      ""
    ],
    [
      {
        "x": 181,
        "y": 62
      },
      63,
      ""
    ],
    [
      {
        "x": 181,
        "y": 62
      },
      63,
      ""
    ],
    [
      {
        "x": 164,
        "y": 87
      },
      63,
      ""
    ],
    [
      {
        "x": 164,
        "y": 87
      },
      63,
      ""
    ],
    [
      {
        "x": 146,
        "y": 112
      },
      63,
      ""
    ],
    [
      {
        "x": 146,
        "y": 112
      },
      63,
      ""
    ],
    [
      {
        "x": 170,
        "y": 137
      },
      63,
      ""
    ],
    [
      {
        "x": 170,
        "y": 137
      },
      63,
      ""
    ],
    [
      {
        "x": 194,
        "y": 114
      },
      63,
      ""
    ],
    [
      {
        "x": 194,
        "y": 114
      },
      63,
      ""
    ],
    [
      {
        "x": 218,
        "y": 91
      },
      63,
      ""
    ],
    [
      {
        "x": 218,
        "y": 91
      },
      63,
      ""
    ],
    [
      {
        "x": 200,
        "y": 68
      },
      63,
      ""
    ],
    [
      {
        "x": 200,
        "y": 68
      },
      63,
      ""
    ],
    [
      {
        "x": 183,
        "y": 93
      },
      63,
      ""
    ],
    [
      {
        "x": 183,
        "y": 93
      },
      63,
      ""
    ],
    [
      {
        "x": 165,
        "y": 118
      },
      63,
      ""
    ],
    [
      {
        "x": 165,
        "y": 118
      },
      63,
      ""
    ],
    [
      {
        "x": 189,
        "y": 143
      },
      63,
      ""
    ],
    [
      {
        "x": 189,
        "y": 143
      },
      63,
      ""
    ],
    [
      {
        "x": 213,
        "y": 120
      },
      63,
      ""
    ],
    [
      {
        "x": 213,
        "y": 120
      },
      63,
      ""
    ],
    [
      {
        "x": 237,
        "y": 97
      },
      63,
      ""
    ],
    [
      {
        "x": 237,
        "y": 97
      },
      63,
      ""
    ],
    [
      {
        "x": 219,
        "y": 74
      },
      63,
      ""
    ],
    [
      {
        "x": 219,
        "y": 74
      },
      63,
      ""
    ],
    [
      {
        "x": 202,
        "y": 99
      },
      63,
      ""
    ],
    [
      {
        "x": 202,
        "y": 99
      },
      63,
      ""
    ],
    [
      {
        "x": 184,
        "y": 124
      },
      63,
      ""
    ],
    [
      {
        "x": 184,
        "y": 124
      },
      63,
      ""
    ],
    [
      {
        "x": 208,
        "y": 149
      },
      63,
      ""
    ],
    [
      {
        "x": 208,
        "y": 149
      },
      63,
      ""
    ],
    [
      {
        "x": 232,
        "y": 126
      },
      63,
      ""
    ],
    [
      {
        "x": 232,
        "y": 126
      },
      63,
      ""
    ],
    [
      {
        "x": 256,
        "y": 103
      },
      63,
      ""
    ],
    [
      {
        "x": 256,
        "y": 103
      },
      63,
      ""
    ],
    [
      {
        "x": 238,
        "y": 80
      },
      63,
      ""
    ],
    [
      {
        "x": 238,
        "y": 80
      },
      63,
      ""
    ],
    [
      {
        "x": 221,
        "y": 105
      },
      63,
      ""
    ],
    [
      {
        "x": 221,
        "y": 105
      },
      63,
      ""
    ],
    [
      {
        "x": 203,
        "y": 130
      },
      63,
      ""
    ],
    [
      {
        "x": 203,
        "y": 130
      },
      63,
      ""
    ],
    [
      {
        "x": 227,
        "y": 155
      },
      63,
      ""
    ],
    [
      {
        "x": 227,
        "y": 155
      },
      63,
      ""
    ],
    [
      {
        "x": 251,
        "y": 132
      },
      63,
      ""
    ],
    [
      {
        "x": 251,
        "y": 132
      },
      63,
      ""
    ],
    [
      {
        "x": 275,
        "y": 109
      },
      63,
      ""
    ],
    [
      {
        "x": 275,
        "y": 109
      },
      63,
      ""
    ],
    [
      {
        "x": 257,
        "y": 86
      },
      63,
      ""
    ],
    [
      {
        "x": 257,
        "y": 86
      },
      63,
      ""
    ],
    [
      {
        "x": 240,
        "y": 111
      },
      63,
      ""
    ],
    [
      {
        "x": 240,
        "y": 111
      },
      63,
      ""
    ],
    [
      {
        "x": 222,
        "y": 136
      },
      63,
      ""
    ],
    [
      {
        "x": 222,
        "y": 136
      },
      63,
      ""
    ],
    [
      {
        "x": 246,
        "y": 161
      },
      63,
      ""
    ],
    [
      {
        "x": 246,
        "y": 161
      },
      63,
      ""
    ],
    [
      {
        "x": 270,
        "y": 138
      },
      63,
      ""
    ],
    [
      {
        "x": 270,
        "y": 138
      },
      63,
      ""
    ],
    [
      {
        "x": 289,
        "y": 115
      },
      63,
      ""
    ],
    [
      {
        "x": 289,
        "y": 115
      },
      63,
      ""
    ],
    [
      {
        "x": 271,
        "y": 92
      },
      63,
      ""
    ],
    [
      {
        "x": 271,
        "y": 92
      },
      63,
      ""
    ],
    [
      {
        "x": 254,
        "y": 117
      },
      63,
      ""
    ],
    [
      {
        "x": 254,
        "y": 117
      },
      63,
      ""
    ],
    [
      {
        "x": 236,
        "y": 142
      },
      63,
      ""
    ],
    [
      {
        "x": 236,
        "y": 142
      },
      63,
      ""
    ],
    [
      {
        "x": 260,
        "y": 167
      },
      63,
      ""
    ],
    [
      {
        "x": 260,
        "y": 167
      },
      63,
      ""
    ],
    [
      {
        "x": 284,
        "y": 144
      },
      63,
      ""
    ],
    [
      {
        "x": 284,
        "y": 144
      },
      63,
      ""
    ],
    [
      {
        "x": 289,
        "y": 121
      },
      63,
      ""
    ],
    [
      {
        "x": 289,
        "y": 121
      },
      63,
      ""
    ],
    [
      {
        "x": 271,
        "y": 98
      },
      63,
      ""
    ],
    [
      {
        "x": 271,
        "y": 98
      },
      63,
      ""
    ],
    [
      {
        "x": 254,
        "y": 123
      },
      63,
      ""
    ],
    [
      {
        "x": 254,
        "y": 123
      },
      63,
      ""
    ],
    [
      {
        "x": 236,
        "y": 148
      },
      63,
      ""
    ],
    [
      {
        "x": 236,
        "y": 148
      },
      63,
      ""
    ],
    [
      {
        "x": 260,
        "y": 173
      },
      63,
      ""
    ],
    [
      {
        "x": 260,
        "y": 173
      },
      63,
      ""
    ],
    [
      {
        "x": 284,
        "y": 150
      },
      63,
      ""
    ],
    [
      {
        "x": 284,
        "y": 150
      },
      63,
      ""
    ],
    [
      {
        "x": 289,
        "y": 127
      },
      63,
      ""
    ],
    [
      {
        "x": 289,
        "y": 127
      },
      63,
      ""
    ],
    [
      {
        "x": 271,
        "y": 104
      },
      63,
      ""
    ],
    [
      {
        "x": 271,
        "y": 104
      },
      63,
      ""
    ],
    [
      {
        "x": 254,
        "y": 129
      },
      63,
      ""
    ],
    [
      {
        "x": 254,
        "y": 129
      },
      63,
      ""
    ],
    [
      {
        "x": 236,
        "y": 154
      },
      63,
      ""
    ],
    [
      {
        "x": 236,
        "y": 154
      },
      63,
      ""
    ],
    [
      {
        "x": 260,
        "y": 179
      },
      63,
      ""
    ],
    [
      {
        "x": 260,
        "y": 179
      },
      63,
      ""
    ],
    [
      {
        "x": 284,
        "y": 156
      },
      63,
      ""
    ],
    [
      {
        "x": 284,
        "y": 156
      },
      63,
      ""
    ],
    [
      {
        "x": 289,
        "y": 133
      },
      63,
      ""
    ],
    [
      {
        "x": 289,
        "y": 133
      },
      63,
      ""
    ],
    [
      {
        "x": 271,
        "y": 110
      },
      63,
      ""
    ],
    [
      {
        "x": 271,
        "y": 110
      },
      63,
      ""
    ],
    [
      {
        "x": 254,
        "y": 135
      },
      63,
      ""
    ],
    [
      {
        "x": 254,
        "y": 135
      },
      63,
      ""
    ],
    [
      {
        "x": 236,
        "y": 160
      },
      63,
      ""
    ],
    [
      {
        "x": 236,
        "y": 160
      },
      63,
      ""
    ],
    [
      {
        "x": 260,
        "y": 185
      },
      63,
      ""
    ],
    [
      {
        "x": 260,
        "y": 185
      },
      63,
      ""
    ],
    [
      {
        "x": 284,
        "y": 162
      },
      63,
      ""
    ],
    [
      {
        "x": 284,
        "y": 162
      },
      63,
      ""
    ],
    [
      {
        "x": 289,
        "y": 139
      },
      63,
      ""
    ],
    [
      {
        "x": 289,
        "y": 139
      },
      63,
      ""
    ],
    [
      {
        "x": 271,
        "y": 116
      },
      63,
      ""
    ],
    [
      {
        "x": 271,
        "y": 116
      },
      63,
      ""
    ],
    [
      {
        "x": 254,
        "y": 141
      },
      63,
      ""
    ],
    [
      {
        "x": 254,
        "y": 141
      },
      63,
      ""
    ],
    [
      {
        "x": 236,
        "y": 166
      },
      63,
      ""
    ],
    [
      {
        "x": 236,
        "y": 166
      },
      63,
      ""
    ],
    [
      {
        "x": 260,
        "y": 191
      },
      63,
      ""
    ],
    [
      {
        "x": 260,
        "y": 191
      },
      63,
      ""
    ],
    [
      {
        "x": 284,
        "y": 168
      },
      63,
      ""
    ],
    [
      {
        "x": 284,
        "y": 168
      },
      63,
      ""
    ],
    [
      {
        "x": 289,
        "y": 145
      },
      63,
      ""
    ],
    [
      {
        "x": 289,
        "y": 145
      },
      63,
      ""
    ],
    [
      {
        "x": 271,
        "y": 122
      },
      63,
      ""
    ],
    [
      {
        "x": 271,
        "y": 122
      },
      63,
      ""
    ],
    [
      {
        "x": 254,
        "y": 147
      },
      63,
      ""
    ],
    [
      {
        "x": 254,
        "y": 147
      },
      63,
      ""
    ],
    [
      {
        "x": 236,
        "y": 172
      },
      63,
      ""
    ],
    [
      {
        "x": 236,
        "y": 172
      },
      63,
      ""
    ],
    [
      {
        "x": 260,
        "y": 197
      },
      63,
      ""
    ],
    [
      {
        "x": 260,
        "y": 197
      },
      63,
      ""
    ],
    [
      {
        "x": 284,
        "y": 174
      },
      63,
      ""
    ],
    [
      {
        "x": 284,
        "y": 174
      },
      63,
      ""
    ],
    [
      {
        "x": 289,
        "y": 151
      },
      63,
      ""
    ],
    [
      {
        "x": 289,
        "y": 151
      },
      63,
      ""
    ],
    [
      {
        "x": 271,
        "y": 128
      },
      63,
      ""
    ]
  ]
}
