{
  "neurons": [
    {
      "index": 0,
      "output": 0.9992362,
      "input_connections": [
        [
          1,
          -0.013734385
        ],
        [
          2,
          0.05505736
        ],
        [
          3,
          0.21689507
        ],
        [
          4,
          3.4020872
        ],
        [
          5,
          0.23304299
        ]
      ],
      "bias": 0.13960813,
      "self_activation": 0.15470365,
      "retina_weights": [
        0.0,
        0.22254461,
        0.0,
        0.0,
        0.0,
        0.0,
        0.0,
        0.0,
        1.3803372,
        0.07113658,
        0.0,
        0.0,
        0.04602586,
        0.060356196,
        0.0,
        0.29033962,
        0.0,
        0.0,
        0.0,
        0.0,
        1.4322,
        -0.43584982,
        0.0047623515,
        -0.2391231,
        0.0,
        0.0,
        0.0,
        0.0,
        0.0,
        -0.15440068,
        0.0,
        -0.23810735,
        0.0,
        0.12908657,
        0.0,
        0.0,
        0.0,
        0.0,
        0.0,
        -0.049618118,
        0.0,
        0.0,
        -0.29682592,
        0.074658714,
        0.0,
        0.015043706,
        0.0,
        0.0,
        0.0,
        -0.18150592,
        0.07415602,
        0.0,
        0.0,
        -0.0070035458,
        0.0,
        3.9282236,
        0.0,
        0.0,
        0.0,
        0.18173534,
        0.0,
        0.0,
        0.0,
        -0.06217953,
        0.18407077,
        0.0,
        0.20291537,
        0.0,
        0.0,
        -0.05163031,
        -0.24675739,
        0.0,
        0.08112779,
        0.0019082576,
        0.0,
        0.11567298,
        0.0,
        0.0,
        -0.006662883,
        0.0,
        0.0
      ]
    },
    {
      "index": 1,
      "output": -0.8349986,
      "input_connections": [
        [
          0,
          -2.6484938
        ],
        [
          2,
          0.20375392
        ],
        [
          3,
          -3.640911
        ],
        [
          4,
          -0.024804272
        ],
        [
          5,
          -3.9426003
        ]
      ],
      "bias": 0.41777045,
      "self_activation": -0.16296977,
      "retina_weights": [
        0.19935909,
        0.0,
        0.0,
        0.0265112,
        0.0,
        -0.06476527,
        0.0,
        0.0,
        0.0,
        0.0,
        0.0,
        0.0,
        0.14361101,
        0.1447666,
        -0.030083485,
        0.3089951,
        0.0,
        0.0,
        0.0,
        0.0,
        0.0,
        0.0,
        -0.28098753,
        0.11369376,
        -2.9913282,
        0.0,
        0.0,
        0.0,
        0.0,
        0.0,
        0.0,
        0.0,
        0.0,
        0.29134047,
        -0.03216473,
        0.4728853,
        0.0,
        -1.4852731,
        0.0,
        -0.02554416,
        0.0,
        0.0,
        0.0,
        0.0,
        0.0,
        0.0,
        -0.15303427,
        -0.097299196,
        0.0,
        -0.12680256,
        0.0,
        0.0,
        0.09322106,
        0.0,
        0.0,
        0.0,
        0.0,
        0.21166262,
        0.0,
        -0.13785022,
        0.0,
        0.099359624,
        3.4028912,
        0.0,
        0.0,
        0.0,
        -0.005316198,
        0.0,
        0.0,
        0.0,
        2.211173,
        1.4071116,
        0.0,
        1.1624589,
        3.375517,
        0.0,
        0.0,
        0.0,
        0.0,
        0.0,
        0.0
      ]
    },
    {
      "index": 2,
      "output": 0.99993783,
      "input_connections": [
        [
          0,
          0.13790579
        ],
        [
          1,
          -0.12760854
        ],
        [
          3,
          0.2961278
        ],
        [
          4,
          0.1582605
        ],
        [
          5,
          0.12063718
        ]
      ],
      "bias": 0.3574079,
      "self_activation": 0.58538944,
      "retina_weights": [
        0.0,
        -0.4085879,
        -0.0428515,
        -0.039658867,
        0.25771236,
        0.0,
        0.0,
        0.0,
        -0.07803095,
        -0.012157224,
        0.24890676,
        0.0,
        0.0,
        0.045543414,
        0.0,
        0.09211737,
        -0.06526578,
        -0.27113232,
        0.0,
        0.10846433,
        0.1950821,
        -0.11379767,
        0.52151537,
        0.29636422,
        0.36300516,
        0.0,
        0.0,
        0.0,
        0.0,
        0.04894036,
        0.0,
        -0.13393313,
        0.15793243,
        0.0,
        -0.0038500652,
        0.12199536,
        -0.31466532,
        0.0,
        0.0,
        0.20932567,
        0.44264936,
        0.0,
        0.2829111,
        0.050631497,
        0.0,
        0.0,
        0.026302367,
        0.058995046,
        0.0,
        0.0,
        -0.02774445,
        0.0,
        -0.02534882,
        0.0,
        0.28383404,
        0.15606979,
        0.15060136,
        0.45020562,
        0.0,
        0.0,
        0.0,
        0.23028806,
        -0.03148853,
        -0.21354178,
        -0.0023124367,
        0.22715464,
        0.0,
        0.0,
        0.18165717,
        0.02234725,
        -0.33813405,
        -0.12017078,
        0.38169444,
        0.092385,
        -0.024973854,
        0.12750572,
        0.0,
        0.16359293,
        0.0,
        -0.014623329,
        0.029326074
      ]
    },
    {
      "index": 3,
      "output": 0.9999284,
      "input_connections": [
        [
          0,
          0.117056206
        ],
        [
          1,
          -0.15764531
        ],
        [
          2,
          0.42785734
        ],
        [
          4,
          0.036751345
        ],
        [
          5,
          0.17044851
        ]
      ],
      "bias": 0.023592867,
      "self_activation": 0.009772077,
      "retina_weights": [
        0.33582598,
        0.0,
        0.0,
        0.39682305,
        0.0,
        0.14617233,
        0.38863868,
        0.0,
        -0.14976737,
        0.2834603,
        -0.06513331,
        0.0,
        0.0,
        -0.091699876,
        0.0,
        0.20171812,
        0.0,
        -0.07519347,
        -0.17379582,
        -0.22097275,
        0.1673299,
        0.08694278,
        0.18247029,
        0.19045186,
        0.0,
        0.3750994,
        0.04906237,
        0.0,
        0.4984449,
        -0.04875026,
        0.14452903,
        -0.0035693273,
        0.18109474,
        0.11803999,
        0.0,
        0.0,
        0.11029063,
        0.0,
        0.09181203,
        0.0,
        0.26859412,
        -0.16052628,
        -0.048946984,
        -0.12026233,
        0.047043573,
        0.28925842,
        -0.0004950762,
        0.0,
        -0.17602909,
        0.08126894,
        0.38080078,
        0.20750281,
        0.21423393,
        0.043323334,
        0.4160147,
        -0.14754122,
        -2.1575353,
        -0.08780118,
        -0.050376482,
        0.10198327,
        1.8097014,
        -0.11564698,
        0.19308582,
        0.13608558,
        -0.1950171,
        0.028413966,
        0.04688735,
        -0.13423184,
        -0.2306261,
        -0.05679632,
        -0.9107013,
        0.1235497,
        1.0712323,
        -0.14943591,
        0.0,
        0.0,
        0.0,
        -0.073737375,
        0.052617583,
        0.0,
        0.45891693
      ]
    },
    {
      "index": 4,
      "output": -0.9999006,
      "input_connections": [
        [
          0,
          0.09413033
        ],
        [
          1,
          3.0270424
        ],
        [
          2,
          -0.18315089
        ],
        [
          3,
          0.34380358
        ],
        [
          5,
          -0.41589805
        ]
      ],
      "bias": 0.36913544,
      "self_activation": -0.15788877,
      "retina_weights": [
        0.0,
        0.0,
        -0.19325408,
        0.0,
        -0.079480134,
        2.1334991,
        -0.040552936,
        -0.1423004,
        -0.4562211,
        0.0,
        0.0,
        -1.7501934,
        -0.019567728,
        0.0,
        0.0,
        -0.044124745,
        0.0,
        0.27081588,
        0.2502571,
        0.2017192,
        0.11577589,
        0.28503692,
        -3.149127,
        0.25502253,
        0.0,
        -0.006081894,
        0.0,
        -0.25295725,
        0.2666584,
        0.6289049,
        0.13341448,
        0.008044668,
        0.0,
        0.0,
        0.012503952,
        0.0,
        0.2097952,
        -0.12067025,
        0.0,
        0.0,
        0.0,
        -0.12864104,
        -0.16880041,
        0.23423576,
        0.0,
        -1.5677726,
        0.0,
        0.0,
        0.0,
        0.15254721,
        0.0,
        0.39541727,
        -0.21346486,
        0.0,
        0.0,
        -0.16062665,
        0.0,
        0.11608152,
        -0.19975615,
        0.32202205,
        -0.02018024,
        -0.02727031,
        0.0,
        0.0,
        0.0,
        -0.18006492,
        0.124251366,
        -0.08132041,
        0.0,
        0.1678482,
        0.0,
        0.0,
        0.0,
        0.0,
        0.0,
        0.0,
        0.20871468,
        0.0,
        0.0,
        -0.28692758,
        0.029778354
      ]
    },
    {
      "index": 5,
      "output": -0.63701224,
      "input_connections": [
        [
          0,
          0.2997869
        ],
        [
          1,
          0.10737929
        ],
        [
          2,
          -0.09397077
        ],
        [
          3,
          0.4468605
        ],
        [
          4,
          3.0886211
        ]
      ],
      "bias": -0.015673622,
      "self_activation": 0.0,
      "retina_weights": [
        0.0,
        0.0,
        -0.0641151,
        0.0,
        0.0,
        0.16613773,
        0.0,
        0.0,
        0.0,
        -0.2216604,
        -0.21343994,
        -0.23203743,
        -0.17143798,
        0.17326936,
        0.0,
        0.038618367,
        0.12719312,
        0.0,
        0.26023862,
        0.12936911,
        0.0,
        0.0,
        0.0,
        -0.13683444,
        0.0,
        0.32195255,
        0.0,
        0.09360978,
        0.14374232,
        0.0,
        -0.019036576,
        0.0,
        0.0,
        0.0,
        0.0,
        0.0,
        0.2472035,
        0.1504076,
        -0.38681865,
        0.0,
        -0.08498233,
        0.0,
        0.03353043,
        0.3504483,
        2.4531002,
        0.06804873,
        -0.20531586,
        0.0,
        0.0,
        0.10397328,
        0.0,
        0.2224378,
        -0.06208677,
        -0.2326799,
        0.0,
        0.08617658,
        0.0,
        -0.3537171,
        0.0,
        0.0,
        0.0,
        0.024635985,
        0.21464586,
        0.0,
        0.0,
        0.12823287,
        0.29609305,
        0.32645187,
        0.0,
        -2.1852987,
        0.0,
        0.0,
        0.19999684,
        0.28116307,
        0.0,
        -0.22040227,
        0.0,
        0.0036026388,
        0.18916109,
        0.0,
        -0.25457335
      ]
    }
  ],
  "short_term_memory": {
    "snapshots": [
      {
        "outputs": [
          0.99828345,
          0.9998981,
          0.9998523,
          0.99977636,
          0.8632933,
          -0.50389767
        ],
        "time_step": 0
      },
      {
        "outputs": [
          1.0,
          0.9996824,
          0.99992067,
          0.9998136,
          0.74279904,
          0.999939
        ],
        "time_step": 1
      },
      {
        "outputs": [
          1.0,
          -0.9149025,
          0.9999427,
          0.9998874,
          0.33618537,
          0.9998718
        ],
        "time_step": 2
      },
      {
        "outputs": [
          0.99999994,
          -0.8439391,
          0.99996,
          0.9999366,
          -0.9999577,
          0.99761885
        ],
        "time_step": 3
      },
      {
        "outputs": [
          0.9992362,
          -0.8349986,
          0.99993783,
          0.9999284,
          -0.9999006,
          -0.63701224
        ],
        "time_step": 4
      },
      {
        "outputs": [
          0.9983644,
          0.9999439,
          0.99990755,
          0.9998746,
          -0.99959147,
          -0.63647366
        ],
        "time_step": 5
      },
      {
        "outputs": [
          0.99828345,
          0.9998981,
          0.9998523,
          0.99977636,
          0.8632933,
          -0.50389767
        ],
        "time_step": 6
      },
      {
        "outputs": [
          1.0,
          0.9996824,
          0.99992067,
          0.9998136,
          0.74279904,
          0.999939
        ],
        "time_step": 7
      },
      {
        "outputs": [
          1.0,
          -0.9149025,
          0.9999427,
          0.9998874,
          0.33618537,
          0.9998718
        ],
        "time_step": 8
      },
      {
        "outputs": [
          0.99999994,
          -0.8439391,
          0.99996,
          0.9999366,
          -0.9999577,
          0.99761885
        ],
        "time_step": 9
      },
      {
        "outputs": [
          0.9992362,
          -0.8349986,
          0.99993783,
          0.9999284,
          -0.9999006,
          -0.63701224
        ],
        "time_step": 10
      },
      {
        "outputs": [
          0.9983644,
          0.9999439,
          0.99990755,
          0.9998746,
          -0.99959147,
          -0.63647366
        ],
        "time_step": 11
      },
      {
        "outputs": [
          0.99828345,
          0.9998981,
          0.9998523,
          0.99977636,
          0.8632933,
          -0.50389767
        ],
        "time_step": 12
      },
      {
        "outputs": [
          1.0,
          0.9996824,
          0.99992067,
          0.9998136,
          0.74279904,
          0.999939
        ],
        "time_step": 13
      },
      {
        "outputs": [
          1.0,
          -0.9149025,
          0.9999427,
          0.9998874,
          0.33618537,
          0.9998718
        ],
        "time_step": 14
      },
      {
        "outputs": [
          0.99999994,
          -0.8439391,
          0.99996,
          0.9999366,
          -0.9999577,
          0.99761885
        ],
        "time_step": 15
      },
      {
        "outputs": [
          0.9992362,
          -0.8349986,
          0.99993783,
          0.9999284,
          -0.9999006,
          -0.63701224
        ],
        "time_step": 16
      },
      {
        "outputs": [
          0.9983644,
          0.9999439,
          0.99990755,
          0.9998746,
          -0.99959147,
          -0.63647366
        ],
        "time_step": 17
      },
      {
        "outputs": [
          0.99828345,
          0.9998981,
          0.9998523,
          0.99977636,
          0.8632933,
          -0.50389767
        ],
        "time_step": 18
      },
      {
        "outputs": [
          1.0,
          0.9996824,
          0.99992067,
          0.9998136,
          0.74279904,
          0.999939
        ],
        "time_step": 19
      },
      {
        "outputs": [
          1.0,
          -0.9149025,
          0.9999427,
          0.9998874,
          0.33618537,
          0.9998718
        ],
        "time_step": 20
      },
      {
        "outputs": [
          0.99999994,
          -0.8439391,
          0.99996,
          0.9999366,
          -0.9999577,
          0.99761885
        ],
        "time_step": 21
      },
      {
        "outputs": [
          0.9992362,
          -0.8349986,
          0.99993783,
          0.9999284,
          -0.9999006,
          -0.63701224
        ],
        "time_step": 22
      },
      {
        "outputs": [
          0.9983644,
          0.9999439,
          0.99990755,
          0.9998746,
          -0.99959147,
          -0.63647366
        ],
        "time_step": 23
      },
      {
        "outputs": [
          0.99828345,
          0.9998981,
          0.9998523,
          0.99977636,
          0.8632933,
          -0.50389767
        ],
        "time_step": 24
      },
      {
        "outputs": [
          1.0,
          0.9996824,
          0.99992067,
          0.9998136,
          0.74279904,
          0.999939
        ],
        "time_step": 25
      },
      {
        "outputs": [
          1.0,
          -0.9149025,
          0.9999427,
          0.9998874,
          0.33618537,
          0.9998718
        ],
        "time_step": 26
      },
      {
        "outputs": [
          0.99999994,
          -0.8439391,
          0.99996,
          0.9999366,
          -0.9999577,
          0.99761885
        ],
        "time_step": 27
      },
      {
        "outputs": [
          0.9992362,
          -0.8349986,
          0.99993783,
          0.9999284,
          -0.9999006,
          -0.63701224
        ],
        "time_step": 28
      },
      {
        "outputs": [
          0.9983644,
          0.9999439,
          0.99990755,
          0.9998746,
          -0.99959147,
          -0.63647366
        ],
        "time_step": 29
      },
      {
        "outputs": [
          0.99828345,
          0.9998981,
          0.9998523,
          0.99977636,
          0.8632933,
          -0.50389767
        ],
        "time_step": 30
      },
      {
        "outputs": [
          1.0,
          0.9996824,
          0.99992067,
          0.9998136,
          0.74279904,
          0.999939
        ],
        "time_step": 31
      },
      {
        "outputs": [
          1.0,
          -0.9149025,
          0.9999427,
          0.9998874,
          0.33618537,
          0.9998718
        ],
        "time_step": 32
      },
      {
        "outputs": [
          0.99999994,
          -0.8439391,
          0.99996,
          0.9999366,
          -0.9999577,
          0.99761885
        ],
        "time_step": 33
      },
      {
        "outputs": [
          0.9992362,
          -0.8349986,
          0.99993783,
          0.9999284,
          -0.9999006,
          -0.63701224
        ],
        "time_step": 34
      },
      {
        "outputs": [
          0.9983644,
          0.9999439,
          0.99990755,
          0.9998746,
          -0.99959147,
          -0.63647366
        ],
        "time_step": 35
      },
      {
        "outputs": [
          0.99828345,
          0.9998981,
          0.9998523,
          0.99977636,
          0.8632933,
          -0.50389767
        ],
        "time_step": 36
      },
      {
        "outputs": [
          1.0,
          0.9996824,
          0.99992067,
          0.9998136,
          0.74279904,
          0.999939
        ],
        "time_step": 37
      },
      {
        "outputs": [
          1.0,
          -0.9149025,
          0.9999427,
          0.9998874,
          0.33618537,
          0.9998718
        ],
        "time_step": 38
      },
      {
        "outputs": [
          0.99999994,
          -0.8439391,
          0.99996,
          0.9999366,
          -0.9999577,
          0.99761885
        ],
        "time_step": 39
      },
      {
        "outputs": [
          0.9992362,
          -0.8349986,
          0.99993783,
          0.9999284,
          -0.9999006,
          -0.63701224
        ],
        "time_step": 40
      },
      {
        "outputs": [
          0.9983644,
          0.9999439,
          0.99990755,
          0.9998746,
          -0.99959147,
          -0.63647366
        ],
        "time_step": 41
      },
      {
        "outputs": [
          0.99828345,
          0.9998981,
          0.9998523,
          0.99977636,
          0.8632933,
          -0.50389767
        ],
        "time_step": 42
      },
      {
        "outputs": [
          1.0,
          0.9996824,
          0.99992067,
          0.9998136,
          0.74279904,
          0.999939
        ],
        "time_step": 43
      },
      {
        "outputs": [
          1.0,
          -0.9149025,
          0.9999427,
          0.9998874,
          0.33618537,
          0.9998718
        ],
        "time_step": 44
      },
      {
        "outputs": [
          0.99999994,
          -0.8439391,
          0.99996,
          0.9999366,
          -0.9999577,
          0.99761885
        ],
        "time_step": 45
      },
      {
        "outputs": [
          0.9992362,
          -0.8349986,
          0.99993783,
          0.9999284,
          -0.9999006,
          -0.63701224
        ],
        "time_step": 46
      },
      {
        "outputs": [
          0.9983644,
          0.9999439,
          0.99990755,
          0.9998746,
          -0.99959147,
          -0.63647366
        ],
        "time_step": 47
      },
      {
        "outputs": [
          0.99828345,
          0.9998981,
          0.9998523,
          0.99977636,
          0.8632933,
          -0.50389767
        ],
        "time_step": 48
      },
      {
        "outputs": [
          1.0,
          0.9996824,
          0.99992067,
          0.9998136,
          0.74279904,
          0.999939
        ],
        "time_step": 49
      },
      {
        "outputs": [
          1.0,
          -0.9149025,
          0.9999427,
          0.9998874,
          0.33618537,
          0.9998718
        ],
        "time_step": 50
      },
      {
        "outputs": [
          0.99999994,
          -0.8439391,
          0.99996,
          0.9999366,
          -0.9999577,
          0.99761885
        ],
        "time_step": 51
      },
      {
        "outputs": [
          0.9992362,
          -0.8349986,
          0.99993783,
          0.9999284,
          -0.9999006,
          -0.63701224
        ],
        "time_step": 52
      },
      {
        "outputs": [
          0.9983644,
          0.9999439,
          0.99990755,
          0.9998746,
          -0.99959147,
          -0.63647366
        ],
        "time_step": 53
      },
      {
        "outputs": [
          0.99828345,
          0.9998981,
          0.9998523,
          0.99977636,
          0.8632933,
          -0.50389767
        ],
        "time_step": 54
      },
      {
        "outputs": [
          1.0,
          0.9996824,
          0.99992067,
          0.9998136,
          0.74279904,
          0.999939
        ],
        "time_step": 55
      },
      {
        "outputs": [
          1.0,
          -0.9149025,
          0.9999427,
          0.9998874,
          0.33618537,
          0.9998718
        ],
        "time_step": 56
      },
      {
        "outputs": [
          0.99999994,
          -0.8439391,
          0.99996,
          0.9999366,
          -0.9999577,
          0.99761885
        ],
        "time_step": 57
      },
      {
        "outputs": [
          0.9992362,
          -0.8349986,
          0.99993783,
          0.9999284,
          -0.9999006,
          -0.63701224
        ],
        "time_step": 58
      },
      {
        "outputs": [
          0.9983644,
          0.9999439,
          0.99990755,
          0.9998746,
          -0.99959147,
          -0.63647366
        ],
        "time_step": 59
      },
      {
        "outputs": [
          0.99828345,
          0.9998981,
          0.9998523,
          0.99977636,
          0.8632933,
          -0.50389767
        ],
        "time_step": 60
      },
      {
        "outputs": [
          1.0,
          0.9996824,
          0.99992067,
          0.9998136,
          0.74279904,
          0.999939
        ],
        "time_step": 61
      },
      {
        "outputs": [
          1.0,
          -0.9149025,
          0.9999427,
          0.9998874,
          0.33618537,
          0.9998718
        ],
        "time_step": 62
      },
      {
        "outputs": [
          0.99999994,
          -0.8439391,
          0.99996,
          0.9999366,
          -0.9999577,
          0.99761885
        ],
        "time_step": 63
      },
      {
        "outputs": [
          0.9992362,
          -0.8349986,
          0.99993783,
          0.9999284,
          -0.9999006,
          -0.63701224
        ],
        "time_step": 64
      },
      {
        "outputs": [
          0.9983644,
          0.9999439,
          0.99990755,
          0.9998746,
          -0.99959147,
          -0.63647366
        ],
        "time_step": 65
      },
      {
        "outputs": [
          0.99828345,
          0.9998981,
          0.9998523,
          0.99977636,
          0.8632933,
          -0.50389767
        ],
        "time_step": 66
      },
      {
        "outputs": [
          1.0,
          0.9996824,
          0.99992067,
          0.9998136,
          0.74279904,
          0.999939
        ],
        "time_step": 67
      },
      {
        "outputs": [
          1.0,
          -0.9149025,
          0.9999427,
          0.9998874,
          0.33618537,
          0.9998718
        ],
        "time_step": 68
      },
      {
        "outputs": [
          0.99999994,
          -0.8439391,
          0.99996,
          0.9999366,
          -0.9999577,
          0.99761885
        ],
        "time_step": 69
      },
      {
        "outputs": [
          0.9992362,
          -0.8349986,
          0.99993783,
          0.9999284,
          -0.9999006,
          -0.63701224
        ],
        "time_step": 70
      },
      {
        "outputs": [
          0.9983644,
          0.9999439,
          0.99990755,
          0.9998746,
          -0.99959147,
          -0.63647366
        ],
        "time_step": 71
      },
      {
        "outputs": [
          0.99828345,
          0.9998981,
          0.9998523,
          0.99977636,
          0.8632933,
          -0.50389767
        ],
        "time_step": 72
      },
      {
        "outputs": [
          1.0,
          0.9996824,
          0.99992067,
          0.9998136,
          0.74279904,
          0.999939
        ],
        "time_step": 73
      },
      {
        "outputs": [
          1.0,
          -0.9149025,
          0.9999427,
          0.9998874,
          0.33618537,
          0.9998718
        ],
        "time_step": 74
      },
      {
        "outputs": [
          0.99999994,
          -0.8439391,
          0.99996,
          0.9999366,
          -0.9999577,
          0.99761885
        ],
        "time_step": 75
      },
      {
        "outputs": [
          0.9992362,
          -0.8349986,
          0.99993783,
          0.9999284,
          -0.9999006,
          -0.63701224
        ],
        "time_step": 76
      },
      {
        "outputs": [
          0.9983644,
          0.9999439,
          0.99990755,
          0.9998746,
          -0.99959147,
          -0.63647366
        ],
        "time_step": 77
      },
      {
        "outputs": [
          0.99828345,
          0.9998981,
          0.9998523,
          0.99977636,
          0.8632933,
          -0.50389767
        ],
        "time_step": 78
      },
      {
        "outputs": [
          1.0,
          0.9996824,
          0.99992067,
          0.9998136,
          0.74279904,
          0.999939
        ],
        "time_step": 79
      },
      {
        "outputs": [
          1.0,
          -0.9149025,
          0.9999427,
          0.9998874,
          0.33618537,
          0.9998718
        ],
        "time_step": 80
      },
      {
        "outputs": [
          0.99999994,
          -0.8439391,
          0.99996,
          0.9999366,
          -0.9999577,
          0.99761885
        ],
        "time_step": 81
      },
      {
        "outputs": [
          0.9992362,
          -0.8349986,
          0.99993783,
          0.9999284,
          -0.9999006,
          -0.63701224
        ],
        "time_step": 82
      },
      {
        "outputs": [
          0.9983644,
          0.9999439,
          0.99990755,
          0.9998746,
          -0.99959147,
          -0.63647366
        ],
        "time_step": 83
      },
      {
        "outputs": [
          0.99828345,
          0.9998981,
          0.9998523,
          0.99977636,
          0.8632933,
          -0.50389767
        ],
        "time_step": 84
      },
      {
        "outputs": [
          1.0,
          0.9996824,
          0.99992067,
          0.9998136,
          0.74279904,
          0.999939
        ],
        "time_step": 85
      },
      {
        "outputs": [
          1.0,
          -0.9149025,
          0.9999427,
          0.9998874,
          0.33618537,
          0.9998718
        ],
        "time_step": 86
      },
      {
        "outputs": [
          0.99999994,
          -0.8439391,
          0.99996,
          0.9999366,
          -0.9999577,
          0.99761885
        ],
        "time_step": 87
      },
      {
        "outputs": [
          0.9992362,
          -0.8349986,
          0.99993783,
          0.9999284,
          -0.9999006,
          -0.63701224
        ],
        "time_step": 88
      },
      {
        "outputs": [
          0.9983644,
          0.9999439,
          0.99990755,
          0.9998746,
          -0.99959147,
          -0.63647366
        ],
        "time_step": 89
      },
      {
        "outputs": [
          0.99828345,
          0.9998981,
          0.9998523,
          0.99977636,
          0.8632933,
          -0.50389767
        ],
        "time_step": 90
      },
      {
        "outputs": [
          1.0,
          0.9996824,
          0.99992067,
          0.9998136,
          0.74279904,
          0.999939
        ],
        "time_step": 91
      },
      {
        "outputs": [
          1.0,
          -0.9149025,
          0.9999427,
          0.9998874,
          0.33618537,
          0.9998718
        ],
        "time_step": 92
      },
      {
        "outputs": [
          0.99999994,
          -0.8439391,
          0.99996,
          0.9999366,
          -0.9999577,
          0.99761885
        ],
        "time_step": 93
      },
      {
        "outputs": [
          0.9992362,
          -0.8349986,
          0.99993783,
          0.9999284,
          -0.9999006,
          -0.63701224
        ],
        "time_step": 94
      },
      {
        "outputs": [
          0.9983644,
          0.9999439,
          0.99990755,
          0.9998746,
          -0.99959147,
          -0.63647366
        ],
        "time_step": 95
      },
      {
        "outputs": [
          0.99828345,
          0.9998981,
          0.9998523,
          0.99977636,
          0.8632933,
          -0.50389767
        ],
        "time_step": 96
      },
      {
        "outputs": [
          1.0,
          0.9996824,
          0.99992067,
          0.9998136,
          0.74279904,
          0.999939
        ],
        "time_step": 97
      },
      {
        "outputs": [
          1.0,
          -0.9149025,
          0.9999427,
          0.9998874,
          0.33618537,
          0.9998718
        ],
        "time_step": 98
      },
      {
        "outputs": [
          0.99999994,
          -0.8439391,
          0.99996,
          0.9999366,
          -0.9999577,
          0.99761885
        ],
        "time_step": 99
      },
      {
        "outputs": [
          0.9992362,
          -0.8349986,
          0.99993783,
          0.9999284,
          -0.9999006,
          -0.63701224
        ],
        "time_step": 100
      }
    ]
  },
  "graph": {
    "nodes": [
      [
        0,
        0.14
      ],
      [
        1,
        0.42
      ],
      [
        2,
        0.36
      ],
      [
        3,
        0.02
      ],
      [
        4,
        0.37
      ],
      [
        5,
        -0.02
      ]
    ],
    "node_holes": [],
    "edge_property": "directed",
    "edges": [
      [
        0,
        0,
        0.15
      ],
      [
        1,
        1,
        -0.16
      ],
      [
        2,
        2,
        0.59
      ],
      [
        3,
        3,
        0.01
      ],
      [
        4,
        4,
        -0.16
      ],
      [
        1,
        0,
        -0.01
      ],
      [
        2,
        0,
        0.06
      ],
      [
        3,
        0,
        0.22
      ],
      [
        4,
        0,
        3.4
      ],
      [
        5,
        0,
        0.23
      ],
      [
        0,
        1,
        -2.65
      ],
      [
        2,
        1,
        0.2
      ],
      [
        3,
        1,
        -3.64
      ],
      [
        4,
        1,
        -0.02
      ],
      [
        5,
        1,
        -3.94
      ],
      [
        0,
        2,
        0.14
      ],
      [
        1,
        2,
        -0.13
      ],
      [
        3,
        2,
        0.3
      ],
      [
        4,
        2,
        0.16
      ],
      [
        5,
        2,
        0.12
      ],
      [
        0,
        3,
        0.12
      ],
      [
        1,
        3,
        -0.16
      ],
      [
        2,
        3,
        0.43
      ],
      [
        4,
        3,
        0.04
      ],
      [
        5,
        3,
        0.17
      ],
      [
        0,
        4,
        0.09
      ],
      [
        1,
        4,
        3.03
      ],
      [
        2,
        4,
        -0.18
      ],
      [
        3,
        4,
        0.34
      ],
      [
        5,
        4,
        -0.42
      ],
      [
        0,
        5,
        0.3
      ],
      [
        1,
        5,
        0.11
      ],
      [
        2,
        5,
        -0.09
      ],
      [
        3,
        5,
        0.45
      ],
      [
        4,
        5,
        3.09
      ]
    ]
  },
  "statistics": {
    "deleted_neurons": 0,
    "deleted_weights": 42,
    "deleted_biases": 0,
    "deleted_self_activations": 43,
    "mutated_neurons": 149,
    "mutated_weights": 183,
    "mutated_biases": 218,
    "mutated_self_activations": 252,
    "fitness": 0.0,
    "variance": 0.0
  },
  "mutation_variance": 0.2,
  "mean": 0.1,
  "retina_positions": [
    [
      {
        "x": 32,
        "y": 32
      },
      63,
      ""
    ],
    [
      {
        "x": 56,
        "y": 56
      },
      63,
      ""
    ],
    [
      {
        "x": 56,
        "y": 56
      },
      63,
      ""
    ],
    [
      {
        "x": 81,
        "y": 80
      },
      63,
      ""
    ],
    [
      {
        "x": 81,
        "y": 80
      },
      63,
      ""
    ],
    [
      {
        "x": 106,
        "y": 58
      },
      63,
      ""
    ],
    [
      {
        "x": 106,
        "y": 58
      },
      63,
      ""
    ],
    [
      {
        "x": 130,
        "y": 37
      },
      63,
      ""
    ],
    [
      {
        "x": 130,
        "y": 37
      },
      63,
      ""
    ],
    [
      {
        "x": 154,
        "y": 32
      },
      63,
      ""
    ],
    [
      {
        "x": 154,
        "y": 32
      },
      63,
      ""
    ],
    [
      {
        "x": 178,
        "y": 56
      },
      63,
      ""
    ],
    [
      {
        "x": 178,
        "y": 56
      },
      63,
      ""
    ],
    [
      {
        "x": 202,
        "y": 80
      },
      63,
      ""
    ],
    [
      {
        "x": 202,
        "y": 80
      },
      63,
      ""
    ],
    [
      {
        "x": 227,
        "y": 104
      },
      63,
      ""
    ],
    [
      {
        "x": 227,
        "y": 104
      },
      63,
      ""
    ],
    [
      {
        "x": 252,
        "y": 82
      },
      63,
      ""
    ],
    [
      {
        "x": 252,
        "y": 82
      },
      63,
      ""
    ],
    [
      {
        "x": 276,
        "y": 61
      },
      63,
      ""
    ],
    [
      {
        "x": 276,
        "y": 61
      },
      63,
      ""
    ],
    [
      {
        "x": 289,
        "y": 41
      },
      63,
      ""
    ],
    [
      {
        "x": 289,
        "y": 41
      },
      63,
      ""
    ],
    [
      {
        "x": 289,
        "y": 65
      },
      63,
      ""
    ],
    [
      {
        "x": 289,
        "y": 65
      },
      63,
      ""
    ],
    [
      {
        "x": 289,
        "y": 89
      },
      63,
      ""
    ],
    [
      {
        "x": 289,
        "y": 89
      },
      63,
      ""
    ],
    [
      {
        "x": 289,
        "y": 113
      },
      63,
      ""
    ],
    [
      {
        "x": 289,
        "y": 113
      },
      63,
      ""
    ],
    [
      {
        "x": 289,
        "y": 91
      },
      63,
      ""
    ],
    [
      {
        "x": 289,
        "y": 91
      },
      63,
      ""
    ],
    [
      {
        "x": 289,
        "y": 70
      },
      63,
      ""
    ],
    [
      {
        "x": 289,
        "y": 70
      },
      63,
      ""
    ],
    [
      {
        "x": 289,
        "y": 50
      },
      63,
      ""
    ],
    [
      {
        "x": 289,
        "y": 50
      },
      63,
      ""
    ],
    [
      {
        "x": 289,
        "y": 74
      },
      63,
      ""
    ],
    [
      {
        "x": 289,
        "y": 74
      },
      63,
      ""
    ],
    [
      {
        "x": 289,
        "y": 98
      },
      63,
      ""
    ],
    [
      {
        "x": 289,
        "y": 98
      },
      63,
      ""
    ],
    [
      {
        "x": 289,
        "y": 122
      },
      63,
      ""
    ],
    [
      {
        "x": 289,
        "y": 122
      },
      63,
      ""
    ],
    [
      {
        "x": 289,
        "y": 100
      },
      63,
      ""
    ],
    [
      {
        "x": 289,
        "y": 100
      },
      63,
      ""
    ],
    [
      {
        "x": 289,
        "y": 79
      },
      63,
      ""
    ],
    [
      {
        "x": 289,
        "y": 79
      },
      63,
      ""
    ],
    [
      {
        "x": 289,
        "y": 59
      },
      63,
      ""
    ],
    [
      {
        "x": 289,
        "y": 59
      },
      63,
      ""
    ],
    [
      {
        "x": 289,
        "y": 83
      },
      63,
      ""
    ],
    [
      {
        "x": 289,
        "y": 83
      },
      63,
      ""
    ],
    [
      {
        "x": 289,
        "y": 107
      },
      63,
      ""
    ],
    [
      {
        "x": 289,
        "y": 107
      },
      63,
      ""
    ],
    [
      {
        "x": 289,
        "y": 131
      },
      63,
      ""
    ],
    [
      {
        "x": 289,
        "y": 131
      },
      63,
      ""
    ],
    [
      {
        "x": 289,
        "y": 109
      },
      63,
      ""
    ],
    [
      {
        "x": 289,
        "y": 109
      },
      63,
      ""
    ],
    [
      {
        "x": 289,
        "y": 88
      },
      63,
      ""
    ],
    [
      {
        "x": 289,
        "y": 88
      },
      63,
      ""
    ],
    [
      {
        "x": 289,
        "y": 68
      },
      63,
      ""
    ],
    [
      {
        "x": 289,
        "y": 68
      },
      63,
      ""
    ],
    [
      {
        "x": 289,
        "y": 92
      },
      63,
      ""
    ],
    [
      {
        "x": 289,
        "y": 92
      },
      63,
      ""
    ],
    [
      {
        "x": 289,
        "y": 116
      },
      63,
      ""
    ],
    [
      {
        "x": 289,
        "y": 116
      },
      63,
      ""
    ],
    [
      {
        "x": 289,
        "y": 140
      },
      63,
      ""
    ],
    [
      {
        "x": 289,
        "y": 140
      },
      63,
      ""
    ],
    [
      {
        "x": 289,
        "y": 118
      },
      63,
      ""
    ],
    [
      {
        "x": 289,
        "y": 118
      },
      63,
      ""
    ],
    [
      {
        "x": 289,
        "y": 97
      },
      63,
      ""
    ],
    [
      {
        "x": 289,
        "y": 97
      },
      63,
      ""
    ],
    [
      {
        "x": 289,
        "y": 77
      },
      63,
      ""
    ],
    [
      {
        "x": 289,
        "y": 77
      },
      63,
      ""
    ],
    [
      {
        "x": 289,
        "y": 101
      },
      63,
      ""
    ],
    [
      {
        "x": 289,
        "y": 101
      },
      63,
      ""
    ],
    [
      {
        "x": 289,
        "y": 125
      },
      63,
      ""
    ],
    [
      {
        "x": 289,
        "y": 125
      },
      63,
      ""
    ],
    [
      {
        "x": 289,
        "y": 149
      },
      63,
      ""
    ],
    [
      {
        "x": 289,
        "y": 149
      },
      63,
      ""
    ],
    [
      {
        "x": 289,
        "y": 127
      },
      63,
      ""
    ],
    [
      {
        "x": 289,
        "y": 127
      },
      63,
      ""
    ],
    [
      {
        "x": 289,
        "y": 106
      },
      63,
      ""
    ],
    [
      {
        "x": 289,
        "y": 106
      },
      63,
      ""
    ],
    [
      {
        "x": 289,
        "y": 86
      },
      63,
      ""
    ],
    [
      {
        "x": 289,
        "y": 86
      },
      63,
      ""
    ],
    [
      {
        "x": 289,
        "y": 110
      },
      63,
      ""
    ],
    [
      {
        "x": 289,
        "y": 110
      },
      63,
      ""
    ],
    [
      {
        "x": 289,
        "y": 134
      },
      63,
      ""
    ],
    [
      {
        "x": 289,
        "y": 134
      },
      63,
      ""
    ],
    [
      {
        "x": 289,
        "y": 158
      },
      63,
      ""
    ],
    [
      {
        "x": 289,
        "y": 158
      },
      63,
      ""
    ],
    [
      {
        "x": 289,
        "y": 136
      },
      63,
      ""
    ],
    [
      {
        "x": 289,
        "y": 136
      },
      63,
      ""
    ],
    [
      {
        "x": 289,
        "y": 115
      },
      63,
      ""
    ],
    [
      {
        "x": 289,
        "y": 115
      },
      63,
      ""
    ],
    [
      {
        "x": 289,
        "y": 95
      },
      63,
      ""
    ],
    [
      {
        "x": 289,
        "y": 95
      },
      63,
      ""
    ],
    [
      {
        "x": 289,
        "y": 119
      },
      63,
      ""
    ],
    [
      {
        "x": 289,
        "y": 119
      },
      63,
      ""
    ],
    [
      {
        "x": 289,
        "y": 143
      },
      63,
      ""
    ],
    [
      {
        "x": 289,
        "y": 143
      },
      63,
      ""
    ],
    [
      {
        "x": 289,
        "y": 167
      },
      63,
      ""
    ],
    [
      {
        "x": 289,
        "y": 167
      },
      63,
      ""
    ],
    [
      {
        "x": 289,
        "y": 145
      },
      63,
      ""
    ],
    [
      {
        "x": 289,
        "y": 145
      },
      63,
      ""
    ],
    [
      {
        "x": 289,
        "y": 124
      },
      63,
      ""
    ],
    [
      {
        "x": 289,
        "y": 124
      },
      63,
      ""
    ],
    [
      {
        "x": 289,
        "y": 104
      },
      63,
      ""
    ],
    [
      {
        "x": 289,
        "y": 104
      },
      63,
      ""
    ],
    [
      {
        "x": 289,
        "y": 128
      },
      63,
      ""
    ],
    [
      {
        "x": 289,
        "y": 128
      },
      63,
      ""
    ],
    [
      {
        "x": 289,
        "y": 152
      },
      63,
      ""
    ],
    [
      {
        "x": 289,
        "y": 152
      },
      63,
      ""
    ],
    [
      {
        "x": 289,
        "y": 176
      },
      63,
      ""
    ],
    [
      {
        "x": 289,
        "y": 176
      },
      63,
      ""
    ],
    [
      {
        "x": 289,
        "y": 154
      },
      63,
      ""
    ],
    [
      {
        "x": 289,
        "y": 154
      },
      63,
      ""
    ],
    [
      {
        "x": 289,
        "y": 133
      },
      63,
      ""
    ],
    [
      {
        "x": 289,
        "y": 133
      },
      63,
      ""
    ],
    [
      {
        "x": 289,
        "y": 113
      },
      63,
      ""
    ],
    [
      {
        "x": 289,
        "y": 113
      },
      63,
      ""
    ],
    [
      {
        "x": 289,
        "y": 137
      },
      63,
      ""
    ],
    [
      {
        "x": 289,
        "y": 137
      },
      63,
      ""
    ],
    [
      {
        "x": 289,
        "y": 161
      },
      63,
      ""
    ],
    [
      {
        "x": 289,
        "y": 161
      },
      63,
      ""
    ],
    [
      {
        "x": 289,
        "y": 185
      },
      63,
      ""
    ],
    [
      {
        "x": 289,
        "y": 185
      },
      63,
      ""
    ],
    [
      {
        "x": 289,
        "y": 163
      },
      63,
      ""
    ],
    [
      {
        "x": 289,
        "y": 163
      },
      63,
      ""
    ],
    [
      {
        "x": 289,
        "y": 142
      },
      63,
      ""
    ],
    [
      {
        "x": 289,
        "y": 142
      },
      63,
      ""
    ],
    [
      {
        "x": 289,
        "y": 122
      },
      63,
      ""
    ],
    [
      {
        "x": 289,
        "y": 122
      },
      63,
      ""
    ],
    [
      {
        "x": 289,
        "y": 146
      },
      63,
      ""
    ],
    [
      {
        "x": 289,
        "y": 146
      },
      63,
      ""
    ],
    [
      {
        "x": 289,
        "y": 170
      },
      63,
      ""
    ],
    [
      {
        "x": 289,
        "y": 170
      },
      63,
      ""
    ],
    [
      {
        "x": 289,
        "y": 194
      },
      63,
      ""
    ],
    [
      {
        "x": 289,
        "y": 194
      },
      63,
      ""
    ],
    [
      {
        "x": 289,
        "y": 172
      },
      63,
      ""
    ],
    [
      {
        "x": 289,
        "y": 172
      },
      63,
      ""
    ],
    [
      {
        "x": 289,
        "y": 151
      },
      63,
      ""
    ],
    [
      {
        "x": 289,
        "y": 151
      },
      63,
      ""
    ],
    [
      {
        "x": 289,
        "y": 131
      },
      63,
      ""
    ],
    [
      {
        "x": 289,
        "y": 131
      },
      63,
      ""
    ],
    [
      {
        "x": 289,
        "y": 155
      },
      63,
      ""
    ],
    [
      {
        "x": 289,
        "y": 155
      },
      63,
      ""
    ],
    [
      {
        "x": 289,
        "y": 179
      },
      63,
      ""
    ],
    [
      {
        "x": 289,
        "y": 179
      },
      63,
      ""
    ],
    [
      {
        "x": 289,
        "y": 203
      },
      63,
      ""
    ],
    [
      {
        "x": 289,
        "y": 203
      },
      63,
      ""
    ],
    [
      {
        "x": 289,
        "y": 181
      },
      63,
      ""
    ],
    [
      {
        "x": 289,
        "y": 181
      },
      63,
      ""
    ],
    [
      {
        "x": 289,
        "y": 160
      },
      63,
      ""
    ],
    [
      {
        "x": 289,
        "y": 160
      },
      63,
      ""
    ],
    [
      {
        "x": 289,
        "y": 140
      },
      63,
      ""
    ],
    [
      {
        "x": 289,
        "y": 140
      },
      63,
      ""
    ],
    [
      {
        "x": 289,
        "y": 164
      },
      63,
      ""
    ],
    [
      {
        "x": 289,
        "y": 164
      },
      63,
      ""
    ],
    [
      {
        "x": 289,
        "y": 188
      },
      63,
      ""
    ],
    [
      {
        "x": 289,
        "y": 188
      },
      63,
      ""
    ],
    [
      {
        "x": 289,
        "y": 209
      },
      63,
      ""
    ],
    [
      {
        "x": 289,
        "y": 209
      },
      63,
      ""
    ],
    [
      {
        "x": 289,
        "y": 187
      },
      63,
      ""
    ],
    [
      {
        "x": 289,
        "y": 187
      },
      63,
      ""
    ],
    [
      {
        "x": 289,
        "y": 166
      },
      63,
      ""
    ],
    [
      {
        "x": 289,
        "y": 166
      },
      63,
      ""
    ],
    [
      {
        "x": 289,
        "y": 146
      },
      63,
      ""
    ],
    [
      {
        "x": 289,
        "y": 146
      },
      63,
      ""
    ],
    [
      {
        "x": 289,
        "y": 170
      },
      63,
      ""
    ],
    [
      {
        "x": 289,
        "y": 170
      },
      63,
      ""
    ],
    [
      {
        "x": 289,
        "y": 194
      },
      63,
      ""
    ],
    [
      {
        "x": 289,
        "y": 194
      },
      63,
      ""
    ],
    [
      {
        "x": 289,
        "y": 209
      },
      63,
      ""
    ],
    [
      {
        "x": 289,
        "y": 209
      },
      63,
      ""
    ],
    [
      {
        "x": 289,
        "y": 187
      },
      63,
      ""
    ],
    [
      {
        "x": 289,
        "y": 187
      },
      63,
      ""
    ],
    [
      {
        "x": 289,
        "y": 166
      },
      63,
      ""
    ],
    [
      {
        "x": 289,
        "y": 166
      },
      63,
      ""
    ],
    [
      {
        "x": 289,
        "y": 146
      },
      63,
      ""
    ],
    [
      {
        "x": 289,
        "y": 146
      },
      63,
      ""
    ],
    [
      {
        "x": 289,
        "y": 170
      },
      63,
      ""
    ],
    [
      {
        "x": 289,
        "y": 170
      },
      63,
      ""
    ],
    [
      {
        "x": 289,
        "y": 194
      },
      63,
      ""
    ],
    [
      {
        "x": 289,
        "y": 194
      },
      63,
      ""
    ],
    [
      {
        "x": 289,
        "y": 209
      },
      63,
      ""
    ],
    [
      {
        "x": 289,
        "y": 209
      },
      63,
      ""
    ],
    [
      {
        "x": 289,
        "y": 187
      },
      63,
      ""
    ],
    [
      {
        "x": 289,
        "y": 187
      },
      63,
      ""
    ],
    [
      {
        "x": 289,
        "y": 166
      },
      63,
      ""
    ],
    [
      {
        "x": 289,
        "y": 166
      },
      63,
      ""
    ],
    [
      {
        "x": 289,
        "y": 146
      },
      63,
      ""
    ],
    [
      {
        "x": 289,
        "y": 146
      },
      63,
      ""
    ],
    [
      {
        "x": 289,
        "y": 170
      },
      63,
      ""
    ],
    [
      {
        "x": 289,
        "y": 170
      },
      63,
      ""
    ],
    [
      {
        "x": 289,
        "y": 194
      },
      63,
      ""
    ],
    [
      {
        "x": 289,
        "y": 194
      },
      63,
      ""
    ],
    [
      {
        "x": 289,
        "y": 209
      },
      63,
      ""
    ],
    [
      {
        "x": 289,
        "y": 209
      },
      63,
      ""
    ],
    [
      {
        "x": 289,
        "y": 187
      },
      63,
      ""
    ],
    [
      {
        "x": 289,
        "y": 187
      },
      63,
      ""
    ],
    [
      {
        "x": 289,
        "y": 166
      },
      63,
      ""
    ]
  ]
}
