{
  "neurons": [
    {
      "index": 0,
      "output": 1.0,
      "input_connections": [
        [
          1,
          8.331272
        ],
        [
          2,
          0.0
        ],
        [
          3,
          -0.36917877
        ],
        [
          4,
          -4.534685
        ],
        [
          5,
          0.0
        ],
        [
          6,
          0.0
        ],
        [
          7,
          -2.9673452
        ]
      ],
      "bias": -1.9530935,
      "self_activation": 0.0,
      "retina_weights": [
        0.46945,
        -7.5875807,
        -1.8864317,
        2.8680096,
        2.2618809,
        -0.042780876,
        6.3203278,
        -9.778168,
        -1.6680737,
        8.429235,
        -6.932001,
        -2.3798933,
        -5.8695025,
        -1.2742844,
        3.9846935,
        -7.493129,
        3.95893,
        6.3219604,
        -9.741292,
        0.8689556,
        5.1666346,
        6.4957066,
        3.8663683,
        -3.8887615,
        -2.4655333,
        -3.3136125,
        3.0822573,
        4.5149813,
        -6.5294476,
        7.0020676,
        2.7491083,
        -5.863499,
        8.069292,
        7.848921,
        -5.4892964,
        -0.6392355,
        -7.696168,
        -0.4328575,
        1.9169846,
        5.3947277,
        -1.3788166,
        7.058182,
        -9.557114,
        -4.1902347,
        -4.869706,
        1.9842396,
        -9.66613,
        0.05020523,
        9.355579,
        6.454611,
        2.3541937,
        2.181326,
        9.457048,
        -7.0285864,
        -1.4918079,
        7.2072525,
        2.3274078,
        -2.6015468,
        3.5584965,
        4.0305605,
        6.6018143,
        0.87497807,
        -7.0068235,
        -5.9739323,
        -6.9439144,
        3.1611338,
        -6.1073036,
        7.2932186,
        -6.6701555,
        -1.0498228,
        -2.6496263,
        1.1839781,
        -6.4447975,
        9.653645,
        8.204441,
        4.7344074,
        6.3312187,
        4.5290127,
        -9.814763,
        2.6815042,
        3.5484257,
        5.691716,
        4.586478,
        3.59099,
        -6.785774,
        1.5340958,
        7.95096,
        1.5497408,
        7.039274,
        -3.1561346,
        -2.6206322,
        7.6262703,
        3.9184418,
        -2.6506705,
        -4.4709153,
        -7.320382,
        -2.9442258,
        4.9707994,
        7.667307,
        4.304513,
        2.803172,
        -8.890204,
        8.738022,
        -9.69954,
        2.5683699,
        7.4922657,
        8.269262,
        1.8116055,
        4.1649046,
        0.007563591,
        8.349411,
        -0.7752266,
        6.3959656,
        6.2924194,
        -6.1192055,
        -4.879493,
        -6.434595,
        7.3221684,
        1.1992302,
        -6.08391,
        -0.44195366,
        -5.6091375,
        -2.0784082,
        7.01046,
        4.7208986,
        -2.8569622,
        1.8331661,
        -9.426066,
        4.7833834,
        5.6278553,
        5.9703035,
        -4.1995187,
        1.2834463,
        2.2755089,
        -0.9494772,
        -7.0588274,
        7.756237,
        9.900084,
        -7.8427935,
        0.55207634,
        -1.0413904,
        5.269601,
        5.535366,
        -7.6634455,
        7.6885242,
        1.0257235,
        7.0056725,
        -7.381546,
        3.2465086,
        -9.994003,
        7.555691,
        3.8332262,
        5.5726643,
        0.3664646,
        -1.1907454,
        -3.7630363,
        2.192048,
        -6.303687,
        -1.5240564,
        -0.8872528,
        -9.384589,
        -8.977987,
        -2.1069326,
        2.9066572,
        6.865326,
        8.418297,
        0.18252468,
        4.315983,
        1.6497908,
        7.972595,
        -8.066759,
        5.224101,
        6.816082,
        5.098914,
        -0.97233677,
        2.650076,
        5.406207,
        -7.5997324,
        9.478418,
        -8.563333,
        5.2631845,
        8.782749,
        3.489336,
        8.933472,
        1.2144623,
        2.3719368,
        -8.606896,
        2.1622715,
        4.1877213,
        8.872601,
        6.3436317,
        -2.5419111,
        8.947317,
        2.8451672,
        -8.603837,
        0.5452385,
        -9.690523,
        4.238163,
        9.031624,
        9.999086,
        -2.7125735,
        -0.14257622,
        -0.6243248,
        -3.736927,
        -2.9561944,
        0.6173477,
        6.730854,
        2.1242037,
        3.594059,
        8.932974,
        -0.2442522,
        6.1679974,
        3.687502,
        -0.09536171,
        -3.7646646,
        1.0591879,
        -0.70497704,
        2.9587517,
        4.7076473,
        -1.2291565,
        -4.9115033,
        4.281644,
        2.9027739,
        1.5863838,
        3.5410223,
        -1.814331,
        5.1057835,
        -2.6413174,
        9.630928,
        -7.2330236,
        8.0093975,
        -9.826813,
        -7.5406666,
        4.3580494,
        9.372284,
        0.6858816,
        -2.3324742,
        -2.820241,
        7.64361,
        4.2849054,
        -6.599617,
        9.985762,
        3.2681837,
        5.815241,
        -6.4476824,
        2.5108137,
        -1.399826,
        -6.976342,
        -0.7063122,
        -3.513238,
        -4.6546454,
        -1.5711632,
        -3.5413547,
        1.0238256,
        -8.77258,
        -9.403558,
        4.6288214,
        -2.548129,
        -5.768332,
        8.38583,
        4.033622,
        5.3849335,
        -2.9306383,
        4.0516434,
        1.2820568,
        8.866095,
        2.915903,
        -5.433845,
        3.8133154,
        -3.8288612,
        6.9949245,
        -3.5019727,
        2.4180946,
        -8.490224,
        -7.747016,
        -2.9289575,
        6.208601,
        2.5848284,
        0.7654419,
        2.2094526,
        5.6172314,
        9.397873,
        2.8831997,
        8.860458,
        0.48468494,
        5.0480433,
        2.8081427,
        -1.9746084,
        -0.3247137,
        0.58637524,
        2.2210064,
        -6.8644667,
        5.1063843,
        -7.1810055,
        9.017033,
        -1.5735235,
        1.4142904,
        6.1676884,
        -3.2415671,
        6.523218,
        9.799873,
        4.027151,
        5.7055254,
        3.9455757,
        9.327946,
        -2.3228421,
        -7.433483,
        1.3891754,
        -5.8036823,
        -2.4184194,
        0.51671124,
        2.438449,
        -6.994607,
        6.8062935,
        -8.043,
        7.0832367,
        1.1047878,
        -2.3274078,
        -2.6627083,
        5.523302,
        -8.889377,
        7.4140224,
        0.3928318,
        7.5822506,
        -2.8141685,
        7.845726,
        -9.97924,
        2.466649,
        8.647379,
        -5.6561394,
        -6.20228,
        -2.1541538,
        -0.9319868,
        9.726095,
        9.928795,
        -5.600178,
        -0.3668232,
        9.962627,
        8.959169,
        2.2822533,
        -1.5530176,
        -5.6876106,
        4.0109596,
        9.539108,
        9.630844,
        -9.353743,
        6.6968346,
        7.3265953,
        -2.4862804,
        4.533061,
        -2.8980918,
        0.879282,
        9.330736,
        6.4822826,
        -7.041728,
        -2.2920241,
        -3.00101,
        -4.6713085,
        -0.48784637,
        8.83988,
        -5.0511045,
        -9.805128,
        -5.9784217,
        7.1768703,
        -6.6123533,
        -6.967807,
        -9.489603,
        -8.566758,
        -5.7933373,
        -7.5015783,
        2.5855646,
        0.21869755,
        6.1225853,
        -8.187305,
        4.8409853,
        0.49585247,
        8.213469,
        2.8461447,
        -4.6222777,
        -2.7247496,
        1.3659754,
        7.722336,
        -6.1150546,
        2.733859,
        -3.9881153,
        -7.14499,
        8.430178,
        -4.359023,
        -9.800134,
        3.9545832,
        3.0492153,
        3.8163195,
        5.7898846,
        -6.0082645,
        8.104897,
        4.419757,
        8.878304,
        -5.907995,
        1.9614973,
        0.84963894,
        -9.301386,
        -6.4442205,
        0.63819027,
        7.8423367,
        6.0471363,
        0.43018246,
        1.012703,
        6.717865,
        -4.638893,
        -2.1276274,
        -5.952632,
        0.350605,
        8.437473,
        -4.584698,
        -1.6822901,
        9.268188,
        -4.7772164,
        -8.517637,
        8.4485855,
        0.52872276,
        2.7257671,
        -0.6412544,
        -4.4555182,
        1.1354694,
        2.997569,
        2.527298,
        4.4580374,
        -7.1421547,
        8.04418,
        -3.930492,
        -8.302674,
        -2.1515646,
        -2.4893632,
        -4.128544,
        -5.3946347,
        -8.689134,
        7.513466,
        3.6848154,
        5.9529657,
        8.295389,
        4.8506556,
        -9.206429,
        6.4936485,
        9.550993,
        -1.2944002,
        0.44785595,
        4.344612,
        -7.7717066,
        -0.78147316,
        9.777224,
        -5.200159,
        0.47030354,
        9.135567,
        -1.0162916,
        -3.0267782,
        3.3204708,
        -1.2836571,
        4.3944416,
        -4.536397,
        -6.6650724,
        -9.893961,
        -2.591004,
        3.9846191,
        7.775532,
        9.097837,
        -1.3786383,
        -3.239345,
        2.1416435,
        5.568516,
        8.533718,
        -8.671975,
        -5.8044024,
        8.987404,
        -8.444343,
        -5.3885264,
        -3.8854237,
        -5.4176993,
        -9.767385,
        5.33838,
        9.556208,
        8.044291,
        -0.21219635,
        -0.32992554,
        -1.5929928,
        -0.9952202,
        -3.9315243,
        -4.5788546,
        -6.071462,
        7.3266525,
        -5.2788396,
        -0.6102867,
        -2.7577658,
        -2.8403492,
        -5.997998,
        1.0086212,
        -3.1584759,
        9.954401,
        3.3232841,
        -5.942499,
        -8.844938,
        -1.6305895,
        7.6538506,
        -6.7576265,
        1.0862598,
        2.6778545,
        -6.9489784,
        -7.03922,
        -3.1669278,
        7.602068,
        8.145239,
        -4.970426,
        7.9480495,
        -2.7653236,
        -2.211434,
        9.79566,
        4.850892,
        3.077363,
        -4.965336,
        1.4841547,
        3.0073442,
        2.7772245,
        8.594851,
        9.805561,
        4.030694,
        7.0554695,
        7.477951,
        8.666145,
        -0.83769226,
        8.116465,
        -9.178429,
        -1.6715307,
        -3.0225773,
        0.35272217,
        -8.251674,
        7.961876,
        1.4887943,
        7.4163,
        -3.2625384,
        8.336435,
        -7.4535246,
        -2.5089998,
        7.171646,
        -8.877651,
        3.5307941,
        -5.2473993,
        -9.563529,
        -9.039528,
        -5.1431103,
        -7.443652,
        -7.7174587,
        -0.06277943,
        7.051443,
        3.6226788,
        -8.774845,
        -4.760203,
        3.6718836,
        7.228428,
        -5.204808,
        6.684412,
        -9.645993,
        8.634878,
        4.953741,
        3.4826555,
        6.3703556,
        -8.168302,
        9.899488,
        0.273448,
        -7.0618963,
        3.5009327,
        5.7711163,
        5.491459,
        -2.7999897,
        -9.942527,
        1.5475998,
        5.7123413,
        4.7676,
        8.72043,
        3.5689077,
        1.9935026,
        -4.2979903,
        -9.775424,
        7.307884,
        9.047693,
        6.682287,
        0.9057131,
        2.975358,
        2.9094276,
        9.623161,
        2.6801548,
        4.4058266,
        8.615736,
        -3.6765523,
        -5.167453,
        5.9684677,
        -0.73702526,
        0.15347576,
        8.654146,
        -1.252655,
        -6.996727,
        -7.3523445,
        8.01638,
        -8.3676195,
        1.317874,
        -4.8060985,
        -5.598621,
        2.4401512,
        3.720232,
        -1.4355154,
        -0.8317652,
        -7.5136805,
        3.1825771,
        -4.5213885,
        -9.416409,
        -1.1389246,
        -3.346724,
        4.7645245,
        0.409297,
        3.939127,
        9.990562,
        7.700945,
        -9.098406,
        -2.2713962,
        2.1927156,
        -6.022398,
        -3.2576056,
        1.4875183,
        -7.5183506,
        7.584593,
        8.553471,
        -6.7143726,
        8.222904,
        3.5576591,
        7.1217365,
        -2.2654047,
        8.489061,
        -0.7447758,
        -7.352063,
        -2.603497,
        -2.680089,
        -4.390008,
        0.2939806,
        -2.9697247,
        -7.0992203,
        0.33787632,
        6.293316,
        4.2256775,
        5.248582,
        2.784666,
        -2.1907487,
        2.6741037,
        -6.244902,
        4.151973,
        9.146017,
        -6.581607,
        3.199791,
        6.6882763,
        -1.5407314,
        0.88664436,
        -9.396932,
        -0.99760437,
        -2.9514976,
        -6.603076,
        2.1061144,
        8.10001,
        -3.2058854,
        6.6061115,
        -7.412345,
        -9.749109,
        3.535987,
        1.5811214,
        -3.5257978,
        -6.484663,
        0.85893726,
        -7.256446,
        -7.827503,
        -5.820045,
        4.217697,
        4.772023,
        5.991935,
        -7.367749,
        8.885307,
        -2.4372854,
        7.7630634,
        3.2315407,
        -8.430743,
        -0.36424065,
        1.0970774,
        1.657671,
        -8.627169,
        -1.3642378,
        -7.9486723,
        -7.953808,
        -7.6844454,
        6.8894386,
        4.372491,
        -0.6070347,
        9.735693,
        -4.3628545,
        3.1669512,
        -9.920478,
        7.4187202,
        2.8725138,
        4.126028,
        7.4695816,
        5.483019,
        -8.33343,
        2.4930391,
        5.1820393,
        8.1868305,
        8.745901,
        0.042404175,
        5.2415266,
        0.26015854,
        9.565308,
        4.429351,
        2.4131832,
        6.5610657,
        4.831251,
        7.6004333,
        -5.3721924,
        0.17453766,
        -8.983008,
        7.6591225,
        8.014936,
        -9.980914,
        7.163229,
        9.630138,
        2.1535816,
        4.5477066,
        5.352458,
        -6.444437,
        -5.541162,
        3.867899,
        -2.0120516,
        9.459278,
        -9.486895,
        -8.690357,
        -0.73674107,
        0.6162224,
        7.325512,
        8.855831,
        -0.99519634,
        -1.4596691,
        6.3480377,
        -0.8953781,
        -6.8122883,
        -2.3042026,
        -2.3775568,
        5.801112,
        -2.9797072,
        1.2188282,
        5.574235,
        6.7559853,
        7.7481403,
        8.037195,
        -7.3241873,
        -5.810146,
        2.6860418,
        -0.25000286,
        -7.8183193,
        -0.74906063,
        0.3302803,
        3.9533005,
        -4.3779416,
        -7.2733183,
        -1.0383673,
        -9.065576,
        -2.4333086,
        -7.089386,
        6.915268,
        -7.3204327,
        3.924323,
        -2.3560228,
        9.31138,
        -1.9730177,
        0.7149801,
        -3.704805,
        -3.051898,
        -3.7475295,
        -4.772839,
        4.3092833,
        8.198198,
        -7.9791307,
        -8.768945,
        2.461275,
        9.010033,
        7.446394,
        7.1223927,
        -0.06804848,
        -1.7727108,
        -2.0796194,
        -4.0299125,
        5.8639565,
        5.318796,
        9.622871,
        5.834996,
        8.030258,
        6.277355,
        -7.2463846,
        -1.6214485,
        -3.8614554,
        4.1836014,
        -0.94684505,
        -9.086881,
        -6.83335,
        9.910652,
        2.4575462,
        -6.989994,
        -7.959013,
        -6.5623207,
        -9.767615,
        -1.2185469,
        6.8890915,
        5.1784124,
        -3.0263872,
        -4.646241,
        -2.0666208,
        -9.1293545,
        -4.384579,
        6.599474,
        -3.885779,
        4.085621,
        0.25916672,
        -7.2536182,
        2.7961817,
        4.2677393,
        -6.4475985,
        4.995843,
        -7.244112,
        -0.8517189,
        0.63668823,
        -0.5957546,
        -7.7674627,
        -7.471895,
        3.8073578,
        -6.818039,
        -7.2916174,
        7.7171574,
        -4.0297694,
        9.039774,
        -4.3384333,
        1.1574068,
        3.020154,
        3.6054335,
        7.806696,
        5.786971,
        -1.5661211,
        2.6232634,
        -1.9243546,
        -7.809453,
        -2.5976963,
        6.1899433,
        7.300148,
        2.6524792,
        8.658323,
        -3.4618301,
        9.702322,
        -1.5924444,
        8.349987,
        -7.9979486,
        -3.731658,
        -6.852398,
        0.6233587,
        -8.911025,
        7.9889717,
        -3.2524056,
        -9.111244,
        -7.806077,
        6.9566784,
        2.4660053,
        7.5220776,
        7.6248894,
        7.39979,
        8.767134,
        8.924107,
        -3.539588,
        -8.435809,
        -1.0495272,
        8.705418,
        -3.1832595,
        2.9973946,
        7.523037,
        4.0161095,
        -2.3959532,
        -9.029222,
        3.668748,
        1.5853558,
        -1.7271843,
        -0.10385418,
        -9.447656,
        8.601028,
        -7.1040697,
        8.571831,
        0.090102196,
        -7.5804157,
        -5.6508346,
        3.9721737,
        9.562506,
        0.9143505,
        -6.491356,
        4.5058384,
        4.953624,
        -3.2454104,
        -7.944271,
        6.485483,
        -7.6772547,
        8.438206,
        -3.9019365,
        -3.6264033,
        -0.63188934,
        6.7834415,
        9.297462,
        9.375038,
        5.773777,
        9.070715,
        2.1451244,
        8.527569,
        5.4479856,
        6.208664,
        4.8190823,
        -6.401863,
        -7.978387,
        5.8848276,
        2.7786007,
        4.8622646,
        -0.9609194,
        -6.974106,
        4.006261,
        1.0838423,
        8.684816,
        2.5792923,
        -3.5038419,
        7.6296673,
        -0.5285444,
        2.8806963,
        6.272789,
        8.079943,
        4.5218954,
        -0.8294697,
        -9.430401,
        -7.9603643,
        7.9749546,
        9.135128,
        -7.2810745,
        -3.9752407,
        -4.536223,
        -8.924675,
        -1.0501499,
        -6.824298,
        9.926809,
        -8.338246,
        3.1909266,
        1.7408333,
        -6.0397096,
        8.904909,
        2.455164,
        3.7846575,
        -5.69226,
        2.2999392,
        -3.041112,
        9.86524,
        -3.9890141,
        3.5894337,
        4.051465,
        7.7640266,
        -4.2914743,
        5.6212416,
        -0.24549675,
        -9.917566,
        -8.044669,
        2.1206036,
        6.6466103,
        -1.8427773,
        -0.021988869,
        9.809994,
        -5.461244,
        -9.7619505,
        -1.8426485,
        5.1395264,
        2.162901,
        -9.733979,
        -5.637035,
        -1.597909,
        0.34465694,
        -0.8836212,
        -9.776549,
        9.054104,
        8.160707,
        -9.971828,
        1.2153997,
        -0.7085695,
        4.731365,
        -7.4291945,
        5.921604,
        9.702677,
        8.144613,
        5.6285944,
        9.229998,
        9.98188,
        -5.9658117,
        -7.4744053,
        7.6078606,
        -8.867042,
        -1.7456074,
        9.040823,
        8.707762,
        -1.9240608,
        -2.4013462,
        1.4699373,
        -6.472659,
        2.518033,
        6.067501,
        9.416811,
        -1.3973274,
        9.088888,
        -8.101211,
        -0.4554863,
        1.4396725,
        -3.450603,
        -2.0422282,
        -7.8745413,
        7.709528,
        8.061726,
        7.0639668,
        -5.3833957,
        -4.6519275,
        4.994506,
        -5.2115436,
        3.9127197,
        3.390545,
        -9.339859,
        -1.518816,
        -2.985248,
        -6.04747,
        -4.507112,
        5.6709976,
        6.684868,
        3.5800686,
        -5.6220026,
        7.097393,
        -8.567216,
        -2.5646205,
        -1.679205,
        2.6937761,
        7.04064,
        7.8431244,
        0.09946728,
        -0.2565899,
        -7.3600693,
        -3.837201,
        -1.0351105,
        -0.5728884,
        4.3844023,
        3.270894,
        -2.7416153,
        0.10021114,
        -2.7634068,
        1.2503538,
        -3.6726732,
        2.0714989,
        7.0768547,
        -4.757051,
        -4.967918,
        3.7087927,
        0.7762089,
        -9.539601,
        3.2161055,
        -3.220367,
        -3.1999297,
        2.6649914,
        4.48845,
        -3.2976933,
        -9.400735,
        -9.942851,
        -6.7565794,
        8.017143,
        -9.260931,
        -4.9668283,
        -3.8246627,
        -8.074953,
        -3.250074,
        4.7072163,
        -0.38883114,
        3.2637348,
        3.104557,
        0.2888956,
        -5.785312,
        5.1938457,
        -1.9842453,
        -9.184839,
        -2.7904553,
        -1.5537949,
        1.6403475,
        -1.7916555,
        5.246894,
        -0.43205643,
        0.842618,
        2.7109537,
        -6.3503027,
        5.671298,
        1.8564425,
        -8.78,
        0.62557125,
        0.19641018,
        5.1835127,
        -7.1349497,
        -1.5922155,
        5.14861,
        -4.045107,
        -8.43435,
        -7.080369,
        -9.159305,
        -1.254858,
        1.7820253,
        -9.005281,
        -1.6588421,
        -1.8449059,
        -7.4094057,
        4.227499,
        8.103176,
        -6.0918303,
        -7.282979,
        -7.666666,
        4.4427977,
        -5.34147,
        6.6880245,
        -7.861125,
        -6.111738,
        0.20355606,
        7.145687,
        -1.2550106,
        4.4928894,
        8.584572,
        -6.9416904,
        -2.3720064,
        -5.379078,
        -6.3814306,
        0.76428986,
        -3.116581,
        4.9246416,
        9.851337,
        -9.573932,
        6.258707,
        -5.7488675,
        -6.8321486,
        -2.4482574,
        9.399971,
        -4.241831,
        -5.4271717,
        5.0510283,
        -8.326718,
        -2.98217,
        9.377386,
        3.6471186,
        -5.752413,
        4.0348377,
        5.596697,
        9.696674,
        -9.858882,
        -3.9861126,
        6.2342167,
        6.3469353,
        8.856344,
        -7.53658,
        -3.329813,
        -1.4015837,
        2.239152,
        6.4965916,
        9.859657,
        -0.32362843,
        8.59848,
        -3.9299197,
        -7.469368,
        0.786294,
        4.809557,
        -5.3299017,
        8.699013,
        -5.770542,
        6.643015,
        -7.5415754,
        -0.31496906,
        9.042179,
        -0.20854187,
        1.0614786,
        0.24510288,
        -2.8838677,
        -3.2344909,
        -1.7510576,
        -1.4617319,
        1.7212477,
        -4.0503163,
        5.0148144,
        2.506112,
        -4.944677,
        4.4926777,
        9.907362,
        -8.159194,
        -4.9770947,
        -7.2940207,
        -9.947588,
        0.6950369,
        -5.019433,
        9.1338005,
        2.234868,
        -0.11182213,
        -9.948995,
        -0.19067001,
        5.101144,
        7.18309,
        9.368614,
        9.504995,
        5.6152887,
        -9.151006,
        -6.8701096,
        -0.6359043,
        -3.5027022,
        -2.8510113,
        -8.863368,
        -6.465008,
        -0.49989128,
        -3.7681575,
        1.875001,
        -7.407672,
        5.3825464,
        -2.128581,
        0.68824196,
        4.118947,
        7.9238567,
        3.3261862,
        -8.570277,
        0.5068121,
        -3.2359571,
        3.1306229,
        3.6148205,
        -9.859631,
        0.2704277,
        6.535307,
        -9.49815,
        -7.425,
        5.1652994,
        8.308899,
        6.271164,
        6.4425774,
        -2.5747771,
        -7.210595,
        2.5769844,
        -1.2713022,
        7.4560375,
        -9.638166,
        -8.84985,
        -7.727253,
        3.0668106,
        3.6811533,
        3.9743528,
        4.5056067,
        7.5941486,
        8.673279,
        3.2121458,
        -0.9570732,
        -1.6814461,
        4.1538343,
        2.2764168,
        -3.7520165,
        -2.5127215,
        -2.4684682,
        1.0634699,
        -1.4225378,
        -3.1650205,
        -1.2627878,
        -3.8787003,
        -8.186914,
        5.0006332,
        -2.4375381,
        -6.127798,
        7.1797485,
        5.033902,
        -2.6490946,
        0.5632744,
        -5.0277586,
        5.141114,
        -9.2737055,
        -3.7117262,
        -2.9682846,
        3.019699,
        -4.596822,
        -7.45063,
        9.849974,
        1.8197737,
        3.3972588,
        8.73995,
        -3.638348,
        3.6346064,
        1.2869062,
        1.961833,
        0.90573406,
        1.2408342,
        7.2748337,
        3.7347736,
        -2.6688046,
        8.160763,
        7.080908,
        6.183399,
        1.7777643,
        7.0536823,
        -5.868847,
        -5.2815814,
        -9.615574,
        6.549444,
        -8.211293,
        -6.6069365,
        -9.752056,
        -6.7480536,
        -4.658553,
        1.1200962,
        4.2809954,
        0.6418333,
        -2.1126595,
        -7.4932785,
        -9.26481,
        9.4746685,
        2.8148994,
        3.609065,
        1.0103502,
        -9.345414,
        6.729246,
        -2.383515,
        -1.2961712,
        -6.865597,
        7.305399,
        2.4134455,
        8.314838,
        2.3401318,
        2.8203287,
        1.7025175,
        8.645483,
        -8.463151,
        -0.9934826,
        -5.9045334,
        7.325737,
        -3.6733432,
        8.856375,
        -0.7840748,
        -8.190505,
        -8.20797,
        8.267004,
        1.0336075,
        -5.790343,
        -8.294675,
        6.4849014,
        4.8526344,
        -1.0863247,
        6.174961,
        8.736357,
        7.7514877,
        9.815992,
        -6.9609756,
        8.197615,
        -7.9586573,
        6.367317,
        8.563448,
        -4.360978,
        6.5156307,
        -4.3574686,
        -7.269623,
        4.8977957,
        2.1536722,
        6.856436,
        0.30923748,
        7.6699867,
        -6.401243,
        2.9465523,
        8.8042965,
        -2.151176,
        -5.6134267,
        9.654764,
        -5.031242,
        -3.160996,
        -9.962499,
        -9.8654175,
        6.811632,
        6.5522766,
        -0.29675198,
        -0.6288328,
        -1.550662,
        -1.5753956,
        -5.455982,
        -7.4506187,
        -1.0240479,
        4.4949684,
        3.4231005,
        -8.091485,
        -3.9976187,
        -0.46255493,
        2.677637,
        9.717665,
        8.610031,
        9.155136,
        -1.3587351,
        9.530163,
        -6.3696957,
        -1.8609686,
        7.619114,
        -5.0988955,
        4.501835,
        2.1674814,
        8.94022,
        9.125799,
        -7.8407497,
        4.9603043,
        5.697221,
        -9.779186,
        -5.847649,
        -9.9264765,
        -0.9429207,
        -5.844087,
        5.1754303,
        6.627598,
        7.5423355,
        9.443588,
        6.595188,
        -1.2885971,
        5.6848707,
        -5.3113313,
        -1.3111868,
        -4.520771,
        9.262009,
        -5.235481,
        5.5043526,
        0.9126673,
        1.6994944,
        1.1535587,
        -7.20623,
        -6.6859007,
        -6.3300676,
        7.6079655,
        -1.565422,
        2.7471294,
        -3.169691,
        -1.152524,
        -1.8972483,
        6.539135,
        -4.5853515,
        4.84239,
        -9.296209,
        -9.506049,
        -5.198943,
        -8.367476,
        2.6290903,
        4.988409,
        6.579708,
        -2.493824,
        -4.4535775,
        5.935981,
        -1.4173574,
        -5.318908,
        1.0346975,
        -4.662041,
        5.649173,
        -8.544371,
        1.9875183,
        -3.3579178,
        3.6033545,
        5.507511,
        -6.4166546,
        -0.5178633,
        0.6830368,
        1.5602913,
        5.742275,
        7.537798,
        4.817644,
        2.741457,
        9.602739,
        4.171933,
        -4.684548,
        6.606222,
        0.5989399,
        -1.1630697,
        -9.675447,
        2.8978786,
        1.0850945,
        2.6616182,
        -7.5816536,
        4.9752464,
        4.842745,
        6.8134747,
        6.314108,
        9.593176,
        -9.913556,
        -5.0826807,
        7.0830917,
        -3.6465569,
        8.674255,
        -7.573411,
        -8.883478,
        6.987955,
        6.549753,
        0.12905502,
        -7.671191,
        -9.500599,
        -3.8682718,
        6.4921246,
        -8.746392,
        9.357092,
        -0.41804504,
        -2.608976,
        -4.190428,
        1.6050205,
        -6.055774,
        -4.4427986,
        -2.9643626,
        -3.7243767,
        -3.784792,
        1.2280474,
        -6.3879747,
        1.2831631,
        7.62331,
        1.9307194,
        -9.908168,
        2.4634542,
        -1.4350767,
        -1.260642,
        -9.1081,
        1.5164604,
        2.462553,
        3.7313852,
        -6.325631,
        -0.45588684,
        2.007679,
        -2.8975363,
        -5.612671,
        1.0377226,
        -0.7392473,
        -4.1409225,
        3.8846102,
        -3.051538,
        1.8666086,
        8.291973,
        -6.7119856,
        -0.6416292,
        6.151968,
        7.610821,
        -2.1994247,
        -6.8093014,
        1.0286798,
        -8.277125,
        7.291876,
        -5.8356185,
        -1.6658754,
        -9.422395,
        -8.497488,
        4.7004423,
        8.548147,
        -9.46207,
        -5.5300946,
        5.486614,
        6.3413525,
        7.907301,
        -6.5319967,
        0.68273926,
        -9.260475,
        -8.273191,
        -9.995167,
        -1.6022625,
        2.2354593,
        2.1519938,
        -0.81076336,
        -7.8031826,
        -8.855672,
        -5.870373,
        -1.8295898,
        6.634287,
        -4.9761147,
        2.3961124,
        8.409344,
        3.0529127,
        -7.011571,
        1.9746056,
        -1.7977705,
        -7.561323,
        -0.9484978,
        -2.7985425,
        7.2684116,
        -0.43334866,
        -6.6354485,
        -7.1247053,
        -9.532514,
        -7.7951765,
        -2.8244562,
        6.295595,
        7.38348,
        5.289997,
        -4.203145,
        2.1657267,
        8.966356,
        0.055194855,
        -2.0509663,
        5.2728148,
        9.801361,
        -0.43348026,
        -8.26266,
        -0.29922676,
        4.3494806,
        -7.253289,
        -9.7388525,
        3.428298,
        5.946233,
        6.888752,
        -7.9303074,
        -2.0569887,
        3.791772,
        3.347701,
        9.593496,
        -2.5011106,
        6.817665,
        2.886795,
        5.0959177,
        4.635702,
        4.270941,
        8.93198,
        6.139244,
        0.78108215,
        6.3383827,
        -4.1074677,
        0.89726067,
        9.538967,
        -4.6863217,
        -0.109788895,
        8.7509,
        -2.9540129,
        -8.399234,
        4.386798,
        -7.979393,
        -6.7743635,
        -4.592573,
        9.548626,
        -0.7327862,
        3.2812557,
        -6.0256596,
        -6.097855,
        1.6748896,
        1.1693153,
        7.316471,
        2.6795998,
        0.041457176,
        9.954725,
        9.796402,
        4.019409,
        -2.4143806,
        2.9273071,
        -0.39888287,
        4.6878967,
        -6.8273277,
        -7.8963537,
        -6.368294,
        5.3318233,
        9.811764,
        -5.0723953,
        1.3700638,
        -0.14548016,
        -6.148326,
        7.5712605,
        -9.525409,
        -9.832599,
        1.4775953,
        2.557269,
        0.7028065,
        -6.3504887,
        5.3284826,
        5.012204,
        8.015562,
        3.6937914,
        5.7501287,
        1.2238922,
        1.6138325,
        -5.737211,
        5.6925097,
        -3.9476008,
        -1.8064327,
        2.662324,
        9.382896,
        0.9187641
      ]
    },
    {
      "index": 1,
      "output": 1.0,
      "input_connections": [
        [
          0,
          4.286686
        ],
        [
          2,
          0.0
        ],
        [
          3,
          -8.623344
        ],
        [
          4,
          -3.0866642
        ],
        [
          5,
          6.6598625
        ],
        [
          6,
          4.874278
        ],
        [
          7,
          5.430352
        ]
      ],
      "bias": 0.0,
      "self_activation": 0.0,
      "retina_weights": [
        0.46945,
        -7.5875807,
        -1.8864317,
        2.8680096,
        2.2618809,
        -0.042780876,
        6.3203278,
        -9.778168,
        -1.6680737,
        8.429235,
        -6.932001,
        -2.3798933,
        -5.8695025,
        -1.2742844,
        3.9846935,
        -7.493129,
        3.95893,
        6.3219604,
        -9.741292,
        0.8689556,
        5.1666346,
        6.4957066,
        3.8663683,
        -3.8887615,
        -2.4655333,
        -3.3136125,
        3.0822573,
        4.5149813,
        -6.5294476,
        7.0020676,
        2.7491083,
        -5.863499,
        8.069292,
        7.848921,
        -5.4892964,
        -0.6392355,
        -7.696168,
        -0.4328575,
        1.9169846,
        5.3947277,
        -1.3788166,
        7.058182,
        -9.557114,
        -4.1902347,
        -4.869706,
        1.9842396,
        -9.66613,
        0.05020523,
        9.355579,
        6.454611,
        2.3541937,
        2.181326,
        9.457048,
        -7.0285864,
        -1.4918079,
        7.2072525,
        2.3274078,
        -2.6015468,
        3.5584965,
        4.0305605,
        6.6018143,
        0.87497807,
        -7.0068235,
        -5.9739323,
        -6.9439144,
        3.1611338,
        -6.1073036,
        7.2932186,
        -6.6701555,
        -1.0498228,
        -2.6496263,
        1.1839781,
        -6.4447975,
        9.653645,
        8.204441,
        4.7344074,
        6.3312187,
        4.5290127,
        -9.814763,
        2.6815042,
        3.5484257,
        5.691716,
        4.586478,
        3.59099,
        -6.785774,
        1.5340958,
        7.95096,
        1.5497408,
        7.039274,
        -3.1561346,
        -2.6206322,
        7.6262703,
        3.9184418,
        -2.6506705,
        -4.4709153,
        -7.320382,
        -2.9442258,
        4.9707994,
        7.667307,
        4.304513,
        2.803172,
        -8.890204,
        8.738022,
        -9.69954,
        2.5683699,
        7.4922657,
        8.269262,
        1.8116055,
        4.1649046,
        0.007563591,
        8.349411,
        -0.7752266,
        6.3959656,
        6.2924194,
        -6.1192055,
        -4.879493,
        -6.434595,
        7.3221684,
        1.1992302,
        -6.08391,
        -0.44195366,
        -5.6091375,
        -2.0784082,
        7.01046,
        4.7208986,
        -2.8569622,
        1.8331661,
        -9.426066,
        4.7833834,
        5.6278553,
        5.9703035,
        -4.1995187,
        1.2834463,
        2.2755089,
        -0.9494772,
        -7.0588274,
        7.756237,
        9.900084,
        -7.8427935,
        0.55207634,
        -1.0413904,
        5.269601,
        5.535366,
        -7.6634455,
        7.6885242,
        1.0257235,
        7.0056725,
        -7.381546,
        3.2465086,
        -9.994003,
        7.555691,
        3.8332262,
        5.5726643,
        0.3664646,
        -1.1907454,
        -3.7630363,
        2.192048,
        -6.303687,
        -1.5240564,
        -0.8872528,
        -9.384589,
        -8.977987,
        -2.1069326,
        2.9066572,
        6.865326,
        8.418297,
        0.18252468,
        4.315983,
        1.6497908,
        7.972595,
        -8.066759,
        5.224101,
        6.816082,
        5.098914,
        -0.97233677,
        2.650076,
        5.406207,
        -7.5997324,
        9.478418,
        -8.563333,
        5.2631845,
        8.782749,
        3.489336,
        8.933472,
        1.2144623,
        2.3719368,
        -8.606896,
        2.1622715,
        4.1877213,
        8.872601,
        6.3436317,
        -2.5419111,
        8.947317,
        2.8451672,
        -8.603837,
        0.5452385,
        -9.690523,
        4.238163,
        9.031624,
        9.999086,
        -2.7125735,
        -0.14257622,
        -0.6243248,
        -3.736927,
        -2.9561944,
        0.6173477,
        6.730854,
        2.1242037,
        3.594059,
        8.932974,
        -0.2442522,
        6.1679974,
        3.687502,
        -0.09536171,
        -3.7646646,
        1.0591879,
        -0.70497704,
        2.9587517,
        4.7076473,
        -1.2291565,
        -4.9115033,
        4.281644,
        2.9027739,
        1.5863838,
        3.5410223,
        -1.814331,
        5.1057835,
        -2.6413174,
        9.630928,
        -7.2330236,
        8.0093975,
        -9.826813,
        -7.5406666,
        4.3580494,
        9.372284,
        0.6858816,
        -2.3324742,
        -2.820241,
        7.64361,
        4.2849054,
        -6.599617,
        9.985762,
        3.2681837,
        5.815241,
        -6.4476824,
        2.5108137,
        -1.399826,
        -6.976342,
        -0.7063122,
        -3.513238,
        -4.6546454,
        -1.5711632,
        -3.5413547,
        1.0238256,
        -8.77258,
        -9.403558,
        4.6288214,
        -2.548129,
        -5.768332,
        8.38583,
        4.033622,
        5.3849335,
        -2.9306383,
        4.0516434,
        1.2820568,
        8.866095,
        2.915903,
        -5.433845,
        3.8133154,
        -3.8288612,
        6.9949245,
        -3.5019727,
        2.4180946,
        -8.490224,
        -7.747016,
        -2.9289575,
        6.208601,
        2.5848284,
        0.7654419,
        2.2094526,
        5.6172314,
        9.397873,
        2.8831997,
        8.860458,
        0.48468494,
        5.0480433,
        2.8081427,
        -1.9746084,
        -0.3247137,
        0.58637524,
        2.2210064,
        -6.8644667,
        5.1063843,
        -7.1810055,
        9.017033,
        -1.5735235,
        1.4142904,
        6.1676884,
        -3.2415671,
        6.523218,
        9.799873,
        4.027151,
        5.7055254,
        3.9455757,
        9.327946,
        -2.3228421,
        -7.433483,
        1.3891754,
        -5.8036823,
        -2.4184194,
        0.51671124,
        2.438449,
        -6.994607,
        6.8062935,
        -8.043,
        7.0832367,
        1.1047878,
        -2.3274078,
        -2.6627083,
        5.523302,
        -8.889377,
        7.4140224,
        0.3928318,
        7.5822506,
        -2.8141685,
        7.845726,
        -9.97924,
        2.466649,
        8.647379,
        -5.6561394,
        -6.20228,
        -2.1541538,
        -0.9319868,
        9.726095,
        9.928795,
        -5.600178,
        -0.3668232,
        9.962627,
        8.959169,
        2.2822533,
        -1.5530176,
        -5.6876106,
        4.0109596,
        9.539108,
        9.630844,
        -9.353743,
        6.6968346,
        7.3265953,
        -2.4862804,
        4.533061,
        -2.8980918,
        0.879282,
        9.330736,
        6.4822826,
        -7.041728,
        -2.2920241,
        -3.00101,
        -4.6713085,
        -0.48784637,
        8.83988,
        -5.0511045,
        -9.805128,
        -5.9784217,
        7.1768703,
        -6.6123533,
        -6.967807,
        -9.489603,
        -8.566758,
        -5.7933373,
        -7.5015783,
        2.5855646,
        0.21869755,
        6.1225853,
        -8.187305,
        4.8409853,
        0.49585247,
        8.213469,
        2.8461447,
        -4.6222777,
        -2.7247496,
        1.3659754,
        7.722336,
        -6.1150546,
        2.733859,
        -3.9881153,
        -7.14499,
        8.430178,
        -4.359023,
        -9.800134,
        3.9545832,
        3.0492153,
        3.8163195,
        5.7898846,
        -6.0082645,
        8.104897,
        4.419757,
        8.878304,
        -5.907995,
        1.9614973,
        0.84963894,
        -9.301386,
        -6.4442205,
        0.63819027,
        7.8423367,
        6.0471363,
        0.43018246,
        1.012703,
        6.717865,
        -4.638893,
        -2.1276274,
        -5.952632,
        0.350605,
        8.437473,
        -4.584698,
        -1.6822901,
        9.268188,
        -4.7772164,
        -8.517637,
        8.4485855,
        0.52872276,
        2.7257671,
        -0.6412544,
        -4.4555182,
        1.1354694,
        2.997569,
        2.527298,
        4.4580374,
        -7.1421547,
        8.04418,
        -3.930492,
        -8.302674,
        -2.1515646,
        -2.4893632,
        -4.128544,
        -5.3946347,
        -8.689134,
        7.513466,
        3.6848154,
        5.9529657,
        8.295389,
        4.8506556,
        -9.206429,
        6.4936485,
        9.550993,
        -1.2944002,
        0.44785595,
        4.344612,
        -7.7717066,
        -0.78147316,
        9.777224,
        -5.200159,
        0.47030354,
        9.135567,
        -1.0162916,
        -3.0267782,
        3.3204708,
        -1.2836571,
        4.3944416,
        -4.536397,
        -6.6650724,
        -9.893961,
        -2.591004,
        3.9846191,
        7.775532,
        9.097837,
        -1.3786383,
        -3.239345,
        2.1416435,
        5.568516,
        8.533718,
        -8.671975,
        -5.8044024,
        8.987404,
        -8.444343,
        -5.3885264,
        -3.8854237,
        -5.4176993,
        -9.767385,
        5.33838,
        9.556208,
        8.044291,
        -0.21219635,
        -0.32992554,
        -1.5929928,
        -0.9952202,
        -3.9315243,
        -4.5788546,
        -6.071462,
        7.3266525,
        -5.2788396,
        -0.6102867,
        -2.7577658,
        -2.8403492,
        -5.997998,
        1.0086212,
        -3.1584759,
        9.954401,
        3.3232841,
        -5.942499,
        -8.844938,
        -1.6305895,
        7.6538506,
        -6.7576265,
        1.0862598,
        2.6778545,
        -6.9489784,
        -7.03922,
        -3.1669278,
        7.602068,
        8.145239,
        -4.970426,
        7.9480495,
        -2.7653236,
        -2.211434,
        9.79566,
        4.850892,
        3.077363,
        -4.965336,
        1.4841547,
        3.0073442,
        2.7772245,
        8.594851,
        9.805561,
        4.030694,
        7.0554695,
        7.477951,
        8.666145,
        -0.83769226,
        8.116465,
        -9.178429,
        -1.6715307,
        -3.0225773,
        0.35272217,
        -8.251674,
        7.961876,
        1.4887943,
        7.4163,
        -3.2625384,
        8.336435,
        -7.4535246,
        -2.5089998,
        7.171646,
        -8.877651,
        3.5307941,
        -5.2473993,
        -9.563529,
        -9.039528,
        -5.1431103,
        -7.443652,
        -7.7174587,
        -0.06277943,
        7.051443,
        3.6226788,
        -8.774845,
        -4.760203,
        3.6718836,
        7.228428,
        -5.204808,
        6.684412,
        -9.645993,
        8.634878,
        4.953741,
        3.4826555,
        6.3703556,
        -8.168302,
        9.899488,
        0.273448,
        -7.0618963,
        3.5009327,
        5.7711163,
        5.491459,
        -2.7999897,
        -9.942527,
        1.5475998,
        5.7123413,
        4.7676,
        8.72043,
        3.5689077,
        1.9935026,
        -4.2979903,
        -9.775424,
        7.307884,
        9.047693,
        6.682287,
        0.9057131,
        2.975358,
        2.9094276,
        9.623161,
        2.6801548,
        4.4058266,
        8.615736,
        -3.6765523,
        -5.167453,
        5.9684677,
        -0.73702526,
        0.15347576,
        8.654146,
        -1.252655,
        -6.996727,
        -7.3523445,
        8.01638,
        -8.3676195,
        1.317874,
        -4.8060985,
        -5.598621,
        2.4401512,
        3.720232,
        -1.4355154,
        -0.8317652,
        -7.5136805,
        3.1825771,
        -4.5213885,
        -9.416409,
        -1.1389246,
        -3.346724,
        4.7645245,
        0.409297,
        3.939127,
        9.990562,
        7.700945,
        -9.098406,
        -2.2713962,
        2.1927156,
        -6.022398,
        -3.2576056,
        1.4875183,
        -7.5183506,
        7.584593,
        8.553471,
        -6.7143726,
        8.222904,
        3.5576591,
        7.1217365,
        -2.2654047,
        8.489061,
        -0.7447758,
        -7.352063,
        -2.603497,
        -2.680089,
        -4.390008,
        0.2939806,
        -2.9697247,
        -7.0992203,
        0.33787632,
        6.293316,
        4.2256775,
        5.248582,
        2.784666,
        -2.1907487,
        2.6741037,
        -6.244902,
        4.151973,
        9.146017,
        -6.581607,
        3.199791,
        6.6882763,
        -1.5407314,
        0.88664436,
        -9.396932,
        -0.99760437,
        -2.9514976,
        -6.603076,
        2.1061144,
        8.10001,
        -3.2058854,
        6.6061115,
        -7.412345,
        -9.749109,
        3.535987,
        1.5811214,
        -3.5257978,
        -6.484663,
        0.85893726,
        -7.256446,
        -7.827503,
        -5.820045,
        4.217697,
        4.772023,
        5.991935,
        -7.367749,
        8.885307,
        -2.4372854,
        7.7630634,
        3.2315407,
        -8.430743,
        -0.36424065,
        1.0970774,
        1.657671,
        -8.627169,
        -1.3642378,
        -7.9486723,
        -7.953808,
        -7.6844454,
        6.8894386,
        4.372491,
        -0.6070347,
        9.735693,
        -4.3628545,
        3.1669512,
        -9.920478,
        7.4187202,
        2.8725138,
        4.126028,
        7.4695816,
        5.483019,
        -8.33343,
        2.4930391,
        5.1820393,
        8.1868305,
        8.745901,
        0.042404175,
        5.2415266,
        0.26015854,
        9.565308,
        4.429351,
        2.4131832,
        6.5610657,
        4.831251,
        7.6004333,
        -5.3721924,
        0.17453766,
        -8.983008,
        7.6591225,
        8.014936,
        -9.980914,
        7.163229,
        9.630138,
        2.1535816,
        4.5477066,
        5.352458,
        -6.444437,
        -5.541162,
        3.867899,
        -2.0120516,
        9.459278,
        -9.486895,
        -8.690357,
        -0.73674107,
        0.6162224,
        7.325512,
        8.855831,
        -0.99519634,
        -1.4596691,
        6.3480377,
        -0.8953781,
        -6.8122883,
        -2.3042026,
        -2.3775568,
        5.801112,
        -2.9797072,
        1.2188282,
        5.574235,
        6.7559853,
        7.7481403,
        8.037195,
        -7.3241873,
        -5.810146,
        2.6860418,
        -0.25000286,
        -7.8183193,
        -0.74906063,
        0.3302803,
        3.9533005,
        -4.3779416,
        -7.2733183,
        -1.0383673,
        -9.065576,
        -2.4333086,
        -7.089386,
        6.915268,
        -7.3204327,
        3.924323,
        -2.3560228,
        9.31138,
        -1.9730177,
        0.7149801,
        -3.704805,
        -3.051898,
        -3.7475295,
        -4.772839,
        4.3092833,
        8.198198,
        -7.9791307,
        -8.768945,
        2.461275,
        9.010033,
        7.446394,
        7.1223927,
        -0.06804848,
        -1.7727108,
        -2.0796194,
        -4.0299125,
        5.8639565,
        5.318796,
        9.622871,
        5.834996,
        8.030258,
        6.277355,
        -7.2463846,
        -1.6214485,
        -3.8614554,
        4.1836014,
        -0.94684505,
        -9.086881,
        -6.83335,
        9.910652,
        2.4575462,
        -6.989994,
        -7.959013,
        -6.5623207,
        -9.767615,
        -1.2185469,
        6.8890915,
        5.1784124,
        -3.0263872,
        -4.646241,
        -2.0666208,
        -9.1293545,
        -4.384579,
        6.599474,
        -3.885779,
        4.085621,
        0.25916672,
        -7.2536182,
        2.7961817,
        4.2677393,
        -6.4475985,
        4.995843,
        -7.244112,
        -0.8517189,
        0.63668823,
        -0.5957546,
        -7.7674627,
        -7.471895,
        3.8073578,
        -6.818039,
        -7.2916174,
        7.7171574,
        -4.0297694,
        9.039774,
        -4.3384333,
        1.1574068,
        3.020154,
        3.6054335,
        7.806696,
        5.786971,
        -1.5661211,
        2.6232634,
        -1.9243546,
        -7.809453,
        -2.5976963,
        6.1899433,
        7.300148,
        2.6524792,
        8.658323,
        -3.4618301,
        9.702322,
        -1.5924444,
        8.349987,
        -7.9979486,
        -3.731658,
        -6.852398,
        0.6233587,
        -8.911025,
        7.9889717,
        -3.2524056,
        -9.111244,
        -7.806077,
        6.9566784,
        2.4660053,
        7.5220776,
        7.6248894,
        7.39979,
        8.767134,
        8.924107,
        -3.539588,
        -8.435809,
        -1.0495272,
        8.705418,
        -3.1832595,
        2.9973946,
        7.523037,
        4.0161095,
        -2.3959532,
        -9.029222,
        3.668748,
        1.5853558,
        -1.7271843,
        -0.10385418,
        -9.447656,
        8.601028,
        -7.1040697,
        8.571831,
        0.090102196,
        -7.5804157,
        -5.6508346,
        3.9721737,
        9.562506,
        0.9143505,
        -6.491356,
        4.5058384,
        4.953624,
        -3.2454104,
        -7.944271,
        6.485483,
        -7.6772547,
        8.438206,
        -3.9019365,
        -3.6264033,
        -0.63188934,
        6.7834415,
        9.297462,
        9.375038,
        5.773777,
        9.070715,
        2.1451244,
        8.527569,
        5.4479856,
        6.208664,
        4.8190823,
        -6.401863,
        -7.978387,
        5.8848276,
        2.7786007,
        4.8622646,
        -0.9609194,
        -6.974106,
        4.006261,
        1.0838423,
        8.684816,
        2.5792923,
        -3.5038419,
        7.6296673,
        -0.5285444,
        2.8806963,
        6.272789,
        8.079943,
        4.5218954,
        -0.8294697,
        -9.430401,
        -7.9603643,
        7.9749546,
        9.135128,
        -7.2810745,
        -3.9752407,
        -4.536223,
        -8.924675,
        -1.0501499,
        -6.824298,
        9.926809,
        -8.338246,
        3.1909266,
        1.7408333,
        -6.0397096,
        8.904909,
        2.455164,
        3.7846575,
        -5.69226,
        2.2999392,
        -3.041112,
        9.86524,
        -3.9890141,
        3.5894337,
        4.051465,
        7.7640266,
        -4.2914743,
        5.6212416,
        -0.24549675,
        -9.917566,
        -8.044669,
        2.1206036,
        6.6466103,
        -1.8427773,
        -0.021988869,
        9.809994,
        -5.461244,
        -9.7619505,
        -1.8426485,
        5.1395264,
        2.162901,
        -9.733979,
        -5.637035,
        -1.597909,
        0.34465694,
        -0.8836212,
        -9.776549,
        9.054104,
        8.160707,
        -9.971828,
        1.2153997,
        -0.7085695,
        4.731365,
        -7.4291945,
        5.921604,
        9.702677,
        8.144613,
        5.6285944,
        9.229998,
        9.98188,
        -5.9658117,
        -7.4744053,
        7.6078606,
        -8.867042,
        -1.7456074,
        9.040823,
        8.707762,
        -1.9240608,
        -2.4013462,
        1.4699373,
        -6.472659,
        2.518033,
        6.067501,
        9.416811,
        -1.3973274,
        9.088888,
        -8.101211,
        -0.4554863,
        1.4396725,
        -3.450603,
        -2.0422282,
        -7.8745413,
        7.709528,
        8.061726,
        7.0639668,
        -5.3833957,
        -4.6519275,
        4.994506,
        -5.2115436,
        3.9127197,
        3.390545,
        -9.339859,
        -1.518816,
        -2.985248,
        -6.04747,
        -4.507112,
        5.6709976,
        6.684868,
        3.5800686,
        -5.6220026,
        7.097393,
        -8.567216,
        -2.5646205,
        -1.679205,
        2.6937761,
        7.04064,
        7.8431244,
        0.09946728,
        -0.2565899,
        -7.3600693,
        -3.837201,
        -1.0351105,
        -0.5728884,
        4.3844023,
        3.270894,
        -2.7416153,
        0.10021114,
        -2.7634068,
        1.2503538,
        -3.6726732,
        2.0714989,
        7.0768547,
        -4.757051,
        -4.967918,
        3.7087927,
        0.7762089,
        -9.539601,
        3.2161055,
        -3.220367,
        -3.1999297,
        2.6649914,
        4.48845,
        -3.2976933,
        -9.400735,
        -9.942851,
        -6.7565794,
        8.017143,
        -9.260931,
        -4.9668283,
        -3.8246627,
        -8.074953,
        -3.250074,
        4.7072163,
        -0.38883114,
        3.2637348,
        3.104557,
        0.2888956,
        -5.785312,
        5.1938457,
        -1.9842453,
        -9.184839,
        -2.7904553,
        -1.5537949,
        1.6403475,
        -1.7916555,
        5.246894,
        -0.43205643,
        0.842618,
        2.7109537,
        -6.3503027,
        5.671298,
        1.8564425,
        -8.78,
        0.62557125,
        0.19641018,
        5.1835127,
        -7.1349497,
        -1.5922155,
        5.14861,
        -4.045107,
        -8.43435,
        -7.080369,
        -9.159305,
        -1.254858,
        1.7820253,
        -9.005281,
        -1.6588421,
        -1.8449059,
        -7.4094057,
        4.227499,
        8.103176,
        -6.0918303,
        -7.282979,
        -7.666666,
        4.4427977,
        -5.34147,
        6.6880245,
        -7.861125,
        -6.111738,
        0.20355606,
        7.145687,
        -1.2550106,
        4.4928894,
        8.584572,
        -6.9416904,
        -2.3720064,
        -5.379078,
        -6.3814306,
        0.76428986,
        -3.116581,
        4.9246416,
        9.851337,
        -9.573932,
        6.258707,
        -5.7488675,
        -6.8321486,
        -2.4482574,
        9.399971,
        -4.241831,
        -5.4271717,
        5.0510283,
        -8.326718,
        -2.98217,
        9.377386,
        3.6471186,
        -5.752413,
        4.0348377,
        5.596697,
        9.696674,
        -9.858882,
        -3.9861126,
        6.2342167,
        6.3469353,
        8.856344,
        -7.53658,
        -3.329813,
        -1.4015837,
        2.239152,
        6.4965916,
        9.859657,
        -0.32362843,
        8.59848,
        -3.9299197,
        -7.469368,
        0.786294,
        4.809557,
        -5.3299017,
        8.699013,
        -5.770542,
        6.643015,
        -7.5415754,
        -0.31496906,
        9.042179,
        -0.20854187,
        1.0614786,
        0.24510288,
        -2.8838677,
        -3.2344909,
        -1.7510576,
        -1.4617319,
        1.7212477,
        -4.0503163,
        5.0148144,
        2.506112,
        -4.944677,
        4.4926777,
        9.907362,
        -8.159194,
        -4.9770947,
        -7.2940207,
        -9.947588,
        0.6950369,
        -5.019433,
        9.1338005,
        2.234868,
        -0.11182213,
        -9.948995,
        -0.19067001,
        5.101144,
        7.18309,
        9.368614,
        9.504995,
        5.6152887,
        -9.151006,
        -6.8701096,
        -0.6359043,
        -3.5027022,
        -2.8510113,
        -8.863368,
        -6.465008,
        -0.49989128,
        -3.7681575,
        1.875001,
        -7.407672,
        5.3825464,
        -2.128581,
        0.68824196,
        4.118947,
        7.9238567,
        3.3261862,
        -8.570277,
        0.5068121,
        -3.2359571,
        3.1306229,
        3.6148205,
        -9.859631,
        0.2704277,
        6.535307,
        -9.49815,
        -7.425,
        5.1652994,
        8.308899,
        6.271164,
        6.4425774,
        -2.5747771,
        -7.210595,
        2.5769844,
        -1.2713022,
        7.4560375,
        -9.638166,
        -8.84985,
        -7.727253,
        3.0668106,
        3.6811533,
        3.9743528,
        4.5056067,
        7.5941486,
        8.673279,
        3.2121458,
        -0.9570732,
        -1.6814461,
        4.1538343,
        2.2764168,
        -3.7520165,
        -2.5127215,
        -2.4684682,
        1.0634699,
        -1.4225378,
        -3.1650205,
        -1.2627878,
        -3.8787003,
        -8.186914,
        5.0006332,
        -2.4375381,
        -6.127798,
        7.1797485,
        5.033902,
        -2.6490946,
        0.5632744,
        -5.0277586,
        5.141114,
        -9.2737055,
        -3.7117262,
        -2.9682846,
        3.019699,
        -4.596822,
        -7.45063,
        9.849974,
        1.8197737,
        3.3972588,
        8.73995,
        -3.638348,
        3.6346064,
        1.2869062,
        1.961833,
        0.90573406,
        1.2408342,
        7.2748337,
        3.7347736,
        -2.6688046,
        8.160763,
        7.080908,
        6.183399,
        1.7777643,
        7.0536823,
        -5.868847,
        -5.2815814,
        -9.615574,
        6.549444,
        -8.211293,
        -6.6069365,
        -9.752056,
        -6.7480536,
        -4.658553,
        1.1200962,
        4.2809954,
        0.6418333,
        -2.1126595,
        -7.4932785,
        -9.26481,
        9.4746685,
        2.8148994,
        3.609065,
        1.0103502,
        -9.345414,
        6.729246,
        -2.383515,
        -1.2961712,
        -6.865597,
        7.305399,
        2.4134455,
        8.314838,
        2.3401318,
        2.8203287,
        1.7025175,
        8.645483,
        -8.463151,
        -0.9934826,
        -5.9045334,
        7.325737,
        -3.6733432,
        8.856375,
        -0.7840748,
        -8.190505,
        -8.20797,
        8.267004,
        1.0336075,
        -5.790343,
        -8.294675,
        6.4849014,
        4.8526344,
        -1.0863247,
        6.174961,
        8.736357,
        7.7514877,
        9.815992,
        -6.9609756,
        8.197615,
        -7.9586573,
        6.367317,
        8.563448,
        -4.360978,
        6.5156307,
        -4.3574686,
        -7.269623,
        4.8977957,
        2.1536722,
        6.856436,
        0.30923748,
        7.6699867,
        -6.401243,
        2.9465523,
        8.8042965,
        -2.151176,
        -5.6134267,
        9.654764,
        -5.031242,
        -3.160996,
        -9.962499,
        -9.8654175,
        6.811632,
        6.5522766,
        -0.29675198,
        -0.6288328,
        -1.550662,
        -1.5753956,
        -5.455982,
        -7.4506187,
        -1.0240479,
        4.4949684,
        3.4231005,
        -8.091485,
        -3.9976187,
        -0.46255493,
        2.677637,
        9.717665,
        8.610031,
        9.155136,
        -1.3587351,
        9.530163,
        -6.3696957,
        -1.8609686,
        7.619114,
        -5.0988955,
        4.501835,
        2.1674814,
        8.94022,
        9.125799,
        -7.8407497,
        4.9603043,
        5.697221,
        -9.779186,
        -5.847649,
        -9.9264765,
        -0.9429207,
        -5.844087,
        5.1754303,
        6.627598,
        7.5423355,
        9.443588,
        6.595188,
        -1.2885971,
        5.6848707,
        -5.3113313,
        -1.3111868,
        -4.520771,
        9.262009,
        -5.235481,
        5.5043526,
        0.9126673,
        1.6994944,
        1.1535587,
        -7.20623,
        -6.6859007,
        -6.3300676,
        7.6079655,
        -1.565422,
        2.7471294,
        -3.169691,
        -1.152524,
        -1.8972483,
        6.539135,
        -4.5853515,
        4.84239,
        -9.296209,
        -9.506049,
        -5.198943,
        -8.367476,
        2.6290903,
        4.988409,
        6.579708,
        -2.493824,
        -4.4535775,
        5.935981,
        -1.4173574,
        -5.318908,
        1.0346975,
        -4.662041,
        5.649173,
        -8.544371,
        1.9875183,
        -3.3579178,
        3.6033545,
        5.507511,
        -6.4166546,
        -0.5178633,
        0.6830368,
        1.5602913,
        5.742275,
        7.537798,
        4.817644,
        2.741457,
        9.602739,
        4.171933,
        -4.684548,
        6.606222,
        0.5989399,
        -1.1630697,
        -9.675447,
        2.8978786,
        1.0850945,
        2.6616182,
        -7.5816536,
        4.9752464,
        4.842745,
        6.8134747,
        6.314108,
        9.593176,
        -9.913556,
        -5.0826807,
        7.0830917,
        -3.6465569,
        8.674255,
        -7.573411,
        -8.883478,
        6.987955,
        6.549753,
        0.12905502,
        -7.671191,
        -9.500599,
        -3.8682718,
        6.4921246,
        -8.746392,
        9.357092,
        -0.41804504,
        -2.608976,
        -4.190428,
        1.6050205,
        -6.055774,
        -4.4427986,
        -2.9643626,
        -3.7243767,
        -3.784792,
        1.2280474,
        -6.3879747,
        1.2831631,
        7.62331,
        1.9307194,
        -9.908168,
        2.4634542,
        -1.4350767,
        -1.260642,
        -9.1081,
        1.5164604,
        2.462553,
        3.7313852,
        -6.325631,
        -0.45588684,
        2.007679,
        -2.8975363,
        -5.612671,
        1.0377226,
        -0.7392473,
        -4.1409225,
        3.8846102,
        -3.051538,
        1.8666086,
        8.291973,
        -6.7119856,
        -0.6416292,
        6.151968,
        7.610821,
        -2.1994247,
        -6.8093014,
        1.0286798,
        -8.277125,
        7.291876,
        -5.8356185,
        -1.6658754,
        -9.422395,
        -8.497488,
        4.7004423,
        8.548147,
        -9.46207,
        -5.5300946,
        5.486614,
        6.3413525,
        7.907301,
        -6.5319967,
        0.68273926,
        -9.260475,
        -8.273191,
        -9.995167,
        -1.6022625,
        2.2354593,
        2.1519938,
        -0.81076336,
        -7.8031826,
        -8.855672,
        -5.870373,
        -1.8295898,
        6.634287,
        -4.9761147,
        2.3961124,
        8.409344,
        3.0529127,
        -7.011571,
        1.9746056,
        -1.7977705,
        -7.561323,
        -0.9484978,
        -2.7985425,
        7.2684116,
        -0.43334866,
        -6.6354485,
        -7.1247053,
        -9.532514,
        -7.7951765,
        -2.8244562,
        6.295595,
        7.38348,
        5.289997,
        -4.203145,
        2.1657267,
        8.966356,
        0.055194855,
        -2.0509663,
        5.2728148,
        9.801361,
        -0.43348026,
        -8.26266,
        -0.29922676,
        4.3494806,
        -7.253289,
        -9.7388525,
        3.428298,
        5.946233,
        6.888752,
        -7.9303074,
        -2.0569887,
        3.791772,
        3.347701,
        9.593496,
        -2.5011106,
        6.817665,
        2.886795,
        5.0959177,
        4.635702,
        4.270941,
        8.93198,
        6.139244,
        0.78108215,
        6.3383827,
        -4.1074677,
        0.89726067,
        9.538967,
        -4.6863217,
        -0.109788895,
        8.7509,
        -2.9540129,
        -8.399234,
        4.386798,
        -7.979393,
        -6.7743635,
        -4.592573,
        9.548626,
        -0.7327862,
        3.2812557,
        -6.0256596,
        -6.097855,
        1.6748896,
        1.1693153,
        7.316471,
        2.6795998,
        0.041457176,
        9.954725,
        9.796402,
        4.019409,
        -2.4143806,
        2.9273071,
        -0.39888287,
        4.6878967,
        -6.8273277,
        -7.8963537,
        -6.368294,
        5.3318233,
        9.811764,
        -5.0723953,
        1.3700638,
        -0.14548016,
        -6.148326,
        7.5712605,
        -9.525409,
        -9.832599,
        1.4775953,
        2.557269,
        0.7028065,
        -6.3504887,
        5.3284826,
        5.012204,
        8.015562,
        3.6937914,
        5.7501287,
        1.2238922,
        1.6138325,
        -5.737211,
        5.6925097,
        -3.9476008,
        -1.8064327,
        2.662324,
        9.382896,
        0.9187641
      ]
    },
    {
      "index": 2,
      "output": 1.0,
      "input_connections": [
        [
          0,
          0.0
        ],
        [
          1,
          -4.394128
        ],
        [
          3,
          7.3697014
        ],
        [
          4,
          -8.435755
        ],
        [
          5,
          -3.6324902
        ],
        [
          6,
          8.34086
        ],
        [
          7,
          -4.65404
        ]
      ],
      "bias": -0.18049625,
      "self_activation": -0.16966051,
      "retina_weights": [
        0.46945,
        -7.5875807,
        -1.8864317,
        2.8680096,
        2.2618809,
        -0.042780876,
        6.3203278,
        -9.778168,
        -1.6680737,
        8.429235,
        -6.932001,
        -2.3798933,
        -5.8695025,
        -1.2742844,
        3.9846935,
        -7.493129,
        3.95893,
        6.3219604,
        -9.741292,
        0.8689556,
        5.1666346,
        6.4957066,
        3.8663683,
        -3.8887615,
        -2.4655333,
        -3.3136125,
        3.0822573,
        4.5149813,
        -6.5294476,
        7.0020676,
        2.7491083,
        -5.863499,
        8.069292,
        7.848921,
        -5.4892964,
        -0.6392355,
        -7.696168,
        -0.4328575,
        1.9169846,
        5.3947277,
        -1.3788166,
        7.058182,
        -9.557114,
        -4.1902347,
        -4.869706,
        1.9842396,
        -9.66613,
        0.05020523,
        9.355579,
        6.454611,
        2.3541937,
        2.181326,
        9.457048,
        -7.0285864,
        -1.4918079,
        7.2072525,
        2.3274078,
        -2.6015468,
        3.5584965,
        4.0305605,
        6.6018143,
        0.87497807,
        -7.0068235,
        -5.9739323,
        -6.9439144,
        3.1611338,
        -6.1073036,
        7.2932186,
        -6.6701555,
        -1.0498228,
        -2.6496263,
        1.1839781,
        -6.4447975,
        9.653645,
        8.204441,
        4.7344074,
        6.3312187,
        4.5290127,
        -9.814763,
        2.6815042,
        3.5484257,
        5.691716,
        4.586478,
        3.59099,
        -6.785774,
        1.5340958,
        7.95096,
        1.5497408,
        7.039274,
        -3.1561346,
        -2.6206322,
        7.6262703,
        3.9184418,
        -2.6506705,
        -4.4709153,
        -7.320382,
        -2.9442258,
        4.9707994,
        7.667307,
        4.304513,
        2.803172,
        -8.890204,
        8.738022,
        -9.69954,
        2.5683699,
        7.4922657,
        8.269262,
        1.8116055,
        4.1649046,
        0.007563591,
        8.349411,
        -0.7752266,
        6.3959656,
        6.2924194,
        -6.1192055,
        -4.879493,
        -6.434595,
        7.3221684,
        1.1992302,
        -6.08391,
        -0.44195366,
        -5.6091375,
        -2.0784082,
        7.01046,
        4.7208986,
        -2.8569622,
        1.8331661,
        -9.426066,
        4.7833834,
        5.6278553,
        5.9703035,
        -4.1995187,
        1.2834463,
        2.2755089,
        -0.9494772,
        -7.0588274,
        7.756237,
        9.900084,
        -7.8427935,
        0.55207634,
        -1.0413904,
        5.269601,
        5.535366,
        -7.6634455,
        7.6885242,
        1.0257235,
        7.0056725,
        -7.381546,
        3.2465086,
        -9.994003,
        7.555691,
        3.8332262,
        5.5726643,
        0.3664646,
        -1.1907454,
        -3.7630363,
        2.192048,
        -6.303687,
        -1.5240564,
        -0.8872528,
        -9.384589,
        -8.977987,
        -2.1069326,
        2.9066572,
        6.865326,
        8.418297,
        0.18252468,
        4.315983,
        1.6497908,
        7.972595,
        -8.066759,
        5.224101,
        6.816082,
        5.098914,
        -0.97233677,
        2.650076,
        5.406207,
        -7.5997324,
        9.478418,
        -8.563333,
        5.2631845,
        8.782749,
        3.489336,
        8.933472,
        1.2144623,
        2.3719368,
        -8.606896,
        2.1622715,
        4.1877213,
        8.872601,
        6.3436317,
        -2.5419111,
        8.947317,
        2.8451672,
        -8.603837,
        0.5452385,
        -9.690523,
        4.238163,
        9.031624,
        9.999086,
        -2.7125735,
        -0.14257622,
        -0.6243248,
        -3.736927,
        -2.9561944,
        0.6173477,
        6.730854,
        2.1242037,
        3.594059,
        8.932974,
        -0.2442522,
        6.1679974,
        3.687502,
        -0.09536171,
        -3.7646646,
        1.0591879,
        -0.70497704,
        2.9587517,
        4.7076473,
        -1.2291565,
        -4.9115033,
        4.281644,
        2.9027739,
        1.5863838,
        3.5410223,
        -1.814331,
        5.1057835,
        -2.6413174,
        9.630928,
        -7.2330236,
        8.0093975,
        -9.826813,
        -7.5406666,
        4.3580494,
        9.372284,
        0.6858816,
        -2.3324742,
        -2.820241,
        7.64361,
        4.2849054,
        -6.599617,
        9.985762,
        3.2681837,
        5.815241,
        -6.4476824,
        2.5108137,
        -1.399826,
        -6.976342,
        -0.7063122,
        -3.513238,
        -4.6546454,
        -1.5711632,
        -3.5413547,
        1.0238256,
        -8.77258,
        -9.403558,
        4.6288214,
        -2.548129,
        -5.768332,
        8.38583,
        4.033622,
        5.3849335,
        -2.9306383,
        4.0516434,
        1.2820568,
        8.866095,
        2.915903,
        -5.433845,
        3.8133154,
        -3.8288612,
        6.9949245,
        -3.5019727,
        2.4180946,
        -8.490224,
        -7.747016,
        -2.9289575,
        6.208601,
        2.5848284,
        0.7654419,
        2.2094526,
        5.6172314,
        9.397873,
        2.8831997,
        8.860458,
        0.48468494,
        5.0480433,
        2.8081427,
        -1.9746084,
        -0.3247137,
        0.58637524,
        2.2210064,
        -6.8644667,
        5.1063843,
        -7.1810055,
        9.017033,
        -1.5735235,
        1.4142904,
        6.1676884,
        -3.2415671,
        6.523218,
        9.799873,
        4.027151,
        5.7055254,
        3.9455757,
        9.327946,
        -2.3228421,
        -7.433483,
        1.3891754,
        -5.8036823,
        -2.4184194,
        0.51671124,
        2.438449,
        -6.994607,
        6.8062935,
        -8.043,
        7.0832367,
        1.1047878,
        -2.3274078,
        -2.6627083,
        5.523302,
        -8.889377,
        7.4140224,
        0.3928318,
        7.5822506,
        -2.8141685,
        7.845726,
        -9.97924,
        2.466649,
        8.647379,
        -5.6561394,
        -6.20228,
        -2.1541538,
        -0.9319868,
        9.726095,
        9.928795,
        -5.600178,
        -0.3668232,
        9.962627,
        8.959169,
        2.2822533,
        -1.5530176,
        -5.6876106,
        4.0109596,
        9.539108,
        9.630844,
        -9.353743,
        6.6968346,
        7.3265953,
        -2.4862804,
        4.533061,
        -2.8980918,
        0.879282,
        9.330736,
        6.4822826,
        -7.041728,
        -2.2920241,
        -3.00101,
        -4.6713085,
        -0.48784637,
        8.83988,
        -5.0511045,
        -9.805128,
        -5.9784217,
        7.1768703,
        -6.6123533,
        -6.967807,
        -9.489603,
        -8.566758,
        -5.7933373,
        -7.5015783,
        2.5855646,
        0.21869755,
        6.1225853,
        -8.187305,
        4.8409853,
        0.49585247,
        8.213469,
        2.8461447,
        -4.6222777,
        -2.7247496,
        1.3659754,
        7.722336,
        -6.1150546,
        2.733859,
        -3.9881153,
        -7.14499,
        8.430178,
        -4.359023,
        -9.800134,
        3.9545832,
        3.0492153,
        3.8163195,
        5.7898846,
        -6.0082645,
        8.104897,
        4.419757,
        8.878304,
        -5.907995,
        1.9614973,
        0.84963894,
        -9.301386,
        -6.4442205,
        0.63819027,
        7.8423367,
        6.0471363,
        0.43018246,
        1.012703,
        6.717865,
        -4.638893,
        -2.1276274,
        -5.952632,
        0.350605,
        8.437473,
        -4.584698,
        -1.6822901,
        9.268188,
        -4.7772164,
        -8.517637,
        8.4485855,
        0.52872276,
        2.7257671,
        -0.6412544,
        -4.4555182,
        1.1354694,
        2.997569,
        2.527298,
        4.4580374,
        -7.1421547,
        8.04418,
        -3.930492,
        -8.302674,
        -2.1515646,
        -2.4893632,
        -4.128544,
        -5.3946347,
        -8.689134,
        7.513466,
        3.6848154,
        5.9529657,
        8.295389,
        4.8506556,
        -9.206429,
        6.4936485,
        9.550993,
        -1.2944002,
        0.44785595,
        4.344612,
        -7.7717066,
        -0.78147316,
        9.777224,
        -5.200159,
        0.47030354,
        9.135567,
        -1.0162916,
        -3.0267782,
        3.3204708,
        -1.2836571,
        4.3944416,
        -4.536397,
        -6.6650724,
        -9.893961,
        -2.591004,
        3.9846191,
        7.775532,
        9.097837,
        -1.3786383,
        -3.239345,
        2.1416435,
        5.568516,
        8.533718,
        -8.671975,
        -5.8044024,
        8.987404,
        -8.444343,
        -5.3885264,
        -3.8854237,
        -5.4176993,
        -9.767385,
        5.33838,
        9.556208,
        8.044291,
        -0.21219635,
        -0.32992554,
        -1.5929928,
        -0.9952202,
        -3.9315243,
        -4.5788546,
        -6.071462,
        7.3266525,
        -5.2788396,
        -0.6102867,
        -2.7577658,
        -2.8403492,
        -5.997998,
        1.0086212,
        -3.1584759,
        9.954401,
        3.3232841,
        -5.942499,
        -8.844938,
        -1.6305895,
        7.6538506,
        -6.7576265,
        1.0862598,
        2.6778545,
        -6.9489784,
        -7.03922,
        -3.1669278,
        7.602068,
        8.145239,
        -4.970426,
        7.9480495,
        -2.7653236,
        -2.211434,
        9.79566,
        4.850892,
        3.077363,
        -4.965336,
        1.4841547,
        3.0073442,
        2.7772245,
        8.594851,
        9.805561,
        4.030694,
        7.0554695,
        7.477951,
        8.666145,
        -0.83769226,
        8.116465,
        -9.178429,
        -1.6715307,
        -3.0225773,
        0.35272217,
        -8.251674,
        7.961876,
        1.4887943,
        7.4163,
        -3.2625384,
        8.336435,
        -7.4535246,
        -2.5089998,
        7.171646,
        -8.877651,
        3.5307941,
        -5.2473993,
        -9.563529,
        -9.039528,
        -5.1431103,
        -7.443652,
        -7.7174587,
        -0.06277943,
        7.051443,
        3.6226788,
        -8.774845,
        -4.760203,
        3.6718836,
        7.228428,
        -5.204808,
        6.684412,
        -9.645993,
        8.634878,
        4.953741,
        3.4826555,
        6.3703556,
        -8.168302,
        9.899488,
        0.273448,
        -7.0618963,
        3.5009327,
        5.7711163,
        5.491459,
        -2.7999897,
        -9.942527,
        1.5475998,
        5.7123413,
        4.7676,
        8.72043,
        3.5689077,
        1.9935026,
        -4.2979903,
        -9.775424,
        7.307884,
        9.047693,
        6.682287,
        0.9057131,
        2.975358,
        2.9094276,
        9.623161,
        2.6801548,
        4.4058266,
        8.615736,
        -3.6765523,
        -5.167453,
        5.9684677,
        -0.73702526,
        0.15347576,
        8.654146,
        -1.252655,
        -6.996727,
        -7.3523445,
        8.01638,
        -8.3676195,
        1.317874,
        -4.8060985,
        -5.598621,
        2.4401512,
        3.720232,
        -1.4355154,
        -0.8317652,
        -7.5136805,
        3.1825771,
        -4.5213885,
        -9.416409,
        -1.1389246,
        -3.346724,
        4.7645245,
        0.409297,
        3.939127,
        9.990562,
        7.700945,
        -9.098406,
        -2.2713962,
        2.1927156,
        -6.022398,
        -3.2576056,
        1.4875183,
        -7.5183506,
        7.584593,
        8.553471,
        -6.7143726,
        8.222904,
        3.5576591,
        7.1217365,
        -2.2654047,
        8.489061,
        -0.7447758,
        -7.352063,
        -2.603497,
        -2.680089,
        -4.390008,
        0.2939806,
        -2.9697247,
        -7.0992203,
        0.33787632,
        6.293316,
        4.2256775,
        5.248582,
        2.784666,
        -2.1907487,
        2.6741037,
        -6.244902,
        4.151973,
        9.146017,
        -6.581607,
        3.199791,
        6.6882763,
        -1.5407314,
        0.88664436,
        -9.396932,
        -0.99760437,
        -2.9514976,
        -6.603076,
        2.1061144,
        8.10001,
        -3.2058854,
        6.6061115,
        -7.412345,
        -9.749109,
        3.535987,
        1.5811214,
        -3.5257978,
        -6.484663,
        0.85893726,
        -7.256446,
        -7.827503,
        -5.820045,
        4.217697,
        4.772023,
        5.991935,
        -7.367749,
        8.885307,
        -2.4372854,
        7.7630634,
        3.2315407,
        -8.430743,
        -0.36424065,
        1.0970774,
        1.657671,
        -8.627169,
        -1.3642378,
        -7.9486723,
        -7.953808,
        -7.6844454,
        6.8894386,
        4.372491,
        -0.6070347,
        9.735693,
        -4.3628545,
        3.1669512,
        -9.920478,
        7.4187202,
        2.8725138,
        4.126028,
        7.4695816,
        5.483019,
        -8.33343,
        2.4930391,
        5.1820393,
        8.1868305,
        8.745901,
        0.042404175,
        5.2415266,
        0.26015854,
        9.565308,
        4.429351,
        2.4131832,
        6.5610657,
        4.831251,
        7.6004333,
        -5.3721924,
        0.17453766,
        -8.983008,
        7.6591225,
        8.014936,
        -9.980914,
        7.163229,
        9.630138,
        2.1535816,
        4.5477066,
        5.352458,
        -6.444437,
        -5.541162,
        3.867899,
        -2.0120516,
        9.459278,
        -9.486895,
        -8.690357,
        -0.73674107,
        0.6162224,
        7.325512,
        8.855831,
        -0.99519634,
        -1.4596691,
        6.3480377,
        -0.8953781,
        -6.8122883,
        -2.3042026,
        -2.3775568,
        5.801112,
        -2.9797072,
        1.2188282,
        5.574235,
        6.7559853,
        7.7481403,
        8.037195,
        -7.3241873,
        -5.810146,
        2.6860418,
        -0.25000286,
        -7.8183193,
        -0.74906063,
        0.3302803,
        3.9533005,
        -4.3779416,
        -7.2733183,
        -1.0383673,
        -9.065576,
        -2.4333086,
        -7.089386,
        6.915268,
        -7.3204327,
        3.924323,
        -2.3560228,
        9.31138,
        -1.9730177,
        0.7149801,
        -3.704805,
        -3.051898,
        -3.7475295,
        -4.772839,
        4.3092833,
        8.198198,
        -7.9791307,
        -8.768945,
        2.461275,
        9.010033,
        7.446394,
        7.1223927,
        -0.06804848,
        -1.7727108,
        -2.0796194,
        -4.0299125,
        5.8639565,
        5.318796,
        9.622871,
        5.834996,
        8.030258,
        6.277355,
        -7.2463846,
        -1.6214485,
        -3.8614554,
        4.1836014,
        -0.94684505,
        -9.086881,
        -6.83335,
        9.910652,
        2.4575462,
        -6.989994,
        -7.959013,
        -6.5623207,
        -9.767615,
        -1.2185469,
        6.8890915,
        5.1784124,
        -3.0263872,
        -4.646241,
        -2.0666208,
        -9.1293545,
        -4.384579,
        6.599474,
        -3.885779,
        4.085621,
        0.25916672,
        -7.2536182,
        2.7961817,
        4.2677393,
        -6.4475985,
        4.995843,
        -7.244112,
        -0.8517189,
        0.63668823,
        -0.5957546,
        -7.7674627,
        -7.471895,
        3.8073578,
        -6.818039,
        -7.2916174,
        7.7171574,
        -4.0297694,
        9.039774,
        -4.3384333,
        1.1574068,
        3.020154,
        3.6054335,
        7.806696,
        5.786971,
        -1.5661211,
        2.6232634,
        -1.9243546,
        -7.809453,
        -2.5976963,
        6.1899433,
        7.300148,
        2.6524792,
        8.658323,
        -3.4618301,
        9.702322,
        -1.5924444,
        8.349987,
        -7.9979486,
        -3.731658,
        -6.852398,
        0.6233587,
        -8.911025,
        7.9889717,
        -3.2524056,
        -9.111244,
        -7.806077,
        6.9566784,
        2.4660053,
        7.5220776,
        7.6248894,
        7.39979,
        8.767134,
        8.924107,
        -3.539588,
        -8.435809,
        -1.0495272,
        8.705418,
        -3.1832595,
        2.9973946,
        7.523037,
        4.0161095,
        -2.3959532,
        -9.029222,
        3.668748,
        1.5853558,
        -1.7271843,
        -0.10385418,
        -9.447656,
        8.601028,
        -7.1040697,
        8.571831,
        0.090102196,
        -7.5804157,
        -5.6508346,
        3.9721737,
        9.562506,
        0.9143505,
        -6.491356,
        4.5058384,
        4.953624,
        -3.2454104,
        -7.944271,
        6.485483,
        -7.6772547,
        8.438206,
        -3.9019365,
        -3.6264033,
        -0.63188934,
        6.7834415,
        9.297462,
        9.375038,
        5.773777,
        9.070715,
        2.1451244,
        8.527569,
        5.4479856,
        6.208664,
        4.8190823,
        -6.401863,
        -7.978387,
        5.8848276,
        2.7786007,
        4.8622646,
        -0.9609194,
        -6.974106,
        4.006261,
        1.0838423,
        8.684816,
        2.5792923,
        -3.5038419,
        7.6296673,
        -0.5285444,
        2.8806963,
        6.272789,
        8.079943,
        4.5218954,
        -0.8294697,
        -9.430401,
        -7.9603643,
        7.9749546,
        9.135128,
        -7.2810745,
        -3.9752407,
        -4.536223,
        -8.924675,
        -1.0501499,
        -6.824298,
        9.926809,
        -8.338246,
        3.1909266,
        1.7408333,
        -6.0397096,
        8.904909,
        2.455164,
        3.7846575,
        -5.69226,
        2.2999392,
        -3.041112,
        9.86524,
        -3.9890141,
        3.5894337,
        4.051465,
        7.7640266,
        -4.2914743,
        5.6212416,
        -0.24549675,
        -9.917566,
        -8.044669,
        2.1206036,
        6.6466103,
        -1.8427773,
        -0.021988869,
        9.809994,
        -5.461244,
        -9.7619505,
        -1.8426485,
        5.1395264,
        2.162901,
        -9.733979,
        -5.637035,
        -1.597909,
        0.34465694,
        -0.8836212,
        -9.776549,
        9.054104,
        8.160707,
        -9.971828,
        1.2153997,
        -0.7085695,
        4.731365,
        -7.4291945,
        5.921604,
        9.702677,
        8.144613,
        5.6285944,
        9.229998,
        9.98188,
        -5.9658117,
        -7.4744053,
        7.6078606,
        -8.867042,
        -1.7456074,
        9.040823,
        8.707762,
        -1.9240608,
        -2.4013462,
        1.4699373,
        -6.472659,
        2.518033,
        6.067501,
        9.416811,
        -1.3973274,
        9.088888,
        -8.101211,
        -0.4554863,
        1.4396725,
        -3.450603,
        -2.0422282,
        -7.8745413,
        7.709528,
        8.061726,
        7.0639668,
        -5.3833957,
        -4.6519275,
        4.994506,
        -5.2115436,
        3.9127197,
        3.390545,
        -9.339859,
        -1.518816,
        -2.985248,
        -6.04747,
        -4.507112,
        5.6709976,
        6.684868,
        3.5800686,
        -5.6220026,
        7.097393,
        -8.567216,
        -2.5646205,
        -1.679205,
        2.6937761,
        7.04064,
        7.8431244,
        0.09946728,
        -0.2565899,
        -7.3600693,
        -3.837201,
        -1.0351105,
        -0.5728884,
        4.3844023,
        3.270894,
        -2.7416153,
        0.10021114,
        -2.7634068,
        1.2503538,
        -3.6726732,
        2.0714989,
        7.0768547,
        -4.757051,
        -4.967918,
        3.7087927,
        0.7762089,
        -9.539601,
        3.2161055,
        -3.220367,
        -3.1999297,
        2.6649914,
        4.48845,
        -3.2976933,
        -9.400735,
        -9.942851,
        -6.7565794,
        8.017143,
        -9.260931,
        -4.9668283,
        -3.8246627,
        -8.074953,
        -3.250074,
        4.7072163,
        -0.38883114,
        3.2637348,
        3.104557,
        0.2888956,
        -5.785312,
        5.1938457,
        -1.9842453,
        -9.184839,
        -2.7904553,
        -1.5537949,
        1.6403475,
        -1.7916555,
        5.246894,
        -0.43205643,
        0.842618,
        2.7109537,
        -6.3503027,
        5.671298,
        1.8564425,
        -8.78,
        0.62557125,
        0.19641018,
        5.1835127,
        -7.1349497,
        -1.5922155,
        5.14861,
        -4.045107,
        -8.43435,
        -7.080369,
        -9.159305,
        -1.254858,
        1.7820253,
        -9.005281,
        -1.6588421,
        -1.8449059,
        -7.4094057,
        4.227499,
        8.103176,
        -6.0918303,
        -7.282979,
        -7.666666,
        4.4427977,
        -5.34147,
        6.6880245,
        -7.861125,
        -6.111738,
        0.20355606,
        7.145687,
        -1.2550106,
        4.4928894,
        8.584572,
        -6.9416904,
        -2.3720064,
        -5.379078,
        -6.3814306,
        0.76428986,
        -3.116581,
        4.9246416,
        9.851337,
        -9.573932,
        6.258707,
        -5.7488675,
        -6.8321486,
        -2.4482574,
        9.399971,
        -4.241831,
        -5.4271717,
        5.0510283,
        -8.326718,
        -2.98217,
        9.377386,
        3.6471186,
        -5.752413,
        4.0348377,
        5.596697,
        9.696674,
        -9.858882,
        -3.9861126,
        6.2342167,
        6.3469353,
        8.856344,
        -7.53658,
        -3.329813,
        -1.4015837,
        2.239152,
        6.4965916,
        9.859657,
        -0.32362843,
        8.59848,
        -3.9299197,
        -7.469368,
        0.786294,
        4.809557,
        -5.3299017,
        8.699013,
        -5.770542,
        6.643015,
        -7.5415754,
        -0.31496906,
        9.042179,
        -0.20854187,
        1.0614786,
        0.24510288,
        -2.8838677,
        -3.2344909,
        -1.7510576,
        -1.4617319,
        1.7212477,
        -4.0503163,
        5.0148144,
        2.506112,
        -4.944677,
        4.4926777,
        9.907362,
        -8.159194,
        -4.9770947,
        -7.2940207,
        -9.947588,
        0.6950369,
        -5.019433,
        9.1338005,
        2.234868,
        -0.11182213,
        -9.948995,
        -0.19067001,
        5.101144,
        7.18309,
        9.368614,
        9.504995,
        5.6152887,
        -9.151006,
        -6.8701096,
        -0.6359043,
        -3.5027022,
        -2.8510113,
        -8.863368,
        -6.465008,
        -0.49989128,
        -3.7681575,
        1.875001,
        -7.407672,
        5.3825464,
        -2.128581,
        0.68824196,
        4.118947,
        7.9238567,
        3.3261862,
        -8.570277,
        0.5068121,
        -3.2359571,
        3.1306229,
        3.6148205,
        -9.859631,
        0.2704277,
        6.535307,
        -9.49815,
        -7.425,
        5.1652994,
        8.308899,
        6.271164,
        6.4425774,
        -2.5747771,
        -7.210595,
        2.5769844,
        -1.2713022,
        7.4560375,
        -9.638166,
        -8.84985,
        -7.727253,
        3.0668106,
        3.6811533,
        3.9743528,
        4.5056067,
        7.5941486,
        8.673279,
        3.2121458,
        -0.9570732,
        -1.6814461,
        4.1538343,
        2.2764168,
        -3.7520165,
        -2.5127215,
        -2.4684682,
        1.0634699,
        -1.4225378,
        -3.1650205,
        -1.2627878,
        -3.8787003,
        -8.186914,
        5.0006332,
        -2.4375381,
        -6.127798,
        7.1797485,
        5.033902,
        -2.6490946,
        0.5632744,
        -5.0277586,
        5.141114,
        -9.2737055,
        -3.7117262,
        -2.9682846,
        3.019699,
        -4.596822,
        -7.45063,
        9.849974,
        1.8197737,
        3.3972588,
        8.73995,
        -3.638348,
        3.6346064,
        1.2869062,
        1.961833,
        0.90573406,
        1.2408342,
        7.2748337,
        3.7347736,
        -2.6688046,
        8.160763,
        7.080908,
        6.183399,
        1.7777643,
        7.0536823,
        -5.868847,
        -5.2815814,
        -9.615574,
        6.549444,
        -8.211293,
        -6.6069365,
        -9.752056,
        -6.7480536,
        -4.658553,
        1.1200962,
        4.2809954,
        0.6418333,
        -2.1126595,
        -7.4932785,
        -9.26481,
        9.4746685,
        2.8148994,
        3.609065,
        1.0103502,
        -9.345414,
        6.729246,
        -2.383515,
        -1.2961712,
        -6.865597,
        7.305399,
        2.4134455,
        8.314838,
        2.3401318,
        2.8203287,
        1.7025175,
        8.645483,
        -8.463151,
        -0.9934826,
        -5.9045334,
        7.325737,
        -3.6733432,
        8.856375,
        -0.7840748,
        -8.190505,
        -8.20797,
        8.267004,
        1.0336075,
        -5.790343,
        -8.294675,
        6.4849014,
        4.8526344,
        -1.0863247,
        6.174961,
        8.736357,
        7.7514877,
        9.815992,
        -6.9609756,
        8.197615,
        -7.9586573,
        6.367317,
        8.563448,
        -4.360978,
        6.5156307,
        -4.3574686,
        -7.269623,
        4.8977957,
        2.1536722,
        6.856436,
        0.30923748,
        7.6699867,
        -6.401243,
        2.9465523,
        8.8042965,
        -2.151176,
        -5.6134267,
        9.654764,
        -5.031242,
        -3.160996,
        -9.962499,
        -9.8654175,
        6.811632,
        6.5522766,
        -0.29675198,
        -0.6288328,
        -1.550662,
        -1.5753956,
        -5.455982,
        -7.4506187,
        -1.0240479,
        4.4949684,
        3.4231005,
        -8.091485,
        -3.9976187,
        -0.46255493,
        2.677637,
        9.717665,
        8.610031,
        9.155136,
        -1.3587351,
        9.530163,
        -6.3696957,
        -1.8609686,
        7.619114,
        -5.0988955,
        4.501835,
        2.1674814,
        8.94022,
        9.125799,
        -7.8407497,
        4.9603043,
        5.697221,
        -9.779186,
        -5.847649,
        -9.9264765,
        -0.9429207,
        -5.844087,
        5.1754303,
        6.627598,
        7.5423355,
        9.443588,
        6.595188,
        -1.2885971,
        5.6848707,
        -5.3113313,
        -1.3111868,
        -4.520771,
        9.262009,
        -5.235481,
        5.5043526,
        0.9126673,
        1.6994944,
        1.1535587,
        -7.20623,
        -6.6859007,
        -6.3300676,
        7.6079655,
        -1.565422,
        2.7471294,
        -3.169691,
        -1.152524,
        -1.8972483,
        6.539135,
        -4.5853515,
        4.84239,
        -9.296209,
        -9.506049,
        -5.198943,
        -8.367476,
        2.6290903,
        4.988409,
        6.579708,
        -2.493824,
        -4.4535775,
        5.935981,
        -1.4173574,
        -5.318908,
        1.0346975,
        -4.662041,
        5.649173,
        -8.544371,
        1.9875183,
        -3.3579178,
        3.6033545,
        5.507511,
        -6.4166546,
        -0.5178633,
        0.6830368,
        1.5602913,
        5.742275,
        7.537798,
        4.817644,
        2.741457,
        9.602739,
        4.171933,
        -4.684548,
        6.606222,
        0.5989399,
        -1.1630697,
        -9.675447,
        2.8978786,
        1.0850945,
        2.6616182,
        -7.5816536,
        4.9752464,
        4.842745,
        6.8134747,
        6.314108,
        9.593176,
        -9.913556,
        -5.0826807,
        7.0830917,
        -3.6465569,
        8.674255,
        -7.573411,
        -8.883478,
        6.987955,
        6.549753,
        0.12905502,
        -7.671191,
        -9.500599,
        -3.8682718,
        6.4921246,
        -8.746392,
        9.357092,
        -0.41804504,
        -2.608976,
        -4.190428,
        1.6050205,
        -6.055774,
        -4.4427986,
        -2.9643626,
        -3.7243767,
        -3.784792,
        1.2280474,
        -6.3879747,
        1.2831631,
        7.62331,
        1.9307194,
        -9.908168,
        2.4634542,
        -1.4350767,
        -1.260642,
        -9.1081,
        1.5164604,
        2.462553,
        3.7313852,
        -6.325631,
        -0.45588684,
        2.007679,
        -2.8975363,
        -5.612671,
        1.0377226,
        -0.7392473,
        -4.1409225,
        3.8846102,
        -3.051538,
        1.8666086,
        8.291973,
        -6.7119856,
        -0.6416292,
        6.151968,
        7.610821,
        -2.1994247,
        -6.8093014,
        1.0286798,
        -8.277125,
        7.291876,
        -5.8356185,
        -1.6658754,
        -9.422395,
        -8.497488,
        4.7004423,
        8.548147,
        -9.46207,
        -5.5300946,
        5.486614,
        6.3413525,
        7.907301,
        -6.5319967,
        0.68273926,
        -9.260475,
        -8.273191,
        -9.995167,
        -1.6022625,
        2.2354593,
        2.1519938,
        -0.81076336,
        -7.8031826,
        -8.855672,
        -5.870373,
        -1.8295898,
        6.634287,
        -4.9761147,
        2.3961124,
        8.409344,
        3.0529127,
        -7.011571,
        1.9746056,
        -1.7977705,
        -7.561323,
        -0.9484978,
        -2.7985425,
        7.2684116,
        -0.43334866,
        -6.6354485,
        -7.1247053,
        -9.532514,
        -7.7951765,
        -2.8244562,
        6.295595,
        7.38348,
        5.289997,
        -4.203145,
        2.1657267,
        8.966356,
        0.055194855,
        -2.0509663,
        5.2728148,
        9.801361,
        -0.43348026,
        -8.26266,
        -0.29922676,
        4.3494806,
        -7.253289,
        -9.7388525,
        3.428298,
        5.946233,
        6.888752,
        -7.9303074,
        -2.0569887,
        3.791772,
        3.347701,
        9.593496,
        -2.5011106,
        6.817665,
        2.886795,
        5.0959177,
        4.635702,
        4.270941,
        8.93198,
        6.139244,
        0.78108215,
        6.3383827,
        -4.1074677,
        0.89726067,
        9.538967,
        -4.6863217,
        -0.109788895,
        8.7509,
        -2.9540129,
        -8.399234,
        4.386798,
        -7.979393,
        -6.7743635,
        -4.592573,
        9.548626,
        -0.7327862,
        3.2812557,
        -6.0256596,
        -6.097855,
        1.6748896,
        1.1693153,
        7.316471,
        2.6795998,
        0.041457176,
        9.954725,
        9.796402,
        4.019409,
        -2.4143806,
        2.9273071,
        -0.39888287,
        4.6878967,
        -6.8273277,
        -7.8963537,
        -6.368294,
        5.3318233,
        9.811764,
        -5.0723953,
        1.3700638,
        -0.14548016,
        -6.148326,
        7.5712605,
        -9.525409,
        -9.832599,
        1.4775953,
        2.557269,
        0.7028065,
        -6.3504887,
        5.3284826,
        5.012204,
        8.015562,
        3.6937914,
        5.7501287,
        1.2238922,
        1.6138325,
        -5.737211,
        5.6925097,
        -3.9476008,
        -1.8064327,
        2.662324,
        9.382896,
        0.9187641
      ]
    },
    {
      "index": 3,
      "output": 1.0,
      "input_connections": [
        [
          0,
          -1.8911858
        ],
        [
          1,
          -9.96284
        ],
        [
          2,
          4.35032
        ],
        [
          4,
          -3.3434196
        ],
        [
          5,
          5.463833
        ],
        [
          6,
          2.6044931
        ],
        [
          7,
          -1.5683527
        ]
      ],
      "bias": -3.7829895,
      "self_activation": -7.247181,
      "retina_weights": [
        0.46945,
        -7.5875807,
        -1.8864317,
        2.8680096,
        2.2618809,
        -0.042780876,
        6.3203278,
        -9.778168,
        -1.6680737,
        8.429235,
        -6.932001,
        -2.3798933,
        -5.8695025,
        -1.2742844,
        3.9846935,
        -7.493129,
        3.95893,
        6.3219604,
        -9.741292,
        0.8689556,
        5.1666346,
        6.4957066,
        3.8663683,
        -3.8887615,
        -2.4655333,
        -3.3136125,
        3.0822573,
        4.5149813,
        -6.5294476,
        7.0020676,
        2.7491083,
        -5.863499,
        8.069292,
        7.848921,
        -5.4892964,
        -0.6392355,
        -7.696168,
        -0.4328575,
        1.9169846,
        5.3947277,
        -1.3788166,
        7.058182,
        -9.557114,
        -4.1902347,
        -4.869706,
        1.9842396,
        -9.66613,
        0.05020523,
        9.355579,
        6.454611,
        2.3541937,
        2.181326,
        9.457048,
        -7.0285864,
        -1.4918079,
        7.2072525,
        2.3274078,
        -2.6015468,
        3.5584965,
        4.0305605,
        6.6018143,
        0.87497807,
        -7.0068235,
        -5.9739323,
        -6.9439144,
        3.1611338,
        -6.1073036,
        7.2932186,
        -6.6701555,
        -1.0498228,
        -2.6496263,
        1.1839781,
        -6.4447975,
        9.653645,
        8.204441,
        4.7344074,
        6.3312187,
        4.5290127,
        -9.814763,
        2.6815042,
        3.5484257,
        5.691716,
        4.586478,
        3.59099,
        -6.785774,
        1.5340958,
        7.95096,
        1.5497408,
        7.039274,
        -3.1561346,
        -2.6206322,
