{
  "neurons": [
    {
      "index": 0,
      "output": 1.0,
      "input_connections": [
        [
          1,
          -0.029276721
        ],
        [
          2,
          0.0
        ],
        [
          3,
          0.0
        ],
        [
          4,
          0.0
        ],
        [
          5,
          0.0
        ],
        [
          6,
          0.0
        ],
        [
          7,
          0.0
        ]
      ],
      "bias": 0.0,
      "self_activation": 0.0074044163,
      "retina_weights": [
        0.023483276,
        -1.6269102,
        -2.4678674,
        1.248332,
        4.153718,
        -1.6220875,
        4.5197954,
        -6.140463,
        5.152444,
        -2.9782743,
        6.5511703,
        1.2938223,
        0.4519329,
        -4.9098845,
        8.623308,
        9.794956,
        3.570632,
        8.19157,
        7.1235714,
        1.9499121,
        7.7985134,
        6.4076633,
        -4.615247,
        -9.412596,
        -0.08250618,
        3.665823,
        0.3151312,
        7.3763657,
        -4.334509,
        4.365696,
        -5.2836533,
        -5.8710093,
        -5.0041933,
        -4.720964,
        2.2348366,
        5.095686,
        -3.3314176,
        7.9951305,
        7.968895,
        1.857933,
        -9.010674,
        8.506266,
        -4.659545,
        -5.321848,
        6.303932,
        -9.119339,
        -8.355858,
        -9.371924,
        -9.670255,
        6.6491413,
        -6.06898,
        3.1626787,
        -2.9129572,
        7.934374,
        6.6458817,
        1.0544052,
        -9.064075,
        9.953072,
        1.5459929,
        -9.973514,
        2.639574,
        0.6487503,
        -1.1476822,
        5.2489157,
        -7.085001,
        -5.429177,
        6.4689007,
        3.7962952,
        2.3309956,
        6.808506,
        5.492944,
        3.3726225,
        6.3846245,
        8.506304,
        6.1612625,
        7.999214,
        -7.6344585,
        -1.6965885,
        4.5440855,
        6.6615257,
        3.6096277,
        4.183778,
        -7.953992,
        -0.6523838,
        -8.780317,
        7.5993023,
        4.3950405,
        -5.815422,
        -4.0540595,
        0.32099628,
        5.5800714,
        -1.676919,
        3.5354462,
        4.517728,
        6.8683834,
        -7.345352,
        5.838975,
        9.52157,
        -8.028852,
        -5.71145,
        0.36869144,
        -5.4970975,
        7.062565,
        -0.33089542,
        8.730793,
        -5.899479,
        6.2423534,
        6.8075714,
        -9.684741,
        -6.750142,
        -8.525912,
        -6.398244,
        4.8521175,
        1.9870415,
        -9.0894575,
        -4.535522,
        2.4791346,
        -1.0748615,
        4.253689,
        3.1039991,
        -0.32165432,
        9.140364,
        -1.8414059,
        5.7491055,
        -9.787476,
        -9.744842,
        -7.2290325,
        8.920195,
        5.8706226,
        -4.9248476,
        6.2206383,
        -9.51272,
        -7.5908566,
        -0.8406706,
        -0.6752796,
        4.0570126,
        7.8321323,
        4.202956,
        -3.9405746,
        9.500761,
        -2.732808,
        6.418564,
        3.9152775,
        4.911045,
        -7.393861,
        1.942297,
        -8.975594,
        9.751228,
        -7.499385,
        3.0012693,
        2.6901493,
        -7.7399654,
        9.71521,
        -5.6964703,
        2.8802195,
        3.5396423,
        4.9566164,
        4.857937,
        9.290392,
        4.488283,
        -1.9922276,
        -0.4910345,
        -4.037816,
        -9.002759,
        -6.455495,
        -4.543013,
        -8.747389,
        -9.45707,
        5.0634565,
        3.8297758,
        -8.703403,
        6.5591164,
        2.4305,
        -0.85150146,
        2.4214497,
        -9.572856,
        7.098009,
        -0.46433163,
        -8.113315,
        -2.9154844,
        2.2285643,
        2.7926102,
        5.312728,
        7.901026,
        0.15805626,
        3.351306,
        1.6602669,
        -4.860794,
        -8.497915,
        6.288744,
        7.946762,
        6.7784157,
        -6.1826773,
        6.392927,
        5.9204645,
        4.5887384,
        -3.4084148,
        0.6889572,
        5.4195423,
        9.087154,
        4.084326,
        6.7925415,
        -1.6054077,
        0.69172,
        -9.74611,
        -2.2935953,
        -1.1411638,
        -9.83686,
        -0.040682793,
        -1.5466537,
        6.456608,
        -9.0673685,
        -7.2827644,
        9.007763,
        4.8006954,
        5.4069395,
        -3.9031024,
        -4.3349643,
        8.04871,
        2.3131523,
        9.824966,
        -2.0558085,
        5.948681,
        -7.979352,
        -5.2610703,
        -5.430407,
        -0.61019135,
        2.7956,
        2.0239725,
        9.704565,
        0.8345661,
        -9.724366,
        1.5039673,
        -0.7288399,
        -1.5048571,
        -9.548914,
        2.2992334,
        2.8366003,
        2.5332508,
        -0.515501,
        -1.5561619,
        -0.04666996,
        7.039953,
        -5.001158,
        7.3138657,
        -4.5901556,
        -8.374793,
        1.3900528,
        4.465288,
        -2.9165072,
        2.8654184,
        5.5580587,
        -9.49523,
        2.9839,
        -8.798739,
        2.3658075,
        4.7514257,
        -9.057198,
        -0.06369305,
        -7.8070164,
        -3.0894132,
        -5.3732295,
        -3.3321853,
        -3.1609602,
        1.1802044,
        -0.04254532,
        -0.65294456,
        -2.4828997,
        -9.18746,
        0.008727074,
        3.8241186,
        -3.6959095,
        -3.0976171,
        7.639776,
        8.246149,
        4.831499,
        -2.646782,
        9.175894,
        6.064163,
        -5.6088824,
        -4.6691604,
        -3.543913,
        8.5796585,
        4.1216097,
        -8.801718,
        1.4535561,
        8.132687,
        0.51654434,
        -4.6793075,
        4.9977264,
        -1.9974775,
        1.5940056,
        -8.545065,
        -7.552457,
        -6.4817257,
        -6.333947,
        5.7647457,
        -2.16854,
        9.131939,
        0.2149477,
        1.4301405,
        -4.8059173,
        2.4979916,
        -6.657181,
        0.6675949,
        -7.598178,
        -1.3958902,
        1.3510027,
        -9.6835375,
        4.369978,
        -6.9524956,
        1.6786613,
        6.229862,
        1.0518751,
        5.0546064,
        0.868701,
        -1.6539135,
        2.4583664,
        -3.8218684,
        2.3629847,
        6.8656197,
        -7.9203463,
        4.349614,
        7.4352303,
        -7.6478386,
        5.1204653,
        7.9683895,
        4.51476,
        -8.594257,
        -9.3715925,
        -5.323052,
        -2.7889724,
        1.7310705,
        -4.0680547,
        5.219795,
        -4.5677824,
        -8.068752,
        4.356245,
        6.400646,
        7.802248,
        8.890516,
        9.896318,
        -7.349121,
        5.366911,
        -0.56485367,
        -1.0366096,
        -9.580169,
        -1.9906702,
        3.5583506,
        1.3527575,
        -0.0060834885,
        -0.8240404,
        -8.4538765,
        6.021082,
        9.215179,
        -2.428595,
        -4.7672195,
        -0.23529434,
        9.344616,
        -9.193894,
        -8.852315,
        1.1487064,
        3.1917868,
        -1.5813532,
        2.9301205,
        -3.2157488,
        4.5333395,
        2.2350063,
        0.36381626,
        8.46945,
        -4.71554,
        -0.26934528,
        2.6730099,
        -3.349337,
        7.2892246,
        1.5997353,
        -6.835677,
        9.492674,
        0.8482065,
        8.644011,
        6.473795,
        0.47395325,
        -0.7683649,
        7.5607796,
        -4.055204,
        7.1357765,
        1.0195436,
        9.315353,
        4.141387,
        -1.4641085,
        7.593647,
        6.0842705,
        1.4469328,
        -3.6955924,
        -7.2617817,
        4.9564114,
        9.378523,
        3.8050566,
        -8.733892,
        -4.627616,
        0.09003258,
        -3.7183018,
        -4.3001623,
        -9.911997,
        9.967928,
        -6.5750504,
        5.674245,
        1.2982931,
        2.6801386,
        -6.8671913,
        -0.60737514,
        0.8797035,
        2.2983875,
        7.8916416,
        -9.634743,
        2.7226553,
        -7.487874,
        -3.2947822,
        6.6115055,
        -1.9047375,
        0.93957996,
        -8.406393,
        6.3664627,
        -0.97993565,
        -6.9774837,
        7.4585857,
        3.9987192,
        -5.2792807,
        -9.003363,
        2.3143997,
        -6.40728,
        -6.224143,
        -6.973054,
        3.406948,
        4.049262,
        3.1263266,
        -9.981561,
        8.026928,
        6.09239,
        -4.9262424,
        0.71443176,
        -0.60521317,
        0.34856224,
        6.6877995,
        -7.2262383,
        3.2162085,
        -8.28674,
        5.788457,
        6.911396,
        5.323185,
        -3.4206123,
        -9.372599,
        2.1980658,
        -0.6243057,
        6.7067432,
        -3.9153023,
        -5.4489775,
        -3.9832778,
        6.512825,
        0.025218964,
        -4.087028,
        2.488986,
        2.570282,
        -0.040315628,
        2.87352,
        -3.9831872,
        -3.5727067,
        2.8071394,
        2.3371115,
        9.943682,
        1.8142262,
        -2.802009,
        4.677309,
        5.143551,
        3.3158722,
        -8.098356,
        -4.085309,
        -9.667559,
        9.127192,
        -5.8892245,
        9.366447,
        -2.1762528,
        -0.64778996,
        7.147547,
        5.943248,
        -0.80881023,
        -3.0043669,
        -7.3385477,
        8.012539,
        5.171239,
        8.992552,
        7.51453,
        -8.422179,
        3.8729534,
        -2.0763292,
        -4.9434824,
        6.857626,
        -0.93029404,
        9.62582,
        2.5775394,
        -4.821684,
        -9.704024,
        4.628109,
        3.7859716,
        -2.3584976,
        0.43418312,
        -9.356198,
        8.895916,
        0.25291348,
        2.3058643,
        -7.627446,
        -8.938804,
        -9.985385,
        4.32345,
        -4.82187,
        1.5330687,
        3.7433805,
        2.1341457,
        2.3022642,
        -1.1666317,
        -6.2287874,
        3.3487377,
        1.6046629,
        -3.2506366,
        8.249573,
        9.300205,
        -6.1202474,
        -5.364327,
        -4.556343,
        -0.8506813,
        4.197727,
        -8.014231,
        0.3119192,
        8.667208,
        -5.280165,
        -6.015851,
        7.8291054,
        -8.625266,
        9.825527,
        -3.6963315,
        -1.1674681,
        0.30214405,
        -3.5289664,
        -7.1614523,
        2.586976,
        5.3104296,
        3.71519,
        -5.979707,
        2.7504244,
        -8.046756,
        8.402742,
        1.763505,
        2.893859,
        -8.065395,
        -8.415243,
        1.9275818,
        -2.348527,
        6.2114716,
        1.9214239,
        -5.8203,
        -8.438231,
        2.4347506,
        -1.3108482,
        -7.6513643,
        -0.75718784,
        -8.808069,
        6.248331,
        3.6316862,
        4.0788565,
        1.8133965,
        4.808201,
        -2.1415844,
        -1.9032612,
        -0.025636673,
        8.104755,
        9.211124,
        9.174185,
        8.746769,
        -9.954362,
        -6.7638874,
        9.046713,
        1.9613829,
        -4.915139,
        5.2929516,
        4.5167103,
        1.7365923,
        -5.4064984,
        -9.368698,
        -5.135462,
        4.1581717,
        1.6531363,
        -4.3273563,
        2.6047697,
        7.637163,
        -2.1793594,
        8.183723,
        3.9564714,
        -0.07970524,
        -1.0838003,
        -0.49760246,
        4.493989,
        -5.2156324,
        8.271395,
        2.7518024,
        -3.2788105,
        -4.882583,
        3.1638155,
        3.0854359,
        -6.197924,
        0.92540646,
        7.838415,
        -1.0348358,
        1.9403992,
        1.0004482,
        4.8308506,
        7.5940456,
        4.859499,
        9.778082,
        -4.1816087,
        6.5898247,
        9.826054,
        -6.3043995,
        -2.8344293,
        -0.9207573,
        -8.669178,
        3.6122952,
        2.8411093,
        7.304268,
        -8.571014,
        4.135271,
        8.040806,
        -8.84761,
        4.436823,
        8.310715,
        4.6677914,
        -6.6796875,
        -6.735325,
        7.9887047,
        7.4619026,
        -2.4602427,
        -2.1573176,
        -2.1701946,
        -0.53613853,
        -8.648677,
        6.693363,
        -0.11320305,
        6.1642113,
        4.2414894,
        -7.531149,
        5.6920214,
        -4.1095824,
        4.9134455,
        -0.0822773,
        -5.2125163,
        6.424204,
        -8.780643,
        -5.0137205,
        7.47534,
        0.3949175,
        7.4040546,
        4.0010986,
        4.799224,
        -0.52710724,
        7.8054543,
        -4.917762,
        -5.22212,
        -4.9273987,
        1.7038641,
        5.8187,
        -7.126322,
        9.118967,
        3.9490042,
        -5.798759,
        7.8626003,
        8.837215,
        2.5690327,
        -5.7069297,
        -0.44895363,
        1.2850227,
        8.029591,
        4.794818,
        9.231068,
        -1.7359581,
        2.0369854,
        3.9323225,
        -3.4091158,
        4.497467,
        2.2383938,
        7.6011276,
        -2.9721684,
        2.8024015,
        -9.393578,
        3.4356012,
        5.655963,
        -4.7348423,
        -7.2660847,
        -8.577449,
        7.1477375,
        -9.698749,
        -8.298966,
        8.612692,
        -8.340988,
        3.5116634,
        -4.7036858,
        2.1865902,
        -3.8135452,
        -5.001282,
        -5.5432267,
        -0.61543655,
        -0.9944,
        8.820232,
        5.5814524,
        -1.2504425,
        -7.118084,
        -8.903734,
        7.031822,
        -8.7427,
        -8.070099,
        -9.3077965,
        6.8162766,
        3.10069,
        4.3069563,
        -5.624892,
        0.29203033,
        9.565853,
        -2.5656338,
        -9.499407,
        -0.4560156,
        3.7889633,
        8.040049,
        -9.976468,
        -7.909915,
        6.3137665,
        3.0981913,
        1.6625443,
        -8.781096,
        -1.5422239,
        5.778715,
        2.0385513,
        3.1449423,
        -1.5126076,
        -3.9690108,
        7.643471,
        3.3395138,
        5.748374,
        0.95272636,
        8.988228,
        -8.103463,
        -3.656475,
        8.542551,
        0.294322,
        5.662472,
        -4.9430914,
        4.285578,
        6.511301,
        -9.553361,
        -8.464639,
        8.394127,
        -8.414307,
        -9.90922,
        -1.5524645,
        5.6389465,
        4.625162,
        3.5174742,
        -3.819346,
        -7.676427,
        8.360607,
        -7.9301805,
        -9.033415,
        5.250017,
        -1.129755,
        -4.7745605,
        -5.748145,
        6.59676,
        9.83659,
        9.659683,
        -5.3784723,
        7.0877666,
        6.846586,
        -0.29864502,
        -4.128072,
        0.045298576,
        5.024597,
        4.2200747,
        4.5513525,
        1.4449205,
        3.8907967,
        7.495203,
        3.1983318,
        5.8510056,
        -1.8231888,
        0.8077278,
        0.38111115,
        -1.9753304,
        -8.984199,
        -2.6012726,
        -3.5264916,
        6.130678,
        -8.465352,
        -6.4017076,
        6.7879906,
        1.7667732,
        6.145582,
        1.0209141,
        -0.91685677,
        -7.901947,
        -7.568924,
        1.0644159,
        -3.869688,
        -0.9375658,
        -2.8704376,
        -3.6565442,
        -4.642226,
        -4.783122,
        5.1452036,
        -8.300058,
        -7.8222914,
        1.041831,
        -8.6413355,
        -2.614071,
        4.166602,
        5.851268,
        6.0888863,
        9.679762,
        -1.6141863,
        7.0766315,
        2.8881035,
        -7.3909616,
        -7.77431,
        -5.9525867,
        -3.6384983,
        9.153334,
        -5.9527655,
        -4.999685,
        -8.323655,
        2.5153294,
        -0.41639042,
        8.991003,
        8.664686,
        9.304466,
        -2.5184197,
        2.4758472,
        -2.584538,
        9.664606,
        -1.2928524,
        7.3156605,
        -7.4569387,
        6.786606,
        5.594777,
        -2.0404568,
        5.526675,
        5.0153103,
        6.69841,
        5.2435656,
        5.8246346,
        -2.9837866,
        8.92033,
        1.3374863,
        -0.66975784,
        4.717516,
        -9.202771,
        -3.666503,
        -7.52306,
        5.6437483,
        4.8661795,
        -6.93522,
        4.3335114,
        -0.48771095,
        -0.6157341,
        0.2095232,
        6.1232567,
        3.564848,
        -2.9775925,
        7.6803417,
        8.926449,
        -5.195257,
        -7.2812843,
        5.6162777,
        6.5232677,
        -4.1577096,
        0.0074157715,
        -4.798946,
        -1.7549219,
        -3.373489,
        0.022603035,
        -0.36919022,
        0.49673462,
        -1.3918419,
        5.993864,
        4.608513,
        7.066921,
        7.78335,
        -3.8666077,
        -1.7626991,
        9.613953,
        4.9556074,
        -6.7246933,
        2.65483,
        3.072709,
        -5.132062,
        -3.20121,
        7.247843,
        -0.8433695,
        -2.3529496,
        5.778593,
        -9.959836,
        -5.071468,
        2.8926554,
        -3.9409752,
        -2.86087,
        -7.2167826,
        -7.1238585,
        7.36417,
        8.426447,
        -1.4086475,
        -7.149975,
        9.088774,
        -7.039585,
        -8.480069,
        -4.665527,
        -1.6907492,
        4.1454515,
        -5.4163165,
        4.2337904,
        0.026530266,
        -8.559787,
        3.9427652,
        5.1334515,
        7.1292515,
        -1.812355,
        -4.676263,
        -6.411853,
        1.2760792,
        6.126045,
        8.428768,
        6.745636,
        -6.9533587,
        9.956409,
        -9.105956,
        -2.4018993,
        -6.9571877,
        6.9190044,
        8.242098,
        -6.785779,
        -3.4334106,
        -3.3650036,
        3.7188234,
        7.622114,
        7.19771,
        8.699856,
        6.8730793,
        -9.590349,
        -1.9682302,
        -8.847723,
        6.5686665,
        6.2152863,
        -1.5110435,
        -1.2687559,
        -7.3353624,
        -8.738856,
        -7.8763456,
        -4.4029303,
        6.4261913,
        8.358128,
        1.6483841,
        4.7015676,
        6.638981,
        -6.2966204,
        9.028549,
        -9.51612,
        -9.869568,
        -8.504472,
        7.3239803,
        1.2054834,
        5.855386,
        -7.2923536,
        -9.46655,
        -4.235441,
        2.7578793,
        0.061348915,
        -8.632628,
        6.4753437,
        2.0871964,
        3.3854303,
        -0.18920326,
        -7.56973,
        7.0717735,
        0.043229103,
        1.8175707,
        3.7134085,
        -5.5798836,
        -8.158288,
        7.1540775,
        7.3483086,
        1.808053,
        -9.490544,
        -5.8105035,
        -1.4165611,
        8.134785,
        9.1208935,
        9.002647,
        1.7453775,
        7.5178432,
        -1.2940521,
        6.0202847,
        -5.7784147,
        -7.6841803,
        4.3745527,
        8.309786,
        -4.86885,
        -0.16392422,
        0.22896862,
        1.5478144,
        1.0989246,
        3.2585917,
        -7.698366,
        7.0979443,
        -2.198104,
        9.177456,
        2.6650753,
        9.534746,
        -3.5585947,
        3.327588,
        -4.0145416,
        5.0701303,
        -7.162587,
        -1.9094105,
        -9.519536,
        0.65618896,
        -2.706675,
        -3.4286852,
        4.3671856,
        -8.070669,
        0.41434383,
        2.9606857,
        8.487112,
        3.8356342,
        5.8074064,
        -9.617643,
        -8.58851,
        0.20855808,
        9.543287,
        7.147442,
        9.673424,
        1.351551,
        -2.3133316,
        -2.1018186,
        0.6094303,
        1.163434,
        -2.996592,
        -8.369722,
        -6.6381426,
        -4.291422,
        4.4062147,
        -5.501067,
        3.7383928,
        6.0390396,
        -8.467326,
        -3.9357872,
        0.10450935,
        -4.238016,
        1.4441338,
        -1.3243427,
        0.85064316,
        7.038803,
        8.722216,
        -1.3777294,
        -7.0026016,
        -1.1722631,
        5.623454,
        4.550048,
        -5.58346,
        6.1020412,
        -1.0285778,
        -7.9209347,
        1.2361565,
        -4.420521,
        5.079705,
        -6.422941,
        -0.87366295,
        -0.8878012,
        -4.767675,
        -8.700728,
        7.3294163,
        -2.022635,
        3.0304422,
        -9.044535,
        -1.6258831,
        -5.333993,
        -1.4076633,
        -0.04927063,
        4.454733,
        -8.75782,
        -1.542079,
        2.2092857,
        9.961353,
        -4.2974324,
        -2.9613085,
        -4.660258,
        -7.604203,
        -2.5081558,
        1.8235312,
        9.922163,
        6.484415,
        1.6478548,
        6.7726192,
        -6.689493,
        -3.5125036,
        8.025648,
        0.14265919,
        -4.787683,
        2.1434555,
        -8.656807,
        2.9971132,
        8.385918,
        -2.096385,
        4.22001,
        -0.3424425,
        -9.189012,
        -6.7367125,
        -0.037807465,
        4.048668,
        -2.387289,
        -3.6665459,
        2.6275883,
        0.5446873,
        -3.2963462,
        9.974756,
        -8.146892,
        4.0854845,
        -7.4130507,
        2.907733,
        2.8821507,
        -0.6972971,
        7.382452,
        -4.5923777,
        4.198841,
        -7.333021,
        -0.8579912,
        3.3425817,
        4.7919617,
        -1.8527975,
        -9.681432,
        8.704405,
        5.4003944,
        -6.736641,
        8.533079,
        -8.211724,
        -2.140552,
        9.879967,
        7.3899136,
        9.9748535,
        0.4195919,
        -5.93744,
        -7.210531,
        3.1305065,
        -2.300395,
        3.6187325,
        9.645735,
        8.573786,
        0.9183016,
        -5.4993625,
        -7.110388,
        2.7961454,
        4.0222397,
        -5.112273,
        2.5438795,
        -0.5504627,
        1.0860739,
        1.0979118,
        -2.577755,
        -7.8446913,
        8.778244,
        -9.977333,
        6.9632626,
        -0.82532597,
        2.6187792,
        -3.6635156,
        4.1844807,
        0.31989002,
        9.19911,
        -7.76762,
        4.4192038,
        -0.26787472,
        4.6596518,
        8.774109,
        -0.74530315,
        -4.4823785,
        -9.735004,
        1.7985001,
        3.1673946,
        2.5210104,
        -7.9856873,
        -5.6298323,
        7.8583565,
        -9.285622,
        7.8469296,
        -4.732384,
        -5.942039,
        3.718814,
        9.643002,
        -3.7130709,
        9.726433,
        -5.9746785,
        -0.54152393,
        9.741001,
        -6.7883587,
        -0.20903015,
        4.8438272,
        -5.277447,
        -3.118679,
        -0.98905754,
        5.280246,
        -8.710925,
        -0.683836,
        -3.4959335,
        -7.7533054,
        -5.4663105,
        6.8819427,
        -1.5701838,
        8.291994,
        0.6162081,
        -5.390603,
        0.94547176,
        6.3319263,
        -4.7274942,
        5.4601088,
        -0.9688158,
        3.251728,
        -5.59684,
        -1.7297621,
        1.9088707,
        -0.73014927,
        -7.8214283,
        3.7880669,
        1.5742264,
        -6.9223375,
        -8.56178,
        1.0057554,
        3.6474457,
        1.8361464,
        6.083788,
        0.6518469,
        2.4674807,
        -3.133976,
        6.011366,
        -2.3069587,
        -0.8581085,
        4.4522085,
        1.6499672,
        0.5740299,
        6.7861595,
        -3.7799711,
        9.942875,
        -1.7557926,
        -1.4987106,
        7.7290306,
        -4.5853896,
        1.3941011,
        -1.9541521,
        9.32774,
        3.315796,
        8.861582,
        9.030367,
        6.1277866,
        4.536804,
        4.438897,
        9.7924,
        -7.0943785,
        -3.330688,
        2.7009,
        3.500558,
        -8.694241,
        -8.464861,
        0.55320835,
        3.8262644,
        -3.0241914,
        -9.517407,
        0.80813026,
        5.700802,
        0.59710884,
        -6.6664934,
        -7.6679993,
        7.1196194,
        -9.149594,
        -4.236178,
        4.356571,
        5.924279,
        3.277668,
        -4.6905465,
        -5.1188583,
        -9.192717,
        -2.7647157,
        -2.4118009,
        5.683998,
        -2.6555033,
        -2.3454132,
        1.951705,
        -0.6267519,
        -4.284322,
        1.7040596,
        -3.4703536,
        6.830065,
        -8.077633,
        -3.1405635,
        -3.2077737,
        -4.111397,
        -4.5400496,
        -1.211256,
        -3.6770148,
        -3.5860963,
        -8.451409,
        7.514906,
        -7.9824543,
        2.508193,
        1.9554605,
        -9.866688,
        -7.387886,
        -6.5283203,
        -4.2743964,
        9.3523445,
        4.661313,
        5.059597,
        -8.53358,
        9.923088,
        7.1993637,
        -1.5957804,
        8.403688,
        6.3178253,
        -7.178097,
        6.3637753,
        9.90724,
        -5.8396907,
        4.786824,
        -4.1313834,
        8.727581,
        5.4550543,
        0.15279865,
        4.969701,
        -5.9126873,
        6.414562,
        -1.0062971,
        7.6094074,
        -0.6692953,
        -0.855402,
        9.95393,
        -8.263631,
        -3.8495893,
        4.575206,
        -1.0813608,
        -0.41601372,
        9.401514,
        -8.390409,
        -6.804781,
        8.274721,
        -3.839788,
        -9.897542,
        -4.0475626,
        0.08411503,
        8.2388115,
        -5.816545,
        -7.405081,
        -5.9798164,
        -5.2158995,
        2.6983776,
        1.4167509,
        2.1526804,
        5.147294,
        -9.961345,
        -9.501001,
        -3.1558676,
        7.406742,
        -8.716728,
        0.45116806,
        -1.5739288,
        -4.479956,
        9.993395,
        -5.3155584,
        3.8859215,
        -0.032133102,
        -9.197161,
        9.330801,
        -2.4943676,
        -5.1563354,
        -9.06518,
        0.74170685,
        5.2006235,
        -7.6888533,
        2.4002562,
        5.4460278,
        4.1628923,
        -7.1976137,
        -2.6123137,
        -6.74562,
        -1.7325659,
        8.788544,
        8.426479,
        -4.387767,
        2.509571,
        -1.1357994,
        0.17965412,
        -4.855556,
        -7.35013,
        -2.4461331,
        -7.58558,
        -7.908947,
        -5.3805013,
        0.089860916,
        0.43988323,
        -1.7606487,
        2.3447218,
        -9.060421,
        9.353819,
        6.7844524,
        9.688799,
        9.376339,
        -5.96399,
        -0.7541647,
        9.183657,
        2.8561888,
        -7.951433,
        -2.7510972,
        -2.496976,
        -3.4685774,
        9.569017,
        -4.8375864,
        -9.69944,
        -8.78793,
        7.055361,
        3.6161337,
        5.3164167,
        7.249733,
        6.0918274,
        -1.1149998,
        2.4391088,
        -6.184842,
        -2.3111334,
        -3.1905813,
        0.19097233,
        -1.4459105,
        -2.5325341,
        2.808322,
        4.7570715,
        -4.3457623,
        -2.9623742,
        -0.77981377,
        -2.2725358,
        0.4451475,
        1.1446581,
        3.7528362,
        8.712639,
        9.686071,
        1.1139402,
        -1.787116,
        1.1966524,
        -2.7190561,
        6.381048,
        3.933939,
        -2.7359457,
        -4.616546,
        5.8319845,
        -9.418774,
        -6.18031,
        -0.6855459,
        -2.09443,
        -5.4845877,
        9.822832,
        4.2152653,
        7.4375057,
        -9.9457,
        7.799673,
        9.974318,
        8.187933,
        9.973757,
        6.1941338,
        -3.552081,
        9.95376,
        -8.774686,
        -5.253224,
        -3.1441517,
        -3.4978814,
        -4.652979,
        -5.061619,
        7.2004375,
        -3.2083697,
        6.6847515,
        9.340054,
        -7.53098,
        6.9554195,
        4.2974815,
        2.558175,
        4.548296,
        5.767664,
        -0.479743,
        -5.7609696,
        4.989806,
        5.0043983,
        2.138873,
        6.730343,
        -3.1944628,
        -7.830024,
        -2.8582044,
        -2.2484221,
        4.0109053,
        1.3266649,
        -8.459503,
        9.155565,
        2.229,
        -4.441654,
        9.888262,
        3.8111982,
        -4.82923,
        -2.8370113,
        -5.1395936,
        -1.0142984,
        -8.971831,
        -8.807804,
        4.735285,
        -8.222322,
        8.996553,
        -9.222943,
        6.2130127,
        -1.8709793,
        -8.062212,
        4.4190683,
        1.6833076,
        2.8767576,
        -5.733506,
        0.7787857,
        -2.564034,
        2.5325146,
        -9.626989,
        -5.3355165,
        2.484068,
        5.37173,
        1.226264,
        -0.062610626,
        -5.800602,
        -0.37607384,
        -6.017918,
        -9.434311,
        -8.923941,
        7.988796,
        -8.038938,
        -2.9722614,
        -2.9785032,
        5.349144,
        2.195324,
        -4.9500628,
        -1.5545549,
        6.3488827,
        -8.382859,
        -8.171079,
        -3.1243558,
        -9.465122,
        -4.0711946,
        -5.5063457,
        7.7537346,
        3.0847635,
        0.2931633,
        -9.475608,
        2.9223957,
        -1.7053785,
        4.7141542,
        8.823071,
        7.3899403,
        2.6568403,
        5.0096025,
        9.887482,
        2.1340837,
        -0.41158104,
        1.1358128,
        9.333334,
        4.7871675,
        4.8873672,
        3.8436975,
        6.8937607,
        -8.954818,
        -8.68372,
        3.117155,
        -7.392297,
        2.678133,
        7.9073925,
        -1.5470333,
        2.7765522,
        -6.946184,
        2.6203594,
        2.4421892,
        8.13932,
        -2.2376194,
        -2.2330418,
        -3.3287854,
        3.1289997,
        0.8754196,
        -5.960898,
        7.474272,
        -9.324948,
        -3.2249517,
        6.6084976,
        0.24167633,
        -3.0433888,
        -8.640952,
        4.67383,
        -2.3339524,
        5.973465,
        -7.1804047,
        4.298791,
        -0.21562958,
        7.250681,
        -5.4857106,
        -6.288495,
        0.18431282,
        -9.375925,
        -1.9746675,
        -6.7934866,
        -0.895504,
        -0.27803802,
        8.140062,
        -4.8907895,
        7.1764717,
        0.6704674,
        -4.287445,
        -3.1904812,
        2.104496,
        -7.75383,
        3.051525,
        0.9744129,
        -8.996835,
        4.593624,
        5.0740185,
        8.607754,
        -2.4390354,
        -5.7970543,
        -3.4689755,
        8.432716,
        8.341049,
        -5.8483524,
        0.13561821,
        -4.193637,
        5.4747953,
        -0.78664684,
        4.436141,
        -0.6012888,
        2.0990314,
        5.241894,
        8.993135,
        0.23608112,
        7.08589,
        -1.6910572,
        4.137248,
        -9.801211,
        -8.381407,
        5.888871,
        9.529081,
        9.60416,
        -8.265621,
        -9.657969,
        3.9605722,
        -6.440565,
        8.53986,
        6.9906273,
        2.5421944,
        -5.6892605,
        1.3457832,
        -7.2091885,
        -1.9316425,
        -2.6275964,
        3.090886,
        1.3702307,
        -3.8087196,
        -9.322338,
        -4.7016473,
        2.6663008,
        -6.8981285,
        -6.927805,
        5.921938,
        2.0149956,
        7.512125,
        9.995123,
        -7.182452,
        -9.525473,
        5.0701466,
        -5.394017,
        -4.166519,
        -2.0518866,
        9.730225,
        -1.7806377,
        0.6597223,
        0.28831577,
        6.11775,
        -1.473486,
        -7.004654,
        2.0739565,
        -5.2664514,
        0.4219284,
        -2.7349038,
        -6.194753,
        -8.544347,
        -8.910775,
        2.4142418,
        9.299561,
        1.9796839,
        -6.0891814,
        -3.7207623,
        9.953035,
        -6.277191,
        4.065586,
        -0.106422424,
        7.513729,
        -9.646096,
        6.6956635,
        -7.15924,
        -0.6557598,
        8.271227,
        -9.185901,
        9.042746,
        8.504326,
        -7.887845,
        -7.7960415,
        -6.6668367,
        9.858526,
        7.762312,
        4.420491,
        3.9440622,
        8.685822,
        7.3629684,
        -0.10593319,
        -8.162548,
        0.24925327,
        3.4920826,
        -3.5198827,
        -6.792452,
        -9.90411,
        7.2246685,
        -4.914293,
        1.6776123,
        -4.12518,
        -3.8366241,
        -0.91341686,
        6.5915585,
        -7.519307,
        7.8567085,
        -3.1694717,
        3.646222,
        -5.6828065,
        -3.3915086,
        -1.8863125,
        4.5561943,
        3.828391,
        6.3781796,
        3.948182,
        9.128199,
        -8.310234,
        -8.304178,
        -7.7963066,
        -8.202378,
        2.4912891,
        5.6008835,
        4.790407,
        1.5593777,
        2.2175303,
        -1.2088671,
        0.09394264,
        -4.2509265,
        -2.8799434,
        -3.8975496,
        4.852742,
        -0.0432415,
        -2.796008,
        7.748102,
        7.8329105,
        7.645336,
        2.5591097,
        -1.7333212,
        -0.9069052,
        -1.2678661,
        4.224471,
        7.581335,
        -4.4572825,
        -2.891316,
        -1.1421652,
        -7.6205225,
        -3.876645,
        7.2993374,
        6.6934795,
        -5.999002,
        -2.7653832,
        2.7400885,
        -1.7426577,
        -5.1769896,
        -8.860714,
        -3.9046235,
        2.3189125,
        -6.617672,
        0.048252106,
        -6.860571,
        7.975725,
        -1.6995039,
        5.8069105,
        -0.99991226,
        5.962023,
        1.9464741,
        7.3493786,
        -3.5037727,
        -1.2285776,
        4.782099,
        3.3851519,
        -9.577498,
        -7.9845066,
        6.2838764,
        -6.279785,
        -5.06412,
        -3.1719418,
        -4.386279,
        2.7358856,
        -5.584008,
        1.7463312,
        8.005701,
        -3.5578055,
        -1.4499922,
        0.98604107,
        -9.260993,
        6.485979,
        -4.878201,
        2.6112041,
        -9.007645,
        -9.694223,
        -2.8242846,
        -1.4156027,
        -4.4081707,
        8.975756,
        -9.368181,
        2.5022163,
        -7.743964,
        -4.956362,
        -8.226824,
        -0.1688137,
        2.4372063,
        -1.6604176,
        -3.1229515,
        1.7089043,
        -3.2909412,
        1.5536394,
        -9.120295,
        5.644702,
        -7.593465,
        -8.97824,
        -1.4654417,
        -7.009063,
        -4.54632,
        -3.3341928,
        -8.105001,
        -0.026582718,
        0.3951893,
        -4.38657,
        -6.323571,
        -8.458314,
        6.9978046,
        0.54330254,
        8.180004,
        9.178566,
        -7.2872896,
        -2.1028748,
        -4.0856714,
        -0.68102264,
        7.00968,
        2.0077648,
        -8.001544,
        -2.4719515,
        -0.16589546,
        9.852062,
        0.19620323,
        4.679164,
        -0.2615776,
        3.8514128,
        7.9408703,
        7.6202297,
        -8.229647,
        -4.357025,
        6.298954,
        4.7439184,
        -1.9400492,
        9.954493,
        -0.9890814,
        1.0541306,
        -6.802532,
        0.83209896,
        -6.7442293,
        -3.9196105,
        -8.794913,
        -4.803836,
        -4.0100164,
        4.978343,
        -6.101372,
        -3.4130926,
        5.5936785,
        6.0766373,
        9.129339,
        3.279251,
        -6.784811,
        -2.8055067,
        4.7526464,
        -0.13699245,
        8.207289,
        2.6050367,
        -4.369342,
        8.787285,
        1.5503464,
        3.5576878,
        -6.753292,
        -3.5237355,
        1.7210236,
        -6.448762,
        -1.5241499,
        -3.7934966,
        4.3820963,
        -3.556108,
        7.689869,
        -4.6236486,
        6.5722485,
        5.6167,
        4.4958982,
        3.595749,
        -4.439358,
        8.644211,
        4.412593,
        -3.8979406,
        -4.374375,
        3.1573954,
        -3.7321587,
        6.901516,
        -6.095924,
        -7.517929,
        8.85128,
        3.2565346,
        8.598686,
        5.9955187,
        -2.807252,
        8.957018,
        9.989115,
        9.864754,
        -0.19595528,
        -9.369931,
        -0.16903591,
        6.070549,
        -2.402884,
        -5.760619,
        -8.909828,
        -9.625549,
        -8.677731,
        6.9949493,
        -9.529159,
        -6.773739,
        7.5719547,
        0.7359896,
        -5.726685,
        5.8590574,
        2.96743,
        -4.6628947,
        0.6807003,
        -7.2896547,
        -3.5290427,
        -3.292963,
        0.032945633,
        -9.0934515,
        8.841948,
        -1.7173758,
        -4.6023197,
        -6.127431,
        -8.145852,
        -9.600797,
        -1.3719549,
        -7.202406,
        -1.7976847,
        -9.629374,
        -0.287611,
        -0.40247822,
        -9.896576,
        -0.92201424,
        -7.4689217,
        -6.287505,
        -1.1803694,
        -5.2699466,
        8.962946,
        -4.748742,
        5.0687065,
        3.3054056,
        -9.665501,
        1.4847221,
        -3.493287,
        7.8372097,
        -0.56877995,
        4.8574915,
        -8.613865,
        -5.9800215,
        5.9997053,
        -7.269561,
        -9.504888,
        -8.021841,
        -1.822073,
        -3.8609452,
        2.7424564,
        -2.4921408,
        0.546545,
        -0.77382755,
        -5.2752085,
        -6.5114517,
        -3.1143374,
        -1.374239,
        -5.3490276,
        -3.4676428,
        0.012310982,
        9.480671,
        9.763613,
        5.977461,
        -4.1511817,
        6.9034786,
        -8.4892435,
        -6.6341305,
        -8.9402075,
        5.997655,
        3.0094538,
        5.041315,
        8.563456,
        -6.171176,
        5.6128235,
        2.2404156,
        2.6158562,
        2.1245375,
        2.9152098,
        -1.7603006,
        0.3256426,
        -3.7536688,
        2.5563564,
        -6.6087246,
        -3.994257,
        8.166275,
        8.038458,
        -8.641615,
        6.1523647,
        -0.20455742,
        -4.3723364,
        -8.696849,
        -7.1670218,
        -7.991025,
        1.8957176,
        9.895777,
        8.342766,
        -0.10471058,
        5.057892,
        -5.995044,
        3.2197466,
        0.6305609,
        9.609131,
        7.3725758,
        -9.7667885,
        9.0154705,
        -6.458599,
        -6.582529,
        5.171894,
        6.403433,
        -2.1587982,
        8.803898,
        -2.2199574,
        5.005721,
        -4.215624,
        3.22956,
        4.8042307,
        5.6980743,
        -7.929694,
        -7.0323753,
        6.489916,
        2.5471344,
        -9.179446,
        -2.5208564,
        -1.0808268,
        -8.130155,
        4.1216984,
        0.2492466,
        -6.7589903,
        8.598776,
        -7.0923967,
        -9.403398,
        -0.2692976,
        4.9914255,
        2.9733267,
        9.609055,
        6.589613,
        -9.057045,
        8.128695,
        -6.7125196,
        -4.3234844,
        -7.2881174,
        1.106576,
        7.9103622,
        -8.940708,
        2.2178497,
        8.774595,
        5.38634,
        -9.504623,
        2.0304384,
        -4.8131866,
        0.53570175,
        7.710638,
        -5.7189364,
        8.345694,
        9.370462,
        2.359501,
        -3.8062663,
        -1.9333429,
        -2.5096555,
        4.3094883,
        -3.0828137,
        -4.934525,
        -6.9434834,
        8.828091,
        1.8350706,
        -4.696116,
        1.5104332,
        1.7433014,
        -2.0028224,
        -9.602599,
        -4.0614004,
        -9.61795,
        -0.2537794,
        -8.274879,
        1.692647,
        -4.4314284,
        -3.0975432,
        -0.7954092,
        -9.145934,
        7.8806705,
        -3.3111997,
        -3.6326618,
        -6.3874435,
        4.392029,
        8.475716,
        6.83609,
        8.522867,
        1.1506834,
        6.5543747,
        -2.430593,
        -4.5365353,
        1.7936287,
        9.5210705,
        6.6765347,
        4.9743757,
        6.521782,
        -5.768077,
        -5.0339622,
        6.153208,
        3.7243118,
        -7.773897,
        6.0403576,
        -1.8203344,
        -0.07966709,
        3.3759537,
        -2.2047915,
        -9.658351,
        -3.1675,
        -7.1060133,
        -3.8331337,
        -3.3233733,
        2.7968779,
        -1.1801186,
        -9.397502,
        -9.684317,
        -0.3814354,
        9.645433,
        -1.0547466,
        7.9607506,
        4.723796,
        0.6302204,
        3.6425743,
        2.0069447,
        5.212945,
        -5.23498,
        -7.3565865,
        0.482296,
        -4.3983097,
        3.40067,
        -1.7325392,
        -9.249439,
        -0.96602154,
        1.0820522,
        -4.070725,
        -6.569457,
        3.840581,
        3.8107338,
        6.042818,
        -8.138113,
        8.09639,
        4.762472,
        8.538067,
        -5.248117,
        2.7267227,
        -8.384514,
        -2.3043957,
        4.703928,
        -6.1266966,
        1.1709318,
        0.9063997,
        8.414392,
        7.0638523,
        6.232195,
        9.508657,
        8.934092,
        1.5607653,
        5.9268017
      ]
    },
    {
      "index": 1,
      "output": 1.0,
      "input_connections": [
        [
          0,
          0.0
        ],
        [
          2,
          0.0
        ],
        [
          3,
          0.0
        ],
        [
          4,
          0.0
        ],
        [
          5,
          0.0
        ],
        [
          6,
          0.0
        ],
        [
          7,
          -2.801711
        ]
      ],
      "bias": 0.01252372,
      "self_activation": 0.0,
      "retina_weights": [
        0.023483276,
        -1.6269102,
        -2.4678674,
        1.248332,
        4.153718,
        -1.6220875,
        4.5197954,
        -6.140463,
        5.152444,
        -2.9782743,
        6.5511703,
        1.2938223,
        0.4519329,
        -4.9098845,
        8.623308,
        9.794956,
        3.570632,
        8.19157,
        7.1235714,
        1.9499121,
        7.7985134,
        6.4076633,
        -4.615247,
        -9.412596,
        -0.08250618,
        3.665823,
        0.3151312,
        7.3763657,
        -4.334509,
        4.365696,
        -5.2836533,
        -5.8710093,
        -5.0041933,
        -4.720964,
        2.2348366,
        5.095686,
        -3.3314176,
        7.9951305,
        7.968895,
        1.857933,
        -9.010674,
        8.506266,
        -4.659545,
        -5.321848,
        6.303932,
        -9.119339,
        -8.355858,
        -9.371924,
        -9.670255,
        6.6491413,
        -6.06898,
        3.1626787,
        -2.9129572,
        7.934374,
        6.6458817,
        1.0544052,
        -9.064075,
        9.953072,
        1.5459929,
        -9.973514,
        2.639574,
        0.6487503,
        -1.1476822,
        5.2489157,
        -7.085001,
        -5.429177,
        6.4689007,
        3.7962952,
        2.3309956,
        6.808506,
        5.492944,
        3.3726225,
        6.3846245,
        8.506304,
        6.1612625,
        7.999214,
        -7.6344585,
        -1.6965885,
        4.5440855,
        6.6615257,
        3.6096277,
        4.183778,
        -7.953992,
        -0.6523838,
        -8.780317,
        7.5993023,
        4.3950405,
        -5.815422,
        -4.0540595,
        0.32099628,
        5.5800714,
        -1.676919,
        3.5354462,
        4.517728,
        6.8683834,
        -7.345352,
        5.838975,
        9.52157,
        -8.028852,
        -5.71145,
        0.36869144,
        -5.4970975,
        7.062565,
        -0.33089542,
        8.730793,
        -5.899479,
        6.2423534,
        6.8075714,
        -9.684741,
        -6.750142,
        -8.525912,
        -6.398244,
        4.8521175,
        1.9870415,
        -9.0894575,
        -4.535522,
        2.4791346,
        -1.0748615,
        4.253689,
        3.1039991,
        -0.32165432,
        9.140364,
        -1.8414059,
        5.7491055,
        -9.787476,
        -9.744842,
        -7.2290325,
        8.920195,
        5.8706226,
        -4.9248476,
        6.2206383,
        -9.51272,
        -7.5908566,
        -0.8406706,
        -0.6752796,
        4.0570126,
        7.8321323,
        4.202956,
        -3.9405746,
        9.500761,
        -2.732808,
        6.418564,
        3.9152775,
        4.911045,
        -7.393861,
        1.942297,
        -8.975594,
        9.751228,
        -7.499385,
        3.0012693,
        2.6901493,
        -7.7399654,
        9.71521,
        -5.6964703,
        2.8802195,
        3.5396423,
        4.9566164,
        4.857937,
        9.290392,
        4.488283,
        -1.9922276,
        -0.4910345,
        -4.037816,
        -9.002759,
        -6.455495,
        -4.543013,
        -8.747389,
        -9.45707,
        5.0634565,
        3.8297758,
        -8.703403,
        6.5591164,
        2.4305,
        -0.85150146,
        2.4214497,
        -9.572856,
        7.098009,
        -0.46433163,
        -8.113315,
        -2.9154844,
        2.2285643,
        2.7926102,
        5.312728,
        7.901026,
        0.15805626,
        3.351306,
        1.6602669,
        -4.860794,
        -8.497915,
        6.288744,
        7.946762,
        6.7784157,
        -6.1826773,
        6.392927,
        5.9204645,
        4.5887384,
        -3.4084148,
        0.6889572,
        5.4195423,
        9.087154,
        4.084326,
        6.7925415,
        -1.6054077,
        0.69172,
        -9.74611,
        -2.2935953,
        -1.1411638,
        -9.83686,
        -0.040682793,
        -1.5466537,
        6.456608,
        -9.0673685,
        -7.2827644,
        9.007763,
        4.8006954,
        5.4069395,
        -3.9031024,
        -4.3349643,
        8.04871,
        2.3131523,
        9.824966,
        -2.0558085,
        5.948681,
        -7.979352,
        -5.2610703,
        -5.430407,
        -0.61019135,
        2.7956,
        2.0239725,
        9.704565,
        0.8345661,
        -9.724366,
        1.5039673,
        -0.7288399,
        -1.5048571,
        -9.548914,
        2.2992334,
        2.8366003,
        2.5332508,
        -0.515501,
        -1.5561619,
        -0.04666996,
        7.039953,
        -5.001158,
        7.3138657,
        -4.5901556,
        -8.374793,
        1.3900528,
        4.465288,
        -2.9165072,
        2.8654184,
        5.5580587,
        -9.49523,
        2.9839,
        -8.798739,
        2.3658075,
        4.7514257,
        -9.057198,
        -0.06369305,
        -7.8070164,
        -3.0894132,
        -5.3732295,
        -3.3321853,
        -3.1609602,
        1.1802044,
        -0.04254532,
        -0.65294456,
        -2.4828997,
        -9.18746,
        0.008727074,
        3.8241186,
        -3.6959095,
        -3.0976171,
        7.639776,
        8.246149,
        4.831499,
        -2.646782,
        9.175894,
        6.064163,
        -5.6088824,
        -4.6691604,
        -3.543913,
        8.5796585,
        4.1216097,
        -8.801718,
        1.4535561,
        8.132687,
        0.51654434,
        -4.6793075,
        4.9977264,
        -1.9974775,
        1.5940056,
        -8.545065,
        -7.552457,
        -6.4817257,
        -6.333947,
        5.7647457,
        -2.16854,
        9.131939,
        0.2149477,
        1.4301405,
        -4.8059173,
        2.4979916,
        -6.657181,
        0.6675949,
        -7.598178,
        -1.3958902,
        1.3510027,
        -9.6835375,
        4.369978,
        -6.9524956,
        1.6786613,
        6.229862,
        1.0518751,
        5.0546064,
        0.868701,
        -1.6539135,
        2.4583664,
        -3.8218684,
        2.3629847,
        6.8656197,
        -7.9203463,
        4.349614,
        7.4352303,
        -7.6478386,
        5.1204653,
        7.9683895,
        4.51476,
        -8.594257,
        -9.3715925,
        -5.323052,
        -2.7889724,
        1.7310705,
        -4.0680547,
        5.219795,
        -4.5677824,
        -8.068752,
        4.356245,
        6.400646,
        7.802248,
        8.890516,
        9.896318,
        -7.349121,
        5.366911,
        -0.56485367,
        -1.0366096,
        -9.580169,
        -1.9906702,
        3.5583506,
        1.3527575,
        -0.0060834885,
        -0.8240404,
        -8.4538765,
        6.021082,
        9.215179,
        -2.428595,
        -4.7672195,
        -0.23529434,
        9.344616,
        -9.193894,
        -8.852315,
        1.1487064,
        3.1917868,
        -1.5813532,
        2.9301205,
        -3.2157488,
        4.5333395,
        2.2350063,
        0.36381626,
        8.46945,
        -4.71554,
        -0.26934528,
        2.6730099,
        -3.349337,
        7.2892246,
        1.5997353,
        -6.835677,
        9.492674,
        0.8482065,
        8.644011,
        6.473795,
        0.47395325,
        -0.7683649,
        7.5607796,
        -4.055204,
        7.1357765,
        1.0195436,
        9.315353,
        4.141387,
        -1.4641085,
        7.593647,
        6.0842705,
        1.4469328,
        -3.6955924,
        -7.2617817,
        4.9564114,
        9.378523,
        3.8050566,
        -8.733892,
        -4.627616,
        0.09003258,
        -3.7183018,
        -4.3001623,
        -9.911997,
        9.967928,
        -6.5750504,
        5.674245,
        1.2982931,
        2.6801386,
        -6.8671913,
        -0.60737514,
        0.8797035,
        2.2983875,
        7.8916416,
        -9.634743,
        2.7226553,
        -7.487874,
        -3.2947822,
        6.6115055,
        -1.9047375,
        0.93957996,
        -8.406393,
        6.3664627,
        -0.97993565,
        -6.9774837,
        7.4585857,
        3.9987192,
        -5.2792807,
        -9.003363,
        2.3143997,
        -6.40728,
        -6.224143,
        -6.973054,
        3.406948,
        4.049262,
        3.1263266,
        -9.981561,
        8.026928,
        6.09239,
        -4.9262424,
        0.71443176,
        -0.60521317,
        0.34856224,
        6.6877995,
        -7.2262383,
        3.2162085,
        -8.28674,
        5.788457,
        6.911396,
        5.323185,
        -3.4206123,
        -9.372599,
        2.1980658,
        -0.6243057,
        6.7067432,
        -3.9153023,
        -5.4489775,
        -3.9832778,
        6.512825,
        0.025218964,
        -4.087028,
        2.488986,
        2.570282,
        -0.040315628,
        2.87352,
        -3.9831872,
        -3.5727067,
        2.8071394,
        2.3371115,
        9.943682,
        1.8142262,
        -2.802009,
        4.677309,
        5.143551,
        3.3158722,
        -8.098356,
        -4.085309,
        -9.667559,
        9.127192,
        -5.8892245,
        9.366447,
        -2.1762528,
        -0.64778996,
        7.147547,
        5.943248,
        -0.80881023,
        -3.0043669,
        -7.3385477,
        8.012539,
        5.171239,
        8.992552,
        7.51453,
        -8.422179,
        3.8729534,
        -2.0763292,
        -4.9434824,
        6.857626,
        -0.93029404,
        9.62582,
        2.5775394,
        -4.821684,
        -9.704024,
        4.628109,
        3.7859716,
        -2.3584976,
        0.43418312,
        -9.356198,
        8.895916,
        0.25291348,
        2.3058643,
        -7.627446,
        -8.938804,
        -9.985385,
        4.32345,
        -4.82187,
        1.5330687,
        3.7433805,
        2.1341457,
        2.3022642,
        -1.1666317,
        -6.2287874,
        3.3487377,
        1.6046629,
        -3.2506366,
        8.249573,
        9.300205,
        -6.1202474,
        -5.364327,
        -4.556343,
        -0.8506813,
        4.197727,
        -8.014231,
        0.3119192,
        8.667208,
        -5.280165,
        -6.015851,
        7.8291054,
        -8.625266,
        9.825527,
        -3.6963315,
        -1.1674681,
        0.30214405,
        -3.5289664,
        -7.1614523,
        2.586976,
        5.3104296,
        3.71519,
        -5.979707,
        2.7504244,
        -8.046756,
        8.402742,
        1.763505,
        2.893859,
        -8.065395,
        -8.415243,
        1.9275818,
        -2.348527,
        6.2114716,
        1.9214239,
        -5.8203,
        -8.438231,
        2.4347506,
        -1.3108482,
        -7.6513643,
        -0.75718784,
        -8.808069,
        6.248331,
        3.6316862,
        4.0788565,
        1.8133965,
        4.808201,
        -2.1415844,
        -1.9032612,
        -0.025636673,
        8.104755,
        9.211124,
        9.174185,
        8.746769,
        -9.954362,
        -6.7638874,
        9.046713,
        1.9613829,
        -4.915139,
        5.2929516,
        4.5167103,
        1.7365923,
        -5.4064984,
        -9.368698,
        -5.135462,
        4.1581717,
        1.6531363,
        -4.3273563,
        2.6047697,
        7.637163,
        -2.1793594,
        8.183723,
        3.9564714,
        -0.07970524,
        -1.0838003,
        -0.49760246,
        4.493989,
        -5.2156324,
        8.271395,
        2.7518024,
        -3.2788105,
        -4.882583,
        3.1638155,
        3.0854359,
        -6.197924,
        0.92540646,
        7.838415,
        -1.0348358,
        1.9403992,
        1.0004482,
        4.8308506,
        7.5940456,
        4.859499,
        9.778082,
        -4.1816087,
        6.5898247,
        9.826054,
        -6.3043995,
        -2.8344293,
        -0.9207573,
        -8.669178,
        3.6122952,
        2.8411093,
        7.304268,
        -8.571014,
        4.135271,
        8.040806,
        -8.84761,
        4.436823,
        8.310715,
        4.6677914,
        -6.6796875,
        -6.735325,
        7.9887047,
        7.4619026,
        -2.4602427,
        -2.1573176,
        -2.1701946,
        -0.53613853,
        -8.648677,
        6.693363,
        -0.11320305,
        6.1642113,
        4.2414894,
        -7.531149,
        5.6920214,
        -4.1095824,
        4.9134455,
        -0.0822773,
        -5.2125163,
        6.424204,
        -8.780643,
        -5.0137205,
        7.47534,
        0.3949175,
        7.4040546,
        4.0010986,
        4.799224,
        -0.52710724,
        7.8054543,
        -4.917762,
        -5.22212,
        -4.9273987,
        1.7038641,
        5.8187,
        -7.126322,
        9.118967,
        3.9490042,
        -5.798759,
        7.8626003,
        8.837215,
        2.5690327,
        -5.7069297,
        -0.44895363,
        1.2850227,
        8.029591,
        4.794818,
        9.231068,
        -1.7359581,
        2.0369854,
        3.9323225,
        -3.4091158,
        4.497467,
        2.2383938,
        7.6011276,
        -2.9721684,
        2.8024015,
        -9.393578,
        3.4356012,
        5.655963,
        -4.7348423,
        -7.2660847,
        -8.577449,
        7.1477375,
        -9.698749,
        -8.298966,
        8.612692,
        -8.340988,
        3.5116634,
        -4.7036858,
        2.1865902,
        -3.8135452,
        -5.001282,
        -5.5432267,
        -0.61543655,
        -0.9944,
        8.820232,
        5.5814524,
        -1.2504425,
        -7.118084,
        -8.903734,
        7.031822,
        -8.7427,
        -8.070099,
        -9.3077965,
        6.8162766,
        3.10069,
        4.3069563,
        -5.624892,
        0.29203033,
        9.565853,
        -2.5656338,
        -9.499407,
        -0.4560156,
        3.7889633,
        8.040049,
        -9.976468,
        -7.909915,
        6.3137665,
        3.0981913,
        1.6625443,
        -8.781096,
        -1.5422239,
        5.778715,
        2.0385513,
        3.1449423,
        -1.5126076,
        -3.9690108,
        7.643471,
        3.3395138,
        5.748374,
        0.95272636,
        8.988228,
        -8.103463,
        -3.656475,
        8.542551,
        0.294322,
        5.662472,
        -4.9430914,
        4.285578,
        6.511301,
        -9.553361,
        -8.464639,
        8.394127,
        -8.414307,
        -9.90922,
        -1.5524645,
        5.6389465,
        4.625162,
        3.5174742,
        -3.819346,
        -7.676427,
        8.360607,
        -7.9301805,
        -9.033415,
        5.250017,
        -1.129755,
        -4.7745605,
        -5.748145,
        6.59676,
        9.83659,
        9.659683,
        -5.3784723,
        7.0877666,
        6.846586,
        -0.29864502,
        -4.128072,
        0.045298576,
        5.024597,
        4.2200747,
        4.5513525,
        1.4449205,
        3.8907967,
        7.495203,
        3.1983318,
        5.8510056,
        -1.8231888,
        0.8077278,
        0.38111115,
        -1.9753304,
        -8.984199,
        -2.6012726,
        -3.5264916,
        6.130678,
        -8.465352,
        -6.4017076,
        6.7879906,
        1.7667732,
        6.145582,
        1.0209141,
        -0.91685677,
        -7.901947,
        -7.568924,
        1.0644159,
        -3.869688,
        -0.9375658,
        -2.8704376,
        -3.6565442,
        -4.642226,
        -4.783122,
        5.1452036,
        -8.300058,
        -7.8222914,
        1.041831,
        -8.6413355,
        -2.614071,
        4.166602,
        5.851268,
        6.0888863,
        9.679762,
        -1.6141863,
        7.0766315,
        2.8881035,
        -7.3909616,
        -7.77431,
        -5.9525867,
        -3.6384983,
        9.153334,
        -5.9527655,
        -4.999685,
        -8.323655,
        2.5153294,
        -0.41639042,
        8.991003,
        8.664686,
        9.304466,
        -2.5184197,
        2.4758472,
        -2.584538,
        9.664606,
        -1.2928524,
        7.3156605,
        -7.4569387,
        6.786606,
        5.594777,
        -2.0404568,
        5.526675,
        5.0153103,
        6.69841,
        5.2435656,
        5.8246346,
        -2.9837866,
        8.92033,
        1.3374863,
        -0.66975784,
        4.717516,
        -9.202771,
        -3.666503,
        -7.52306,
        5.6437483,
        4.8661795,
        -6.93522,
        4.3335114,
        -0.48771095,
        -0.6157341,
        0.2095232,
        6.1232567,
        3.564848,
        -2.9775925,
        7.6803417,
        8.926449,
        -5.195257,
        -7.2812843,
        5.6162777,
        6.5232677,
        -4.1577096,
        0.0074157715,
        -4.798946,
        -1.7549219,
        -3.373489,
        0.022603035,
        -0.36919022,
        0.49673462,
        -1.3918419,
        5.993864,
        4.608513,
        7.066921,
        7.78335,
        -3.8666077,
        -1.7626991,
        9.613953,
        4.9556074,
        -6.7246933,
        2.65483,
        3.072709,
        -5.132062,
        -3.20121,
        7.247843,
        -0.8433695,
        -2.3529496,
        5.778593,
        -9.959836,
        -5.071468,
        2.8926554,
        -3.9409752,
        -2.86087,
        -7.2167826,
        -7.1238585,
        7.36417,
        8.426447,
        -1.4086475,
        -7.149975,
        9.088774,
        -7.039585,
        -8.480069,
        -4.665527,
        -1.6907492,
        4.1454515,
        -5.4163165,
        4.2337904,
        0.026530266,
        -8.559787,
        3.9427652,
        5.1334515,
        7.1292515,
        -1.812355,
        -4.676263,
        -6.411853,
        1.2760792,
        6.126045,
        8.428768,
        6.745636,
        -6.9533587,
        9.956409,
        -9.105956,
        -2.4018993,
        -6.9571877,
        6.9190044,
        8.242098,
        -6.785779,
        -3.4334106,
        -3.3650036,
        3.7188234,
        7.622114,
        7.19771,
        8.699856,
        6.8730793,
        -9.590349,
        -1.9682302,
        -8.847723,
        6.5686665,
        6.2152863,
        -1.5110435,
        -1.2687559,
        -7.3353624,
        -8.738856,
        -7.8763456,
        -4.4029303,
        6.4261913,
        8.358128,
        1.6483841,
        4.7015676,
        6.638981,
        -6.2966204,
        9.028549,
        -9.51612,
        -9.869568,
        -8.504472,
        7.3239803,
        1.2054834,
        5.855386,
        -7.2923536,
        -9.46655,
        -4.235441,
        2.7578793,
        0.061348915,
        -8.632628,
        6.4753437,
        2.0871964,
        3.3854303,
        -0.18920326,
        -7.56973,
        7.0717735,
        0.043229103,
        1.8175707,
        3.7134085,
        -5.5798836,
        -8.158288,
        7.1540775,
        7.3483086,
        1.808053,
        -9.490544,
        -5.8105035,
        -1.4165611,
        8.134785,
        9.1208935,
        9.002647,
        1.7453775,
        7.5178432,
        -1.2940521,
        6.0202847,
        -5.7784147,
        -7.6841803,
        4.3745527,
        8.309786,
        -4.86885,
        -0.16392422,
        0.22896862,
        1.5478144,
        1.0989246,
        3.2585917,
        -7.698366,
        7.0979443,
        -2.198104,
        9.177456,
        2.6650753,
        9.534746,
        -3.5585947,
        3.327588,
        -4.0145416,
        5.0701303,
        -7.162587,
        -1.9094105,
        -9.519536,
        0.65618896,
        -2.706675,
        -3.4286852,
        4.3671856,
        -8.070669,
        0.41434383,
        2.9606857,
        8.487112,
        3.8356342,
        5.8074064,
        -9.617643,
        -8.58851,
        0.20855808,
        9.543287,
        7.147442,
        9.673424,
        1.351551,
        -2.3133316,
        -2.1018186,
        0.6094303,
        1.163434,
        -2.996592,
        -8.369722,
        -6.6381426,
        -4.291422,
        4.4062147,
        -5.501067,
        3.7383928,
        6.0390396,
        -8.467326,
        -3.9357872,
        0.10450935,
        -4.238016,
        1.4441338,
        -1.3243427,
        0.85064316,
        7.038803,
        8.722216,
        -1.3777294,
        -7.0026016,
        -1.1722631,
        5.623454,
        4.550048,
        -5.58346,
        6.1020412,
        -1.0285778,
        -7.9209347,
        1.2361565,
        -4.420521,
        5.079705,
        -6.422941,
        -0.87366295,
        -0.8878012,
        -4.767675,
        -8.700728,
        7.3294163,
        -2.022635,
        3.0304422,
        -9.044535,
        -1.6258831,
        -5.333993,
        -1.4076633,
        -0.04927063,
        4.454733,
        -8.75782,
        -1.542079,
        2.2092857,
        9.961353,
        -4.2974324,
        -2.9613085,
        -4.660258,
        -7.604203,
        -2.5081558,
        1.8235312,
        9.922163,
        6.484415,
        1.6478548,
        6.7726192,
        -6.689493,
        -3.5125036,
        8.025648,
        0.14265919,
        -4.787683,
        2.1434555,
        -8.656807,
        2.9971132,
        8.385918,
        -2.096385,
        4.22001,
        -0.3424425,
        -9.189012,
        -6.7367125,
        -0.037807465,
        4.048668,
        -2.387289,
        -3.6665459,
        2.6275883,
        0.5446873,
        -3.2963462,
        9.974756,
        -8.146892,
        4.0854845,
        -7.4130507,
        2.907733,
        2.8821507,
        -0.6972971,
        7.382452,
        -4.5923777,
        4.198841,
        -7.333021,
        -0.8579912,
        3.3425817,
        4.7919617,
        -1.8527975,
        -9.681432,
        8.704405,
        5.4003944,
        -6.736641,
        8.533079,
        -8.211724,
        -2.140552,
        9.879967,
        7.3899136,
        9.9748535,
        0.4195919,
        -5.93744,
        -7.210531,
        3.1305065,
        -2.300395,
        3.6187325,
        9.645735,
        8.573786,
        0.9183016,
        -5.4993625,
        -7.110388,
        2.7961454,
        4.0222397,
        -5.112273,
        2.5438795,
        -0.5504627,
        1.0860739,
        1.0979118,
        -2.577755,
        -7.8446913,
        8.778244,
        -9.977333,
        6.9632626,
        -0.82532597,
        2.6187792,
        -3.6635156,
        4.1844807,
        0.31989002,
        9.19911,
        -7.76762,
        4.4192038,
        -0.26787472,
        4.6596518,
        8.774109,
        -0.74530315,
        -4.4823785,
        -9.735004,
        1.7985001,
        3.1673946,
        2.5210104,
        -7.9856873,
        -5.6298323,
        7.8583565,
        -9.285622,
        7.8469296,
        -4.732384,
        -5.942039,
        3.718814,
        9.643002,
        -3.7130709,
        9.726433,
        -5.9746785,
        -0.54152393,
        9.741001,
        -6.7883587,
        -0.20903015,
        4.8438272,
        -5.277447,
        -3.118679,
        -0.98905754,
        5.280246,
        -8.710925,
        -0.683836,
        -3.4959335,
        -7.7533054,
        -5.4663105,
        6.8819427,
        -1.5701838,
        8.291994,
        0.6162081,
        -5.390603,
        0.94547176,
        6.3319263,
        -4.7274942,
        5.4601088,
        -0.9688158,
        3.251728,
        -5.59684,
        -1.7297621,
        1.9088707,
        -0.73014927,
        -7.8214283,
        3.7880669,
        1.5742264,
        -6.9223375,
        -8.56178,
        1.0057554,
        3.6474457,
        1.8361464,
        6.083788,
        0.6518469,
        2.4674807,
        -3.133976,
        6.011366,
        -2.3069587,
        -0.8581085,
        4.4522085,
        1.6499672,
        0.5740299,
        6.7861595,
        -3.7799711,
        9.942875,
        -1.7557926,
        -1.4987106,
        7.7290306,
        -4.5853896,
        1.3941011,
        -1.9541521,
        9.32774,
        3.315796,
        8.861582,
        9.030367,
        6.1277866,
        4.536804,
        4.438897,
        9.7924,
        -7.0943785,
        -3.330688,
        2.7009,
        3.500558,
        -8.694241,
        -8.464861,
        0.55320835,
        3.8262644,
        -3.0241914,
        -9.517407,
        0.80813026,
        5.700802,
        0.59710884,
        -6.6664934,
        -7.6679993,
        7.1196194,
        -9.149594,
        -4.236178,
        4.356571,
        5.924279,
        3.277668,
        -4.6905465,
        -5.1188583,
        -9.192717,
        -2.7647157,
        -2.4118009,
        5.683998,
        -2.6555033,
        -2.3454132,
        1.951705,
        -0.6267519,
        -4.284322,
        1.7040596,
        -3.4703536,
        6.830065,
        -8.077633,
        -3.1405635,
        -3.2077737,
        -4.111397,
        -4.5400496,
        -1.211256,
        -3.6770148,
        -3.5860963,
        -8.451409,
        7.514906,
        -7.9824543,
        2.508193,
        1.9554605,
        -9.866688,
        -7.387886,
        -6.5283203,
        -4.2743964,
        9.3523445,
        4.661313,
        5.059597,
        -8.53358,
        9.923088,
        7.1993637,
        -1.5957804,
        8.403688,
        6.3178253,
        -7.178097,
        6.3637753,
        9.90724,
        -5.8396907,
        4.786824,
        -4.1313834,
        8.727581,
        5.4550543,
        0.15279865,
        4.969701,
        -5.9126873,
        6.414562,
        -1.0062971,
        7.6094074,
        -0.6692953,
        -0.855402,
        9.95393,
        -8.263631,
        -3.8495893,
        4.575206,
        -1.0813608,
        -0.41601372,
        9.401514,
        -8.390409,
        -6.804781,
        8.274721,
        -3.839788,
        -9.897542,
        -4.0475626,
        0.08411503,
        8.2388115,
        -5.816545,
        -7.405081,
        -5.9798164,
        -5.2158995,
        2.6983776,
        1.4167509,
        2.1526804,
        5.147294,
        -9.961345,
        -9.501001,
        -3.1558676,
        7.406742,
        -8.716728,
        0.45116806,
        -1.5739288,
        -4.479956,
        9.993395,
        -5.3155584,
        3.8859215,
        -0.032133102,
        -9.197161,
        9.330801,
        -2.4943676,
        -5.1563354,
        -9.06518,
        0.74170685,
        5.2006235,
        -7.6888533,
        2.4002562,
        5.4460278,
        4.1628923,
        -7.1976137,
        -2.6123137,
        -6.74562,
        -1.7325659,
        8.788544,
        8.426479,
        -4.387767,
        2.509571,
        -1.1357994,
        0.17965412,
        -4.855556,
        -7.35013,
        -2.4461331,
        -7.58558,
        -7.908947,
        -5.3805013,
        0.089860916,
        0.43988323,
        -1.7606487,
        2.3447218,
        -9.060421,
        9.353819,
        6.7844524,
        9.688799,
        9.376339,
        -5.96399,
        -0.7541647,
        9.183657,
        2.8561888,
        -7.951433,
        -2.7510972,
        -2.496976,
        -3.4685774,
        9.569017,
        -4.8375864,
        -9.69944,
        -8.78793,
        7.055361,
        3.6161337,
        5.3164167,
        7.249733,
        6.0918274,
        -1.1149998,
        2.4391088,
        -6.184842,
        -2.3111334,
        -3.1905813,
        0.19097233,
        -1.4459105,
        -2.5325341,
        2.808322,
        4.7570715,
        -4.3457623,
        -2.9623742,
        -0.77981377,
        -2.2725358,
        0.4451475,
        1.1446581,
        3.7528362,
        8.712639,
        9.686071,
        1.1139402,
        -1.787116,
        1.1966524,
        -2.7190561,
        6.381048,
        3.933939,
        -2.7359457,
        -4.616546,
        5.8319845,
        -9.418774,
        -6.18031,
        -0.6855459,
        -2.09443,
        -5.4845877,
        9.822832,
        4.2152653,
        7.4375057,
        -9.9457,
        7.799673,
        9.974318,
        8.187933,
        9.973757,
        6.1941338,
        -3.552081,
        9.95376,
        -8.774686,
        -5.253224,
        -3.1441517,
        -3.4978814,
        -4.652979,
        -5.061619,
        7.2004375,
        -3.2083697,
        6.6847515,
        9.340054,
        -7.53098,
        6.9554195,
        4.2974815,
        2.558175,
        4.548296,
        5.767664,
        -0.479743,
        -5.7609696,
        4.989806,
        5.0043983,
        2.138873,
        6.730343,
        -3.1944628,
        -7.830024,
        -2.8582044,
        -2.2484221,
        4.0109053,
        1.3266649,
        -8.459503,
        9.155565,
        2.229,
        -4.441654,
        9.888262,
        3.8111982,
        -4.82923,
        -2.8370113,
        -5.1395936,
        -1.0142984,
        -8.971831,
        -8.807804,
        4.735285,
        -8.222322,
        8.996553,
        -9.222943,
        6.2130127,
        -1.8709793,
        -8.062212,
        4.4190683,
        1.6833076,
        2.8767576,
        -5.733506,
        0.7787857,
        -2.564034,
        2.5325146,
        -9.626989,
        -5.3355165,
        2.484068,
        5.37173,
        1.226264,
        -0.062610626,
        -5.800602,
        -0.37607384,
        -6.017918,
        -9.434311,
        -8.923941,
        7.988796,
        -8.038938,
        -2.9722614,
        -2.9785032,
        5.349144,
        2.195324,
        -4.9500628,
        -1.5545549,
        6.3488827,
        -8.382859,
        -8.171079,
        -3.1243558,
        -9.465122,
        -4.0711946,
        -5.5063457,
        7.7537346,
        3.0847635,
        0.2931633,
        -9.475608,
        2.9223957,
        -1.7053785,
        4.7141542,
        8.823071,
        7.3899403,
        2.6568403,
        5.0096025,
        9.887482,
        2.1340837,
        -0.41158104,
        1.1358128,
        9.333334,
        4.7871675,
        4.8873672,
        3.8436975,
        6.8937607,
        -8.954818,
        -8.68372,
        3.117155,
        -7.392297,
        2.678133,
        7.9073925,
        -1.5470333,
        2.7765522,
        -6.946184,
        2.6203594,
        2.4421892,
        8.13932,
        -2.2376194,
        -2.2330418,
        -3.3287854,
        3.1289997,
        0.8754196,
        -5.960898,
        7.474272,
        -9.324948,
        -3.2249517,
        6.6084976,
        0.24167633,
        -3.0433888,
        -8.640952,
        4.67383,
        -2.3339524,
        5.973465,
        -7.1804047,
        4.298791,
        -0.21562958,
        7.250681,
        -5.4857106,
        -6.288495,
        0.18431282,
        -9.375925,
        -1.9746675,
        -6.7934866,
        -0.895504,
        -0.27803802,
        8.140062,
        -4.8907895,
        7.1764717,
        0.6704674,
        -4.287445,
        -3.1904812,
        2.104496,
        -7.75383,
        3.051525,
        0.9744129,
        -8.996835,
        4.593624,
        5.0740185,
        8.607754,
        -2.4390354,
        -5.7970543,
        -3.4689755,
        8.432716,
        8.341049,
        -5.8483524,
        0.13561821,
        -4.193637,
        5.4747953,
        -0.78664684,
        4.436141,
        -0.6012888,
        2.0990314,
        5.241894,
        8.993135,
        0.23608112,
        7.08589,
        -1.6910572,
        4.137248,
        -9.801211,
        -8.381407,
        5.888871,
        9.529081,
        9.60416,
        -8.265621,
        -9.657969,
        3.9605722,
        -6.440565,
        8.53986,
        6.9906273,
        2.5421944,
        -5.6892605,
        1.3457832,
        -7.2091885,
        -1.9316425,
        -2.6275964,
        3.090886,
        1.3702307,
        -3.8087196,
        -9.322338,
        -4.7016473,
        2.6663008,
        -6.8981285,
        -6.927805,
        5.921938,
        2.0149956,
        7.512125,
        9.995123,
        -7.182452,
        -9.525473,
        5.0701466,
        -5.394017,
        -4.166519,
        -2.0518866,
        9.730225,
        -1.7806377,
        0.6597223,
        0.28831577,
        6.11775,
        -1.473486,
        -7.004654,
        2.0739565,
        -5.2664514,
        0.4219284,
        -2.7349038,
        -6.194753,
        -8.544347,
        -8.910775,
        2.4142418,
        9.299561,
        1.9796839,
        -6.0891814,
        -3.7207623,
        9.953035,
        -6.277191,
        4.065586,
        -0.106422424,
        7.513729,
        -9.646096,
        6.6956635,
        -7.15924,
        -0.6557598,
        8.271227,
        -9.185901,
        9.042746,
        8.504326,
        -7.887845,
        -7.7960415,
        -6.6668367,
        9.858526,
        7.762312,
        4.420491,
        3.9440622,
        8.685822,
        7.3629684,
        -0.10593319,
        -8.162548,
        0.24925327,
        3.4920826,
        -3.5198827,
        -6.792452,
        -9.90411,
        7.2246685,
        -4.914293,
        1.6776123,
        -4.12518,
        -3.8366241,
        -0.91341686,
        6.5915585,
        -7.519307,
        7.8567085,
        -3.1694717,
        3.646222,
        -5.6828065,
        -3.3915086,
        -1.8863125,
        4.5561943,
        3.828391,
        6.3781796,
        3.948182,
        9.128199,
        -8.310234,
        -8.304178,
        -7.7963066,
        -8.202378,
        2.4912891,
        5.6008835,
        4.790407,
        1.5593777,
        2.2175303,
        -1.2088671,
        0.09394264,
        -4.2509265,
        -2.8799434,
        -3.8975496,
        4.852742,
        -0.0432415,
        -2.796008,
        7.748102,
        7.8329105,
        7.645336,
        2.5591097,
        -1.7333212,
        -0.9069052,
        -1.2678661,
        4.224471,
        7.581335,
        -4.4572825,
        -2.891316,
        -1.1421652,
        -7.6205225,
        -3.876645,
        7.2993374,
        6.6934795,
        -5.999002,
        -2.7653832,
        2.7400885,
        -1.7426577,
        -5.1769896,
        -8.860714,
        -3.9046235,
        2.3189125,
        -6.617672,
        0.048252106,
        -6.860571,
        7.975725,
        -1.6995039,
        5.8069105,
        -0.99991226,
        5.962023,
        1.9464741,
        7.3493786,
        -3.5037727,
        -1.2285776,
        4.782099,
        3.3851519,
        -9.577498,
        -7.9845066,
        6.2838764,
        -6.279785,
        -5.06412,
        -3.1719418,
        -4.386279,
        2.7358856,
        -5.584008,
        1.7463312,
        8.005701,
        -3.5578055,
        -1.4499922,
        0.98604107,
        -9.260993,
        6.485979,
        -4.878201,
        2.6112041,
        -9.007645,
        -9.694223,
        -2.8242846,
        -1.4156027,
        -4.4081707,
        8.975756,
        -9.368181,
        2.5022163,
        -7.743964,
        -4.956362,
        -8.226824,
        -0.1688137,
        2.4372063,
        -1.6604176,
        -3.1229515,
        1.7089043,
        -3.2909412,
        1.5536394,
        -9.120295,
        5.644702,
        -7.593465,
        -8.97824,
        -1.4654417,
        -7.009063,
        -4.54632,
        -3.3341928,
        -8.105001,
        -0.026582718,
        0.3951893,
        -4.38657,
        -6.323571,
        -8.458314,
        6.9978046,
        0.54330254,
        8.180004,
        9.178566,
        -7.2872896,
        -2.1028748,
        -4.0856714,
        -0.68102264,
        7.00968,
        2.0077648,
        -8.001544,
        -2.4719515,
        -0.16589546,
        9.852062,
        0.19620323,
        4.679164,
        -0.2615776,
        3.8514128,
        7.9408703,
        7.6202297,
        -8.229647,
        -4.357025,
        6.298954,
        4.7439184,
        -1.9400492,
        9.954493,
        -0.9890814,
        1.0541306,
        -6.802532,
        0.83209896,
        -6.7442293,
        -3.9196105,
        -8.794913,
        -4.803836,
        -4.0100164,
        4.978343,
        -6.101372,
        -3.4130926,
        5.5936785,
        6.0766373,
        9.129339,
        3.279251,
        -6.784811,
        -2.8055067,
        4.7526464,
        -0.13699245,
        8.207289,
        2.6050367,
        -4.369342,
        8.787285,
        1.5503464,
        3.5576878,
        -6.753292,
        -3.5237355,
        1.7210236,
        -6.448762,
        -1.5241499,
        -3.7934966,
        4.3820963,
        -3.556108,
        7.689869,
        -4.6236486,
        6.5722485,
        5.6167,
        4.4958982,
        3.595749,
        -4.439358,
        8.644211,
        4.412593,
        -3.8979406,
        -4.374375,
        3.1573954,
        -3.7321587,
        6.901516,
        -6.095924,
        -7.517929,
        8.85128,
        3.2565346,
        8.598686,
        5.9955187,
        -2.807252,
        8.957018,
        9.989115,
        9.864754,
        -0.19595528,
        -9.369931,
        -0.16903591,
        6.070549,
        -2.402884,
        -5.760619,
        -8.909828,
        -9.625549,
        -8.677731,
        6.9949493,
        -9.529159,
        -6.773739,
        7.5719547,
        0.7359896,
        -5.726685,
        5.8590574,
        2.96743,
        -4.6628947,
        0.6807003,
        -7.2896547,
        -3.5290427,
        -3.292963,
        0.032945633,
        -9.0934515,
        8.841948,
        -1.7173758,
        -4.6023197,
        -6.127431,
        -8.145852,
        -9.600797,
        -1.3719549,
        -7.202406,
        -1.7976847,
        -9.629374,
        -0.287611,
        -0.40247822,
        -9.896576,
        -0.92201424,
        -7.4689217,
        -6.287505,
        -1.1803694,
        -5.2699466,
        8.962946,
        -4.748742,
        5.0687065,
        3.3054056,
        -9.665501,
        1.4847221,
        -3.493287,
        7.8372097,
        -0.56877995,
        4.8574915,
        -8.613865,
        -5.9800215,
        5.9997053,
        -7.269561,
        -9.504888,
        -8.021841,
        -1.822073,
        -3.8609452,
        2.7424564,
        -2.4921408,
        0.546545,
        -0.77382755,
        -5.2752085,
        -6.5114517,
        -3.1143374,
        -1.374239,
        -5.3490276,
        -3.4676428,
        0.012310982,
        9.480671,
        9.763613,
        5.977461,
        -4.1511817,
        6.9034786,
        -8.4892435,
        -6.6341305,
        -8.9402075,
        5.997655,
        3.0094538,
        5.041315,
        8.563456,
        -6.171176,
        5.6128235,
        2.2404156,
        2.6158562,
        2.1245375,
        2.9152098,
        -1.7603006,
        0.3256426,
        -3.7536688,
        2.5563564,
        -6.6087246,
        -3.994257,
        8.166275,
        8.038458,
        -8.641615,
        6.1523647,
        -0.20455742,
        -4.3723364,
        -8.696849,
        -7.1670218,
        -7.991025,
        1.8957176,
        9.895777,
        8.342766,
        -0.10471058,
        5.057892,
        -5.995044,
        3.2197466,
        0.6305609,
        9.609131,
        7.3725758,
        -9.7667885,
        9.0154705,
        -6.458599,
        -6.582529,
        5.171894,
        6.403433,
        -2.1587982,
        8.803898,
        -2.2199574,
        5.005721,
        -4.215624,
        3.22956,
        4.8042307,
        5.6980743,
        -7.929694,
        -7.0323753,
        6.489916,
        2.5471344,
        -9.179446,
        -2.5208564,
        -1.0808268,
        -8.130155,
        4.1216984,
        0.2492466,
        -6.7589903,
        8.598776,
        -7.0923967,
        -9.403398,
        -0.2692976,
        4.9914255,
        2.9733267,
        9.609055,
        6.589613,
        -9.057045,
        8.128695,
        -6.7125196,
        -4.3234844,
        -7.2881174,
        1.106576,
        7.9103622,
        -8.940708,
        2.2178497,
        8.774595,
        5.38634,
        -9.504623,
        2.0304384,
        -4.8131866,
        0.53570175,
        7.710638,
        -5.7189364,
        8.345694,
        9.370462,
        2.359501,
        -3.8062663,
        -1.9333429,
        -2.5096555,
        4.3094883,
        -3.0828137,
        -4.934525,
        -6.9434834,
        8.828091,
        1.8350706,
        -4.696116,
        1.5104332,
        1.7433014,
        -2.0028224,
        -9.602599,
        -4.0614004,
        -9.61795,
        -0.2537794,
        -8.274879,
        1.692647,
        -4.4314284,
        -3.0975432,
        -0.7954092,
        -9.145934,
        7.8806705,
        -3.3111997,
        -3.6326618,
        -6.3874435,
        4.392029,
        8.475716,
        6.83609,
        8.522867,
        1.1506834,
        6.5543747,
        -2.430593,
        -4.5365353,
        1.7936287,
        9.5210705,
        6.6765347,
        4.9743757,
        6.521782,
        -5.768077,
        -5.0339622,
        6.153208,
        3.7243118,
        -7.773897,
        6.0403576,
        -1.8203344,
        -0.07966709,
        3.3759537,
        -2.2047915,
        -9.658351,
        -3.1675,
        -7.1060133,
        -3.8331337,
        -3.3233733,
        2.7968779,
        -1.1801186,
        -9.397502,
        -9.684317,
        -0.3814354,
        9.645433,
        -1.0547466,
        7.9607506,
        4.723796,
        0.6302204,
        3.6425743,
        2.0069447,
        5.212945,
        -5.23498,
        -7.3565865,
        0.482296,
        -4.3983097,
        3.40067,
        -1.7325392,
        -9.249439,
        -0.96602154,
        1.0820522,
        -4.070725,
        -6.569457,
        3.840581,
        3.8107338,
        6.042818,
        -8.138113,
        8.09639,
        4.762472,
        8.538067,
        -5.248117,
        2.7267227,
        -8.384514,
        -2.3043957,
        4.703928,
        -6.1266966,
        1.1709318,
        0.9063997,
        8.414392,
        7.0638523,
        6.232195,
        9.508657,
        8.934092,
        1.5607653,
        5.9268017
      ]
    },
    {
      "index": 2,
      "output": 1.0,
      "input_connections": [
        [
          0,
          0.0
        ],
        [
          1,
          0.0
        ],
        [
          3,
          0.0
        ],
        [
          4,
          0.0
        ],
        [
          5,
          0.0
        ],
        [
          6,
          0.0
        ],
        [
          7,
          0.0
        ]
      ],
      "bias": 0.036122166,
      "self_activation": 0.0,
      "retina_weights": [
        0.023483276,
        -1.6269102,
        -2.4678674,
        1.248332,
        4.153718,
        -1.6220875,
        4.5197954,
        -6.140463,
        5.152444,
        -2.9782743,
        6.5511703,
        1.2938223,
        0.4519329,
        -4.9098845,
        8.623308,
        9.794956,
        3.570632,
        8.19157,
        7.1235714,
        1.9499121,
        7.7985134,
        6.4076633,
        -4.615247,
        -9.412596,
        -0.08250618,
        3.665823,
        0.3151312,
        7.3763657,
        -4.334509,
        4.365696,
        -5.2836533,
        -5.8710093,
        -5.0041933,
        -4.720964,
        2.2348366,
        5.095686,
        -3.3314176,
        7.9951305,
        7.968895,
        1.857933,
        -9.010674,
        8.506266,
        -4.659545,
        -5.321848,
        6.303932,
        -9.119339,
        -8.355858,
        -9.371924,
        -9.670255,
        6.6491413,
        -6.06898,
        3.1626787,
        -2.9129572,
        7.934374,
        6.6458817,
        1.0544052,
        -9.064075,
        9.953072,
        1.5459929,
        -9.973514,
        2.639574,
        0.6487503,
        -1.1476822,
        5.2489157,
        -7.085001,
        -5.429177,
        6.4689007,
        3.7962952,
        2.3309956,
        6.808506,
        5.492944,
        3.3726225,
        6.3846245,
        8.506304,
        6.1612625,
        7.999214,
        -7.6344585,
        -1.6965885,
        4.5440855,
        6.6615257,
        3.6096277,
        4.183778,
        -7.953992,
        -0.6523838,
        -8.780317,
        7.5993023,
        4.3950405,
        -5.815422,
        -4.0540595,
        0.32099628,
        5.5800714,
        -1.676919,
        3.5354462,
        4.517728,
        6.8683834,
        -7.345352,
        5.838975,
        9.52157,
        -8.028852,
        -5.71145,
        0.36869144,
        -5.4970975,
        7.062565,
        -0.33089542,
        8.730793,
        -5.899479,
        6.2423534,
        6.8075714,
        -9.684741,
        -6.750142,
        -8.525912,
        -6.398244,
        4.8521175,
        1.9870415,
        -9.0894575,
        -4.535522,
        2.4791346,
        -1.0748615,
        4.253689,
        3.1039991,
        -0.32165432,
        9.140364,
        -1.8414059,
        5.7491055,
        -9.787476,
        -9.744842,
        -7.2290325,
        8.920195,
        5.8706226,
        -4.9248476,
        6.2206383,
        -9.51272,
        -7.5908566,
        -0.8406706,
        -0.6752796,
        4.0570126,
        7.8321323,
        4.202956,
        -3.9405746,
        9.500761,
        -2.732808,
        6.418564,
        3.9152775,
        4.911045,
        -7.393861,
        1.942297,
        -8.975594,
        9.751228,
        -7.499385,
        3.0012693,
        2.6901493,
        -7.7399654,
        9.71521,
        -5.6964703,
        2.8802195,
        3.5396423,
        4.9566164,
        4.857937,
        9.290392,
        4.488283,
        -1.9922276,
        -0.4910345,
        -4.037816,
        -9.002759,
        -6.455495,
        -4.543013,
        -8.747389,
        -9.45707,
        5.0634565,
        3.8297758,
        -8.703403,
        6.5591164,
        2.4305,
        -0.85150146,
        2.4214497,
        -9.572856,
        7.098009,
        -0.46433163,
        -8.113315,
        -2.9154844,
        2.2285643,
        2.7926102,
        5.312728,
        7.901026,
        0.15805626,
        3.351306,
        1.6602669,
        -4.860794,
        -8.497915,
        6.288744,
        7.946762,
        6.7784157,
        -6.1826773,
        6.392927,
        5.9204645,
        4.5887384,
        -3.4084148,
        0.6889572,
        5.4195423,
        9.087154,
        4.084326,
        6.7925415,
        -1.6054077,
        0.69172,
        -9.74611,
        -2.2935953,
        -1.1411638,
        -9.83686,
        -0.040682793,
        -1.5466537,
        6.456608,
        -9.0673685,
        -7.2827644,
        9.007763,
        4.8006954,
        5.4069395,
        -3.9031024,
        -4.3349643,
        8.04871,
        2.3131523,
        9.824966,
        -2.0558085,
        5.948681,
        -7.979352,
        -5.2610703,
        -5.430407,
        -0.61019135,
        2.7956,
        2.0239725,
        9.704565,
        0.8345661,
        -9.724366,
        1.5039673,
        -0.7288399,
        -1.5048571,
        -9.548914,
        2.2992334,
        2.8366003,
        2.5332508,
        -0.515501,
        -1.5561619,
        -0.04666996,
        7.039953,
        -5.001158,
        7.3138657,
        -4.5901556,
        -8.374793,
        1.3900528,
        4.465288,
        -2.9165072,
        2.8654184,
        5.5580587,
        -9.49523,
        2.9839,
        -8.798739,
        2.3658075,
        4.7514257,
        -9.057198,
        -0.06369305,
        -7.8070164,
        -3.0894132,
        -5.3732295,
        -3.3321853,
        -3.1609602,
        1.1802044,
        -0.04254532,
        -0.65294456,
        -2.4828997,
        -9.18746,
        0.008727074,
        3.8241186,
        -3.6959095,
        -3.0976171,
        7.639776,
        8.246149,
        4.831499,
        -2.646782,
        9.175894,
        6.064163,
        -5.6088824,
        -4.6691604,
        -3.543913,
        8.5796585,
        4.1216097,
        -8.801718,
        1.4535561,
        8.132687,
        0.51654434,
        -4.6793075,
        4.9977264,
        -1.9974775,
        1.5940056,
        -8.545065,
        -7.552457,
        -6.4817257,
        -6.333947,
        5.7647457,
        -2.16854,
        9.131939,
        0.2149477,
        1.4301405,
        -4.8059173,
        2.4979916,
        -6.657181,
        0.6675949,
        -7.598178,
        -1.3958902,
        1.3510027,
        -9.6835375,
        4.369978,
        -6.9524956,
        1.6786613,
        6.229862,
        1.0518751,
        5.0546064,
        0.868701,
        -1.6539135,
        2.4583664,
        -3.8218684,
        2.3629847,
        6.8656197,
        -7.9203463,
        4.349614,
        7.4352303,
        -7.6478386,
        5.1204653,
        7.9683895,
        4.51476,
        -8.594257,
        -9.3715925,
        -5.323052,
        -2.7889724,
        1.7310705,
        -4.0680547,
        5.219795,
        -4.5677824,
        -8.068752,
        4.356245,
        6.400646,
        7.802248,
        8.890516,
        9.896318,
        -7.349121,
        5.366911,
        -0.56485367,
        -1.0366096,
        -9.580169,
        -1.9906702,
        3.5583506,
        1.3527575,
        -0.0060834885,
        -0.8240404,
        -8.4538765,
        6.021082,
        9.215179,
        -2.428595,
        -4.7672195,
        -0.23529434,
        9.344616,
        -9.193894,
        -8.852315,
        1.1487064,
        3.1917868,
        -1.5813532,
        2.9301205,
        -3.2157488,
        4.5333395,
        2.2350063,
        0.36381626,
        8.46945,
        -4.71554,
        -0.26934528,
        2.6730099,
        -3.349337,
        7.2892246,
        1.5997353,
        -6.835677,
        9.492674,
        0.8482065,
        8.644011,
        6.473795,
        0.47395325,
        -0.7683649,
        7.5607796,
        -4.055204,
        7.1357765,
        1.0195436,
        9.315353,
        4.141387,
        -1.4641085,
        7.593647,
        6.0842705,
        1.4469328,
        -3.6955924,
        -7.2617817,
        4.9564114,
        9.378523,
        3.8050566,
        -8.733892,
        -4.627616,
        0.09003258,
        -3.7183018,
        -4.3001623,
        -9.911997,
        9.967928,
        -6.5750504,
        5.674245,
        1.2982931,
        2.6801386,
        -6.8671913,
        -0.60737514,
        0.8797035,
        2.2983875,
        7.8916416,
        -9.634743,
        2.7226553,
        -7.487874,
        -3.2947822,
        6.6115055,
        -1.9047375,
        0.93957996,
        -8.406393,
        6.3664627,
        -0.97993565,
        -6.9774837,
        7.4585857,
        3.9987192,
        -5.2792807,
        -9.003363,
        2.3143997,
        -6.40728,
        -6.224143,
        -6.973054,
        3.406948,
        4.049262,
        3.1263266,
        -9.981561,
        8.026928,
        6.09239,
        -4.9262424,
        0.71443176,
        -0.60521317,
        0.34856224,
        6.6877995,
        -7.2262383,
        3.2162085,
        -8.28674,
        5.788457,
        6.911396,
        5.323185,
        -3.4206123,
        -9.372599,
        2.1980658,
        -0.6243057,
        6.7067432,
        -3.9153023,
        -5.4489775,
        -3.9832778,
        6.512825,
        0.025218964,
        -4.087028,
        2.488986,
        2.570282,
        -0.040315628,
        2.87352,
        -3.9831872,
        -3.5727067,
        2.8071394,
        2.3371115,
        9.943682,
        1.8142262,
        -2.802009,
        4.677309,
        5.143551,
        3.3158722,
        -8.098356,
        -4.085309,
        -9.667559,
        9.127192,
        -5.8892245,
        9.366447,
        -2.1762528,
        -0.64778996,
        7.147547,
        5.943248,
        -0.80881023,
        -3.0043669,
        -7.3385477,
        8.012539,
        5.171239,
        8.992552,
        7.51453,
        -8.422179,
        3.8729534,
        -2.0763292,
        -4.9434824,
        6.857626,
        -0.93029404,
        9.62582,
        2.5775394,
        -4.821684,
        -9.704024,
        4.628109,
        3.7859716,
        -2.3584976,
        0.43418312,
        -9.356198,
        8.895916,
        0.25291348,
        2.3058643,
        -7.627446,
        -8.938804,
        -9.985385,
        4.32345,
        -4.82187,
        1.5330687,
        3.7433805,
        2.1341457,
        2.3022642,
        -1.1666317,
        -6.2287874,
        3.3487377,
        1.6046629,
        -3.2506366,
        8.249573,
        9.300205,
        -6.1202474,
        -5.364327,
        -4.556343,
        -0.8506813,
        4.197727,
        -8.014231,
        0.3119192,
        8.667208,
        -5.280165,
        -6.015851,
        7.8291054,
        -8.625266,
        9.825527,
        -3.6963315,
        -1.1674681,
        0.30214405,
        -3.5289664,
        -7.1614523,
        2.586976,
        5.3104296,
        3.71519,
        -5.979707,
        2.7504244,
        -8.046756,
        8.402742,
        1.763505,
        2.893859,
        -8.065395,
        -8.415243,
        1.9275818,
        -2.348527,
        6.2114716,
        1.9214239,
        -5.8203,
        -8.438231,
        2.4347506,
        -1.3108482,
        -7.6513643,
        -0.75718784,
        -8.808069,
        6.248331,
        3.6316862,
        4.0788565,
        1.8133965,
        4.808201,
        -2.1415844,
        -1.9032612,
        -0.025636673,
        8.104755,
        9.211124,
        9.174185,
        8.746769,
        -9.954362,
        -6.7638874,
        9.046713,
        1.9613829,
        -4.915139,
        5.2929516,
        4.5167103,
        1.7365923,
        -5.4064984,
        -9.368698,
        -5.135462,
        4.1581717,
        1.6531363,
        -4.3273563,
        2.6047697,
        7.637163,
        -2.1793594,
        8.183723,
        3.9564714,
        -0.07970524,
        -1.0838003,
        -0.49760246,
        4.493989,
        -5.2156324,
        8.271395,
        2.7518024,
        -3.2788105,
        -4.882583,
        3.1638155,
        3.0854359,
        -6.197924,
        0.92540646,
        7.838415,
        -1.0348358,
        1.9403992,
        1.0004482,
        4.8308506,
        7.5940456,
        4.859499,
        9.778082,
        -4.1816087,
        6.5898247,
        9.826054,
        -6.3043995,
        -2.8344293,
        -0.9207573,
        -8.669178,
        3.6122952,
        2.8411093,
        7.304268,
        -8.571014,
        4.135271,
        8.040806,
        -8.84761,
        4.436823,
        8.310715,
        4.6677914,
        -6.6796875,
        -6.735325,
        7.9887047,
        7.4619026,
        -2.4602427,
        -2.1573176,
        -2.1701946,
        -0.53613853,
        -8.648677,
        6.693363,
        -0.11320305,
        6.1642113,
        4.2414894,
        -7.531149,
        5.6920214,
        -4.1095824,
        4.9134455,
        -0.0822773,
        -5.2125163,
        6.424204,
        -8.780643,
        -5.0137205,
        7.47534,
        0.3949175,
        7.4040546,
        4.0010986,
        4.799224,
        -0.52710724,
        7.8054543,
        -4.917762,
        -5.22212,
        -4.9273987,
        1.7038641,
        5.8187,
        -7.126322,
        9.118967,
        3.9490042,
        -5.798759,
        7.8626003,
        8.837215,
        2.5690327,
        -5.7069297,
        -0.44895363,
        1.2850227,
        8.029591,
        4.794818,
        9.231068,
        -1.7359581,
        2.0369854,
        3.9323225,
        -3.4091158,
        4.497467,
        2.2383938,
        7.6011276,
        -2.9721684,
        2.8024015,
        -9.393578,
        3.4356012,
        5.655963,
        -4.7348423,
        -7.2660847,
        -8.577449,
        7.1477375,
        -9.698749,
        -8.298966,
        8.612692,
        -8.340988,
        3.5116634,
        -4.7036858,
        2.1865902,
        -3.8135452,
        -5.001282,
        -5.5432267,
        -0.61543655,
        -0.9944,
        8.820232,
        5.5814524,
        -1.2504425,
        -7.118084,
        -8.903734,
        7.031822,
        -8.7427,
        -8.070099,
        -9.3077965,
        6.8162766,
        3.10069,
        4.3069563,
        -5.624892,
        0.29203033,
        9.565853,
        -2.5656338,
        -9.499407,
        -0.4560156,
        3.7889633,
        8.040049,
        -9.976468,
        -7.909915,
        6.3137665,
        3.0981913,
        1.6625443,
        -8.781096,
        -1.5422239,
        5.778715,
        2.0385513,
        3.1449423,
        -1.5126076,
        -3.9690108,
        7.643471,
        3.3395138,
        5.748374,
        0.95272636,
        8.988228,
